<?xml version="1.0"?>
<MethodSetup Method="MLP::MLPBNN_MuTau_MZP800_MA0400_MDM100_nodes30_epoch1000">
  <GeneralInfo>
    <Info name="TMVA Release" value="4.2.0 [262656]"/>
    <Info name="ROOT Release" value="6.02/13 [393741]"/>
    <Info name="Creator" value="jhoward"/>
    <Info name="Date" value="Sun Oct 30 22:24:44 2016"/>
    <Info name="Host" value="Linux vocms0301.cern.ch 2.6.32-573.7.1.el6.x86_64 #1 SMP Wed Sep 23 10:12:03 CEST 2015 x86_64 x86_64 x86_64 GNU/Linux"/>
    <Info name="Dir" value="/uscms_data/d3/jhoward/WORKING_DIR/SeptProduction_76x"/>
    <Info name="Training events" value="14624"/>
    <Info name="TrainingTime" value="1.85683478e+03"/>
    <Info name="AnalysisType" value="Classification"/>
  </GeneralInfo>
  <Options>
    <Option name="NCycles" modified="Yes">1000</Option>
    <Option name="HiddenLayers" modified="Yes">30</Option>
    <Option name="NeuronType" modified="Yes">tanh</Option>
    <Option name="RandomSeed" modified="No">1</Option>
    <Option name="EstimatorType" modified="No">MSE</Option>
    <Option name="NeuronInputType" modified="No">sum</Option>
    <Option name="V" modified="Yes">False</Option>
    <Option name="VerbosityLevel" modified="No">Default</Option>
    <Option name="VarTransform" modified="Yes">N</Option>
    <Option name="H" modified="Yes">False</Option>
    <Option name="CreateMVAPdfs" modified="No">False</Option>
    <Option name="IgnoreNegWeightsInTraining" modified="No">False</Option>
    <Option name="TrainingMethod" modified="Yes">BFGS</Option>
    <Option name="LearningRate" modified="No">2.000000e-02</Option>
    <Option name="DecayRate" modified="No">1.000000e-02</Option>
    <Option name="TestRate" modified="Yes">5</Option>
    <Option name="EpochMonitoring" modified="No">False</Option>
    <Option name="Sampling" modified="No">1.000000e+00</Option>
    <Option name="SamplingEpoch" modified="No">1.000000e+00</Option>
    <Option name="SamplingImportance" modified="No">1.000000e+00</Option>
    <Option name="SamplingTraining" modified="No">True</Option>
    <Option name="SamplingTesting" modified="No">False</Option>
    <Option name="ResetStep" modified="No">50</Option>
    <Option name="Tau" modified="No">3.000000e+00</Option>
    <Option name="BPMode" modified="No">sequential</Option>
    <Option name="BatchSize" modified="No">-1</Option>
    <Option name="ConvergenceImprove" modified="No">1.000000e-30</Option>
    <Option name="ConvergenceTests" modified="No">-1</Option>
    <Option name="UseRegulator" modified="Yes">True</Option>
    <Option name="UpdateLimit" modified="No">10000</Option>
    <Option name="CalculateErrors" modified="No">False</Option>
    <Option name="WeightRange" modified="No">1.000000e+00</Option>
  </Options>
  <Variables NVar="9">
    <Variable VarIndex="0" Expression="read_pt_1" Label="read_pt_1" Title="read_pt_1" Unit="" Internal="read_pt_1" Type="F" Min="1.90026684e+01" Max="5.66820068e+02"/>
    <Variable VarIndex="1" Expression="read_pfmt_1" Label="read_pfmt_1" Title="read_pfmt_1" Unit="" Internal="read_pfmt_1" Type="F" Min="1.51501538e-03" Max="9.03672852e+02"/>
    <Variable VarIndex="2" Expression="read_pt_2" Label="read_pt_2" Title="read_pt_2" Unit="" Internal="read_pt_2" Type="F" Min="2.00011711e+01" Max="4.96408966e+02"/>
    <Variable VarIndex="3" Expression="read_pt_tt" Label="read_pt_tt" Title="read_pt_tt" Unit="" Internal="read_pt_tt" Type="F" Min="2.28557572e-01" Max="1.21131494e+03"/>
    <Variable VarIndex="4" Expression="read_m_vis" Label="read_m_vis" Title="read_m_vis" Unit="" Internal="read_m_vis" Type="F" Min="1.29419947e+01" Max="1.03446313e+03"/>
    <Variable VarIndex="5" Expression="read_met" Label="read_met" Title="read_met" Unit="" Internal="read_met" Type="F" Min="1.39193907e-01" Max="1.24369678e+03"/>
    <Variable VarIndex="6" Expression="read_P_chi_pf" Label="read_P_chi_pf" Title="read_P_chi_pf" Unit="" Internal="read_P_chi_pf" Type="F" Min="-6.46580261e+02" Max="8.45307129e+02"/>
    <Variable VarIndex="7" Expression="read_LPT" Label="read_LPT" Title="read_LPT" Unit="" Internal="read_LPT" Type="F" Min="0.00000000e+00" Max="2.26317432e+03"/>
    <Variable VarIndex="8" Expression="read_DeltaR_leg1_leg2" Label="read_DeltaR_leg1_leg2" Title="read_DeltaR_leg1_leg2" Unit="" Internal="read_DeltaR_leg1_leg2" Type="F" Min="5.00156224e-01" Max="5.04373837e+00"/>
  </Variables>
  <Spectators NSpec="3">
    <Spectator SpecIndex="0" Expression="read_npu" Label="read_npu" Title="read_npu" Unit="" Internal="read_npu" Type="F" Min="1.83242083e-01" Max="3.54367867e+01"/>
    <Spectator SpecIndex="1" Expression="read_event" Label="read_event" Title="read_event" Unit="" Internal="read_event" Type="F" Min="2.70000000e+01" Max="7.30739008e+08"/>
    <Spectator SpecIndex="2" Expression="read_final_weight" Label="read_final_weight" Title="read_final_weight" Unit="" Internal="read_final_weight" Type="F" Min="1.51793268e-14" Max="1.52416861e+00"/>
  </Spectators>
  <Classes NClass="2">
    <Class Name="Signal" Index="0"/>
    <Class Name="Background" Index="1"/>
  </Classes>
  <Transformations NTransformations="1">
    <Transform Name="Normalize">
      <Selection>
        <Input NInputs="9">
          <Input Type="Variable" Label="read_pt_1" Expression="read_pt_1"/>
          <Input Type="Variable" Label="read_pfmt_1" Expression="read_pfmt_1"/>
          <Input Type="Variable" Label="read_pt_2" Expression="read_pt_2"/>
          <Input Type="Variable" Label="read_pt_tt" Expression="read_pt_tt"/>
          <Input Type="Variable" Label="read_m_vis" Expression="read_m_vis"/>
          <Input Type="Variable" Label="read_met" Expression="read_met"/>
          <Input Type="Variable" Label="read_P_chi_pf" Expression="read_P_chi_pf"/>
          <Input Type="Variable" Label="read_LPT" Expression="read_LPT"/>
          <Input Type="Variable" Label="read_DeltaR_leg1_leg2" Expression="read_DeltaR_leg1_leg2"/>
        </Input>
        <Output NOutputs="9">
          <Output Type="Variable" Label="read_pt_1" Expression="read_pt_1"/>
          <Output Type="Variable" Label="read_pfmt_1" Expression="read_pfmt_1"/>
          <Output Type="Variable" Label="read_pt_2" Expression="read_pt_2"/>
          <Output Type="Variable" Label="read_pt_tt" Expression="read_pt_tt"/>
          <Output Type="Variable" Label="read_m_vis" Expression="read_m_vis"/>
          <Output Type="Variable" Label="read_met" Expression="read_met"/>
          <Output Type="Variable" Label="read_P_chi_pf" Expression="read_P_chi_pf"/>
          <Output Type="Variable" Label="read_LPT" Expression="read_LPT"/>
          <Output Type="Variable" Label="read_DeltaR_leg1_leg2" Expression="read_DeltaR_leg1_leg2"/>
        </Output>
      </Selection>
      <Class ClassIndex="0">
        <Ranges>
          <Range Index="0" Min="1.9011449813842773e+01" Max="5.1625500488281250e+02"/>
          <Range Index="1" Min="4.7868165373802185e-01" Max="9.0367285156250000e+02"/>
          <Range Index="2" Min="2.0001171112060547e+01" Max="4.9640896606445312e+02"/>
          <Range Index="3" Min="2.2855757176876068e-01" Max="1.2113149414062500e+03"/>
          <Range Index="4" Min="1.5352253913879395e+01" Max="9.2594702148437500e+02"/>
          <Range Index="5" Min="3.2727973461151123e+00" Max="1.2436967773437500e+03"/>
          <Range Index="6" Min="-6.4658026123046875e+02" Max="8.4530712890625000e+02"/>
          <Range Index="7" Min="0.0000000000000000e+00" Max="2.2631743164062500e+03"/>
          <Range Index="8" Min="5.0283843278884888e-01" Max="4.3583946228027344e+00"/>
        </Ranges>
      </Class>
      <Class ClassIndex="1">
        <Ranges>
          <Range Index="0" Min="1.9002668380737305e+01" Max="5.6682006835937500e+02"/>
          <Range Index="1" Min="1.5150153776630759e-03" Max="6.3193884277343750e+02"/>
          <Range Index="2" Min="2.0003391265869141e+01" Max="3.7718560791015625e+02"/>
          <Range Index="3" Min="2.9254564642906189e-01" Max="9.1235223388671875e+02"/>
          <Range Index="4" Min="1.2941994667053223e+01" Max="1.0344631347656250e+03"/>
          <Range Index="5" Min="1.3919390738010406e-01" Max="5.9045385742187500e+02"/>
          <Range Index="6" Min="-4.3884024047851562e+02" Max="5.6150872802734375e+02"/>
          <Range Index="7" Min="0.0000000000000000e+00" Max="1.9960347900390625e+03"/>
          <Range Index="8" Min="5.0015622377395630e-01" Max="5.0437383651733398e+00"/>
        </Ranges>
      </Class>
      <Class ClassIndex="2">
        <Ranges>
          <Range Index="0" Min="1.9002668380737305e+01" Max="5.6682006835937500e+02"/>
          <Range Index="1" Min="1.5150153776630759e-03" Max="9.0367285156250000e+02"/>
          <Range Index="2" Min="2.0001171112060547e+01" Max="4.9640896606445312e+02"/>
          <Range Index="3" Min="2.2855757176876068e-01" Max="1.2113149414062500e+03"/>
          <Range Index="4" Min="1.2941994667053223e+01" Max="1.0344631347656250e+03"/>
          <Range Index="5" Min="1.3919390738010406e-01" Max="1.2436967773437500e+03"/>
          <Range Index="6" Min="-6.4658026123046875e+02" Max="8.4530712890625000e+02"/>
          <Range Index="7" Min="0.0000000000000000e+00" Max="2.2631743164062500e+03"/>
          <Range Index="8" Min="5.0015622377395630e-01" Max="5.0437383651733398e+00"/>
        </Ranges>
      </Class>
    </Transform>
  </Transformations>
  <MVAPdfs/>
  <Weights>
    <Layout NLayers="3">
      <Layer Index="0" NNeurons="10">
        <Neuron NSynapses="30">
          -6.8714237913733200e-01 1.6211536632255634e+00 4.9716180016510436e-01 1.1039209772716199e+00 -7.2883380764667582e-01 -1.5672933465891892e+00 -4.0394321835056196e-01 1.0893959219992244e+00 -8.7399140399784947e-01 -1.2143461699841755e+00 -1.6611703789698096e+00 -3.6075723152973638e-01 -1.0899462530059072e+00 -8.9179565298509345e-01 -4.9862448114741154e-01 1.0145187154812974e+00 -2.2520658292948479e+00 1.4025217415743934e+00 -1.7997113589540448e-01 2.2550232014887741e+00 -2.2049706368777566e-01 -6.5083610998357333e-01 -2.8258030923966698e-01 -1.3944679295997636e-01 -8.9112750915378514e-01 -3.0593588171609154e-01 9.0092358527613192e-01 -1.3022622213084905e+00 -7.9400929598455994e-01 1.4391281461583044e-01 
        </Neuron>
        <Neuron NSynapses="30">
          -3.2304435377541396e-01 9.9739969019025132e-01 8.3691526308585218e-01 -1.2562252493838573e+00 2.9723617701080420e+00 -7.0345548510572509e-01 -9.7718246778065221e-01 2.1524127806915287e+00 -1.2062721486786505e+00 8.9428460947164135e-01 3.7530269501114533e-01 4.7416025680540463e-01 1.3380218096900389e+00 1.2177354509196650e+00 -6.3424425543102725e-01 -6.3015214758189442e-01 -9.0165864245262761e-01 -2.7089688970735293e-01 1.6873584125588748e+00 3.6007622882230352e+00 1.3109446472622204e+00 1.0763390037640221e+00 -2.3645847056407856e+00 2.0298873645127227e+00 -1.8098541525054319e+00 -2.4020293525597752e-01 -4.8509991063398894e-01 -1.9515649181351313e+00 7.2075273290738984e-01 1.0435624877898202e+00 
        </Neuron>
        <Neuron NSynapses="30">
          -1.4121415651738296e+00 5.1628452625662580e-01 -5.3773230124574423e-01 1.1100719828650623e+00 1.0233873791762012e+00 -2.2220289952875492e+00 1.1312849876779363e+00 -5.3503425644827918e-01 8.0681971743073055e-01 -3.5887149323796030e-01 3.7505658460180780e-01 -9.5504148560223512e-01 1.1113430031639719e+00 6.3263927823979149e-01 1.1557317602235757e+00 -8.8450645637457825e-01 -2.0337238613200221e+00 -1.4755937618419384e+00 1.2883549450798359e+00 6.1070107916797745e-01 1.6998577924907197e+00 7.4569257849512903e-03 7.7537566736794838e-01 3.0357003550875206e-01 -7.0567940841541588e-01 -1.1031878786861737e+00 4.3656535595966356e-01 -8.6919790852942247e-01 -1.0342819295120376e+00 -2.0752633258426343e+00 
        </Neuron>
        <Neuron NSynapses="30">
          -4.7155356035347507e-01 -3.5965292021078404e-01 4.1787641603748005e-01 -6.6690838801593089e-01 -2.1279887663764803e+00 3.7719826449962196e-01 -1.7503112581668537e-01 -1.1783523783771694e+00 -1.6789365599840689e+00 6.3367188085385939e-02 -1.1036963876558452e+00 -1.2538266588692364e+00 7.3616484974419727e-01 1.3265196826170589e+00 -9.5399897472988249e-01 2.0988162362543692e+00 -7.4323254205501579e-02 -9.7702562358110223e-01 -3.0119500998248311e-01 -1.6493909472225909e+00 -1.7175738371832263e+00 1.5261590769827632e-01 3.5508588477734293e-01 -1.6194205302926587e-01 -1.1801524976531168e+00 5.0913583169240695e-01 6.0113844956553197e-01 -8.7817263596581152e-01 1.0435380277181079e+00 -5.0092874901997209e-01 
        </Neuron>
        <Neuron NSynapses="30">
          -1.4842168634964603e+00 -7.5794480981869403e-02 4.9559387446229047e-01 8.5628191259939512e-01 -9.9658457432846004e-01 3.5343095540657882e-01 -8.8731718059709508e-01 1.9818473144554496e-01 -1.1013342084744242e+00 1.0865998597114610e+00 2.5862207382089614e-01 -1.5872189685918436e+00 5.4527405657321371e-01 -1.3327273062708782e+00 6.0116299875470465e-02 9.5133994207059036e-01 1.2174984447453818e+00 -1.2884171476123347e+00 6.0864893430579388e-02 -1.2691489373439762e+00 1.5618007658332898e+00 -1.5616088113199966e-01 -1.1656856302058682e+00 7.4609433056021957e-01 3.4558833808486733e-01 5.5913416488158196e-01 8.4175045704838836e-01 -4.2810896837219020e-01 6.3946791645931464e-02 1.2885079891593612e-01 
        </Neuron>
        <Neuron NSynapses="30">
          -1.6048757054894485e+00 2.7750889080238073e-01 2.9998091760407508e+00 -1.1143563459959303e+00 2.5780175939478571e+00 -5.0867109005434474e-01 2.4756841792944770e-01 9.0981770446871679e-01 3.7431542966576892e-01 2.2271307230000895e-01 1.4405388303141848e+00 6.8546186523735442e-01 3.1766845167250163e-01 7.2222718007739450e-01 9.0514726640722576e-01 -8.8640824352226177e-01 -6.9342863692841950e-01 5.6156008503767585e-01 -8.9164316464390425e-01 3.3147526093886772e+00 1.1792383011442147e+00 1.6586816563814231e+00 -3.7344643826965446e-01 1.3790055168825719e+00 1.9694309231611404e+00 -2.0530370002104634e+00 6.2501965738313214e-01 -1.9736540925983537e-01 -2.5145174799563819e-01 -1.0768168978090689e+00 
        </Neuron>
        <Neuron NSynapses="30">
          -9.5283784360562185e-01 1.2616446545533617e+00 -7.6959943737283087e-01 -1.3482689810727069e-01 -2.5413661347875260e-01 -2.5758578851716801e-01 6.7474160143549830e-02 7.6371410352045221e-01 -2.2183411123410901e-01 -2.5675144890760404e-01 -5.6433519436765933e-01 1.2223168759439245e+00 1.4769500505827049e+00 7.1320215307052204e-01 2.4191675418841471e-01 -4.4567864073297714e-01 -6.0858247463269388e-01 9.2066830708303715e-01 7.5873538973364507e-01 -6.9036246491924491e-01 -6.0754448358105573e-01 5.5783632430607417e-02 3.8817766622323030e-01 -1.3143893234245136e+00 1.2261755122719371e+00 -1.0985333810415938e-01 -9.4043151758214805e-01 1.9079797925812467e-01 1.8211466642472258e+00 3.6697965381537334e-01 
        </Neuron>
        <Neuron NSynapses="30">
          -1.5072987329788809e-01 -4.1818010706668275e-02 -4.1222033839116612e-01 -5.9213965040756988e-01 5.9667499534861897e-02 2.6847809980462451e+00 1.0514012902778218e+00 -1.8735388516631243e-01 1.1941858600009350e+00 -2.0596943570332278e+00 -2.0129844275999611e+00 5.1223781357105991e-01 -9.2376290552187623e-01 6.9698125900251462e-01 1.5201462778928496e+00 -9.7801721955702492e-01 2.0186142512050669e+00 -5.0794044049206144e-01 -2.2444405668846481e+00 -1.7783569569506421e+00 6.5874891913832867e-01 -1.9866202717277662e-01 1.0455846626301661e+00 -7.9656669120126600e-01 1.3913256386883401e+00 -2.0715977740207849e+00 3.0987390084569982e-01 6.0909753764585994e-01 -2.7844061261861741e-01 -1.6271956320131324e+00 
        </Neuron>
        <Neuron NSynapses="30">
          -1.5839664981444279e+00 -1.2368912071515035e+00 -9.8706424355240208e-01 -1.2396189889969738e+00 -4.0028816148245632e+00 7.5635464048529466e-01 9.2117830401872103e-02 -1.8854393169480836e+00 1.9679806604041181e+00 -5.7109556966416242e-01 6.7697006643616098e-01 -7.8241297215948447e-01 1.6828844183632796e-01 1.4074132645345541e+00 1.2301062732615335e+00 -6.5456485990713553e-01 -2.5202278181026001e-02 -7.9395772568146217e-01 -1.1166209526474018e+00 -2.4823495110097302e+00 4.1894473274293026e-01 -1.5896493137580892e+00 2.6382384882756860e+00 -2.0163863707421004e+00 -2.0362713210130054e-01 -1.5129996365325349e+00 -1.5990034439901761e+00 7.7221121508443247e-01 1.2822143496443896e+00 -5.2771984078208593e-02 
        </Neuron>
        <Neuron NSynapses="30">
          -2.9451205915493822e-01 8.0974187717773449e-01 2.6749550192728213e+00 -9.0425833295597891e-02 -1.4029214409950946e-01 -1.8692292761971230e+00 9.6279453532700177e-01 1.6149771730743070e+00 8.4296433351694033e-01 -9.4541398892819772e-01 1.4916333029466270e-02 -8.5542473386396556e-01 -1.6592132672715638e+00 -4.6980045646077073e-01 -1.6046857984571665e+00 -1.4246247822508880e+00 -2.6878853392352755e+00 1.9704668782016488e+00 -1.5154105994991764e+00 2.6838596660709273e+00 -1.1695782206115077e+00 5.1268090536572407e-02 -1.0803274974058661e+00 1.5064047705345538e+00 8.2899540010799444e-01 -6.3006250663842300e-02 5.7039134012691906e-01 2.7297484170570252e-01 -2.2941910728278274e+00 -1.0979208392031121e+00 
        </Neuron>
      </Layer>
      <Layer Index="1" NNeurons="31">
        <Neuron NSynapses="1">
          -6.8830387279896021e-01 
        </Neuron>
        <Neuron NSynapses="1">
          -6.2971304570805231e-01 
        </Neuron>
        <Neuron NSynapses="1">
          1.2334541048007381e+00 
        </Neuron>
        <Neuron NSynapses="1">
          -9.2375630688455457e-01 
        </Neuron>
        <Neuron NSynapses="1">
          9.4817186074261783e-01 
        </Neuron>
        <Neuron NSynapses="1">
          -1.8522831054742854e+00 
        </Neuron>
        <Neuron NSynapses="1">
          -9.8738233104689643e-01 
        </Neuron>
        <Neuron NSynapses="1">
          -1.1545743822688064e+00 
        </Neuron>
        <Neuron NSynapses="1">
          -4.1166971453435580e-01 
        </Neuron>
        <Neuron NSynapses="1">
          -1.8907519318539945e+00 
        </Neuron>
        <Neuron NSynapses="1">
          5.1361445804340888e-01 
        </Neuron>
        <Neuron NSynapses="1">
          -3.0942312653438769e-01 
        </Neuron>
        <Neuron NSynapses="1">
          -8.9803542188472829e-01 
        </Neuron>
        <Neuron NSynapses="1">
          1.1927569102966835e+00 
        </Neuron>
        <Neuron NSynapses="1">
          5.8607242863108781e-03 
        </Neuron>
        <Neuron NSynapses="1">
          -1.0771014348923089e+00 
        </Neuron>
        <Neuron NSynapses="1">
          1.5015053483198859e+00 
        </Neuron>
        <Neuron NSynapses="1">
          -1.1329009111269657e+00 
        </Neuron>
        <Neuron NSynapses="1">
          1.6809536483844074e+00 
        </Neuron>
        <Neuron NSynapses="1">
          9.3154727391278891e-01 
        </Neuron>
        <Neuron NSynapses="1">
          -3.1310068748221631e-01 
        </Neuron>
        <Neuron NSynapses="1">
          -6.9810072540502088e-01 
        </Neuron>
        <Neuron NSynapses="1">
          -9.8025073816226194e-01 
        </Neuron>
        <Neuron NSynapses="1">
          -2.2682218948314232e+00 
        </Neuron>
        <Neuron NSynapses="1">
          9.2194108017597465e-01 
        </Neuron>
        <Neuron NSynapses="1">
          1.7907291048844061e+00 
        </Neuron>
        <Neuron NSynapses="1">
          7.7620457563652878e-01 
        </Neuron>
        <Neuron NSynapses="1">
          1.1940037238293908e+00 
        </Neuron>
        <Neuron NSynapses="1">
          -8.1400499417007754e-01 
        </Neuron>
        <Neuron NSynapses="1">
          6.8847819391731557e-01 
        </Neuron>
        <Neuron NSynapses="1">
          -1.5343062985552061e+00 
        </Neuron>
      </Layer>
      <Layer Index="2" NNeurons="1">
        <Neuron NSynapses="0"/>
      </Layer>
    </Layout>
    <InverseHessian NElements="109561" NRows="331" NCols="331">
      <Row Index="0">
        3.7396373053296658e+04 1.1673333679998653e+02 -4.6115170134424346e+01 3.1757929823212329e+01 -9.3083200517118385e+00 2.5813490890544511e+01 1.4377319162209562e+02 1.6061211243161821e+02 2.2795401953093588e+02 -1.8757521570879597e+01 -5.1521447873392844e+01 -1.1505765366893061e+02 5.3285444084878909e+03 1.0705753337004599e+03 3.9153775291076306e+02 -6.1151238023188363e+01 -2.4647319048184722e+00 6.2845305485737563e+03 -3.9464630714306544e+01 -1.6666668731975651e+01 -2.7484868500689696e+04 -1.0532064398062916e+02 -1.0595494339739098e+02 -1.0333867512499477e+01 6.0404523727957438e+00 -2.6653975655171757e+03 1.6817003553414722e+02 -8.6228360927375167e+00 4.9365495893326383e+01 -9.9464092113756912e+00 -1.5738572484177716e+04 -1.9015450020297735e+02 4.1316353825869953e+01 -1.0548316373511618e+01 5.0183584872335572e+01 -2.4648414978976739e+01 3.3616077221026629e+01 4.1657017931259361e+01 -5.6391318411333850e+02 1.5318488560308474e+01 4.2916470868918459e+01 -1.2881218357530491e+02 -4.4675500722403476e+03 -1.5351376617098138e+03 7.7878511942557873e+02 2.3379883931052884e+01 -3.1835036778206163e+01 6.0099097692942200e+02 2.0547932232395642e+01 -5.7139855022190389e+00 1.6815546681873555e+04 1.3537861379324119e+02 -4.7712457161391711e+01 3.7961296152607588e+01 -1.1290095476887241e+02 3.7756978629128221e+03 -2.2367476076580004e+01 -7.6114571251774123e+02 -1.1582609725437609e+02 -1.9249718634627278e+01 3.4431355512898875e+02 7.0659297540106138e+01 -2.1411921055672256e+01 -4.5797084259521476e-01 1.7357238994286071e+01 -4.0505932483510321e+01 1.9300031069112433e+02 1.3662343977235574e+01 3.2088129164447815e+02 4.1383382020893755e-01 8.0215628468499602e+01 2.1956621829825673e+02 -1.1148452524510135e+03 -8.9101736416192125e+02 -4.3608007185366105e+03 -1.2927366787297777e+02 -1.0719305739935056e+01 5.1156334477965356e+03 -8.1126912077581501e+00 -2.4286977655736681e+00 -2.3345157124703774e+03 -2.5271370439944810e+01 -2.6299732094261152e+00 -3.8969356027351458e+00 -1.3434985940834579e+02 4.1634712885421877e+03 -5.4231719261220235e+00 -4.6761062459728032e+02 4.2548638545897529e+02 9.2616315234066221e+01 -2.5341305688585300e+04 -5.7097681807022703e+01 2.4034510536462374e+01 -4.2885626546912476e+01 -1.6027630601890898e+01 -2.6170132158412940e+01 7.2518675839784251e+01 -5.9365997859777849e+01 -4.0251273605801134e+02 2.4860280290877224e+01 -6.6767778112518329e+01 4.1515460796661216e+02 -9.6183049058133645e+02 -9.3311238476034600e+02 -2.7200591996762723e+03 8.7729011266507186e+01 -3.3834015185501261e+00 -2.4675025516008634e+02 1.0170783902389186e+01 4.8273100346935944e+00 8.9667642413549183e+03 7.5778328824959516e+01 8.1804216089642381e+00 -5.0893186479787875e+00 -4.9051335216841458e+01 1.3451409590030453e+03 -3.2814849277025701e+01 -2.9760871455624886e+02 4.4243834455657520e+00 -3.6226358295930915e+01 4.4565305830437028e+03 -1.9338910140083584e+01 -1.3972859922768968e+01 5.1338502959629665e+01 -1.2391623747323381e+02 -3.8429524759871384e+01 8.1782643240602653e+00 -1.2151053650698849e+02 1.3842670371724046e+02 7.0120690403947165e+01 2.7309188462523809e+02 -1.8613434996917260e+02 4.0274353637532549e+03 1.6820871006897034e+03 1.9112029748048772e+03 2.0240748905372001e+01 6.7731496409844070e+00 5.1889453434728175e+03 -2.0788986452516856e+00 2.5806657269945561e+01 2.5781800116558452e+03 -1.4519961629442383e+02 7.5462019210825915e+01 -3.9859613153321263e+00 1.5284762635934655e+02 -7.6217148108252204e+03 -2.5945079585389198e+02 6.2363943184926188e+02 1.6287411096876423e+02 2.9578710234359687e+02 4.7053647570004636e+04 6.3237688086117778e+01 -2.1858019379701950e+01 -6.2247712188517525e+01 -8.6797152080078845e+00 3.3544210170826950e+01 -1.5255711558716584e+02 3.6369893176460749e+01 4.3852405453033396e+02 -3.3046643432608519e+01 3.1135376932173351e+01 -4.9883942198018372e+02 2.4892294820926459e+03 8.8955169922352206e+02 -1.5962721852337199e+03 -6.5370886119447562e+01 1.1097588417300809e+01 5.1392377993558093e+03 -3.0604141280246889e+01 -3.8187179499738457e+00 -1.1291765310980603e+04 -1.7365003809500314e+02 -2.0785447353697357e+00 -7.9543071517707631e+00 1.3167778017773432e+02 -2.6659890855271274e+03 -5.5329242029952255e+00 7.9098742119525014e+02 2.9884634341488794e+02 7.9576244250822583e+01 -4.6398860443971571e+03 -7.7207837691563261e+00 7.1311843109597319e+00 1.3248787649928421e+01 2.2506262864301799e+01 9.2353474463902110e+00 -8.8199923392182740e+01 4.1042578646593213e+01 -3.6355758810996122e+02 -1.1145757533770823e+01 9.2595893568820117e+01 -6.5145247771220443e+02 -2.5587507732749568e+03 -3.5752419336441358e+02 -2.5732234274876282e+03 3.3577005312357208e+01 -3.3337348603047928e+01 1.7527235418378120e+03 1.4198673440167024e+01 8.6426214490929016e+00 6.8392763613697725e+03 -1.5533543098695326e+01 1.9738086128677834e+00 1.9235316827296220e+01 3.4094327138190913e+01 1.0594156401395503e+03 4.8217308252872932e+01 1.8679818562353006e+02 -4.1374412823675590e+02 1.2603882092199740e+01 2.1752705735591593e+04 4.1116610570172760e+01 -1.0652926469985026e+01 -2.4489702572250700e+01 -8.9293857726102210e+00 2.9113214838651906e+01 -4.3448122918652260e+01 -2.7254372331028890e+01 2.8924509880798740e+02 -1.5663270505636007e+00 9.5756230745688853e+01 -3.0987667404918608e+02 4.3253829497975621e+03 -1.9305640061891836e+02 -3.2417170833907585e+03 3.3800087061597822e+01 2.3474485716099295e+01 4.7772033036961739e+03 1.6970159932441327e+00 1.1151466782737911e+00 -2.2194266523119040e+03 -7.8976143277076858e+01 7.1554529302536437e+01 -5.0864300206895354e+00 4.0533328795603282e+01 1.9693312643935242e+03 -1.1342713810379487e+02 2.2959992145544189e+02 4.9872541992289973e+02 1.9431931446743334e+02 1.9315277766561110e+04 6.1167740939990793e+01 5.1624406686538267e+00 -4.3358246261637468e+01 -1.3627028575813432e+01 1.2849454500951975e+01 -9.3997373757513607e+00 -2.1575617227940618e+00 3.1568015094030130e+02 -9.3895155598261457e+00 8.8152973030418622e+01 1.9117042963582335e+02 2.8668348645913184e+03 -5.4139006584549520e+02 3.9918556482462855e+03 1.7418707350724343e+01 2.3747666217885750e+00 5.7597913530741216e+03 1.1904252497062078e+01 -1.7434357413004193e+00 -2.8780988236083408e+03 -5.1944671056485888e+01 2.5061580745115535e+01 4.1821099864740940e-01 -8.2728268312395290e+00 2.6763794765208459e+03 2.0297684512529312e+01 -2.2817856150184861e+02 -1.5220788700234783e+02 -7.9948252959941414e+01 3.7503872531659705e+04 1.0771155229864203e+02 -3.9534941425032017e+01 -5.5228743520660494e+01 -9.9116316005066864e+01 -3.7380598220961105e+01 1.3422024201662751e+02 5.0632508034636658e+01 6.0653381030555477e+02 2.7488247143997597e+01 4.3190829579697476e+02 -6.8989503982742156e+02 8.9829381736292889e+03 3.8839331337864917e+02 5.2982314078199488e+02 -6.7383735104546957e+01 -6.7104822117762239e+00 1.2520526086001142e+04 -2.4831922257309827e+01 7.2599920274655148e+00 -1.5401451932446405e+04 -3.1835871703393593e+02 -3.3308587050657152e+00 5.0288188860001313e+00 7.3213502202823193e+01 -4.6253343597205358e+03 -1.6934180743818979e+02 5.1236533335653826e+02 1.0291939212002912e+03 3.7211234615368880e+02 -1.3887561975719454e+04 -2.1984730931897047e+01 -2.2478563787314950e+01 8.0686729033258672e+01 -1.7571327754534455e+01 7.7067372688815141e+01 9.7383156505020992e+01 1.0563718455226301e+02 1.9835334407894186e+02 1.9085974268936624e+01 -2.0305877767529591e+01 -5.2768439245094470e+01 -4.9068532845976688e+03 1.0463648465207580e+03 -4.0384024348350408e+01 7.5323274475593905e+01 -5.3422677178415441e+01 1.1071386338712526e+04 2.0060093859263478e+01 1.3759224146963433e+01 -3.6194636065805080e+03 -2.8688050919294592e+00 7.3207167710604210e+01 6.3413112411990369e+00 -1.4071410046651670e+02 -6.8630768060718865e+03 6.6483321644944226e+01 -2.8221812787968702e+02 -6.0346569777441732e+02 7.2653695450824671e+01 1.6944352461567898e+03 
      </Row>
      <Row Index="1">
        1.1673333738993529e+02 6.0107172616586048e+01 1.9762311954834462e+00 1.9102420091198020e+00 8.4262905277419298e-01 -8.3334416519220911e-02 -2.0270864533037969e+00 7.7046867716933747e+00 -7.6850687415651695e+00 -1.2483319939394515e+00 5.1655291909191048e+00 4.2805128213942538e+00 1.0685860186615659e+02 9.8891945288497263e-01 5.6747198684599510e+01 -3.6265191581027711e-01 -2.2057894493026313e+00 5.8875747527749041e+01 1.4129721619098436e+00 3.2117040237164196e+00 -1.4373577277959708e+02 3.9920301095627324e+00 -2.9529681550969640e+00 5.8684305352983190e-01 -1.7588993844176219e+00 -3.3439999929762564e+01 1.1537460214308087e+01 -6.1922292332601341e+00 -5.5767826055204681e+00 -5.2056106122778152e+00 -7.1366124452531793e+01 -1.8609816028996626e+01 -9.1448885198699059e-01 1.4194777827972005e-01 -4.7018857899469912e-01 5.0715616919620676e-01 7.5749819677210173e-01 -1.0506902349675252e+01 -1.5662586960002777e+01 1.8245722715661454e+00 4.4440950384430806e+00 -8.1680483126785752e+00 -4.2058856268490175e+01 -8.4661027878813684e+00 2.6228491072115943e+01 1.2507796112945868e+00 -5.7853357254594728e-03 -1.5200350940546809e+02 -2.1939117704661144e+00 3.3307131844142912e-01 2.6514246165736819e+02 3.7050184912076904e+00 6.0744329043954188e+00 -7.0213707741964804e-01 -3.2046364524998294e+00 4.3353468902177255e+01 -2.8232685204734238e+01 3.2548527954242921e+01 -5.2258139604949587e+00 -2.1506614942029252e+00 1.1148328027648125e+01 1.5642572975587461e+01 1.5197031090353608e-01 -5.5473621850601562e-01 6.1817466566557244e-01 -7.9606065080879396e-01 1.9010952013107030e+00 7.5159214453608936e-01 1.9403024792075822e+01 9.3406103078279945e-01 4.7157273048051740e-01 -1.7593038868176913e+00 -1.8370692169027670e+01 1.6254244281806427e+00 4.7152216188296620e+01 -2.9660330658237184e+00 -1.7902232013423327e+00 5.9112398277567863e+01 8.9962249970066432e-01 6.6243158749413000e-01 1.2714543468145754e+02 1.2574437665029463e+00 -2.5807291170117574e-01 4.7933345931819132e-01 -1.5165113384456954e+00 8.8073445919489330e+01 -1.4233933122485274e+00 -1.0426109907043301e+01 -4.7013535869516350e+00 -2.3604657485350211e+00 -4.2635142759684136e+01 -2.8538216027239166e+01 -9.9095867663807469e-01 4.3971335040682069e-01 -7.3806009609803802e-01 -6.5255007545375310e-01 -8.3120369500575320e-01 -1.5709916391200671e+00 -3.1740856732250315e+01 5.2269207155336972e-01 6.0469877842426740e+00 -2.4504568529761284e+00 1.6372442685114262e+01 -8.4520633385673740e+00 -3.3034423185883497e+01 1.1189925697138179e+00 -2.6307624328744339e-02 3.0462984444692225e+00 7.5876534887728631e-01 -4.9843430700962915e-01 -9.8155391706356909e+01 -1.5555151076664520e+00 -1.5696734688059388e+00 7.9819104952725484e-01 5.5273497727797372e-01 1.3704614154364938e+02 2.2887507693732552e+00 2.8859395665779832e+01 6.2251429432537080e+00 7.0732577616382564e-01 1.1449239233728940e+02 -3.3907004130575530e+01 -2.7624551079530111e+00 -2.5377658882402061e+00 -1.8033634118752659e+00 6.6458456014019562e-01 9.9910780271148303e-01 -4.2780932826892339e+00 -2.7002077972767793e+01 6.6702735293537851e-01 -1.2667432573455885e+01 -6.6417333140436536e+00 7.3828951767188471e+00 2.7407775749559470e+01 -6.2740756351369100e+00 1.4570292912580634e+00 4.6734251866450904e+00 -5.9437898276240105e+01 -3.0954740831495391e+00 -3.3735151287123530e+00 -1.3626112836505740e+01 -3.0345715753329117e+00 -3.8150342746580801e-01 -1.1882056498043936e+00 1.9992036956081818e+00 -2.5526401363912757e+02 -1.1152559332655727e+00 3.3018712646744234e+01 3.5488387940559463e+00 1.4205894081546688e+01 2.6385521363939677e+02 2.7961580942765824e+01 4.4900630711501810e+00 -7.0612077037892473e-01 1.0778221813238780e+00 8.4337260240857703e-01 -2.1421180638787503e+00 8.0480700067635205e+00 1.9468002331993020e+01 -1.5541648659578486e+00 -7.9650530230286121e+00 5.0648281845900982e+00 -3.9646665172492028e+01 8.8666072843469941e+00 -5.3614033708495299e+01 -8.3871862804820410e+00 -7.0600938867557672e-01 3.4809157581273496e+01 -1.6360255463740742e-01 2.1764950171743358e+00 -1.8396715758097878e+02 1.2378448288196058e+00 -3.2409259100190337e+00 -6.7907312801368036e-01 2.8572954582231445e+00 -1.3570129308854249e+02 1.2156463454765230e+01 -1.0382293569250578e+01 3.1034228553961896e-01 2.0149897999887774e+00 -1.2504574993993924e+02 1.6974512315553849e+01 -1.0190209054494677e+00 1.8555075023831002e+00 -6.9017522958561983e-01 9.6540840565204311e-01 -3.2707213125683365e-03 -7.3103877960577766e+00 5.5156487829732495e+00 2.0000430980649861e+00 3.3999673287849372e+00 -1.1059936594282789e+01 -6.6566549113061086e+01 -7.2766120014794993e+00 -1.1427809449163760e+01 2.4525008820976901e+00 4.8665927646496243e-03 -4.3014240520150921e+01 -2.7633934856940656e+00 -8.3654156989735007e-01 -2.6213691218548297e+02 5.3572592613085828e+00 7.2731848170993558e+00 -1.7328680640680377e-01 -3.2912793621965566e+00 -7.6270466346639466e+01 -1.7909630192139527e+01 8.5193576289928625e+00 -3.8640691830676055e-01 -1.0069449501312813e+00 -1.3744573195092983e+02 -3.8583064092144674e+00 1.8698031690096384e-01 -1.4316636194510846e-02 1.1222420181143378e-01 1.6021806351242907e+00 3.5984943301700385e+00 5.1014196722131255e-01 2.9128706575468151e+01 -4.4817944826305856e-01 -3.3641552942398145e-01 4.2612805039451018e+00 7.8494064007036727e+01 4.7059132752074717e+00 -1.4318901598174307e+01 -5.4350534073692192e-01 2.5976896498237850e-01 4.7373851381168137e+00 -1.1042745495264032e+00 -8.5250136728657544e-01 3.7297906380394136e+02 8.2935020714390095e-01 6.9111068648870944e-01 3.0182640144131001e-01 -1.9097356333350444e+00 6.7417391717033411e+01 9.2200896229762108e-01 7.5303886698904599e-01 5.3094233982083949e-01 -5.4427577110646777e+00 2.1845699244663720e+01 -1.0151767239544123e+01 5.8630370573320956e-01 6.2928519308100461e-01 3.9182702385570749e-02 5.3247944325361896e-01 5.6051310623205508e-01 -1.6208813763666394e-01 3.6323041909969540e+01 -9.1157075482302308e-01 3.3642168925465867e+00 -3.4285220872645528e-01 3.0794060256583791e+00 -8.4895875896478099e+00 -1.1168399194327787e+02 1.3708299169240812e+00 -8.7847441542115057e-01 9.7025878173515977e+01 1.1288468854713769e+00 -5.2166252196570895e-01 2.9047779262994243e+02 -2.0914392073575074e+00 1.5069903559377185e+00 7.9441491454756152e-02 -7.2533809709524222e-01 9.4771060178438020e+01 -3.3720708133480639e+00 -2.1067589191327464e+01 5.7362269766932563e+00 -5.6691032740760869e+00 -3.6216317336976445e+01 7.1593252282381208e+00 1.4431479961011930e+00 -2.7714513751653369e-01 -4.0605290022965512e-01 1.7294903462529845e+00 3.4200323098685281e+00 -6.1953163974974146e-01 2.0134544314938367e+01 6.9553143457015121e-01 -3.5256352122717107e+00 -2.7731733267458019e+00 1.0854138879403862e+02 1.6592013938393549e+01 1.4129220900495966e+01 -7.3961974497058502e+00 1.5351068963967074e-01 -7.7021417729916948e+01 -2.5095288257551358e+00 9.1388325141320292e-01 2.5621288601818924e+02 3.2380845544060795e+00 -2.8895834872581516e-01 -2.5126387809256467e-01 -2.8013524699201051e+00 -9.5044153167008588e+01 -6.4636171865457177e+00 1.7716271246826857e+01 -2.8211790973062634e+00 -9.3321196047254595e-01 3.4756449792245959e+01 2.7391445178231308e+01 -3.1028927376695021e+00 -5.3847673742701563e-01 -2.3424998269212485e-01 2.7185131683593342e+00 1.5601445634473441e+00 3.4078774437940735e+00 1.7991025828608898e+01 -6.0867449831640205e-02 2.4113029212589461e+00 5.6713162781574700e-01 -1.1553600950309360e+02 1.2127451102772334e+01 2.2200070266782880e+01 2.7353997198553168e+00 -2.9284287522708010e+00 -2.7551865702775608e+01 -1.7498060422112780e+00 -1.1353482898170930e+00 1.2845204350613361e+02 2.1161742707817455e+00 3.2221083639149999e+00 1.1904664887563365e+00 -1.4145717176805266e+00 9.0550399689586101e+01 -8.5457692137806589e+00 6.4444479881500634e+00 1.1114519605433518e+01 -1.4092140693366204e+00 -4.6253784495842062e+01 
      </Row>
      <Row Index="2">
        -4.6115169834476518e+01 1.9762311923554430e+00 3.5661080533969045e+00 3.3078090802138865e-01 4.1972916560722956e-01 -3.6154828269245881e-01 -3.5671248694139646e-01 1.1234669348328674e+00 -5.2133681870169140e+00 2.3475452817728594e-02 -1.2488883094602718e-01 -1.0135168857417842e+00 4.8874521176400894e+00 3.3794102731966097e-01 4.7755246706999372e+00 5.6009235363160137e-01 -3.3621643738625806e-01 7.4590671560536066e+00 8.6556953121094363e-02 7.7836727998180477e-01 -2.9083727417823440e+00 1.0977740203373609e+00 -5.3548838961779116e-02 3.7673684973144894e-01 -1.8247240656014574e-01 2.2153389621871842e+01 -6.1022042633908657e-01 -5.4915073071150133e-01 -1.2012332358264346e+00 -4.1261095860175323e-01 3.4325838768361258e+01 -1.5930792872383366e+00 -2.3166329810942456e+00 -6.9668075209733749e-01 -2.8066448401254490e-01 2.1055094212378275e-01 6.8283254622351230e-01 -9.1074550108545904e-01 4.3698205545741260e+00 -1.2639363026216682e-01 9.2258350510296783e-01 1.4555314393038816e+00 -1.0124359840975160e+01 3.6122204640879705e+00 -3.6999526559436617e+00 -1.0221755342687819e+00 1.4033387825878779e-01 -4.0956553487028074e+01 -1.3843656115766512e-01 4.3127343514007288e-01 1.6610740355906870e+00 -1.9294736124394927e+00 4.8308902269285781e-01 -8.0296505923698636e-02 3.0176609340959187e-01 4.3145140979260077e-01 -1.3820797882643145e+00 6.3028720503648987e+00 9.4919999636277996e-01 -9.6403829665779306e-01 9.7362726465193781e+00 -5.8004943236797946e-01 2.3010955219734594e-01 -2.7907343528320416e-01 2.9767290227908022e-01 1.1089787502834675e-01 9.9346784218384554e-02 9.5559560483222589e-02 -1.9342632631163474e+00 3.0772891159519748e-02 -6.1206350327541637e-01 -4.3290592836799946e-01 3.2750325127051778e+00 7.5309751407450900e+00 2.2826963813842497e+01 1.1860221624070821e+00 -7.6576925769849938e-02 -2.4791834857819204e+01 -3.1513434939586665e-03 2.1305404251757101e-01 2.8879808341741153e+01 6.9459755327942396e-01 2.3988174496765466e-01 2.4042763772371412e-01 1.3854656952958444e-01 3.3076805346214555e+00 -5.5910601116933323e-01 1.5319658823492777e+00 -5.3961017432736424e+00 2.4264377488655998e-02 2.5727970899695165e+01 -1.6248109569876148e+00 -7.1573408231558266e-01 -2.4506629065424845e-01 -5.5976766675607292e-01 3.6763888535910916e-01 -6.5308726202764367e-01 -6.1794958612770379e-01 4.9516966784197924e+00 -2.2265774125276858e-01 1.6819702457975751e+00 -7.7923330926057055e-01 2.3638825043409097e+00 2.5018059603494596e+00 8.0134273052372009e+00 -2.3525632186176213e+00 1.3787978614223168e-01 -9.8365738800262115e+00 -3.1062698504397124e-01 -6.4239441298971933e-01 1.9254249188518529e+01 -8.5136545100696182e-01 -4.7214280447899293e-01 -3.2361252050151545e-01 -4.1534740621491140e-01 -2.6630040952666619e+01 8.4292925668148477e-01 3.8361264168223377e+00 2.5937904711002719e+00 5.4940016864779440e-01 2.4460719334081613e+01 3.1307918377750321e-02 -2.1009878356026968e+00 -5.4890570287576756e-01 -7.3681012313426064e-01 3.3806102286333001e-01 -5.4726389359349115e-01 -6.3786189188509446e-01 2.5083082264187055e+00 -1.5823395466331255e-01 1.7896315247504688e+00 1.4382700308972594e+00 5.0206591441998398e+00 -8.4399161508927421e+00 -4.5151239630593452e+00 -1.7830619728916166e+00 3.9543264366049746e-01 -1.5206113713548078e+01 1.4151085641436759e-01 -3.6838347197915589e-01 1.2421989189798836e+01 -7.1163600598090337e-01 -7.4205381545879723e-01 -3.5919987841656037e-01 -3.6263919772334419e-01 -6.2613665253474863e+01 1.5800886820410749e+00 -3.4615239275275833e-01 -2.9596366918493598e-03 3.3893614257428606e-01 -5.9388568363952267e+01 1.5338523053114135e+00 2.5179774926670069e+00 8.6500771476219041e-01 5.7746861159316742e-01 -5.1345562724968075e-01 5.0563107964526377e-01 1.1002883171840074e+00 -7.3946908796042532e+00 4.2025673669088093e-01 -1.6347119554456120e+00 -1.0716750241574848e+00 -5.7464546238963410e-02 9.8609122369765245e-01 8.6278456217050916e+00 2.3660636336266418e+00 -4.0014023118459457e-01 1.0108231861359680e+01 4.3956419933262603e-01 6.4708804236076534e-01 -3.1673318847176851e+01 9.5038480648174595e-01 -4.4420328695987971e-01 2.9490011435545638e-02 -6.5730110129239794e-02 1.3049501803841931e+01 1.0358324693925953e+00 -7.2296668475865129e+00 -6.1999190582219299e+00 8.0780107395094314e-01 1.9657701602132470e+01 1.4597973651685905e+00 -1.1490400726775016e+00 -2.9390775318405632e-01 -4.1384539526516206e-01 -1.1741908083405114e-01 1.4545141192992619e+00 5.2797788673786505e-01 7.9188410768960837e-01 1.4973610106893487e-01 4.1241878791614495e-01 2.2016594834383572e+00 -5.6702447430913470e+00 -3.8800261866577124e+00 9.7235628069168456e+00 -9.4257904256861669e-01 1.0445224995992031e-01 -9.6036808435390100e+00 2.7083477965118419e-01 8.5138497550160397e-03 -3.5123773302057373e+01 -1.4912641411836458e+00 1.2465378828782510e+00 -3.5152396126009483e-01 6.8691192612164675e-01 8.6741787391975436e+00 -1.4264116683721142e+00 -7.9821913001688505e-01 7.8324826985545775e+00 -5.7698541636745038e-01 -1.6835166221990740e+01 -3.4932143950190153e-01 -4.4031232478700855e-01 2.0033300690600495e-01 1.8245816418125771e-01 -1.5104628557392752e-02 4.6830976926466761e-01 8.4027837369443203e-01 -6.1835326894273290e-01 1.9969442946107255e-01 5.9356267561863157e-02 -2.2708972818123674e-01 -1.9615969667553346e+00 7.3383062562399672e+00 9.3859449223882621e+00 1.1877620094296022e+00 -2.5173434668233874e-01 1.5234953304097051e+01 3.5235980928147959e-01 -2.3812363852656382e-01 -1.9572071284455220e+01 -2.1335899501070954e-01 1.2768997194548068e-01 -1.3659558769579200e-01 -4.8825221351383485e-01 3.4934157491088627e+00 7.6665809887381586e-01 -1.0126997825837969e+00 -3.6237341222089299e+00 -1.1791013606256973e-01 -2.1187174953574495e+00 -6.8777299205170306e-01 3.9751538228330563e-01 1.2222002316773256e-01 -1.7126921055828342e-01 1.3796048989647119e-02 4.7041522666623581e-01 4.3345847806720839e-01 -1.3578540324193398e+00 2.2545387156817467e-01 -1.1016875455038417e+00 -5.1472526807509217e-02 -4.5227941879578166e+00 3.8268732542233970e+00 -3.5141223829757450e+01 1.4327789543666489e+00 -1.5694167076998528e-01 -1.5063205754643818e+01 -5.0639409478610065e-02 -3.7136630335194037e-01 1.5247256303001169e+01 -3.0926539714807466e-01 4.1419229318868683e-01 -9.0484921353867681e-02 -1.7119076896672109e-01 8.2528460618084978e+00 -6.4311139183690935e-01 -1.6755405622319368e+00 3.1582957744366658e+00 -6.1200927995146537e-02 -2.8282754086695238e+01 -5.3886419199761004e-02 7.9178304468842886e-01 -2.7062412810958902e-01 -2.5161506300487613e-01 8.2320549910022023e-02 9.7624824701155644e-01 1.0103409466637947e+00 -2.5560862286616373e+00 5.2448786209244536e-01 6.5920195492437283e-01 -4.9617977990686635e-01 -1.1013720640960628e+01 7.4481390064367172e+00 -1.3764600848098780e+00 1.2526871173443208e+00 -3.2287467094005151e-01 -2.4906548591328722e+01 4.5185044241604100e-01 4.8051711130813246e-01 -4.1053903688366745e+01 -1.5825655158201004e+00 -6.8628508839644009e-01 -2.8638676322479284e-01 -7.4176542262599310e-01 -5.5638065575293538e+01 1.1230728059336030e+00 -3.7346478383159774e+00 -1.1046890909066345e+01 -8.8602990098757051e-02 -7.5953650435424258e+00 7.5273718007326185e-01 -1.0652134570175107e+00 -1.9779466507099799e-01 -2.6316620454890538e-01 2.3141465221564572e-01 -5.5556356162526049e-02 1.3966928617313281e+00 -9.0753508908588731e-01 -4.8899291827129060e-01 8.1097314581088742e-01 -2.9283965940448498e-01 -1.6326014924137223e+01 -4.2708622758588035e+00 2.8380653566299245e+00 -1.7813779840057393e+00 -2.3813580191870742e-01 1.7211634780961766e+01 -1.5657240544539808e-01 -3.9116645943804107e-01 -4.2922872567441503e+00 4.2009143385442094e-01 1.4083904846171869e+00 1.2092797055290316e+00 2.2021891384018666e-01 -2.5866631270997470e+01 -9.1846123122264056e-01 1.8370114577541163e+00 7.9453567737725326e+00 6.8033630426204361e-02 -5.2290533305305931e-01 
      </Row>
      <Row Index="3">
        3.1757931393751630e+01 1.9102419940010908e+00 3.3078090801469751e-01 9.7431441655343640e+00 -1.3275206409546697e-01 -1.1917955000009286e+00 -8.0974045192865352e-01 -1.3024763728911232e-01 -1.4336046338434976e+00 1.0218140683298765e-01 -5.4559214815080137e-01 1.7746378256525832e+00 1.9083292976903561e+01 -1.0161039346690768e+00 6.2793210126476140e+00 1.2067774933159212e+00 -9.4266221778831183e-01 1.9507890454412411e+01 -4.7403680018505995e-01 1.6379325683502599e-01 -6.2996832350794712e+01 -8.3070875405079181e-01 -4.4623521224612772e-02 -3.3500199424681909e-01 -2.1157950909418341e-02 3.4875564947178503e+01 9.8704965717012305e-01 -4.6506773034723246e+00 -1.0580299533167551e+01 2.3910059441097182e+00 -5.4328971600471398e+01 -3.7602135741707468e+00 -2.3666699068952768e-01 -7.0742780024390139e+00 -1.7575298125794347e-01 9.8565271485134376e-01 2.5564809776461517e+00 2.2673288378592288e-01 1.6604259029203108e+00 -4.9805196631901799e-01 1.8475822481046384e+00 -1.7457999390207228e+00 -3.7221055199148232e+01 -1.2457000266077211e+01 1.7679396017531417e+00 -2.4542986926664998e+00 -3.4083791608092184e-01 -3.6023234135198734e+01 -1.2888507238877489e-01 -5.2832262292979992e-03 8.9632430750187382e+00 5.4622158493565154e-01 -9.0436699674338961e-01 -8.4695994618818049e-02 -1.1625702133924892e-01 -3.6082651827588620e+01 -4.6119162246029397e+00 8.4234054354884051e+00 1.3137150303874098e+01 -6.5523358444726371e-02 -2.4243229357197290e+01 -3.2478753957841544e-01 2.6183451523821938e-01 1.9649415518370570e+00 -2.1820471600572575e-01 -1.1334923167850885e-01 -2.3796668738492812e+00 1.3711938043808480e-01 -2.0831827271371881e-02 -1.0360542955261121e-02 -2.1425045139640958e-01 1.8236826356045588e-01 -1.8974794356691369e+01 -2.9390475194491272e+00 -6.3784419693620293e+00 1.3124167794906372e+00 -7.3858548513974265e-01 5.8292197090894859e-01 -4.5173057304548769e-01 -1.5859033021036542e-02 -5.2399303328373293e+01 -2.8718468498084138e-01 4.9207396456658892e-01 -1.5261783541909521e-01 8.1138413408248192e-02 -5.8087589950471880e+01 -3.0569518408559992e-01 -1.3000319150767332e+00 -2.2467978907221395e+00 1.9470198272230940e-02 -4.9187559257486335e+01 -3.5008365983417788e-01 -2.3911599314863341e-01 -2.4467380611725700e+00 -1.8948135017172377e-01 6.8384980137066009e-01 -6.3761336588555673e-01 2.1780500435395442e-01 1.3370814080962115e+00 -5.8300100097258656e-01 9.8402641269875568e-01 -3.2726913829005126e+00 -1.7491416086523682e+01 -9.5088795391420948e+00 2.5882141052397856e+00 -2.0935322028285395e+00 4.3026883760287349e-01 6.9904307456369565e+00 -6.7646973614458616e-01 -2.0344128152555388e-01 -5.4522388587413673e+01 -3.9123912434220781e-01 4.1521819377296226e-01 -4.1783623787835775e-02 2.0537042608079903e-01 -8.0221421705124953e+00 -1.1895112292942167e-01 1.7822447724213273e+00 5.2107128261809805e+00 1.1521367435971979e+00 1.8092572656589837e+01 2.3742238464330390e-01 -1.0175111382694810e+00 -1.0344454029068408e+00 1.0345511850625071e+00 3.5864019443904313e-02 5.7311532342568361e+00 3.9996002544996456e-01 9.1160581297923038e+00 1.1694940559736240e+00 1.8024486157615962e+00 -4.7112645456868663e-01 -1.9154713983904003e+01 4.9260938506412302e+00 1.1785930026167904e+01 -2.0302360690230525e+00 3.6874671668904491e-01 -2.0749791474350303e+00 1.4336731350033463e+00 2.3191620321894502e-01 -1.0359460132089719e+01 1.8386702154675827e+00 -1.0639684160810243e+00 4.6546251756946860e-01 -1.9888810787116817e-01 2.9074401428426711e+01 6.7310896148651107e+00 -3.9124471891997730e+00 2.7528714985447982e+00 -3.0560808237709978e+00 1.0945183592360880e+02 1.3692320374920075e+00 -3.7869302919959463e-01 1.0554204261198739e+00 3.4306200130591125e-01 -8.9265920841370872e-01 -3.7918865557594463e+00 -5.4212427831473742e-01 -4.9912654869196711e+00 4.8388700096157178e-01 -1.6682133236281138e+00 1.1764905252035605e+00 1.2638751423303916e+01 9.6660080150933254e+00 -3.8717246053653298e-01 3.3975942048220746e+00 -1.8092787598119334e-01 -6.9376297024690174e+00 -5.7805222267558376e-01 2.1517042211852402e-01 2.0099144973486496e+00 1.7055986962791723e+00 1.0094082396401971e-02 1.7575333823823902e-01 -3.0547957978567197e-01 -3.6363807926596664e+01 1.2114317413140290e+00 -2.1811478708039007e+00 -1.3130531863903958e+01 -6.3732000352549134e-01 -6.5544291414403489e+01 -4.5127919477044047e+00 1.7070119658381550e-01 -2.3727684858294498e+00 -4.4197576491344326e-01 1.0861773185911054e-01 4.9731041338485754e-01 2.1584628040349996e-01 5.8209815720128359e+00 2.2753414768863708e-01 1.5032388435547672e+00 -2.1181261624255154e+00 -3.2393424709677596e+01 -3.9394192150797300e+00 2.3348802625600911e+00 -4.5512001292493478e+00 -6.1979695561029535e-01 -2.5881187585711370e+01 4.3909080071264411e-01 1.1347999708178236e-01 1.4203872217235373e+01 -4.9490338779995952e-02 -5.5808258676420275e-01 2.6536463334444732e-02 -5.4985250336453861e-01 1.8077220424391175e+01 -2.4858196024615506e+00 7.6530578375861413e+00 1.6790415428165623e+01 -1.2851344777702602e+00 2.9570187152348709e+01 -9.1771936408829413e-01 -2.8274152432723976e-01 -1.3750702334460128e+00 4.0830867395630438e-02 3.5966074320112962e-01 -4.7574632385979738e+00 -7.5200426348765670e-02 1.2637233362398796e+00 -6.9354900605847369e-02 -3.6255385004274771e-01 3.1588517443990178e+00 1.3001378146486200e+00 -2.0529466949498132e+00 -1.3776394939658076e+01 2.0418359377446080e+00 5.7445218785943719e-01 -3.2276056391974457e+01 3.1943971248908620e-01 -2.3940127657314583e-02 4.4357473795626369e+01 -1.1680333141368138e+00 4.7183427944901433e-03 2.2168613517468572e-02 -1.2418217187968197e+00 -8.7640254579888349e+01 8.9832688018450657e-01 -1.8017680531735842e+00 2.4781257570146487e+00 -2.8300052955671875e+00 -1.5025667226570544e+01 -2.7985308757325494e-01 1.2838331067738271e-01 -1.5277132961714841e+00 -3.2999802780644166e-01 3.2917109717570697e-01 -3.0375699556768891e+00 -2.6532681540460623e-01 -1.4498775960491450e+00 -2.9522411836209289e-01 -9.2944246994670654e-01 7.5004614221066107e-02 5.9819031639478908e+00 -3.2748148269332025e+00 4.7142979815708138e+01 1.9606753682913447e+00 2.7420885385277205e-01 -8.1828141844672633e+00 -7.3444496938703385e-01 -1.9536777940003264e-01 5.2169364085321632e+01 -1.4294866125930563e+00 6.6308484900930487e-01 -2.5467537943759860e-01 -5.6090904312142953e-01 -9.3687716967615415e+01 -4.3964468395108197e-01 3.3246735048301668e+00 1.8119512573881680e+00 6.6137028138407183e-01 6.2256447619265153e+01 -1.7488733169008279e+00 -1.1765221010800080e+00 7.2680527534131079e-01 4.1991651593645396e-01 6.4215219380126184e-03 -4.9565285730338964e+00 6.1387466936996482e-02 7.4461031145566325e+00 4.8379740122721193e-01 7.4717221474005613e-01 1.6909287311980754e+00 -3.8287375029955271e+01 -5.2246564930105768e+00 -4.7427380588160304e+00 2.2937660619051035e+00 -7.0974165999184147e-01 -5.4529027036246887e+01 -6.1304801240543894e-01 2.1828825819143383e-01 -4.5374495816402487e+01 2.2870046270905231e-01 -7.0335304107316698e-01 -7.0022430472474848e-02 -1.7384871725981497e+00 -7.9708062438288650e+01 3.2933453109388502e+00 -2.7240473951791788e+00 -2.2258239399800583e+00 -1.6469568478324454e+00 -1.4349594473139595e+01 -5.2771826395557686e-01 4.1379706115587495e-01 4.3720817244410028e+00 -3.9859333553284110e-02 8.3940358540819404e-01 -4.6243376541011889e+00 -4.0505351913663756e-01 -5.1712199089662869e-01 -4.1012283472953415e-01 9.3472082013463242e-02 1.4882935315256574e-01 -5.2961085313022089e+01 -2.8468266069245551e-01 1.1102856731740063e+01 -1.2435837158038441e+00 -1.0279862004349962e+00 1.8952832641828216e+01 -1.3747796943470503e-01 -1.3763053832115874e-01 -1.4999406812970429e+01 1.2783444806612714e+00 3.7936935937174909e-01 2.5694776064288155e-01 -2.0196583510977040e-01 -5.4187977988840387e+01 -3.5677703591040810e-01 -1.3194195293968871e+00 2.2159149377215654e+00 9.9426254447806173e-02 -3.4047384582664511e+00 
      </Row>
      <Row Index="4">
        -9.3083202604947068e+00 8.4262905342047745e-01 4.1972916539941207e-01 -1.3275206476034973e-01 2.7464024135125884e+00 -2.7917130857811356e-01 -7.3849741113558665e-01 6.9422217538132858e-01 1.5791054441645807e+00 -3.7175922993493427e-02 5.8997131036044881e-01 3.6973852621068826e-01 -1.5404597897281551e+01 -8.4966626037473514e-01 2.7261983622367723e+00 2.7657574712839944e-01 1.2515386115114374e-01 -7.4814240826749234e+00 4.6994652240855228e-01 -1.2351862264039601e-01 8.8851456945156535e+00 1.4763234324433929e+00 -9.0940495600617599e-01 8.2020055870677877e-01 -4.0813008602535938e-01 -3.6657873659352438e+00 6.9126171121419910e-01 -6.0575423858023703e-01 4.4189015451158753e-01 -5.5681805035407317e-02 -8.4053729302114757e+00 -7.0383679736742732e-01 -6.3158848212628704e-01 1.8708181999657716e-01 -2.4104860311929617e+00 -1.6047255864115662e-01 -3.4648561548246887e-02 -9.2272170684017396e-01 2.1086458440663014e-01 4.6458721924611146e-02 1.9437776088159403e-01 -1.5718732124526105e+00 1.6540772350617523e+01 1.9576624401561915e+00 5.0473198120434404e+00 -6.8432184178766609e-01 5.6328623421366131e-02 -1.9214425514589037e+00 -1.3920839469286572e-01 -8.4414569726349820e-01 -8.8929766472501228e+00 -2.0047733321074768e+00 1.5320100134350150e+00 -1.0163893215271504e+00 2.8087604630552093e-01 -1.0684312753557954e+01 -2.4191202158877453e-01 2.9489631159837666e+00 -1.7621072336217786e-01 -1.0031028480142362e-02 1.3982610266687754e+00 1.6055954681973067e-01 1.6557691011516698e-01 1.9357473273641101e-01 5.8754066859485754e-01 -5.5196625537810400e-02 -3.4169702561028203e-01 7.1215715873544402e-02 -4.2218413006730982e-01 2.3221236303973991e-02 3.9993931515682080e-01 -2.5774112280567951e-01 4.2188508206767228e+00 1.0848254372548594e+00 3.2700974400671612e+01 4.9118869658070441e-01 3.0176218884137029e-01 4.5776754325747859e-01 1.3696313509861913e-01 -3.5975730563081537e-01 4.1811179685420541e-01 5.6195098138089872e-01 -3.8621790317165428e-01 7.5548227104069304e-03 7.9073973720336088e-03 -7.4560385440186714e+00 1.3749342370907514e-01 4.4676798669913709e-01 -6.0013051389272043e-01 1.3393107172465391e-01 1.4439293963638669e+01 -2.5160884629642366e-01 -3.9704640668869595e-01 1.7808835177332571e-01 -8.6274745194819558e-01 -1.2540275971766329e-01 3.1191400443478234e-04 -7.5750776291202498e-02 -3.8735893070801364e-01 -1.8329292435088740e-02 6.5464213416827510e-01 2.8713837644601004e-01 9.5523657413564642e+00 3.1474423975692440e+00 -4.0823399870612320e-01 -4.3389715821792008e-01 1.2894045338522508e-02 -8.1667472492166944e+00 -1.9401067094315122e-01 3.7362830753186599e-01 -1.0339245128988104e+00 -3.8057733226913992e-01 2.2979852554187830e-01 -3.9873241879743537e-01 5.9511513045502284e-02 -8.2018691229590246e-01 -8.1280844996791446e-01 3.9778477232256093e-01 7.7249167631365812e-01 -5.5800164128786467e-02 2.7578733055268438e+00 -1.8018285000170509e+00 -4.8377958833006551e-01 -7.1700228127924856e-02 -2.2647304798259618e+00 1.3474047209617657e-01 6.7296645597185178e-02 -4.9791690135454991e-01 -1.3374983471008939e+00 -1.5898913372844703e-01 -1.7260168062732100e+00 7.8108564747134346e-02 1.1490938781450112e+01 -2.2165909125799459e+00 1.3370929384023214e+00 -1.2464746248174197e-01 -1.6895065755589633e-02 2.2559691369361765e+00 -5.1303188076259565e-01 2.9614631185990170e-01 1.1810055958797033e+01 -1.8103866358843126e+00 7.1053597341455355e-01 -4.5705469058354636e-01 2.2070780325086381e-01 -1.4446419649748066e-01 -2.4939925635506031e+00 1.4748289772003345e+00 -6.3021385721459677e-01 -9.4523702440588053e-01 -7.1532539235853712e+00 5.7961146314697953e-01 2.2562441739039685e-01 7.9921397878705891e-02 1.9295187602919319e+00 5.3683416327667655e-02 4.7917344976258586e-01 6.6428638224978376e-01 3.3583838792021214e-01 -3.3320719326160875e-02 -1.1355446314847919e+00 4.0291274971708813e-02 -1.4605683498635628e+01 -1.8613553906793419e+00 5.8492226550115447e+00 1.1407261295740292e+00 1.1559302802361376e-01 -2.7511640580104135e+00 1.0717607578516952e-01 -9.2179745215097475e-02 -9.7547065054895654e-01 1.4310628617838175e+00 -1.0774461549881309e+00 8.1405977082404313e-01 -6.6287698005546569e-02 2.2043495131771360e+00 6.0790535215975749e-01 1.2705284607601339e-01 4.1307836717307028e-01 -3.3961301691984480e-01 -5.8028335699181071e+00 -4.0720251647648109e-01 -1.5352896233684116e-01 6.5846426871779676e-02 -1.3561349407869148e+00 -1.3920199993746610e-01 1.7640329195172136e-01 -4.3270819511318381e-01 1.0468180216763703e+00 1.2379604578882303e-01 4.4171302653841987e-01 -2.7767377011373195e-01 1.1175413391472404e+01 -1.0893312354044055e-01 4.3482320954540228e+00 -9.5597121654902173e-01 -2.1824134754053426e-02 -7.5756858155940074e+00 -2.1180213738538511e-02 -2.6917938420524479e-01 -7.5335028611109749e+00 -1.2297437219183758e+00 6.3664112307983323e-01 -3.6046850896255683e-01 8.0260096893662980e-02 -5.5933591703521941e+00 5.9035336640062808e-01 1.4734338180446982e+00 -5.2549899053280269e-01 3.5172286899976429e-01 2.7708708567293314e+00 -7.1460213599856415e-01 -8.9759723503995748e-02 5.2939909135143226e-01 -4.0439573598207607e-01 1.3964260365540326e-02 6.2885528310697447e-01 -2.7615933269861698e-01 -2.1126061054441796e+00 3.3499002846288373e-02 -6.8685494935416536e-04 2.8825204890917511e-01 -9.4223214878149228e+00 -2.8529567589065330e-01 -8.4006314716535258e-01 1.2594175369124192e+00 -1.2486928505396847e-01 3.9790133405983809e+01 -2.0099175639052985e-01 2.3994913107671076e-01 -8.3503930926334888e+00 -3.4541218124300155e-01 1.2493756191449715e-02 8.3448553213356480e-02 2.1264134647925204e-01 -9.6737332985935254e-01 -1.0472974301469455e+00 2.2412875716097869e-01 -2.4454464421373920e+00 1.8238597054350691e-01 2.4463145074397517e+00 5.9546311691804399e-01 1.2525687654272424e-01 2.7225630905557879e-01 3.6164020717608497e-01 -1.1052198926735389e-01 8.1363631351380611e-02 2.7245893434535051e-01 -4.8205658519059336e-01 -4.5314747838681634e-02 1.9652379209275594e-01 4.8320231627045412e-01 -5.1096667844003463e+00 1.2644047485328704e+00 -2.0311904477123591e+01 -4.3984637229115997e-02 4.2049591806217999e-02 8.2094164214828353e+00 1.1577722397550708e-01 2.1736484207964710e-01 -1.0204416371905619e+01 3.6045713517769729e-01 -4.8743051119552150e-01 1.0755110717267508e-01 -1.1091601085057745e-01 -3.4675761424809934e+00 1.2214515324552671e+00 -8.5325015004219529e-01 1.5009051241798943e-01 1.2228954184048887e-01 2.0047837767534968e+00 -1.0902766237278172e+00 -5.4742904339074749e-01 9.1285426058426977e-01 -4.2706251105365101e-01 -4.5880725429206104e-01 3.3910102709499418e-01 -3.1422667555715789e-01 -1.8243828325716356e+00 -8.8345077195515792e-02 -1.0396688324516812e+00 -7.6716366405164904e-01 -3.1706729982503816e+00 -1.4694537705112509e-01 -2.1479137600759941e+00 1.8990409842613867e+00 3.0883100055898949e-01 1.2206745691826869e+01 -1.9200385257093494e-01 -3.0978135740834367e-01 -1.7213706279182929e+01 -9.3967008001396335e-01 7.0834103664829451e-02 -2.0452530351460496e-02 8.5798607812531014e-02 -1.2752138169094792e+01 -1.4122196900512147e+00 1.5277221994010857e+00 -2.3080871609798224e+00 -7.3604919508691147e-01 -4.0701182612557574e+00 -1.5553219840256838e-01 2.3905422600197895e-01 -2.9799609332309618e-01 9.8639343888104455e-02 -3.1892173953924702e-01 1.8217397297373605e-01 -2.2909002421843605e-01 -6.0307694592553429e-01 -2.2005253773222044e-01 2.2056307632290467e-01 -8.7964833477953697e-03 9.6146627620143370e+00 -2.1423907695267816e+00 -1.6658986251093970e+00 5.0667453053905354e-02 5.8885675444073970e-01 3.6286143497789407e+00 -1.1384118055690952e-01 3.1576119813979853e-01 -4.0080306063717419e+00 3.7781963469033633e-02 -4.1223667258543406e-01 -8.2132030295982306e-01 7.8970740266900735e-02 6.4437383378555699e+00 6.5752616240517980e-01 1.5064725727207153e+00 3.9103116384271275e-01 1.6001064073648674e-01 -4.5076079257624349e+00 
      </Row>
      <Row Index="5">
        2.5813491645273132e+01 -8.3334402367613691e-02 -3.6154828333591266e-01 -1.1917955087426393e+00 -2.7917130703457471e-01 4.4057276714863995e+00 -7.4544941356887917e-01 6.0257547804451739e-01 -1.2154174540273405e-01 8.2678351065089128e-01 -5.4248287437605802e-01 2.0708968060696491e+00 1.7111434035294327e+01 4.1571666909726259e+00 -8.7404665299239213e+00 -4.1537723772065621e-01 3.3710208204359544e+00 -3.5186259540979677e+01 -1.1066560874237514e+00 5.5535849680658034e-01 -5.5231492824751527e+01 -8.5299425653019534e-01 -1.3045505608027727e-01 -4.0247276511607222e-01 4.1854015908901465e-01 5.1641255986468586e+00 4.4765777894593128e-01 -1.1785496657704628e+00 -3.0522299619896707e+00 -2.7636521743813791e-01 -4.2472007062724671e+01 -1.8891942412547951e+00 1.2883833013750162e-01 1.2344559230844467e+00 3.1459651539207756e-01 -1.6769719591547771e+00 1.1360446446455290e+00 2.9806819595692818e-01 3.6652831021300358e-01 -3.5209445206797385e-01 2.2771075204310787e+00 -2.2325086106569656e+00 -7.6173255373226425e+00 -5.0507910202748807e+00 2.5435568410063070e-01 6.2335949715723871e-01 -5.3652075465989069e-01 1.0209168767756122e+01 1.1028445766748269e+00 -7.2841179351480267e-02 6.5305116417199741e+01 9.7636545496468030e-01 1.7668826010706107e-01 1.0921488981010752e-02 -3.0959105522699781e-01 -1.0307436191710053e+00 1.6225656519636300e-01 -6.2805401109038583e-01 1.5179136905936508e+00 -2.4413698864811686e-01 -5.4070876814716886e+00 -1.5464637968160466e-01 -2.7795317283973709e-02 -3.8783157711576388e-01 4.9211255039405447e-02 2.2460423682894395e+00 8.9446573088693970e-02 3.3578961113410022e-02 -3.3704625772078717e-01 6.7036424350419432e-01 -2.9949599045193374e+00 2.9427045369401061e-01 -7.4412154883989921e+00 -3.1946156555492036e+00 -6.8929257058411508e+00 -4.9411069401090579e-01 1.1079642931081248e+00 2.4653127454735607e+01 -4.7093330815425105e-02 9.2358374099675622e-02 2.9177316159382860e+00 -3.1780251086756761e-01 -2.3768461751598337e-02 -9.1321671960151993e-02 -3.1621297025899264e-01 1.7751506426111288e+00 2.3393718696110610e-01 2.8254255169744447e-02 -2.2258250842820706e+00 -8.9287087971242463e-01 -1.4646289959666433e+01 -5.6265189224038892e-02 2.4293415916767203e-01 4.3717117971484498e-01 1.4185317961746322e-01 -1.0258804917929547e+00 1.7212206812473130e-01 -8.8270767212551315e-01 3.6404191709158551e-01 1.8978134231948535e-01 2.9627046812264615e+00 7.8317399338020621e-02 6.1625262393857982e-01 -4.0257927781068741e+00 3.3508095342722299e+00 -4.5259984190881442e-01 -2.6566290099542783e-01 -8.8789463277868634e+00 6.8435456102169123e-01 -1.4694009635973704e-01 -3.9022693698960325e+00 5.1975132548732828e-01 -1.5914059557843174e-01 2.6502787834424357e-01 3.9264303454829008e-03 5.0038882552188824e+00 -3.9901871163540759e-01 1.8910254768773580e+00 2.1181701953542387e-01 -2.6446489907131676e-01 -5.7738980033555393e+01 -5.8890277397629553e-01 5.5592825375960842e-01 8.3753785625532973e-01 -1.3131417895854736e-01 -2.7079897955972800e+00 5.0161708665727467e-01 -8.4897649204695136e-01 1.2092761259726981e-01 -1.0699391026280145e+00 9.5643496220414015e-02 -2.2142528404406621e+00 1.4045632475484240e+00 1.0511280273160040e+00 3.8424240157089855e+00 -2.8285180351210748e-03 -2.5189343955632975e+00 1.1678979453872834e+01 9.3706675634631686e-01 -5.2502691181008265e-01 8.0176228708190422e+01 2.8670966927949337e-01 1.8412727025580278e-02 2.9487062370249684e-01 -4.4881577689976337e-01 8.1216101719895164e+01 -7.1132111084168403e-01 4.9542205758351168e+00 1.4190670869898405e+00 1.2155768393594713e+00 3.9879461667929831e+01 1.5884080799895548e+00 -5.2987265608805778e-01 -1.8377517878867355e-01 -3.3569563622389076e-01 1.9491096060964608e+00 -2.0308161236220084e+00 7.2953552768869456e-01 8.9118038217821394e-01 -5.4438942351274910e-01 -3.9680187483038880e+00 2.8539877822696704e+00 -1.0049529710761769e+01 2.1254250033106281e-01 7.5971131945339039e+00 -1.6109289331012733e-01 1.1345868820024259e+00 -5.7010978519592470e+00 -2.0766273471300928e-01 5.6457570116125466e-01 -2.4428947906978379e+01 -1.0897640784077991e+00 -2.0016998051092477e-01 -3.2789656167703618e-01 -7.3808332001774535e-01 -1.9401911916856683e+01 7.1532129875258166e-01 -3.7914242082926513e+00 2.5947188934103194e-01 -2.5609549975292101e-01 -8.7228995208500351e+01 -2.5113537496450178e-02 5.0857322577746777e-02 4.9388835694051270e-01 2.7158677723024116e-01 -5.2295621590081842e-01 4.3017434732668508e-01 6.7506163929127272e-01 -2.5160571441209481e+00 3.7341126670534297e-01 1.3968965753359788e+00 -1.3675094901460665e+00 -9.3996078715664773e+00 -1.6923295287805216e+00 2.1070847627579496e+00 1.4056326214198709e+00 1.0106131356695512e-01 -1.3172169800005372e+01 3.2188171381828756e-01 -1.3446668512398219e-01 4.1254525872840361e+01 2.2449642965901850e-01 6.9259489318550793e-01 6.0349122443908110e-02 -8.5880519168093916e-01 -1.1144165069976328e+01 9.1649090527327925e-01 -4.0363295631468228e+00 1.7670646902878919e+00 -3.4285408736380418e-02 4.9506347054640884e+01 1.8572360238821863e+00 -7.6658736146494322e-03 4.8414394067633482e-02 -1.6104254256955569e-01 -1.2999468805293239e+00 -7.4444669866574165e-01 6.2456658292854783e-01 -1.9093949595302487e-01 1.4868698056301803e+00 -8.5747271827859306e-01 5.2630860855541055e+00 9.4744378997810674e-01 7.7670250888145809e-01 -1.4619416225651094e+01 -1.5469376601105784e+00 -9.1060411903315785e-01 1.3000804554557877e+01 -1.0798132515472012e+00 -2.0754410387724981e-01 4.0897207535742666e+01 -5.4928781766271140e-02 1.0924847907037402e-01 2.8842507736437706e-02 -1.4355124420297782e-01 4.8915314543181037e+00 6.3064997950987434e-01 2.5073114672127543e+00 3.7907168697448341e+00 -1.2761157754828207e+00 3.3761461905194281e+00 1.8180358961575873e+00 -2.8476072388153060e-02 3.2095994795533531e-02 5.0470112714543464e-02 5.7819197665998932e-02 -6.6218378649424259e-01 1.7262984212157290e-01 -2.2158859260663495e+00 3.9838493242569395e-01 -3.3498017377778266e+00 8.7589880765186767e-01 -1.0211210967710849e-01 -2.1597464267001536e+00 8.3283448707592242e+00 -7.2134908620173332e-01 3.4883614878952490e-01 1.0182810880808606e+01 -8.2449108103285679e-02 -5.4976651035089169e-02 -3.4323910164486264e+01 -2.2777532986000182e-01 1.3702726441654264e-01 -6.2619164104344913e-03 -8.6230847201070215e-02 5.7043157822336070e+00 9.1361255605656999e-01 -1.9435570146692283e+00 1.3341082897761680e+00 -9.0781402159822699e-01 4.8889721395564884e+01 2.2868700422835166e+00 3.6928117080116341e-02 4.8022760612761162e-01 -2.9084857451340329e-01 2.0516776689867524e+00 -1.5714065364875061e+00 6.4294354464720671e-01 -2.6189664362396341e+00 1.3665277798992665e+00 -4.8407181342312597e+00 5.8483866591771738e+00 1.2523541152796646e+01 -3.0073008280767510e+00 2.9160598133448730e+00 -2.1566228213181216e+00 1.6628592779562168e+00 -5.8064345441730296e+01 8.2141611577687845e-02 2.0294113357558796e-01 5.6721925265495656e+01 -6.0231161014823353e-01 -1.4936661796374473e-01 -1.3896454196620456e-01 -1.0673707718877887e+00 4.2783448519256012e+01 1.6074769088581915e+00 2.6595913498563242e+00 1.3406726743756074e+00 -1.5420726363587640e+00 1.1063055532692387e+01 -4.4898336083682211e-01 2.4748424308041062e-01 -3.8995617358054485e-01 1.2364604539954863e-02 -3.3561070202633654e+00 6.8153880986711768e-02 1.1069608417673107e+00 -1.4152903104448708e-01 -4.1318833193996509e+00 1.5726820314945527e+00 2.5385008216686056e-01 -1.7982256197013025e+00 6.5584377372095206e+00 -2.7274757745912481e+00 -6.2045876405295275e-01 2.3471608133683235e+00 6.5377902499684211e+01 7.7232301410209869e-01 -2.1152166532621430e-01 1.9848853230472194e+00 -2.4227418736841824e-01 6.7164695163312016e-01 -1.1940704667088992e-01 4.8390139330743720e-01 -9.6408000889028585e+01 2.7922546035110063e-01 7.2862496610556349e-01 1.1525348566801918e+00 -5.3930297462331644e-01 2.3353636849237919e+01 
      </Row>
      <Row Index="6">
        1.4377319041961164e+02 -2.0270864491002847e+00 -3.5671248570802261e-01 -8.0974045326638810e-01 -7.3849741132195457e-01 -7.4544941840868773e-01 2.8018490146218131e+01 -3.8073892681249157e+00 -1.0171303631543996e+01 1.0017894510356875e+00 1.6533680683891923e+00 -5.3767476182260978e+00 5.8366958544703152e+01 -3.3486833787266201e+00 -3.8292284743574697e+01 -1.0692577686857612e+00 8.5979687837464902e-01 1.1219503148503566e+02 8.1078535721159017e-01 -2.2524739234919267e-05 -1.0518157634762650e+02 1.6398526329929335e+00 2.0040077111661336e-01 3.7883304232703408e-01 7.3259092240672263e+00 4.6894256396812409e+01 -5.4624637283630584e-01 7.3658128793092157e+00 7.5450805219268635e-01 -7.7038687018675978e+00 3.6453809962301257e+01 1.9487294615591537e+00 -6.3926127773387353e-02 1.9610520583211621e+00 7.2376827061070370e-01 9.5322607419418770e-01 -1.1601018547074228e+01 -9.2965317631214528e-01 4.9423521177193139e+00 -4.0877014494662411e-01 3.0114481109513882e+00 3.8831009040098863e+00 -7.6610733993055277e+01 -5.7039924979921324e+00 -1.5992661651094370e+01 7.1387029563743631e-01 -2.4259511524823241e-01 -7.9743674939171200e+01 -1.6165134355431139e+00 5.6335960508930860e-03 7.4786651783986173e+01 -1.2170905359827877e+00 1.5876669405642296e-01 -2.8263894965737801e-01 -9.5050252635184087e+00 -7.4485320562803309e+01 -1.4245391559267855e+00 4.2203553825357467e+00 -1.1719295701184365e+00 4.4695482362970891e+00 -6.4565717169410448e+01 -4.8190757378034421e+00 2.3066252453888941e-01 -1.2638561386255740e+00 3.7007622258106793e-01 -2.2751656520238144e+00 1.1775966303729863e+01 3.9720331320761505e-02 -2.1092976727237622e+00 1.9256886945144174e+00 2.5072743285078909e+00 -3.1169329545503173e+00 2.5117398673959155e+01 7.9548640021945944e+00 2.7407591669734131e+01 -1.6687987788180394e+00 7.2337952742232092e-01 3.2978249114612744e+01 1.2452285916878822e+00 -1.6641959011102067e-01 1.2324181851573917e+02 6.1106214334808817e-01 -2.9722817618011366e-01 4.2423125870159173e-01 -5.4462320595359026e+00 -1.6230883729186090e+00 -3.5784871392312558e+00 -1.1172747895862669e+00 3.1301108762498728e+00 1.7345148844292095e+00 -2.8855066363419905e+02 -2.0537848685174902e+00 2.3464189611967057e-02 -9.5394207793986663e-02 1.5316680295738599e-02 -7.7921007112088936e-02 5.0713173803199463e-01 2.1321312441851932e+00 -3.3239439068368033e+00 5.0468999703036421e-01 -4.4426939114758035e+00 -6.1847916839740922e+00 1.0069076977082521e+01 -1.8733717536102978e+00 9.0940181396526896e+00 8.4046838301721944e+00 1.6325654649888344e-01 -6.4408498523041828e+00 -5.7607694675760690e-01 -3.8981151801407021e-01 -1.8420688960639644e+01 -4.4968541737189321e-01 2.0904480762937521e+00 -3.2665256333407378e-01 -7.1047038156906108e+00 5.2459639951496001e+01 1.1223191714118386e+00 9.1604529478226446e+00 -3.7880683755032560e+00 1.5427046487341567e-01 7.7057157636128238e+01 1.1216560261253639e+01 9.8486319542506529e-02 4.9254368147639491e+00 4.0220516432329212e-02 3.2127118902871024e+00 -1.3720854933474726e+01 2.5546359978630360e+00 -1.2445353988668394e+01 -3.7345116603357149e+00 -2.1638991616666832e+01 3.7710665519427451e+00 8.4338229430450440e-01 -1.0541505951715010e+01 -3.3903211373079074e+00 6.6976159547603036e+00 -7.6783538608310908e-01 5.3652119759463687e+01 -3.0396978871097335e+00 5.5204375552564677e-01 -1.7674277416670424e+02 4.6661062424060589e+00 1.0684129613944586e+00 -4.0037136569214848e-01 3.9026399153134161e-01 9.5258999311769117e+01 1.0789292556799833e+01 1.5623123857703884e+00 6.4174715485298428e+00 1.1165986851520785e+01 1.7730730271940695e+02 1.5127704318451158e+00 7.3101241475338430e-01 -4.1372804960362215e+00 -2.3873488957232913e-01 -1.5192179150107159e+00 4.6354759323571884e+00 -1.4619367780296844e+00 -6.7552422719176342e+00 -2.9270026015815298e-01 -2.0830156558706552e+00 -6.3431521497825898e+00 6.2085780156784622e+01 5.0736821023455949e+00 3.3199065605751116e+01 -6.1524236192943844e+00 2.2022513769823815e-01 1.7897339049616687e+02 2.5844253228051670e+00 8.4546760222958195e-01 1.1126103677361610e+02 2.4506617213981405e+00 -1.3923454827436963e+00 9.5637662393153899e-01 1.1965077794307472e+01 -1.6252273426717615e+01 5.9126660564734079e-01 -5.0521713806786623e+00 3.6220927871761610e+00 -3.7234682945331787e+00 1.4069317502450747e+02 2.6824905548569751e+00 -1.9922060599280117e-01 1.4941852840779346e+00 2.5378286395555516e-01 5.0817112685619192e-01 -1.4850057843109457e+01 -1.3133586917989579e+00 9.9842008106483071e+00 -3.0587201434850275e-02 6.1651491231198667e+00 3.3413268032736685e+00 -7.3086170763477583e+01 -3.1149811383263515e+00 -8.3256033831967216e+00 -3.4580488779677023e+00 -4.2254316397296143e-01 -5.9160289830474007e+01 -7.0033724555110488e-01 -4.7788025139175261e-01 2.4624082633279485e+01 -1.5758031797701136e-01 -2.2184251817482812e+00 -1.0077837830605363e+00 1.3495485835243768e+00 -7.3776746487967614e+01 -8.6546560363153824e-01 5.8948899478160366e-01 -4.7654838588842567e+00 3.0201405585429342e+00 1.9079606829609645e+01 -1.6302994866993370e-01 9.1905640734301297e-01 -2.1624633227010888e+00 6.7010437727135708e-01 -6.5463177997262312e-01 -4.4328099984586018e+00 -2.6136276445583995e-01 -2.6332907053527892e+00 2.1969683659153016e+00 -1.8593875036405944e-01 7.0765222477044532e-01 2.2895204010937611e+01 -1.3287469029411376e+00 -6.1254984681498513e+01 -1.3268822998459830e+00 5.5718377366016203e-01 1.4997157786352852e+02 -8.4826946876386966e-01 -3.2697084691447553e-02 1.6966934876625123e+02 1.2365941310765880e+00 -2.2376420587530541e+00 -1.3015871663909584e-01 2.1534151386313569e+00 -4.1354292891193893e+01 1.2939501061652412e+00 -6.3558703489557198e+00 -8.4362935024583141e-01 1.1960156418018766e+00 3.1087610435437078e+01 -7.5582387155771578e+00 6.1110094422820915e-01 -2.7774573034855896e+00 3.0731619017921552e-01 -1.0535915247973962e+00 2.1791705041697904e+00 2.4916160144178323e-01 9.4785798119532068e+00 7.2312215127918944e-01 3.6529781464227580e+00 -9.9083500823935777e-01 6.5164208187758366e+00 -1.5492670153971322e+00 1.5811475676426227e+01 -1.8043436822525616e+00 3.5118314448076554e-01 8.0905732328165172e+01 6.6763136248890254e-01 -4.3887043866814063e-01 2.1388300897533844e+02 -1.8330963571932033e+00 -1.5995326837776411e+00 -2.9515053297311750e-01 -4.3277232505692242e-01 -1.8054240856250544e+01 -1.9361038929966830e+00 -1.2368262346738657e+01 -4.7608784859917250e+00 -7.4119000086432409e+00 1.9233426938551716e+01 -1.2524826413680898e+00 1.4761758531738951e+00 -1.4671096759739399e+00 8.7255674767394531e-01 -1.1494136187609449e+00 8.6541603905058544e+00 -1.2639015941910099e+00 -1.4139861577102351e+01 -2.0481812695135748e-01 -1.5084214545888333e+01 -1.0837364946117427e+01 1.1807327849393346e+02 -8.9728930689869486e+00 6.8107353386658360e+00 2.9518779754239333e-01 9.9437783211559316e-01 3.1169453967565096e+02 -1.0120677131803189e+00 3.3940567076353734e-01 9.5243481227520704e+01 6.5350242794584741e+00 -1.0955643569000300e+00 2.4745081927663939e-01 2.8109202668141755e+00 1.2334756154847651e+02 7.8522688161285306e+00 -4.9397280085472151e+00 6.9731469087737441e+00 -1.5570534296306384e+00 -7.8837349576658227e+01 8.7391940751145825e-01 -6.8679622094398007e-01 2.5847650612988415e+00 -3.4743607066984802e-02 -1.6881892889820764e+00 2.3612459043964584e-03 -4.7472424158045179e+00 1.6933797063120779e+00 -2.6012155830167676e+00 -4.9324875245741961e-01 4.3386387069047050e-01 5.0609701242330154e+01 6.1636005119556412e+00 -2.5897427775583939e+00 4.4184845724216766e+00 1.5159840934149522e+00 1.2849987116535896e+01 9.0779590389297604e-01 -1.5821558311468159e-01 -1.9428597911105925e+01 1.4070761389289894e+00 -2.8337562458897163e+00 1.8403383101243267e+00 -6.4505620143941842e+00 5.4208178489738657e+01 -1.2091274144455753e+00 6.4037045165357540e+00 -6.8899119473951664e+00 7.8518614981777546e-01 3.6689047336365498e+01 
      </Row>
      <Row Index="7">
        1.6061211383348564e+02 7.7046867225187015e+00 1.1234669340869086e+00 -1.3024764662247090e-01 6.9422217866635227e-01 6.0257548078697121e-01 -3.8073892464771912e+00 2.2184609129132475e+01 5.9222793988788975e+00 -1.0080177073929302e+00 -7.4258396076417799e-01 1.1585460907843039e+00 3.3202281366093715e+01 1.1071230418121290e+01 1.3528047185801611e+01 8.7962225775888947e-01 -7.1444605090655144e-01 7.1460352296803478e+01 6.4319386523656030e-01 9.8293540328141105e-01 -1.4473621840474297e+02 -6.0407771259898990e-01 5.2494977833426071e-01 1.6386703712075228e+00 -1.7142107080032001e+00 3.0908876032683708e+01 8.4549061379299406e-01 -6.8433426562506536e+00 1.0451969864148669e-01 -2.4002337592962242e+00 -1.4792143304538473e+02 -4.2372084179061273e+00 -7.7008426511489114e-01 2.9554927677843879e-01 -5.4426652591433966e-01 -4.7893550963263455e-02 2.6253907491241115e+00 -1.2023540693243024e+00 -1.0353025862065440e+01 8.5102983468385662e-01 -1.0469610435066641e+00 -1.6396478700908304e-01 -1.1159262775410781e+01 -1.2538067237999002e+01 2.5816581785769408e+01 -1.8209159353198650e+00 -1.3648559258835880e-01 -5.2148585016350737e+01 -1.0010336028922178e+00 -2.6403254935657077e+00 1.0381699499201872e+02 1.4866976958046330e-01 -6.0470161204093742e-01 -8.3485925064847066e-01 7.1097283442544856e-01 -2.9787084928667085e+01 -1.8210195212079956e+00 2.0409322776197843e+01 4.1328948202546689e+00 -8.2816921906293284e-01 -1.6176039850014973e+01 1.2674503265388100e+00 1.5062660331907440e-01 -5.2721481850795682e-01 4.3794855620013917e-01 -3.2596363466325246e-01 6.9010868506644329e-01 1.0112462364139392e+00 6.4115356320696648e+00 1.6078486693053673e-02 -9.3506010799244832e-01 2.0464779787877068e+00 -2.8607737302503768e+01 -8.9291956299940667e-01 3.6505640885305297e+00 -2.5718383753175589e+00 -1.2509964475100199e-01 4.6047806475355408e+01 1.0271862732464032e-01 -3.9156358120482027e-01 4.3010575756679444e+01 -4.9212385116100044e-01 3.0819099850880916e+00 -4.8346139757891127e-01 -1.1868045188484004e+00 2.7375057450013571e+01 -3.4161738077747916e-01 1.9178169229796738e+00 -9.5085750819391279e-01 -8.2156848640294378e-02 -4.5657444531238291e+01 -3.3329951814387089e+00 -1.7831798986041802e-01 2.2475149853343773e-01 -2.8478741496510596e-01 -2.3087900011788942e-01 5.1856030366979422e-01 -1.3766430571806897e+01 1.9875576656954546e+00 1.7640715893169095e-01 1.8861411777663626e+00 6.5055057184308716e+00 -2.2865218353106965e+01 -4.7159939298527469e+00 -4.6009826156284888e+01 -3.4219397205987008e+00 -5.4014877565343400e-01 5.1435661448009412e+01 -2.1634472685231564e-02 -1.0258697060799320e+00 8.5692741651844358e+01 1.0775086277321133e-01 -9.2528529792159073e+00 -1.1625723893775413e+00 3.5255089105749027e-01 -4.3890180866586888e+01 8.2050965677209331e-01 1.0508861833130066e+01 3.8017851807927840e+00 -6.5355541253567728e-01 1.8821137299563123e+01 -6.6783750693336890e+00 -7.3160382383647971e-01 -7.6401489360125963e-01 -3.0341757936805767e+00 -4.2646154162909444e-01 5.6638529584209574e-01 -1.6176904653496187e+01 -5.4282852422179069e+00 1.4750489995446656e+00 1.3627159348749817e+01 1.3402803536097330e+00 1.7656990287608608e+01 1.7682884144382136e+01 -1.3200691769725154e+01 1.5510334773856889e+00 1.9770356919380596e+00 4.2350343431458768e+00 -9.9930550539929808e-01 -2.6142874934958193e-01 -6.3226609322761718e+00 3.7726235455436274e-01 -7.4614424733723901e+00 -1.9094287735735564e+00 1.3302577288771986e+00 -2.0275932009784128e+01 -5.5205649613417442e+00 5.1332145727417400e+00 8.9642170548068345e-01 2.1230738916989118e+00 2.3926363885369315e+02 2.7691960377164939e+00 9.9630228638549934e-01 1.2292460914799737e+00 1.0287823028122429e+00 7.1806074183533597e-01 -3.2361158112989319e+00 1.1351989582382171e+01 2.1802763057542029e+00 -3.8589303571833611e-01 6.8523573153650208e-02 -4.2699754469876599e+00 -1.8178234506776555e+01 3.3391434046562427e+00 -4.2130908651338359e+01 4.2811752131299530e+00 -3.5965421592061464e-01 2.8882815032991644e+01 4.6525876556921408e-01 1.0833957000156014e+00 -8.1380308542755117e+01 -2.5373846040387700e+00 1.4130860213431460e+00 3.1187214455557744e-01 -1.5365977408318197e+00 6.2323079399551879e+00 2.0093001003082782e+00 -1.3165807623265124e+01 -1.9466422172875717e+00 8.3928745607446809e-01 -8.4127282453139969e+01 2.5389349382709119e+00 -9.0015435196957683e-01 3.4151986301176518e-01 -7.3128098999104063e-01 5.0100637178328744e-01 7.9064103634941674e-01 1.1931004191129215e+01 -5.9076509089770290e+00 1.1068480244989461e-01 -2.3090723778036590e+00 -4.5246417764752103e+00 -1.2247775084820677e+01 -7.5047384386398335e+00 -4.6936764250740453e+01 -4.3608939803506563e-01 -3.9524598132534688e-01 -7.1160111322022601e+01 -3.5505532059197775e-01 -3.9111448942674087e-01 1.3307466728327597e+02 -1.5904695004521574e-01 1.9582560574108054e+01 1.2585932945360527e+00 1.2047550293353781e+00 -8.7990527196026704e+00 8.4340036371593291e-02 6.8030278621745230e+00 6.1512297898685704e+00 6.7638906701145629e-01 2.0536411008538135e+01 1.2270964232872037e+00 -4.6372737044646928e-01 1.3255077924711931e+00 -3.3437217055126595e-01 8.1101926127060842e-01 -7.4927275203288357e-01 6.6677348614060099e+00 -4.3899020542864653e-01 -4.9968403720377130e-01 -7.9955869084845976e-02 -1.0830260297891417e+01 4.5451905059332226e+01 4.9736724200559790e+00 -6.8947377081066861e+01 3.4814774115212903e+00 -7.1602788613599344e-01 1.4178126722515498e+02 7.2083296423813614e-02 1.3538530561344869e-01 -3.6283065017720872e+01 -2.1148167801246096e+00 1.3347074573756588e+01 2.2698112715654140e-01 -1.0666867843042027e+00 1.1888431875214344e+01 -7.1370160058482557e-01 -1.2267308239765464e+00 -3.4275681555014685e+00 -5.3196524953824875e-01 5.4425972014394482e+01 2.5911287723987870e+00 -8.4051769648509120e-02 9.1583874873886251e-01 -1.1496541036693450e-01 5.2666077221554464e-01 -2.6856564753511453e-01 3.4794947969032370e+00 6.7174815604814544e+00 -3.2088711802290865e-02 -3.2640846233932930e+00 1.2413878898830828e+00 5.9769070514326046e+00 -3.9862336287142539e+00 7.7424094771794898e+01 -1.9311612243468612e-02 -9.4231842611057626e-01 1.0376878731378049e+02 5.2195073743709997e-01 5.6827564776344541e-01 8.7038111956300384e+01 -8.4675948070075879e-01 1.1714059026956967e+01 1.2396074298756881e+00 -2.8207564436616483e-01 -8.6947523595226812e+00 2.0995050227598875e+00 -2.5583049125510273e+00 3.5237173922459988e+00 -1.5836130657256715e+00 1.0486595741321005e+02 1.8129745537931488e+00 -7.5733133349182413e-02 1.4458395982508225e+00 -1.9924439859791754e+00 7.3175120734962085e-01 -2.7193756652679912e+00 9.8237190943148747e+00 4.9318636324728331e+00 1.1686929077167001e+00 8.4596157261359188e+00 -6.9810737875305433e+00 3.9719493955000857e+01 1.7381051275539392e+01 2.4164272285206607e+00 3.2780882987584903e+00 -5.6885527998496976e-01 1.5734566709716535e+02 -2.4602769251615153e-01 -1.1687094971119860e+00 -9.5315984918033791e-01 -4.6303196448607107e+00 4.1826579805341586e+00 -7.2201737837931279e-01 -2.1456414483560584e+00 -2.6082078995776044e+01 -2.6966021831517901e+00 3.4947931735425373e+00 2.1952256573639359e+00 -1.8508815074356946e+00 -8.6698847070153732e+01 2.3271232576567193e+00 -3.4548633836070097e-01 -9.7457094457538429e-01 -5.7430943750140373e-01 2.0570530875866488e+00 2.0420931070102348e+00 2.9628926775223299e+01 2.1077831792369031e+00 -1.2504576071329448e-01 8.4225801600350936e-01 -1.2883792104884675e+00 -6.5930492071521115e+01 9.0617958880250491e+00 -1.1130669115400410e+01 1.4752512942709815e+00 -1.8678845124072203e+00 4.3561850053636945e+01 5.6001303444543504e-01 8.6746214991823867e-01 -4.8165885617708774e+01 -1.1674578031043883e+00 2.4655426297715792e+01 -3.7127042767740188e+00 -7.8785559850894371e-01 -1.1455799005418983e+01 2.9553729869110157e-01 3.1269997520808666e+00 6.5830812267122418e+00 8.4522345224237672e-01 -5.7188620752675483e+01 
      </Row>
      <Row Index="8">
        2.2795401631941786e+02 -7.6850688037970301e+00 -5.2133681995789001e+00 -1.4336046552763122e+00 1.5791054446625790e+00 -1.2154172468718882e-01 -1.0171303614586684e+01 5.9222793481386020e+00 1.5458413573533318e+02 -3.0081461329288341e+00 8.4999291149722289e+00 1.4325850167855906e+01 -7.7340419074083528e+01 -1.1907313545789960e-01 1.1554412988212334e+01 -2.3984558901987796e+01 6.9090929175497395e-01 -1.9303915532914482e+02 2.5500876329715894e-01 -5.7464327023074526e+00 1.9406682394685967e+02 -1.4341337737092781e+00 2.6607126267201191e+00 -2.8114503131235207e+00 -1.9511225992190098e+00 -1.5887214097648760e+02 2.0164093078913552e+01 -1.3947598700703630e+01 1.9119568730585200e+01 8.7481666148827131e-01 -5.5310169268574384e+02 4.0201718003729248e+00 5.9303942369110381e+00 3.0332680676671151e+00 -1.1682627936592166e-01 -1.2678231840673870e+00 8.2858402238952138e+00 -3.6762853379619518e+00 -8.1312385243743989e+01 -4.4701481074346594e-01 -3.8681160772263001e-01 -1.5881650783125973e+01 1.4063951170191291e+02 -5.7328233040084129e+00 7.0094528255233854e+01 2.7156839507828103e+01 -2.1756521108660722e+00 1.0389077473371739e+02 -5.7500132209647981e-01 -5.0792474679344668e-02 -5.6118057160971944e+01 1.8679555106115515e+00 8.1187671573979969e-01 4.9240559050260995e+00 7.2995062078563544e-03 1.1861441441066384e+02 -5.9404373957275753e+00 -5.1739329409664194e+01 -1.2686757827566074e+01 -2.1943947645601192e+00 1.2280911463480176e+02 -4.0029344549216201e+00 -5.7708886192779851e-01 -3.7863180659004660e+00 -2.6743232977004583e-01 -2.5374334675236740e+00 2.4857333857325488e+00 7.6033563154732775e-01 1.9084444427245508e+01 -3.1099970502546759e-02 -4.0843035174579301e+00 -6.6296086620532400e+00 -3.1218401217636846e+01 -1.0518892986071206e+01 1.4051353452317460e+02 -1.1880289309040750e+01 -7.6005778558773418e-01 8.8765091765413260e+01 -2.7557448933243278e-01 -8.3509454049759968e-01 -6.9772484038886284e+02 -3.6838215379144303e+00 9.8752704695903715e-01 -1.0138577440017280e+00 -2.3583079129395501e-01 -9.2230832545946129e+01 6.4998803152475535e+00 7.0889312928221440e+00 9.5493933376549620e+00 2.3357885710482296e+00 4.6183770534121049e+02 1.6910949928597894e+01 2.8278075421579039e+00 5.0153486013452246e+00 3.3744327530300422e-01 5.6624553004265410e-01 2.3026569422677259e+00 -3.2551882665048897e+00 -2.6836074390579444e+01 -1.5003604956932937e+00 -2.2433939237116149e+00 -9.6580842810190459e-01 1.7770384515912610e+01 -1.4921381089028303e+01 -6.6877015792192879e+01 3.6750543496437924e+00 -1.4001434680398805e-01 -8.6873376762032194e+01 -1.3625837927165771e+00 1.4386661560791203e+00 2.7076754643013135e+02 3.0728535612765588e+00 -6.2268580812255081e+00 -6.2915661643936160e-01 8.9632384459936976e-01 1.4824292768818418e+02 -6.8431045313047623e+00 -6.6885011480410697e+01 -3.1813754555611503e+01 -1.7716526770236549e+00 2.3792168171273943e+02 1.9310119879730152e+01 2.8777233231067787e+00 1.5964676623258873e+00 -3.9752659439265638e+00 -2.8472486281267062e+00 -6.3067471544168345e+00 4.0521228660953335e-01 -3.6798141152498388e+01 -7.5052809285797029e-01 -3.5600401980849725e+01 -1.6040795970957490e+01 -2.8870064775160916e+01 5.3910498184492894e+00 -1.2056114563611769e+02 1.1385453416525371e+01 -1.3844140362009085e+00 6.3413690834002296e+01 5.0352323276668232e-01 3.8615039370058923e+00 1.6090272881075208e+02 -4.0746742253021093e+00 -3.8855696655304364e+00 -8.9818838956971669e-01 -2.0648787944078633e+00 1.6559223432939018e+02 -6.7182166133068684e+00 2.9319238335922805e+01 -1.5746922938765398e+00 -3.4934009202004574e+00 3.9419618418238554e+02 -2.1764786567856632e+01 -4.6398515134141682e+00 -3.7823968655055862e+00 -1.4539064440233451e-01 1.3335190844733336e+00 -6.1503146334410399e+00 1.5924903816140321e+00 1.2097839556266221e+02 -2.6390261520359282e-02 2.0129734792245273e+00 1.1226705409779967e+01 -1.7992962116783005e+02 2.5100058403394058e+01 6.8141178305795620e+00 -1.7379653275257702e+01 1.8481829894344788e+00 -8.2556198450415764e+01 -6.5711577300630764e-01 -4.0655469357423302e+00 2.1906238484456355e+02 -1.6512272199568230e+00 3.9991574744997722e+00 -1.6184961353084677e+00 -1.2014152596200400e+00 -1.2217359371769125e+02 2.0445716124711755e+00 7.5400538921551899e+01 4.3861088005759839e+01 2.9270640337256317e+00 -5.2845376508207301e+02 -6.3536162245103274e+00 2.8605998688928924e+00 2.0048333647930883e+00 1.4055390456034211e+00 1.9785581109949568e-01 4.4454679968437354e+00 1.3483534057365927e+00 -6.4701243259505162e+01 -1.5444392287397659e+00 7.8895287349591854e+00 -1.5358355903673029e+01 8.4627842513498493e+01 8.6029891874536624e+00 -8.9668400235925219e+01 1.9732651400228953e+01 -1.7121003740685139e+00 -1.1248432619213122e+02 8.1842344796204203e-01 3.3717789550805719e+00 4.5789163698566426e+02 -2.2578467547735226e-01 5.4627525004371025e-01 4.4980450284692157e+00 -7.0440709503367493e-01 5.3974037248926230e+01 -4.1212007181579571e+00 6.1225627745334652e+00 -2.2184900988376590e+01 5.1124835959066104e+00 -4.1244676780676275e+02 1.1327783374875997e+00 -1.0746178217293112e-01 1.0297289525636000e+00 -1.0402527856857731e+00 1.3497290059153866e+00 8.5951027641202717e+00 8.0508535194566022e-02 -2.5316881457613000e+01 -1.2806531323529913e+00 7.5332052413776722e+00 -4.9321745847382106e+00 1.2526642195602157e+01 -2.6525152269615305e+01 2.4696100640769146e+01 -6.8067664098386471e+00 -4.5116727374840138e-01 2.3392625658769163e+02 2.9778383218411153e+00 2.0776854391708408e+00 -5.0638900526567784e+02 -6.5983239180843736e+00 3.9043356241634743e+00 -1.2820249945820628e-01 3.6527980551085020e+00 -2.2915841196571265e+01 -4.3255888469438650e+00 2.7784070460960358e+01 3.9514570318097014e+01 8.9826960882834612e+00 5.4150764524661490e+01 6.3654926979237225e-01 -9.1414661500915428e-01 1.2222018051899344e+00 1.1095820966953205e+00 1.6176869500771043e+00 3.0653725904484168e+00 1.0989124508280774e+00 -6.5916067355213329e+01 -6.3570818415323682e-01 8.5488993243571745e+00 1.5629967715200399e+00 6.0886756993077718e+01 1.1634368297103768e+00 -6.6506589324755396e+01 -7.6226672963094080e+00 1.7840759891349972e-01 6.6341207670945039e+01 3.7092537384274538e-03 1.7825347620027145e+00 -6.3000256299056889e+02 2.7842505129828012e+00 1.1483582716449892e-02 1.1969708882327845e+00 3.7084251560167218e+00 -2.2281261618554709e+01 -4.3859557552116497e+00 1.7070983497147544e+01 -2.1495105556787166e+00 8.3811089518979180e+00 1.4452206736145038e+02 1.3517971739469333e+01 6.1169461628199950e-01 1.2389431187573652e+00 -2.3584031457196915e+00 -2.9482783248869247e+00 1.5889533476658162e+00 1.2396946848288017e+00 1.1275964608136302e+01 -7.2189840611680269e+00 -2.1663769047265291e+01 -1.8819851617432928e+01 1.3103664015534036e+01 -1.2952724490618905e+01 1.9150723745260620e+00 -5.6011554074520360e+00 -1.8507833269054741e+00 8.2517965103015740e+00 1.7088807406282829e+00 -1.2874482441606987e+00 -1.4776398456669449e+02 -7.7781890674770171e+00 2.3467393609034444e+00 -9.1300690470879164e-01 1.6467752987193407e-01 6.4392260701025037e+01 -3.5536088717480645e+00 5.7574421761162938e+01 5.3540001264460919e+01 1.1180186763468090e+01 -2.7546662810825717e+02 -6.4688159293049612e+00 1.1445335493845192e+00 -2.3952970005836320e+00 3.4809824372304332e-01 5.3480344158171231e+00 2.6972899586207277e+00 3.1613575868617563e+00 -1.8994240885281044e+01 2.3644774623709854e+00 5.8440797703528169e-02 4.1228111723867436e+00 -1.8543746690224729e+01 -2.2467336207939301e+01 -3.6789227846857600e+01 -5.4703632882872544e-01 -2.1481359612829420e+00 -1.8445689526663216e+02 2.4876404673489514e+00 2.6348398413194323e+00 -2.4906949216078169e+02 -2.9163928272627215e+00 1.3329242457319646e+00 -4.8280597911792595e+00 -1.2680734210219284e+00 3.5069643698067665e+00 4.9922472069502675e+00 -1.0996118316428372e+01 -2.0499800691690517e+01 1.9970558319668079e+00 1.3292133791005367e+02 
      </Row>
      <Row Index="9">
        -1.8757523280830355e+01 -1.2483319824326204e+00 2.3475450813153581e-02 1.0218140453215407e-01 -3.7175923734887824e-02 8.2678350705319914e-01 1.0017894483426777e+00 -1.0080177162751256e+00 -3.0081461551924389e+00 5.2463902382014549e+00 1.8333670196717944e+00 -1.4563668854870131e+00 9.9954011280290000e+00 7.7243485067506619e+00 -1.4874506240989817e+01 1.6659160678154583e-01 2.2195275217906685e-01 -1.2289142710270446e+00 9.8998267543326157e-01 -5.6378331869520060e-01 4.0503729780297135e+00 1.8719724772195268e-01 9.0599149658575340e-01 1.0428327519588427e+00 5.6000355534074953e-01 6.9173525279850443e+00 8.1151821351107545e-02 9.9219405918317571e-01 4.2776451228255619e+00 -1.8541702823863560e-01 4.0987604418213927e+01 4.7923102970061731e+00 -4.8288398026617518e-01 2.2236350046358522e-01 -1.5249997520365660e-01 1.1579953022048795e+00 1.0516932404266521e-01 5.4893986570165754e-01 6.6562581099425557e+00 -3.0822172019939318e+00 1.5809985792524661e+00 -5.3915817789921872e-01 -1.6799022480953877e+01 -3.2723209947914871e+00 -1.8654257636607099e+00 -8.2889319589114052e-01 7.3272739939061704e-01 -5.1066121485992388e+00 -1.9241723439013427e+00 -5.5282617879741336e-01 -3.0486476772108873e+01 3.8430671249258141e-02 -1.0306419934344691e-01 -9.1283902667414607e-01 1.9153243456528084e+00 -3.9293440934211773e+01 -1.5616629808405471e+00 3.6514168597422545e+00 4.7818164366363547e-02 -1.1426310211471895e+00 -5.6382643951531435e+00 -8.7851723301530305e-01 2.6293539784816189e-01 -3.5329417481900560e-01 -5.8874776512888784e-02 1.5591575878946033e+00 -7.0067000719556582e-01 4.5242581046399361e-02 -1.2016160418087480e+00 2.3899321999037144e+00 -2.9246692995190813e+00 4.9742617621420715e-01 1.6983042274599914e+01 6.7955201816053767e+00 2.7167506644868297e+01 -4.0905625421755448e-01 1.1137617284981444e-01 1.8483430375264984e+01 -7.3627835215550455e-02 1.5519481723820355e-01 2.0386378148984058e+01 2.9550237612986829e-01 -2.0249085702025496e-01 2.0565392517485342e-01 1.3316201429420769e+00 -7.1758971007510333e+00 -8.4887093895952193e-01 2.7564013339807865e+00 2.3066253844689744e-02 5.0013983979936538e-01 -5.6988444440009253e+01 -8.8296971390920909e-01 -4.9996056395230348e-01 -1.6172038606876568e-01 2.6772926812890563e-02 2.1558857142378585e-01 -5.5311750046395181e-01 3.7468553548287037e-01 4.0257284667467790e+00 -1.1347629308659841e+00 2.8389057512282800e+00 1.2909016561645745e+00 1.2988190525842636e+01 1.9438038279812857e+00 8.0860813425402966e-01 -6.2611126538881234e-01 3.1719833358772775e-01 1.4637761111118333e+01 -3.3518649577189874e-01 -2.6741635948907549e-02 2.1654589963800333e+01 -6.9413374471110889e-01 -5.8893901648863246e-03 -6.1132040351401695e-01 1.2597491343684903e+00 2.1239582243583044e+00 2.5012445291042771e+00 2.3474520698195409e+00 -5.0880209551615407e-01 4.3371871114288307e-02 3.9099290616713198e+01 1.8770925115466777e+00 3.4504705865922092e-01 -4.9310296917093277e-01 4.2891424317382776e-01 -1.9732568323901667e-01 1.2742801586548569e+00 8.9145290241634867e-02 -7.2001545774912534e-01 -4.2282949399391434e+00 7.0003692082697788e-01 -9.4656250906634876e-02 -1.6059526861161231e+01 -1.0121763580235054e+01 -1.7973732950630819e+00 5.9191256050270580e-01 2.8948202100683385e-02 2.5481199545625586e+00 -7.6967027982413283e-01 4.7793586484172756e-01 -4.2795564326309261e+00 -2.4587186210067014e-01 -1.4780004298094473e-01 -5.0423361754680729e-01 -4.8663022196432393e-01 -2.1808335046981867e+01 5.1257991276966273e+00 -5.9925606906793440e+00 4.1653564133468407e-01 -1.4033642241098008e+00 -6.5719199064382110e+00 -1.5612622259031537e+00 -5.5278246716253088e-01 1.0902154080931459e+00 5.8953033084243878e-02 -8.2153793471574654e-01 1.5294641615275153e+00 -4.2940171284532103e-01 -8.6816560780600973e+00 1.0565030853363853e+00 -4.7681190141949026e+00 -1.1805660540033256e+00 1.6183471496346669e+01 4.0557601015069853e+00 2.2022766083898091e+01 9.9913308029008152e-01 1.3294775970745243e-03 -5.4408556821983467e+00 1.6934121864257015e+00 -1.1801055775363950e-01 4.2958825931927656e+01 1.0903986017272793e+00 -3.7266478627340704e-01 9.4523554009340194e-01 -2.2828789851273052e+00 7.7360511367130567e+00 -1.0428970552091854e-01 -5.3514067349084486e+00 -5.2282850548421065e+00 5.3917369632535328e-01 6.3744479963880622e+01 5.4206088822478833e+00 1.0925512903695736e-01 5.4471088256070402e-02 -1.2071505228100347e-01 8.3958669218961857e-01 1.1395074764603672e+00 8.8913000019267652e-01 3.3175025574701795e+00 2.3254473752599669e-01 2.4294241527899203e+00 9.3991432914003492e-01 -1.2588816197325130e+01 -4.1800555921691620e+00 1.5652589533172232e+01 -9.9019301288420042e-02 5.8863629462708533e-01 -2.7512238257437321e+01 -1.6830155117524679e+00 2.1631607140261622e-01 -6.4917424918033163e+01 3.2247092057292026e-01 -1.5116255221695335e-01 1.1304526995657579e-01 -1.3518625165179754e+00 -2.5545501856241447e+01 -2.6934477406220156e+00 -1.3156446837045999e+00 5.3454799928135355e+00 -7.1780786801838303e-02 1.4822634561756172e+02 -1.4978301725811964e+00 -3.8565172770971046e-02 1.0141936919198360e+00 -2.2422177376050995e-01 -1.2572209313723364e+00 1.2686909273282438e+00 1.8815455489415450e-01 -1.5205378068834345e+00 3.2682428283682086e+00 -1.3690773212985332e+00 4.2118362206497562e+00 -3.4378870698291073e+00 2.9880852885243510e+00 -1.2189412301358516e+01 1.1294472049329480e+00 -5.0903186851736104e-01 1.5702355528613829e+01 -4.4129200944247010e-01 6.2362208685311649e-01 5.3343225523963014e+00 2.0545920529025219e-01 1.4706724081788455e-02 1.8050714715183006e-01 7.0895027374680941e-01 -8.9728793558244675e+00 1.6754663785982604e-01 1.2686328323247957e+00 4.8506874777676146e-01 -1.5272430750686716e-01 -1.4616168446082156e-01 -2.8090258386890854e+00 -4.8546598506685641e-02 5.0146359919997907e-01 -6.9589922927638714e-02 -5.6445045864400456e-01 8.2357259364716107e-02 3.2992364162660998e-01 -7.2592652503965205e-01 1.3082518685075271e+00 -4.0325298743078672e+00 1.5229898808767552e+00 1.2228786715383475e+01 3.4864236212087563e+00 -3.0361326758587978e+01 -7.3643602170815725e-01 1.0328679938282079e-02 2.1709579632153343e+01 4.5621229969448135e-01 2.8399809201120851e-01 1.3290618506113125e+00 2.8143260552678007e-01 -1.4880299223678264e-01 1.9704193749383936e-01 7.6726748943415690e-01 -4.8379128836313612e+00 -2.8054802163451944e+00 2.7186946085860197e-02 -1.8992610619989136e-02 -8.7509042985173802e-01 1.2742523459479136e+02 -1.2271983983813106e+00 -6.1566627419281872e-01 1.1342039252042770e+00 3.5524284844259402e-02 1.3892016898455612e+00 3.3882548542173403e+00 6.2107161555722268e-02 -3.5379020610815402e+00 3.3044264817063467e+00 -3.8722476235380827e+00 2.7828117678777735e+00 1.4610022618666051e+01 5.4967023098060679e+00 -4.3944083889209651e-01 1.9059037476919610e-01 7.3339295489337886e-01 1.7997053685256617e+01 -8.0128847424754501e-01 2.1101205253291511e-01 -1.5459805912874799e+01 8.1864928412986970e-01 3.2699744893843197e-02 5.5404852020708051e-01 1.8812725015670275e+00 -3.3224607470323249e+01 1.8436767050221707e+00 -3.3362717674158766e+00 3.2522481042784745e-01 -2.4094832314983350e+00 -6.0262432525576415e+00 1.7597727304235653e+00 9.9599132680211966e-01 -8.7179352442372071e-01 5.2714393670959474e-02 -4.0448258677390205e+00 -1.9116834966076990e+00 -3.1888906798823585e-01 -1.3692144520311107e+00 -8.3486725633017418e+00 2.1921651653685568e+00 -1.9920638437414895e-01 2.8657592602929931e+01 -3.3183071456518309e+00 2.4288738538682928e+00 -1.3148517888984672e+00 1.6461665805859118e+00 -2.5298397583983995e+01 2.0515095153181293e+00 4.5568362741137969e-01 4.6633499488904242e+00 4.9574437834482166e-01 -3.6318160786181664e-01 -1.3349448044554946e+00 2.4024098296835925e+00 1.6413102003456967e+01 -2.8299997275452977e+00 1.4584999498107756e+00 1.5033857581816943e+00 5.3540971058095721e-01 4.7159410901760978e+01 
      </Row>
      <Row Index="10">
