<?xml version="1.0"?>
<MethodSetup Method="MLP::MLPBNN_MuTau_MZP1200_MA0400_MDM100_nodes30_epoch1000">
  <GeneralInfo>
    <Info name="TMVA Release" value="4.2.0 [262656]"/>
    <Info name="ROOT Release" value="6.02/13 [393741]"/>
    <Info name="Creator" value="jhoward"/>
    <Info name="Date" value="Sun Oct 30 22:31:29 2016"/>
    <Info name="Host" value="Linux vocms0301.cern.ch 2.6.32-573.7.1.el6.x86_64 #1 SMP Wed Sep 23 10:12:03 CEST 2015 x86_64 x86_64 x86_64 GNU/Linux"/>
    <Info name="Dir" value="/uscms_data/d3/jhoward/WORKING_DIR/SeptProduction_76x"/>
    <Info name="Training events" value="16329"/>
    <Info name="TrainingTime" value="2.12692343e+03"/>
    <Info name="AnalysisType" value="Classification"/>
  </GeneralInfo>
  <Options>
    <Option name="NCycles" modified="Yes">1000</Option>
    <Option name="HiddenLayers" modified="Yes">30</Option>
    <Option name="NeuronType" modified="Yes">tanh</Option>
    <Option name="RandomSeed" modified="No">1</Option>
    <Option name="EstimatorType" modified="No">MSE</Option>
    <Option name="NeuronInputType" modified="No">sum</Option>
    <Option name="V" modified="Yes">False</Option>
    <Option name="VerbosityLevel" modified="No">Default</Option>
    <Option name="VarTransform" modified="Yes">N</Option>
    <Option name="H" modified="Yes">False</Option>
    <Option name="CreateMVAPdfs" modified="No">False</Option>
    <Option name="IgnoreNegWeightsInTraining" modified="No">False</Option>
    <Option name="TrainingMethod" modified="Yes">BFGS</Option>
    <Option name="LearningRate" modified="No">2.000000e-02</Option>
    <Option name="DecayRate" modified="No">1.000000e-02</Option>
    <Option name="TestRate" modified="Yes">5</Option>
    <Option name="EpochMonitoring" modified="No">False</Option>
    <Option name="Sampling" modified="No">1.000000e+00</Option>
    <Option name="SamplingEpoch" modified="No">1.000000e+00</Option>
    <Option name="SamplingImportance" modified="No">1.000000e+00</Option>
    <Option name="SamplingTraining" modified="No">True</Option>
    <Option name="SamplingTesting" modified="No">False</Option>
    <Option name="ResetStep" modified="No">50</Option>
    <Option name="Tau" modified="No">3.000000e+00</Option>
    <Option name="BPMode" modified="No">sequential</Option>
    <Option name="BatchSize" modified="No">-1</Option>
    <Option name="ConvergenceImprove" modified="No">1.000000e-30</Option>
    <Option name="ConvergenceTests" modified="No">-1</Option>
    <Option name="UseRegulator" modified="Yes">True</Option>
    <Option name="UpdateLimit" modified="No">10000</Option>
    <Option name="CalculateErrors" modified="No">False</Option>
    <Option name="WeightRange" modified="No">1.000000e+00</Option>
  </Options>
  <Variables NVar="9">
    <Variable VarIndex="0" Expression="read_pt_1" Label="read_pt_1" Title="read_pt_1" Unit="" Internal="read_pt_1" Type="F" Min="1.90026684e+01" Max="5.92353394e+02"/>
    <Variable VarIndex="1" Expression="read_pfmt_1" Label="read_pfmt_1" Title="read_pfmt_1" Unit="" Internal="read_pfmt_1" Type="F" Min="1.51501538e-03" Max="1.04838843e+03"/>
    <Variable VarIndex="2" Expression="read_pt_2" Label="read_pt_2" Title="read_pt_2" Unit="" Internal="read_pt_2" Type="F" Min="2.00033913e+01" Max="7.29869751e+02"/>
    <Variable VarIndex="3" Expression="read_pt_tt" Label="read_pt_tt" Title="read_pt_tt" Unit="" Internal="read_pt_tt" Type="F" Min="2.92545646e-01" Max="1.03615540e+03"/>
    <Variable VarIndex="4" Expression="read_m_vis" Label="read_m_vis" Title="read_m_vis" Unit="" Internal="read_m_vis" Type="F" Min="1.14212418e+01" Max="1.03446313e+03"/>
    <Variable VarIndex="5" Expression="read_met" Label="read_met" Title="read_met" Unit="" Internal="read_met" Type="F" Min="1.39193907e-01" Max="1.17882178e+03"/>
    <Variable VarIndex="6" Expression="read_P_chi_pf" Label="read_P_chi_pf" Title="read_P_chi_pf" Unit="" Internal="read_P_chi_pf" Type="F" Min="-8.46171143e+02" Max="8.13772400e+02"/>
    <Variable VarIndex="7" Expression="read_LPT" Label="read_LPT" Title="read_LPT" Unit="" Internal="read_LPT" Type="F" Min="0.00000000e+00" Max="2.77469482e+03"/>
    <Variable VarIndex="8" Expression="read_DeltaR_leg1_leg2" Label="read_DeltaR_leg1_leg2" Title="read_DeltaR_leg1_leg2" Unit="" Internal="read_DeltaR_leg1_leg2" Type="F" Min="5.00008583e-01" Max="5.04373837e+00"/>
  </Variables>
  <Spectators NSpec="3">
    <Spectator SpecIndex="0" Expression="read_npu" Label="read_npu" Title="read_npu" Unit="" Internal="read_npu" Type="F" Min="1.83242083e-01" Max="3.67157211e+01"/>
    <Spectator SpecIndex="1" Expression="read_event" Label="read_event" Title="read_event" Unit="" Internal="read_event" Type="F" Min="8.00000000e+00" Max="7.30739008e+08"/>
    <Spectator SpecIndex="2" Expression="read_final_weight" Label="read_final_weight" Title="read_final_weight" Unit="" Internal="read_final_weight" Type="F" Min="1.51793268e-14" Max="1.52416861e+00"/>
  </Spectators>
  <Classes NClass="2">
    <Class Name="Signal" Index="0"/>
    <Class Name="Background" Index="1"/>
  </Classes>
  <Transformations NTransformations="1">
    <Transform Name="Normalize">
      <Selection>
        <Input NInputs="9">
          <Input Type="Variable" Label="read_pt_1" Expression="read_pt_1"/>
          <Input Type="Variable" Label="read_pfmt_1" Expression="read_pfmt_1"/>
          <Input Type="Variable" Label="read_pt_2" Expression="read_pt_2"/>
          <Input Type="Variable" Label="read_pt_tt" Expression="read_pt_tt"/>
          <Input Type="Variable" Label="read_m_vis" Expression="read_m_vis"/>
          <Input Type="Variable" Label="read_met" Expression="read_met"/>
          <Input Type="Variable" Label="read_P_chi_pf" Expression="read_P_chi_pf"/>
          <Input Type="Variable" Label="read_LPT" Expression="read_LPT"/>
          <Input Type="Variable" Label="read_DeltaR_leg1_leg2" Expression="read_DeltaR_leg1_leg2"/>
        </Input>
        <Output NOutputs="9">
          <Output Type="Variable" Label="read_pt_1" Expression="read_pt_1"/>
          <Output Type="Variable" Label="read_pfmt_1" Expression="read_pfmt_1"/>
          <Output Type="Variable" Label="read_pt_2" Expression="read_pt_2"/>
          <Output Type="Variable" Label="read_pt_tt" Expression="read_pt_tt"/>
          <Output Type="Variable" Label="read_m_vis" Expression="read_m_vis"/>
          <Output Type="Variable" Label="read_met" Expression="read_met"/>
          <Output Type="Variable" Label="read_P_chi_pf" Expression="read_P_chi_pf"/>
          <Output Type="Variable" Label="read_LPT" Expression="read_LPT"/>
          <Output Type="Variable" Label="read_DeltaR_leg1_leg2" Expression="read_DeltaR_leg1_leg2"/>
        </Output>
      </Selection>
      <Class ClassIndex="0">
        <Ranges>
          <Range Index="0" Min="1.9021224975585938e+01" Max="5.9235339355468750e+02"/>
          <Range Index="1" Min="8.6726433038711548e-01" Max="1.0483884277343750e+03"/>
          <Range Index="2" Min="2.0008056640625000e+01" Max="7.2986975097656250e+02"/>
          <Range Index="3" Min="4.0629693865776062e-01" Max="1.0361553955078125e+03"/>
          <Range Index="4" Min="1.1421241760253906e+01" Max="6.9209875488281250e+02"/>
          <Range Index="5" Min="4.3040294647216797e+00" Max="1.1788217773437500e+03"/>
          <Range Index="6" Min="-8.4617114257812500e+02" Max="8.1377239990234375e+02"/>
          <Range Index="7" Min="0.0000000000000000e+00" Max="2.7746948242187500e+03"/>
          <Range Index="8" Min="5.0000858306884766e-01" Max="4.6719193458557129e+00"/>
        </Ranges>
      </Class>
      <Class ClassIndex="1">
        <Ranges>
          <Range Index="0" Min="1.9002668380737305e+01" Max="5.6682006835937500e+02"/>
          <Range Index="1" Min="1.5150153776630759e-03" Max="6.3193884277343750e+02"/>
          <Range Index="2" Min="2.0003391265869141e+01" Max="3.7718560791015625e+02"/>
          <Range Index="3" Min="2.9254564642906189e-01" Max="9.1235223388671875e+02"/>
          <Range Index="4" Min="1.2941994667053223e+01" Max="1.0344631347656250e+03"/>
          <Range Index="5" Min="1.3919390738010406e-01" Max="5.9045385742187500e+02"/>
          <Range Index="6" Min="-4.3884024047851562e+02" Max="5.6150872802734375e+02"/>
          <Range Index="7" Min="0.0000000000000000e+00" Max="1.9960347900390625e+03"/>
          <Range Index="8" Min="5.0015622377395630e-01" Max="5.0437383651733398e+00"/>
        </Ranges>
      </Class>
      <Class ClassIndex="2">
        <Ranges>
          <Range Index="0" Min="1.9002668380737305e+01" Max="5.9235339355468750e+02"/>
          <Range Index="1" Min="1.5150153776630759e-03" Max="1.0483884277343750e+03"/>
          <Range Index="2" Min="2.0003391265869141e+01" Max="7.2986975097656250e+02"/>
          <Range Index="3" Min="2.9254564642906189e-01" Max="1.0361553955078125e+03"/>
          <Range Index="4" Min="1.1421241760253906e+01" Max="1.0344631347656250e+03"/>
          <Range Index="5" Min="1.3919390738010406e-01" Max="1.1788217773437500e+03"/>
          <Range Index="6" Min="-8.4617114257812500e+02" Max="8.1377239990234375e+02"/>
          <Range Index="7" Min="0.0000000000000000e+00" Max="2.7746948242187500e+03"/>
          <Range Index="8" Min="5.0000858306884766e-01" Max="5.0437383651733398e+00"/>
        </Ranges>
      </Class>
    </Transform>
  </Transformations>
  <MVAPdfs/>
  <Weights>
    <Layout NLayers="3">
      <Layer Index="0" NNeurons="10">
        <Neuron NSynapses="30">
          -5.3915357924777829e-01 1.6905547841553508e+00 9.2785949260781342e-01 7.9496907270661654e-01 3.0511694946394530e-01 -9.6681753637689172e-01 -4.2401158260964994e-01 1.1565314884092750e+00 -6.9863810836930784e-01 -1.4290075292027580e+00 -1.1470874170631242e+00 -4.4334072362924609e-01 -7.5570065230059491e-01 -1.7849114121878051e-01 -6.8251525829082571e-01 -2.1559413296058827e-01 -9.5484106829540627e-01 1.7787206619844806e+00 2.2868245093136139e-01 2.4012828904502137e+00 -6.5759045595170901e-02 -2.6905854652623246e-01 -6.8132210781292002e-01 -2.3758977465447428e-01 -1.0574077752064219e+00 -6.9825512446957372e-01 1.3334469584870527e+00 -7.5739472563798260e-01 -1.3008011335863414e+00 -3.4685653086964657e-01 
        </Neuron>
        <Neuron NSynapses="30">
          9.2782556980367623e-02 1.5765434837649881e+00 -2.4852154977844690e-01 2.4668195691057671e+00 2.3031433910225121e+00 -9.8776070425085155e-02 -1.4344935782863912e+00 8.2087070200585954e-01 -1.6905710065872122e+00 9.7903069987581270e-01 1.5468357461131126e+00 6.1222115704464708e-01 2.0558753991324918e+00 9.7614848295503909e-01 -9.5971971886481477e-01 -1.8334922931624282e+00 4.9287341274441671e-01 1.0848677693390248e-01 1.5493997866879468e+00 2.7495765171138355e+00 1.5611897799152601e+00 1.1863656024238689e+00 -3.1643918503821058e+00 4.9598012845321593e-01 -1.5119056189229372e+00 -1.0788332712663025e+00 -9.9740867495491059e-01 -1.4974131669521498e+00 8.9465610694179931e-01 4.6735207092513192e-01 
        </Neuron>
        <Neuron NSynapses="30">
          -1.4380953180121709e+00 4.4966515743146618e-01 3.6038441134776966e-01 -3.6277984484284487e-03 7.9871022436262051e-01 2.8477064409538011e-01 4.0599745334076998e-01 -2.0755291254560500e+00 8.4056709953244380e-01 -1.1304053153499418e+00 -5.4793341122269867e-01 -1.3718963641636717e+00 1.0277863768714988e+00 9.5794485368084892e-01 1.0285799316699040e+00 -6.7058661146138099e-01 -1.7927342195879707e+00 -1.7662804764378071e+00 9.7444968214844585e-01 1.1836178292125175e+00 1.5870395648759712e+00 6.7118682358127058e-01 1.5767740969636093e+00 -1.0751670045631658e+00 -5.3144819470309779e-01 -8.8511371533820504e-01 7.7318243465169145e-01 -1.2733626322774991e+00 -8.9142337303837949e-01 -1.8950325136559403e+00 
        </Neuron>
        <Neuron NSynapses="30">
          -6.0733600755642525e-01 1.4066955779865595e-01 1.1165193749143949e+00 -1.6798449831566389e-01 -1.1340006609252022e+00 1.4073223228916636e+00 -9.4777058571627815e-01 -1.3161080232529159e+00 -1.4451475430243088e+00 -2.9194300373779075e-01 -1.9450742630391558e+00 -1.7218680420945660e+00 4.9383099787433732e-01 1.4783495001535625e+00 -1.2801443757768101e+00 2.6285580177621082e-01 -6.5050649107038760e-01 -7.8979236042476597e-01 3.8030804743649310e-01 -1.2760218283645857e+00 -1.3841408314428461e+00 3.4369933979950756e-01 -3.3288552934562660e-01 2.7595982813499093e-01 -1.0237972355208624e+00 4.8577612354280203e-01 3.4797848260265918e-01 -1.2033728852198995e+00 1.7651496572395746e+00 -8.5496221396603311e-01 
        </Neuron>
        <Neuron NSynapses="30">
          -1.2403372203959948e+00 2.6477319952161188e-01 -1.4444170644336121e-01 6.9887608008867685e-01 7.8790393496409220e-02 5.5404540320788553e-01 -2.1837619137057129e-02 -2.6437557431837405e-01 -1.4005413545319512e+00 3.9371671579387474e-01 -4.8368128179167047e-01 -1.4862940572093346e+00 9.0088479275755007e-01 -1.1552622413526070e+00 3.3606736470830519e-02 1.2526342844142027e+00 2.2010945042430677e-01 -1.2041316648566371e+00 5.7524906543487730e-01 -3.0772429717167754e-01 1.7090610776878481e+00 4.4535794551732077e-01 -5.3494925441467500e-01 3.9218697241212430e-01 -8.7442608231918795e-01 8.2775473905073937e-01 1.4381825059294515e+00 -6.8974374310020192e-01 -5.7855711301679991e-01 5.1814040375514482e-04 
        </Neuron>
        <Neuron NSynapses="30">
          -1.5321904531709425e+00 6.7817601427489804e-01 1.4833370038129075e+00 2.4859823010109081e+00 1.5720703244481324e+00 8.9956298683112210e-02 5.0592225303973992e-01 -4.5056386032311518e-01 8.0771855566073206e-02 -9.9779470440261986e-01 9.3806957598482221e-01 5.6364379772419870e-01 3.0014660076556443e-01 5.3200414899701098e-01 7.7861650004255001e-01 -2.1017630101616080e+00 -1.0462398491029781e+00 1.1194942064976567e+00 -6.1147221790761186e-01 5.2315268673137698e+00 1.3998985998439009e+00 5.7900257616490802e-01 -3.2215730322147120e+00 2.3666185485048543e+00 2.2159463215350068e+00 -9.8759849663246801e-01 1.1880857162377576e+00 -1.8240341274815852e-01 -7.6444557850336740e-03 -8.0848011731860170e-01 
        </Neuron>
        <Neuron NSynapses="30">
          -1.3021903200949618e+00 1.0077648538947142e+00 1.0753432380933785e+00 -7.3565832560361644e-01 2.7626005930018749e-01 -4.0196510620825315e-01 5.9920184200155446e-01 1.3910738943235847e+00 5.1109975850372158e-01 -1.4172603121457348e+00 -1.1309956202369642e+00 9.4060675398723348e-01 1.0457751834800708e+00 1.5855910981742254e+00 4.6367816521923316e-01 4.1120500294587647e-01 -1.5133663383210603e+00 9.1852322518107765e-01 5.7632668731359571e-01 -1.1675873945790518e+00 -4.1538242208429133e-01 6.5095480804080663e-01 1.0905437941212046e+00 -2.0153998078319315e+00 1.1562846772915227e+00 3.7907450053255071e-01 -4.7809091259777703e-01 -2.5355726902514830e-01 1.5361945428741517e+00 1.0849000780716829e+00 
        </Neuron>
        <Neuron NSynapses="30">
          4.6520143099019931e-02 1.7483586281380692e-01 -1.5146705718898370e+00 -8.3232105015004809e-01 -8.6183688544647669e-02 9.8254765112930753e-01 6.7028348996851239e-01 -4.3825400416199134e-01 1.7388640690389341e+00 -3.2440823710473804e-01 6.6209034848965162e-02 -2.8354737033931932e-01 -6.6050643790733821e-01 8.6502714229190358e-01 1.1948982611605867e+00 -1.0802251156616893e+00 5.7456658500087743e-01 -2.0245909702428794e-01 -1.2462761277095813e+00 -9.4595652549594900e-01 9.9209583132962242e-01 5.2444495279449310e-01 1.4748456939932078e+00 -1.7036526924126796e-01 1.1153067090136748e+00 -1.2121778683734132e+00 2.0339125814741732e-03 -2.6006471838613537e-01 -4.6983106877550340e-01 -1.5559450380279818e+00 
        </Neuron>
        <Neuron NSynapses="30">
          -1.5355139357967773e+00 -2.4399703188714697e-01 -9.1893618103613339e-01 -2.7272910870022598e+00 -3.4020121731615225e+00 5.9438142305348451e-01 -8.8478613082837876e-01 -9.8482917520978486e-01 1.2605328066000501e+00 -1.1973466262915715e+00 -3.7868639109075661e-02 -8.3565777974849575e-01 3.0513404172031849e-01 1.6141213209551550e+00 1.4878115849691576e+00 -7.7015549948362116e-01 -8.6731319008769281e-01 -9.3791472119496233e-01 -6.1847729043724509e-01 -3.8468853369377682e+00 6.0492180971396703e-01 5.1359989825455232e-01 1.9582533327434941e+00 8.3899261167391226e-01 -3.6854691178195381e-01 -4.1121514498128890e-02 -1.6025941423854813e+00 8.5894171249289386e-01 1.8973740899074365e+00 -7.9417777579963422e-01 
        </Neuron>
        <Neuron NSynapses="30">
          -6.3112731375450914e-01 6.4919142718285761e-01 1.9170946583532089e-01 2.7433087880704958e+00 3.6119061248606388e-01 -9.4178353217164923e-01 1.2508311710234976e+00 1.3999963389116905e+00 5.3371042067924879e-01 -1.0610856149307195e+00 7.5621741335950887e-01 -8.9158488185707777e-02 -2.1034283094997206e+00 -6.4624793979699202e-01 -1.5026568526590776e+00 -3.4419421056419255e+00 -3.5810574180069876e-01 1.8050990086965781e+00 -1.7794389241112589e+00 4.9380024051283922e+00 -1.7389107987865842e+00 5.5109493661670195e-01 -2.9753209228649227e+00 3.4577981997653526e+00 1.5118267845844160e+00 -2.5812788133337716e+00 1.7777495038983585e-01 1.0634889811620796e+00 -2.7727428624640860e+00 -8.2411029458254859e-01 
        </Neuron>
      </Layer>
      <Layer Index="1" NNeurons="31">
        <Neuron NSynapses="1">
          2.1386560098243287e-01 
        </Neuron>
        <Neuron NSynapses="1">
          -7.1870803666536670e-02 
        </Neuron>
        <Neuron NSynapses="1">
          -2.0788133864928690e-01 
        </Neuron>
        <Neuron NSynapses="1">
          -1.6554923690182592e+00 
        </Neuron>
        <Neuron NSynapses="1">
          3.6908570777836364e-01 
        </Neuron>
        <Neuron NSynapses="1">
          -3.6322557690966306e-01 
        </Neuron>
        <Neuron NSynapses="1">
          -3.9324506924562092e-01 
        </Neuron>
        <Neuron NSynapses="1">
          -3.9919345599168915e-01 
        </Neuron>
        <Neuron NSynapses="1">
          -7.7428514325722508e-02 
        </Neuron>
        <Neuron NSynapses="1">
          -1.2443505202682246e+00 
        </Neuron>
        <Neuron NSynapses="1">
          8.1096246742904299e-01 
        </Neuron>
        <Neuron NSynapses="1">
          -7.9211560214745846e-02 
        </Neuron>
        <Neuron NSynapses="1">
          -1.1671701421542711e+00 
        </Neuron>
        <Neuron NSynapses="1">
          1.3224034353748610e+00 
        </Neuron>
        <Neuron NSynapses="1">
          -5.4081660393712971e-01 
        </Neuron>
        <Neuron NSynapses="1">
          -7.9168769446045417e-01 
        </Neuron>
        <Neuron NSynapses="1">
          9.3936733205744927e-01 
        </Neuron>
        <Neuron NSynapses="1">
          -1.0782328080329275e+00 
        </Neuron>
        <Neuron NSynapses="1">
          3.3160146549092306e-01 
        </Neuron>
        <Neuron NSynapses="1">
          1.3117631802672096e+00 
        </Neuron>
        <Neuron NSynapses="1">
          -1.2740077655166291e+00 
        </Neuron>
        <Neuron NSynapses="1">
          1.3409323407475418e-01 
        </Neuron>
        <Neuron NSynapses="1">
          -6.7787937743202320e-01 
        </Neuron>
        <Neuron NSynapses="1">
          -1.9899128008808360e+00 
        </Neuron>
        <Neuron NSynapses="1">
          3.9477914154499816e-01 
        </Neuron>
        <Neuron NSynapses="1">
          9.3272271266268580e-01 
        </Neuron>
        <Neuron NSynapses="1">
          4.3213274571113158e-01 
        </Neuron>
        <Neuron NSynapses="1">
          1.6950707672520720e+00 
        </Neuron>
        <Neuron NSynapses="1">
          -7.8187949013245484e-01 
        </Neuron>
        <Neuron NSynapses="1">
          5.4676140973512544e-01 
        </Neuron>
        <Neuron NSynapses="1">
          -1.1755542842851030e+00 
        </Neuron>
      </Layer>
      <Layer Index="2" NNeurons="1">
        <Neuron NSynapses="0"/>
      </Layer>
    </Layout>
    <InverseHessian NElements="109561" NRows="331" NCols="331">
      <Row Index="0">
        1.2583900590271076e+04 -3.8686529689245708e+02 -3.4796276073355159e-01 -7.1246508534495767e-02 9.1030874555745136e+00 -1.9860510499381294e+03 -1.4340382256562935e+02 -5.9872244331090883e+02 1.7626252903755500e+01 6.7082328596841450e+01 2.1527741015574982e+01 4.5051477077781528e+03 -1.6725376963688987e+03 -7.2588569971390712e+02 1.5818324472257430e+02 1.1421645933835929e+01 2.5154784840820304e+02 -7.1473224967664851e+02 -2.3547633849076738e+03 1.7529865943201941e+01 -2.1304987761304565e+03 5.0619441407341833e+02 -5.6596793368804956e+00 1.0568343266246174e+01 1.7977817848028150e+02 1.9017704040625912e+01 -7.3447677999420662e+01 1.7082369631036315e+02 9.8203896107877881e+01 -1.8443462608785762e+02 -1.0350183027848547e+04 5.6271286265044705e+02 3.2588124697848244e+01 5.6566393443113396e+00 -4.8786388686559654e+00 7.8943553487438726e+02 1.9176100099362435e+02 9.1021597854279526e+02 -1.2898448389729518e+02 -2.2828310235910809e+01 -1.6860358714447560e+01 -6.2880863547511653e+03 1.2364103854889419e+04 8.2171155535156697e+02 9.0937954985856635e+01 3.2540966153864272e+00 -1.7486103168868433e+02 -1.3045034856249225e+02 2.6213101755950051e+03 7.3128336659137529e+00 1.4749741265586140e+03 9.3344615481990286e+02 2.2145305515844784e+00 2.6783426117159923e+00 7.9089475094116011e+01 -2.1665082047776920e+00 1.9766738163047793e+02 7.8520324564669841e+02 -4.0896144046955790e+01 5.2521643626568596e+02 3.5837553339370556e+03 -1.8504691652474688e+02 2.4211281008923876e+01 -1.1642808220838067e+01 1.1611230402497128e+01 1.7587332427341630e+02 -1.4888371275439508e+02 -2.4980647230273451e+01 -4.6497655184145081e+01 -2.1124488504272719e+01 -1.7754778759184859e+01 -6.2274774253082524e+02 1.2561736434499808e+03 3.7502187555588165e+02 9.2489962868699791e+01 -3.0553180627925336e-01 1.1574805121797770e+02 3.3694280964777488e+02 3.0981858775409819e+01 2.9796496310723573e+00 -6.7978041109307946e+02 1.1875224181077210e+03 1.7426402654201862e+01 -1.0637715701684941e+01 1.5472639044561686e+02 3.5641504407142435e+00 4.2070101333436966e+01 3.5445672012405134e+02 3.3173368362115653e+01 5.3398837235088195e+01 -3.2408040736140356e+03 -3.1768871670565240e+01 5.2917235857964499e+01 1.0292267174481298e+01 1.0034060866137425e+01 6.2556885137615006e+02 -8.9425577476165600e+01 1.8449996704460688e+02 -6.3170159816001075e+01 1.2076835352482636e+01 5.2989737342033919e+01 -7.1502713828626938e+03 -9.7888699634928162e+02 -5.8934709023363416e+02 3.0495406373209295e+02 1.4019695767080577e+01 9.7743624841101393e+01 3.2845920844187816e+02 3.4236670122563373e+02 -3.8961900999043539e+00 -2.0922624398489788e+03 -1.6601193348689108e+03 -1.1941893924689140e-01 -4.4179725537838355e-01 -8.6496434755985206e+01 1.2942453621210468e+01 1.3086733731130283e+02 6.0707859362265981e+02 -2.1000333448669420e+02 -9.0686277170228209e+00 -4.1899583188412282e+02 1.6336482184224728e+03 -7.8212302485994684e+01 -3.7016637926666078e+01 5.0221481908360488e+00 7.4779956102893584e+02 -9.6581085736045210e+01 -2.8106385591895296e+03 3.1540368821806680e+02 -9.9669206922639603e+01 -2.5276680195853132e+01 -8.2836938538867580e+03 6.3889155943831747e+02 -5.4696617357715263e+02 1.7403312338554639e+02 -4.2726994347895726e+01 1.0790378177449027e+01 1.3532215827044303e+02 5.8285500552330438e+02 -4.7050361408924033e+01 -6.7942907814394293e+03 2.7873605825529671e+03 1.7541813627114500e+01 -1.1971869958132510e+01 2.4877704489622320e+02 -6.8995721889997554e+01 -2.9682723854704557e+02 1.1228114692527274e+03 2.3171821960440312e+01 -1.1056450182208141e+03 1.5700216448591980e+04 -4.2148961301370935e+02 -2.0545351032389547e-01 -2.2983681421786244e+01 -2.7841622481163355e+01 -1.1758943747267772e+03 1.8839051483242909e+02 2.2574986950605387e+02 8.1377649274947203e+01 8.8439403314037264e+01 -7.7521074260585323e+01 4.1974787218895262e+03 -3.1655506840609405e+03 -5.5747142161779948e+02 -3.5062443624119305e+02 -1.0544115023097187e+00 1.9251329650441704e+02 -4.6392917580822751e+02 -7.6513459104506410e+02 1.1568306494924625e+01 -2.9555193073370519e+03 3.0014209887315542e+03 3.8212865484442062e+00 8.5372906827177033e+00 -4.2066334797548478e+02 -3.9597230060811654e+01 -2.6187472242947069e+02 1.5623929942279668e+02 1.4050022122399071e+02 1.5376743800798479e+01 1.5835116549887382e+03 3.5506671316141717e+02 5.8101447518793528e+01 -1.4458893374859620e+00 -2.1828482442199977e+01 -5.2841047159211450e+02 5.8362567822387454e+01 -2.9155499731054263e+01 -5.7118598789450544e+01 -5.0123250309927677e+01 3.5000907769317074e+01 1.4254585567981881e+03 -4.6210722993716563e+03 2.4026994046072079e+02 1.3599093917120069e+02 -2.1643547929833776e+01 3.8264273047038513e+00 -6.9292293490413920e+02 5.5297914041903073e+02 -8.7746968415982518e-01 -2.6508826077885465e+03 8.6343482691029499e+02 4.0867978068292210e+00 -1.0679145821047413e+01 2.9987582364219025e+00 -7.1479946375548202e+00 4.5771941698790812e+01 1.9828200675507357e+01 -5.1413510664697590e+01 -1.0011281784833116e+02 -3.5490636163687923e+03 3.3097935955018812e+02 -8.2098593055027521e+01 -9.0862640122838894e+00 2.8233760543443804e+01 1.9554589171554110e+02 -4.8177247003427823e+01 7.8376753954798664e+02 9.6267550741243497e+01 -6.7840702716160649e+01 -9.2023516831732039e+01 -2.9020322627090391e+03 2.4825854298397908e+03 -4.0831677839789830e+02 -9.2467340795961718e+01 4.4282676593361092e+00 5.2811388736356676e+01 -4.1755932202871105e+02 3.2528659689416969e+01 -9.8716781489894352e+00 3.2331843393696799e+03 9.2329543857600174e+02 9.5636023764737352e+00 -8.4584728792351758e+00 -3.8435666034249408e+02 -1.6182112590120230e+00 9.4564507896973240e+01 -4.7761125532524076e+01 2.1448953272489553e+02 8.2823433091937829e+01 9.0271699437037169e+03 1.3441124140038454e+01 -4.5275161268080595e+01 6.5831337369343581e+00 1.9668229569784316e+01 -5.0711886079732625e+02 4.8803793284334432e+01 6.5408455019710073e+02 -3.8984902065586951e+01 -1.1158553568486237e+01 -2.8180072034153284e+01 7.6607047235174832e+02 -6.2637069825800827e+03 -7.4526296669741373e+02 -1.2995795697597367e+02 2.1127155736318844e+01 1.4997250625565383e+02 2.3404645873946706e+01 -1.9796912112835716e+02 -4.5109784158152042e+00 5.7897498653311923e+03 1.5442573028507356e+03 -1.0332649129765816e+00 -3.7541397774895389e+00 -3.4980909401239671e+02 8.6331498404875049e+00 2.9397009059635110e+02 -1.1916104148762247e+02 -3.7328924932051322e+01 -4.0292113894830027e+02 4.4410319677317220e+03 1.2103946086399003e+03 -6.7100064678959200e+01 -5.2608688322429941e+01 3.8881429608475059e+01 -7.6520162988101436e+02 -1.3391978371534196e+02 -1.6169625935321828e+03 2.2430418975036946e+02 -7.8518045557567518e+01 -1.7892648521883530e+02 -6.8134609676806631e+03 -1.9735330343018654e+02 -1.0747157180085796e+03 2.8805888048048047e+02 -3.4561327293889654e+00 4.6864750603744125e+02 -7.4917593424760389e+02 -2.5136078095164035e+02 -2.3452882352619561e+01 -1.2642558206070732e+03 9.4870577327290866e+03 3.7316126872312047e+01 -1.7267657881803949e+01 -3.8369654339556348e+02 -6.2136244744576274e+01 8.0476767775604628e+01 3.2243496922955310e+03 3.0834167906997914e+02 -1.2090135747402046e+03 2.0716579313810471e+03 6.0683194977104264e+00 1.8876113149706171e+01 1.5581600063917108e+01 2.5644321937484174e+00 3.8560981596704301e+02 -1.5935316813225700e+02 -2.3183786977912467e+02 4.8643555305916237e+00 -2.6366265997284586e+00 3.4366467591861522e+01 1.1929781785537153e+02 2.0590774261005386e+03 1.2805203567580777e+03 -1.9282050506057885e+02 -2.1105599318090061e+01 1.8306933959781668e+02 -1.0373839232628832e+03 -2.2014578998518459e+00 -1.3237652927167034e+01 3.6448288687557642e+03 -1.2334173778615132e+03 6.0267211964503764e-01 2.4309006354849519e+01 1.1266386823075571e+02 2.3170892547543019e+01 9.0214250524327554e+01 7.8717899884645431e+03 -3.2515015214131495e+01 2.9649648778433556e+02 -3.2596029565659132e+03 
      </Row>
      <Row Index="1">
        -3.8686535103277714e+02 4.1650289181962808e+03 6.3528149237908657e+01 -1.0399992222251253e+01 1.3468824915482932e+01 -9.8310933126206032e+02 1.6513686225850304e+01 -6.0539362031524354e+02 1.5490423644212129e+02 1.3235080645485631e+01 1.2070060888795112e+01 -1.4079168194298807e+03 2.5617572518525080e+03 2.6083501914521639e+02 -2.2044651890763816e+01 -1.6772271596560952e+01 -9.7298746007909962e+00 -1.0161193794888177e+02 -1.3796812516336070e+02 8.0098730737405255e+00 -7.9959876828770530e+02 -3.7624969834228518e+03 6.4612179583928837e+00 -3.4990008510716732e+00 -7.1174850787678380e+01 -2.9542735009249856e+01 1.0029906486691542e+02 1.9330326363947637e+02 4.6308123581433726e+01 4.8776030093092663e+02 1.0147422503320589e+03 -5.0725226109267214e+03 -4.2944242343188591e+01 2.2258226517934521e-01 8.7931201188965780e+00 2.4349319886014740e+02 -7.4333956045638629e+00 -5.8400172552309959e+02 -2.1580708196364614e+02 -6.3919692841549711e+01 4.1065226362747197e+01 9.4019474384494197e+02 -2.4696460629129433e+01 -2.4103663255464360e+02 3.6531916192378731e+01 6.1303305821370313e-01 -5.8836864138082952e+00 1.1672762502418406e+02 -6.2093829362594455e+01 3.8831149904015128e-01 7.2572907564521415e+02 2.6682636889994969e+03 -6.1129100942821477e+00 3.6418432956887528e+00 -1.6196517651398835e+01 1.3053501933147590e+01 1.1684873180443435e+02 5.9398078085527277e+02 -6.3490130393913873e+01 -2.8707737115489675e+02 -1.2901771902696919e+02 -1.9373011436984069e+02 3.2850164895026552e+01 -4.8546888923524421e+00 9.8632648192587720e+00 1.6535523485202503e+02 6.8800739723309281e+00 3.2766363341256408e+02 4.9618983664614234e+01 1.3575536895921694e+01 -1.3792197558922852e+00 1.2947974058296305e+02 9.3602666578407423e+02 9.4317347326412548e+00 2.7811040539034401e+01 -1.0505194264130678e+01 4.9411907441166200e+01 -2.8537279580533237e+01 1.1558168322988831e+02 6.2652669710631130e+00 -2.1424785032816118e+02 8.4024994104036989e+02 8.0751136914347725e+00 -9.3303927932183273e-01 -9.9976846396580271e+01 -1.6473209066331147e+01 2.7322087434255966e+01 8.8785099277984773e+02 -1.0276888714696183e+01 8.7870107111171706e+01 2.3255608888260383e+02 -6.5013845527771252e+02 -7.8808332426659096e+00 6.7650708006398794e+00 -1.2770423192487441e+00 1.8249838700516409e+02 -4.0886582746939261e+01 1.7919095149517679e+02 -3.3317413298471706e+01 2.5171088328403435e+01 -2.3187913320483723e+01 -1.2744556406715706e+03 -2.9046672227234058e+03 -1.6786980627185770e+01 -5.9837829802334703e+01 -8.1478723956262478e+00 4.1923467471799952e+01 -1.1943812566155199e+01 -1.4987997950233543e+02 -4.0999455438686745e+00 9.3900541775352303e+02 2.8463111471429875e+02 -2.1763468507479984e+00 -2.6297146091829626e+00 3.1309844742592549e+01 -9.1285673550838951e+00 6.2112691646233024e+01 -1.4070927661154949e+01 -9.3756460702081483e+00 -1.4008790885733859e+02 1.2137782989860519e+02 -6.6376061982015244e+02 6.7821445823385034e+00 3.1192354756010023e+00 -2.4234968797779128e+01 7.9665855822488879e+02 9.5757152132918790e+00 1.0427565051729707e+03 -1.7110187458637336e+02 1.2504028510262004e+00 -3.4849446795520841e+01 -2.2031935206225842e+02 -1.3810636971058580e+03 -1.4525554059908558e+02 8.2575087805695233e+00 4.2459670024477845e+00 3.5930704978923167e+01 -5.2039380596303715e+01 -6.7865857709321062e+01 -3.3453161564690719e+00 1.5396054487293625e+03 4.1841955298477251e+02 -1.3538301532523700e+01 -9.0213015099435587e+00 8.0854411724784896e+00 1.6715603461630558e+01 -5.0192748852412251e+02 6.4471662456061483e+02 -1.5791446199553462e+01 6.5358624342484507e+02 -9.3530483405073437e+02 3.5465316806859310e+03 6.4006385307995970e+00 -1.6135612867609289e+01 3.4164328624726323e+00 2.0621186927184982e+02 3.3597971346047103e+01 -1.3327163787694718e+02 7.9943652089757009e+00 -2.9615589710167640e+01 2.1540022839826154e+00 1.8356000435452456e+03 -1.2980113878135328e+03 3.4090267604581811e+02 1.5932335013263980e+01 1.1170245835859207e+01 -7.6235699951369753e+01 -3.4063085842921417e+01 2.3987681056053299e+02 1.2444850996447984e+01 -1.5925564830674812e+03 4.8022845749174553e+02 2.6834046778610343e+00 1.0523423053873744e+00 2.4182754403032877e+01 -1.1010823098483460e+01 -1.1349209215682848e+02 9.6621309763851730e+02 4.3347910902440091e+01 2.1199199828276718e+02 6.7045700856370968e+02 -2.9900627646859871e+03 -2.1922010539651662e+01 9.4700941969591224e+00 5.7775930364564037e+00 -1.9818916493942294e+02 -3.1422745177583757e+01 -2.8590446205068156e+02 -1.5198571896339715e+02 2.1879199767334224e+01 3.7141404268441683e+01 3.6318915115744596e+02 -1.8405771520696085e+03 -1.7079171179552341e+02 5.0071507182797937e+01 9.2647748267585577e+00 8.1625669447142286e+01 3.0976660349871402e+01 -2.6376188214654076e+02 2.2602611493589952e+00 -1.3904137114576770e+03 -4.7356902781754661e+02 1.2321431902922337e+00 4.2110109998118994e-01 -9.5798835564068483e+00 1.9706764735355481e+01 2.0797346221565572e+01 6.0965724302418812e+02 -5.4809154138553161e+01 -3.0676074213218410e+01 -4.9596909260298418e+02 -2.2099657586021479e+02 4.0672108736822580e+01 2.6978791635606538e+00 -1.9190936852369546e+01 1.7353486186603149e+02 -5.6570706998196727e+01 -1.0153617315734622e+03 9.9013028249894461e+01 8.5107888665882641e+00 -8.1275248963412565e+00 -1.8986817972159934e+03 -1.1325753508399632e+03 8.2283483262038587e+01 3.5073787892765438e+00 3.1156349849386569e+00 1.7506814464209782e+01 -4.0359856721430049e+01 -8.8041488870746782e+00 1.5905564570544508e+00 9.7672098366690955e+02 7.4618547714024021e+02 1.0067976092273285e+00 3.4639906440605905e+00 5.6713910407457945e+01 -2.5183758587826759e+00 -1.1990549995294850e+02 6.1035465203346439e+02 6.5532150538229274e+01 1.3184984967328094e+02 -3.1080337838077833e+02 -4.2026586892396881e+02 2.0645887911691350e+01 7.4719500218308950e+00 -1.6534619930227798e+01 1.3327148880656728e+02 2.3163758770026384e+00 -6.9368805196503399e+02 1.4789467076652265e+01 1.9821973904107704e+01 1.6423672932655979e+01 7.3620782370313441e+02 -1.5190059846023948e+03 9.4516537942013713e+01 1.5950404133316191e+01 5.8895659061446439e+00 -1.5585168226605024e+01 -1.6051641758769556e+01 8.9073965465986555e+02 -4.5385708770480004e+00 -2.5848233684724842e+03 6.1076490864068001e+02 5.0224956471929652e+00 4.5542654045269932e+00 -8.3038182243204499e+00 -1.0479651329394219e+01 2.3540759809973417e+02 3.9696233061919503e+02 6.5272314815435015e+00 -5.5955150764038967e+02 -1.6967960909924250e+02 -1.7416342603852809e+02 8.7702126964953422e+01 -1.0079217438403891e+01 -2.0575421735274162e+01 2.7726806724388678e+02 -3.9548525093259336e+01 -1.3606464353445731e+03 -7.7194596887993100e+01 -1.9804205856015948e+01 1.8143562586283004e+01 -1.1778966188900658e+03 -7.4826428955981294e+02 4.3812129634732507e+01 -7.7831837676320337e+00 -1.0509656484024525e+01 -9.0427781991746201e+00 -1.3869256292973193e+02 2.0075892784704553e+02 1.4808052151055321e+01 2.2917934032147014e+02 5.2421684680817252e+03 -5.5967000474433704e-01 -3.5895995663506781e+00 -3.0686586424519874e+01 -3.7384325653603327e+01 -1.2270985890774796e+02 4.0813725214634596e+03 6.3376792709537398e+01 4.9964050841287036e+02 2.7776394202265351e+01 5.9230499918205226e+01 -3.0203863479912743e+00 8.7808734316910844e+00 -3.4917387177811552e+00 1.5848695101325134e+02 -5.5526713470804587e+00 -4.2482003551159102e+02 7.9463099596873441e+00 -8.6349077310851527e+01 7.0257745301292669e+00 5.8196241687172574e+01 3.0735158103160475e+03 1.9542236044923289e+00 1.5508331070239663e+01 -6.1311884654523423e+00 4.4254429935834359e+01 6.0992072804994791e+01 3.2122422082791570e+02 -1.2098665388743534e+01 2.6094234333933100e+03 -1.5168538256791539e+03 1.0098493629105605e+00 -4.7345192500623057e-01 -1.2261040314883260e+01 -6.0244990910845093e+00 2.6394643159408247e+01 7.1238179483896338e+03 3.7491632119817098e+00 3.7361136116814390e+02 -2.4246534300217713e+03 
      </Row>
      <Row Index="2">
        -3.4795834847411777e-01 6.3528152647054952e+01 4.9176583143430250e+01 -2.1896799794290844e+00 1.0086968287889837e+00 -3.0360278649541907e+01 3.6350593230987478e+00 1.0438613034501671e+01 -2.7960168379280873e+01 6.8281902484626356e-01 7.6023545088941722e+00 -8.6530951444268140e+01 2.1886987919211165e+01 -9.8505747323989112e+00 7.8661960690149852e+00 9.1353170842864451e-01 -1.3300935604738688e+01 -2.5565172870165082e+01 3.8862067253553505e+00 1.7727860114669629e+00 2.2050910745230743e+02 3.7762314819634497e+01 -1.4677955055499676e+00 1.4204256586808595e+00 5.3104762180383762e+00 8.1447166982534158e-01 1.8296476564400965e+00 -5.7649393606169497e+01 5.8072250763014488e-01 -3.4434269788290806e-01 2.8196095480733469e+01 -1.0397689027431275e+02 -4.0650677783292409e+01 -8.7513678074100243e-01 5.2878967974252544e-01 -8.4890032522667447e-01 -4.8374246430502632e+00 -6.7922913503655096e+00 3.1876372640179998e+01 4.2080674550449295e+00 -8.6176734325522020e+00 5.7738812393597243e+01 -9.9318065660515970e+01 -9.8486240253684798e+00 -1.4406816735479904e+01 -4.4011585361594641e+00 2.1119907208506397e+01 -1.2443570643257758e+00 4.5555584634661457e+01 1.9402743596551053e-01 -3.3290607411738034e+02 4.6243175510132517e+01 2.4554061448221356e+00 -1.8430989264502040e+00 -2.5183820457442607e+00 -5.7375502111689780e+00 2.9311929180596872e+00 5.8275854907228116e+01 2.1795288388134839e+00 5.1470188687626797e+00 1.8030850659072044e+01 -5.0970508855534167e+00 4.0238255202572644e+00 -9.2175590361184834e-01 1.4774844843615798e+00 4.2734636263237789e+01 -1.0023392768537978e+01 2.9919178848277701e+00 -2.0944065882412428e+01 2.9798944669265914e-01 1.4056679150305911e+00 1.3640572051914242e+02 -8.7310073940759381e+01 -1.4179854702829003e+01 1.2272851663713571e+00 -3.9208330037679334e-01 5.9907821086497073e+00 1.4150139504003850e+01 -2.0574060514604451e+00 1.5885961323169113e+00 -1.2033606294110781e+02 2.7828675670743820e+01 5.3593740443624416e-01 -4.8091990894858927e-01 7.7905745089541512e-02 -1.7012463013006729e+00 1.1951124361350232e+01 6.0920227133920468e+00 1.5373729234654094e+00 1.9196574719187602e+01 -4.9606199638148972e+01 -1.0425608190920595e+01 -2.8542049745045603e+00 1.5963266747817650e+00 1.3622755930629225e+00 -9.5112193878450967e+01 -2.3787831842192397e+00 -1.0570027576683898e+00 7.3294468812321147e+00 -5.9221037779926711e-01 -4.4261333032457815e+00 -4.9090431389891563e+01 -2.5181895521439509e+02 -6.6045304494470756e+00 -1.1046358390067418e+01 -1.0284366093109183e+00 1.0773792220326536e+01 -3.4346870493582538e+00 -6.0339436836687355e+01 -1.4500778632973892e+00 5.6344853552322206e+01 -6.8566940176527140e+01 -8.9983429045379115e-01 7.4296983766285907e-01 8.9389395859366001e+00 -9.7981971246848887e-01 2.0040967484938257e+00 1.9699612994235238e+00 -1.6889644436429012e+00 1.1108549508205613e+01 -2.1695466419676346e+00 3.2078324734624218e+01 -2.5754494101428712e+01 1.2622285927785439e+00 -1.7657732283628444e+00 -5.0299245687647883e+01 1.9838116787332947e+00 4.8442474883204170e+01 2.5707491546950166e+01 2.5064404473699420e-01 -5.2606531902197231e+00 -7.6107558581901060e+01 -8.1556889411659938e+01 5.5958974663009791e+01 -3.6159409796436925e-01 3.3739843159808225e-01 9.0102764381643183e+00 3.5116085121502714e+00 1.9487838562493977e+01 -1.0029089803386579e+00 -1.3171531498594479e+02 1.1037271114193445e+02 -6.0853633684185526e-01 3.6280559651583100e-01 5.6875280150212468e+00 1.1426996140279480e+00 -2.0188389579742502e+01 -1.6201983638376831e+01 -1.9921983572329816e+00 -3.4612721621284081e+01 8.1896596049335173e+01 8.3638917150945005e+01 3.1063090946693229e+01 -3.6649144540321315e+00 -2.5835964558070734e+00 5.0002576373756199e+01 5.4062399916695298e+00 -8.1915712103473792e-01 -6.2830651829966051e+00 -7.0320609594296624e+00 -5.6134078222160255e-01 -2.2916699396093574e+02 -1.2602863968743350e+02 -6.9918981536422979e+00 8.1081686848305008e+00 2.0884288040854027e+00 -1.8435775432457824e+01 -3.3872596471478182e+00 6.2524886672223818e+00 3.5576319010360464e+00 -8.2265830716205201e+01 1.5592516699701034e+02 -6.9296483915662499e-01 2.7141606547741750e+00 -8.6400813928900710e+00 3.6774412711862352e+00 -2.0442641479810542e-01 -1.8222232176272630e+01 5.1181661933581477e+00 -6.6896630092630609e+00 5.0310754109110576e+00 -2.8671126599151236e+01 -6.3966978073675920e+00 1.1637215305398234e+00 -1.9260440071696155e-01 2.6962898221636156e+01 -9.3838174573900801e+00 -4.0434466449008193e+00 4.9980206516976162e+00 8.5614892197571635e+00 8.7426056620955664e-02 -2.2418316530840434e+02 -2.9737430340596049e+01 -8.7115508551409206e+00 -6.6827711700446848e+00 -1.6782383707237638e+00 1.3313622135468854e+01 -4.2767953562595737e+00 6.9795641702705566e+01 8.9964386809847974e-02 -2.7043540515425546e-01 4.8337108400263560e+00 1.7053542733601814e+00 -2.1383969745546896e+00 -1.6970859956651097e+01 -2.6431991029334774e+00 -6.6486931742065924e-01 3.6138407575484123e+01 1.9831375563212481e+00 -8.4022112678365115e+00 8.1800321521296535e+00 1.0941509331563065e+01 -1.8028953338493210e+01 -1.0053589948368252e-01 2.4786175600621119e-01 -7.5435294740516383e+01 7.7405195901464241e+00 1.8667959344524988e+01 2.8066866108091091e+00 1.4934564190713457e+00 -2.1822318487242534e+00 -1.3846293369420619e+02 2.4962181942668948e+01 -2.4327865478843776e+01 5.1024772604043029e+00 -1.0089321705700194e-01 -1.0384564376761981e+01 -7.7522258211443464e+00 -2.4240974627556845e+01 -2.1793203224169896e-01 3.4558941798671889e+01 1.3427497787906486e+02 6.7852514290209442e-01 6.2718930611291257e-01 2.6393814553747479e+01 -7.3274808004689862e-01 8.1253261314255152e+00 2.6995538462435396e+00 4.5493371882119149e-01 5.7640100602651927e+00 3.6452680192404216e+01 -1.5593560385470937e+00 -6.4758700192480774e+00 1.5367703792874505e+00 8.0818738959368697e-01 1.1336544805457667e+01 2.0493718901310132e-02 -4.7015474856301793e+00 -1.5369829895261429e+01 5.3531661695231503e-01 -4.7989047615710430e+00 7.4470487058009709e+01 1.6119032973830241e+02 -2.4864575315662389e+01 5.6141220853802452e+00 -1.6914090580996949e-01 -6.3133090565921890e+00 4.1675180944745174e+00 2.1030636099071479e+01 -1.3988209338008160e+00 -1.2863238815919325e+02 8.9814923706396897e+01 3.0051487189808107e-01 1.1162146246559368e+00 -1.7958325960542219e+00 6.7077328907611278e-01 1.7776141962412339e+01 7.3932141173726365e+00 3.5977059826956204e+00 5.5112316171800437e+01 3.7072277613921727e+01 6.2337097775205280e+01 -8.1623811261026429e+00 -2.8382660965552060e+00 7.9315261765529854e-01 -8.3452181145984440e+01 -1.9518073218386012e+00 3.8965778403336643e+01 -7.6080175433016919e+00 2.8878474240366847e+00 -7.0369872105424092e+00 -3.0811286459718593e+02 -4.8159203402714525e+01 1.6275599181419054e+00 -3.4215602877951836e+00 -1.7196202574014228e+00 -4.4177567399417992e+00 -2.0298547671747588e+01 1.0751787672223621e+01 2.7735114467499660e+00 1.7963026199126119e+01 5.0118811910455435e+02 -2.6629868612997765e-02 3.5268112123912516e+00 2.6546049020893342e+01 -1.9183259398761385e+00 1.0366588976122578e+01 -3.7191865904143995e+01 3.5334746342783694e+00 1.4608921188813735e+01 1.0516753756531122e+01 -6.6551172761617061e-01 2.4666459317385283e+00 2.5771297712417116e+00 1.0963843241046378e-02 -4.7183706499005375e+01 -1.9163574341769722e+00 1.6359842356655530e+01 -7.9713297211075784e-01 -1.3011024344438688e+01 6.2216111545463040e+00 -2.4777439632542858e-01 1.0595302528630399e+00 3.0346579575428073e+01 4.5863867486213454e+00 1.4754121604813810e+00 8.1250574309929515e+00 -2.9523644979274252e+01 -2.0109532448755044e+01 -3.2608181888838521e+00 2.3335980195065567e+00 -8.5062123971694902e+01 2.2186263488342878e-02 3.3147707350190263e+00 2.1057101578283017e+00 -2.7797966789878217e+00 7.0045741710063254e+00 -9.4761711021310731e+01 -2.9561855332611531e-01 -7.5661593936825140e+00 -4.2583434538341134e+00 
      </Row>
      <Row Index="3">
        -7.1246787216159305e-02 -1.0399992591226999e+01 -2.1896799761194146e+00 8.1123779922968442e+00 -2.4242634509474226e-02 -2.7942442859615241e+01 -4.7250178534348706e+00 -4.5666577944017455e+01 -5.1786357595488459e+00 -8.3368531277455749e-01 4.6620514045419276e-01 -3.1610020938074243e+01 2.4285332079607713e+01 -4.9375399786590990e-01 2.0586053435198370e+00 -1.2716740763115124e+00 -1.2863991300303139e+00 -1.9766064399811722e+00 -8.2705840852207828e+00 -6.4291568363996214e+00 2.7203065048976782e+01 1.5877872689006082e+01 -2.5691148505535786e+00 -4.6895594263354212e-01 -8.2798769616027512e-01 8.6578825809377524e-01 -6.0384749377882851e-01 -3.8203504773016439e+00 -4.0469906987241142e+00 -4.0563326890443729e-01 -1.2189075476030249e+01 1.9348156368010516e+00 1.9017790960499630e+00 -1.6962035266802571e+00 1.5483132933684604e-01 1.1760950013982798e+00 8.5346602175891828e+00 8.9081499339734407e+00 2.4544066856657829e+00 3.0299250631981289e-01 6.6876496314805939e-02 -2.2692386598880120e+01 -3.4400597436530788e+01 2.0313583227747323e-01 -1.8655885978562801e+00 1.8517515075254214e+00 2.5577394657548553e+00 2.5006558950228701e+00 1.3873395937922043e+01 -3.6821499698326887e+00 -4.2680948512769433e+01 -1.3694489746792931e+01 1.3557544387373328e+00 4.6227374901011181e-01 3.6934519474579774e+00 -2.2992803157109393e-01 2.1500618987497928e+00 4.4091333413799543e+00 2.4235329548028410e+00 -1.4003479590549879e+00 -3.2288462531077997e+01 9.0148677108193311e+00 -1.2765440233257845e+00 4.9272191209296894e+00 1.3738375405743715e+00 -1.9467104254844916e+00 2.4053448912473741e+00 4.2787220724037995e+00 5.5641906238719399e+00 -8.1401019018865095e-01 4.5844177966928823e-01 4.8609667978229760e+00 1.7773855678585750e+01 1.5117744023806170e+00 -5.6179768884399917e-01 -3.9215314473809593e-01 5.6944696854236110e-01 -1.4795185481321755e+00 -1.0052964214563787e+00 -5.7497021370925543e+00 -1.8425089347594700e+01 -3.6344648022119372e+00 -3.0930975769269847e-01 -4.3148973328320475e-02 6.8310553186525986e+00 6.4938713422257721e-01 -1.4903550940248400e-01 -4.3863840415597299e-01 -1.2803094711024947e+00 -1.2598278745150573e+00 -2.8021153863722279e+01 -1.2330318004746044e-01 -3.8576612381780784e-01 -4.9191040713121259e+00 -1.2036293703632319e+00 2.9482207203344872e+00 1.5752607914776662e+00 3.9495404295939593e+00 -2.0150216630969373e+00 3.5312399357442381e-01 -1.7261259254897003e+00 3.9661901005490563e-01 4.5631347212558310e+01 2.3887612542418371e+00 -3.9020512131648672e+00 6.8722115719708654e-01 2.2241022416458369e+00 -4.4969594589268329e+00 5.8789535270909212e+00 5.0310157697280529e+00 1.0322365671442867e+01 -4.1081402702326928e+00 1.3185318457483934e+00 -6.0156518263563163e-02 -1.8278087875733071e+00 -1.8966104516925369e-01 5.9615823028660453e-01 9.9500246387286184e-01 3.4731350285107001e+00 -8.9304667874990784e-01 2.4090702262635686e+00 3.8594128021249219e-01 1.2539630671060287e+00 -4.1147351059060533e+00 1.0657695480261836e-01 2.4158982095314538e+01 -4.2051339966200816e+00 4.3014506638854044e+00 -1.0601218060151897e+01 -1.8937999702302810e-02 1.1669718161630391e+00 -3.5514622543058124e+01 -4.6601820523253167e+01 1.1074586205924390e+00 -3.4484153801912707e+00 -1.4169770819718644e-01 -6.6484067772895994e-01 1.0673508902114670e-01 1.0097789193172080e+01 4.9345107604806770e+00 3.0754813127987973e+01 -4.9038385141644014e+01 1.3788547436647645e+00 1.4702497300461570e-01 -3.4481400655481567e+00 -1.3986265738873938e+00 -4.6855742601193384e-01 6.1914076788238219e+00 5.7097396441635073e-01 1.2875410144540115e+01 1.4624207023172371e+01 -3.5910154101501273e+00 -2.1575479350621141e+00 1.1840801220043190e+01 1.5340073289187746e+00 3.1180809789688144e+00 -1.1131726724334099e+00 -8.8138474856812490e+00 -2.5623669384209768e+00 -2.6354697445522596e-01 1.1358326982500953e+00 2.8854204593101468e+01 -1.6522597239589999e+01 5.0188583473632713e+00 4.3089293470698742e+00 -6.3014327516573110e-01 -1.9653014124448103e+00 -1.6413841693045272e-01 -9.5841300021406077e+00 -1.2797566676648470e+01 2.4574097026583409e+01 -3.3094554533621803e+01 -3.5953690828063025e+00 -8.6189657698191202e-02 -3.0113784439645013e+00 -5.5897303814864041e-01 1.4214565179282594e+00 1.0801253359172960e+00 -2.2446136427974270e+00 -2.0570817803633012e-01 -3.0631467770277744e+01 2.8585162818103091e+00 7.2635785381312407e-02 -3.3481641063431469e+00 8.5909641749586402e-02 -6.1210775121968970e+00 3.3877169586945350e+00 -1.0040340964787188e+01 3.4352293730872101e+00 -8.7807036523856308e-01 1.2740239338995951e+00 1.1126575461178344e+01 2.1463361759652013e+01 1.1416483211084787e+00 1.3958865990962031e+00 9.4157143101986018e-01 -7.9430953020386341e-01 5.9408453490860644e+00 1.4171097502020871e+00 7.6434793733204731e-01 -1.5352162922762526e+01 2.8377531029065448e+00 1.2084978487947298e+00 1.7367380919103600e-01 4.2544030864550946e+00 3.2872405855459064e-01 9.3080132728749310e-01 1.7419396352240306e+00 -1.9529994557458234e-02 -5.1562528104011669e+00 5.5160178332651576e+01 2.2538859064786574e+00 6.6973897551563399e-01 -4.1886329072943995e-01 4.5085331935736472e-01 8.8213660622314105e+00 7.3741601472912244e-01 -1.5300367534908677e+01 8.1634554852982717e+00 4.6125073511159320e-01 -3.4953627731698944e-01 -5.7804659389833489e+01 8.8988806279286621e+00 5.0211788900119831e+00 2.2879410780264995e+00 -2.7133811056108514e-01 -1.2098605658745611e+00 4.4380452816155378e+00 -7.4002593281943163e+00 5.0210774632225275e-01 -4.1761706860159450e+01 -3.2086456274196919e+01 2.3972584679536960e-01 1.2492065910178596e-02 -4.9486214720184662e-02 1.7097955483241276e-01 1.9203634695637017e+00 5.1355186590788957e+00 -3.2378560812163135e+00 4.3334288083080974e+00 -3.5838492281045497e+01 8.6542178912934205e+00 5.5897028324876308e-02 -4.3929963302937720e+00 -7.4707462237784283e-01 -1.1465527364995310e+01 3.2941158130679637e+00 8.2176024387894842e-01 1.3927627734496962e+01 4.2914095021359860e-01 -4.0991668867880704e-01 -1.2743305783765264e+01 6.6332010214567081e+00 3.1698437856624144e+00 4.3335521977644431e+00 1.9818300152588364e-01 8.0898856591112844e-01 -3.9632521342365545e-01 -1.8460207856225818e+01 5.5225321818221351e+00 -1.6301282417738538e+01 9.7860270817877826e-01 3.8979106678349029e-03 2.2470258178618785e-01 8.3409424839006752e-01 -2.5986723588774691e-01 1.1800895638765603e+00 6.4502111960767765e+00 7.0736700915725492e-01 -6.5825580447093293e+00 2.6867579675798595e+01 1.5203448789074962e+01 -1.2949866087016366e+00 8.4455076246963028e+00 1.4789369586938186e+00 -1.0638792879599926e+01 6.3311850731782204e-01 -5.3215199293133033e+01 8.3008836071495473e+00 -3.6855830957203128e-01 8.8689865698751791e-01 -3.2373542971354595e+01 2.9671696818029311e+01 5.4065778595986931e+00 6.6971811676440529e-01 -2.5299442768731595e-01 -1.1188091524987338e+00 2.4915475560803406e+00 -3.7524507156706033e+00 -1.1114108806875448e+01 4.7834866953350037e+00 -6.4777544140664915e+01 -1.9333659729031005e+00 8.1760333195153662e-02 1.7894995657938200e+00 -7.7880002384276925e-01 9.0433934656952486e-01 9.9548610564669531e+00 -4.8760608076863283e+00 4.1393327289903965e+00 -5.2879487442170783e+00 -5.3070522514939922e-01 -2.2501501608912403e-01 -1.0409554179363784e+01 -1.8283235791809543e-01 3.9275663584714398e+00 -1.2346234739094377e+00 -3.3218586328277011e+00 2.8627090694307844e-01 9.8231168177233041e-01 -4.8865912039847931e-01 1.7815680532973133e-01 -6.4203706822030924e+00 -7.3501768289820868e+00 3.5566426480312976e+00 -7.1810822954174613e-01 -9.2582153369926268e-01 -1.9371451771305388e+00 -8.2761265546484637e+00 1.1561289587803151e+01 -3.2485714373926164e+00 6.9068921472347986e+00 6.1844889837726869e-01 5.0935151043647642e-01 4.2050339845585671e-01 1.1318276143049291e+00 1.4172407245193392e+00 -2.8838709106238278e+00 1.8679394287698412e+00 5.2520540338416355e+00 4.9670914069278788e-02 
      </Row>
      <Row Index="4">
        9.1030876918989563e+00 1.3468825237591769e+01 1.0086968351695591e+00 -2.4242633776376692e-02 1.0668084769923626e+01 4.6078109498699419e+01 2.4753038332065458e+00 -4.0349313060550053e+01 4.3581842742047030e+00 -4.2716106055006808e-02 9.9202738641001087e-01 -1.3833193398926497e+01 6.7251903723715941e+01 7.0914521234405239e+00 1.0418455234859896e+00 1.5946102197416709e+00 9.2233027770211251e-01 3.0242752973150655e-02 7.6693356363453802e-01 -3.6739287823547162e-01 -3.0739536100616505e+01 4.6201477652347677e+01 -7.6966850983404578e-01 1.2537285587071789e+00 -1.2874195697981154e+00 -9.4673863736537089e-01 -2.1645625393125130e+00 -7.7447744692399283e+00 4.4687489629192412e-01 -1.2659755371273771e+01 3.2857411836792075e+01 -2.2301632279720824e+01 -1.5008586567965780e+00 5.4129343622349579e-01 -1.0571074267211095e+01 -2.0414061422363091e+01 -1.8759351975772993e+00 1.4615392786286639e+01 -3.1772377763708017e+00 4.1254910471733020e-04 -1.0870004477465522e+00 3.1421694117596871e+01 -9.2119827445998567e+01 -6.0953320603708327e+00 2.8544088988866196e+00 -1.6715192961476240e+00 -9.3037762096901333e-01 2.7399474679725291e+00 1.0203542267870681e+01 6.4249718777710463e-01 -1.2920569584595235e+01 -6.4749806393303132e+01 9.0640980944352867e-01 -8.9385229360354335e-01 -3.0134554789177201e+00 8.1124155143815579e-01 -7.6729620946686805e-01 4.6575408291654821e+00 2.3509313069320861e+00 -1.2142239062821620e+00 2.5306434064717465e-01 1.1133672187956540e+01 -3.2762310622389390e-01 1.9869209703122770e-01 1.4513756652724996e+00 1.2375346873932568e+01 -8.4556393497944882e-01 1.9659765886735656e+00 -4.9146104337280256e+00 1.6933849698941628e+00 1.2170057335253850e+00 2.9216354035805072e+01 6.3139777083502558e+01 -2.7173307680285874e+00 -1.2360342798336901e+00 -1.5609237579316967e-01 -2.0538539924443927e-01 -1.7586409646554029e+00 -7.1595180365877296e+00 3.8947831321323623e-01 -5.6674221641201576e+01 8.3408630256369278e+00 -2.5862853472466169e-02 3.2118062168194150e-01 5.4281032547319974e-01 -3.5267452386744252e-01 2.1467086622894094e+00 5.3346072083574114e+00 -4.9488896861764120e-01 3.0464122923325991e+00 -1.8014031742315723e+01 -5.3365452968037275e-01 -1.0842832310733930e-01 -1.3823223782941485e-01 -2.5175694435309071e+00 -1.1187251927827736e+01 6.8702263514789752e-01 2.1349555476389241e+00 -5.4398792387068795e-01 1.5793051011452064e+00 -6.8560235005659798e-01 -2.5610217060837243e+01 4.0414841727881182e+01 -1.3252575935507387e+01 1.9291616390996711e+00 -4.1910229132834792e-01 2.8821470834013285e-01 4.7109910149909018e-01 -1.5754671980571654e+01 8.8973638048208334e-02 4.6524797879786860e+01 -1.4146348649440846e+01 1.3280558044007290e-01 -3.9969502984618088e-01 2.2182951676879781e+00 7.7469656543616816e-02 6.5630394615463161e-01 -5.0808471796480248e-01 -2.3509346170061960e+00 6.7143046108664262e+00 -3.1240538100362393e+01 -1.9897688875939906e+01 -2.3292584814610984e-01 -6.2522818407613312e-02 -5.1070128973975759e+00 -3.3355078134653553e+01 6.9018323448312735e-01 2.9969777551279282e+01 2.3919761469306238e+00 1.4045905587795526e-01 -2.7373195050179975e+00 -4.9316610190480738e+01 1.3309439056939169e+02 -5.0528634236344914e+00 -9.9224640926504293e-02 -9.3872502592782725e-01 2.6630348417580292e+00 -2.8573380577375298e+00 2.8441898075347837e+01 -4.6979129603090769e-01 4.6033518701195135e+01 -2.3154905284024778e+01 6.5416877764672587e-01 -8.6447003327641270e-01 -5.0300883954084608e+00 -3.2792595054182833e-01 -1.8722976952859045e+00 -2.1493959667678084e+01 -1.1496369925174346e+00 2.3572795395945384e+01 6.6683754358270217e+00 8.0455758824124253e+00 2.3825504521755603e-01 4.6260571663744754e-01 6.7719382875559955e+00 1.9870419847796843e+01 -5.0937410826907996e+00 7.3047500434620738e-01 3.6761582524611844e+00 2.1998272596697399e-02 2.7918787646746615e+00 -6.0823827973411273e+00 1.4646478446500743e+02 6.3372953587144787e+00 -1.0230777610575457e+00 5.7162557647735679e-01 -1.4661777237291056e+00 -8.4807771693050193e-01 -1.8682612645417733e+00 -3.0898557712008190e-01 6.3944208613464241e+01 5.7259359625094064e+01 -5.7278882402883546e-01 5.7651713335117316e-02 6.3915663667682763e+00 -1.5301748004372678e-01 -1.9141035008024980e+00 -1.1664340894974538e+01 9.7801267004567483e-01 5.4536837338208377e+00 8.5046793336925930e-01 -2.2119145655096901e+01 -1.0478757878746436e+00 -1.2039518223752585e-01 -4.5290390097559481e+00 -1.1693596321532640e+00 -4.4264751565158331e+00 6.3618098934193767e-01 -3.1625531199662693e+00 -4.3076846363978094e-01 -2.8944261063941590e+00 -7.3211840225356895e+01 4.6171844637755058e+01 -4.5421803062264061e+00 1.2965128200232721e+00 -6.5438123770244738e-01 3.7450662151488268e-01 3.7622837453621569e+00 2.3536344450985887e+01 4.0086236778737211e-02 5.2150356790842025e+00 -3.0697309028399999e+01 7.0505263892254166e-01 4.4651395285074647e-01 2.3963050703677902e+00 2.9585199498595571e-01 -1.5439175887649585e+00 -3.6813863570766880e-01 2.3921617086043101e+00 -1.9895209358619510e+00 -1.8230701805280859e+01 9.9846893038725515e-02 5.2648742155430006e-01 -3.6286856452358907e-01 -2.5929118544877139e-01 -6.2339266684874204e+00 -2.2091415098812721e+00 8.8101941247626101e+00 -4.1735590518029673e+00 -5.7108179993949482e-01 -9.2263257933402842e-01 3.6775151467376844e+01 -2.3946663431402641e+01 -7.3526986384258937e+00 -1.7462746390398940e+00 -2.1166590411141745e-02 2.8877964254481205e+00 -2.5469304090886768e+00 -3.3774514832295122e+00 -2.0781143153315795e-01 -1.7186697630386512e+01 3.7960915379888249e+01 2.1455286773220816e-01 -9.0196917524931974e-02 3.6069713980924369e+00 3.9373155503684076e-01 -1.4146017055796678e+00 1.3345439363357388e+00 2.3224879063043495e+00 7.5778574976346089e+00 3.3139841220516260e+01 2.2487007836240672e+01 4.7688238584792325e-01 -4.2648176112410441e-01 3.7596191820366331e-01 1.3934297034263812e+01 -4.8074961408252381e-01 -1.7564848690058909e+01 -3.3431325388643738e+00 8.0592223043073385e-01 1.3388585647069178e+00 3.9438957293865663e+01 4.2084905723601565e+01 -1.0148464967000841e+01 -2.4136029753800710e+00 6.7765972599302476e-02 1.7944674894009569e+00 -5.7132435456721820e-01 -3.2683665509530769e+01 -1.2021305225244916e-01 -1.1367124388517510e+01 4.6005015037676387e+00 -2.3227023644266961e-01 -1.9200394323666750e-01 7.5608930280582776e-01 1.1672422388459116e+00 9.8811085582612979e-02 1.5563253063822504e+00 -7.1438297660397676e-01 -7.8634873042448277e+00 -3.0980505447684152e+01 1.1764527252307282e+01 1.9665695353764417e-02 2.0421953460641129e-01 8.1426321987432448e-01 2.4952262335333657e+01 -5.1826018291800100e+00 -7.8880191223074982e+00 -5.8693795903443231e+00 1.0294870803131824e+00 5.5780530654457006e-01 2.6300318442160730e+01 -5.5798015645522632e+01 -6.7528307395188030e+00 9.4695891839641799e-01 -6.7989320360753536e-01 4.8310727297207841e+00 -3.6509917989523606e+00 -2.6608476000058172e+01 -2.1266104592981061e-01 4.7600370114090332e+01 5.0733837815171867e+01 3.7517568780404192e-01 -7.9409060123128561e-01 7.8842454380462605e+00 1.8737288083067027e-01 -2.0114851887300524e+00 -1.5933434073764261e+01 2.2920698583572063e+00 1.0930872403876766e+01 -5.4779379989039398e+00 -1.5102768677664535e-01 -1.2701950085499422e-01 3.3650968724370411e-01 8.7890290935485726e-02 -2.6291905145201122e+00 8.8269477719178402e-01 -1.9574929466314996e+00 -2.9188901673650230e-01 2.2125859477194920e+00 -4.3756055367651692e-01 1.8637932709058722e+00 2.4992995697879675e+01 3.7024071893067338e+00 -2.5258466862053433e+00 3.7168606740357585e-01 -2.8417406684982347e+00 2.5274086860481586e+00 -5.2203744149546578e+00 8.4951497564666745e-02 -1.8537113876936715e+01 -1.1804142460914065e+01 8.8155688160669904e-02 -1.1798349404574227e-01 -3.1265762864936670e+00 -7.0076305972747388e-02 -1.2617229689206457e+00 -1.4537421092751698e+01 -8.9023446733902389e-02 2.1016468256940128e+00 5.5231634546405006e+00 
      </Row>
      <Row Index="5">
        -1.9860510003589118e+03 -9.8310931501705261e+02 -3.0360278051137868e+01 -2.7942443045104156e+01 4.6078109673903214e+01 3.8533653353889036e+04 3.6330044800016765e+02 5.4195100400669744e+03 -2.6969571979311922e+02 2.0510123299623157e+02 -1.3322009041779998e+02 7.5584587261114120e+03 9.2482581725654181e+03 7.7999142595314663e+02 4.4277026693252338e+01 1.2520567089084640e+01 3.6793893072540851e+02 3.2829721646347190e+02 4.7498353013514861e+02 6.2343380077976626e+01 3.4908863065834644e+03 1.9138834247953237e+03 -9.7982977268200244e+00 1.2081568749809875e+01 -7.8665389701604447e+00 3.0804201992146233e+01 -4.7952355446329443e+02 -1.8329905202044756e+03 -1.5488232151006193e+02 -5.3271089648277848e+02 2.9837450156435816e+03 1.2497645356055079e+03 -8.7506593346926977e+01 -1.9273984861693044e+01 -5.9764285441349877e+01 -1.5258793157058170e+04 -4.8611079466299043e+02 4.4939115482057886e+01 4.3812707624774987e+02 6.2609069956047520e+01 2.3491159688349097e+02 -2.1481470621464914e+03 9.3213294493197827e+02 -1.3832960857530556e+03 1.7834905296840077e+01 -2.4936969343416262e+01 -2.2693612117264755e+02 -2.6795412083234396e+01 3.4669558158546027e+02 -1.9973732006107888e+01 3.6284775586466849e+03 -8.9094070659240824e+03 3.9188894655672868e+01 -5.3286580908369734e+00 1.4394733101655441e+02 -4.9187689242854113e+01 1.4149547649809529e+02 1.1854169161184532e+03 1.7579444826041700e+02 -2.8827901575624560e+03 2.4731457324007729e+03 5.8503607347745776e+02 -1.0438943387535140e+02 -4.1047815355243635e+01 2.2370007981565042e+01 7.4099581033970453e+03 3.5037741774430049e+02 3.4703779622505596e+02 -1.8765648806600893e+02 1.2981972839858628e+02 1.8508131907129211e+01 3.6320911821726731e+03 1.0309173112198876e+04 -4.3241404534852535e+02 -1.4523343724519304e+02 8.9979982222616801e+00 -7.9533638286808582e+01 -4.4864701030407520e+02 -7.7946728491787849e+02 2.0972492972226810e+01 7.6100466420802059e+03 -2.3377939757008585e+03 -7.8816474374235526e+00 9.9574858284940007e+00 5.0494851249723808e+01 4.1664494468486126e+01 -5.7011871534141271e+01 -5.8534554431096706e+02 1.7693713305960469e+02 -1.7772052527414536e+02 1.2813967048038226e+03 9.0385245331266322e+02 -2.6795925388052737e+01 3.6377718114052087e+01 2.1503745609398244e+01 -1.0746273260525313e+04 1.3773950191689011e+02 -1.8248871591652123e+03 2.1739978245884015e+02 -4.6589626051401602e+01 -8.4687021723384348e+01 4.4110839352805269e+03 6.7721457466280754e+02 -1.6918946814944468e+03 2.6401953516953381e+02 -9.0281122790334543e+00 -1.7497144631998938e+02 3.4354661259552438e+02 -5.7078963830868088e+02 -2.8945140667657839e+01 -7.6163249116183433e+03 4.7144936016514666e+03 -6.2090912561751264e+00 1.3734349146114873e+01 3.6367379474264902e+02 3.9298415386753973e+00 9.3611687447620213e+01 -6.6483557353142680e+02 -1.1540349644383113e+02 1.4835781305737073e+03 2.5393075686103616e+03 -1.1664817472730324e+03 2.2573840540037341e+02 4.6701122303355355e+01 -2.7293058929183552e+01 -1.1764360355723331e+04 1.8826834679464193e+02 1.4317055538048598e+03 4.1020744493841039e+02 -1.3184387254676219e+02 -1.6689691355512534e+02 3.9374253823697995e+03 1.5570521830779649e+03 8.1471396703967093e+02 4.0771158279535413e+01 -1.0526451926360437e+01 5.0366549301447606e+01 1.0049954675934299e+02 3.1279054355518974e+02 -2.3178220205702473e+00 1.0905213436546161e+04 -1.8731536386672797e+03 -1.4594300874661720e+01 -3.7210403303845936e+01 -3.7110534730438917e+02 -4.9987007797094691e+01 -4.0925384567877694e+02 -1.7371296861080896e+02 4.8911431361100313e+01 1.8932230168431374e+03 9.5470709093557696e+02 -2.2334707497701484e+03 -8.9186823392797088e-01 -5.3953905387803587e+01 -8.9960971938197893e+00 1.1133349349952327e+04 -4.4351690875194407e+02 1.4865999886451307e+03 -5.8103550426237314e+02 -1.3891476377150903e+02 -2.0805891230476919e+02 2.7726162768178328e+03 -6.4510459222641293e+02 3.7609611167902835e+02 6.7453759507352800e+01 5.6092110020811319e+01 6.1903442382757703e+01 -2.7048203395163029e-01 -5.9428419019350076e+02 9.5558983713936328e+01 1.1795990181631487e+04 -4.7250801951006633e+03 1.0731328660246406e+01 -1.7140661793643794e+01 2.6319361117251356e+02 2.7663289691271657e+01 -6.3203308630587031e+01 -9.5129231961925814e+02 6.4688716530580109e+01 -5.6357417399744338e+02 7.2132549255981576e+03 -4.2509315225619366e+02 -1.0006608288421322e+02 -3.7359903238877770e+01 3.6115001573198242e+00 1.9093409357731521e+03 -2.1065898118304366e+02 -5.1479237007419579e+02 -1.8690288391085193e+02 2.6192452501978403e+02 8.1704408268540831e+01 -1.9307637512700498e+04 2.3627627634031037e+02 -1.6819209131193675e+03 -2.0050277206014530e+02 -2.5199763197479278e+01 2.2441994545147708e+02 2.9466403613944192e+02 7.1831241867537483e+02 -6.1749037594448659e+01 -9.4358347236990267e+03 -8.8593521917525541e+03 2.1075910744745247e+01 1.3565285826870339e+00 6.1590172284324717e+02 -7.4492813627670813e+01 9.7837894656082312e+01 5.4922110759686882e+02 1.6390466632545447e+01 -8.5789196794680788e+02 6.2789865452585946e+03 2.4660186400320734e+02 -8.3263179400637085e+01 -1.9698623251582312e+01 3.0896498336239876e+01 -5.8400084940339875e+03 -1.2286239249673918e+02 1.0174545678581258e+04 -2.2786550076281969e+01 -2.1013633633140034e+02 4.0036643329185097e+01 -2.4775565248217317e+03 9.6193611395609310e+02 -5.8756880960426111e+02 2.3213387866469793e+02 -2.7261743726429323e+01 -4.9490970096606453e+01 1.0479220559030634e+02 1.2545045626482049e+03 -1.6073522499715441e+01 6.5823391957616914e+03 4.1792684049373984e+03 -1.0620916452491772e-01 -2.0164843245699302e+01 3.0773392559758389e+02 1.7297458686626253e+01 2.7724661691190977e+02 -2.2530582820210495e+02 2.6792907793996039e+02 8.4824123129284359e+01 3.3767150915225989e+03 7.6867220390618672e+02 -7.6184666391409081e+01 1.2070691180722308e+00 6.4520174264970194e+01 -1.0518310639837136e+03 -2.6696501620861795e+02 1.9695328061053099e+03 -3.5894280286154191e+02 -3.0885275977289570e+01 9.9055196592471248e+01 -2.1350117819048892e+03 7.3390525724286117e+03 -1.7322351401999269e+03 -1.3186590481365903e+02 -1.2067064766924537e+01 1.2187041425647296e+02 -1.7289970736475564e+02 3.4184537196238676e+02 -5.0675384550610033e+01 5.5054066485406674e+03 8.3319460471363300e+02 -4.5815889217850110e+00 -9.1370740829942889e+00 3.3902763174367959e+02 2.4455234385064138e+01 4.6702539485421761e+02 -3.8420788879297777e+02 -1.1361337529278401e+02 1.4485493586470548e+03 1.0643470742134021e+04 -1.6734866515436573e+02 -8.3977031765843719e+01 -6.1716281870690636e+01 7.2309635758446291e+01 1.7392239086111098e+04 1.5581788203784487e+02 1.6148714969560489e+04 -3.2722739067046064e+02 -2.4072638815752967e+02 -1.3579740273948403e+02 1.2214655253325529e+04 -1.3342322683447146e+03 3.3266398555234929e+01 4.7154579672855192e+02 -1.6410028586930991e-01 5.4975002115125733e+01 2.9355001146200709e+02 1.0230402840789606e+03 6.0429250778410299e+01 -2.6832830578316771e+02 -8.6620073757999780e+03 5.9456428821928569e+00 -4.0995025566459404e+01 8.0453490540310986e+02 3.5043146266109289e+01 -2.2883955692702520e+02 -3.5196300509740877e+03 5.4985054094851614e+02 6.1294881491208912e+02 1.5295861661768922e+03 -1.9902694057710811e+01 -7.8989821528890189e+00 8.1415192567689473e+01 1.1612113955517975e+01 -5.6954519784441254e+03 2.2240285719335475e+02 1.2390795126850714e+03 -1.6862065962728693e+01 1.6376705311922728e+02 -1.6053167164434689e+02 -1.2853940292401599e+03 -2.8925904694005603e+03 2.3995846192496097e+03 -1.8677282744317176e+02 -2.1535818091546410e+01 -1.3233051141258920e+02 7.2270353843050384e+02 1.6656626834410326e+02 -7.3292391989589319e+01 -7.6365084407436689e+02 1.8262763775805870e+03 -6.0176181049308628e+00 -1.2986995281498245e+01 -2.1589460519900322e+02 6.3481330053714601e+01 3.1592414301190956e+02 -6.6338619472428672e+03 -9.5544258332269692e+01 -2.6573798983077568e+03 2.2900872321664669e+03 
      </Row>
      <Row Index="6">
        -1.4340383339617046e+02 1.6513683899167518e+01 3.6350589905676696e+00 -4.7250178040193909e+00 2.4753038397287770e+00 3.6330044724324102e+02 4.1582253076194752e+02 8.4877406666477384e+02 6.6422050891812063e+01 1.0215945067751058e+01 -6.9726184977525163e+00 -5.7569122974948675e+02 1.2339533931171134e+03 -5.1380367533647721e+01 1.6868917386292043e+01 1.0900973743299508e+01 2.3516807478483830e+01 -9.5175692431759686e+01 7.8722101131343379e+01 -2.7793434694033543e+00 -3.6011245316022087e+02 3.1608179718741548e+02 1.8857761743732735e+00 4.7041830736157060e+00 1.0818052540153855e+02 6.0185597232726700e+00 5.8143167851489075e+00 -9.7076251602906268e+01 1.4856703578191476e+01 7.7043774767788932e+01 2.7832760212884318e+02 4.6941796843331510e+01 -1.1510945327405047e+01 5.3436514230259569e+00 1.5181041516875362e+00 -3.8627364367398764e+02 -4.0621307722885797e+02 -2.7108532770239520e+02 -6.0406412262883563e+01 -2.1258210489890512e+01 -1.7792510697572887e+01 4.8739139008905374e+02 -2.8649502334713816e+01 -8.9596696873705408e+00 -1.3779476615143693e+00 -1.8626440923622745e+01 -2.9384160219862771e+01 4.0793754880990669e+01 -2.7840004939341748e+02 5.5933836012425777e+00 4.7791390762347936e+02 -7.1772284370629598e+02 -1.4672512561067403e+00 -5.7865963047927007e+00 -8.8810670604292483e+01 -1.1799852507213691e+01 -7.5829468296493303e+00 2.6142811101799271e+02 -3.1659163540726176e+00 -2.0411646079707765e+02 7.6365350388208157e+01 -1.0436940018315045e+02 -4.4845818934933028e+00 -1.7904147143178215e+00 -3.2569582271052879e+00 -6.0004120603229083e+00 -6.1675647077407902e+01 -2.9612881325696961e+01 -1.4503723958797064e+01 7.0218333317850146e+00 -1.4269119854766961e+01 -2.8059709770059502e+01 1.9218495365125833e+02 -9.3994240776682076e+01 -2.1452687683564142e-01 -4.5472412087100450e-01 2.6703407530182197e+01 -9.7242150483863199e+00 -1.4554277538993952e+02 -2.0956833111924753e-01 1.9878067525134071e+02 4.9885814174040308e+02 -8.5438918823678123e-01 -1.3898804368935804e+00 -8.4330308614722071e+01 -2.5327520806286303e+00 1.2234169439402935e+00 1.7012122633916235e+02 1.6112188317498617e+01 3.2271529938723980e+01 3.5126815536827439e+02 2.4378718170546833e+01 -1.3307120288742980e+00 3.5205954219023305e-01 3.0430527228848661e+00 2.7003073440823672e-01 1.1899476709144833e+01 -4.7970566656586492e+01 -5.0928784150829554e-01 -3.5536911540402762e+00 3.9846878067354372e+00 -1.2683012049417648e+03 -1.1984431858457918e+02 2.2990289333164885e+01 1.6608263061552719e-01 -5.4235482155685384e+00 9.5374942190687797e+00 1.0053797974079622e+01 -6.3231135867283385e+01 -9.7777347315680441e-01 2.5636946107080530e+02 -2.5716843307182910e+02 1.3226281809155560e-01 -3.1861275210639639e-01 2.2221225778503268e+01 -4.8905388477257539e+00 2.0654666243582202e+01 1.4761887004287502e+01 1.0489096873626716e+01 7.9232927061343119e+01 -4.2165849747634775e+02 3.7883735591402001e+02 5.3190673014841074e+00 -9.6504236136786381e-02 6.3322687430656206e+00 2.0354866790880584e+02 -1.3349249412031106e+01 2.8562832205469306e+01 4.9574789721671721e+01 4.8103169537446986e+00 -6.2108548059099444e+00 8.0365569889236895e+01 -5.5103165524333463e+02 1.3577356316888688e+02 2.7486030632431024e+00 -5.6441716938300768e-01 -1.8963543035698045e+01 -4.1594025394595420e+00 5.1900841048942971e+02 -4.7852476637802627e-01 -2.9389881698443577e+02 6.4736723926918444e+02 7.1688490787129677e-01 -9.2920065658907447e-01 -8.5573875439350630e+01 -1.8194892361363670e+00 -2.8589140194604596e+01 -4.7634508081125796e+02 8.2043432043168707e-01 1.4600419039363651e+01 -8.5984171092842394e+02 -4.1746372135071709e+01 -5.7136389521183357e+00 -5.0254722203910509e+00 -2.0940141108499022e+00 2.0953373987956002e+02 7.9097058330517484e+01 -3.5805462598204294e+01 1.6276000442613622e+01 6.1818631980618690e+00 1.0004873528351101e+01 9.2510524635918750e+02 -5.9172845688099994e+02 -6.0949924915589726e+01 5.0029846073136461e+00 2.7933490639781065e+00 -7.0588766723174796e+00 -4.0150087472585746e+01 8.3176731267546870e+01 -1.5310233464217795e+00 -4.2067965077357405e+02 7.8970862590432353e+02 2.5151777498265564e+00 5.5681178281569625e+00 1.0219169716415550e+02 1.2833443332894575e+01 -1.7308222772177849e+01 -8.3386100870841020e+01 -2.3461284191815746e+01 -5.9995564302951621e+01 1.3420781670603901e+02 -2.5447824517612730e+01 -9.0845427190941823e+00 4.3230514499827359e+00 3.4179257560663245e+00 1.0097531440382137e+02 -3.0859588690544825e+02 -1.4708587337765493e+02 -4.9681100157673086e+01 1.7416472798420517e+00 -3.7188133451596329e+01 2.1549343009203622e+02 8.4501819383774830e+02 3.1871283989485564e+00 8.5967314992720023e-01 -3.7880275869749549e+00 1.3431537063911795e+01 1.0764054537727771e+01 -1.2582328827556239e+02 3.4201644225515482e+00 2.3454203257242759e+02 1.3984990956687065e+02 -3.1121613697794115e+00 -5.9620992103206394e+00 1.4127241137122851e+01 -1.7913080561666133e+00 -1.7122536458002770e+01 1.2288371159294007e+02 -1.4731018786972103e+00 -1.8867205022098540e+02 -2.5684967199565392e+02 4.8761790769011427e+01 1.0155411327862669e+01 7.0379858466248146e-01 -7.0767720264000955e-01 1.5173917920095772e+02 -5.6779139454005218e+01 1.9495945923781647e+02 -2.7541659664673283e+01 5.8795191685529993e+00 8.5444739756491064e+00 -2.9889936196223823e+02 -3.2867867698323369e+02 -2.3103122755328574e+01 -2.4611294703138058e+00 -3.6969498003300814e+00 -4.3429151905940749e+01 1.2384800736331988e+01 5.8852961439147407e+01 5.8697183175887768e-01 3.6206028918884175e+02 5.3137573150635831e+02 2.4735182710301160e-01 3.3120377941407619e-01 3.9519835783030025e+01 -5.6298752996939623e+00 -7.6657869261756062e-01 -2.5739168666203490e+01 1.9367146279120682e+01 9.0711956308486883e+00 -7.7010452589298566e+01 -1.7913459923894513e+02 3.0899374536928716e+00 2.2611237173915057e+00 -4.9805782342556437e+00 -1.3587724764001169e+02 2.0948904015926484e+01 -5.8975555669284283e+00 -3.9371150170185487e+01 -1.5523947356526222e+00 6.1808692564662762e+00 -5.1466597436853682e+01 -3.9430384574438125e+02 -3.2349402628483752e+01 1.9615950667841747e-01 -3.4899716095625806e+00 -1.8220769023077931e+01 7.5224996666552428e+00 -2.7172215338587932e+02 4.3207150908540370e-01 1.1050563949815358e+02 -4.8114916019684205e+02 3.3281642188275568e-01 1.0686555799182811e+00 6.5807861750527820e+01 1.2616877948063920e-01 1.8822167602020450e+00 2.9069469911659178e+02 -8.2676284558786328e+00 6.8705942388737895e+01 -2.8484032247435891e+02 8.8502759372400078e+01 2.2667522527866737e+00 -3.2231384894201742e+00 3.2666456265430170e+00 3.8965906668262107e+02 -5.7055087408383649e+01 8.0973678893433748e+02 -1.4532751409986794e+01 7.9439214325375715e+00 -8.7794071804415417e+00 -4.2534698294950431e+02 1.2548759998059177e+02 -2.2663423452250154e+01 1.5279897282497242e+01 -1.1545138297233695e+01 -3.3926556297981023e+01 -7.0298540878545822e+01 -3.2438682308595446e+01 -1.7627851502177272e-02 3.8670865040603337e+02 6.0921239299796525e+02 2.9252050896814552e+00 4.2199290545357222e+00 4.6705445106315977e+01 -4.8050733026433896e+00 -1.8918993571962147e+01 2.0006502275898725e+02 3.7687092334930995e+01 -1.1480810715825527e+01 -3.5487218830085858e+01 5.4760133251453702e+00 -1.3639074977617962e+00 -7.6970101444538419e-01 -7.6486773343716408e-01 4.6576917092888756e+01 -1.6004090628506077e+01 8.7443016643216623e+01 -2.2234424234630534e-01 -2.2915945105412291e+01 4.0600926656387060e-01 1.0354983271746946e+02 2.4465019328499906e+02 2.0986127320744949e+01 -3.9174072690669988e+00 7.4886140254016187e+00 5.3409371568488311e+01 -3.4340195090378238e+01 9.8308711854139901e+01 -1.1510495337894566e+00 2.0307889018419542e+02 4.5975090982179857e+01 -1.1055464163544564e+00 2.9498944875094057e-01 -2.9734336167248877e+01 -9.4841066120108550e+00 -6.0191895572727532e+00 8.6762323806224163e+02 -1.7962359628532091e+01 -5.6715746382640695e+01 -2.8124600135270998e+02 
      </Row>
      <Row Index="7">
        -5.9872251700118375e+02 -6.0539359216741286e+02 1.0438609523192316e+01 -4.5666577310081927e+01 -4.0349313104184830e+01 5.4195100834530449e+03 8.4877407569724221e+02 9.8437056390905767e+04 1.6358723673493785e+00 -8.3275865130438888e+01 -7.2109729892487337e+01 4.7774373690227012e+03 4.0400373242896203e+03 -1.2487305784716614e+03 -2.7795982599023768e+02 3.3200996976385142e+01 -1.3018558739746123e+01 -2.8552966430973938e+03 7.0664818229036155e+02 -3.4686049360139748e+01 8.2608326912808898e+03 -1.0368770494941671e+03 3.6112957164283607e+01 2.7552554490572433e+01 4.8818908308305714e+02 3.6011760909999765e+01 1.2162560663995652e+02 -1.2104341852224607e+03 -9.7897554703670863e+01 1.6350443763505691e+03 2.9799602773428687e+03 7.4562179282182956e+02 2.0084030617364053e+01 7.1845923500938270e+01 2.4983127090417952e+01 -2.5634917293624526e+03 -1.1934593656179293e+03 -2.4390352131813415e+04 3.2634621938966141e+01 -8.5883106892862315e+00 -4.2635210431284058e+01 6.8484479875370653e+03 4.1681276217066415e+03 1.1092872913467693e+03 1.0681734348760951e+03 -3.8644110690811168e+01 -7.7053749168561922e+01 -4.4828311599729318e+02 1.2451982838030337e+03 4.7930039263058653e+01 2.5443320733878827e+03 5.7753486370324754e+02 9.8055809734433552e+00 -3.3852280257153637e+01 -7.6320453100099758e+02 -2.8418625386194332e+01 4.6648912610910443e+01 1.1605151836677587e+03 2.8769353316812493e+02 -4.2158240521080788e+03 3.9320532935812594e+03 3.9241870345617451e+02 1.3991649498006313e+02 -1.1596576421813346e+01 1.6487061864165923e+01 9.5967709672539456e+02 -6.2219481153712388e+02 -4.6734666127737846e+03 -5.8430088283696051e+01 1.8424657261175236e+02 1.2047307132438611e+02 -1.1726057551853510e+04 -1.5919301083659970e+04 -5.0065973251782015e+02 1.2803008754389003e+02 -5.0780038241464517e+01 3.2396212490081602e+01 5.2558221688536128e+02 1.8117671250233616e+03 5.2543510643353120e+00 1.0801405310086246e+04 -1.6759344519440829e+03 3.2636805485084501e+00 1.7506385943957348e+01 -1.2609186922268921e+03 1.2812463097983873e+00 -1.1501328917522493e+02 -1.1095458742196752e+03 3.2648629964990448e+01 -9.2689119013754987e+02 5.6620519653227138e+03 1.8583838570527516e+02 6.0469172087413661e+01 -3.9097672576817697e+00 4.7811272690001822e+01 -9.7544006436466282e+02 -2.8337173536768773e+02 -6.5313888130169398e+03 7.3174049671301546e+01 6.9692754255405205e+01 -5.7327927896377851e+01 -2.0392466325212514e+04 -1.1674043689059830e+04 1.7767022865415427e+02 4.1909743181681637e+02 -7.1799957461878705e+00 -5.2864740919518852e+01 7.9277447989429834e+02 1.5767332825873495e+03 -2.7753244430720221e+00 -2.7659151637111927e+03 -4.7791384168707255e+03 1.5289203650298688e+01 2.2555551163068422e+01 -3.2780936447783134e+01 -1.2055350571083501e+01 -1.2645809090901153e+01 -3.5734753690526270e+02 5.9123154436432827e+01 2.7963835110689802e+03 1.0967313725137092e+03 -1.1453816642826905e+03 -2.3737385173241853e+02 1.8119905653649639e+01 -4.8604873317583099e+01 -3.8151780375195131e+03 3.5547451381245986e+02 -1.7899616344731181e+04 -2.7293921452256450e+02 -4.8535011733970927e+00 -3.5761649460480470e+01 3.5543055823279810e+03 2.7921156906539768e+03 1.9640043588952885e+03 -6.3515617512541127e+01 2.8131815288000457e+01 -1.7671745548770105e+02 1.6666165380756468e+03 -1.7885420322954033e+03 2.7879736102718823e+01 -1.3280034464234561e+04 5.1898736624727580e+03 -1.8652849370940892e+01 -1.3855220895961928e+01 6.3100918700193370e+02 -2.8030395078482844e+01 2.5328935771290111e+02 1.0540551336107512e+01 1.3365316624838491e+02 -5.5853216930600729e+03 -7.1803420721197826e+03 -3.2693480973425284e+02 1.6061239145064391e+01 -8.0651427606734885e+00 -6.1192491210446924e+01 1.2130626075047360e+03 3.4983848199067376e+02 6.8998776108285510e+03 -1.9688556950344127e+02 -1.1534251488715168e+02 -6.4742462015974411e+01 1.8947396750858872e+04 -3.4439468038150044e+03 -1.3272380943578637e+03 -7.6260724448815495e+02 3.5154079831923916e+01 -1.2527606866279942e+02 -9.3370366886027011e+02 -2.6842066415872214e+03 -4.8536631431742219e+00 2.5527694165052753e+03 4.4921202672624358e+03 2.5216349911163089e+01 -2.1425528565254751e+01 -4.8833474787213671e+00 -4.9840840736986980e+00 7.0815800492658511e+01 -6.2146345275665271e+02 -2.1891538207145615e+02 -3.6296480320057835e+03 -8.1460208966935170e+01 1.0245943299546086e+03 1.7044132682364551e+02 6.2083646625928374e+01 4.5105086947296513e-01 -7.0394579904328850e+01 -7.9004127232379597e+02 1.0174620028259233e+03 -2.0131768561915868e+02 -5.1373539546723222e+01 2.0574366619299869e+00 4.7405037914338736e+03 2.0176690845548412e+04 5.9644825824011673e+02 2.5191251697885704e+02 -7.7126365270322012e+01 -2.0982491351416317e+02 -1.9884385543367518e+03 -9.1391253723770490e+02 4.5092630576401106e+01 9.1765188260300401e+03 6.7165965394589448e+03 -3.9491246456482621e+01 -3.7498113640043549e+01 -1.2363994831996795e+03 -5.8878010394259675e+01 3.0470436646699454e+02 5.4450609349071715e+02 2.8175481501641826e+02 -1.4742074880535213e+03 5.3721575611442377e+03 -2.2650563585554983e+02 -6.3583459885308486e+01 -1.2816666162624520e+01 -1.0685093718266618e+00 3.0917918880207499e+03 -2.9758196110194433e+01 2.1655913016486389e+04 -2.7793276011568116e+02 1.6830398534035444e+02 2.2663003791138397e+02 -9.2205905466364147e+03 -5.6781449968386542e+03 -2.0914263057590688e+02 -3.9918318901522736e+02 -2.6039330584830779e+01 1.1680442139646047e+02 -3.5564749931873848e+02 -4.4518448955452402e+02 1.2056597540591518e-02 -5.7578447704775081e+03 2.0350940804109612e+03 -1.6031532232816819e+01 -1.9550070310789351e+00 5.3560855727766943e+02 3.9988566929377420e+01 -5.9401642290929715e+02 -6.7018949003277910e+01 -1.6751542584487765e+01 -4.0739564307558749e+03 5.3722555450093932e+02 -9.4055729538764240e+01 7.4562435455662055e+01 -5.1383039183371757e+00 7.0000276913338809e+01 3.0721830074317614e+02 -1.7248057501167310e+02 5.4431700274781524e+03 -6.5801757509513152e+01 3.4082189497868406e+01 1.0029766516028974e+02 -3.9681432894387476e+03 -9.1437649154047594e+03 -4.7801828124313477e+02 -1.9014871025568405e+02 -3.3276239527576365e+01 9.1502694105778204e+01 -1.5141296159810372e+02 3.5450900706450316e+03 -1.4052258723249906e+00 7.7326034847795363e+03 -2.0110301400534320e+03 8.8767495447214824e+00 -3.5696725055350782e+01 1.5404639579744665e+02 3.9514274316366787e+01 -7.3093604209610908e+02 -7.2016898998936307e-01 -8.6560580527897400e+01 5.1068294747875370e+03 9.6485150921045424e+03 -6.0670391171486153e+02 -1.0571048444604145e+01 8.4210639054210219e+00 -8.0883352346478432e+00 3.0450341476499261e+03 -5.4956158996887530e+02 8.5452360880936772e+04 -5.6008292100655626e+02 2.1588705061686002e+02 1.6734267661047426e+02 -9.3609078232639258e+03 -1.2164856980403150e+04 7.2667045213771178e+02 6.4862592511303887e+01 -4.5218513549498390e+01 -8.2182055399330977e+01 -1.4856590654148395e+03 2.1326813383000563e+03 3.3539114725062063e+01 6.5931350175033094e+02 3.3540713401830985e+03 4.5634831471967885e+01 2.0063737302864627e+01 -5.8156373224942286e+02 2.3647500407870673e+01 -7.3755917362753792e+02 2.0363881133134510e+02 1.1591105369907905e+02 -5.1678426393993414e+03 1.6804745879438406e+02 -1.7516100774336572e+01 1.5185852667065753e+01 4.7002164002861946e+00 9.7533993360871492e+00 -2.9813966880258965e+02 5.4817464252891455e+00 9.3755193959583648e+03 -6.7368130686857342e+00 7.4308210642073902e+01 -1.7696235066356394e+01 1.2650383774868130e+03 2.6455034124891044e+03 2.1359105465398267e+02 -3.0081485656635653e+02 -1.3674354714935573e+00 -2.7841654232788494e+02 -2.7296177926551459e+03 5.5613391360385492e+02 -1.5570786032026511e+00 2.1818127968133163e+03 -6.2379522117832187e+02 -2.3564156467286278e+01 -1.8499254889719137e+02 1.3923966477210593e+02 2.9856288989119435e+01 -3.3839161752340260e+01 4.0265997031210418e+03 -1.0946414669854775e+02 -8.9419193707395880e+03 1.3281573694662000e+03 
      </Row>
      <Row Index="8">
        1.7626241804129243e+01 1.5490423132824230e+02 -2.7960168473943327e+01 -5.1786357321667138e+00 4.3581842866534721e+00 -2.6969571478076500e+02 6.6422050583116430e+01 1.6358743062272652e+00 4.7414459925200356e+02 8.1553110703947951e+00 9.8976028797914672e+00 -2.4133289957740254e+02 6.5525282652028437e+01 -9.7847097413249298e+00 -4.6657730231199679e+00 8.7932714226238318e+00 2.0434653031514735e+01 -2.6839587176568983e+01 -2.0185714781137548e+01 -1.1989649682891992e+00 -6.8809920492523270e+02 4.1228896192907121e+02 6.9786418308055564e+00 1.2915831719955706e+00 -1.3777957937563912e+00 -3.7976911557571036e-01 6.0392000994000874e+00 -8.9358993227700836e+01 1.0377615134465753e+01 2.3872641289422884e+01 2.6050186238844631e+01 3.4423253948396315e+01 2.5152822548240557e+01 2.0451939668711017e-01 -3.2489032529669277e+00 3.0273774983092608e+02 -5.7800177806618827e+01 8.1989745219114326e+01 -4.9556038313832926e+02 -1.8106938799002965e+01 1.4161090973487699e+01 -1.6667040801831632e+02 -4.5039699528806386e+02 -4.6503677990280465e+01 1.0645017647350290e+01 -1.5292409851252881e+01 -3.4833174460991543e+01 8.2067308443686144e+00 -1.0802418098305414e+02 -9.3160219386819398e-01 7.7292075688206228e+02 -5.1068622782468407e+02 -3.8914339533519962e+00 -5.2554718716227677e+00 -5.9994457664284056e+01 -4.8605018164583651e+00 -1.5989384756218341e+01 1.3221153689588846e+02 -4.9112701178797451e+00 -4.0466474909445829e+01 -1.6482347502667938e+02 5.1553089804621536e+01 2.1582075339162339e+00 -2.0366885617390542e+00 -8.5628500573387534e-01 -2.6026517951705227e+02 1.7118301821412189e+01 -1.1358138141352681e+02 -2.1415440508701277e+01 6.1437228987476331e+00 -5.0323831959614083e+00 -5.1402725093956505e+01 1.4134326088994567e+02 -2.1720013071629737e+01 -6.6698291886321099e+00 -2.1432099326918159e+00 4.8540593990413996e+01 1.4763184983419681e+01 1.4453566394846860e+02 1.6329165346540570e-01 -1.0704449135874003e+02 4.8468038430896837e+02 -7.8705841644231755e-01 3.6358306469807831e+00 -4.5671123506630764e+01 -4.4576167582651003e+00 -1.7890888612049807e+01 -1.3160902251639246e+01 8.3036969941986936e+00 3.5901819633977745e+01 -1.7792714315221863e+02 -4.8028556514220938e+01 -4.5600525852716167e-01 -1.0750279614317615e-01 1.2657456008564452e+00 4.2015932876845517e+02 -6.1213268427966252e+00 -4.2737191760349383e+01 -4.4944591618511815e+01 3.2852975620756930e+00 -5.6915805047467414e+00 3.5286773308218230e+01 -1.0269332860144974e+02 4.1954208864444574e+01 1.7003956882317837e+01 -3.5811586563692028e+00 1.3455594676746999e+01 -3.6627170085783511e+00 -1.4486105242917154e+02 -1.0788634643393085e+00 -3.7424168994243701e+01 -4.8801688428426985e+01 2.6911377175485529e-01 -4.5278796856218220e+00 8.6198053957319480e+00 -4.3955283760076469e+00 -4.2525783830366493e+00 5.7917566414796511e+00 9.3689875679728267e+00 1.4529629319065776e+01 -3.9153751368582891e+02 5.8615623531896546e+00 -1.0977734171607061e+01 4.0085878167322280e+00 -4.7443451333654814e+00 2.7655554015821411e+02 -9.0897074482234217e+00 -1.8892034066898034e+02 1.6511541602185702e+01 -7.7758426816502357e-02 -4.9333896360626959e+00 -4.6737464082814500e+02 2.6548315860778189e+02 6.4534432813045896e+01 6.7933926266207383e+00 1.7250884002022886e+00 -2.3823515161761868e+01 6.2119058979433106e+00 -1.1828631109729966e+02 1.1585585021407860e+00 3.8262255139208060e+02 -1.5689024099714942e+01 -1.5456430858515033e+00 -1.6841451129706257e+00 -5.7769308883019335e+00 8.2315455709652330e-01 5.6083898727812297e+01 -1.1442729924098558e+01 -8.0313297777784793e+00 -2.3726331805873662e+02 -9.4693109696600473e+01 1.7069123433033749e+02 -1.7599025089186551e+01 -2.2077439364917311e+00 6.8708397062631432e-01 -2.3218670101621871e+02 -1.4710280893581398e+01 4.5538099437317200e+01 2.8790215359621095e+02 1.7545487667540982e+00 1.2472418143624125e+01 -8.9359309856138145e+02 4.7703606607609709e+02 -1.5618187644719356e+01 9.0554274939464108e-01 -2.5759126133306598e-01 7.5004784355909244e+00 -1.0045925161193232e+01 3.3887928185656716e+02 1.3247513884955715e+00 1.9535086446197539e+01 7.2184554231995401e+02 3.7969799674436548e+00 -7.2842033770379269e+00 3.2853589453006599e+01 9.3389778231647700e+00 -1.4495957841317100e+01 -8.0103782969164030e+01 -2.1591374682529931e+00 2.3123905417992745e+00 1.6282900401607662e+01 3.7681181459537726e+01 3.0986457472649671e+00 2.1588306966305115e+00 -3.2487754262027657e+00 7.2154697321214343e+01 -5.3680472318959119e+01 2.2153789762010308e+02 -2.4354772183748645e+02 -8.4782370322200307e-01 -8.5448907821272457e-01 -3.1758222906795100e+02 -5.4070853298103907e+02 -5.9570819588084078e+01 -2.6694771750355057e+00 -2.7412785666767818e+00 2.9816994433011882e+01 -3.3199620327855619e+01 1.1812713650906989e+02 8.7584391557276653e-02 3.0249269916251762e+02 -1.9390684832187469e+02 -4.3166629197697057e+00 5.2907308021950232e+00 -6.7818131216824554e+01 9.0936174326178887e-01 -2.4165148550698213e+01 3.1569256955804299e+01 -7.4836970614001075e-02 1.8197020373144653e+01 -4.6397710243231819e+02 5.4086742410600451e+01 1.7804310462689351e+01 2.6979358641344748e+00 -5.8085679939304435e-01 1.8486564124700755e+02 -2.5311049706504267e+00 1.2142277379962701e+02 -5.0491967107225292e+01 4.1972409624806932e+00 -3.9645680173813105e+00 6.2572344807184720e+02 -1.5121028263458101e+01 -1.8926795197792767e+01 -4.3646672288129391e+00 3.7248904235006375e-01 -2.3516986477123869e+01 -1.2938994079221754e+01 7.9735275591764490e+00 1.6655232180931638e+00 -4.6416254661330260e+02 2.5388170093100049e+02 -2.4911103137945632e+00 1.5604260512157819e+00 2.4435839351315742e+01 -1.0269469884012761e+00 -4.0276685750441459e+01 -5.2171738015032414e+00 1.0788099556977993e+01 -1.0804980494193870e+01 -7.4335318252248271e+01 -2.1192616945998438e+01 1.1110439239760192e+01 2.0191523692527165e+00 7.5393301592202366e-01 8.6248775148199726e+01 -1.1939277152586229e+01 -1.6138236497562218e+01 -6.3710478473095399e+01 2.0711740437331514e+00 4.9439756644687076e+00 1.4844772375745481e+02 -5.7199016325113803e+02 -3.8864833831119704e+01 -8.8886356084418772e+00 -3.4889335109019957e+00 8.6348203812962083e+00 3.8647320251993458e+00 1.5927326971130844e+02 3.1907503028354656e-01 -5.4139446886199426e+02 -2.2503347747508926e+01 -1.7181557707686439e+00 -2.3344026409776517e+00 -2.7188151132953138e+01 2.3563675735084297e+00 -4.1501349075045340e+01 -2.5064095417852599e+01 3.6779863472038823e+00 7.4462418330240652e+01 -7.3774597091708733e+02 6.1954261942952890e+01 -6.9071906031773622e-01 -1.4303036384266647e+00 -1.7443729200933653e+00 1.8047931468533761e+02 1.0800189233841451e+00 9.1064875621066506e+01 5.7812387821007107e+01 2.9538242687054161e-01 8.3134022322941732e+00 -5.7064875949517204e+02 -5.5973316633338811e+01 1.2222602540052101e+01 1.0265306874786464e+01 -8.2285475410945672e+00 -6.9161877297301579e+00 -2.8578590461206179e+01 -2.4781800979545039e+02 8.4150862147155636e-01 -4.8235377661345541e+02 9.1105197486584120e+02 1.9264222573577365e+00 -8.6975518608609477e+00 8.1028749035148877e+00 -2.7924835983882659e+00 -3.3084718381172280e+01 1.0028130628907911e+02 2.4570646959129483e+01 -1.0481303675260116e+02 -5.0240475452248312e+01 1.0073248424730656e+01 -8.4692967275521713e-01 -1.5107307819837672e+00 3.0332082899343649e-01 1.6239101151916100e+02 9.0646855300600855e+00 6.6011882549212260e+01 -1.8940201216271313e+00 -8.5003537319411038e+00 -1.4153945155491154e+01 3.4649453455730885e+01 1.3532672657215133e+02 -8.2878646483737199e+00 -1.8157725211845083e+01 6.2419898500532156e+00 6.1306693289803313e+01 -3.5498949306342062e+01 2.1611959477098867e+02 -7.6951871735925792e-01 1.4712114253836808e+02 -9.0407812876112402e+01 -1.1439572337905874e+00 -2.0192897228967702e+01 -1.2338210029902083e+01 -8.0112121999845129e+00 -1.2556897949746659e+01 5.2674301440031809e+02 3.9640049750025526e+00 -9.1657951758674443e+00 -1.6754298590467058e+00 
      </Row>
      <Row Index="9">
        6.7082329599071471e+01 1.3235082493493337e+01 6.8281898892261406e-01 -8.3368531017009939e-01 -4.2716101976693066e-02 2.0510123219362612e+02 1.0215945335794910e+01 -8.3275858974540782e+01 8.1553112289301524e+00 2.5381303058938148e+01 7.6945907510738314e+00 1.9133013441804295e+02 -2.9504660744807843e+01 -1.5748242480334218e+01 1.9470812361244112e+00 1.2395995860486468e+00 1.6525870766940791e+01 9.7474661194914631e+00 -3.3883849654911600e+01 9.8026728017959863e-01 -8.8498717766844948e+01 -1.2113207274536165e+02 1.6551331791625387e-01 5.2063733431268122e-01 6.9022800938029025e+00 -2.6209880525785234e-01 5.1791732445863792e+00 -2.4491192202503953e-01 1.0087924133936390e+01 -1.7036399514945195e+00 -1.1714025276304631e+02 -1.0351517426716036e+01 -3.2040666827907684e+00 2.4871554784535088e-01 2.2079404635499174e+00 -9.8339013864568813e+01 -1.0155968697936613e+01 2.5889816365472150e+01 -2.7487780144564526e+00 -1.1746986268892304e+01 -5.3500079729823620e+00 -2.3769988132023911e+00 1.8978564599403717e+02 -9.4307461204142555e+00 -1.4146209798634914e+00 -2.3508167637913808e+00 1.8978281058537456e+00 -8.8447943497430153e+00 1.2719799297149589e+01 5.5489087834815043e-02 4.5224072070418643e+01 1.5402903823354319e+02 3.4719525512936944e-01 -1.0682298424830641e-02 -1.9901400690249407e+01 -7.8487891327478887e-01 -1.7316584831931376e+00 2.9634640746096530e+01 -6.0551251778583266e+00 -2.5210523991667237e+01 9.1907639791826725e+01 -3.1446906567568789e+00 -2.1381251516127717e+00 -8.4635173696296628e-01 1.0242459530411541e+00 5.6916278786326892e+01 -2.3749592805729889e+00 -2.6379850282659401e+01 7.0401798594214082e-01 -3.6060475718194374e-02 2.3299625227849594e+00 8.7577415429349102e+01 1.0446666417180410e+02 -2.2238672218510551e+01 -7.9590143890917109e-01 4.2523913636484095e-01 2.9977727420070902e+01 2.8652699958203396e+00 1.8454983803587410e+00 2.8609730623090734e-01 -4.3571736489633622e+01 6.2859157306564946e+01 2.2797373144193417e-02 6.2666936934234396e-01 1.1676919871089098e-01 -4.3695875296673381e-01 2.4703231224087774e+00 3.1041821852865116e+01 1.5135320141471970e+01 -1.1725865213895696e+01 5.5278087195316751e+01 -7.7372222146729408e-01 -1.2079032704715102e+00 -2.6273817407738986e-03 2.8904096589797124e-01 -5.5330264566392223e+01 -6.4710196573217371e-01 -1.4076392950486433e+01 2.0988615928133139e+00 -1.2064320420012230e+01 5.5829127088629455e+00 -6.5242022674627549e+01 -1.5821292646141967e+02 -4.3006952829261094e+00 3.2624277966156519e+01 -1.3335535116167785e+00 3.4414376413001753e+00 6.7863196460290345e+00 -3.3438481537002218e-01 -7.6220545339448498e-01 6.3378487917227631e+00 2.5179559099829667e+01 8.3133165260590391e-01 -8.8041364326951954e-01 -8.7244730841774008e+00 -9.5648979424928338e-01 7.0555162208119615e-01 7.3586752112020122e+00 -3.1400026306672908e+00 4.0121744834466924e+00 -8.1859678358121457e+01 2.5990742330145494e+01 -2.6563376437972086e+00 3.5477371066667818e-03 -6.7727766792228727e-01 -5.7702241979678398e+01 5.0045500286203080e+00 7.8743147972855496e+01 1.4932066096265615e+00 -1.1955024403301559e+01 -7.2567841024315465e+00 -3.6969332804380406e+02 -6.1441989917515158e+01 6.6090700345356339e+01 5.6258380377622057e+00 1.6780378706520698e+00 -1.0168727413088320e+01 2.1143051678576521e+00 1.2106264943068808e+01 -7.6110402529538890e-01 -1.2702883695437947e+02 1.4544416832134922e+02 -4.6442282543793673e-01 -4.8929005200025588e-01 -4.4711239190348442e+00 2.9153997156078049e-01 -1.3603829626713122e+01 -4.1728855674905276e+01 5.6788415888252253e-01 4.2627330851683212e+01 3.7785094410624140e+01 9.5435132485531398e+00 -1.0471950558845595e+00 -1.0441043946789843e+00 -3.6082744707398051e-01 9.9962643164961108e+01 -4.5154596607745106e+00 -8.8485529967648073e+00 -5.9120274044944798e+00 8.4084233139739908e+00 -8.4652771567763114e+00 5.9855492989008724e+01 -2.4753069735287164e+02 -1.7995395723260408e+01 -1.2377562020164737e+01 8.3062891427646857e-01 1.1384606402687986e+01 -6.1698815108031164e+00 5.4473448347147816e+01 1.5239017807936910e+00 1.3933027216843689e+02 1.0467177058940379e+01 -1.4975124467695722e-01 3.0030019417539155e-01 2.5392420141272908e+01 2.3663836009060759e+00 4.3532521855952355e+00 -3.1647998268045580e-01 1.2845698379229993e+00 1.1134733351098317e+01 3.7182876905934336e+01 -6.6984516593427053e+00 -3.1775675166778190e+00 1.4588557096932253e-01 2.5867188287767249e+00 -3.8327364617751042e-01 -1.6953914382249344e+01 -1.1050652729104513e+01 -1.0533119152619550e+01 1.6031683555399223e+01 3.4274846536344707e+00 -4.3760758495986849e+01 -1.9182480716245522e+01 -1.0555774350948608e+01 -1.0738168103182531e+01 -1.1713204965060833e-01 3.8394003680721781e+01 2.6494245682329129e+00 6.5209499110939902e+01 -3.7738952248800145e-01 6.2758198808489176e+01 -5.5492386872286545e+01 -4.2464183624435242e-01 6.9790216403996364e-01 1.9884352467791868e+00 -5.8652191807962950e-01 5.7996996039670865e+00 2.5562490078605418e+01 -2.4139307384630229e+00 5.2272277313946685e+00 3.6965664340499728e+01 4.6802932842596512e-01 3.0968061487501513e+00 -8.6075390005551367e-02 8.1347273981250218e-02 3.3031649529302747e+01 -2.0810184321248220e+00 9.0723734379682483e+01 -6.7355935687883264e+00 1.3993638321427058e+00 -4.1297041174661526e+00 5.5327610389048871e+01 -1.3913169501472598e+01 -2.3135402814062452e+01 -9.7244104037937245e+00 6.8870598741692945e-01 -3.8339403570054486e+01 -2.6362015626469617e+00 9.8804787708624886e-01 -6.5725636831070328e-02 1.1487298693489825e+02 9.4917328473654891e+01 8.6198331678269836e-03 -9.9278065044847708e-03 1.9056901245745408e+01 -4.4871606728292812e-01 -2.1488311164722114e+00 8.8150750045384108e+00 9.5990891908447846e+00 -6.4852667425937272e-01 9.1207001344098899e+01 -8.3594146268544769e+00 2.8477588257863582e+00 5.0165263789184422e-01 -5.4306134276585349e-01 4.7406231548053341e+01 -2.6433014554952505e+00 -2.0592238580557108e+01 -6.3948939923337420e+00 8.1391295092136176e+00 1.7482883624639206e-03 3.1729771978339807e+02 -1.0806881792009419e+02 -3.0863987091602638e+01 -9.6668878305546215e+00 -1.8460159362084691e-01 2.1555096627060433e+00 -2.0013486214441284e-01 6.7226230923281936e+00 -4.7760999103797630e-01 2.9365332595556286e+01 -5.1070089016278601e+01 -2.7728476055127356e-02 2.1886113189863937e-01 4.1679733660963194e+00 4.9148388048697722e-01 8.8110905365595791e+00 -4.1198968723137233e+00 -3.9518987978662978e+00 -1.9223388558518788e+01 1.1210822362860131e+02 1.5056476442328091e+01 -2.6277996217624722e+00 -1.7643819139535952e+00 1.8384091830298632e+00 1.7998127102075966e+02 -5.9083279332107512e+00 3.6785494321234729e+01 -1.0506766630929718e+01 1.1271666481448488e+00 -1.1133895703517585e+01 -8.9259335345440149e+00 -5.8068855719859833e+01 3.3685572685215570e-01 1.0968901154510286e+01 1.2684719357457106e+00 -1.4719690755717970e+01 6.1498560369822215e+00 2.3193204284989129e+01 7.1423718942715664e-01 -7.1690376710391206e+00 1.9153160991828585e+02 5.2547338169241442e-01 -1.8643554771027604e-01 2.4278494560963608e+01 -1.9253434238594913e-01 6.5368238550830053e+00 -1.3836031011562170e+01 2.8234934546646429e+01 9.9447746835398725e+00 7.2250960152326904e+00 6.1224906793674716e-01 -5.2506891027614300e-01 9.7949751390583106e-01 -2.5191807973561886e-01 -1.9974144735153526e+01 -1.8399444889872747e+00 9.0808621084787351e+00 -1.9710255068782467e-01 -3.8328156233940675e+01 6.7247259998435940e+00 2.1727154960281169e+01 4.9183461314602447e+01 4.0131071681216717e+01 -1.3117983571254204e+01 1.2452116643643412e+00 5.1823057107644217e+01 -1.7427151449529546e+01 2.7735393176615418e+01 -1.1797538743808054e+00 1.0800795153112061e+01 -3.6569379266105635e+01 -2.9228952085365384e-01 4.6878549704945971e-01 -6.0732674976401295e+00 -1.7073569573820222e+00 -1.7234314729949318e+00 2.0455720282782142e+01 -7.2172057481457621e+00 -1.4559180207797169e+01 1.0576212080237285e+01 
      </Row>
      <Row Index="10">
