<?xml version="1.0"?>
<MethodSetup Method="MLP::MLPBNN_Expert1_TauTau_nodes30_epoch1000">
  <GeneralInfo>
    <Info name="TMVA Release" value="4.2.0 [262656]"/>
    <Info name="ROOT Release" value="6.02/13 [393741]"/>
    <Info name="Creator" value="jhoward"/>
    <Info name="Date" value="Sun Dec  4 02:24:56 2016"/>
    <Info name="Host" value="Linux vocms0301.cern.ch 2.6.32-573.7.1.el6.x86_64 #1 SMP Wed Sep 23 10:12:03 CEST 2015 x86_64 x86_64 x86_64 GNU/Linux"/>
    <Info name="Dir" value="/uscms_data/d3/jhoward/WORKING_DIR/NovProductionV3_76X/ANNTraining_MethodALL/ANNs"/>
    <Info name="Training read_events" value="47894"/>
    <Info name="TrainingTime" value="7.22010800e+03"/>
    <Info name="AnalysisType" value="Classification"/>
  </GeneralInfo>
  <Options>
    <Option name="NCycles" modified="Yes">1000</Option>
    <Option name="HiddenLayers" modified="Yes">30</Option>
    <Option name="NeuronType" modified="Yes">tanh</Option>
    <Option name="RandomSeed" modified="No">1</Option>
    <Option name="EstimatorType" modified="No">MSE</Option>
    <Option name="NeuronInputType" modified="No">sum</Option>
    <Option name="V" modified="Yes">False</Option>
    <Option name="VerbosityLevel" modified="No">Default</Option>
    <Option name="VarTransform" modified="Yes">N</Option>
    <Option name="H" modified="Yes">False</Option>
    <Option name="CreateMVAPdfs" modified="No">False</Option>
    <Option name="IgnoreNegWeightsInTraining" modified="No">False</Option>
    <Option name="TrainingMethod" modified="Yes">BFGS</Option>
    <Option name="LearningRate" modified="No">2.000000e-02</Option>
    <Option name="DecayRate" modified="No">1.000000e-02</Option>
    <Option name="TestRate" modified="Yes">5</Option>
    <Option name="EpochMonitoring" modified="No">False</Option>
    <Option name="Sampling" modified="No">1.000000e+00</Option>
    <Option name="SamplingEpoch" modified="No">1.000000e+00</Option>
    <Option name="SamplingImportance" modified="No">1.000000e+00</Option>
    <Option name="SamplingTraining" modified="No">True</Option>
    <Option name="SamplingTesting" modified="No">False</Option>
    <Option name="ResetStep" modified="No">50</Option>
    <Option name="Tau" modified="No">3.000000e+00</Option>
    <Option name="BPMode" modified="No">sequential</Option>
    <Option name="BatchSize" modified="No">-1</Option>
    <Option name="ConvergenceImprove" modified="No">1.000000e-30</Option>
    <Option name="ConvergenceTests" modified="No">-1</Option>
    <Option name="UseRegulator" modified="Yes">True</Option>
    <Option name="UpdateLimit" modified="No">10000</Option>
    <Option name="CalculateErrors" modified="No">False</Option>
    <Option name="WeightRange" modified="No">1.000000e+00</Option>
  </Options>
  <Variables NVar="10">
    <Variable VarIndex="0" Expression="read_pt_1" Label="read_pt_1" Title="read_pt_1" Unit="" Internal="read_pt_1" Type="F" Min="4.00009727e+01" Max="1.18858984e+03"/>
    <Variable VarIndex="1" Expression="read_pfmt_1" Label="read_pfmt_1" Title="read_pfmt_1" Unit="" Internal="read_pfmt_1" Type="F" Min="9.26826522e-02" Max="2.45148999e+03"/>
    <Variable VarIndex="2" Expression="read_pt_2" Label="read_pt_2" Title="read_pt_2" Unit="" Internal="read_pt_2" Type="F" Min="4.00010948e+01" Max="1.54112402e+03"/>
    <Variable VarIndex="3" Expression="read_pt_tt" Label="read_pt_tt" Title="read_pt_tt" Unit="" Internal="read_pt_tt" Type="F" Min="1.13594666e-01" Max="2.21935181e+03"/>
    <Variable VarIndex="4" Expression="read_m_vis" Label="read_m_vis" Title="read_m_vis" Unit="" Internal="read_m_vis" Type="F" Min="2.38957615e+01" Max="1.46209680e+03"/>
    <Variable VarIndex="5" Expression="read_met" Label="read_met" Title="read_met" Unit="" Internal="read_met" Type="F" Min="6.78149581e-01" Max="2.14338794e+03"/>
    <Variable VarIndex="6" Expression="read_LPT" Label="read_LPT" Title="read_LPT" Unit="" Internal="read_LPT" Type="F" Min="0.00000000e+00" Max="1.55448889e+03"/>
    <Variable VarIndex="7" Expression="read_DeltaR_leg1_leg2" Label="read_DeltaR_leg1_leg2" Title="read_DeltaR_leg1_leg2" Unit="" Internal="read_DeltaR_leg1_leg2" Type="F" Min="5.00193596e-01" Max="4.74420977e+00"/>
    <Variable VarIndex="8" Expression="read_DeltaPhi_leg1_leg2" Label="read_DeltaPhi_leg1_leg2" Title="read_DeltaPhi_leg1_leg2" Unit="" Internal="read_DeltaPhi_leg1_leg2" Type="F" Min="-3.14129448e+00" Max="3.14158058e+00"/>
    <Variable VarIndex="9" Expression="read_DeltaPhi_PFMET_Higgs" Label="read_DeltaPhi_PFMET_Higgs" Title="read_DeltaPhi_PFMET_Higgs" Unit="" Internal="read_DeltaPhi_PFMET_Higgs" Type="F" Min="-3.14158130e+00" Max="3.14158773e+00"/>
  </Variables>
  <Spectators NSpec="4">
    <Spectator SpecIndex="0" Expression="read_npu" Label="read_npu" Title="read_npu" Unit="" Internal="read_npu" Type="F" Min="6.08978160e-02" Max="3.61687775e+01"/>
    <Spectator SpecIndex="1" Expression="read_event" Label="read_event" Title="read_event" Unit="" Internal="read_event" Type="F" Min="1.00000000e+00" Max="7.21530368e+08"/>
    <Spectator SpecIndex="2" Expression="read_final_weight" Label="read_final_weight" Title="read_final_weight" Unit="" Internal="read_final_weight" Type="F" Min="4.65372044e-13" Max="4.68177609e-02"/>
    <Spectator SpecIndex="3" Expression="read_ratio_weight" Label="read_ratio_weight" Title="read_ratio_weight" Unit="" Internal="read_ratio_weight" Type="F" Min="1.24397818e-02" Max="1.24397818e-02"/>
  </Spectators>
  <Classes NClass="2">
    <Class Name="Signal" Index="0"/>
    <Class Name="Background" Index="1"/>
  </Classes>
  <Transformations NTransformations="1">
    <Transform Name="Normalize">
      <Selection>
        <Input NInputs="10">
          <Input Type="Variable" Label="read_pt_1" Expression="read_pt_1"/>
          <Input Type="Variable" Label="read_pfmt_1" Expression="read_pfmt_1"/>
          <Input Type="Variable" Label="read_pt_2" Expression="read_pt_2"/>
          <Input Type="Variable" Label="read_pt_tt" Expression="read_pt_tt"/>
          <Input Type="Variable" Label="read_m_vis" Expression="read_m_vis"/>
          <Input Type="Variable" Label="read_met" Expression="read_met"/>
          <Input Type="Variable" Label="read_LPT" Expression="read_LPT"/>
          <Input Type="Variable" Label="read_DeltaR_leg1_leg2" Expression="read_DeltaR_leg1_leg2"/>
          <Input Type="Variable" Label="read_DeltaPhi_leg1_leg2" Expression="read_DeltaPhi_leg1_leg2"/>
          <Input Type="Variable" Label="read_DeltaPhi_PFMET_Higgs" Expression="read_DeltaPhi_PFMET_Higgs"/>
        </Input>
        <Output NOutputs="10">
          <Output Type="Variable" Label="read_pt_1" Expression="read_pt_1"/>
          <Output Type="Variable" Label="read_pfmt_1" Expression="read_pfmt_1"/>
          <Output Type="Variable" Label="read_pt_2" Expression="read_pt_2"/>
          <Output Type="Variable" Label="read_pt_tt" Expression="read_pt_tt"/>
          <Output Type="Variable" Label="read_m_vis" Expression="read_m_vis"/>
          <Output Type="Variable" Label="read_met" Expression="read_met"/>
          <Output Type="Variable" Label="read_LPT" Expression="read_LPT"/>
          <Output Type="Variable" Label="read_DeltaR_leg1_leg2" Expression="read_DeltaR_leg1_leg2"/>
          <Output Type="Variable" Label="read_DeltaPhi_leg1_leg2" Expression="read_DeltaPhi_leg1_leg2"/>
          <Output Type="Variable" Label="read_DeltaPhi_PFMET_Higgs" Expression="read_DeltaPhi_PFMET_Higgs"/>
        </Output>
      </Selection>
      <Class ClassIndex="0">
        <Ranges>
          <Range Index="0" Min="4.0000972747802734e+01" Max="1.1885898437500000e+03"/>
          <Range Index="1" Min="9.2682652175426483e-02" Max="2.4514899902343750e+03"/>
          <Range Index="2" Min="4.0001094818115234e+01" Max="1.5411240234375000e+03"/>
          <Range Index="3" Min="1.1359466612339020e-01" Max="2.2193518066406250e+03"/>
          <Range Index="4" Min="2.3895761489868164e+01" Max="1.4620968017578125e+03"/>
          <Range Index="5" Min="2.5020732879638672e+00" Max="2.1433879394531250e+03"/>
          <Range Index="6" Min="0.0000000000000000e+00" Max="1.5544888916015625e+03"/>
          <Range Index="7" Min="5.0019359588623047e-01" Max="4.7442097663879395e+00"/>
          <Range Index="8" Min="-3.1412944793701172e+00" Max="3.1389968395233154e+00"/>
          <Range Index="9" Min="-3.1415812969207764e+00" Max="3.1415877342224121e+00"/>
        </Ranges>
      </Class>
      <Class ClassIndex="1">
        <Ranges>
          <Range Index="0" Min="4.0023563385009766e+01" Max="6.3929486083984375e+02"/>
          <Range Index="1" Min="1.0258404165506363e-01" Max="6.5706268310546875e+02"/>
          <Range Index="2" Min="4.0043281555175781e+01" Max="7.6439355468750000e+02"/>
          <Range Index="3" Min="3.7264242768287659e-01" Max="9.3797082519531250e+02"/>
          <Range Index="4" Min="4.2249935150146484e+01" Max="8.7024377441406250e+02"/>
          <Range Index="5" Min="6.7814958095550537e-01" Max="5.2796929931640625e+02"/>
          <Range Index="6" Min="0.0000000000000000e+00" Max="8.7620501708984375e+02"/>
          <Range Index="7" Min="5.5442023277282715e-01" Max="4.1526341438293457e+00"/>
          <Range Index="8" Min="-3.1403374671936035e+00" Max="3.1415805816650391e+00"/>
          <Range Index="9" Min="-3.1408441066741943e+00" Max="3.1378092765808105e+00"/>
        </Ranges>
      </Class>
      <Class ClassIndex="2">
        <Ranges>
          <Range Index="0" Min="4.0000972747802734e+01" Max="1.1885898437500000e+03"/>
          <Range Index="1" Min="9.2682652175426483e-02" Max="2.4514899902343750e+03"/>
          <Range Index="2" Min="4.0001094818115234e+01" Max="1.5411240234375000e+03"/>
          <Range Index="3" Min="1.1359466612339020e-01" Max="2.2193518066406250e+03"/>
          <Range Index="4" Min="2.3895761489868164e+01" Max="1.4620968017578125e+03"/>
          <Range Index="5" Min="6.7814958095550537e-01" Max="2.1433879394531250e+03"/>
          <Range Index="6" Min="0.0000000000000000e+00" Max="1.5544888916015625e+03"/>
          <Range Index="7" Min="5.0019359588623047e-01" Max="4.7442097663879395e+00"/>
          <Range Index="8" Min="-3.1412944793701172e+00" Max="3.1415805816650391e+00"/>
          <Range Index="9" Min="-3.1415812969207764e+00" Max="3.1415877342224121e+00"/>
        </Ranges>
      </Class>
    </Transform>
  </Transformations>
  <MVAPdfs/>
  <Weights>
    <Layout NLayers="3">
      <Layer Index="0" NNeurons="11">
        <Neuron NSynapses="30">
          -9.3704081454929111e-01 1.8686809246473290e+00 1.5862626029169320e+00 2.1037515469294714e+00 -1.7991918767821584e+00 -9.3139351751015975e-01 -9.0304230435817534e-01 1.9979163693141377e+00 -1.2147066006021798e+00 -1.3734838666867477e+00 -1.4126731788663947e+00 -2.4638462497127428e-01 -1.1422948009117257e+00 -1.1724435843930110e+00 -6.1799783358925331e-01 1.0050752594196799e+00 -6.1054234774391758e-01 -2.3598208185644443e-01 -3.2616165951494547e-01 1.7901151389418279e+00 -3.6160525246326447e-01 -6.6887135062905922e-01 -1.4482309176029318e-01 -1.3143305868684571e-01 -8.0390091175677608e-02 -4.7926155425597911e-01 2.1458568745084459e+00 -1.1128440982855583e+00 -1.8101264376279746e+00 -1.6588459387641596e-02 
        </Neuron>
        <Neuron NSynapses="30">
          1.6412284722096548e-01 1.5808630594400424e+00 4.2173551944176391e-01 -4.4412787729796674e+00 8.6929714619427489e-01 -1.3752894608042432e-01 -1.2904229921632104e+00 1.6616343874375068e+00 -1.2024972124898670e+00 4.8700355766478065e-01 2.1468089635331622e+00 2.5758741718591689e+00 1.6297898286821439e+00 3.9860426389196921e+00 -5.3908828591022351e-01 -1.3466883565816890e+00 5.8573259132721367e-01 2.2755716973434268e+00 6.3105347855969807e-01 2.0601659514863737e+00 1.3406182417485779e+00 1.3927216525887185e+00 -1.9522842441814734e+00 7.6877552552206230e-01 -3.9410953162808977e+00 -8.5570031506250821e-01 -3.1384168496743042e-01 -1.8569232335242165e+00 1.7812555449426695e+00 6.8564984671156814e-01 
        </Neuron>
        <Neuron NSynapses="30">
          -1.8351985639331678e+00 1.4163607022910399e-01 3.6346318953696016e-01 1.7952427947163287e+00 1.6635144444312016e+00 -2.3664009335749972e-01 -1.5965917973824377e+00 -1.0506410895250224e+00 -4.3251394829302001e-02 -1.4921443623693449e+00 -4.6381219585633032e-01 -2.1408397774749708e+00 3.7718067301782832e-01 3.4689737274788535e-01 4.4746907830181887e-01 2.6107800489138855e-01 -1.8587483112761938e+00 -5.0028392959101742e-01 8.3440505437535994e-01 1.0630535775715673e+00 1.4494564536772729e+00 4.1000313526692206e-01 5.0328009934246565e-01 -1.1062594489010678e+00 -2.2487063711442920e-01 8.8915265049701564e-01 1.9491125467990080e+00 -1.0947423691690930e+00 -1.7745800465272537e+00 -1.8399871861399799e+00 
        </Neuron>
        <Neuron NSynapses="30">
          -1.0953549056091452e+00 -2.5648297426908861e-01 1.8403137593946930e+00 3.9506584314328004e+00 -1.0034909978060942e+00 2.0910576166968560e+00 -3.5672424376431028e-01 -1.2279492046112801e+00 -1.8195958688925875e+00 4.1089705529018805e-01 -1.9977072550136734e+00 -2.8208904999071858e+00 6.7612737050292115e-01 -2.9058878874979732e-01 -1.4349762138334756e+00 2.1684866760727122e+00 -1.0787333962902943e+00 -3.4183820744482663e-01 3.4881330872997313e-01 1.2817149851523062e+00 -2.3201992709888279e+00 -1.0088138698915727e-01 -5.8828480082929062e-02 3.0789272030229631e-01 -6.8742203832110482e-01 2.6695756864548321e+00 1.4156388907040980e+00 -9.7419223363861462e-01 -8.4607862316115123e-01 -9.4532915581537913e-01 
        </Neuron>
        <Neuron NSynapses="30">
          -1.9941345422102195e+00 2.5692622561662259e-03 6.5076677784852613e-02 -2.0623069291719709e+00 1.9535546566609449e-01 3.7387758906496088e-01 4.9387891208245999e-01 8.3332456714100356e-01 -2.4746766277777472e+00 4.7974223827070833e-01 4.1809543911627234e-01 -5.5052179733152007e-01 1.1650022134244706e+00 -4.2088852807215932e-01 3.7998481032288972e-01 1.3041530480548427e+00 1.6135410840250717e+00 -2.0274705543874671e+00 1.3012748717939824e+00 1.0478067790676351e+00 1.6462806037157671e+00 6.3527286794803839e-01 -1.3323095162937844e+00 8.7378161553734424e-01 -3.9047866101459322e-01 2.1229874134549509e+00 1.1200210633074421e+00 -3.4179595962883896e-01 -7.5476914789072580e-01 -1.4636441677590944e-01 
        </Neuron>
        <Neuron NSynapses="30">
          -1.6579013663952447e+00 4.9195877231022667e-01 2.1369368893001126e+00 -9.3063335439231682e+00 -6.4264055792610839e-02 6.4665055299487484e-01 1.6811307093767540e+00 5.0972144117668716e-01 3.7861297430759044e-01 -1.3496317520556873e+00 1.8765310089454572e+00 1.2204090913533736e+00 -1.7260595511880109e-01 2.4104813582703710e+00 1.4469104360449898e+00 -6.2593292484596075e-01 -8.4161327084190607e-01 5.5893859215149115e+00 -1.3601919530150337e+00 2.9859801811378844e-01 1.0069069786064770e+00 6.0628613945766208e-01 -2.4084716947662971e-01 1.5078309966699546e+00 -2.9764653088852739e+00 -1.6300040186456806e+00 1.6812794580257846e+00 -1.1885009231386685e-01 5.7389592118945254e-01 -1.5156604211764251e+00 
        </Neuron>
        <Neuron NSynapses="30">
          -1.9753326475496462e+00 1.0858538670703721e+00 4.7897102100861949e-01 -1.1060233258097651e+00 -5.0996109630456132e-01 -3.3668166599066247e-02 5.2945056728538165e-01 1.0864534306703550e+00 -4.3811812189777616e-01 -6.0352705175992272e-01 -1.0051079006156813e+00 7.3385451794589285e-01 5.7053898234086509e-01 1.8373991387088132e-01 9.5564915420664132e-01 6.6596115718721271e-03 -1.9220980297135477e+00 -5.0133410229710207e-01 1.3316306896232313e-01 -5.5846335970941197e-01 -1.1748867234575506e+00 -3.4944001354345577e-01 -2.5514125293971751e-01 -2.3661443094066845e+00 1.4401986469482844e-01 6.6557290210389397e-01 6.5742175940533987e-01 -2.2488759746933898e-01 1.6429281568175309e+00 9.2490289863475394e-01 
        </Neuron>
        <Neuron NSynapses="30">
          6.0070687208214069e-02 -2.2903133356922156e-01 -1.5288490886723589e+00 1.3126214608057514e+00 1.3179389674739672e+00 9.3042686452940648e-01 1.7220708188869591e-01 1.0159328539226409e+00 1.2064088127474450e+00 -1.1484809933802473e+00 -1.1484324584670556e+00 -4.0721708273581753e-01 -9.0691034727579911e-01 -1.4753254110839553e+00 3.2465504374171561e-01 -9.5163696448887580e-01 6.4670663674716800e-01 -4.1205333510240214e+00 -2.3998454804501490e+00 -1.7147599015967840e+00 1.2100132004222972e+00 -4.1271200925085315e-02 -8.9620008926089612e-01 -5.0373229253235541e-01 4.5926090452755899e+00 -5.8026453419382562e-01 3.4136857374157709e-01 2.3467594881404161e-01 -1.0143910011190402e+00 -1.3275117835287442e+00 
        </Neuron>
        <Neuron NSynapses="30">
          -1.2217021623196758e+00 -5.3855724985227960e-01 -9.3970224560137594e-01 1.5921949626010343e-01 -2.0962717082330178e+00 4.9532416482386626e-02 -7.0697085232643875e-01 -2.0534221484062050e+00 1.0515599528669255e+00 -1.1544902474223264e+00 1.9713575059536956e-01 -4.0307945358286768e-01 1.9519233341803643e-01 -1.7157271680057004e-01 6.9044977485676984e-01 6.1776572066523663e-02 -1.4935265878940680e+00 1.8206718110857603e-01 2.8746410668440764e-01 -4.6616212761282944e-01 1.1061064558419227e-01 -1.4602986565781370e-01 2.7271475732224770e+00 1.1811599630241505e+00 5.3902804195256160e-01 -8.7361963858580616e-01 -4.9878429049115003e-01 1.0638113946632364e+00 3.4335532157310772e-01 -4.0133851843405838e-01 
        </Neuron>
        <Neuron NSynapses="30">
          -1.3664994465233585e-01 1.2912754941907056e+00 3.0277817480877328e-01 -7.1132813941559347e-02 -6.8208872793387854e-01 -1.6983528748887236e-01 2.0475127028301698e+00 1.0136071276922691e+00 1.2793014712952673e+00 1.3475354234738571e-02 -1.5247478566660536e-01 -4.9942323111774484e-01 -1.0223374640572049e+00 1.6790109875387194e-02 -2.3177321682553802e+00 -4.7998138239737326e-01 -1.3671357000882720e+00 4.5996370816826238e+00 -1.9554093603855121e+00 7.5856427257113590e-01 -1.3469404110997021e+00 7.7806196216267465e-01 -1.0586033561256651e+00 -1.2119811514057812e+00 4.7176374668789727e+00 -2.9363951753862838e+00 3.4774008378822781e-02 4.6946834500594076e-01 -1.5488893468732006e+00 -1.5346308211262916e+00 
        </Neuron>
        <Neuron NSynapses="30">
          -8.8828723046836422e-01 -5.7710605671746340e-01 1.2948751044182165e+00 -7.4779170973396534e+00 4.4264230863283460e-01 -1.0946430069562145e+00 -1.4747742530085968e+00 -1.7733449378333721e+00 -3.3961792728627799e-01 -1.3713974944663581e+00 1.0652258469111622e+00 -7.1983329203013358e-01 -1.7250203679101164e+00 4.0151548252387865e+00 5.9787355622512106e-01 -1.5288112254306099e+00 2.0337509692323188e+00 -9.7505184753862550e-01 2.2228143922439143e+00 1.3187908015824684e-01 -5.9119778290330693e-01 -9.2598691517174159e-01 1.0544563207318129e+00 -8.1008051734381537e-01 -2.0577052707703771e+00 1.5349301307912405e-01 1.2188798001367221e-01 1.5983651604430482e+00 -7.2232943630867630e-01 1.1540897943345290e+00 
        </Neuron>
      </Layer>
      <Layer Index="1" NNeurons="31">
        <Neuron NSynapses="1">
          -6.2981769957835088e-01 
        </Neuron>
        <Neuron NSynapses="1">
          5.0703012524427681e-02 
        </Neuron>
        <Neuron NSynapses="1">
          -3.3784645495667831e-01 
        </Neuron>
        <Neuron NSynapses="1">
          -8.3674591850945279e-01 
        </Neuron>
        <Neuron NSynapses="1">
          6.5985467591878982e-02 
        </Neuron>
        <Neuron NSynapses="1">
          7.6571445309454567e-01 
        </Neuron>
        <Neuron NSynapses="1">
          -6.7104861466567312e-01 
        </Neuron>
        <Neuron NSynapses="1">
          2.6096913626292612e-01 
        </Neuron>
        <Neuron NSynapses="1">
          -2.7893999366103034e-01 
        </Neuron>
        <Neuron NSynapses="1">
          2.2561372954483269e-01 
        </Neuron>
        <Neuron NSynapses="1">
          -9.6241673062964295e-01 
        </Neuron>
        <Neuron NSynapses="1">
          -1.8694778789847424e-01 
        </Neuron>
        <Neuron NSynapses="1">
          1.3191018873201852e+00 
        </Neuron>
        <Neuron NSynapses="1">
          -5.5291148535981360e-01 
        </Neuron>
        <Neuron NSynapses="1">
          -5.7377373450525460e-01 
        </Neuron>
        <Neuron NSynapses="1">
          -1.7902626127893637e+00 
        </Neuron>
        <Neuron NSynapses="1">
          -3.4822215970636455e-01 
        </Neuron>
        <Neuron NSynapses="1">
          2.6654090721490442e-01 
        </Neuron>
        <Neuron NSynapses="1">
          -1.8285217484895175e-01 
        </Neuron>
        <Neuron NSynapses="1">
          -5.5334491236772609e-01 
        </Neuron>
        <Neuron NSynapses="1">
          -8.2783166660683333e-03 
        </Neuron>
        <Neuron NSynapses="1">
          1.1195688904236989e+00 
        </Neuron>
        <Neuron NSynapses="1">
          3.9359651865784367e-01 
        </Neuron>
        <Neuron NSynapses="1">
          -6.8837821048920181e-02 
        </Neuron>
        <Neuron NSynapses="1">
          -2.7356220886307175e-01 
        </Neuron>
        <Neuron NSynapses="1">
          -1.3063015627785701e-01 
        </Neuron>
        <Neuron NSynapses="1">
          -1.1056548495563425e+00 
        </Neuron>
        <Neuron NSynapses="1">
          1.0696825416228266e+00 
        </Neuron>
        <Neuron NSynapses="1">
          2.8572979571361851e-01 
        </Neuron>
        <Neuron NSynapses="1">
          3.4406802082834931e-01 
        </Neuron>
        <Neuron NSynapses="1">
          5.6984449207168264e-01 
        </Neuron>
      </Layer>
      <Layer Index="2" NNeurons="1">
        <Neuron NSynapses="0"/>
      </Layer>
    </Layout>
    <InverseHessian NElements="130321" NRows="361" NCols="361">
      <Row Index="0">
        1.0421148725894589e+04 -4.7593602641169417e+02 5.7034257975477418e+00 6.5823758158399936e-01 5.0791925607201826e+01 5.3547911375844016e+01 8.6626705248575995e+00 1.6273871197633476e+01 -6.2433253769069275e+01 -9.2619188355660526e+01 5.3771703064709104e+00 3.7761862733695914e+01 -1.0478718680531288e+02 4.6485659366403880e+00 -9.0163945670960359e+00 -9.2618918330832983e+01 -2.1998436521115852e+02 -8.9699431240712180e-01 -7.8797950666732305e+01 -1.9521860193099460e+01 -4.6006579466548328e+02 -3.9952181462021663e+01 -1.6461649560150946e+01 -2.3147458763370537e+01 -7.2058801554369314e+00 2.8752442744263579e+01 -2.7464038324564472e+03 -1.6603194913425696e+03 -2.6122911581594579e+01 4.9018994084261337e+01 -7.7700071400686866e+03 1.1041123046681571e+03 3.1161348748316662e+01 -5.1444429818597417e+00 -1.0796152614952932e+02 -4.5785795800153331e+01 -4.8295004699185728e+00 -4.9120107876394165e+01 -1.0801068024503320e+02 9.4344681891356444e+01 -2.3636250217483614e+01 -1.0480782298656077e+01 1.5243629229170622e+02 5.5770681777212268e+00 3.1584220334692617e+01 1.8639857998345116e+02 1.0167189156072544e+02 5.9526175033263007e+00 1.0764472065214643e+02 1.7421806669426051e+01 1.6373028745992642e+03 4.9607325479709544e+01 6.1455794804239741e+00 1.0019596312736310e+02 5.2806072264829949e+00 -8.2757824297261408e+01 5.2127031058818557e+03 1.5309931742712147e+03 3.3064595127876508e+01 -1.2474127389671652e+02 2.6999943605294761e+03 6.1309509180252712e+02 6.4171703004067055e+01 4.6068467632053594e+00 -4.6335595260916854e+01 7.0401250679277908e+01 1.9555682934032674e+00 -2.8973221658430191e+02 9.6235841781534432e+00 -1.9630842318195761e+01 1.0716264050011386e+01 9.9021508550958011e+00 1.0602572961513451e+01 2.1233257202581566e+00 2.4422491356763256e+00 -8.7252277786720342e+01 -1.7791952742884345e+02 3.6452085600674460e+00 1.7303149537599566e+01 3.0011944501121956e+01 7.6316938487771779e+02 2.8207051274191279e+01 1.3423686159646818e+01 4.3245514401777520e+01 -1.7004712093860615e+01 -1.6331405099632505e+01 -1.5233262216951362e+03 1.3267732572722925e+03 4.7448056954651747e+00 -1.5431745226451380e+02 1.0465078930630209e+03 -1.2584062123873963e+02 2.6376122010817976e+01 3.6509497855652304e+00 -2.8244245045692224e+00 5.1444039098123710e+01 -8.7745840665605535e+00 1.2851754255440298e+01 -1.4474988353124098e+02 2.5647578615696304e+01 1.7075156261109399e+00 -5.6626023867737885e+01 5.9259999599877027e+01 2.4489454280714966e+00 2.7619112505178819e+01 -1.0818239937488522e+02 -1.0051918170807480e+02 -2.5563228048772006e+00 4.9003585634768015e+01 3.9743093836082473e+01 2.5757260096229752e+03 2.4498804553931269e+01 6.4703387565336463e+00 2.6087192128256831e+01 5.9638764261274169e+00 -2.3026774500549131e+01 -3.2312242152461167e+03 3.7612638555015610e+02 1.4278110056291954e+01 -2.5728311473035188e+01 3.5941201560277534e+02 3.9810459300869292e+02 -2.7527541996964011e+01 3.9396386743709044e-02 5.1982636744912384e+01 -8.0537739964693046e+01 -7.1865546796668767e-01 5.5789922815068479e+01 -1.5070362208227237e+02 -3.3817362382416029e+01 1.0182788414313126e+01 -1.9948781953888631e+01 1.1511067435799531e+02 -5.3879049627123132e+00 -1.0229895463116392e+01 -3.7195768450842741e+02 9.5378860585916084e+02 -2.4100538740639408e+00 3.5301867192256182e+00 -8.4938488255671771e+00 -1.2958547861775191e+03 -3.6243089055590858e+01 1.6129748468667010e+01 -1.5870495828640765e+02 7.6743461617400790e+00 4.3605421714947425e+01 -1.7723596598021902e+03 4.8328836490407105e+02 6.5827729193090070e+00 -4.3307520265761966e+01 3.3952572465966009e+03 -6.3038404092476867e+02 7.1243882182632881e+00 -7.5282456530539736e+00 5.7160547772945556e+01 2.4270541167260362e+01 5.9134950831447020e+00 -4.4153933627637628e+01 2.3827712773025394e+02 -1.1417342427015728e+02 -7.0149670341962196e+00 4.0187284637664860e+01 -3.8145634324180563e+01 -3.6569792637619276e+00 -4.0724287670811549e+01 -1.0582594779116887e+01 -7.5677601383930249e-01 9.0840693107964405e+00 -7.8426918348499029e+01 -2.5523723101789731e+01 -2.3940667428684847e+03 -4.3360899194000602e+01 -3.1255281088437510e+01 -7.6960477207495813e+01 4.3072277724484707e+00 3.1497659878849454e+01 4.9757804285985703e+03 -3.6657972880878538e+02 -3.0530057389167496e+01 3.3317390587679363e+01 6.4078276914631829e+02 6.1661243625923973e+01 4.8910134351872312e+00 -6.4929988911364644e-01 -4.1090694171095876e+00 -4.4929870356002112e+01 -3.3239720096010252e+00 -4.2982635604303447e+01 3.3308102432426061e+01 -4.0901731796639687e+01 1.0046481536434378e+01 -9.1194007860064374e+00 3.5625160434390757e+01 3.0472379314250753e+00 -5.5289858373017564e+00 1.3484746133092768e+01 -5.7770164184104502e+01 6.7304016522107739e+00 3.9809314185562678e-01 3.2312607667142551e+01 7.0411566956433364e+02 4.0270958853756040e+00 -1.0448295996305131e+01 1.5303816048951159e+01 -5.5992762440789878e-01 4.6309878425997653e-02 -6.8677877717544325e+03 5.1305745211342321e+02 -5.5692806486137485e+00 -8.2829082100082488e+01 -5.0518331768675898e+02 -1.6469233992451700e+02 -2.2349508895627551e+01 -3.7130333222455858e-01 -1.4213857587324028e+01 3.9961854303074702e+01 -1.3551967252050828e-01 -8.9978896624196381e+01 8.8196102053423857e+01 -1.0622524357315541e+01 8.0366102296206829e+00 1.8173361699082642e+00 -8.6695555409641727e+01 5.7117776939326115e-01 -1.2805322424641825e+00 2.6610118236205375e+02 -1.0327689549534834e+02 -1.2216060297795175e+00 -1.3824973514866224e+01 3.5904386225897802e+01 1.3737558423254666e+02 1.9707152433884978e+01 -1.6234950253346977e+01 5.7569965848862424e+01 -8.9943627252288323e+00 -2.4950727520351307e+01 3.5322159958324582e+03 1.0112643250376873e+03 -7.7008246207109510e-01 -4.4003447822025592e+01 -1.7107097972699589e+03 5.9215492236143717e+01 -3.2763274510573162e+00 1.5426006966670680e-02 -1.4895913461265284e+01 -1.8190261306319709e+01 -3.1624289205952527e+00 2.8204819790679476e+01 2.7856294005204195e+01 -7.0722489168107245e+01 5.2839743402720458e+00 -6.3324293583369862e+00 -2.0903492192611322e+00 1.2056543007061655e+00 2.2347048305592421e+00 -1.1692344554634289e+02 -5.8510648518290637e+01 5.5101188877363982e-01 3.0289279619093907e+00 -2.3177519119766725e+01 4.9101278257578173e+01 -3.0526544227906873e+00 6.9551668635110175e+00 6.5887703271415639e+00 -1.9268482891018643e+00 -1.5922590420620800e+01 -4.4032843712943741e+03 7.3600264491645362e+02 2.4624111433386182e+00 -2.1873015863249609e+01 -1.9590383745691980e+02 -1.2150435187940984e+02 6.6541248387531660e+00 1.8190737268629792e-01 -4.7973666675088911e+00 -2.1896859029542220e+01 1.7498793793072143e+00 -5.8544308224153667e+00 1.1997835177267137e+02 4.3322474953953694e-01 -8.2308886851863239e-01 -2.9771378305875080e+00 -1.6179605226047727e+02 2.3499795069011409e-01 -1.3776191073387050e+00 7.0564116867450224e+01 -9.5804940919980879e+01 5.6474135764058895e+00 -2.6493825037412751e+01 1.3766051151548311e+00 -3.7068023344146047e+02 -7.6276641850713816e+00 -4.1620861779662679e+00 2.4330507047696059e+00 -8.5379366990885934e+00 -2.9843731386575655e+01 1.8168485662260323e+02 4.4152193702068070e+02 -1.3623288472971602e+00 -7.1786954659622495e+01 5.2503937011536300e+03 6.3334071972023889e+02 4.8935682292528590e+01 -3.9676192316012759e+00 -7.4588624174308658e+00 4.8120352253487511e+01 6.2566145878376744e-01 -3.0035234054593684e+02 -2.7707098721219836e+00 -1.0120046243653155e+02 4.9375060698883573e+00 -4.7827835607451767e+00 5.5954670320372884e+02 8.8747858274273934e+00 -3.4023524159313610e+00 -6.4975061120522059e+02 5.1383648144002996e+02 1.2753911329130545e+01 2.8493985625878167e+01 8.1842010192753690e+01 1.5082073947681133e+03 2.6228832970718265e+01 -1.0506650995331938e+01 -2.9905495723538309e+01 -1.2460289516531073e+01 -5.5878818389800074e+01 -1.5968392069633726e+04 7.2895523481917826e+02 3.3036151408525605e-01 -1.7294599152938855e+02 -1.5452267484592085e+01 -8.2904310268030876e+00 7.5265818543902263e+00 1.2394529835354766e+00 -2.3012230625594818e-01 -6.5656662232579990e+01 -4.1657851628571265e+00 6.4176046717545470e+00 5.3731947328468451e+01 -1.4515816957194208e+01 -1.3271625221478978e+01 2.9644965919983761e+00 -1.7467544520059100e+03 1.7348283627167973e+00 -3.7097577731618552e+00 -2.1146145918417974e+03 4.7211886892446046e+01 -4.4820612180255992e-01 2.6180036694037199e+00 -1.9670651932849381e+00 -2.7048458379554390e+00 -2.0372646951935987e+01 -2.5297943257155637e+00 -3.9395535430391360e-01 -2.7003087303025808e-01 1.6523813863452363e+00 -9.8608235895992002e+03 -5.9001173056324415e+03 4.0781992561187241e-01 5.2364886170511227e-01 -7.9660797024935873e+03 
      </Row>
      <Row Index="1">
        -4.7593599682771804e+02 5.6649438465832063e+03 3.5078256496386146e+01 2.4538580028364692e+00 1.2363361788122774e+01 2.8517488012355443e+01 7.8841878813836210e+00 -1.3066222370346264e+02 -1.2925364468346893e+02 9.4946210097848436e+00 2.2458667533415984e+01 -4.9201530916800330e+01 4.6190099275618032e+01 7.7637062494876385e+00 -5.4299322707031914e+00 2.4023357030967958e+00 7.5909651837040030e+01 1.2649828696326153e+01 -8.9610843799093676e-01 2.2031642316749270e+02 3.1698801839720318e+02 3.4344928800672790e+01 1.6194702654816638e+01 1.9553230332342011e+01 -3.7878231241466700e+01 -1.0721991069882822e+01 2.4233650730269164e+02 -5.1300931760419439e+02 -1.5003565070194744e+01 -5.1029702539255929e+01 4.7068093783915629e+01 -9.3681881600965862e+03 -7.0907825652792980e+01 -4.2341978273256373e+00 -1.0567897883020734e+01 3.6897948004015220e+01 -2.4826331208624310e+00 3.3775989233390044e+02 1.3732183114064458e+02 5.8647650753012641e+00 1.5721578766915574e+01 2.5715239031481445e+01 -6.3841220039875417e+01 -7.1058929066343381e+00 -6.4167609618541945e+00 -1.4247604528485653e+01 -1.4951586600779245e+02 -1.3046569993302050e+01 -1.6935664602216860e+01 -3.5644565522770813e+02 -1.3921354958009840e+02 -2.5704134966330479e+00 9.8109118255956673e+00 -7.7886530498399082e+00 1.4979740306617938e+01 1.0439805265641301e+01 3.5060734482713224e+02 -1.9686279036178962e+03 4.2267179004897342e+00 4.4799638236308340e+01 -3.8046142165611906e+02 -5.6917362666804138e+02 5.8358699115979604e+00 -4.4485333440144474e+00 2.5245322774190434e+01 6.6281127425253075e+01 5.1426254492380394e+00 2.2185824566767207e+02 6.4875100689234500e+01 -2.4263470879940741e-02 1.8782371271938274e+01 -2.2638872709300436e+01 -7.2689700031007511e+00 3.9965168512585230e+00 -8.7239878354879252e+00 3.6548305624988174e+01 -3.4914117831055798e+01 9.7349003420438187e+00 -2.3372975709487179e+01 -1.8820903478598396e+01 -1.3223567059729135e+02 -8.5564748919342328e+00 7.8151254549486815e-01 -1.7613684030582419e+00 -2.3067131616847469e+01 8.1937656138016628e+00 -8.4493655575898927e+00 -1.5791398830442506e+02 -4.9735276699167050e+00 -8.2564198794435754e+01 -6.4307666183704487e+02 -1.1739111572645068e+03 -4.0513052978767817e+01 -1.9129099999179218e+00 -2.5787094229495473e+00 -1.0256698759368315e+02 -6.0507516624802653e+00 9.6243871269373471e+01 -4.8811526762650892e+01 -1.7702440829423551e+01 1.1053693462018149e+01 1.2689189811619727e+01 -4.9104743973900121e+01 1.9843986684222341e+00 6.1475885827102488e+00 -6.2430599741422270e+00 -2.6919716775019118e+01 -1.3261018393478839e+01 -4.8926690395409320e+00 -3.6972934342629785e+01 3.2246387215386346e+02 2.9486134436836782e+00 5.9699366354494146e+00 -3.2554977117555261e+01 8.5117131401244137e+00 1.9500274375839375e+01 1.4259908604849556e+02 -6.2796093869027027e+02 6.4109294511925601e+00 -1.1120232221125714e+02 2.3704556414487729e+02 -3.9773260080037278e+02 2.1076651341340380e+00 2.7623803703270529e+00 -4.5003962731308718e+01 -1.7837482613459706e+01 3.4314506779901013e+00 -7.7037795581264021e+01 -1.3330554484704669e+02 1.3155019323078577e+01 -2.2768792476677135e+01 3.3005242649465785e+01 -5.2826421533120737e+01 -8.9871454911618418e+00 3.8693561749613181e-01 4.9060856879668577e+01 1.5920504859603710e+01 -1.3441977006202801e+01 3.5381146566232644e+00 4.2428774684223328e+01 -2.8932132136232894e+02 -6.9002934626744921e+00 -2.3898746473463222e+00 -1.3616784729481367e+01 2.5529853139062311e+01 -2.1256035773137874e+01 5.6359082227337785e+02 1.3847036110665090e+02 2.0651771548769453e+01 2.9012567324343895e+01 8.3772612177533449e+02 7.0806552475605049e+03 5.7098575890390837e+00 3.3990202221980397e+00 3.8119146887595718e+00 2.2411233349036614e+01 1.2514038463289822e+01 -2.4569753548422545e+02 -6.8720904935873193e+01 -5.3175814598858437e+00 -1.3957172732271101e+01 -3.4740458283441370e+01 2.2147623534255956e+01 -3.2378690895149731e+00 -4.5603014131923842e+00 6.0582501916239977e+00 1.0412194102989409e+02 1.6355101997651591e+01 3.4444563442075797e+01 2.5657352287819333e+02 -1.1638289704681665e+02 -3.4026216930547342e+01 -1.6872732558400926e+01 5.3174196332232100e+00 -8.3183716431821075e+00 -1.1664371462965891e+01 -9.3047129338482222e+01 1.9530273149880600e+02 5.1413818092394514e+00 3.5122448432876723e+01 2.0015896952777609e+02 1.0201423544075776e+02 -1.8578205801268169e+01 -3.5211093226477974e-01 -8.4206155423457183e+00 3.3353094898391916e+01 4.2260151128254400e+00 7.6503377864000100e+01 -3.1917471899320191e+01 4.3552561154652096e+00 7.7608430994567215e+00 4.4277808130715401e+00 -1.8208078813925130e+01 4.5458352896851011e+00 2.0363006352575987e+00 -1.0333889896433268e+00 -2.4412411971694450e+01 3.7166868834398876e+00 -1.1597721915189251e+01 -1.0619045614664287e+01 2.6956873754736631e+02 6.5197889575439998e+00 1.9469317015398900e+01 2.9688557540342524e+00 5.3677013239062177e-01 -5.0641032142963827e-01 1.7724040781676372e+03 -1.6914461248473322e+02 -8.6437844409722864e+00 2.0432715958801816e+02 5.2888685198250209e+02 -1.5967328090642599e+02 3.7625400402097227e+01 -1.8352439300915095e+00 4.5854043390244694e+00 -2.8390335295505601e+01 1.9139008360427332e+00 1.1210260391389116e+02 6.5929522469895716e+01 7.8806406772453386e-01 1.1688695804550260e+01 -1.2537402019747046e+00 5.0061156091839578e+01 5.4436870323411419e+00 -2.6819585013379577e-01 -3.0505000148630153e+01 2.0509061811695204e+01 -7.5593074354284084e-02 2.5583660590266621e+00 -2.5470175187602408e+01 -5.7515806246096162e+00 -5.8228663307553532e+00 4.5408674323512201e+00 -2.5264504500015410e+00 3.7978101033403675e+00 3.7812372474192060e+00 3.7694793444359084e+02 -3.8115134768022301e+01 1.9125943354622308e+00 -8.0367816183416807e+01 -3.7653983894659336e+02 -1.4622920335237455e+02 9.9285227254295521e+00 -3.8299528190876053e-01 -4.0555837405435238e+00 4.0256389681727782e+00 -5.4712379740721362e-01 6.7800872594592816e+00 1.4783977955292142e+00 1.1692329955656161e+01 -2.9605068613996588e+00 -2.4044952004831806e+00 -1.6889185637266280e+01 2.0197989331982713e-01 6.3247516713224206e-02 2.0342768994343714e+01 -5.3506202509794591e+01 -1.0868060847233352e-03 -1.2249299607903374e+00 -8.2637963419685150e+00 -6.1810317113009951e+01 -2.4399415076697961e+00 -3.8998818167611110e-01 -1.7386198661352736e-01 7.1281179144754603e-01 1.5256056877197288e+00 3.6474716512014334e+02 1.1515416716658924e+03 -9.0168039002349276e-01 -1.4969907952436602e+01 7.2252160069388410e+01 4.2893564159652522e+02 -9.5004301974505445e+00 -3.3321726317346162e-01 -1.5037621049183603e+00 1.5349638692614562e+01 -2.2935364238187304e+00 2.4135590425574179e+01 5.6668983416062375e+01 -5.9496641457393045e+00 3.5371620921590861e+00 -6.0424531012207545e+00 5.4976978408820045e+01 2.5220053336400738e-01 2.8195962832201475e+00 -1.4196131527430678e+01 -1.6785953179825697e+00 2.7188272774495910e+00 7.2345101361349080e+00 -1.6771225675868855e+01 2.4491215323418646e+02 -7.8837653247206561e+00 2.9257265254127329e-01 1.0214204755356345e+01 1.2479773481501894e+01 5.1346428439376268e+00 -6.8292676408814737e+02 2.0107361587208621e+02 5.1777361491741054e+00 -4.8374601033194466e+01 -3.0190401405201646e+02 8.8756165514119357e+02 -1.5272224015736739e+00 -3.2277674138237593e+00 -1.5547404921014031e+01 8.8319021948858961e+01 2.2253726779604872e+01 2.1446068933098178e+02 -2.0270129705980366e+01 -6.7844574680602332e-01 3.2940694238628545e+01 -2.8707404113620811e+01 -2.3119696930469905e+02 1.6437645863756156e+00 -1.5118681773359237e+01 1.8534145306525154e+01 8.3109889996795232e+00 1.2239657966145066e+00 -2.2623411559377210e+01 6.9028016320585635e+01 4.7883332045922543e+02 -1.7619283063985485e+01 3.4493134074270159e+01 -2.1502551782799667e+01 -1.0846387990633559e+01 1.0615933817730996e+00 2.4591018318361575e+03 1.5655976434985914e+03 3.4914948135910819e+00 1.6192607719535226e+02 2.5315800783260761e+02 -1.5594623123264656e+01 -9.9605499934210684e+00 -1.2393252897053764e-01 -2.7735442931849058e-01 4.4011538591530837e+01 1.1304483278858504e+00 -4.7571226586019932e-01 2.1474043957725172e+01 3.0033758808630537e+00 -7.7889787940419577e+00 1.2141550658229896e+00 6.6738133431845677e+02 -3.7261714153128267e-01 1.2350504194702188e+00 1.8758156086967887e+01 1.1675320002313686e+01 -2.8305762709457305e-01 -5.6245860003356185e-01 -6.4015221071080930e-03 -1.7163846545788921e+00 5.2988917323909575e+01 2.1966498898774200e+00 -1.3098965139325358e-01 6.2134665632634523e-01 -2.3447022425344199e-01 2.8005109921143844e+02 4.0734395221829595e+02 1.1306209737096784e+00 -1.2570271051289104e+01 3.5357551824416112e+02 
      </Row>
      <Row Index="2">
        5.7034308503691697e+00 3.5078256261832948e+01 1.8813826512911412e+01 9.6654061247858969e-02 5.9287464635101372e-01 -1.8121734785471995e+00 -1.0217821630791324e-01 -2.2925253642405083e+00 -5.8814922518173285e+00 1.3686066443137761e+00 -1.6046763713336021e-01 -8.4272231304509404e-01 -2.4756506536503586e-01 9.6931690397680159e-01 -6.3082062862412536e-01 -3.2111599276963796e+00 -4.0454973310755149e-01 3.2965607017838927e+00 2.6701437399536398e-01 3.2165726920587532e+00 9.3856406527145850e+00 -2.2894727974356117e+00 -2.9926376175698088e+00 -7.4357758547117059e-01 -4.1290271462815955e+00 9.1818059310416467e-01 -1.1934570114050985e+01 6.0324818048399635e+01 -6.5000475021019521e-01 4.8242507171535154e+00 -1.3566509803536348e+01 -4.1867900752283816e+01 -1.5451142521008789e+01 -4.6428857444470956e-01 -1.1319428557763747e+00 1.9184244082530597e+00 -4.4111108290552886e-01 -6.5651877236621061e+00 3.2041767550829410e+00 -1.7877198313223825e+00 1.0891936090999210e-01 4.1934306960145262e-01 -2.9149589462543535e+00 3.0244954306970051e-02 -5.1529835608869479e-01 5.6897537154888838e+00 4.0810170160082633e+00 -2.2663998194047759e+00 -1.3945824817686407e+00 3.1068793193554223e+00 -3.0146216126900800e+01 1.5651085313479896e+00 1.4284500165915777e+00 4.2637412588427193e-01 2.6317402935234786e+00 -1.1411730408701604e+00 -1.6260648842448271e+02 3.1016350346982250e+01 5.2158328727355685e-01 5.0607744271746258e-01 2.2454677774623789e+01 5.1345972324639298e+01 2.1911551120410633e+00 5.1650734796358844e-02 4.1715543603536642e-01 8.4060811024814097e-01 2.4857276404253215e-01 9.0531314852978262e-01 -7.6306554649670799e-01 -1.7145894807113242e+00 -5.1026447570290845e-01 8.4344613931968127e-02 -3.4594945396682003e-01 3.2027855097413799e-01 -6.2719901481205698e-01 1.3280914485455591e+00 -1.0511460762236338e+00 1.4445785230835402e+00 2.9016607767381508e-01 4.6401394430896952e+00 -6.1683507845758712e+00 3.0800281747185609e-01 -3.1705319937023870e+00 7.2822364774092407e-01 -4.4710494937995304e-01 2.4525930178206024e-01 -1.8771263735089147e+02 -5.7214811336766957e+01 -6.7853096064460128e-01 -9.7551197988367289e-01 3.3965841227038478e+00 7.8654549759749344e+00 -2.7629890451988541e+00 3.9191394957987158e-01 -1.0920596219771772e+00 -2.4045285967523049e+00 -2.5998597051621231e-01 3.1053158883030965e+00 8.5080736834830830e+00 -1.3837481521735917e-01 2.9132176776775021e-01 4.5056833212249270e-01 -1.9888653883738989e+00 -2.1215007366491212e-01 -6.5696625083285798e-01 -5.5218128579921828e+00 2.6000175954158838e-01 -1.9855886846663131e+00 7.0489465893588532e-01 2.6517248342866373e+00 -3.9520734975904475e+00 -2.1978088146530004e+00 7.7392730249235508e-01 -2.2621234688633916e+00 1.3328966507654441e+00 -7.1162448585373905e-01 -1.6909988612480646e+02 5.9024299431735422e+01 7.7181994952640776e-01 -9.2108745698562755e-01 5.2172566368454227e+01 -5.6588427114024334e+01 -8.3656612777015980e+00 -2.4719253583566525e-02 6.5531438977645351e-01 8.6384920203677962e-01 -2.3174368546818913e-01 -2.4361380914714381e+00 4.4793351679372666e+00 7.0777524398920644e-01 4.2705366365203534e-01 1.2146069242051900e+00 4.3007499874203425e+00 -8.6974249096602518e-01 4.0848409229922478e-01 -3.7900238923043670e+00 1.1547152219790622e+01 -2.2805843378343633e+00 1.9235735945158394e-01 -2.4413175236522733e-01 -1.0024475486081670e+01 7.5118872231993750e-01 3.6373194529981356e+00 -6.5719025848893509e-01 1.6462192380667124e+00 4.2508555607205700e-01 -4.4726730275725686e+01 -3.6548142574654605e+00 3.6898343325557781e-01 -2.2413937142606066e+00 3.3410494661939097e+01 2.8250663998517794e+01 1.1945628476143618e+01 -7.4312944139193671e-01 3.1887976291990583e-01 1.1396324317570621e+00 7.8560668665072775e-01 -5.7398324386771105e-01 -7.2068751072683650e+00 1.2356567193405397e+00 -1.5326839367369094e+00 -1.0501321634704941e+00 8.3449075318071753e-01 1.1072385395119038e+00 1.0323083543273381e+00 2.2533319948738710e+00 -2.4276343813702024e+00 1.7241526705929735e+00 9.9792681263533312e-01 -6.9752587469638527e-01 2.5463923254116064e+01 2.7219491195843870e-01 -2.6109882846726906e-01 -6.7154948422408633e-01 -3.1698000148975987e+00 1.1816026605492225e+00 9.7383677732472407e+01 2.3131441440739223e+01 1.3916833883106339e-01 -1.2706760655006595e+00 4.9507047076603001e+01 -8.1378079929771161e+00 -1.2565377225836167e+00 -1.1335889933393151e-01 5.0122903943159158e-01 -4.4107324619748722e-01 3.0903674961808358e-01 -4.6015074270506489e+00 -9.2365146588119007e-01 5.0971517600468297e-01 -2.7429390703886780e-01 -1.2117102817751213e-01 -8.1178015844413542e-01 -2.6516718267764278e-02 7.5324661001257198e-01 3.3750919633900456e-01 -1.4382171318288779e+00 -5.1604613366500562e-01 1.7338509553962766e-01 1.0924164273365105e+00 -1.7588684056904540e+01 -6.5795669770106702e-01 -1.3569055490284252e+00 1.7088388917537289e-01 5.4533867291974025e-01 4.7589831063766114e-01 -1.9060010123406130e+01 8.3028011911816009e+00 2.7415690030678397e-01 1.0155326745707601e+01 2.1813772746123448e+00 -2.6532843559020014e+00 -2.4476415187701397e+00 6.5632759161861565e-02 6.9350433270893541e-01 -7.4448442955497707e-01 2.4262900016318178e-01 -3.6515685277276186e+00 1.3628105557975498e+00 -3.7705201108995556e-01 -2.2269603226958412e-01 -4.2994653291054286e-01 -3.9855743877607837e+00 -7.0325817453681799e-02 1.6741642072125620e-01 2.6847331071582703e+00 -7.2376932037727915e-01 -2.0613425129051111e-01 2.7730090412050190e-01 -1.0646155649395888e+00 -2.2274475054277216e+00 3.9464655655412129e-02 -1.7605925704603276e+00 -5.7644813173996812e-01 1.1655597762420857e+00 -2.8822306103418116e-01 3.9508116874567492e+01 1.9171461373035285e+01 -1.6106051917894371e-01 -9.0407640991599547e-01 2.5807165781708605e+01 3.1333137976352226e+00 -2.0796158264190439e+00 -7.5650185384179905e-03 -5.7979872216627415e-01 2.1757614041959061e-01 -2.9362993182053390e-02 7.0249940033146423e+00 1.3846231584615099e+00 -2.1193908443008669e-01 1.9839710723048487e-01 -8.6134345740366158e-02 4.5687593051662034e-01 3.1995602411715618e-02 6.1951139036306328e-02 9.1551197821422448e-01 -2.4047073541901662e+00 4.7153981930340705e-02 -2.0131094742005506e-01 -4.2684663964401182e-02 3.6907045505102696e+00 1.3162572326225774e-01 -1.9349182771560345e+00 6.1789206406107022e-02 -8.5598270007970143e-03 -2.1787640402518937e-01 1.0723176567562761e+02 -3.2521870213948169e+01 4.1503862271790731e-03 -1.0408906894002052e+00 -5.0155342164221510e+00 6.0097744188442448e+00 9.0639728998258118e-01 -9.4585173172480122e-03 -1.9211737599348577e-02 1.5345079041941229e-01 -2.6262423756720049e-01 -1.4331838314889560e+00 -4.4081902439753806e-01 -4.0011357383701895e-01 -2.0713177188546605e-01 2.7381949455999355e-01 -7.1669486180432540e-01 4.8229134140422847e-03 -7.9701498087008382e-02 6.4459157980478166e-01 -3.8252579318795856e+00 3.5116175463550031e-01 4.5723719763747428e-01 1.3439169308111596e+00 5.4836657005515406e+00 4.7746851557287151e-01 -3.6508116698946436e-02 8.6176946501905949e-01 1.4598537579577857e+00 -1.7891483196251468e-01 2.2828716717484184e+01 -9.8011388070257599e+00 -8.4749287297023246e-02 -1.4199095269504625e+00 3.6794821302678677e+01 1.1868563586651348e+01 -1.0084604729506359e+00 -6.4596716628426842e-01 5.5934739420286894e-01 -9.7911323109725412e-01 3.4271753155411899e-01 4.9252264417028613e-01 1.8549002293575754e+00 3.4976624277849461e-01 -1.3654009196482666e+00 -2.4692792437168931e-01 -1.3109297297376028e+01 1.2360137367124757e+00 -3.3232374746974935e-01 -1.0569892668199353e+01 1.4026380978123161e+01 -4.8679616054652186e-01 8.9270500032274436e-01 4.6123122303381860e+00 -2.4636026643548256e+01 -2.1601427870003378e+00 -3.9796163979678933e+00 -2.4341600488641282e+00 -1.4877755847354079e-01 7.1338292850851026e-01 -1.5412670830873753e+02 -7.4905282673760269e+01 5.4613161132449350e-01 1.4030368101285919e+01 -1.3093007006962292e+01 4.3875372506323362e-01 4.7389236846190852e-01 1.0203766602615033e-01 -2.7257105102205401e-02 1.4179055781474292e+00 3.5539337568980539e-01 1.1686245425000670e+00 -4.1022242005813547e-01 7.2484154830027861e-02 -2.8015684582682721e-01 -3.4696657722371849e-02 2.0730841863031529e+01 2.4504584993891454e-01 4.4526479889355108e-01 -4.5531333106375840e+01 8.3201518626233650e-01 -3.0976447863646228e-02 -2.5932337114365378e-02 9.5408354183650634e-01 1.1399884657062320e-04 -2.7840957872021659e+00 2.0061998776134504e-01 -2.6905881732641294e-02 6.1624897932600731e-02 8.5272018408035222e-03 6.4507324011394161e+01 -1.5729269448500677e+01 -9.1864515230936444e-02 -3.3815843857722350e-01 7.0215349942850636e+01 
      </Row>
      <Row Index="3">
        6.5823718177810608e-01 2.4538580238431997e+00 9.6654062494198445e-02 1.4508315572807622e+00 3.7689326392420064e-01 -5.0182910762564048e-01 -1.1330799859985952e-01 -1.7339267159824256e-01 6.1171503476662181e-01 3.1315470693146197e-01 -8.6965461362206287e-01 -5.4632883446167402e-01 -8.3654285526709415e-01 -9.8129351047456526e-01 -1.3385191914770456e-01 7.7838279699809387e-01 8.8614326161740509e-01 8.3000843634569610e-02 1.6801164421559744e-01 -5.1248189471154904e-01 5.7669060242444559e+00 -1.7820170820981737e-01 -1.8131731554626607e-01 6.6773097428446393e-02 9.6317318947292341e-02 2.4694456541277912e-01 -6.8304258524401575e+00 2.1541058668798079e+00 6.2887196519773314e-03 -1.2615277101081954e+00 -5.9920862910615824e-01 -6.2802602246344783e+00 -1.8269103406886522e-01 -1.2271782679000409e+00 -6.0735805021675227e-01 7.9194941104411076e-01 -8.2338510402594711e-02 6.6271635521798977e-01 -3.0228934771584004e-01 -8.7600945842302103e-01 3.1225380152574489e-01 1.1363853161394660e-01 1.2570267291668962e+00 1.1941453946015494e+00 -1.2749651037963022e-01 7.3421327066080622e-02 -1.0977048952784343e+00 -1.1740394387002021e-01 -4.8678280138897823e-01 8.2492818991593286e-01 -6.9381255708001817e+00 4.9290021546019752e-01 3.8763178790935449e-01 -3.0210926377337016e-01 -9.2055940751632273e-02 -3.0082320697430598e-01 -5.7011837708559057e+00 -1.1229350197960173e+01 -9.1335253499328251e-02 4.7190801121888759e-01 1.9485271365637624e-01 -3.6744943943330943e+00 -2.5174520229305386e-01 7.5059896478318022e-01 -2.6752401760973432e-01 -1.4245126576166950e-01 -1.1367013617124064e-01 9.8225769481670300e-01 5.4354484723305385e-01 -6.2740551516680121e-02 -8.6178526723506510e-01 3.1155861163403009e-01 1.0546096011738970e-01 1.0525606113882163e-01 -2.2504963610633588e-02 7.2494078820765884e-01 -3.0389327287014600e-01 -9.8224402374304048e-02 -3.1573648414631084e-01 6.0500801772014334e-03 -2.5499699681373613e+00 1.4531733340582831e-01 -7.8972793838263766e-01 -2.9875891105040742e-01 2.2186934733750963e-01 -4.0982447859909038e-02 -1.4905041122107878e+00 -4.0364046109040714e+00 -3.0852396569203078e-02 -1.3124766198504423e-01 3.1799328934266669e-01 -4.4669100880303603e-01 -4.3195973384481445e-02 -4.4108309736264956e-01 -3.7421426831113191e-01 2.2111186168035424e-02 -2.8852841201231660e-02 3.3955774626734492e-01 3.4485688586016028e-01 -7.1846725587829674e-02 7.8322008356735240e-01 6.3942925603845624e-01 -2.2662921033481886e-02 9.0563465105339291e-01 -1.4127569719702904e-01 6.5394098058959660e-01 -1.1718640157077020e-01 1.1660426783133171e-01 -2.9339838279471586e-01 -6.9914657058880003e-02 1.2788162594759456e-02 -1.6127696901242505e-01 -8.3824161613739179e-03 -1.2505559092688656e-01 -2.8033467096583697e-01 8.4975495367916376e-02 2.4546442508141979e+00 1.8364450873377791e-01 1.7919346930602184e-01 7.5817247531451137e-01 -2.6067980896445277e+00 3.4663328669159768e+00 -6.1301442851834631e-01 -9.8266261603422445e-01 -2.8176795851649428e-01 3.2578169976145416e-01 1.5979968008978551e-02 -2.2789637770515458e-01 -1.5679829347665653e-03 5.1515580265901750e-02 4.5319575464049011e-01 1.3334844410595975e-01 6.9262567308585266e-02 -1.2114174281908169e-02 9.7245060220692681e-02 -1.5378814593987293e+00 1.3457199255352048e+00 2.3348400505821321e-02 4.2202380953992813e-01 1.7770377565992179e-01 2.2035856992561804e+00 2.1489918818234199e-02 3.2338563758288003e-01 1.5889743362403685e-01 1.9889064210261870e-01 -1.0243278761010066e-01 -1.7195977445653213e+01 -4.0402065089685806e+00 2.9182060996277864e-01 6.3608963363872117e-01 1.0138275686416165e+00 4.7836784124706622e+00 -6.2968411551225234e-02 -2.6883565780127194e-01 9.0548450410427694e-01 -6.2291837152813723e-01 1.7326003128273254e-01 -4.9349507009188898e-01 9.5686582246116814e-02 6.3132749433407742e-01 -9.7821575723003740e-01 -6.0241027667499636e-01 -1.3520666780477630e-01 -9.1033572759446479e-01 2.5745475930174411e-01 -5.6488283940132777e-01 -1.2069972951285202e-03 -2.7125788713837551e-01 3.9578586120681458e-01 -5.0415765673809032e-01 3.6451647998735366e+00 -1.9526535201870387e-01 -1.3544074680586349e-01 5.3128801362218869e-01 3.7059739448776807e-01 2.4683935604763274e-01 -1.5539450944431945e+01 9.8493774802867051e-01 -2.5050075136599925e-01 -6.3780621498325141e-01 1.2869125400671919e+00 -3.0706403942796001e-01 -2.4177225807554992e-02 -1.8930503187340914e-01 1.7003758638054478e-02 2.8621793202377610e-01 1.0728715219503654e-01 1.4064000268830235e-01 -3.8487335390890109e-02 6.3933951006093892e-02 -1.7294098891588200e-01 2.3360467173443311e-03 2.0765457207269536e-01 -9.6304099940905358e-02 8.2845000882449810e-02 -3.8215630183662030e-02 -2.4568540486155632e-01 3.6791406743952537e-02 2.0760755614165341e-01 -4.5065493012658692e-02 2.5418782824156891e+00 -5.0934250615166064e-02 7.5527730400597015e-02 -3.0180497784314908e-01 -8.7341237222031132e-03 1.8332581704412987e-02 -3.9693703891994119e+00 -2.0152256981498322e+00 -4.0589432442699080e-02 2.0122231316389083e-01 1.0546931543035569e+00 -1.9275793693399201e+00 2.2888459900934310e-01 1.2034265345975910e-01 1.9673229463370251e-01 -1.2982733622790241e-01 4.6674296900700060e-02 1.0897138948321400e-01 8.9893616987618330e-02 -1.6260396597732019e-01 -1.8711719321777676e-01 2.8782000165953295e-02 -5.0201674616141823e-01 -1.6140506795016427e-01 4.4074111425488421e-02 8.2649945753562992e-01 -3.4693285994797929e-02 1.9707651510983282e-01 6.9694319309642899e-02 -1.2424698181728111e-01 -1.7836575455903112e+00 1.7614577364205297e-02 -1.5165444397502459e-01 -2.2857804146518768e-01 -2.3187695566676414e-01 -8.8651784454462021e-03 2.0832723345708999e+01 2.0657345979216393e+00 -8.6248366950281347e-02 -1.3554112410841235e-01 1.8191894115506979e+00 8.3108107844053780e-01 -6.0235792394399024e-02 9.0055220191109075e-03 4.2672728154132145e-02 -1.2332610428653212e-01 4.4543858848338537e-03 1.7255123217980223e-01 -3.7005184210808495e-01 2.5740197262816489e-01 5.7091734816522577e-02 6.3793801165561326e-02 1.4685267416319023e-02 -1.5715633351589542e-02 -1.4434221720433967e-03 1.0012462543871381e-01 -3.7976797831990705e-01 -1.9859519222923311e-02 -8.5019279970759698e-03 9.3549627022384563e-03 -5.7563333685669771e-01 -5.0819772229663052e-02 -4.5267390841370969e-01 4.0726969267175617e-02 -1.4042499849163725e-02 -7.0658854147219063e-02 1.2834641210676944e+01 4.2880721572525715e+00 -3.7606063040814958e-02 -2.1236493689582997e-01 -8.5027971054381846e-01 5.8403301069401437e-01 -7.8481977432838523e-02 -1.3706939316532808e-02 7.9657118371022628e-03 1.2718125857677776e-01 2.9396682033380118e-02 -1.4556201463113472e-01 6.6651200745746930e-02 -3.2888121057722541e-02 -2.4734940988358600e-02 -7.7986254721318427e-02 -2.5809832868277283e-01 1.3369990353307132e-02 -4.8940488619350297e-02 3.2397382465012425e-01 -4.1450911949156666e-01 -1.3722642730662915e-01 1.2421081716334727e-01 -1.0886293451684104e-01 -6.3511007054437130e-01 -7.3542925273263338e-02 9.4471188589353716e-02 -1.6966161332034435e-02 -1.1920010702157312e-01 -1.2363918086453252e-01 8.3284460439900521e-01 2.9149781467817348e-01 6.4359805734583442e-02 1.2774758661535301e-01 -3.2117208282193843e-01 -1.5076002046190622e+00 -6.4638667959082330e-01 -6.1587394450074040e-01 -1.2541128557247855e-01 1.7925990103901679e-01 -6.1936054329802481e-02 1.1691622566242916e+00 8.3325014776882256e-01 -1.5984953625743292e-01 -1.3109028200029609e+00 3.7898010595056000e-02 2.3301752727422369e+00 7.1247801851316739e-02 9.1894619416407336e-03 6.0521394957330243e-01 1.3731591803665317e+00 -2.8180470604569408e-02 -5.7139366609833542e-02 -1.6996020427098202e-01 3.0600429070074116e+00 1.3227202840615021e-01 -8.2700472737786690e-01 -3.5010942588406041e-01 2.8333127210393538e-01 1.4216204777407232e-02 4.9704851451092509e+00 6.8163371348538249e-01 -1.2380320805616438e-02 5.9203646809233845e-02 -9.1776577154789618e-01 1.2200037273249809e-02 -2.8687166588220629e-02 1.3805446029563803e-01 -7.4658186296161153e-04 3.2947209406943451e-01 8.7181485117914057e-02 1.9551506742994759e-02 1.8282199293768453e-03 -1.0417359659265810e-02 1.7863528301247664e-01 -2.5464854148251823e-02 -8.0248276147955888e+00 1.2411116420039520e-01 7.8550644558424865e-02 4.3328873964035325e-01 1.2602659717374262e-01 9.6990832664410609e-03 -2.7135551869859498e-02 -5.2334898979409239e-02 -8.4064500509352658e-03 -1.7508463756758014e-01 4.3157053838527547e-02 9.8974671689653192e-03 -9.8673819479478120e-03 8.4654266740679801e-03 3.8726989921955135e+00 -3.2744641997849144e-01 3.2577425846725183e-02 5.4179679622897159e-02 -2.7219282160576164e+00 
      </Row>
      <Row Index="4">
        5.0791930796020424e+01 1.2363361200765363e+01 5.9287462512741562e-01 3.7689326613615209e-01 9.7554454611741093e+01 5.4862066654073267e+00 -2.0333194899841285e+00 -1.4843808005970658e+01 -1.6351498373127278e+01 -9.6843152486765600e+00 -3.9090350464865145e+00 2.5672285003042297e+00 -1.1075386752983485e+01 5.0133529627309059e-01 1.3606625322675265e+00 6.4523317837577991e+00 -3.0051113617799388e+00 -5.3878835483207244e-01 2.2362910164786833e+00 -1.3430510497667028e+00 -2.5006868131595184e+00 -2.9559410577968528e+00 -4.8407095956957091e-01 1.4666795869884197e-01 -2.5010351307122241e+00 1.9185968656426777e+01 9.0691920727704201e+00 -9.2783891970723658e+01 -2.3266240861081755e+00 7.6386097199087430e+00 -2.2127942322392109e+01 -2.2736855800186442e+00 -3.6908104925636986e-01 -2.6214800023682483e-01 -1.0901044686770726e+02 -6.7810282240135802e+00 1.4288595481811859e+00 3.0108233641425869e+01 2.2328538995579464e+01 1.1961914855547718e+01 3.4399775681204714e+00 -8.3439422932931837e+00 7.5968255668919360e+00 -9.8552108515079340e-01 -2.4235113725798172e+00 -3.2461767345648704e+00 8.9337776814169203e+00 -4.7515459312509328e-01 1.5437145888446224e-01 -2.8968976837606011e+00 -8.8644282003073016e+00 5.4069336631556340e+00 1.2252630397681235e+00 5.1586393631721288e+00 8.9591903103190618e-01 -2.3755631920155302e+01 3.0305466919509701e+02 2.3963788615988810e+02 3.7539277868909835e+00 -3.0967469877435629e+00 2.4272595519194766e+01 -4.0743765174804722e+01 5.2584005983501003e-01 -3.1167527816660506e-01 -2.8973820348676798e+00 3.8480002986819004e+00 -2.0188609563108013e+00 7.3849647274165449e+00 -7.5344912891578293e+00 3.1889198653846051e-01 -2.7738927973126093e+00 1.9510386375539406e+00 -7.1865873850647120e+00 -1.0608185082428800e-01 1.3609991259672536e+00 1.0267430066872848e+01 3.7483627927672725e-01 8.9744251719642643e-01 2.5117359679283950e+00 1.1210790570710825e+00 -1.6492591994089960e+02 4.5541869318902251e-02 -4.4459116635972631e+00 3.4494365781288665e+00 -3.3216934798377302e+00 1.5497795585311895e+00 1.8971485313612388e+02 2.6328487999335402e+02 1.1418900401281107e-01 3.2104377999540930e+00 4.5490019521955347e+01 6.0231195744633226e+00 -9.2584670592535900e-01 -1.7809048836806896e-01 -2.1124551463577532e+01 -1.9248406920640662e+00 2.1714957358851450e+00 2.2024875894313110e+00 1.9730583645140751e+00 7.2722214411633956e-02 1.0362397169694582e+00 5.2681236065065784e-01 -1.9531024598437412e+00 -2.9762087992899788e-01 -1.9305239152129232e+00 -1.6307278719245833e+01 -1.6630920247513670e+00 -1.1765371882365888e-01 -2.7809235717844238e+00 -3.2131006102648891e+00 -6.1419328292498463e+01 1.4628484597162417e+00 -1.6725088048475900e+00 -3.6804836372768648e+00 6.2910458649900036e-01 -1.2900969052135643e+01 2.3096412971779040e+02 4.7355775487802248e+01 2.1457819537700651e+00 -3.6268703165506722e-01 -3.1706504923202601e+01 3.5864754834045129e+01 -1.3402760275015764e+00 2.6047345164090085e-01 -2.2486084569559814e+01 -1.2262181165862280e+00 1.6382300340256868e+00 -4.3506966068605948e+00 5.6877807310278889e+00 -1.5317975650729423e+00 2.3091588196997233e+00 -1.5205651952917969e+00 -1.1891473342885686e+01 -5.2754566018331284e-02 -9.0856339348398962e-01 -8.3479314812393532e+00 1.0593691466235100e-01 -3.4415466262404593e-01 -2.4726768867290083e+00 -8.8039570754157737e-01 1.7432936501732343e+01 -1.4369015276566977e-01 4.9396236678177114e+00 -1.0569723838233415e+01 3.8068482578178804e+00 -7.2391068323501528e+00 8.2657093316874892e+01 -6.2434935383129186e-01 1.7240116021146701e+00 -1.2460149133037208e+00 -3.7011005965849563e+01 1.3188172878613500e+00 1.9949512141359182e-01 1.3345966315430577e+00 5.7987626185223327e+01 5.8282398661409758e+00 -1.4620617947252115e+00 -2.6941167276179598e+01 -1.1048927095696584e+01 -2.3982888825234987e+00 -4.9349552647003243e+00 4.6088011530360893e+00 -1.1386702882770344e+01 -3.3134591134003377e-01 2.5017996409020018e+00 1.4234258907624600e+01 -4.3885234338881638e+00 -6.4782542310418023e-01 1.8048391608269618e+00 4.3085576737254598e+00 6.1298254229920943e+01 -3.7766631581510066e+00 2.7302994651450803e+00 -1.0463248884658327e+00 -2.9447585537868814e-01 2.0102614821138722e+01 -1.5879687805384178e+01 -9.5374177623916040e+01 -2.6580405547764681e+00 9.0927967092230659e+00 -1.2966297232179457e+01 -3.1283146931336603e-02 -9.3845301101130874e-02 -1.3260114322888705e-02 -3.3181502428875387e+00 -9.3210542444681110e-01 8.5930562930070842e-02 -7.5866582361150314e-01 -1.3144828969788969e+00 2.6236622100612879e+00 -5.4997930235018222e-01 -1.4204540218606414e+00 -5.5517563548765603e+00 -4.8976068549672014e-01 -3.9524111432316966e-01 1.7896701791090419e+00 -3.1070333537906181e+00 4.0691345186383893e-01 1.9705409989573791e-01 1.1045547834482883e+00 1.5332547337246638e+01 3.8126567978565806e-01 -6.3617939113166244e-01 -7.8425152142563781e-01 5.2155202028685199e-01 -1.1638957126689835e+00 -4.9801224104639118e+01 4.9740375827066892e+00 -1.4262798045889249e+00 4.5160403969858987e+00 -1.8037210885131003e+01 -2.4294756551702505e+01 1.3337186491189286e+00 -1.5586886862053767e-01 -5.2543326560524664e+00 3.5505176474373057e-01 -3.5878268944084668e-01 1.9563811266064441e+00 -4.0473116931391644e+00 -5.8821180028486353e-01 -1.3651009375172702e+00 6.3181185569208809e-01 4.4780961513883994e+00 6.1329883260223150e-02 -5.4630967042241052e-01 8.1646562900731325e+00 7.1119457423362142e+00 1.6008320025393630e-01 2.3518296303349246e+00 2.3064542772591876e+00 -1.5568522577319682e+01 1.1328970417803386e-01 -2.2325065817975371e+00 3.4447530639873349e+00 -5.8048972276755251e-01 8.6391975478396876e-01 4.1526272259657389e+01 4.6157221688160490e+00 6.3865978650341992e-02 3.1251272138275148e+00 2.6739443363838340e+01 -1.7290773768608929e+00 8.2594827620331124e-01 -4.2375139212247781e-02 1.0940630847951908e+01 4.6615210847824806e-01 -8.4075811187594240e-01 1.4918724213030197e+00 -5.7929140401082364e+00 -2.2994583623921665e+00 5.4437251536648107e-02 6.1964382902114457e-01 -1.6466909990281362e+00 -9.4587393837094802e-02 5.0379772759000052e-01 -8.5117354131931187e+00 -1.8333434860218532e+00 6.1244187074105927e-01 -8.6091922776906449e-01 1.8204111834147096e+00 2.3895863687827610e+01 -2.1476764231938572e-01 -6.3430640110748913e+00 -1.0590783426205053e-01 4.5063267270914975e-02 1.6991828949348662e+00 -1.9013172190766008e+02 -2.3671337998454277e+01 -8.2186017725834101e-02 -7.7955948854150448e-01 9.3722329172730969e+00 -5.8570509077561006e-01 3.6289380785426489e-01 -2.8995647886304848e-02 1.7258912093829188e+00 -8.3234571074819863e-01 6.5497024143871685e-01 4.9072422062327270e-01 -1.1968503534247379e+00 5.4246108126523440e-01 2.3441512707380596e-01 3.2194056706385865e-01 9.0952771289388288e+00 1.3603662717719744e-01 -1.2236060580838326e-01 9.3726861052662436e-01 -7.0273027285793983e+00 -2.4071149349984111e-01 -4.1147296296622304e-01 -9.8397760328366068e-01 -3.8015992882150158e+00 -1.3537717000754057e-01 4.9635289650237668e-01 -1.8151084128112061e-01 2.6509944294767473e-01 4.1742665857135748e+00 -3.5380403717583810e+01 -1.9517307528896353e+01 2.9965640396685345e-01 9.3066060079542332e+00 -3.0185296972159307e+01 -1.6803613944080894e+01 -4.1920986765380253e-02 9.7395785545163616e-01 -5.2723422104404705e-01 4.3646521493055186e+00 -6.9573032630293641e-01 -4.0866421332938216e+00 -1.4101728676164839e+01 2.8347020780070054e+00 -6.1768085311452410e+00 -1.0257953545225176e+00 -4.7491712844364621e+01 -1.3963581175325177e+00 -9.3016935519505850e-02 8.4138670173885544e-01 1.3665476985514417e+01 -5.8471184713105373e-01 3.4099578836680475e+00 2.7961212292957356e+00 -1.3314758869515205e+02 3.8479308351327290e-01 -5.5724901129020026e+00 -4.1121492797927779e+00 -7.8967864552330447e-01 9.2181717651065043e-01 9.3429319219726494e+01 1.6478159383188529e+02 8.4692472217646042e-01 8.5445737268130415e+00 4.4328113566836002e+01 -2.8716422134600705e-01 -4.7545824597543862e-02 -1.1462175233624999e-01 4.5271233737064454e-01 -2.0228573808782113e+00 2.3174234287283291e-01 4.9505311646820294e-01 -6.0616727021474248e-01 -3.0936020939054049e-01 1.0616441647151360e+00 -3.2193844340730027e-01 8.9429998098831476e+01 -1.2118085531038747e-01 -1.7048989834882400e-02 -5.0084382065722849e+01 1.2278611963342099e+00 2.1671274493730852e-02 -1.1302532985644165e-01 -6.3288324638780313e-01 -3.2253405073506380e-02 4.6490201610721082e-01 8.5498054887463992e-01 -5.6780474560003125e-04 -8.6640764540865112e-03 -3.3337440672408425e-01 -6.5548702540650538e+01 -7.6864050633176333e+01 2.4445614395759241e-01 2.1350132836883766e+00 -1.5495598522347828e-01 
      </Row>
      <Row Index="5">
        5.3547919186354221e+01 2.8517487287818415e+01 -1.8121736814916627e+00 -5.0182910089648458e-01 5.4862065625728942e+00 8.3573643726930555e+01 -8.8475475129704884e-01 1.2769612369406840e+01 -1.3289413123533468e+01 -1.2984599489056809e+00 6.0103598806697689e-01 3.1693885556491175e+00 -6.8990915576264022e+00 1.0331523781415262e+00 9.2172399600561561e-01 -3.3741874731362937e+00 -7.3399222359482650e+00 4.1448068044193107e+00 1.7843964289676437e+00 1.1346183713429262e+01 -3.2636906096066298e+01 3.9111924680699945e+00 -1.5685028616962811e+00 -1.8635280721922802e+00 -7.6804575728447433e-01 -1.8524339222484345e+00 -5.4072079444657550e+02 -2.5906624766195392e+02 -3.5333737494109521e+00 -1.8504167545352232e+01 1.4343518060366875e+01 -5.5033047268294574e+01 2.8753469329459036e-01 1.5046117495539011e+00 -9.6068905565419342e+00 -2.5069802223888793e+01 1.0817937258690173e+00 -2.8788572314768754e+01 1.6795907756735012e+01 3.7560920890825322e+00 -6.5088446621699880e-01 -1.1189557023325678e+00 9.9084867476808665e+00 -2.3199816542791556e+00 -1.2504706335589630e+00 1.0537903384910020e+01 9.5921935443101454e+00 -3.5363663869484823e+00 -1.2086601319703334e+00 -2.6478040220566026e+01 -4.4902224576211722e+00 -5.0927694972159365e+00 6.2671778507403815e+00 3.8437294079229716e+00 1.7810748367831364e+00 -1.5205484416971442e+00 4.2183800949449233e+02 3.0985177293726889e+02 4.6197622401004956e+00 2.7099849115437355e+01 7.8145414837086150e+01 -6.2151271111045574e+00 -1.3095669478532002e+00 -1.7299255016536752e-01 -1.6253947022240554e+00 2.5285074510819047e+01 4.1215356267327241e-01 -4.9829113826438238e+00 -2.5917034794948535e+00 5.7255950725941460e+00 1.1350659348989161e+00 -2.2619584208661225e-01 -1.6200441526159310e+00 -1.9216034176003885e-01 -5.2440597451883186e-01 -2.3393059655327955e+00 -9.5543348065514389e-01 2.2129249171025189e+00 1.7322252004914356e+00 -1.3747202826026886e+01 -1.1559852072143286e+01 -2.5486548334881345e+00 2.4700323410765375e+00 2.6749514814067190e+00 9.7302580484532986e-01 -1.5003754824394433e+00 -1.4700069821174256e+02 6.2343331878372652e+01 5.0513682900650858e-01 3.0432083690055833e+00 4.5123353517716168e+01 -2.9197128932347560e+00 -2.0233710368188698e+00 -1.0610864015149697e+00 -1.3352491938542401e+00 -3.9652652613158281e+01 -6.9993889487857985e-01 -4.3640847131505449e+00 -3.4246092137147448e+00 -9.7295917039922113e+00 1.0704712773590117e+00 -1.7331569950779482e+00 -1.4703559265032418e-02 -4.8666202739474129e-01 9.9502516065916424e-01 -1.2635040946574630e+01 -4.0655650393519300e+00 -1.4945329114641694e+00 6.2271339358313051e+00 -4.4837301768025171e+00 8.8018472238581666e+01 6.5255093463086866e-01 9.3628056875451549e-01 5.5119565189510666e-01 1.2306079349496279e+00 3.5184379811730140e+00 -5.7966864862710473e+01 -4.4997230564647452e+00 2.3868919578446031e+00 4.9890278475788996e+00 -2.8451600618767998e+01 -6.7352997798082342e+01 -9.1499665332276869e-01 4.4914141214842496e-01 -3.0649397535784426e+00 -2.5147007306150382e+01 9.1747029702487037e-01 5.2257160234198974e+00 -2.4161829745502033e+00 2.3028605445559287e+00 -1.7034530573016498e+00 1.7247730099760716e+00 -2.6702530068560373e+00 6.9339144701077118e-02 -6.2993342105889827e-01 -1.3317664100020249e+01 -3.2509277544302790e+00 -3.5969182483902618e-01 1.9782112217438299e+00 9.7292549078047301e+00 7.7971310894514545e+00 8.9560612846263155e-02 -2.3746105377670945e-01 -3.6146317576797959e+00 -2.3002673730082837e+00 4.7706924487597782e+00 -2.0376169963592019e+01 3.3144160683434166e+01 3.3771407984027446e-01 -4.7229547730193451e+00 3.8444693288030123e+01 6.1445392262873511e+01 2.5787398605861989e+00 1.1508261247096563e+00 9.0776545925191563e+00 1.4005156482426807e+01 -8.2495903931010506e-01 3.3477622628784502e+01 -1.3249714880954357e+00 -7.0217175275441717e+00 1.2559690861399375e+00 1.6832502781239840e+00 -3.7474031083474078e+00 2.0050192788518584e+00 1.0605639167298158e+00 1.2809126928518175e+01 -2.2100120507011805e+00 3.8206397360788422e+00 -3.5069479076753103e+00 2.3334392512537249e+01 2.8295877034786031e+01 1.3777517465608011e+00 -4.7499034335030963e+00 -5.5604519971596282e+00 -3.6994800035534450e+00 1.1084282877742644e+00 -1.3673760598498637e+02 -2.6602996068049015e+02 -4.0566309646297380e+00 -1.4595578638292023e+01 1.2716292570546557e+01 -6.6630180781722137e-01 -1.1381684321035594e+00 3.3802756897574682e-01 -6.8915289860235807e-01 -1.4949925990086361e+00 -1.6648029670020348e-01 -2.3143812775541317e-01 1.0902290996872801e+00 -8.6581493365718742e-02 1.4601505484889625e+00 -1.0357478482528877e+00 -7.1597292226395537e-01 8.5465335444630230e-01 -3.2640110732805060e-02 4.8048932293167645e-01 -3.2739990396043597e+00 2.9240278968898892e-01 -2.1187639838282566e+00 -1.0162382579396405e+00 3.8467842641274707e+01 8.0572363645980014e-02 2.3240457200927089e-01 1.4737100448589526e+00 5.3783501987784543e-01 1.0881787530359619e+00 -1.8789094484990528e+01 -1.6299022677797552e+01 2.1237275510309783e-01 1.7026990507020962e+01 1.0114499050755157e+01 2.4815712372518146e+01 5.6352489584362448e+00 -1.9897881861787431e-01 -7.2443099856688531e-01 -7.4694343559473184e+00 -2.1957959335744154e-01 -1.3029635801013424e+00 7.1206060800523119e-01 -4.0043155064346188e+00 1.6037955878957759e+00 -8.5267737355687712e-01 6.9532343952832960e+00 6.8609674927319153e-01 4.1859944279528533e-01 2.0275631301830494e+01 8.4617458248040478e+00 -2.8859020224574117e-01 -2.7974256884871949e+00 -1.0210756819622672e+01 1.6992066419466106e+01 -1.6697873109017307e+00 3.3332992701771302e-01 4.7412067021945825e-01 2.1024738971911927e+00 5.2162534525920878e-01 2.0441005241111060e+02 -9.4108848290935576e+00 -3.3398935366377924e-01 5.1697814544819298e-01 4.3571782594021158e+01 -6.6206602748719270e+00 -3.1326250581807535e-01 -8.4821721020430212e-03 -1.7031418919073786e+00 3.5796097453821671e+00 -5.0845873727983881e-02 -4.0291447793349331e+00 2.2475366414709208e-01 1.2623002056070616e+00 -1.3655003776423846e-01 4.7782587373954133e-02 -1.7219379277680424e+00 3.2821390255185989e-02 6.2101772680717107e-02 -8.8901215335201300e+00 -2.4752499543834041e+00 -8.8302282975186663e-02 1.3286833873183190e-01 -1.7053521616641147e+00 -1.1804256538976915e+01 -4.0733146310052637e-01 -1.6197627355317414e+00 -1.0655907249983680e+00 -3.1123840114249512e-02 -6.8638911732194852e-01 1.0685872928619376e+02 6.6099546340907239e+01 3.6999411188306497e-01 -1.3841276779597054e+00 -6.2106572075168245e+00 4.0057403643168072e+00 -2.8223629474002654e-01 1.1598459872011940e-02 1.5811936927825365e-01 1.9757669092376355e+00 -2.9819751294830565e-01 2.1063131408072522e-01 -9.1204034670534995e+00 1.2463756454070940e-01 2.0693979516073768e-03 -1.6395421515810871e-01 -1.6810772140422063e+00 4.4472326222546377e-02 -3.6927052053398390e-01 7.0649319976166201e+00 -7.3398523302122953e-01 1.0286478691837631e+00 -1.9285030306167039e-01 -1.0155944108102637e+00 -3.0627827814666119e+01 -1.6161807394160332e-01 1.7387880158446072e+00 5.1429503081980599e-01 9.4379006873469828e-01 -5.7950181596037567e+00 2.4635875717634974e+01 -4.1858986570986145e+00 -1.4642730748855408e-02 6.4275149601617141e+00 1.2770853215506452e+02 -2.3306041381643126e+01 2.1300880303786833e+00 1.3164439725915456e+00 -2.0332181786203560e+00 4.8540854651127283e+01 -4.0112208655914805e-02 7.5339158804847983e+00 -1.5661506475340786e+01 -7.4424755851168083e+00 2.5937905380878963e+00 1.8750690577214164e+00 -7.7184327404408197e+00 1.1311162847790961e+00 5.3333970581602230e-01 1.1356473945616459e+01 7.7482911032724644e-02 3.9769610644982967e+00 4.1257104036749688e+00 -7.9080385753204432e+00 8.4338513999933639e+01 -3.4420492533100906e+00 2.5307662680228260e-01 -1.8495066428935356e+00 -2.6468166020629091e-01 8.5421444577474637e-02 -1.6627898199156982e+02 4.9153180759485622e+00 1.3219599023239881e-01 1.5273958259677920e+01 -8.2862365299335494e+01 -4.8474536051435813e-02 -1.2165937174772423e-01 -3.1490123717722829e-01 -4.4449130179921775e-02 1.4265931555537511e+01 -1.7248417171303831e-01 -3.5243848563582858e-01 1.0930830005425658e+00 3.4228348549800747e-01 -9.7891874446636296e-01 2.5853045139843345e-01 1.8902826488657396e+01 -2.1778749377015494e-01 -7.7548282966930060e-02 -3.8374849294575746e+01 1.7403646182512058e+00 -3.8385520639334203e-02 2.7301817951369456e-01 -1.5968394104621808e-01 -7.5405988064786378e-02 4.6425074705493037e+00 3.8235641594942987e-01 -5.7455659033355727e-02 9.8186959901514825e-02 2.0157440215409125e-01 -2.7632667753748808e+02 -8.0354570532227314e+01 -2.6283365254278096e-01 1.7090949520042820e-01 -1.1758319907520357e+02 
      </Row>
      <Row Index="6">
        8.6626678865756812e+00 7.8841881048857534e+00 -1.0217818057199610e-01 -1.1330799981970452e-01 -2.0333194803120849e+00 -8.8475478834812371e-01 4.6274727699127052e+00 -6.7771132907547860e-01 1.2787093694148912e+00 -3.9838357900599014e-01 -4.6123402254136348e-01 -5.9219983989849534e-01 8.0432519024747984e-01 -1.5540929329422504e-01 -1.0743557212710613e+00 2.4737723978427004e+00 3.6965726102933738e+00 1.4490661715703412e+00 -8.2324634125266405e-01 -2.5890248975119086e+00 9.4224267691484513e+00 -8.6910306958044670e-01 -8.1464317117731966e-01 -1.6289591859547912e+00 1.6807624700469806e-01 1.0358565729403337e+00 2.8388256118443707e+01 -8.5563955693369316e+00 7.1464064144220873e-01 -2.1878900589723909e+00 9.5749450463509334e-01 -1.7817349768577440e+01 3.4468732813227088e-01 8.3163963290793758e-02 2.2251639507588177e+00 2.6375959519507486e-01 -2.3705422329206733e+00 -1.3551406837715563e-01 -1.6698175468469534e+00 1.0436150840765239e+00 1.0057310839231315e+00 2.0963937254551648e+00 -4.8927360518364427e-01 3.8581108983302748e-01 3.7029831112162435e+00 -2.4946705377034095e+00 -7.7865212002795605e+00 -1.3352678070433164e+00 1.8642848626758788e+00 6.9549375523642336e+00 -1.1990006416384293e+01 2.2717399937369576e-01 1.3331414056717201e+00 2.3715533036226599e+00 -2.8253975727643615e-01 -1.1086480812738500e+00 -4.3108022244155322e+01 6.7056626976601351e+01 6.6015268728546461e-02 2.0646298217741017e+00 3.7726685395020252e+00 -9.5529177186514680e+00 -3.1427948746076806e-01 -8.3649865064953199e-02 -3.7835843363259081e-01 -1.1359373465017492e-01 2.2269343347666575e+00 1.8929738290563907e+00 1.4426845528520360e-02 -4.5944865743361418e-01 3.4239580473149095e-01 -9.1697509655658704e-02 2.4927882922964617e-01 1.4737175730941979e-01 1.5688222606014479e-01 -6.6864037029496348e-01 -1.9483575342931665e+00 2.7012571845237421e-03 -1.4384736143968091e-01 7.5752898052189571e-02 -3.3098361887550141e+00 -5.3433484879826265e-01 1.0841559707263964e+00 4.8466757616435263e-01 -1.2571590939196037e-01 4.0715802433743714e-01 -2.7332969448253426e+01 7.0428288637140000e+00 8.0979770248587046e-01 1.9014469912854741e+00 4.0079318719144794e+00 -6.4206423614341581e+00 -1.0892168532441371e-01 1.5074895048422993e-02 1.5167906441139101e-01 -3.5186963299067253e-01 -1.0610984039338378e+00 -1.0924063127818351e+00 2.7163395030948723e-01 3.6877451503389591e-01 1.2593790266641753e+00 4.7685012400237364e-01 -3.9836627368960276e-01 1.6219913723964363e-01 3.0598727544270634e+00 3.9783753789485035e+00 -2.8593634581183274e+00 -1.6411030999548415e-01 -1.3053276157175384e+00 2.2794653021918641e+00 1.0155914503482951e+01 -5.4994216765070325e-01 7.5597175736610867e-01 1.9301940785458305e+00 -5.1260171965604950e-02 7.2828106207444365e-01 -2.5334950420317078e+01 2.7166620336084236e+01 -1.8872643937928607e-01 1.6834855558507509e+00 1.2427435734238713e+01 1.0926313356361823e+00 2.3436762706138481e-02 5.2850174386322529e-02 1.1118367566825924e+00 -2.2628943584561256e-01 -2.3670640206430931e+00 -8.6644083074189915e-02 4.7582517765702648e-01 -2.5175992097981492e-01 1.0297285056049646e-01 -3.4355674899893163e-01 6.9285932265187067e-01 -6.2250491071078828e-02 2.2746339174770536e-02 3.7104112645146263e+00 1.4851700560568082e+00 -3.3640308975975142e-01 -6.2772619828948051e-01 2.3751806323207707e+00 5.9522234550286441e+00 2.1936709043243230e-01 -6.3872703757106264e-01 1.8736966656814757e-01 9.0764375420003596e-02 -1.8043150425801868e-01 -5.1095214719619548e+00 -2.5487477749280565e+00 -8.6895077516750041e-01 3.5374937243843019e-01 -7.3970701465741584e+00 1.2595279076415480e+01 2.0300356128197139e-01 -1.7933090551115233e-01 -1.2562827416682549e+00 1.1507039009173272e+00 6.1873821230474046e-01 1.3257633288554604e-01 8.5229915745547569e-01 -1.8363503928609326e+00 -1.3090257412966695e+00 -1.6110098615858601e+00 1.3887788677135910e+00 -3.1469227692552726e-01 -4.0450319519205920e+00 -2.8032199520603207e+00 4.7724535609457277e+00 2.0168998480620393e-01 4.1226591220573339e-01 -2.3652197890335387e+00 -5.0890578547226397e+00 3.3272129977039078e-01 -1.6245646336161381e+00 -2.8647005123453231e+00 -9.1107415165090744e-02 -7.1170075440309422e-01 4.8283835205365904e+01 -1.9182295999283326e+01 -2.3584192746848937e-01 -2.0930205092235763e+00 2.5593591964500004e+00 -1.0793639646497630e+00 -1.9260121415095099e-01 1.9446517240865546e-02 -9.6722675584556717e-02 -2.4869967148637545e-01 -7.9121779999129482e-01 3.0598636670540058e-01 7.8214636512890179e-01 -6.4595407793099024e-01 1.6853097799218475e-01 -2.9195076872790304e-01 2.1161924035257162e-01 9.5904443663582459e-02 -1.1850717663423422e+00 -2.9222738564424477e-01 6.6094371472584290e-02 -2.9275675277214974e-03 1.2365679410932141e-01 -1.3003995798358292e-01 8.2777441160312168e+00 -2.5684050019535252e-02 6.5356690259221750e-03 6.6858725890138548e-01 -3.5020658511113689e-02 -1.0085902869580106e-01 -9.6787553956252736e-01 6.9945957391551534e+00 -1.5405190911734701e-01 -4.8829221282901880e+00 -8.3809221426914959e+00 1.7094730048593565e+00 -5.8683146832185806e-01 -1.9277302767487615e-02 -8.0961443333404437e-02 1.1149343831013239e+00 -1.6679119558438335e-01 4.2541043587290728e-01 7.7878274468629272e-01 -1.2219937067281372e-01 4.5619998073269841e-01 1.3233357657316924e-02 -5.3788095258409174e-01 3.7603169813714657e-02 -3.2199356673437191e-01 -4.2080332641175300e+00 1.3176228926795339e+00 3.5958442325538564e-01 6.6021289500659819e-01 -2.2209307969279046e+00 -6.4137373854944837e+00 -2.0027002205600331e-01 5.6438846513921836e-02 3.6792129253996514e-01 1.1740271449312978e-01 -2.1606749540638956e-01 -1.3632513517871018e+01 6.7034261241593942e+00 2.6243076918527947e-01 1.9692591794214787e-01 8.3055967544279352e-02 2.8907855336556212e+00 1.7296604815301708e-01 -1.1467592567097007e-02 1.5522301489477575e-01 -5.7705560455203697e-02 1.7349991702780954e-01 6.3840883443517482e-01 3.5567346616066675e-01 -6.3768574820197510e-01 1.3102859221058527e-02 -4.1879069062734642e-03 1.3239117958409063e-01 -7.6608540994744789e-03 -1.4877480269098420e-01 -2.9539750314301894e-02 -1.0949816022273278e+00 -1.1117953227570360e-01 -1.5856470196646821e-02 -4.4642515780503178e-01 1.6510940324806143e+00 1.8615866422442692e-01 1.0661920600623034e+00 -2.2897060561822968e-01 3.0915019304264435e-02 -1.0137350179919269e-01 -1.8272146196759920e+01 -2.3134322030024336e+01 -2.1421641481967374e-02 4.7744697715658702e-02 8.3581547588933480e-01 -1.1521773627910079e+00 -1.1812497668505818e-03 3.7282443017186834e-03 1.0416024774312360e-02 5.4632071185791686e-01 -3.1761183816450095e-01 -3.9123685418396459e-01 2.9901428233825023e-03 5.4505219441887687e-02 -5.3161067511366178e-02 -6.9920581742733079e-02 -7.5801332130331778e-01 6.5995460789968763e-03 6.2897870855748117e-01 -8.9545399730978681e-01 5.7887978550768704e-01 -2.6344891264462594e-01 2.1046757332550037e-01 4.3863739665690460e-01 4.3242176493943951e+00 4.8121795608251028e-02 -2.7323897411829540e-01 2.9097476997766103e-01 1.4237724805786797e-01 -7.5844779524626915e-01 6.6898441146577214e+00 -1.0404871413191010e+00 -2.2020463455092659e-02 5.7463133588743376e-01 4.1041205682046922e-01 -6.1134578367769326e+00 -7.3471476180766715e-01 -2.0373275332526700e-01 -2.9143717387430079e-01 -7.8347354211273146e-02 1.1359226519669579e+00 1.6683765635861576e+00 1.7062877142261463e+00 -1.3732798802140980e+00 1.2847092850595561e+00 -2.5422132004466158e-01 5.7434361859006922e-01 2.3806418480941061e-01 6.1003651588866858e-01 3.1191260240433385e+00 -7.8082066061954691e-01 2.1168782679902343e-01 -6.1481693975952934e-01 2.6723199391725139e-01 1.5459870909396454e+01 -9.1117608138299422e-01 1.2604156462843363e+00 1.4659324187540914e+00 -1.2327636014436871e-01 -5.5100176191809969e-01 -2.1018450477153465e+01 5.6764016015747529e+00 3.3484437180853160e-01 -4.0219263539771237e+00 1.0505326369304910e+01 1.6596045023593575e-03 1.5722504808434963e-02 1.9983976637179796e-02 -1.4293212899576776e-03 -1.0186936360228185e+00 -8.6763021749605385e-01 -7.8197318085973577e-02 -2.2074448121615098e-01 -1.6229897084128925e-01 -6.3238525968322790e-01 4.2422802922931838e-02 -1.4841857810185035e+00 2.3583629715422383e-02 -8.0242863954394705e-01 2.1177954593792833e+01 1.7708949567651017e-01 2.3143600549569043e-02 -5.7563244718801032e-02 9.2005396858080002e-01 -4.4831228890112651e-02 -6.3346888930966783e-01 -1.7061662232193098e-01 -2.8255673601381572e-02 1.1132880185248717e-02 3.3978146474437164e-02 4.1305322396787140e+01 2.5787189126976926e+01 2.7550839050603626e-02 9.5042919439930484e-02 2.4751260813188747e+01 
      </Row>
      <Row Index="7">
        1.6273860339106250e+01 -1.3066222355140920e+02 -2.2925255112492287e+00 -1.7339266290275868e-01 -1.4843808197773672e+01 1.2769611798751910e+01 -6.7771118267615416e-01 5.1466008266939912e+02 1.8095412770982563e+01 -1.3672266750812994e+01 6.9917877684901741e+00 7.4397669824462032e+00 1.4928788490442830e+00 8.9370668596177205e-01 5.5054131812226448e-01 -3.4439287442883341e+01 9.1055500433742225e+00 1.3397125477710077e+00 5.2697889858511393e-01 1.4138590993352530e+01 -1.6349432167432786e+02 1.9747385084018623e+00 1.1448388678052105e+01 1.5540588731611074e+00 2.2668455279710265e+00 4.4043646435451507e+00 1.0236769568727727e+03 -3.1919437255815546e+02 1.0566232657663802e+01 -5.6271734605625781e+01 -1.9612104995905895e+01 3.5236850873765877e+02 1.6783372962240606e+00 3.4544916892530120e-01 1.6312707751505911e+01 7.0763026310672252e+00 -2.9446044197453319e-01 -6.4922661725111652e+02 -3.3893630098824552e+01 1.9699774235538641e+00 -8.0917492278896397e-01 -5.6160694804383127e+00 5.7342687469448672e-01 -3.2866518349763219e+00 -1.3508484058137240e+00 9.4527253445184929e+00 -1.1402207746873716e+01 -2.0465536270728961e+00 1.1464852390007417e+01 -4.2442825747902141e+01 2.0366107623910473e+01 7.2544074421038616e+00 -5.7785964346754923e+00 -1.0800004483328927e+00 6.7799116724515800e+00 -3.9032917693102309e+00 -2.5700434481727557e+03 6.1353449276143817e+02 -9.7058828027418258e+00 5.2680745218240688e-01 8.4837092797237716e+01 -3.6459481314554711e+02 -6.1974456226817676e-01 -5.2337308391021409e-01 -2.8794207404288574e+00 7.7697474985463471e+00 4.7367164285243546e-01 -3.4714591556454201e+02 5.1001201089508612e+00 -1.3983311964176162e+01 9.3054223082515808e-01 3.6445599508726554e+00 -1.1147541798676790e+00 1.9142659287335739e+00 2.1533679737566103e-01 -2.2023347854796427e+01 6.9229925132351386e+00 2.2166752166497825e+00 3.9078083392914267e+00 -1.9309201196950610e+01 -7.3970534414318593e+01 3.5509000703284537e+00 1.8124893750369875e+01 2.5601262938396232e+00 -1.1382649095390307e+00 3.2680775022944832e+00 -1.0593484261170825e+03 -1.8766905517123163e+02 5.0100437007816891e+00 1.0702701101008749e+01 9.7005840964251547e+01 -8.6736185647788432e+01 -3.6730397869549103e+00 -5.2129494517910069e-01 2.9728328539866418e+00 4.4762984023379229e+00 1.1869265981929957e+00 -1.4944775622144334e+02 2.0969052495492488e+01 -3.6045424955974910e+00 -6.4053099970948164e+00 2.3831629731458168e+00 2.6327700859918446e+00 -1.6829023377916801e+00 -3.4769371250899090e+00 6.4439503053853414e+01 1.0935769212886107e+01 -2.0724555759325023e+00 -2.6213187670700320e+00 -2.2358829173243279e+01 2.4753968098369064e+01 -5.4610680453034921e-01 -4.1330678486244402e+01 -1.1271723545481915e-01 8.4976443455603565e+00 6.9352804316977608e+00 -1.4257550525214619e+03 4.2733238215500478e+01 -2.5259572550765368e+00 3.1080105281507596e+01 -8.7621549387740174e+01 3.0684780685132790e+02 -7.0141552606527533e+00 3.6175759517759443e-01 -7.3181624390480309e+00 -6.7647741160675956e+00 -1.6206264071384657e+00 7.2789207631508901e+01 -2.3772314330717812e+01 1.3438857273497138e+01 2.4746120577755759e+00 -4.1086175347828435e+00 -1.8449113916338845e+01 1.3763486864212554e-01 -7.4559432571175854e-01 1.1106612639171463e+01 -5.9584126520061744e+00 5.2095128679446780e+00 -6.9454650197806806e+00 -1.6394880334408768e-01 1.1458759629161122e+02 -8.8289412523749995e+00 -1.4597672854033677e+01 -4.5899344257220314e+00 -2.7607766654782715e+00 -4.0318551789432391e+00 -9.8555469531638528e+02 1.0190520280071652e+02 -5.3764846480668789e+00 9.3672459243456743e+00 -1.3284913273106787e+02 -3.2833880598959223e+02 1.6101663134340667e+00 1.0576472786688511e+00 -8.4404289736793316e+00 -1.4539668069216635e+01 -2.1067611764476504e+00 5.7801076460287004e+02 -3.2130856045716882e+00 -4.1318928602990148e+00 7.9179024213392148e+00 1.0953207328277510e+00 8.7174107951723201e-01 1.5399618144643137e+00 6.3390057344642656e+00 -6.5534564171062954e+01 -7.1882234760579609e+00 2.0200549480766745e+00 -1.7274767174818084e+00 2.8261472745475622e+01 7.7118317864260504e+01 -1.1205924374100249e+00 5.0258926244462838e+00 1.9591613167119633e+00 -4.6739571600320389e+00 -3.9473334887063221e+00 2.3857317018130561e+02 -8.7697472905622612e+02 1.6686412122015326e+00 3.4450473921712188e-03 2.5809173144395245e+01 7.7712341499795423e+00 -2.7438496442189018e+00 -1.3417344708551582e-01 -1.3833648407408106e+00 -2.6382440802894136e+00 3.7529393565996116e-01 5.1886240993947624e+01 -8.5711227946788284e+00 4.6928174641223830e-01 1.7327663380146143e+00 2.1231978580298110e+00 -1.8343221907945919e+00 7.5200683491606590e-01 1.1187598772175988e+00 -2.1577416072720585e+00 4.9449684464096419e+00 -2.5929686829354850e+00 -1.2375780718295835e-01 -2.7331847709898769e+00 -4.7885771456576968e+01 2.5113002068035479e+00 2.3379164308119091e+01 3.9534652046876873e+00 2.5999289806702297e-02 2.5683574572633585e+00 3.2493692119036882e+02 -5.0029545784499959e+01 -2.0076847419586752e+00 -4.6400741889517022e+01 -1.2105014437933993e+02 -1.7435555043227265e+02 -3.8658578061450823e+00 -4.4198324299574815e-01 -3.7409689317725703e-01 1.0366223298281545e+00 -3.7258927506313211e-02 3.7297086649076995e+01 1.4295324701344875e+01 -8.9194393183969254e+00 1.8927728995353088e+00 2.5731656872744328e+00 9.4783459325882120e+00 -1.0856315009010131e-01 1.1526830529493490e+00 -5.1394761214906257e+00 2.7253021686768300e+00 -2.2244558126717484e+00 1.3148160571078189e+00 -4.7254439129116061e+00 -3.1572666414122555e+01 9.1673845796287470e+00 6.0717938399421312e-01 5.5619831037036169e+00 -1.1570658139974945e+00 1.8229016120903514e+00 5.5521676209769794e+02 -8.3791983454161439e+01 -5.5781466776897781e-01 -6.1980913689802799e+00 2.0564448644600154e+02 -1.2289237418112440e+02 -1.9950356310694899e+00 -1.7387275281916809e-01 2.4502198247982432e-01 -5.5951440044764666e+00 -3.5711044358364474e-02 -1.0893160882083458e+02 1.1804968070660136e+01 -6.3499119273416529e+00 -1.6518807604088237e+00 -4.9245437344963605e-01 -2.1627002727423155e+00 4.4376161611841747e-01 2.7371717826350714e-02 1.8240557404065947e+00 1.5945264881235378e+01 -7.7251858220919201e-01 -3.0545323212497122e-01 2.2260504153540954e+00 -2.9740068183746189e+01 -3.1173768712705381e+00 1.4183368889734149e+01 -1.4228559205329061e+00 -6.9182108928466857e-01 -3.9603767053260008e-01 9.2096185379957888e+02 1.0885079054093083e+02 -8.7704621248841930e-02 1.6496682448507645e+01 -5.3248775085909415e+01 1.4135530878011195e+00 -1.4007392176233278e+00 2.7816634547900568e-02 -2.9840353126888264e-01 3.2625666927875705e+00 -1.1607915520695458e-01 5.7053474725892855e+01 -4.7211472715146655e+01 3.0588515900183006e+00 1.6439228814476874e+00 7.0171995531896780e-01 -7.6616733947240965e+00 3.0591674254311130e-01 2.1811414858816502e-01 -6.7721912763354100e+00 6.3130961792971672e+00 -4.3935642474599174e-01 -1.7470575608548256e+00 -6.5552713464441936e+00 -1.1737031798469339e+01 7.0471884585599831e-01 -8.1863188374123226e+00 3.3627388672959269e-01 -3.8005107354635737e+00 -3.4668974306169389e+00 1.0860095008013504e+02 -2.8315867106191746e+01 5.8289346265204334e-01 1.8553848734792489e+01 -1.8044236215760478e+02 -4.6921425516752544e+02 -1.2970763120130371e+01 4.3507503991075058e-02 -1.4636359761896994e+01 1.4431075335617436e+01 -2.2686591931722315e+00 -1.8620711948372343e+02 -4.4542240533480140e+01 -2.0222494922985803e+01 1.0197179303483097e+01 6.5067056275981212e+00 -5.3228089274510516e+01 4.0163618531684009e-01 2.6613168536014791e+00 -1.9109449721823303e+01 -1.2633434190073807e+00 3.3674119795604653e+00 5.1043903375474668e+00 -2.5437214068429888e+01 -1.0161458837596331e+02 1.1635371475608698e+01 1.2643940476491043e+01 6.3603149791270273e+00 5.0598484131962405e+00 2.7834970709208546e+00 -8.8017762688267521e+02 -3.7622717171103892e+02 -1.3447508277491989e+00 -8.5248865997333780e+01 1.2476325954950369e+01 3.2084374842410410e+00 -1.3152356995137782e-01 -1.8042326916673690e-01 -1.2290026743097504e-01 5.7479580161762787e+00 6.1269032700833037e-01 -2.0634898036848156e+01 7.1203136067509352e+00 -3.7042749743398042e+00 -1.0052703469295787e+00 1.9566547756031838e-02 1.0094067103336839e+02 -7.2177197593309650e-02 3.3009032372131841e-01 1.0166459560227077e+02 -2.0524637886861989e+00 -2.8757333815224939e-02 1.3216382980957597e-01 -1.4139707525108667e+00 -1.2902859155469848e-01 -2.3429368147467793e+00 -7.6717866738874392e+00 -2.0539509783291099e-01 -1.8389211089148916e-01 1.8835086120947303e-01 -5.0308401298586995e+02 -1.8480019382030997e+02 3.5922449997673950e-01 3.7054095434844365e+00 -1.4114995965370724e+02 
      </Row>
      <Row Index="8">
        -6.2433202181945681e+01 -1.2925364528686140e+02 -5.8814923934391006e+00 6.1171502177738357e-01 -1.6351497753241169e+01 -1.3289412302941617e+01 1.2787091023020296e+00 1.8095412955150696e+01 3.3440557265256524e+02 1.9687501372947175e+01 9.5444297008879864e-01 4.2094296773183553e+00 1.0713923552996629e+00 -3.0321241181294885e+00 -3.9004439162604454e-01 -2.2041523744621607e+01 1.0012785264889452e+00 -6.7610993243105177e-01 1.7985223570313359e+01 9.5666030567235385e+00 8.9395394198079202e+01 -1.8455409440756707e+00 1.1300545535770961e+01 -2.1718364548557147e+00 3.1410722694222928e+00 1.0125633240902758e+01 -1.4003893816667176e+02 1.5835813989676246e+03 5.8022804510904447e+00 -1.0006960063156992e+01 1.0960910384731903e+01 2.1932244458494520e+02 9.0172962284533966e+00 -2.6801718110829031e-01 2.2108489599800230e+01 1.4658639476985831e+01 2.1155770824654008e+00 -7.2122036984835063e+01 -4.1625162518885918e+02 -9.6168114916840057e+00 -3.9160708318908171e+00 -9.4080580293037901e+00 -2.9290904111133209e+01 2.2033431729947770e+00 2.7415700912892111e+00 1.3591963656551044e+01 -2.0151966446166867e+00 1.5156229729277004e+00 -1.6284674435584272e+01 -1.2394212855900168e+01 1.8031659737220625e+02 6.1533841589935028e+00 -1.8115106323018058e+01 4.8689078881912264e+00 -3.7937798910033975e+00 -1.1904701968853457e+01 -3.1541801709520422e+02 -1.6233530249408482e+03 -8.8015890544613598e+00 3.7100217797855244e+00 2.6145854047412669e+01 -1.2922611303198508e+01 -3.1881034209887260e+00 4.4768127608062491e-01 -5.0011860688293410e+00 -8.9976905925883131e+00 2.5231945444524571e+00 -2.2547370748247101e+01 -1.8203368028678926e+02 5.8226857381296258e+00 7.2480335696513007e-02 3.9528896140359291e+00 -7.1686532510992569e+00 -8.3058131046732320e-01 -2.2850470873760318e+00 -5.6500822946344194e+00 1.8454673219798574e+00 2.1733757032524785e+00 1.1860623951090927e+00 -4.3783265192104839e+00 1.9045177919713095e+02 1.4675094320506636e+00 6.0794441360424649e+00 1.5285136532287278e+00 -6.0654933928616950e-01 1.0746208623935967e-01 2.8803436532232337e+02 -7.2204744320897294e+02 1.4818823242046715e+00 -6.7587861039360488e+00 3.2687823780463077e+01 2.1967163333142608e+01 6.8692699712474141e+00 9.4634317551699176e-01 3.4931128300169387e+00 -8.2082580834499037e+00 2.9649859311616371e+00 1.1379000898922300e+01 -6.7641683010229352e+00 4.6812684459245180e-01 -1.8860193304561257e-01 4.5375803970545592e+00 -2.5117489129545824e+01 -8.0467871290138970e-01 -2.6636968146992639e+00 6.5293324330097295e+00 6.1738160208677160e+00 -3.2408574116908451e-02 8.3030321107064413e+00 -3.7899256539408963e+00 2.5882741617551920e+02 5.3927655699564037e-02 5.4301641140499157e-01 4.8141568726591242e+00 -5.8735646399035266e+00 -1.0550736580946497e+01 1.4567538581201063e+02 -3.9870890674191401e+02 3.2150869689251591e+00 7.6920046300059592e+00 -4.4905585554537197e+01 4.2314884889239408e+01 -3.3290211472044051e-01 -1.1071550846879821e+00 1.3194145595411090e+01 5.8763818016012923e+00 -4.6436976283004343e+00 9.5899825589058487e+00 2.0598480817223765e+02 -6.2901403704298442e+00 -3.1916841538810381e-01 -4.5260499445652371e+00 -1.4519116988478800e+00 1.8048593481036197e+00 5.6019636751149333e+00 -4.1001384590897914e+01 -3.0377605747035812e+00 1.2184631103819703e+00 -6.7895093646205815e+00 2.9219418335949463e+00 -4.6752493903203700e+01 -3.5334764624675747e+00 -2.7272114795534490e+00 -6.3386226933963030e-01 -4.6503776874138492e-01 4.8978440184691685e-01 -5.4263207586627141e+02 -3.1095802322688945e+02 -8.4388010903950530e+00 1.0906532011357891e+01 -7.4378703089284627e+01 -1.8963198097888829e+02 -5.8295189912424057e+00 -1.6708025847829222e+00 -1.3973958570324438e+01 -5.2823469827456178e+00 -4.3549163422786199e+00 5.5056646937766246e+01 2.3504705645812876e+02 -2.0654139144676846e+00 2.8315680913063535e+00 -2.6556609714945134e+00 2.0120107301491483e+01 1.3417346401087649e+00 -6.4471647925377484e-01 -2.9165520991359489e+01 -4.2044038517965543e-01 -2.8143098022454662e+00 -6.9644871971621036e-01 1.4540196672534421e+01 -2.2346992889112491e+02 1.1200255956489968e+00 5.4795344053983985e+00 5.7856398172561541e-01 3.7437537858122187e+00 1.2114607526208843e+01 -5.8064400104378001e+02 1.4855876936081283e+03 1.1943146954254171e+00 -5.7091310030823745e+00 6.2439904985869461e+00 1.1753210461816650e+01 4.4302124216325089e-01 -1.1849742358913318e-01 -1.3154373378042923e+00 4.6467836027797063e+00 -1.4011280863137716e+00 -9.4215692123677357e+00 -2.1498008729239890e+00 -4.2885635619182878e+00 -8.0536915141424203e-01 -3.4942396116127803e+00 -3.9421180070941251e+00 -1.0842496984226404e+00 -3.5887674224341026e-01 -1.0088505194818133e+01 1.7661563904151634e+00 -5.1039224123318827e-01 7.9479004238333806e-01 1.1825653710342743e+00 3.5055564990138137e+01 6.1369677764441111e-01 7.9137129800117769e+00 8.2578351725935517e-01 -5.4489018688397195e-01 4.8774986821028204e-01 3.0458686993849017e+02 -7.5981566274599110e-01 1.2284903264463400e+00 -2.9141690286647151e+01 6.9825617689895097e+01 -1.9887746690495195e+01 -4.6759829055860695e+00 4.6219929595189474e-01 -2.9532398186958542e+00 -4.5655017581709165e+00 9.1031379008075997e-01 -1.6713788283006661e+01 -1.3030356268555164e+02 1.3077786037481549e+00 -4.9087121572353121e-01 8.9657153049054383e-01 -1.0205581087243376e+01 -1.2962520767073302e+00 -1.4621835293114394e+00 1.4934956084727053e+00 -6.5284224694565500e+00 4.4812296770765991e-01 2.9753649720930215e+00 -3.5335552387646469e+00 4.4516612479248863e+01 1.1126284115245351e+00 1.9768506767540568e+00 4.8326778015098670e-01 -7.8200181325981788e-01 -1.0105472961760507e+00 7.3523826421028741e+02 1.0635952757652151e+02 1.3478200469131660e+00 -5.7731363616305114e+00 -6.2372848449216690e+01 1.6660820970661522e+01 -3.9045299527267252e+00 -8.1899677853696728e-02 -8.1441656400508133e-01 2.7730499147303922e+00 4.3754019366941721e-01 1.2606632633794117e+01 -1.3926144538537150e+01 -4.6428845456735059e+00 5.0901914640032175e-01 -8.7268408669469499e-01 9.5394212277900632e+00 2.0914243416970607e-01 -3.5208186441560724e-01 2.9720539965293455e+01 1.5269003630826319e+00 -1.0253762711805264e-01 -1.2766679450849678e+00 4.8811881765515457e+00 4.1833085244987160e+01 -9.9080901793160980e-01 3.8964097892242679e+00 3.3987542460761517e+00 -4.0746673097107000e-02 -1.3228234340502520e+00 6.1336086445344358e+02 -2.9396989723671066e+02 2.9440902135989799e-01 4.3764411199030295e+00 -7.5818229998735003e+00 -4.6293375376204494e+01 -9.9878679995384179e-01 -8.1660832086263610e-02 7.9160103438000773e-01 1.5128265830600531e+00 3.1489130779211921e-01 -4.5860744021560613e+00 -7.6947349488986347e+01 -9.2727439960555935e-01 9.2586063122091611e-02 3.3996419264628726e+00 5.3289950178051226e+00 1.6829956043145022e-01 -7.4447997148668765e-01 2.0751576415981038e+01 2.1131840847368899e+00 -1.5787911629493929e+00 5.0931601361833909e+00 1.1370559615254271e+01 -5.6787821025666233e+01 4.8830742613670406e+00 -9.9008471177352120e-02 -1.3840391149238567e+00 -2.9859392654398464e-01 5.7451230715093402e+00 6.8276055283911958e+01 -1.7264350707555113e+02 1.0383766376265779e+00 -5.4329262690551330e+00 5.6465032514371615e+01 -1.8641074206359590e+01 -3.9349096451776564e+00 -7.0585760920131602e-01 -2.3257873186701543e+00 -1.1663622860040881e+01 -4.1378741523214924e-01 1.3042066222251549e+01 -7.5734461536100724e+01 8.6296551906903254e+00 9.0324940612330096e-02 -5.4363582855656647e+00 -7.6262136007785827e+01 -1.2734785255436440e+00 1.2123307663942420e+00 -1.0053476572104896e+02 -3.9330545196474134e+00 2.2510586072244791e+00 4.0496571122998919e+00 -1.1565261051762029e+01 4.0270543905666472e+02 -2.3511087099301786e+00 1.4392866012643426e+01 6.3252016753956779e+00 -4.0487304366309100e+00 4.1328964759405089e+00 8.1549067081316616e+02 -8.9930906211760691e+02 -3.2054453040067310e+00 -3.1519965750538269e+01 -7.2460783848510459e+01 -1.1103085722832104e+00 5.0545450944078762e-01 2.2065392994966393e-01 -1.1624448831802262e-02 6.4768660421727784e+00 -1.0624749237435260e+00 1.0420251190675316e+00 -2.6216515155130455e+01 3.4975463219890557e-01 -4.8877823416266786e-01 -3.0696695419171860e-01 9.3021942838267947e+01 3.7720769060753767e-01 -8.1478109555952738e-01 -1.5076999062171922e+02 -1.3595860687159487e+00 9.8581190843148203e-02 -9.6793452276450864e-02 1.3806780937865817e+00 1.9978799023967486e-02 -3.8552479097553225e+00 -6.4329978091157036e-02 -9.2499241289668563e-02 3.6715517673979292e-02 -5.4785413484171019e-01 5.3300502764836460e+02 9.8973456225106008e+02 -5.6311714373521549e-01 -2.4649183700845789e+00 -4.0683024644851668e+02 
      </Row>
      <Row Index="9">
