<?xml version="1.0"?>
<MethodSetup Method="MLP::MLPBNN_Expert1_EleTau_nodes30_epoch1000">
  <GeneralInfo>
    <Info name="TMVA Release" value="4.2.0 [262656]"/>
    <Info name="ROOT Release" value="6.02/13 [393741]"/>
    <Info name="Creator" value="jhoward"/>
    <Info name="Date" value="Sat Dec  3 18:40:33 2016"/>
    <Info name="Host" value="Linux vocms0301.cern.ch 2.6.32-573.7.1.el6.x86_64 #1 SMP Wed Sep 23 10:12:03 CEST 2015 x86_64 x86_64 x86_64 GNU/Linux"/>
    <Info name="Dir" value="/uscms_data/d3/jhoward/WORKING_DIR/NovProductionV3_76X/ANNTraining_MethodALL/ANNs"/>
    <Info name="Training read_events" value="80496"/>
    <Info name="TrainingTime" value="1.40342626e+04"/>
    <Info name="AnalysisType" value="Classification"/>
  </GeneralInfo>
  <Options>
    <Option name="NCycles" modified="Yes">1000</Option>
    <Option name="HiddenLayers" modified="Yes">30</Option>
    <Option name="NeuronType" modified="Yes">tanh</Option>
    <Option name="RandomSeed" modified="No">1</Option>
    <Option name="EstimatorType" modified="No">MSE</Option>
    <Option name="NeuronInputType" modified="No">sum</Option>
    <Option name="V" modified="Yes">False</Option>
    <Option name="VerbosityLevel" modified="No">Default</Option>
    <Option name="VarTransform" modified="Yes">N</Option>
    <Option name="H" modified="Yes">False</Option>
    <Option name="CreateMVAPdfs" modified="No">False</Option>
    <Option name="IgnoreNegWeightsInTraining" modified="No">False</Option>
    <Option name="TrainingMethod" modified="Yes">BFGS</Option>
    <Option name="LearningRate" modified="No">2.000000e-02</Option>
    <Option name="DecayRate" modified="No">1.000000e-02</Option>
    <Option name="TestRate" modified="Yes">5</Option>
    <Option name="EpochMonitoring" modified="No">False</Option>
    <Option name="Sampling" modified="No">1.000000e+00</Option>
    <Option name="SamplingEpoch" modified="No">1.000000e+00</Option>
    <Option name="SamplingImportance" modified="No">1.000000e+00</Option>
    <Option name="SamplingTraining" modified="No">True</Option>
    <Option name="SamplingTesting" modified="No">False</Option>
    <Option name="ResetStep" modified="No">50</Option>
    <Option name="Tau" modified="No">3.000000e+00</Option>
    <Option name="BPMode" modified="No">sequential</Option>
    <Option name="BatchSize" modified="No">-1</Option>
    <Option name="ConvergenceImprove" modified="No">1.000000e-30</Option>
    <Option name="ConvergenceTests" modified="No">-1</Option>
    <Option name="UseRegulator" modified="Yes">True</Option>
    <Option name="UpdateLimit" modified="No">10000</Option>
    <Option name="CalculateErrors" modified="No">False</Option>
    <Option name="WeightRange" modified="No">1.000000e+00</Option>
  </Options>
  <Variables NVar="11">
    <Variable VarIndex="0" Expression="read_pt_1" Label="read_pt_1" Title="read_pt_1" Unit="" Internal="read_pt_1" Type="F" Min="2.40016861e+01" Max="1.20155237e+03"/>
    <Variable VarIndex="1" Expression="read_pfmt_1" Label="read_pfmt_1" Title="read_pfmt_1" Unit="" Internal="read_pfmt_1" Type="F" Min="1.07509000e-02" Max="2.40144360e+03"/>
    <Variable VarIndex="2" Expression="read_pt_2" Label="read_pt_2" Title="read_pt_2" Unit="" Internal="read_pt_2" Type="F" Min="2.00001984e+01" Max="1.15361841e+03"/>
    <Variable VarIndex="3" Expression="read_pt_tt" Label="read_pt_tt" Title="read_pt_tt" Unit="" Internal="read_pt_tt" Type="F" Min="5.96447513e-02" Max="2.21355322e+03"/>
    <Variable VarIndex="4" Expression="read_m_vis" Label="read_m_vis" Title="read_m_vis" Unit="" Internal="read_m_vis" Type="F" Min="1.17751436e+01" Max="1.46055579e+03"/>
    <Variable VarIndex="5" Expression="read_met" Label="read_met" Title="read_met" Unit="" Internal="read_met" Type="F" Min="2.29709879e-01" Max="2.21479517e+03"/>
    <Variable VarIndex="6" Expression="read_P_chi_pf" Label="read_P_chi_pf" Title="read_P_chi_pf" Unit="" Internal="read_P_chi_pf" Type="F" Min="-1.49460913e+03" Max="1.74413684e+03"/>
    <Variable VarIndex="7" Expression="read_LPT" Label="read_LPT" Title="read_LPT" Unit="" Internal="read_LPT" Type="F" Min="0.00000000e+00" Max="3.08451172e+03"/>
    <Variable VarIndex="8" Expression="read_DeltaR_leg1_leg2" Label="read_DeltaR_leg1_leg2" Title="read_DeltaR_leg1_leg2" Unit="" Internal="read_DeltaR_leg1_leg2" Type="F" Min="5.00006616e-01" Max="5.05562925e+00"/>
    <Variable VarIndex="9" Expression="read_DeltaPhi_leg1_leg2" Label="read_DeltaPhi_leg1_leg2" Title="read_DeltaPhi_leg1_leg2" Unit="" Internal="read_DeltaPhi_leg1_leg2" Type="F" Min="-3.14146042e+00" Max="3.14119720e+00"/>
    <Variable VarIndex="10" Expression="read_DeltaPhi_PFMET_Higgs" Label="read_DeltaPhi_PFMET_Higgs" Title="read_DeltaPhi_PFMET_Higgs" Unit="" Internal="read_DeltaPhi_PFMET_Higgs" Type="F" Min="-3.14159179e+00" Max="3.14159036e+00"/>
  </Variables>
  <Spectators NSpec="4">
    <Spectator SpecIndex="0" Expression="read_npu" Label="read_npu" Title="read_npu" Unit="" Internal="read_npu" Type="F" Min="4.49875779e-02" Max="4.07937813e+01"/>
    <Spectator SpecIndex="1" Expression="read_event" Label="read_event" Title="read_event" Unit="" Internal="read_event" Type="F" Min="2.00000000e+00" Max="7.30396096e+08"/>
    <Spectator SpecIndex="2" Expression="read_final_weight" Label="read_final_weight" Title="read_final_weight" Unit="" Internal="read_final_weight" Type="F" Min="0.00000000e+00" Max="7.24100918e-02"/>
    <Spectator SpecIndex="3" Expression="read_ratio_weight" Label="read_ratio_weight" Title="read_ratio_weight" Unit="" Internal="read_ratio_weight" Type="F" Min="7.95911774e-02" Max="7.95911774e-02"/>
  </Spectators>
  <Classes NClass="2">
    <Class Name="Signal" Index="0"/>
    <Class Name="Background" Index="1"/>
  </Classes>
  <Transformations NTransformations="1">
    <Transform Name="Normalize">
      <Selection>
        <Input NInputs"11">
          <Input Type="Variable" Label="read_pt_1" Expression="read_pt_1"/>
          <Input Type="Variable" Label="read_pfmt_1" Expression="read_pfmt_1"/>
          <Input Type="Variable" Label="read_pt_2" Expression="read_pt_2"/>
          <Input Type="Variable" Label="read_pt_tt" Expression="read_pt_tt"/>
          <Input Type="Variable" Label="read_m_vis" Expression="read_m_vis"/>
          <Input Type="Variable" Label="read_met" Expression="read_met"/>
          <Input Type="Variable" Label="read_P_chi_pf" Expression="read_P_chi_pf"/>
          <Input Type="Variable" Label="read_LPT" Expression="read_LPT"/>
          <Input Type="Variable" Label="read_DeltaR_leg1_leg2" Expression="read_DeltaR_leg1_leg2"/>
          <Input Type="Variable" Label="read_DeltaPhi_leg1_leg2" Expression="read_DeltaPhi_leg1_leg2"/>
          <Input Type="Variable" Label="read_DeltaPhi_PFMET_Higgs" Expression="read_DeltaPhi_PFMET_Higgs"/>
        </Input>
        <Output NOutputs="11">
          <Output Type="Variable" Label="read_pt_1" Expression="read_pt_1"/>
          <Output Type="Variable" Label="read_pfmt_1" Expression="read_pfmt_1"/>
          <Output Type="Variable" Label="read_pt_2" Expression="read_pt_2"/>
          <Output Type="Variable" Label="read_pt_tt" Expression="read_pt_tt"/>
          <Output Type="Variable" Label="read_m_vis" Expression="read_m_vis"/>
          <Output Type="Variable" Label="read_met" Expression="read_met"/>
          <Output Type="Variable" Label="read_P_chi_pf" Expression="read_P_chi_pf"/>
          <Output Type="Variable" Label="read_LPT" Expression="read_LPT"/>
          <Output Type="Variable" Label="read_DeltaR_leg1_leg2" Expression="read_DeltaR_leg1_leg2"/>
          <Output Type="Variable" Label="read_DeltaPhi_leg1_leg2" Expression="read_DeltaPhi_leg1_leg2"/>
          <Output Type="Variable" Label="read_DeltaPhi_PFMET_Higgs" Expression="read_DeltaPhi_PFMET_Higgs"/>
        </Output>
      </Selection>
      <Class ClassIndex="0">
        <Ranges>
          <Range Index="0" Min="2.4001686096191406e+01" Max="1.2015523681640625e+03"/>
          <Range Index="1" Min="2.4561578407883644e-02" Max="2.4014436035156250e+03"/>
          <Range Index="2" Min="2.0000198364257812e+01" Max="1.1536184082031250e+03"/>
          <Range Index="3" Min="5.9644751250743866e-02" Max="2.2135532226562500e+03"/>
          <Range Index="4" Min="1.1775143623352051e+01" Max="1.4605557861328125e+03"/>
          <Range Index="5" Min="6.5321862697601318e-01" Max="2.2147951660156250e+03"/>
          <Range Index="6" Min="-1.4946091308593750e+03" Max="1.7441368408203125e+03"/>
          <Range Index="7" Min="0.0000000000000000e+00" Max="3.0845117187500000e+03"/>
          <Range Index="8" Min="5.0000661611557007e-01" Max="5.0556292533874512e+00"/>
          <Range Index="9" Min="-3.1409535408020020e+00" Max="3.1410875320434570e+00"/>
          <Range Index="10" Min="-3.1415917873382568e+00" Max="3.1415903568267822e+00"/>
        </Ranges>
      </Class>
      <Class ClassIndex="1">
        <Ranges>
          <Range Index="0" Min="2.4006036758422852e+01" Max="6.8984405517578125e+02"/>
          <Range Index="1" Min="1.0750900022685528e-02" Max="3.2826702880859375e+02"/>
          <Range Index="2" Min="2.0001735687255859e+01" Max="6.0616796875000000e+02"/>
          <Range Index="3" Min="6.1582207679748535e-01" Max="6.0176141357421875e+02"/>
          <Range Index="4" Min="1.9196374893188477e+01" Max="1.3293544921875000e+03"/>
          <Range Index="5" Min="2.2970987856388092e-01" Max="5.6660290527343750e+02"/>
          <Range Index="6" Min="-1.0917910766601562e+02" Max="5.6581134033203125e+02"/>
          <Range Index="7" Min="0.0000000000000000e+00" Max="1.2458338623046875e+03"/>
          <Range Index="8" Min="5.1630222797393799e-01" Max="4.3202486038208008e+00"/>
          <Range Index="9" Min="-3.1414604187011719e+00" Max="3.1411972045898438e+00"/>
          <Range Index="10" Min="-3.1400458812713623e+00" Max="3.1406488418579102e+00"/>
        </Ranges>
      </Class>
      <Class ClassIndex="2">
        <Ranges>
          <Range Index="0" Min="2.4001686096191406e+01" Max="1.2015523681640625e+03"/>
          <Range Index="1" Min="1.0750900022685528e-02" Max="2.4014436035156250e+03"/>
          <Range Index="2" Min="2.0000198364257812e+01" Max="1.1536184082031250e+03"/>
          <Range Index="3" Min="5.9644751250743866e-02" Max="2.2135532226562500e+03"/>
          <Range Index="4" Min="1.1775143623352051e+01" Max="1.4605557861328125e+03"/>
          <Range Index="5" Min="2.2970987856388092e-01" Max="2.2147951660156250e+03"/>
          <Range Index="6" Min="-1.4946091308593750e+03" Max="1.7441368408203125e+03"/>
          <Range Index="7" Min="0.0000000000000000e+00" Max="3.0845117187500000e+03"/>
          <Range Index="8" Min="5.0000661611557007e-01" Max="5.0556292533874512e+00"/>
          <Range Index="9" Min="-3.1414604187011719e+00" Max="3.1411972045898438e+00"/>
          <Range Index="10" Min="-3.1415917873382568e+00" Max="3.1415903568267822e+00"/>
        </Ranges>
      </Class>
    </Transform>
  </Transformations>
  <MVAPdfs/>
  <Weights>
    <Layout NLayers="3">
      <Layer Index="0" NNeurons="12">
        <Neuron NSynapses="30">
          -7.3803475616778114e-01 1.6453182313145633e+00 1.1752217391320900e+00 1.3307875015969461e+00 -1.2711934648342540e+00 -1.1534040842775870e+00 -2.1999898749586053e-01 1.0359679908883201e+00 -8.3499991096015114e-01 -1.1045952775542847e+00 -1.7711478761691830e+00 -8.2888389501865023e-01 -1.0502676960627255e+00 -2.3705259819409708e-01 -7.4509877295386595e-01 5.7325543812657109e-01 -8.9310387453353302e-01 8.8200938657578221e-01 4.7291966553426851e-01 1.0613194604140654e+00 -2.6171351206396587e-01 4.2563999070997860e-01 -2.3008142850174090e-01 4.2045501718707262e-01 -9.7782901986639303e-01 -5.3784709436603750e-01 1.7347472272755988e+00 -9.9773317559089592e-01 -1.4994199829106056e+00 -8.0512567612428709e-01 
        </Neuron>
        <Neuron NSynapses="30">
          9.7555476453652401e-01 1.2836884635020984e+00 -1.4161999382174656e-01 -6.7106780193756999e-01 -1.0907824457856863e-01 -3.1326104502357222e-01 -1.2254157372325676e-01 2.8787870160833648e+00 -1.0883586848887687e+00 1.1056395215868098e+00 7.2534293162513519e-01 1.7404271921703471e-01 9.6669602045524577e-02 1.3704409846435159e+00 -8.7813341368317921e-01 -1.8042115970409831e+00 4.8282246852664704e-02 -2.2811706665065687e-01 1.5226693183585998e+00 1.4220398829030305e+00 1.5580480042807798e+00 2.6384820245313296e+00 -5.2331573096990285e+00 1.6482581136862402e+00 -2.1649977116950248e+00 -1.5282086659032981e+00 -1.1096835720794564e+00 -1.5350037054123606e+00 3.7650793635435420e-01 -1.3448653498735058e-01 
        </Neuron>
        <Neuron NSynapses="30">
          -1.1191794078253474e+00 1.5290780596988711e+00 -3.5617105180384295e-01 1.3535854237631699e+00 1.8027854949077131e+00 -1.1357166774673371e+00 -6.3576615066859921e-01 -5.5451789821318542e-01 3.0586966940141452e-01 -1.2248614836086449e+00 -1.5919204321422962e+00 -1.2487845695862438e+00 -3.4038784393337018e-01 1.2708282613025701e+00 1.2626754908829647e+00 -4.4372226679983873e-01 -6.5853709808255112e-01 -1.8887205401257399e+00 -7.9810895054369217e-03 5.5860208216444374e-01 2.0213316402425674e+00 2.2752260017761025e-01 3.1245203358646521e+00 -2.2078676087655258e-01 -2.0948030846050963e-01 2.7966341899695008e-01 1.1917759042148406e+00 -8.7524391131665225e-01 -1.1601293067771765e+00 -1.9743660372658973e+00 
        </Neuron>
        <Neuron NSynapses="30">
          1.2729076609703840e-01 8.0571071332774757e-01 1.6950124148292436e+00 -7.5595543101754226e-01 2.6274125699130352e-01 8.8922536187459489e-01 -1.3959471180983185e+00 -2.4143291692014648e+00 -1.5622041448480153e+00 -3.7516030713183735e-01 -2.4889210372778341e+00 -1.9241233410547236e+00 1.6418245036690099e-01 1.5456791523164164e+00 -1.1797557232597304e+00 1.8937280589082293e+00 -6.5316654871744839e-01 -8.1299523275695895e-01 3.2194704424227599e-01 7.9627667491655729e-01 -1.5561140564680396e+00 1.6530392348222276e+00 6.6453029635408567e-01 6.7263493501152150e-01 -1.4724263727372886e+00 2.2554994927463827e+00 6.1271126449028079e-01 -1.3854874191223352e+00 -7.2929923495535787e-01 -1.1685945014681700e+00 
        </Neuron>
        <Neuron NSynapses="30">
          -9.3876892114715360e-01 6.8714038826100798e-01 -1.5240458842990318e-01 2.0465066636113685e+00 1.1222942394431090e+00 -1.1533264521725477e-01 -5.2467474746294207e-01 3.4848017670497944e-01 -1.7437750436255859e+00 7.6351368767193861e-01 -4.8219897808020712e-01 -1.7929600301390263e+00 -1.3995591929574533e-01 -1.2397851358886995e+00 1.5851176617311358e-01 1.3063387408375555e+00 2.3057506616988719e+00 -2.3558246694249494e+00 3.0170806771238873e-01 1.7190987684107095e+00 1.5778263339442271e+00 -2.7944022152813215e-03 -3.0826566934571846e+00 3.1882741500510503e-01 -9.6080550030788758e-01 1.3910481828452497e+00 1.4052556945921257e+00 -4.5927567576790684e-01 -1.2643895947031883e-01 -5.0177043278056799e-01 
        </Neuron>
        <Neuron NSynapses="30">
          -6.1819972387200584e-01 9.8719477267477140e-01 1.8694917502255275e+00 -3.6684291660997259e-01 -4.0390116913676763e+00 -2.4245065213796527e-01 1.2055823326023598e+00 1.8196235261921239e+00 6.5688678178109361e-01 -1.3570034680578318e+00 8.5457656881874999e-01 5.2162292587058667e-01 -6.7445251592135280e-01 4.4433755339084158e-01 9.1571172675115653e-01 -8.3068346854029307e-01 -7.0875106610471550e-01 1.1883092285774943e+00 -1.2545624108939379e+00 -2.9656173656677404e-01 1.6255675683590491e+00 1.7990552907902957e+00 -6.9651979478236319e+00 2.1118026450554570e+00 1.5519135916378779e+00 -2.1235592602057314e+00 7.1049956843471096e-01 7.1917393545633132e-02 -1.2612293798465668e+00 -1.8405342631177295e+00 
        </Neuron>
        <Neuron NSynapses="30">
          -1.8672034263281374e+00 1.8528311378173172e+00 2.1031438960761628e+00 -1.0770988585919647e+00 1.9415477267845276e+00 -6.9303367907293900e-01 -1.1072875301359825e-01 -5.4139482445544918e-01 2.6843787388999424e-01 -6.5568191199326742e-01 -1.1643651542872691e+00 1.3653163778691206e+00 1.7641043826558342e+00 9.6685231402548921e-01 3.2678948607175101e-01 2.9652860113972135e-01 -1.1579691539658681e+00 8.7493249927383243e-01 7.2844661566979485e-01 -1.3970629108922712e+00 -5.4260707392190155e-01 -1.3519669020628671e+00 2.3498957705055132e+00 -1.0571230153275413e+00 1.6080180818917078e+00 8.0286048409923860e-01 -4.8613359627366015e-01 -4.4837316405346850e-01 2.6767166272436094e+00 9.9499057759976040e-01 
        </Neuron>
        <Neuron NSynapses="30">
          9.9795830742952008e-02 5.6347319330362255e-01 -1.3763361541398393e+00 -1.1798919762016973e-01 8.4680332291700389e-01 1.1291202373020144e+00 4.3933175582233275e-01 -2.8538532405988820e-01 1.8739950238162548e+00 -1.8890697375928969e+00 -1.3968756248649346e+00 -3.3774292810379941e-01 1.5951502461971026e-01 1.1734053268590123e+00 1.3844155884486418e+00 -9.6845799611477212e-01 5.1614519771290890e-01 -5.3201725701973879e-01 -8.9880665552524330e-01 -1.2874168672869943e+00 1.0870581608388228e+00 -4.8506877174081905e-02 9.7136125522040262e-01 -2.4317230322769154e-01 1.5473672362705035e+00 -1.2013462135845494e+00 9.7099712668966087e-01 -2.8343762866738903e-01 -4.8468134536275864e-01 -1.6849914702046460e+00 
        </Neuron>
        <Neuron NSynapses="30">
          -1.9821027097168749e+00 2.5209156205022482e-01 -1.2471185608465436e+00 -8.4135117879556498e-01 -7.1455534456446612e-01 8.7354791604105375e-01 -1.3784822241610994e+00 -3.3707049151852932e+00 3.0908828635340413e+00 -1.1251108012713489e+00 -4.6941528727714821e-01 -9.6708663500870573e-01 2.9930411869494291e+00 2.0083304357396221e+00 1.9958692964539528e+00 -1.6423540360320368e+00 -1.9995357865678252e+00 -1.0068411775634212e+00 1.1685781944119369e+00 -1.4355226483142443e+00 5.9747519500110302e-01 -2.2116115103458083e+00 1.9103039087280886e+00 -2.5091546908457016e+00 1.6928256307898701e-01 -3.6979334683820991e-01 -1.6898833391084580e+00 9.1214227548333959e-01 1.7460111403498031e+00 -1.0839120838610838e+00 
        </Neuron>
        <Neuron NSynapses="30">
          -8.0912360295389885e-01 5.8411211139633812e-01 1.0356642212183693e+00 2.3506001064631774e-01 -2.4703079047395884e-01 3.3622782801714372e-02 7.9800617430997811e-01 1.2497438861534281e-01 1.4516831993036752e-01 -2.0192199449343130e-02 1.4361721669121161e-01 6.3108894217792566e-01 -7.3828292448870694e-03 -5.2746289354058151e-01 -1.6100310109609905e+00 -3.2437521629363260e-02 -1.5591823420532830e-01 1.5430073856530166e+00 -2.2169104455282964e+00 1.2892833141501381e+00 -1.7518762956137754e+00 2.3837409815813228e-03 -1.7336830885669847e-02 5.8867507820763946e-04 5.2120848151289777e-02 -1.5113422231473377e+00 1.3628469658997927e-01 5.5353533136461774e-01 -1.8221194976092450e-01 -1.0033272232011428e+00 
        </Neuron>
        <Neuron NSynapses="30">
          -2.6787038933886631e-01 -5.8341369604173764e-02 1.9607329145631560e+00 4.4766891976028800e-01 -9.7070621193235482e-03 2.0555240126709770e-01 -1.5692126061478122e+00 -1.5322697281761100e+00 -5.9681903408180925e-01 -3.2747991276789468e-01 4.4858418606599770e-01 -7.8098490332767645e-01 -2.8673967772888309e+00 1.6003809217526876e+00 -2.2485271776876237e-01 1.0788855796886920e-01 1.5506542683630689e+00 -1.1369978430195566e+00 2.7255312373639833e+00 7.5911773484647893e-01 -9.0970817528298320e-01 -3.5725249328463931e+00 -2.0033255140234061e-03 -3.2216835830320458e+00 -3.7658423789853906e-01 6.0699452536530030e-01 9.7877743865956834e-01 1.1855546625565003e+00 -3.5431922851055910e+00 7.6167774950405587e-01 
        </Neuron>
        <Neuron NSynapses="30">
          -1.9311162784453544e+00 -5.4436470316459551e-01 -1.8254068074888152e+00 -2.8998800328902394e+00 -3.1787977712838318e+00 1.0230424265037230e+00 9.4130789709710327e-01 1.4228760795643689e+00 5.2635410809567684e-01 4.9112492962855381e-01 1.3970720355001118e-01 3.5520575660648268e-01 1.7848330033309010e+00 -1.8225057526270492e+00 3.3665781463255701e-01 -1.5632260747062232e+00 -1.3015111997014563e+00 3.2594741704810004e-01 9.1316275420202664e-01 -1.4399768246043680e+00 7.5927698327948223e-01 2.1771279124368674e+00 -9.3653740639857510e+00 8.2256180699280579e-01 -1.3667365054334080e+00 -1.8106881028355981e+00 -2.0335328809961997e+00 1.4276291806094126e+00 -4.6250280806228294e-01 -5.5445442167808823e-01 
        </Neuron>
      </Layer>
      <Layer Index="1" NNeurons="31">
        <Neuron NSynapses="1">
          -1.2763597904782384e-01 
        </Neuron>
        <Neuron NSynapses="1">
          -8.7403042110440854e-01 
        </Neuron>
        <Neuron NSynapses="1">
          -1.0112625899600194e-01 
        </Neuron>
        <Neuron NSynapses="1">
          -5.4063864687304153e-01 
        </Neuron>
        <Neuron NSynapses="1">
          1.1132483113721436e+00 
        </Neuron>
        <Neuron NSynapses="1">
          1.9850087900303354e-01 
        </Neuron>
        <Neuron NSynapses="1">
          -2.3003996662132625e-01 
        </Neuron>
        <Neuron NSynapses="1">
          -1.9442869320511708e-01 
        </Neuron>
        <Neuron NSynapses="1">
          -2.0897830666810818e-01 
        </Neuron>
        <Neuron NSynapses="1">
          -3.1534762088760815e-01 
        </Neuron>
        <Neuron NSynapses="1">
          8.2191328624259119e-01 
        </Neuron>
        <Neuron NSynapses="1">
          -8.2281571085489080e-01 
        </Neuron>
        <Neuron NSynapses="1">
          -5.5752730225356339e-01 
        </Neuron>
        <Neuron NSynapses="1">
          1.3383109245701068e+00 
        </Neuron>
        <Neuron NSynapses="1">
          8.2503773263660263e-02 
        </Neuron>
        <Neuron NSynapses="1">
          -1.6487145821751970e-01 
        </Neuron>
        <Neuron NSynapses="1">
          -2.4691417108031671e-01 
        </Neuron>
        <Neuron NSynapses="1">
          2.7732523533148390e-01 
        </Neuron>
        <Neuron NSynapses="1">
          9.1086917999389588e-02 
        </Neuron>
        <Neuron NSynapses="1">
          7.6786583392555495e-03 
        </Neuron>
        <Neuron NSynapses="1">
          -7.3592030436782724e-02 
        </Neuron>
        <Neuron NSynapses="1">
          -9.6662735348341033e-01 
        </Neuron>
        <Neuron NSynapses="1">
          -6.8844499027916417e-01 
        </Neuron>
        <Neuron NSynapses="1">
          1.1706335104885195e+00 
        </Neuron>
        <Neuron NSynapses="1">
          1.0865307249907749e-01 
        </Neuron>
        <Neuron NSynapses="1">
          -1.1522294369986756e-01 
        </Neuron>
        <Neuron NSynapses="1">
          6.1952559423041054e-01 
        </Neuron>
        <Neuron NSynapses="1">
          5.5273750390115062e-01 
        </Neuron>
        <Neuron NSynapses="1">
          3.1681840400310368e-01 
        </Neuron>
        <Neuron NSynapses="1">
          -4.0280911239086531e-01 
        </Neuron>
        <Neuron NSynapses="1">
          1.9296959510787057e+00 
        </Neuron>
      </Layer>
      <Layer Index="2" NNeurons="1">
        <Neuron NSynapses="0"/>
      </Layer>
    </Layout>
    <InverseHessian NElements="152881" NRows="391" NCols="391">
      <Row Index="0">
        2.8603154985514497e+01 -2.6840657664858497e+01 -5.2765747939300245e-01 -2.9041069669056448e+01 -1.1250524222824463e+00 4.8876233319536446e+00 -4.9693208988419606e+00 -6.7961367597956732e+00 3.0058967456842720e+00 -9.5241952794348094e+01 3.1666425816043201e+01 -6.7701153654037630e-02 -7.5967961401468609e-01 -9.2723662160252800e+01 -2.9267711278158615e-01 1.7847362217643470e-01 -1.6821020842479997e+00 9.1003841339179541e+00 2.8457788949401412e+00 2.3934701617964485e+01 -1.8354411409230835e+00 4.5103237645085177e-02 -7.4209157059102138e-01 4.4044326679214324e-01 6.3533475991672077e+00 5.6172629953396633e+00 -4.8281418037565508e+01 -1.1995247113063281e+01 -9.6459968405653562e-01 2.9426056853443924e+01 -3.9101653190707758e+01 2.9627990616861553e+01 -2.4873515953209449e+00 6.3011940604301870e+01 1.1834910647513810e+00 -5.6156412631373058e+00 7.6363645816560428e+00 1.0404984870085245e+01 -4.0818105617387737e+00 1.4486640411951146e+02 -6.2134835408029829e+00 1.2100316564503988e+00 1.3532655087885426e+00 1.0717297995725556e+02 3.3077008893150079e+00 -2.0413149530548034e+00 1.1676105932693912e+00 -9.3397712349190840e+00 -4.0348005589624290e+00 -6.5009013229574862e+01 -6.7594001486450850e-01 2.6606313217626820e-01 1.1780778524694706e+00 -7.4031300087895335e-01 -8.2314625144190128e+00 -9.3390485428257772e+00 7.6715031095442015e+01 1.6845095034918696e+01 1.5871138229246515e+00 -4.8549640587910275e+01 -2.3540027414370401e-01 6.8697923793828025e+01 -8.4752916532356459e-01 2.5139765936202743e+01 2.2015750049564731e-01 8.7124824838469062e-01 -2.8187266735528738e-01 2.8336505138047663e-01 -7.6350812697939519e-01 1.0891091227032863e+01 -1.4981500176803166e+01 -3.5808710538550632e+00 3.9006169715624983e-02 -3.8913968987067449e-01 6.8360651177517262e-01 -1.2311271406484317e+00 5.7246198854853048e-02 9.3010619483739809e-01 4.3824197844167601e-01 -2.2510618588485972e+01 -3.2892334876700424e+00 -1.1377702807030532e-01 2.1496023659170210e-01 -2.7032902998307140e-01 -6.2255812494249174e-01 2.9417703023859298e-01 1.3482113579611124e+01 1.1162830218899629e+00 -1.6295451972330843e-01 -1.3679180664868012e+01 -9.8416700149045706e+00 6.1784771307644377e+01 -2.2914323877220522e+00 6.0773788698411849e+01 2.7377071541578091e-01 -1.7249819684232270e+00 2.3825009872227909e-02 1.0228583553915127e+00 -4.4489441806455171e-02 9.6321572821570189e+00 2.6262406015792038e+01 5.6231697049086504e+00 3.9888792131826256e-01 -1.6547878507475616e+01 1.5000028269371573e+00 1.7385578620132307e+00 1.2823902010576460e+00 -8.9215236252643848e-01 -4.0581515379267152e-01 -3.7762626440543045e+01 -5.4767313167413700e-01 3.4543757577371448e-01 3.0711361435902718e-01 -1.2416242563545254e-01 -1.4633637423407686e+00 -1.7293750475466396e-01 -3.8617354284551482e+00 3.2539909158728006e+00 3.0866617625786397e-01 -6.6789808415262115e+00 -2.7458468922139523e+00 -1.9465687473678997e+01 1.4544580744995184e+00 -3.6857403410586414e+01 3.7730067154727154e-01 1.1441793341850435e+00 1.4545850938019811e-01 5.8882316362431075e-01 6.5968867603465120e-01 -1.9815117670557498e+01 -3.3254285877698919e+01 6.2432748752671614e+00 3.9539883410003807e-02 -1.7862834853067909e+01 -1.0609094226905054e+00 3.5170121913622556e+00 6.7879842563223569e-01 -2.1336662121301266e+00 -1.0706698509970991e+00 3.5212332881168678e+01 2.1276664173580215e+00 -2.2865849452684150e-01 -1.3136092786263376e-03 -2.0461295886424868e-01 -1.8732381746132445e+00 -1.6934288592361861e+00 4.7605746983966810e+01 -2.3168748352753710e-01 3.3260265836360769e-02 2.8948530522539954e+01 2.0632276586295262e+01 -5.1827997695847969e+00 1.7424913927233305e+00 -5.9007307444431206e+01 -7.8947733781050355e-01 9.9153111514853620e-01 -2.1252482021649977e+00 -3.5499430049976484e+00 1.6315251688769798e+00 -5.1379669668831951e+01 9.6448005832338861e+00 -4.4686267286137422e+00 -7.9655138680458126e-01 -5.1015332669131155e+00 -1.9733102169426555e+00 -6.9352876432946275e-01 -1.4158548061047729e+00 3.4605979229549337e+00 1.5668866461610935e+00 4.2265540800008182e+01 1.4597695467770810e-01 6.6669909257886406e-02 -4.6716361608234980e-01 2.1204654596117933e-01 4.7278982924975690e+00 3.5544252421817939e+00 -4.8663112543810314e+01 -1.3670240614408081e+01 -1.0048637693156626e+00 5.6986058438676768e-01 -1.3583076806603163e+01 -7.5525778123091115e+01 -3.0953333547429294e+00 6.3755055891953845e+00 3.6301956763637200e-01 -4.3051525379733144e+00 4.7199008372738067e+00 4.3393372569070001e+00 -1.9589962195200767e+00 7.0460571975014005e+01 -3.6502322912172097e+01 -1.5176267068182785e+00 4.0487724999213404e-01 3.6808976238245343e+01 7.0742583157209182e-01 -1.0997325072337292e+00 3.8181325109391379e-01 -2.2232222462474498e+00 -2.4664790904481664e+00 -2.2845413585088835e+01 -2.4222111350799587e+00 -2.0881621657688967e-01 3.0998825785257855e-01 -3.3172168079896630e-01 -3.5286095272143014e+00 -3.2612810983495488e+00 1.8890896105134949e+01 -3.1618026809685267e+00 4.7116290352594747e-01 -1.0553343430564013e+01 -2.0147739345793299e+00 5.2553733276326398e+00 3.6074595736717541e-01 9.9723456249002531e+00 1.4645896264118874e-01 -1.5589026046687895e+00 -2.8379356958943447e-01 -2.0304427870637878e-01 -5.6628507622090818e-01 3.5164892549286169e+00 -1.7873742903108784e+01 7.2196876534813654e+00 2.2287488395306365e-02 8.5063780056310634e+00 -6.3269973066527219e-01 -1.0973940242766553e+00 3.7895827386977038e-01 -2.6991306699868702e+00 -2.0282708673204741e-01 -3.0494407320756807e+00 1.3862664760814880e-01 1.2828711276388766e-03 5.0709360066311861e-02 -3.0082005468461251e-02 -9.6515729413046036e-01 2.5866332667386738e-01 -1.8498445425667427e+00 -9.8498480057161153e-01 2.5992280605615647e-03 3.2325207422025386e+00 8.0717584543111232e-01 5.0296516132985104e+01 -2.6489860673428822e-01 3.2199948471399843e+01 -1.7836550145722196e-01 8.6776776929146093e-01 -2.3877514346457437e-01 -3.6252495283304498e-01 -8.5991963311706854e-01 2.3089775205001892e+01 5.3920811539809392e+00 -3.0614140209180363e+00 1.2646077869284661e-01 9.4001574576073637e+00 -7.2841472789452322e-01 -1.9277407027019653e+00 -7.9184003914203632e-02 4.4545394500757007e-01 -2.5504309369431866e-01 -3.1965974209994709e+01 -9.1166630777884450e-01 -1.4005784321190137e-02 5.9214384990587329e-02 -4.5715485909382604e-02 -1.3729707006968817e-01 4.2824035585062648e-01 -1.1899805790887825e+01 -4.1445673126970917e-01 -2.3259639519786934e-02 -1.3669467223528855e+01 4.2674915289420084e-01 4.9318366730601220e+01 1.4827738504970223e-01 8.9794072110014866e-01 -4.6890554532259127e-03 4.9210989950304784e-01 1.7438339160268806e-01 7.1615120724839887e-02 -1.4498633811516148e-01 -9.2081527110351864e+00 -2.8171818234199826e+01 -2.2328185256136028e+00 9.6972674113851326e-02 4.1989214532091710e+00 8.6432120447192851e-01 2.6289993086097918e-01 -1.1359141904330028e-01 8.6765216167420167e-01 1.1755377948521119e-01 9.7785475493872340e+00 2.1342218931430219e+00 -5.8340698371228988e-02 1.0501622011663270e-02 -8.4352331843255718e-02 -8.1509123988133481e-02 -9.4203973894078830e-01 -3.7873801414870876e+00 2.5916241631983539e-01 -4.9728613990921211e-02 -1.1838523909278393e+01 -2.0506567646344800e-02 4.4757135729254287e+00 -1.9071085946943960e+00 -2.2411454642770829e+00 -4.0298143811214049e-02 -1.5627235936241934e-01 -3.7924847179352117e-01 -2.4986128678032360e-01 1.3354337776843705e-01 7.1730023229820894e+00 -9.4633175146172306e+00 1.3995845537995173e+00 -9.8499628900801772e-02 5.4100454303948169e+00 7.9368497658221404e-02 3.0900935987290856e-01 3.2029244708612681e-02 4.7727967170212970e-01 -4.5003663089982826e-02 1.0238478533992222e+01 3.6002882042743174e+00 -1.7660273977719931e-01 -8.2897161240460052e-03 6.3395155646676110e-02 1.5408159439601124e-01 4.0379989305273589e-02 5.5476417652073167e+00 -4.1186496517485125e+00 -1.6264941833580560e-01 5.9783214588254152e-01 -5.2255878932897151e+00 4.5355920588424397e+00 -6.2679570682474051e-01 6.2880069109474675e+01 -2.4591686874073648e-03 -8.1348693075984180e-01 8.2369859493151854e-01 1.6883784538945712e+00 -9.4941257439097937e-01 6.8943254164865436e+01 -6.7928259591004689e+00 9.8909190766427173e+00 3.9302027330121680e-01 -4.0894114772500643e+01 1.4937052581647245e+00 -5.5095765939577657e-01 3.2175700441716382e-01 -1.3865122800931573e+00 -1.1424520962272249e+00 -5.1580718147688088e+01 1.2318128987561705e+00 9.5132114490672159e-02 5.4464505794514873e-01 -6.0610780236053052e-01 -2.4394152968162590e+00 -1.0831646764660625e+00 6.3338647443740641e+01 -1.9712320003933712e+00 -8.5882514282810574e-02 -6.2943708258417601e+00 -1.3631393987570617e-01 -2.3457313335187894e+01 -4.8799351171818347e-03 -1.1953729236774347e+01 -2.4905257699288919e-02 3.0898209477636007e-01 1.3128679412055277e-01 4.6946070514618188e-02 -8.4077213670240930e-02 -3.4874886632693432e+01 5.5430524529438792e+01 -1.0023247383484970e+01 3.5196110433994260e-02 5.8812571048679430e+01 9.4290108338971779e-02 2.0139528633912321e-01 2.9596404205829874e-02 -3.0966344672929635e-02 -5.2409488130942816e-03 -2.2039047342442664e-02 -1.0134258497199788e-01 4.4675522132861223e-01 -4.9945054981867937e-03 -4.2277812243042501e-01 2.6690583151116359e-02 7.4392879278829982e-02 -5.2925717415703417e+01 5.1484907468124810e+00 -3.4039828487718360e-02 8.2226017011923602e+00 -5.3548701249697963e+01 
      </Row>
      <Row Index="1">
        -2.6840687759670288e+01 1.4731276635785052e+05 -1.2590216218576562e+02 2.1115873474234008e+03 1.0304856447973481e+01 2.6029810663745461e+00 -1.3677303647206031e+01 -8.3971222558416372e+00 1.0954100847691514e+02 4.8497687434923228e+02 1.2065710305786133e+04 2.3289937947171771e+02 -3.9193280867955494e+01 9.1331738570993730e+03 1.1458025459371925e+01 -1.0616823828488641e+02 2.3534554026579844e+01 -1.1235820029496078e+02 1.0354407537855403e+02 4.7133091449521480e+03 2.6053712535850065e+02 -2.2864740431292333e+01 2.7140519644994860e+01 -1.6778368531333641e+01 2.7933764485655480e+01 3.1001828829343111e+01 -2.4021709063035296e+03 2.0615186072606020e+03 -7.0685868731287712e+01 3.2542964702018057e+03 -5.8202248590436483e+01 -1.6829946709652728e+05 -2.0007075592439566e+02 -8.8607498674389103e+02 -1.1517690824174785e+01 -4.0431646770652151e+01 -5.7229249676755956e+00 2.8566904601549680e+01 -1.3793199667926217e+02 6.7781622494213570e+03 -5.1297231206547331e+03 -8.3799183353727051e+02 2.0277086508535636e+01 -1.0778693398735584e+04 7.8375994166954740e+01 4.4715275248967302e+01 -5.6849932400408862e+00 -2.8787219584115917e+01 -1.3154015221629282e+02 -4.9779195603109547e+03 -9.5980026322979143e+01 -6.9386780834274120e+00 -3.4532600799294357e+01 2.3803090937510483e+01 -4.6851110956877037e+01 -3.5303432618784143e+00 4.6383146017594700e+03 -3.5141783374575039e+03 5.2332770693124047e+01 -3.3756010128724906e+03 -8.0355008917967268e+01 6.5428752608480427e+03 6.0976082462207103e+01 6.7108126003444909e+02 -1.0168373410856498e+01 -5.3418428269586805e+01 2.2427802086725080e+01 1.0376432035678942e+01 6.2948953490329780e+00 4.7940022041752363e+03 8.6593207351433339e+03 -5.5738190880430773e+02 -2.1205925086361120e+01 1.1421808797671099e+03 9.5630258956022914e+01 -6.8459815331932447e+01 3.9118227151080049e+01 -5.4352449068313170e+01 -5.4339385164829260e+01 9.0400139653180179e+02 1.4668561522636213e+02 -1.4598453450886694e+01 1.0909351445958817e+00 5.5350240976527925e+00 -9.3104431903948068e+00 2.8655377435407267e+01 1.5613937128734517e+03 7.5881238747665839e+02 -2.7847922695915805e-01 -1.3435142977557339e+03 -8.1205095572844002e+01 -2.0747840847746033e+04 9.3817092536603226e+01 -7.1960490186446896e+02 9.6462418957773934e+00 -4.0452917232427851e+01 3.6518144877082392e+01 2.5215790961402185e+01 -2.2608645344041470e+01 5.0868980035898403e+03 -2.3492626701038327e+04 -7.1285990846436800e+02 4.5361395721678207e+01 2.0410562796030536e+02 2.4291898455535159e+02 1.6272581358964516e+01 -1.8202535445012128e+01 -3.0787228435339046e+01 -8.9530866035660509e+01 2.1285232746971428e+02 6.2516708069905258e+02 -1.7195072594884053e+01 8.9099500266355349e+00 1.4808523706107636e+01 -3.8502850561328017e+01 -4.3152288831479098e+00 1.6058853360592921e+03 1.5558985536676923e+02 6.8930623697927132e+01 -1.4879224071766521e+03 1.9381171816888784e+01 -1.0594484237009476e+04 -2.4938700443323955e+02 1.1342772300360627e+02 4.1061448414585847e+01 1.0564772247956256e+01 -3.2770421042440830e+01 -3.2478645698380589e+01 -3.6455656074465878e+01 7.1395964257027008e+03 -1.7408836327116167e+03 -5.5874336567077444e+02 2.5187721559601634e+01 -7.7757715919150360e+02 1.6407005811762474e+00 1.4021593750253521e+02 -3.0421827637658680e+01 1.5450928285569020e+01 5.4161371875564726e+00 2.5786596999386975e+03 -3.3820231320944333e+02 3.6150095167747665e+01 -6.2796793978173469e+00 1.6739176523404268e+01 1.4866006076564727e+01 -3.7743991532637040e+01 -2.2119127070287559e+03 -7.7720550191440088e+02 4.6733164380232722e+01 9.5554611561822230e+02 3.1783012831566509e+01 8.7931513473753716e+04 -4.0064887361003520e+02 6.5744395048139631e+02 1.5159500815610258e+01 1.3852174969615987e+01 -6.5745282163610767e+01 -2.1418782849619809e+01 5.8049483427863791e+01 -7.2294997685712651e+03 2.2191861748271538e+04 9.9017804187057015e+02 -3.5199446757599333e+01 3.6207579768200158e+03 -2.4451015366514775e+02 -7.6638093153714308e+00 2.0264820970130785e+01 1.0110527216586217e+02 1.4638720232966645e+02 -1.2960716063770502e+04 -6.1463145281376205e+02 -1.0591251823316160e+01 1.5623271452003245e+00 -2.0075042170295493e+01 4.0482238673210134e+01 -5.0114091935083799e+01 8.1978551816857771e+02 5.0122810616138622e+02 -5.0730699090116296e+01 8.1562109244530703e+01 -5.8935530289271682e+01 -4.5176885238850176e+04 -2.5329281791730500e+02 -2.8248454676825868e+03 9.2807206719307480e+00 -7.2493368806590837e+01 -5.9912877968567301e+01 3.2705063120251822e+01 -2.9964883204754550e+01 4.0313165932129828e+03 1.3344407812633958e+03 3.2693637448717595e+02 2.1092459998714070e+01 -2.5513786760250132e+03 -2.4418434330195055e+01 5.8438801823163736e+01 8.2199685719597912e+00 -1.2016159672021779e+02 -2.1217364844711007e+01 -2.5351392855952919e+04 1.9809558465654028e+01 -1.5743810364137740e+00 -1.1139198664080521e+01 -1.4803065616911175e+01 1.0150727311445188e+01 -5.9106868762728524e+01 4.8534456163671612e+03 -2.8003993421129385e+03 4.4211915956372522e+01 1.0241006896426502e+03 -3.8628582085498309e+01 1.2699561245708424e+04 1.7709562492933432e+02 -1.7964342730267631e+03 1.5061691639943531e-01 1.6842425642015112e+01 -7.8272169470049931e+01 1.3695131831504835e+01 -1.8937901073848629e+00 -4.1930228489011677e+02 2.0821399600837790e+03 5.5368091397951184e+02 1.4718145144393624e+00 -9.5950600272099382e+02 -5.9807553995095617e+01 6.8138754312886327e+00 3.3458794321955825e+00 -1.3485792975929473e+02 -1.6917653730915454e+01 -2.1622846800699508e+03 4.8216597355009007e+01 -8.0862850396209129e-01 -8.2892563088567683e-01 5.8898222831925260e+00 -5.3528096192346704e+00 -1.6953785083278001e+00 1.1923811884922345e+03 6.6340933533897828e+02 1.8536800830743616e+01 -3.9331754197171642e+02 -4.3265494181096074e+00 7.5796135128865408e+03 1.9592694032209451e+02 6.7725895961703736e+02 -7.3974925668103229e+00 -4.9148684689201332e+01 -7.3421805343678201e+00 2.9923707733487277e+01 2.1563715862947664e+01 -1.2372781486606399e+02 3.1809215827599951e+03 -2.1009106241969576e+02 -1.6488193080417030e+01 1.4473449026511757e+03 -4.8053335657886201e+01 -4.1656829346513341e+01 1.1077816739715203e+01 1.4637937574227935e+01 -5.7805388265732844e+00 -1.7823664267353583e+03 1.5577710446596743e+02 -6.4203968512953402e+00 -1.2610106993624537e+00 8.0023517466880492e+00 -1.1234687306505631e+00 8.7791085606843211e-01 5.4009792621181887e+03 1.9172826447543462e+03 9.1767873299520772e+00 -1.1897817619777298e+02 -2.5908920213269941e+00 -2.4066286862469420e+04 -1.5804787326496060e+02 2.6368569345385566e+01 -2.4611188029294234e-01 -2.4341498718961958e+01 1.0800969834741414e+01 -3.1893212923978584e+00 -3.0870169347418375e-03 3.9594227365610760e+02 1.5067076783428399e+03 1.2547180984484596e+02 -3.8541548441191420e-01 1.0528685443892959e+03 2.8061228972839189e+01 -5.5027007816652542e+00 3.6801374498045627e+00 -1.2280850720265880e+02 -8.4767754008751481e+00 -1.1816775319636287e+02 1.9293175510447497e+02 -1.3133240542659863e+00 -8.0066475590683250e-02 -1.2889676176215570e+00 3.7529210739830106e+00 2.8588665135641456e+01 -7.3716403417122172e+02 2.2524753451729833e+02 3.3225042423908011e+00 -6.4277395758333159e+02 7.2540336139008676e-02 1.4644480222427489e+03 -1.0927281325028974e+02 -4.5414951254572060e+02 -9.9129827705539997e-01 -2.1347268169764725e+01 -1.9174751167202530e+01 1.1316291108937600e+01 -1.0967255594193780e+01 1.1910066037705371e+03 1.0604104440971028e+04 -2.1613534717168599e+02 1.9597360921461743e+01 2.6069076341462292e+03 1.1652224438619129e+01 -6.8081215229914456e+00 -4.8820101830084468e+00 -2.3991410940830637e+01 2.0687702486293581e+01 -8.1508845493158077e+01 1.2708626765392376e+02 1.6391798824280606e+01 -4.1739497841430273e-02 3.9709878041897135e+00 8.8858042722063146e-01 -8.1137920042583147e+00 1.4127124420824730e+03 5.0418320599672325e+02 4.5642938200382318e+01 2.0501724223625383e+03 -2.2165798448479063e+02 2.5088120038657711e+04 -2.3140904403247185e+02 -1.7363872305089812e+03 4.0129403771155353e+01 -1.7160942283245575e+02 -1.1495904021055182e+02 2.7845408810659777e+01 1.7753491663846503e+00 1.0984047028876353e+03 1.2552686118425581e+04 -1.5059751906876882e+03 -2.1773074160954589e+01 7.9862627644717140e+03 1.2229311957280723e+02 1.0429277057769440e+01 2.5866547209088033e+01 -3.2949570293542172e+02 -3.9931965598390100e+01 -1.5324113344267911e+04 5.1742956844669379e+02 -2.0351351420553712e+01 -2.3128919806302974e+00 2.6000299080139619e+01 -6.9152268416618767e+00 -3.7103172608226799e+01 -1.6727262834633839e+03 -1.0767380192066851e+03 2.6285465007677388e+01 2.2286919923668706e+03 1.1503706903975675e+00 4.0234935674545661e+04 -1.2631219776472259e+01 1.6616081766632749e+02 1.3688437225912224e+01 -8.9936920554225139e+00 1.6863028279236687e+00 -1.5369106307052154e+00 1.7626210299835594e+00 9.0155865914246151e+03 -1.0616890746567075e+04 2.6333695887654735e+03 -9.7347343199725600e+00 -2.3711259336815056e+04 1.8365112313113485e+00 7.5121486015069525e+00 -2.7611146519128331e+00 1.6112290285557265e+00 -1.0816461188424853e-01 -2.9257655960870238e+01 -8.6033828858820129e+00 -4.0203933822474845e+01 1.4937783061155492e+00 4.1324412363614101e+01 -1.7476418471975830e+00 -2.6827136474867830e+00 1.1558429030720603e+04 -2.8388048166590879e+03 6.9445998776586748e+00 1.0140591168280823e+03 2.9016562485446939e+04 
      </Row>
      <Row Index="2">
        -5.2765714714311818e-01 -1.2590233851398091e+02 1.2846127856267930e+02 2.6506781133289412e+01 -2.1050698871644653e+00 8.3370400900207624e+00 -8.6050405018436145e+00 -4.0970585818396206e+00 3.2600240154174891e+00 -7.2529005639012809e+01 1.1163513323033165e+02 -2.0587263146886157e+00 4.5099741692131090e-01 5.5221908704817366e+01 -1.9771179405236531e+01 -6.2490527351339420e+00 -1.1534395270331006e+00 -2.8126520415211713e+00 1.4551887601386937e+01 6.6367874152810725e+02 -6.1597899997603633e+00 -2.3061688471857666e-01 1.4193311985302346e+00 1.6314016580653351e-01 -2.7499805501913199e-01 -1.3106647486599665e+00 -2.3413222155619824e+01 -9.9610286590069386e+00 1.4851605651288242e+00 -2.1082757884557623e+01 -9.1026793436508291e-01 -1.1697997714019630e+02 -1.3124167808995827e+02 -7.9297191404631832e+01 3.2669533923050382e+00 -8.3687256450709473e+00 1.6561090205588464e+01 7.2864347886877612e+00 -5.9381462029561032e+00 4.9445492976292826e+01 -1.3256090875698604e+02 1.0285787271361935e+01 -3.1455564373586514e-02 -4.5161626881252914e+01 3.0832091140535137e+01 1.1251383958941798e+01 -1.1433434066301038e+00 7.2662165370558824e+00 -2.2973683912633096e+01 -7.1438272907662486e+02 2.1109272039631151e+00 -1.5340016995232775e+00 -1.7330354733662137e+00 -9.3601957670932379e-01 -1.3135764480405303e+00 1.3791033055984823e+00 -2.9693330697166289e+01 7.3647488941677182e+00 -5.5626109481079133e-01 1.7192182426496093e+01 1.2735721567473028e+00 1.1332381508217249e+02 4.0015889463256542e+00 -6.7591575968837134e+01 -6.9378000916050864e-01 -1.9308300134535200e-01 4.6359220079513452e+00 2.7349445688709562e-02 1.5504933022098738e-01 -5.4106641909997023e+01 -2.7215631576883183e+01 1.7021494736791720e+01 4.7023126129583126e-01 3.0169637221164201e+01 4.9867158745299154e+00 1.2168293768807017e+00 -1.7779372152067017e+00 5.4345717380979153e-01 -1.2079852325997849e+00 -6.2076572747496627e+01 1.4180046978124761e+00 -8.8670435961054617e-02 -3.6449969975571428e-01 4.9476412008227072e-01 -1.7426996111780868e-01 8.9051692384329106e-01 -5.5335033277194292e+01 -1.8421323579426954e+01 1.4024950861456826e+00 -1.3711616417097261e+00 -7.3308905511343081e-01 1.0412559310018412e+02 -2.5450909860750400e+01 -6.2456769642204222e+00 7.5459041657069248e-01 -6.6722323879056500e-01 1.3803729084877023e+00 4.0498150503144847e-01 -6.7807138056025873e-01 -1.8961005477950238e+01 1.3968247723286112e+02 -4.7476928776185190e-01 -5.4777480069883611e-01 8.5378540613460245e+00 3.8162754821547615e+00 8.6344950869201109e-01 8.3821586302816231e-01 3.3746709706064024e+00 -5.6411134142709400e+00 -3.7637491362421841e+01 -8.4610775030688359e+00 -1.1342298661027046e+00 -1.9684782856891614e-01 1.4583578177773349e-01 -6.1913470436624962e-01 8.9423544631095542e-01 -1.4350115901624378e+01 8.1500370463784684e+00 -3.4601491636515025e-01 -4.0460276382910791e+00 1.8171791846997776e-01 1.8275601761294737e+02 -3.0197569483097826e+01 2.0504158176788053e+01 3.6705425669198366e-01 -4.6233598599616670e+00 -7.9909275995808215e-01 5.7950519450112803e-01 -2.5314471931586091e+00 4.7997439137808051e+01 -5.6487812522757814e+01 -1.5558887600479743e-01 -1.3002658752532259e-01 -2.8538234440560913e+01 -2.9361433884658261e-01 3.4860202254167849e-01 2.4772786955410826e+00 -3.1316622793250186e+00 -7.9611483362972990e-01 -2.6689798575526856e+02 9.6300684103555199e+00 9.2608044116587696e-01 2.3757778932116169e-02 3.6467941176761776e-01 5.7617709502378744e-01 2.2772171908332250e-01 -8.2915496143135101e+01 2.0428311288221991e+01 -3.2989924049299368e-01 -5.6092240144268892e+01 2.8525676518028487e+00 2.6823987188104559e+02 7.4754486867458667e+01 8.3302610460376698e+01 -2.7959207275742815e-01 6.7136714713258527e+00 -8.8954411697476168e+00 -2.9299928850362766e+00 2.8423120397622190e+00 2.2890291659343340e+01 2.0038647993468416e+01 -8.5341606836292385e+00 1.3149437730320646e-01 5.7862277028770137e+00 -1.3528356236754849e+01 -5.2574372984254438e+00 6.0617082297836689e-02 -5.9076923241771429e+00 1.1031176770855236e+01 1.5900093266661611e+02 1.0575994953802578e+01 4.6612763024737447e-01 9.4294253167488318e-01 3.4310042039418542e-01 6.1133902776223525e-01 -1.2016428562478132e+00 7.0116075472007324e+01 1.9504488325239301e+01 2.9823287836729440e-01 1.9800993664692861e+01 -1.4313109734659339e+00 -4.7078197516185901e+02 -2.9175623819671390e+01 4.0163690704196227e+01 -2.8195015537271073e-01 1.6510044922856624e+00 4.0335232966549279e+00 2.7909477937555200e+00 -2.4206218740736665e+00 -6.0577497695478499e+01 -2.0935608544143213e+02 -7.0585814548152150e+00 1.5223864244507057e-02 -1.5729323750467543e+01 1.3134416034753183e+01 4.3437690394361859e+00 -4.2848437318071925e-01 1.7460811134871150e+00 -7.7468005788834287e+00 -3.0373219892928631e+01 -9.5514462698503415e+00 -6.3175841271280664e-01 -1.0333871277710993e+00 -1.1935884729824722e+00 1.0165586789373799e+00 1.4644731533562281e+00 4.7725416233626540e+01 3.6493896078457347e+01 -1.3851690004954880e+00 1.7441713546686664e+01 -1.3689127660218094e+00 4.3487978037660923e+01 -2.5281040065480653e+01 -1.5376486826946092e+00 -2.0925436454503021e-01 -6.0412255030760287e+00 -1.4613339714537581e+00 3.4733387685952472e-01 1.8472829363235521e-01 -6.0948764148573304e+01 -4.9572948439863524e+01 -2.9761963115239848e+01 1.0938673717923608e-01 -8.9744906012645629e+00 -2.9308578729854862e-01 -9.7603547773913135e-01 4.9949243099732099e-01 -8.5282565708891660e+00 -5.5381098194886524e-01 -1.3133319591638647e+02 1.2541830712746702e+01 -2.6371490517538010e-03 -1.0389450041198131e-01 2.7683227139157351e-01 7.3836480387351300e-01 3.8557668989952631e-01 -2.4850592900028857e+01 4.0383551909963344e+00 3.0036255891285313e-01 2.9240577431735701e+00 -3.3880074812698036e-01 8.5449790461446000e+01 -1.2183542598251515e+01 -5.3839307949773684e+01 9.2852807128706027e-03 -2.8272781245510759e+00 -3.0152082489742194e-01 -5.7527798721213630e-01 9.2752884864103047e-01 -2.9712404783697266e+01 6.6333319992679435e+01 6.0273997425789592e+00 -3.3172003379665993e-01 2.5291721105028842e+01 5.6284508713888037e-01 1.1089861829035823e+00 -7.4038690896950154e-01 -1.2637887984505243e+00 3.5785152843438439e-01 -4.2224326636425118e+01 3.2144945917554324e+00 -1.5598499227218626e-01 -7.5277374922527895e-02 2.1177761597519343e-01 8.0657586999545727e-02 -3.6115169213975662e-01 1.2544654747563504e+02 -9.3885829850043478e+00 -1.3960552085124986e-01 -3.6706580541895377e+00 -8.4929406289440887e-02 1.6538029822202842e+02 5.3014285950270992e+00 5.6435827351012877e+00 5.9150447907149017e-02 1.7102782580455755e+00 -1.2766636670076992e-01 2.1856749531897757e-02 3.4806695860341441e-01 3.0723599873655804e+01 6.3720783999173364e+01 2.6003940354499755e-01 4.0175851751845931e-03 -1.1487162987461460e+01 8.5039673682431705e-02 1.6317265521634111e-01 1.9042403742356528e-01 3.4681043966302241e+00 2.4698434900070607e-02 -4.8263717039180314e+01 -1.2851880769437773e+01 -2.9541869703841418e-02 -8.1069286122348316e-04 -3.6960112958118074e-02 -2.5314678756610598e-01 -6.1017136341737477e-01 6.9520470220372133e+00 -5.5257893899273824e-02 2.2444655798229629e-02 -8.2664747864213695e+00 1.7775169974719840e-01 -2.6155612753801671e+02 1.0634129162649618e+01 1.9049841481001906e+01 9.5973952290454786e-03 1.9965462731685819e+00 -2.1387649577354235e+00 -4.3744685996991173e-01 6.0101557434779407e-02 1.8032255022078402e+01 -3.6763469240680607e+01 -3.4646749423908152e-01 4.0451773835018556e-01 8.7126026285454401e+00 -5.4207597969407928e-01 3.3464688745778393e-01 4.7295115344308680e-01 -1.1167943392320105e+00 8.7304011897368472e-02 2.4422797298272751e+01 -7.2203556659164008e+00 5.8473961526550533e-01 -1.9642533047897606e-02 5.8971562472383283e-02 -2.9203747777334099e-01 -1.5834651533033273e-01 7.1681111733174419e+00 -4.0810016895875719e+01 7.3507244530585369e-01 -1.4227007684275151e+01 2.6340801247101719e-01 2.0483007135095795e+02 -2.7646313052113761e+01 -1.3866812711881408e+01 7.8250837566129294e-01 -2.6701499582313737e+00 3.9170826751651866e+00 1.5167384527965244e+00 -1.8749017399451775e+00 3.7527944425423073e+01 1.2838573288742168e+01 -1.5719685745136587e+01 7.3354154601922517e-02 2.3281855584494679e+01 6.3257705466759120e+00 2.7194259561390801e+00 -5.1136335842652336e-01 -3.3110918866206376e+00 -5.5170282746221684e+00 -2.8411672826372683e+02 -3.0574088838596651e+00 -9.9814620296942513e-01 -9.2606753727891511e-02 6.1870083812958931e-01 3.7705004853389390e-01 9.1713347147101976e-01 3.4841571049059510e+01 -3.1791621102855856e+01 1.3745740443664598e+00 -6.1886944328860054e+01 1.1427772405961989e-02 5.1347979948754885e-01 5.5621012023113336e-01 4.6500896953679991e+00 6.9719518607842690e-01 6.9312790274839675e-01 3.3512260603705424e-01 7.0798860161941507e-02 1.7654061391978648e-01 -4.6453090132083553e+01 1.0057239405941135e+02 -8.0128304320308033e+00 -1.2265613910023893e-01 -8.5778893658173956e+01 -1.4872813604020985e-02 -3.7429937034206384e-02 3.3616736659091206e-02 -4.3086681060523602e-01 4.9459928537742837e-03 1.0979991234082322e+00 5.5054632571288620e-01 -1.2648747500761581e+00 -1.3712058155014917e-02 1.2199521481753877e+00 -6.4717040825877523e-02 5.3216402781573025e-02 2.3414050898647751e+01 -1.7921420643139591e+01 1.9636534118015447e-01 3.3645138036269095e-01 -8.3597294646625528e+01 
      </Row>
      <Row Index="3">
        -2.9041066990851164e+01 2.1115865187722411e+03 2.6506786861890660e+01 3.3118134941104158e+03 5.1966744443302009e+00 5.5827760554405588e+00 -1.0263234455296763e+01 -6.5197955380325903e+00 5.9357089108900247e+00 1.7256842683521691e+03 -1.5497453019693899e+02 -1.2067671712431137e+02 6.6169795367669515e-01 -1.0610080411507703e+02 3.9662295917651740e+00 -1.1058292508167540e+01 6.8032663461831842e+00 -3.2406005200284206e+01 5.4317258153543522e+00 1.5154218628542510e+03 5.3718946551695531e+01 4.7696184612895838e+00 5.7848743837279120e+00 4.3343414746811471e+00 -1.3109167079306213e+01 1.8754210554932413e+00 1.4884156332475752e+03 2.7932584169704853e+02 -6.7806793295204688e+00 -1.9005510601472190e+02 1.9156585817948564e+01 1.0876490745465635e+03 -4.7704408473038498e+01 -4.6128849195374451e+03 -5.0080502795837738e+00 -5.4607582916539315e+00 2.0266551478754579e+01 9.6455277594871589e+00 -1.5247884570767862e+00 -2.5769313911991576e+03 6.1933772026002703e+02 1.4843026931017113e+02 2.9462350948001448e+00 6.4122965954256506e+02 -1.2746920103384163e+00 1.2621956526076406e+01 -3.8870416139042119e+00 -4.0770750431022531e+00 -2.5567041247069511e+01 -2.1139231500443511e+03 -6.0140018339006303e+01 -4.8860925917599811e+00 -1.0531752708198466e+01 -5.4184333017773767e-01 2.4494899582099059e+01 -1.2202456526678802e+01 -2.3462514756561109e+03 -5.1529301534086812e+02 1.4135378833083831e+01 2.6454757990300573e+02 -3.8247319277141285e+00 7.4775653960125192e+02 -7.5326885907969121e-01 -8.4093038021311304e+02 5.1921161857583664e+00 -5.6181718211508125e+00 2.1742246870197533e+01 2.8546305701747974e+00 4.7995777111271298e+00 -3.5128392966088148e+02 1.3932183105243748e+03 9.2963108780511931e+01 1.0139019948036789e+00 3.8833106365865979e+02 2.3356950761151118e+00 -1.9076173425049738e+01 2.4352610880658530e+00 -3.9056870275657516e+01 -1.2092867774060343e+01 -1.4536733742856670e+03 -1.4399802295592565e+01 6.7836769025791110e-03 4.2810370181440305e-01 2.1680292172698254e+00 -5.4040907018284017e+00 3.1607508453784314e+00 -4.8132334300426396e+02 -1.5387363769212902e+02 4.7635906176173233e+00 5.5000943262144965e+01 -1.1962374817692137e+01 3.4290235811844155e+02 6.3203307382288926e+01 -1.3972019799669586e+03 -3.9922391670733592e+00 -9.5262871155825835e+00 1.7090127724960350e+01 9.4510822105566072e-01 -3.4487803561150883e+00 -2.9146931010093692e+02 1.9543480390498939e+02 -9.3972543122463833e+01 9.0119963158480509e-01 2.6509370558473961e+02 6.7476098144904286e+00 -6.2496750871253184e+00 -3.6263528979781210e+00 -1.2374549494702158e+01 4.2714258135617218e+00 4.8537835554406718e+02 8.9110229923698974e+00 -4.0862591023643908e+00 -3.4458374374067420e+00 -3.0457430618006573e+00 1.1014457709351062e+01 -5.4172058686527507e+00 -6.5545174987481550e+02 -4.9639528390753213e+01 -2.5581895283812237e+00 -7.6608594025538252e+00 -7.2679474456593773e+00 -1.6014289550175690e+03 -1.4468690046960830e-01 1.6243934668475442e+03 -9.3848268783946036e+00 -1.6350472555596163e+01 1.0712508620373491e+00 -7.1487931035055192e+00 -8.8208115255124113e+00 4.7644745523597953e+02 2.3891093146208127e+03 -3.8751645271814525e+01 2.6989308841910082e+00 -6.2476450356210671e+02 5.1934550340468917e+00 3.6718703480175542e+01 -9.8576168543094553e+00 1.5856290232808947e+01 3.1117003946567550e+01 -1.8384873089664052e+02 7.6905627506149585e+00 -4.1571614434957027e+00 -2.0297092788298130e+00 -4.4961461860589891e+00 8.5693080471719334e+00 1.6005817312926062e+01 1.6184047749247766e+03 8.4348259454465392e+01 -3.0325968084566668e-01 -2.0688093840422994e+01 2.4295808451295358e+00 -2.2864158451790536e+03 -2.6687261942495041e+01 3.3857415203436030e+03 -6.6321588505036235e+00 1.8756231597840632e+01 -3.7849526395101897e+01 -6.2380535083884947e+00 5.1872720390041458e+00 6.7790279415311659e+02 -1.0704337951078119e+03 -1.0461031105657321e+02 -5.9943282961277333e-01 -1.1113009087207436e+02 -1.4559362865609053e+01 1.0418847493602360e+01 7.9115150181971821e+00 1.4649679603861429e+01 2.7020634603931772e+00 1.4952811465887312e+03 1.9288371345059119e+00 1.8110434222962142e+00 5.0156809863893006e+00 2.0999137145919526e+00 -4.0258024032258781e+00 3.3891143867819906e+00 4.4730858185730466e+02 1.5559841625910656e+02 -3.3973664469181011e+00 -1.3175833390542428e+02 1.8335834296093687e+01 3.7838187813691693e+03 -1.2181030899163593e+01 -1.4337349097173335e+03 1.0540845078604157e+01 -2.9303881296144976e+00 1.2508012203564576e+00 3.1658784026456237e+00 6.8276352898171488e-01 -9.6369365931951870e+02 1.2807963765690608e+03 3.7687212386855606e+01 2.5858843987161486e+00 4.0096845175107705e+02 -5.4688358673958986e+00 1.2941925823086406e+00 -4.4483185994012997e+00 -4.9091489927721703e+00 -9.6457868389527501e+00 -1.1438212607023070e+03 -6.9011118257993260e+00 1.2416861748004715e+00 -1.6538482558474303e+00 1.5262534644743007e+00 1.8038090077494630e+01 -7.3582294884331523e+00 -1.6713132339905708e+03 -2.0659526294463376e+02 9.8594409656647422e+00 3.2771314822033034e+01 9.5203574879375736e+00 6.1266620467186340e+02 -2.0372449041835164e+01 7.1870146932595986e+01 2.1589166644443827e+00 -9.7322328305284280e+00 2.3262194988849100e+01 -1.3836065481702349e+00 -1.0349835909394054e+00 -7.7058434327274398e+01 7.8317597026920430e+02 -3.3343429180672581e+02 5.8100195212202621e-01 5.9872832117820940e+02 -7.0580266091381292e+00 3.2871490900245002e+00 -4.5224112852082374e+00 4.3343098207890009e+01 7.7284867993699731e+00 -1.0239201819374684e+03 -1.1951378625253957e+01 -1.0448646458212218e+00 7.4237675121028390e-01 -4.2814428301418261e-01 -3.4258537870681991e+00 3.3995596557686678e+00 -2.0803443352126251e+02 1.1582133915773214e+01 -7.5806546804285913e-01 1.0736294689075393e+01 1.1415807050225935e-01 1.3639324888510939e+03 -9.2277271452710394e+00 -1.5549568471912855e+03 -2.5279644579645866e-01 -8.5617412148451280e+00 7.8331198394565327e-01 2.6483950965198400e+00 2.2161592075694614e+00 -5.7902471805138646e+02 -6.4137788077805772e+02 -3.1782949658652001e+01 -1.1016551556034120e+00 6.9652581490200669e+02 2.6554141916775955e+00 -5.9254719086646688e+00 -1.7437921584502096e+00 -3.4521634260443001e+01 -1.6184616641041041e+00 -1.7379398618621528e+02 2.5754599803111269e+01 1.9287210277007907e-01 -2.5741293685285355e-01 8.1316173840919792e-01 -4.8423140571218291e+00 -4.4578896842129350e+00 4.4655879663628713e+02 7.0372594241646411e+01 8.5503459577054164e-01 1.0381458948835734e+02 1.0248379972756805e+00 -2.0789301156020147e+03 9.3985445278231055e+00 -7.2063612158039234e+02 -1.6359509262368392e+00 -9.0786572804728305e+00 1.8207024478900378e+00 -5.3957630406386858e-01 -9.6518782506194067e-01 4.4073390170141369e+02 4.6633398394529962e+02 8.8473866951455904e+01 -1.1984707757877607e-01 9.0721787506252880e+01 -6.4892987737202867e-04 1.7318519309543379e+00 -1.1882786012592130e+00 -1.3687735585524933e+01 -1.1843239439552031e+00 5.2615047052132795e+01 7.5818502928483127e+01 1.9323139707304426e-01 -6.6791893095071470e-02 3.0990754623610428e-01 -4.2854864351285382e-01 5.0772074655809343e+00 1.7202333617468409e+02 5.2523278036633180e+01 -1.0312337079548550e-01 7.2508336358908053e+01 -2.1551688164303617e-01 3.3239132709161208e+02 1.8708126596304421e+01 6.8181853722217011e+02 -1.6376711629905549e-01 -1.3117612904362108e+00 3.5011759088923267e+00 1.4058434119635423e+00 1.0674339525896457e+00 9.2068544106970762e+00 1.1019125770078049e+03 -5.9395695313560424e+01 2.2922408869863222e+00 5.0692492216327150e+02 1.8767528384411865e+00 4.3597869568153369e-01 -5.5741055191512345e-01 -9.5576497624495040e+00 -1.6158928137407136e+00 -3.0745616385048656e+01 -2.1362055202611245e+01 1.7269878160416317e+00 -6.0518159200651386e-02 5.0908510165681720e-01 7.7642073324066574e-01 -3.4907088174616216e+00 1.0370977294173559e+02 6.0344464541096954e+01 1.7817675828970914e-01 -4.2757795678360949e+01 -1.8087103455722520e+01 2.1669988735279439e+03 -3.1905866926602549e+01 -1.2025717407377037e+03 -8.6826810433377943e+00 -2.4313739452509409e+01 3.6083484982464213e+01 -6.2243889208619443e+00 1.9283984151597280e+00 -2.9903898548349262e+03 3.5415093764700459e+03 -4.1079627933352884e+02 5.5789871720446449e+00 1.0451967790376330e+01 -1.6908679121245083e+00 1.7901908578709012e+01 -5.9248679474320554e+00 -5.3719886805493360e+00 9.5699806301273540e+00 -1.8229066356087610e+03 1.3213014013159096e+01 -4.5141918977879865e+00 -3.6784131978853480e+00 9.9962915381849138e-01 1.4231452875372966e+01 6.8452836821234655e+00 -7.9377316363812793e+02 -5.9297861566545862e+01 6.2294229986178369e+00 3.9560845960970710e+01 2.5126642479433237e-01 -8.9291097745267723e+02 7.8122886940344916e-01 3.3661938424522958e+02 -7.8767303336654635e+00 2.0223494632697907e+00 -1.6551745965068676e-01 -2.1387659953363419e-01 -1.3920356512940024e-01 1.3647026255328583e+03 7.0178520294794635e+02 2.5216757867688153e+02 -6.2523680828785722e-01 6.2319588191425578e+02 -2.6579900571060699e-01 -3.7306725025811271e-01 -2.9045075040933899e-01 -2.9923696620975626e+00 -1.9203428440133230e-01 -4.9861627211050816e+00 -1.3613784451576834e+00 -3.2187988844480921e+00 1.8386229966258724e-01 3.4534600002750793e+00 5.0412407467043652e-01 -3.6874221697771836e-01 1.4198819642244489e+03 -1.0436409979623045e+02 -6.7923388253007033e-02 -1.3998084332649597e+01 -7.2641395765616858e+02 
      </Row>
      <Row Index="4">
        -1.1250524472745802e+00 1.0304873671805794e+01 -2.1050699151918844e+00 5.1966738701448243e+00 3.5795264609869824e+00 -2.4792319149781161e-01 -7.3601673790531041e-01 -1.8453005064594130e-02 5.3964776940737202e-01 6.8614439991375633e+00 1.0058653157823267e+01 -1.1244408542757449e+00 5.4566802395145775e-02 4.7369601422080745e+00 2.6575476144222709e-01 1.7231684996770740e+00 -3.8410460378861644e-02 -1.0860291476398503e+00 6.9708907814786247e-01 6.2555060662113595e+00 -4.9144003610995041e-01 1.4978855748658121e-01 9.8277353734614414e-01 -6.6774720651430197e-03 2.0002444962288237e+00 1.3269720209408855e+00 3.5681819878271623e+00 1.8596445934261299e+00 -5.8372684660987706e-01 -1.9313800928783280e+00 1.3732858088508240e+00 -4.0924074294950600e+01 2.5444910730737442e+00 -5.1651375342428825e+00 -3.9677311827173996e+00 4.8879419262712265e-01 5.1885246236465754e-01 4.0693943764153906e-01 -5.7924732293406311e-01 5.8278539391642425e-01 -2.2266090781657766e+01 1.7819543673421983e+00 -2.7234696984585322e-01 -8.8376786455119145e+00 -1.5817149451392831e+00 -1.5247232110784403e+00 4.7687197424456712e-01 1.9611188305297276e+00 -1.3223117564471671e+00 -1.7937725016879000e+01 1.0095411017578471e+00 -1.1701952909730196e-01 -1.3301940715530016e+00 2.8219098151809002e-01 -2.0998048407902603e+00 -1.4914262305024404e+00 -4.9002752751477345e+00 2.2304101860143155e+00 7.5373956334613990e-01 6.2025029805626568e+00 3.3230819259736233e-01 -1.8613728268420250e+01 -8.6810013191625979e-01 2.4590646818612711e+00 -1.1783348340711639e-02 -4.7686324534213925e-01 -1.1608499359542002e-01 2.8601870611960895e-01 -1.3014888198075045e-01 -2.8234278205331762e+00 -2.4319835437563668e+01 -3.2666955993609870e+00 2.1962668792798568e-01 -4.3271862573969990e+00 -6.8083236709734052e-01 4.2510572824491000e-01 1.3183285569454406e-01 1.0097563579126048e+00 -3.7129886263294321e-01 1.4838685083057243e+01 6.3604109168830014e-01 -1.4108383731583671e-01 -1.2960417872219854e-01 -5.3326795205147270e-02 8.2387123599654388e-01 2.6119004524829492e-01 -4.4814473437842839e-01 7.0946423550088733e-02 4.2728618096085469e-01 3.7376462486342583e+00 9.5619128685205168e-02 -8.3363435350462272e+00 6.5059102623553500e-01 -4.3102914511389230e+00 -9.4055427331853814e-01 7.3174150296666818e-01 6.3418324660353242e-02 4.1369898028932317e-02 7.1082096352834689e-02 1.1844653417257749e+01 -5.2874782371759281e+01 -3.3305478306666014e-01 3.8651577194130454e-02 3.1093846540709649e+00 -9.2363495745716762e-01 -1.3522184175830056e+00 -2.5094279545128773e-02 4.1534298288780747e-01 1.0048221769610466e-01 -6.5998618223781591e+00 7.0414960649827307e-01 2.5917180364168457e-02 -3.8884643841524302e-01 2.2952429416567383e-01 -6.1702901472632021e-02 -2.8245293907280455e-01 -2.7030011174375232e+00 2.9111986971644157e+00 1.2104539856325602e-01 2.0848761370242421e+00 2.5055984023850453e-01 4.0536665307925404e+00 5.4318024565871470e-01 -2.3386455713021306e+00 -1.7418467783832374e+00 3.7551512158171940e-01 3.9952626559661697e-01 -3.7713942636937725e-01 3.8002590167019690e-01 2.7012030532048072e+00 5.5560890711663760e+00 1.1956641313768235e+00 -3.1712159056900280e-02 5.4679931178310568e+00 6.2748130535993418e-01 -1.1603275987984349e+00 -1.5548399425325243e-01 2.0381094301512004e-01 -4.8254695494048150e-02 -1.0860971996308351e+01 9.3900000964048047e-02 -1.3411859755166400e-01 -1.2106129734633231e-01 -1.4867152010333368e-01 -3.8657646297527037e-01 -4.5127146293124781e-01 -1.8007570114874298e+01 1.7461126171291426e+00 -4.5035992701766281e-02 -1.1888866550067121e+00 -5.0440579938712204e-01 -1.1255330869132337e+01 -5.7429186836032109e-01 -2.8021164240585250e+00 2.5636216064738737e+00 -1.3349508958984369e-01 -2.0702141742513441e-01 -1.0930532729594589e-01 3.3100971045684213e-02 -1.1841116682770902e+01 7.5826090412002060e+01 1.2869559094645009e+00 -5.3706242180450059e-02 -1.5849718138938229e+00 1.4966692340761290e+00 1.4330085207166960e+00 -1.2407219349764595e-01 -1.2872334813613462e+00 4.8738816474550672e-01 3.5336893266995304e+00 -6.9297595412398483e-01 -3.0179309443302438e-02 8.4509516151525443e-01 -1.2130762396600381e-01 1.3298592816774368e-02 6.5882167552016124e-01 1.7145481277877622e+01 5.6346282822309490e-01 -3.5650646599096592e-01 1.7186313021399093e+00 6.5202234900654865e-01 -5.3273584567644434e+00 1.0557764630023996e+00 -3.9638303436839362e+00 -1.2395122929285634e+00 4.9054932345031776e-01 1.5924879743276832e-01 2.0456400711240796e-01 -4.6375830308152555e-01 -8.2639698570966722e+00 -5.0684748774335560e+01 2.0927108383799551e+00 -2.3651460162479615e-01 -2.8084131086829256e+00 -8.6558044415529589e-01 -4.6002360030941408e-01 3.2177006533288688e-01 3.8054730565085815e-01 -7.0300357797011725e-01 -1.5469626140071853e+01 -4.2539284168183089e-02 1.0302567348630132e-01 -6.6979085543289119e-01 1.2154422634845985e-01 -1.3945038824441880e+00 -6.8984555498965927e-01 9.3321729606450337e+00 8.5390393689277089e-01 7.0817499255234062e-02 7.5346076013101992e-01 2.1349990819008635e-01 -1.1334733706064242e+00 -1.9117395808413917e-01 1.0299378048532475e+00 -2.7243083442373728e-01 1.0689803698298395e-01 -9.6723910252014211e-02 -1.8325888354328948e-01 -1.3354503733336381e-01 -6.3417991192397807e+00 -8.2609345652632937e-01 2.1745492702594964e+00 1.0790383462017772e-01 2.0823794668093534e+00 1.8158839617464606e-01 4.9399983744276021e-01 -6.8335797858177116e-02 -3.8277827315415180e-02 7.8586152987062174e-02 7.0131413168652372e+00 -3.7974536429732941e-01 -1.5115417844242315e-01 -3.8580740515921474e-02 -6.3382239429579143e-02 -1.5908958464917233e-01 3.9445978003705973e-03 3.2319639870865302e+00 5.8048677712802510e-01 1.8436271634071719e-01 3.3804823957617458e-01 1.1789789789522653e-01 2.6841599511659986e+00 -2.4409101923558557e-01 2.3465642118501080e+00 2.2917664959690032e-01 -7.7947131963206573e-02 -1.4271911104914159e-03 3.2951942918637456e-02 -2.2709978467582098e-01 -5.4651540707945268e+00 -7.2002582242378956e+00 -2.1797614593345935e+00 -1.5811169077421861e-02 -3.5872218248776342e+00 -5.8376854938990919e-02 2.5003737025176709e-01 1.1518673397146588e-01 2.0469408895949082e-01 4.4162979909913025e-02 5.9479962509782514e+00 4.0237456615552364e-02 -4.4624474237373472e-02 -3.8624990634919885e-02 3.5008624243880480e-02 -2.0919871239712617e-02 6.5959518489928037e-02 -4.7502481477219050e+00 -1.6098068708038866e+00 1.2682221106423941e-01 1.2655230865236398e+00 1.7001528856830435e-02 -2.1906097759886134e+01 3.0681638423777713e-01 6.9512479099565816e-02 5.8693728699368258e-02 -6.9972424128218386e-02 -3.5176331203937816e-02 -1.0412094855012377e-03 -7.7619038166701210e-03 -3.5540054683372619e+00 3.8355684536805938e+00 -1.2652867782354438e-01 -8.9672609521120605e-03 -2.1360037622453749e+00 -2.2382245092019817e-01 -2.0631819771175230e-02 -1.3562433921469941e-02 1.9134628633310058e-02 -6.6623315284539034e-02 1.6185919183434216e-01 -3.9248647006668635e-01 1.1439451023271027e-02 3.5241333862649493e-03 7.7547691705065480e-03 -7.4215853599487902e-02 8.7846306346176156e-02 2.4557390625365239e-01 -1.3329998475042286e+00 1.3340716345549120e-02 2.8528806391828558e+00 -1.2261000686295209e-02 7.2939505968300438e+00 4.7365974805528932e-01 2.1471362412128272e+00 -5.2558636219828189e-03 -1.0558426060405313e-01 1.1257280057241295e-01 -6.5622921604693296e-03 8.0854073714283548e-02 -4.4853161371078016e+00 2.0169697582533175e+01 -1.3328758767780613e-01 2.9445582953358806e-02 -1.0439079130234648e+00 6.0299837064275774e-02 -7.4063955768073342e-02 -2.5197016682397391e-02 1.1313954050449815e-01 -7.0376780617819046e-03 2.5777689115143545e+00 3.2045731402229460e-01 8.6129431659321964e-03 4.1668616764641009e-05 -6.8165340058138152e-02 4.1815522308259634e-02 4.0078467697248626e-03 -7.2962898159762517e+00 -3.2441835996182533e+00 -6.9102071375301222e-02 1.0188628290630422e+00 6.2439997800321034e-01 4.3691889309645831e+00 -8.0417332599673585e-01 -4.4866070034162320e+00 -7.1814793275772959e-01 5.5462633865697974e-01 -2.7059283682935265e-01 1.2260436994717505e-01 -5.5700065929181863e-02 -5.4588286415375737e+00 7.9343439227725447e+00 1.3326529464278494e+00 4.4950980165263332e-02 -3.4152834942398158e-01 -8.1499417888472547e-01 -2.6912605635757036e-02 2.7231729314601871e-01 8.8524250447522057e-01 -4.0024218155290070e-01 7.8785626838380018e-01 5.4788010778558061e-01 -3.2021325791745242e-01 -2.1613547034163361e-01 4.9165991801888964e-02 1.2529438525810932e-01 8.5349695339021814e-02 4.7108371411080086e+00 1.7648675400102434e+00 5.3790635858097868e-01 6.3886577731475143e+00 -1.1991679533026434e-02 9.9425061698299615e+00 8.0467413407889418e-03 1.9146295299214025e+00 6.6773439382303368e-01 -5.3410925088225245e-02 -5.0915483641327836e-02 2.2671867851739476e-03 -2.7572856208082232e-02 1.0053637614122517e+01 -5.9730659789438620e+00 4.0124517955659389e-01 -3.3016572258921309e-02 3.8733952346970097e+00 -7.6783084562819237e-03 -9.7339492162431041e-02 -1.1989711052745933e-02 7.2501153854521216e-02 3.5734387166931544e-03 1.0939194924441065e-02 8.2211845519024607e-03 -2.3823637492004660e-01 -1.6954841260839557e-02 2.3955410437212521e-01 2.1004049506025524e-02 -7.7333782313119687e-03 -1.2666604589486251e+01 4.1266956973181976e+00 2.0606700615937126e-02 -1.9171761455690854e+00 -2.9918356174576277e+00 
      </Row>
      <Row Index="5">
        4.8876234346717462e+00 2.6029646472357229e+00 8.3370399828230077e+00 5.5827722494005521e+00 -2.4792315540518439e-01 3.7086019226576163e+01 -6.2306380179019447e+00 -2.8665290235709415e+00 4.4798915830939237e+00 -7.3207633318963786e+01 4.5320213340827294e+01 -3.3621207138015365e+00 -5.4983046701276272e-01 -8.5293815972856812e+00 -1.0354211525981789e+01 1.1455155214558750e+00 1.6196862398654523e+00 5.1761678576617753e-01 2.5350286179417290e+00 -2.8962313248839746e+02 3.3229788213679385e+01 1.3961679291786544e-01 -2.5660939072896816e-01 4.1366114593211067e-01 -2.2333187559723733e+00 -5.3957625502654727e-01 1.7177319583307689e+01 -2.5666118232675707e+01 3.0388961594462227e-01 2.5644237632254772e+01 -6.8953662990160129e+00 7.1869945024387107e+01 -7.5503834022355907e+00 -4.8060409775791948e+00 2.3297820230590736e+00 -4.3788062759231209e+01 1.0554049143030701e+01 5.4302917552156140e+00 -4.8571846335183091e+00 7.3112820741315772e+01 -5.0613822702720221e+01 9.4321283990441973e+00 1.2356734243982495e+00 1.1112591422903961e+01 1.9129781302377413e+01 6.4004221578819553e-01 -3.5504171502510218e+00 2.3079279320496511e+00 -4.0181324402382081e+00 4.2969298768024919e+02 -5.9668890695215772e+01 2.2085904139921930e-01 9.6696595457082735e-01 -5.4522637277125341e-01 2.1560374431283265e+00 1.9330781631782337e+00 -9.7782443390064344e+00 4.1474986859017996e+01 2.2086710217750216e-02 -5.1121348019188005e+01 -1.3844849616480310e+00 1.6796800905430908e+02 -1.0106266594418560e+00 -6.1658720802491764e+00 -4.7203864219149366e-01 1.7582349009663774e+00 2.4878405387579647e+00 9.1585031612819290e-01 -1.2455659576617550e+00 8.8544160149583107e+00 8.1504157408540152e+00 3.9956222795938210e+00 7.4977066833894879e-02 2.4688683333149548e+01 2.2226764779921400e+00 1.0597783847332092e+00 -7.9837214068752571e-01 1.0799408234970720e+00 -1.0729170082973067e+00 9.8263879262648686e+01 -1.1430026792572757e+01 2.6213130157037146e-01 -4.1942356456527538e-02 1.6941034597248902e-01 2.8125685820223341e+00 1.2427361515066870e-01 -1.2440005054613641e+00 2.0530466551906805e+00 1.2530205764994151e-01 -1.8227612622137471e+01 9.0509310057076586e-01 1.9308764279611688e+02 -6.7227878889376900e+00 -2.0789555760515498e+01 1.9146122122363632e-01 -1.2257173415418595e+01 1.9852608663198887e+00 3.1640924442276208e-01 5.9878779619886968e-01 1.5705590452069366e+01 1.8617987921871077e+01 1.0677737287309759e+00 -2.0408269036856147e-01 -5.5654589286509122e+00 4.0372274106355981e+00 -3.1684054059643643e+00 9.5271929890291940e-01 2.3766585116557000e+00 1.0297093530345869e-01 -1.8538918460601337e+01 -1.4747935269320518e+01 2.0757844624597022e-01 -1.0337879599784633e-02 -2.9959344831913948e-01 -2.5857730942558650e+00 1.3344593892895422e+00 -8.6762434283547432e+00 -6.4462989945670195e+00 4.1057468983644352e-01 -1.1968077628208118e+01 4.7235542827621657e-02 -8.7791637334704788e+01 3.7283119991433011e-01 -2.2934109674053076e+01 -6.2541336136865544e-01 3.8875213193542946e-01 -6.3769493813705580e-01 -3.3454660668462455e-01 5.4073455997082487e-01 4.0259424491504433e+01 -7.7119291723351608e+00 1.4520975421897941e+00 1.2320814148445253e-01 -4.1119947802619464e+01 2.8296520954717952e-01 -4.6408731698304662e-01 2.7269836114304447e-01 -7.5255515773464809e-01 -7.5210530476839299e-01 -4.9488810449709007e+01 7.1646117727061611e+00 -8.9972298112072968e-02 -5.2965772592242111e-02 7.6295494744409886e-02 -7.9064406570150103e-01 2.2053022868190686e-01 4.0958367705673709e+01 -5.6721552902614576e+00 9.8895172524844810e-02 2.9858715240457229e+01 2.1956398202047147e+00 -1.3305179415565135e+02 6.4365073584374315e+00 -1.3610924603268586e+00 1.4220967945762282e+00 2.1394447210117058e+01 -6.0912150240870142e+00 -2.3472680524415290e+00 1.9641522912837424e+00 -1.6792678983484990e+01 6.2266351363062832e+01 -9.6183913299919297e+00 -3.5958435633325525e-01 1.7032251280607213e+01 -1.0531160738449360e+01 2.2197560137381762e+00 6.5017836627347991e-01 -2.4887621346129953e+00 1.1081977990867122e+00 -2.3065964649937786e+02 3.9119150113237751e+01 -8.4810793153376363e-02 -9.0628477603290403e-02 2.3122944851088700e-01 6.9299539232290464e-01 -2.3631194230573223e+00 -3.4742000928902428e+00 -1.8531217781958926e+01 -1.4673451769154749e-01 -1.8992839584566319e+01 -3.6661110167803015e+00 -1.0523065722992942e+02 -3.1081728717450035e+00 -3.7569844025138739e+00 -6.8792528472181436e-01 -8.0724818264653955e+00 3.9041800044499033e+00 1.8475060540513213e+00 -3.0107463534906427e+00 2.1448879635732425e+01 -4.9812341018529764e+01 -8.3369717597790327e-02 3.8744185047769369e-01 1.0111295907925303e+01 8.6716561115667012e+00 2.5707853894979982e-01 -1.5963255144166262e+00 3.3566330805997247e-01 -2.1668203699901620e+00 2.4201504358606746e+02 -2.0133186319793410e+01 -8.3349161714927233e-02 3.9417858894750413e-01 -4.1078251090499451e-02 3.7984284246682050e+00 -1.0333547544675614e+00 -2.6671589446983383e+01 1.3360498038197678e+01 -7.8478336181070119e-01 -1.7501967487143958e+01 -2.0790553895323249e-02 1.0529086878485600e+02 -2.2451251145135593e+00 -2.0914428271106232e+01 -4.9062185268052350e-01 -1.1654769274073093e+01 2.8285973576724821e-01 1.2578244127967013e-02 -1.4248668680621894e+00 7.7773708712734262e+00 5.2533396484009884e+00 -2.4393240173356897e+01 -2.2899992443026340e-01 4.4818795191767009e+00 -2.4131323711655401e+00 4.4602970732877623e-01 3.8062905887057757e-01 1.3858629800629765e+00 -1.0237170292316518e+00 -1.4257256134004209e+01 3.9574141900266842e+00 1.8870186511112425e-01 -2.3828924895380055e-01 1.7996902653365876e-01 7.0071085607041317e-01 -5.2372753032752450e-01 -2.0106177889315617e+01 -1.3931622599838205e+00 -1.5473457750597719e-01 3.4886374157402855e+00 -2.0400178720761480e-01 3.3184893454860983e+01 -1.2982684608385298e-01 -2.9971529219635045e+00 3.7311940598336224e-01 -8.8677718733433490e+00 4.2248759777881739e-01 -3.3096337381510033e-01 -1.9415326264339434e+00 -3.4167119151893743e-01 -9.0440774515680573e+00 -5.2336582539223180e+00 -2.1947094571201309e-01 2.1406098134770701e+01 -4.3102616327862231e-01 3.1249094224522267e-01 2.3198601249087825e-01 4.1010683678876481e-01 -4.2734171047106329e-01 3.1357921833071121e+01 -3.7538822431844032e-02 -5.2369116969015000e-02 1.3092279853140099e-02 -3.4159367383539203e-02 -1.2050002845569452e-02 -5.3809085344681939e-01 -1.7267294793081952e+01 2.9293680258832318e+00 -2.8993373298270431e-01 4.1877533305020549e+00 -1.5429239403226835e-01 1.7177619056178779e+02 -1.6255205460838624e+00 1.2043284535028498e+01 8.0523714055355716e-02 1.9869049858138413e-01 -1.8666423307686975e-02 5.7704835964572321e-02 -2.9394675394879793e-01 9.9138238159523198e+00 -9.4854507826494228e+00 2.0726342192994771e+00 4.7077927233045401e-03 -2.1674859994099034e+00 -2.8510382957034058e-01 1.8159678405281321e-01 7.4928402235351022e-02 2.6820073047565529e-01 1.5310792291043454e-01 -3.8475064199793039e+01 -5.5558003909809193e+00 -5.1600287560512742e-03 2.2732049122456688e-03 -1.9139251641625554e-03 -1.4958783838205414e-01 -7.4448374392503958e-02 1.5733053514627688e+01 2.2390221415331055e+00 5.4390125081903939e-02 -3.6933305270915632e+01 -6.0771330900786236e-03 -1.0934342490660512e+01 -1.1452325585578542e+00 -9.6098878321826930e-01 -2.3630720064812677e-02 -1.0186532758429707e+00 -2.2507918036125174e-01 -2.1638933656780379e-01 4.9282288046582923e-01 -5.8164879935504530e+00 -2.9828235418954936e+01 -1.3570820647329844e+00 -1.0835262091718562e-02 1.4771552897347480e+01 -1.1885493613618703e-01 -2.2057049175442434e-01 -1.2918498644484477e-01 7.5169092208971655e-01 1.8533047333667674e-02 -3.8034733953955467e+01 -1.9426491693036660e+00 -9.6036392043676713e-02 -5.9318344978742249e-03 1.1542768730551392e-01 4.4493996079541936e-02 -1.7104357131946635e-01 -2.0048540939027220e+01 4.0215083407870793e+00 3.9234933239193248e-01 5.5083703651881466e+00 -5.7478399422292625e-01 1.3199060818750218e+02 2.1450754840379460e-01 -4.5594802148962685e+01 2.1086432132487287e+00 -1.0361356691008833e+01 2.5026873975244568e+00 1.0632849327988252e+00 -1.7449659995774403e+00 -3.1222905320490781e+01 2.0453002046974575e+01 -2.0715479413502521e+01 2.8604456451263971e-02 -4.3699366264551372e+01 2.4512036721197923e+00 1.7116784691256761e+00 -5.4059307979580828e-01 4.0205236867436298e+00 -3.1206571658116049e+00 7.9504083675232607e+01 -1.1999510249014513e+01 5.9638659901906865e-01 2.6621542147566757e-01 2.7507323228320446e-01 1.8800571427088673e+00 -1.8256801175508475e-01 1.8926320352114629e+01 9.6212777906288238e-01 4.4235474500058269e-02 -1.9616910248935824e+00 -2.8221206783796138e-04 -1.0983811810253968e+01 -2.9648899866539680e-02 -2.7489530754671447e+00 1.0210641584456841e+00 2.5995572615568197e+00 5.9252477285133054e-02 5.7182986491569221e-02 -2.4122111875432506e-01 3.4098104517645709e+01 6.0357717861486478e+01 2.6017982687924892e+00 -5.0592288467124352e-02 4.6063599396659761e+01 9.9062584094330441e-03 -2.9448220945740766e-01 -8.0037024900236675e-02 2.2461712507461096e-03 -6.9404651441259402e-03 4.6408694395172473e-01 2.9355724966690078e-01 2.6178786694197070e-01 -2.3235143287061125e-02 -2.2459666665232225e-01 -9.9209100491785301e-02 -1.1843260392023047e-02 -1.0649085231381374e+01 4.8237001968588231e+00 7.3272498603816794e-02 1.3028181623235508e+01 -9.4041824447018726e+01 
      </Row>
      <Row Index="6">
        -4.9693208070098969e+00 -1.3677400637174969e+01 -8.6050402247955518e+00 -1.0263231266414138e+01 -7.3601676237693003e-01 -6.2306378583245046e+00 2.8673048227642965e+01 2.4722236147352379e+00 -7.3946595141440508e-01 -4.6044904139134289e+01 -1.8926062743558703e+00 4.1518948962072990e+00 -3.4494092939124865e-01 1.0729934030123611e+02 1.4732069155713564e+01 3.1439228510985231e+00 -2.0737737015043538e+00 3.1166586789455959e+00 -9.2714419059470519e+00 1.3066625186639254e+02 8.5482774584054813e+00 -6.9201323807644710e-01 -5.5535542284607953e-01 -1.1322390331992296e+00 3.7383816348993979e+00 -5.1986242535870382e+00 -4.5985041319573035e+01 8.3701400681281513e-01 1.9996115617327055e+00 4.4672210768148375e+00 8.9847066558039455e+00 -1.8462122491130913e+01 1.4015607264304336e+01 -1.2202759265994278e+01 4.2063669029849260e-01 8.4857873120767806e+00 -3.7818221470242726e+01 -3.7219190566332658e+00 5.0487753165258153e-01 4.4754866386616868e+01 3.7829495660249165e+01 1.4484579664998547e+00 5.5535959433416895e-02 -1.6203205917816337e+02 -2.1469213675533354e+01 -4.8505158379123587e+00 3.2340027551003914e+00 -1.6521915482626909e+01 1.1281332336952149e+01 -2.0199205961637517e+02 -1.1136136846768345e+01 1.6611585412806631e+00 7.3853967325471237e-01 1.8487522117278290e+00 -5.0264459207891221e+00 1.1727742921600765e+01 7.7320008103551601e+01 -1.5932259462930203e+00 -2.4776799159810583e+00 -3.3039773383352440e+00 9.9243139998904795e-01 -8.6759837598187360e+01 1.9376609142012908e+00 -2.0739979971309054e+01 2.3099144905883162e-01 4.5054612887724810e-01 -4.3191221418824632e+00 -5.7401156187074454e-01 -6.5466705232079064e-02 6.9254563884120017e+00 5.5768537169281430e+01 6.3762702702794058e+00 -1.8397151273607193e-01 -1.5953386076707073e+01 -3.3995074420286207e+00 -4.4845184685162937e-02 -1.6725767790445323e-02 2.9977618252795892e+00 1.2597931927219546e+00 -2.8858195823994777e+01 -2.3683883353172419e+00 3.6902306971120363e-01 1.7719578990959167e-01 2.3316122515542270e-01 -8.1734915162438093e-01 6.2051417192866776e-02 5.2949758629055266e+00 -4.3656509478474446e+00 2.5612993372964388e-01 4.6579097831449161e+00 1.7010441600671322e+00 -6.7868550677917582e+01 1.6131462256495483e+00 -2.7803201895747037e+01 4.4254952372454581e-02 2.3584057526628008e+00 -9.2567200459337950e+00 -4.1078217477873064e-01 1.4063276045027828e-01 -2.7187181086336096e+00 3.8562425908341083e+01 2.3330658359589385e+00 1.7294504706979952e-01 2.2173991027934221e+00 -3.8367842209480383e+00 -1.4740364093305489e+00 1.2518694320982542e+00 -1.0261054198303334e+01 2.2662435953962730e+00 -2.6760934445057899e+01 1.4516943968762348e+00 5.1872119122199245e-01 -7.0429419829203699e-02 1.8577584138044628e-01 -2.4648310580029387e-01 7.0341634402588138e-01 3.6324340220622261e+01 -2.6617157029919492e+00 -8.8095691170793433e-01 -3.6969812312772277e+00 -1.5580849923952016e+00 5.0158180571788350e+01 7.2542399776779121e-02 4.2049439771217493e+01 1.5090932414533964e-01 -2.3102685034266712e-01 -6.2554229774824579e+00 5.9736741631254420e-01 1.0327916256495908e+00 4.9000411080331219e+00 -6.4673187194291003e+01 -3.1187835873132563e+00 6.7273095381876735e-01 5.4466165755678240e+01 1.3419397929847321e-01 -2.0892211959558011e+00 5.0752006958555373e-01 1.1921931304876921e+01 1.2642457915253633e+00 -1.1576291600315813e+01 -5.1421787135865777e+00 -1.3341877939350300e-01 -5.1233929082505014e-02 3.7638749556161200e-02 1.6334130369478439e-01 -2.1698603180759723e-02 -1.1846205486326653e+00 1.7733163114382080e+00 -5.3200230528130588e-01 -6.7513342143676311e+00 -4.2730625957628305e+00 4.2296613170884712e+00 -4.9521223688446128e+00 -3.2888057019651740e+00 -3.9758447323738333e-01 -4.4396157750919887e+00 2.1513614188500760e+01 1.6453263449287294e+00 -3.7652952911285231e-01 1.5199439958621923e+00 -8.2687173257720104e+01 -1.4021700682496707e-01 -1.3183311168292899e-01 7.7928127037417276e+00 9.8295714127832312e+00 3.5471223160548213e+00 -2.1001358024285608e+00 1.2780312033997028e+01 -4.7804475909787270e+00 1.2637308180365842e+02 -3.6214125145847031e-01 -6.5080228653846617e-01 -1.9082218257526873e-01 -7.8046422256345482e-01 1.9388531654739234e+00 -3.6064017871168685e+00 -6.5544501272342401e+01 1.8754833257206371e-01 1.5518298928606242e+00 1.7120524925140533e+01 3.8092773260116735e+00 3.4333795855036442e+01 5.6596946112945599e+00 -1.6997576312633349e+01 5.3103114201407908e-01 2.3711640529695588e+00 -1.1988601698246573e+01 -1.8870518800628320e+00 3.5444168055322445e-01 2.7683098490330455e+01 6.2014307671395066e+01 -2.3078994700079729e+00 -4.1053291316576590e-02 -7.4654736616095235e+01 -8.5139861891951050e+00 -1.9906434614073318e+00 1.4981873766202267e+00 -1.1364346452199046e+01 4.0501099516146200e+00 -7.7418759191081278e+01 -3.1574835579628098e+00 4.7847310514860081e-01 2.9850392486726268e-01 8.1446803039437587e-01 -3.2446163105830204e+00 4.2473743836390865e+00 -2.1004484205696151e+01 5.6381822586479102e-01 -9.3739894050506989e-01 3.2031638080540401e+00 2.1592784311248447e-01 -3.7946194446496378e+01 6.1407369000247058e-01 -9.5768985898352099e+00 2.1800693904224844e-01 6.8153629360867818e-01 -3.1521845251993730e+00 -2.9340301547046860e-01 1.5616346795768488e-01 2.6382228940784678e+01 -4.9377603512764061e+00 -8.1997029972697355e+00 8.2825519005295334e-02 -2.2596243165972410e+01 -1.2227437782395660e+00 -4.9078475531843035e-01 6.0511570465226636e-02 2.5840253232856210e+00 2.1562144814936524e-01 2.9775133109495382e+00 -1.1808761872681259e+00 6.0794198586062415e-02 1.0145031942530343e-01 -1.2791651192752586e-02 -9.4257296165349547e-01 1.3530432790190767e+00 -9.8094262566225474e+00 -1.2909692829744781e+00 1.1265672162167228e-01 1.2432707516992796e+00 8.1288295005625955e-02 -7.6548414801184848e+01 -2.9808778626804733e-01 -4.6428555295229771e+01 1.0322337291113501e-01 1.5293649261440414e+00 3.2854631640803316e+00 -5.0441683439545493e-01 5.0426734017645081e-03 1.8809078870487795e+01 4.9475331266950960e+01 4.2526921171127530e+00 -1.2134355442085165e-01 -2.8602241087818207e+01 -8.8157024289942321e-01 -2.9616479280268138e-01 1.5770222343432877e-01 8.3325478384897700e-01 -3.9831981706878583e-01 5.0284897058406699e+00 1.1091089852135330e+00 5.7246013054193141e-02 1.6869552659784404e-02 -5.9226060511310942e-02 -3.8607851026236695e-01 7.5565016404585150e-01 -6.0631646550730565e+01 -3.7062019895717242e+00 1.2187590944225312e-02 -1.1845231752333270e+00 2.3941793589061849e-01 4.3611836116796141e+01 7.4645794747630134e-01 4.3942056730600729e+00 -5.3760644251317824e-02 -2.5463914353403672e-02 5.9620297575671999e-02 -5.0326104909996783e-03 3.1721340829598613e-02 6.8918828577011695e+00 -1.4688743596943823e+01 1.7608978621927580e+00 8.9073105245090559e-03 5.0262061588168478e+00 -1.3671860972618124e-01 3.9233848760162937e-01 -4.8284499150240245e-02 -7.7351629387294452e+00 5.0255314460510292e-01 1.7691008704445267e+01 3.8003528990896225e+00 -3.6188815477953429e-03 -1.0213806892269243e-02 -6.6913094256572658e-03 1.0379630016073005e-01 1.8187935404608140e+00 1.0492737229299502e+01 -2.3821418107335024e-01 7.3499095523047550e-02 1.1376497363638830e+01 1.7004382382003239e-01 2.5408149562906601e+00 -2.5067167783809907e-01 -3.5242970135905587e+00 -4.2798063970475142e-02 6.7017594336473862e-01 3.5816817672995143e+00 -1.3350958515711220e-01 -5.8935119022771709e-02 8.9629807760124436e-01 -1.2374595807026003e+01 -1.1233868656508781e+00 -4.0570133495915206e-03 1.1858528996969980e+01 -2.6045122400087894e-01 -2.3526633584454498e-01 -1.2388314007709322e-01 1.4120470403218639e+00 -7.2349050197448794e-01 1.4188004786206250e+00 4.1707709749589572e+00 -1.7303551220677565e-01 -6.9182733131384344e-03 -3.5585180469326350e-03 -7.8042409996705031e-03 -2.5995443660418222e-01 3.9165079944891772e+01 2.5969020057758740e+00 2.2226465102834247e-01 7.7915503747503578e+00 1.3667000866843555e+00 -1.4483971314661676e+02 3.7501084919071435e+00 -6.7643487895538982e+01 1.4444411699695792e-01 2.4510325983101886e+00 -1.1490796226071566e+01 -5.4494323224042085e-01 5.7191421194576608e-01 3.4842342795651291e+01 -5.5822171720064659e+00 -5.1367379390853785e-01 1.9668438076651529e-01 3.2418397906694736e+00 -5.8893245027400623e+00 -2.3469823569806456e+00 9.2415240396149523e-01 -8.1339885889908814e+00 2.1512226768599847e+00 -2.9041343533213023e+01 2.2949452460306929e-01 8.9660516989882422e-01 1.7361821262304122e-01 4.3951785754530881e-01 -1.7827560813459176e+00 5.0679356462395386e+00 -1.6316455975299212e+02 -2.7342772441437262e+00 -1.5856168485152300e-01 6.9482028296099685e+00 2.9554585960358495e-02 2.4609964671600757e+00 1.1318695015082536e-02 9.1894623225299163e+00 -3.2328098597419352e-01 -2.8001050720517418e-01 -1.2750439474605408e+00 -1.3523082181816221e-03 3.9298443606329975e-03 -2.2830975968469780e+01 -1.9023187086189878e+01 8.2905962821859802e-01 -1.5858185112991113e-02 -6.7683579665269093e+01 8.6484104928249983e-03 1.4424596061477613e-01 -5.1980723616671776e-02 1.5919112961510056e+00 5.3703335144275055e-02 -1.2291168678041586e-01 -1.6909468739873801e-01 4.6461523280414774e-01 6.2969912761087002e-03 -4.8001825871235138e-01 7.1321752531400273e-02 -2.3492408345973068e-01 6.8369680108177377e+01 2.5295571911376697e+00 4.6811391568397198e-02 -3.9307130834983939e+00 5.3943124314779041e+01 
      </Row>
      <Row Index="7">
        -6.7961367967970574e+00 -8.3971153491133350e+00 -4.0970587300928392e+00 -6.5197940323620927e+00 -1.8453013764687359e-02 -2.8665290539299635e+00 2.4722236291971056e+00 1.0785666986615301e+01 -1.9837310737724905e+00 3.9799478786344946e+00 -1.3615126999420816e+01 4.7409734317983870e-02 -5.7487035607436365e-01 3.3939016064887596e+01 2.5057657869680341e+00 4.8401232850390530e-01 9.3865610561411450e-01 -2.3896375342427465e+00 -1.2579964370887986e+00 1.8090324116102906e+01 8.1468503100738499e-01 -1.3296263375462924e-01 -2.0134981220628012e-01 -1.3738505731225259e-01 -1.0746960513686687e-01 -5.7680839373036639e+00 -4.3547591582708129e+00 1.2296873546418041e+00 5.4811203322096169e-01 1.1774652613165415e+00 1.0343585790900820e+01 5.5412262434665536e+00 6.5328605796629233e+00 5.1303272139474618e+00 1.6319043419617962e-01 3.0300647126548137e+00 -4.3154304729781536e+00 -1.2107926607682801e+01 2.5563964459505160e+00 -1.3853021337032601e+01 7.2188158891461072e+00 -1.3232998428276588e-01 2.2365495953979206e-01 -4.1378147015845798e+01 -4.3422436219965306e+00 -5.5181075476546937e-03 -1.1152600028623554e+00 1.8141440122627852e+00 2.2304888507741438e+00 -2.3738787220223003e+01 2.4348706867476011e+00 -1.2498029697550939e-01 1.7218798142662595e-01 5.2256579939178804e-01 4.2658868149564100e-02 7.9471779798041702e+00 1.3164131578578584e+01 -2.6812637011886422e+00 -4.4204704984351739e-01 -3.4956365101243136e+00 1.1621743655192187e+00 -1.4034780103774263e+01 3.7202287157036484e-01 -4.6662957302982733e+00 1.9198601891499006e-01 -3.0990974259132154e-01 -7.5746297995710066e-01 -1.1030196591584052e-01 -4.7453461791981857e-02 -7.1795778999554116e+00 1.4701737490091773e+00 2.3879820525558055e+00 -3.0839576292952109e-01 -8.2437839101028345e+00 -7.9773227572767957e-01 5.6953878066621011e-01 2.7007043284309695e-02 3.7948711193166673e-02 -1.9070184078158187e-01 -1.0527198226333994e+00 2.9496827112469219e+00 5.6655366868069226e-02 7.3353827863138293e-02 3.5304885803588482e-01 -4.1245685260549525e-01 -1.8795994461446297e-01 5.8436502367232990e-01 1.1728971634556791e+00 -8.6040840535748453e-02 -1.2275128305910585e+00 1.7221460631749452e+00 -9.7019026864827822e+00 5.7993864555823738e-01 -7.4872601518789494e+00 -1.2079271931383162e-01 1.3278510045863596e+00 -1.0422467805351809e+00 -3.3110221664411852e+00 2.5461032574381681e-01 -2.8866809453955788e+00 8.9204766582207640e+00 -1.2491925002762017e-01 1.7955381522307143e-01 7.3640302264183219e+00 -1.2841089734413735e-01 -7.0148588490604713e-01 -4.3960227035482924e-01 -3.2250404276927469e-01 1.3769760318893098e-01 1.0332660024184634e+01 2.8172866393331830e+00 -4.5244808035197970e-01 1.0147800882103059e-01 4.6569630982740640e-02 2.8970365847905288e-01 1.7312499893697915e+00 1.7690640298183268e+01 -1.0481498106915481e+00 4.1537348925952511e-02 -4.6509188962502463e+00 6.5533583059788114e-01 1.1759990673400498e+01 1.3789925025976260e+00 4.5300534258749607e+00 -3.0098044981559546e-02 3.9800669657090815e-01 1.8854254862456132e-01 -2.3272782943299011e+00 6.6967867075549536e-01 2.1024118897714459e+01 1.7924626812487787e+00 -6.0621116927958951e-01 4.8978621470417033e-01 1.9588101608748360e+01 7.2152746326981720e-01 -1.5758314328138683e+00 -2.1259551186895737e-02 7.9080674667353135e-01 2.7273457537853574e-01 -4.7187565891957632e+00 -5.4852739427046515e-01 3.0078626964437749e-02 5.7811678896596552e-02 -3.0832176806531697e-01 -2.7839925929653142e-01 1.5442174038555447e+00 2.0479460445217583e+00 -3.4648230355094256e-01 7.4696532157767948e-02 4.0265393887669916e+00 -4.2026896531664519e+00 2.2741230914307380e+00 -1.3974286242979410e+00 -5.3615290695265685e+00 -1.5441990736879796e-01 -1.5173873219161549e+00 2.6357728224764556e+00 6.4013505173489369e+00 -1.0027531521529569e+00 8.0079296502880979e+00 -3.0682373121589272e+01 1.7102055136794974e+00 -2.0411946191410024e-01 -5.8841308339786416e+00 1.3521553539044258e+00 7.4243510940662061e-01 1.9829707011589959e-01 -3.2888944730368808e-01 -7.8290848646039524e-01 1.2436777150710753e+01 -2.6331653658478587e+00 1.2237276793184737e-01 -1.2694063727946214e-01 6.3615570592008286e-03 9.0248148034793196e-02 -3.8760301704776170e+00 -1.3758967113637809e+01 1.7896170573645593e+00 3.4604803164466885e-01 7.0278017618989264e+00 4.9230215884267556e+00 2.4736364721102291e+00 3.7395010967072850e+00 -9.2744851616677870e-01 4.1353433250692251e-01 1.0172940594226052e+00 -1.5097571171297965e+00 -4.4350955883089886e+00 8.3792495297981917e-01 8.9428173380832021e+00 2.4181229156863072e+01 -7.6885714362973445e-01 -9.5497881209541044e-06 -1.7901509235502193e+01 -1.6761740398756622e+00 -4.1090321077358571e-01 -2.9602758288037267e-01 4.5089790702303656e-01 1.2986959877341446e+00 7.4042717832578262e+00 1.1959969799782009e+00 3.1875616869968920e-01 4.5407575760733510e-02 2.1364000320093948e-01 2.4195092788261707e-01 3.6930808932989465e+00 -1.2263500624763619e+01 1.0266243870062484e+00 -2.2580857026446707e-01 2.9703927079364121e+00 -4.1468932531043068e-01 -8.2704052383910920e+00 5.7963023489846366e-01 -4.1580028452763429e+00 1.2843104136014416e-02 6.3666286078397150e-01 -1.8093578137068533e-01 -6.5639961564726745e-01 1.8607818869559090e-01 1.2705106805965002e+01 3.8862937687977670e+00 -3.6679802208326429e-01 2.3363472138965502e-02 -1.7501727481108819e+01 7.5226933561695186e-02 -1.5631069408370557e-02 1.0165973958642219e-01 5.1541633179752133e-02 -2.6427301237634193e-01 -2.4713597179506905e+00 6.9555344798211527e-01 -3.9957962269335789e-03 7.9138112616820855e-03 6.6612102810557336e-02 -2.2039029890555911e-01 -2.5630296522911045e-02 -3.1939813302578912e-01 3.5309185387357056e-01 2.3756308302360418e-02 3.3240521835870140e-01 7.0661333077586841e-01 -1.5848572360990286e+01 -3.7882051987310150e-01 -1.3843533906597827e-01 -4.8161851185536661e-02 1.9502161465483159e-01 -1.8587451943400501e-01 -6.7761574590101181e-01 5.8796808726559124e-02 5.3064583233118805e+00 3.9051335137770380e+00 2.4080990775907276e+00 -1.0298956511696622e-01 -1.5266612092267621e+01 -1.6436464566258646e-01 6.2460102866817357e-01 -2.1221091269648151e-01 4.9514576238210706e-01 -1.3045526022360221e-01 -4.2296050022405423e+00 2.1966008785915925e-01 -1.3725005378076346e-02 -8.3514340036572321e-04 1.3154701805726673e-01 2.6653962401608888e-02 -3.5537900185957261e-01 -2.0330185176268856e+01 8.1612119279979289e-01 2.1014365618280850e-02 -2.7860009938116868e+00 2.8194215245212406e-01 -1.6174914922482476e+01 8.7554306797665049e-01 -1.5390337437946253e+00 1.0477322455385130e-02 1.7975160558034806e-02 6.0315996430732252e-02 8.2282929837285024e-02 -3.2141557619516814e-02 -1.7345997437804841e+00 -5.1864207009484744e+00 -5.6541238755150824e-01 -3.3841364252921835e-02 -2.7893286470095067e+00 -3.8236460506204689e-01 5.0133727458774313e-03 -5.5465598441524211e-03 -2.9063276688884798e-01 -1.0779481448714494e-01 5.6230682588702789e+00 -1.4077100465018941e+00 2.6874767466556475e-02 1.4899607835516804e-05 2.6433630184670931e-02 -3.2428585867972370e-02 -2.8432242510476757e-01 1.9335821747146960e+00 -4.4665065374097424e-01 -1.9831674778939989e-02 3.4762289177057104e+00 -1.1908042605401686e-01 -5.3581464299395520e-01 5.2594856360440900e-01 -3.6844462422428759e+00 -3.9097004040118497e-02 9.1108170839539371e-02 -4.2434021899437147e-01 -3.0161460086041103e-01 -2.9787126147171605e-03 -1.0170373220929605e+00 -7.3227928050205975e+00 3.3878291013880535e-01 -1.1114726452886542e-01 -2.2247492801372442e+00 1.3139471277978343e-01 -6.4830465252717961e-02 1.7756951499352591e-01 -1.1518314969352161e-01 1.4621804937179483e-01 -1.4958047722787136e+00 -1.9545338308158653e+00 1.5525251514709457e-01 1.1918304014991235e-03 -6.0167051861094570e-02 -8.8365811126091542e-03 -2.2232594231328617e-02 1.7770094387022255e+01 1.9315319560938349e+00 1.2845659695225731e-01 4.7076224006095844e+00 2.4210127624481297e+00 -2.1926058187365925e+01 2.3201581435150622e+00 -1.2749067654440580e+01 1.2661959416190061e-01 9.5811967210060001e-01 -8.7879412171592719e-01 -1.5538281338403095e+00 5.8990661783853116e-01 6.3468835249762833e+01 -3.4314022433948310e+01 1.0465612746474449e+00 -1.2012218373949379e-01 2.5466430802470086e-01 -8.2436598683978168e-01 -1.2740402647799839e-01 -2.6234682998245606e-01 -6.4909338553262153e-01 1.7413524930080415e-01 7.8094441166812771e+00 2.4749370408593308e+00 -2.3767488236444012e-01 8.1443847690793714e-02 4.4782651437670906e-01 -4.3818760125354306e-01 1.1913717219161715e+00 -2.3245771264205246e+01 2.4846032086720129e+00 2.7877996084812784e-01 5.2456449766872586e+00 -6.1364312976625299e-02 -1.9168643564755726e+01 2.1409420606185683e-02 9.0393844189977512e-01 -2.4316123839144665e-01 -1.5315983489003454e-01 9.6510138067940676e-02 6.8922095600611480e-02 1.5419978471933254e-02 -3.6502739574722838e+01 -3.4884607488394664e+01 -6.8829982043489268e-01 -4.1848912358995599e-03 -1.4338614058705325e+01 -6.5034114230111753e-03 -8.1106662967141085e-02 5.9044006969813601e-02 3.4403060445540035e-02 -6.2527704919110860e-03 -2.6039320679963618e-03 3.1910101455715864e-02 -5.7046738081940818e-01 1.0060956679252983e-02 5.5743284864969778e-01 4.2392494208868814e-03 4.4459627475691155e-02 -1.6228325080665201e+01 -1.5617802461745356e+00 4.9142426473926193e-02 -5.1145318536845963e-01 2.5100793492353372e+01 
      </Row>
      <Row Index="8">
