<?xml version="1.0"?>
<MethodSetup Method="MLP::MLPBNN_Expert2_EleTau_nodes30_epoch1000">
  <GeneralInfo>
    <Info name="TMVA Release" value="4.2.0 [262656]"/>
    <Info name="ROOT Release" value="6.02/13 [393741]"/>
    <Info name="Creator" value="jhoward"/>
    <Info name="Date" value="Sat Dec  3 18:27:24 2016"/>
    <Info name="Host" value="Linux vocms0301.cern.ch 2.6.32-573.7.1.el6.x86_64 #1 SMP Wed Sep 23 10:12:03 CEST 2015 x86_64 x86_64 x86_64 GNU/Linux"/>
    <Info name="Dir" value="/uscms_data/d3/jhoward/WORKING_DIR/NovProductionV3_76X/ANNTraining_MethodALL/ANNs"/>
    <Info name="Training read_events" value="78309"/>
    <Info name="TrainingTime" value="1.32354511e+04"/>
    <Info name="AnalysisType" value="Classification"/>
  </GeneralInfo>
  <Options>
    <Option name="NCycles" modified="Yes">1000</Option>
    <Option name="HiddenLayers" modified="Yes">30</Option>
    <Option name="NeuronType" modified="Yes">tanh</Option>
    <Option name="RandomSeed" modified="No">1</Option>
    <Option name="EstimatorType" modified="No">MSE</Option>
    <Option name="NeuronInputType" modified="No">sum</Option>
    <Option name="V" modified="Yes">False</Option>
    <Option name="VerbosityLevel" modified="No">Default</Option>
    <Option name="VarTransform" modified="Yes">N</Option>
    <Option name="H" modified="Yes">False</Option>
    <Option name="CreateMVAPdfs" modified="No">False</Option>
    <Option name="IgnoreNegWeightsInTraining" modified="No">False</Option>
    <Option name="TrainingMethod" modified="Yes">BFGS</Option>
    <Option name="LearningRate" modified="No">2.000000e-02</Option>
    <Option name="DecayRate" modified="No">1.000000e-02</Option>
    <Option name="TestRate" modified="Yes">5</Option>
    <Option name="EpochMonitoring" modified="No">False</Option>
    <Option name="Sampling" modified="No">1.000000e+00</Option>
    <Option name="SamplingEpoch" modified="No">1.000000e+00</Option>
    <Option name="SamplingImportance" modified="No">1.000000e+00</Option>
    <Option name="SamplingTraining" modified="No">True</Option>
    <Option name="SamplingTesting" modified="No">False</Option>
    <Option name="ResetStep" modified="No">50</Option>
    <Option name="Tau" modified="No">3.000000e+00</Option>
    <Option name="BPMode" modified="No">sequential</Option>
    <Option name="BatchSize" modified="No">-1</Option>
    <Option name="ConvergenceImprove" modified="No">1.000000e-30</Option>
    <Option name="ConvergenceTests" modified="No">-1</Option>
    <Option name="UseRegulator" modified="Yes">True</Option>
    <Option name="UpdateLimit" modified="No">10000</Option>
    <Option name="CalculateErrors" modified="No">False</Option>
    <Option name="WeightRange" modified="No">1.000000e+00</Option>
  </Options>
  <Variables NVar="11">
    <Variable VarIndex="0" Expression="read_pt_1" Label="read_pt_1" Title="read_pt_1" Unit="" Internal="read_pt_1" Type="F" Min="2.40016861e+01" Max="1.20155237e+03"/>
    <Variable VarIndex="1" Expression="read_pfmt_1" Label="read_pfmt_1" Title="read_pfmt_1" Unit="" Internal="read_pfmt_1" Type="F" Min="2.45615784e-02" Max="2.40144360e+03"/>
    <Variable VarIndex="2" Expression="read_pt_2" Label="read_pt_2" Title="read_pt_2" Unit="" Internal="read_pt_2" Type="F" Min="2.00001984e+01" Max="1.15361841e+03"/>
    <Variable VarIndex="3" Expression="read_pt_tt" Label="read_pt_tt" Title="read_pt_tt" Unit="" Internal="read_pt_tt" Type="F" Min="5.96447513e-02" Max="2.21355322e+03"/>
    <Variable VarIndex="4" Expression="read_m_vis" Label="read_m_vis" Title="read_m_vis" Unit="" Internal="read_m_vis" Type="F" Min="1.17751436e+01" Max="1.46055579e+03"/>
    <Variable VarIndex="5" Expression="read_met" Label="read_met" Title="read_met" Unit="" Internal="read_met" Type="F" Min="6.53218627e-01" Max="2.21479517e+03"/>
    <Variable VarIndex="6" Expression="read_P_chi_pf" Label="read_P_chi_pf" Title="read_P_chi_pf" Unit="" Internal="read_P_chi_pf" Type="F" Min="-1.49460913e+03" Max="1.74413684e+03"/>
    <Variable VarIndex="7" Expression="read_LPT" Label="read_LPT" Title="read_LPT" Unit="" Internal="read_LPT" Type="F" Min="0.00000000e+00" Max="3.08451172e+03"/>
    <Variable VarIndex="8" Expression="read_DeltaR_leg1_leg2" Label="read_DeltaR_leg1_leg2" Title="read_DeltaR_leg1_leg2" Unit="" Internal="read_DeltaR_leg1_leg2" Type="F" Min="5.00006616e-01" Max="5.05562925e+00"/>
    <Variable VarIndex="9" Expression="read_DeltaPhi_leg1_leg2" Label="read_DeltaPhi_leg1_leg2" Title="read_DeltaPhi_leg1_leg2" Unit="" Internal="read_DeltaPhi_leg1_leg2" Type="F" Min="-3.14115930e+00" Max="3.14108753e+00"/>
    <Variable VarIndex="10" Expression="read_DeltaPhi_PFMET_Higgs" Label="read_DeltaPhi_PFMET_Higgs" Title="read_DeltaPhi_PFMET_Higgs" Unit="" Internal="read_DeltaPhi_PFMET_Higgs" Type="F" Min="-3.14159179e+00" Max="3.14159036e+00"/>
  </Variables>
  <Spectators NSpec="4">
    <Spectator SpecIndex="0" Expression="read_npu" Label="read_npu" Title="read_npu" Unit="" Internal="read_npu" Type="F" Min="4.49875779e-02" Max="4.07937813e+01"/>
    <Spectator SpecIndex="1" Expression="read_event" Label="read_event" Title="read_event" Unit="" Internal="read_event" Type="F" Min="2.00000000e+00" Max="3.22175104e+08"/>
    <Spectator SpecIndex="2" Expression="read_final_weight" Label="read_final_weight" Title="read_final_weight" Unit="" Internal="read_final_weight" Type="F" Min="0.00000000e+00" Max="1.34559107e+00"/>
    <Spectator SpecIndex="3" Expression="read_ratio_weight" Label="read_ratio_weight" Title="read_ratio_weight" Unit="" Internal="read_ratio_weight" Type="F" Min="3.76235396e-01" Max="3.76235396e-01"/>
  </Spectators>
  <Classes NClass="2">
    <Class Name="Signal" Index="0"/>
    <Class Name="Background" Index="1"/>
  </Classes>
  <Transformations NTransformations="1">
    <Transform Name="Normalize">
      <Selection>
        <Input NInputs="11">
          <Input Type="Variable" Label="read_pt_1" Expression="read_pt_1"/>
          <Input Type="Variable" Label="read_pfmt_1" Expression="read_pfmt_1"/>
          <Input Type="Variable" Label="read_pt_2" Expression="read_pt_2"/>
          <Input Type="Variable" Label="read_pt_tt" Expression="read_pt_tt"/>
          <Input Type="Variable" Label="read_m_vis" Expression="read_m_vis"/>
          <Input Type="Variable" Label="read_met" Expression="read_met"/>
          <Input Type="Variable" Label="read_P_chi_pf" Expression="read_P_chi_pf"/>
          <Input Type="Variable" Label="read_LPT" Expression="read_LPT"/>
          <Input Type="Variable" Label="read_DeltaR_leg1_leg2" Expression="read_DeltaR_leg1_leg2"/>
          <Input Type="Variable" Label="read_DeltaPhi_leg1_leg2" Expression="read_DeltaPhi_leg1_leg2"/>
          <Input Type="Variable" Label="read_DeltaPhi_PFMET_Higgs" Expression="read_DeltaPhi_PFMET_Higgs"/>
        </Input>
        <Output NOutputs="11">
          <Output Type="Variable" Label="read_pt_1" Expression="read_pt_1"/>
          <Output Type="Variable" Label="read_pfmt_1" Expression="read_pfmt_1"/>
          <Output Type="Variable" Label="read_pt_2" Expression="read_pt_2"/>
          <Output Type="Variable" Label="read_pt_tt" Expression="read_pt_tt"/>
          <Output Type="Variable" Label="read_m_vis" Expression="read_m_vis"/>
          <Output Type="Variable" Label="read_met" Expression="read_met"/>
          <Output Type="Variable" Label="read_P_chi_pf" Expression="read_P_chi_pf"/>
          <Output Type="Variable" Label="read_LPT" Expression="read_LPT"/>
          <Output Type="Variable" Label="read_DeltaR_leg1_leg2" Expression="read_DeltaR_leg1_leg2"/>
          <Output Type="Variable" Label="read_DeltaPhi_leg1_leg2" Expression="read_DeltaPhi_leg1_leg2"/>
          <Output Type="Variable" Label="read_DeltaPhi_PFMET_Higgs" Expression="read_DeltaPhi_PFMET_Higgs"/>
        </Output>
      </Selection>
      <Class ClassIndex="0">
        <Ranges>
          <Range Index="0" Min="2.4001686096191406e+01" Max="1.2015523681640625e+03"/>
          <Range Index="1" Min="2.4561578407883644e-02" Max="2.4014436035156250e+03"/>
          <Range Index="2" Min="2.0000198364257812e+01" Max="1.1536184082031250e+03"/>
          <Range Index="3" Min="5.9644751250743866e-02" Max="2.2135532226562500e+03"/>
          <Range Index="4" Min="1.1775143623352051e+01" Max="1.4605557861328125e+03"/>
          <Range Index="5" Min="6.5321862697601318e-01" Max="2.2147951660156250e+03"/>
          <Range Index="6" Min="-1.4946091308593750e+03" Max="1.7441368408203125e+03"/>
          <Range Index="7" Min="0.0000000000000000e+00" Max="3.0845117187500000e+03"/>
          <Range Index="8" Min="5.0000661611557007e-01" Max="5.0556292533874512e+00"/>
          <Range Index="9" Min="-3.1409535408020020e+00" Max="3.1410875320434570e+00"/>
          <Range Index="10" Min="-3.1415917873382568e+00" Max="3.1415903568267822e+00"/>
        </Ranges>
      </Class>
      <Class ClassIndex="1">
        <Ranges>
          <Range Index="0" Min="2.4009199142456055e+01" Max="6.5794512939453125e+02"/>
          <Range Index="1" Min="1.8802128732204437e-01" Max="6.7329559326171875e+02"/>
          <Range Index="2" Min="2.0000818252563477e+01" Max="2.2450215148925781e+02"/>
          <Range Index="3" Min="1.1548618078231812e+00" Max="4.3642880249023438e+02"/>
          <Range Index="4" Min="1.2248987197875977e+01" Max="7.5639422607421875e+02"/>
          <Range Index="5" Min="1.2945233583450317e+00" Max="3.5021295166015625e+02"/>
          <Range Index="6" Min="-1.7223530578613281e+02" Max="3.1820333862304688e+02"/>
          <Range Index="7" Min="0.0000000000000000e+00" Max="2.7240810546875000e+03"/>
          <Range Index="8" Min="5.0061500072479248e-01" Max="4.7367711067199707e+00"/>
          <Range Index="9" Min="-3.1411592960357666e+00" Max="3.1396870613098145e+00"/>
          <Range Index="10" Min="-3.1415398120880127e+00" Max="3.1409835815429688e+00"/>
        </Ranges>
      </Class>
      <Class ClassIndex="2">
        <Ranges>
          <Range Index="0" Min="2.4001686096191406e+01" Max="1.2015523681640625e+03"/>
          <Range Index="1" Min="2.4561578407883644e-02" Max="2.4014436035156250e+03"/>
          <Range Index="2" Min="2.0000198364257812e+01" Max="1.1536184082031250e+03"/>
          <Range Index="3" Min="5.9644751250743866e-02" Max="2.2135532226562500e+03"/>
          <Range Index="4" Min="1.1775143623352051e+01" Max="1.4605557861328125e+03"/>
          <Range Index="5" Min="6.5321862697601318e-01" Max="2.2147951660156250e+03"/>
          <Range Index="6" Min="-1.4946091308593750e+03" Max="1.7441368408203125e+03"/>
          <Range Index="7" Min="0.0000000000000000e+00" Max="3.0845117187500000e+03"/>
          <Range Index="8" Min="5.0000661611557007e-01" Max="5.0556292533874512e+00"/>
          <Range Index="9" Min="-3.1411592960357666e+00" Max="3.1410875320434570e+00"/>
          <Range Index="10" Min="-3.1415917873382568e+00" Max="3.1415903568267822e+00"/>
        </Ranges>
      </Class>
    </Transform>
  </Transformations>
  <MVAPdfs/>
  <Weights>
    <Layout NLayers="3">
      <Layer Index="0" NNeurons="12">
        <Neuron NSynapses="30">
          -4.8122772124016089e-01 1.5157071985126624e+00 7.5374059687204775e-01 2.3292632155850588e+00 -3.6396717220778529e-01 -9.7025914326545371e-01 -4.3159720440590799e-01 2.1159235170429809e+00 -1.2332554777803570e+00 -1.5868586751818576e+00 -1.5290816058462173e+00 -4.2533197955024149e-01 -6.8039764750717657e-01 -2.5004425293729377e-01 -5.2500637486072710e-01 2.6463899820538872e+00 -7.4282408340679909e-02 1.3184663120955509e+00 6.0720963597938893e-01 1.1922611377507717e+00 -5.3460475687492726e-01 2.2921753952965257e-01 -1.9666418118159805e+00 1.8763624557494402e-01 -3.1675581473912323e-01 -1.9995474942168343e-01 1.8559884642257602e+00 -8.6519813085921338e-01 -8.3487814299949459e-01 -2.1112671851025930e-02 
        </Neuron>
        <Neuron NSynapses="30">
          1.5503474569941920e+00 1.1831663739851470e+00 1.3417291038771803e-01 -1.5120828275711733e+00 -1.0618486626967780e+00 -2.8609173108445635e-01 -3.5017983164872507e-01 2.4486619199581829e+00 -3.2397545148228968e+00 1.7347413432300658e+00 8.2722761568114123e-01 9.4640571879055790e-01 1.7883691295530946e+00 1.3585095604350852e+00 -1.3015925987841326e+00 -9.9940432579400951e-01 1.1527013283381147e+00 -4.3745034542497607e-01 5.4354160726710277e-01 1.1125944241514223e+00 1.3056086708865249e+00 1.7455124050280704e+00 -7.3554712878449333e+00 9.5211869590426168e-01 -3.9000124371229008e+00 -9.6156664055975771e-01 -1.0387434092630654e+00 -1.6311884490512141e+00 1.6467078566987843e+00 6.5954433464603723e-01 
        </Neuron>
        <Neuron NSynapses="30">
          -1.4376240164630631e+00 1.2026515481277291e+00 -2.7357907498683515e-01 9.4081401635612749e-01 5.8863628183046190e-01 -7.2965215273876927e-01 1.7540408876243530e-01 -7.9744327010795357e-01 -6.7597854040556993e-01 -3.4942962618763246e-01 -1.6734894795933779e+00 -6.8602786228797452e-01 -4.0274984896666011e-01 1.1626176346592449e+00 1.1289355582995380e+00 8.8255615861069725e-02 -8.8630347143859411e-01 -1.1266192322666548e+00 -1.7764609336868689e-01 6.8285770899815079e-01 2.1237646963436116e+00 8.4415121590700326e-01 -2.7232412341623182e+00 -3.7651456530656768e-01 -5.0961901763902684e-01 -4.4860225848622431e-01 1.0595611009195256e+00 -1.3353168051316833e+00 -1.0897812717965061e+00 -1.3446966034205790e+00 
        </Neuron>
        <Neuron NSynapses="30">
          -7.6862583656303884e-01 6.9860971438441777e-01 1.6673278199643859e+00 2.4884178229803600e-01 2.3752905789982706e-01 1.1108634850394392e+00 -1.7370540442759621e+00 -8.0364392309180854e-01 -8.9929842684164274e-01 -7.6167125176239314e-01 -1.7131179694834102e+00 -1.4576479665358888e+00 7.6578589562470145e-01 1.4404356923744670e+00 -8.9452274844352186e-01 1.4744365566497668e+00 -6.5666203180009197e-01 3.7148620872648946e-02 6.1858712723709464e-01 5.8871123092423136e-02 -1.5980808192599585e+00 4.6972517520019097e-01 2.3899870528570383e-01 8.4363866101176932e-01 -7.8972616788485261e-01 2.6868575524031355e+00 6.3047141065125745e-01 -1.2096109378880333e+00 1.3901809143584678e+00 -2.4673838075745658e-01 
        </Neuron>
        <Neuron NSynapses="30">
          -1.4458337919103468e+00 5.1632765804895064e-01 -6.8698090593878630e-02 1.0022783860673457e+00 2.0859784861535009e+00 -5.4245409370501119e-01 -7.4071250422346124e-01 6.3528751565677044e-01 -1.2975655421797363e+00 8.6773779967798725e-01 -1.8664040633548595e-01 -2.0958458937663553e+00 8.1350783963974371e-01 -1.2320493586562622e+00 1.5891065401938420e-01 7.0893053453227373e-01 2.0673217291019954e+00 -1.0612448034434667e+00 6.4332733288349486e-01 1.4624771924249056e+00 1.6532021027922925e+00 8.2514635486194354e-01 5.8351642750236310e-01 3.7232229139575751e-01 -7.8089515891357486e-01 1.2677013525088918e+00 1.5375201317735261e+00 -5.9528509642941729e-01 -4.5605274786437838e-01 -1.1961792549295695e-01 
        </Neuron>
        <Neuron NSynapses="30">
          -9.4451597405257826e-01 9.7468875759635154e-01 2.2281680732811240e+00 -1.3767609564004819e+00 -1.9086567774553775e+00 3.8413240980103319e-02 1.1191043874113202e+00 1.5049191019164940e+00 -7.7912690151581077e-01 -8.9682928919318727e-01 1.8360657650729051e+00 9.7621973662740036e-01 2.2867476404760001e-02 3.5268177216942337e-01 4.8358185727122249e-01 -1.2769962341972172e+00 4.4342060837545980e-02 1.2824549173155069e+00 -6.1408432395038814e-01 -1.4295411457877656e+00 1.5335258500484745e+00 2.0935079598879187e+00 -8.7379853224896262e+00 1.6231051491142570e+00 -4.8547455232858630e+00 -2.6323855640322926e+00 7.3083031933356757e-01 -1.1906203650490645e-01 4.9778009683047963e-02 -1.4200868674588820e+00 
        </Neuron>
        <Neuron NSynapses="30">
          -2.6032850562919174e+00 1.8380517886583219e+00 1.1802584345845597e+00 -6.8877797805669594e-01 9.9029904480451492e-01 -5.6677890119631635e-01 -2.1541525860506594e-01 1.1218768058975341e+00 2.8788675494748674e+00 -1.2012612717623812e+00 -1.0068968851066160e+00 1.1802462788826016e+00 1.3284233159482084e+00 9.0523124058607396e-01 5.3730179644737053e-01 -8.4067654969891592e-01 -1.5851261391033882e+00 7.6717413370406629e-01 7.6351669312199377e-01 -1.0811446803126359e+00 -4.8461330847100770e-01 9.6083874456789953e-01 4.0106348013595046e+00 -1.3538574687632148e+00 3.2584001647589433e+00 5.8221924758663990e-01 -3.9272461979026579e-01 -3.1435967448685653e-01 1.1887640410627278e+00 8.6625361589835892e-01 
        </Neuron>
        <Neuron NSynapses="30">
          1.4293748045339438e+00 1.8023251670167140e-01 -2.0881131764974659e+00 -1.2253624534025502e+00 2.6269005136349897e+00 1.1805497715051927e+00 1.1543828934319766e+00 -9.4810093622190528e-01 4.6082042382101376e+00 -5.1835471101490593e-01 -3.6777731120885970e-01 1.7133501682839884e-02 -1.2196436371765260e+00 1.1418193334969069e+00 1.1116334675563557e+00 -2.6193525732346297e+00 1.5046345116999676e-01 -1.2896954850593527e+00 -1.1532533827337310e+00 -5.1572640610674725e-01 8.9181696258329202e-01 -1.4401685437133940e+00 1.4633370455586165e+00 -9.7994984719049938e-01 1.2185847204407021e+00 -1.0984527080102122e+00 9.4649881167202032e-01 2.6614963333809041e-02 -2.1814572277468702e+00 -2.0385341187749706e-01 
        </Neuron>
        <Neuron NSynapses="30">
          -1.8245423808889427e+00 9.1404213093328010e-02 -9.1765739144931946e-01 -1.3936198028831042e+00 -1.5447016862106695e+00 5.0484999144679188e-01 -4.8828123138135815e-01 -3.3519825475507319e+00 4.8299470592580205e+00 -8.5950801025734458e-01 -1.2169927313994028e-01 -5.0164785613608387e-01 1.1642009197585250e+00 2.0587720241412883e+00 2.5180508163731794e+00 4.1822464944404325e-01 -1.1476106018737218e+00 -1.1067268146738640e+00 -8.4422955145032064e-01 -2.6707868162936133e+00 6.2466803999153286e-01 -2.0681687930848485e+00 1.9715555645900860e+00 -3.7768439422418615e-01 1.8933782632637319e+00 5.3794739387358070e-01 -1.5208611901346978e+00 1.1041757764153088e+00 7.6791961267788283e-02 -2.2414525491349138e+00 
        </Neuron>
        <Neuron NSynapses="30">
          -3.1413732119666876e-01 7.8391774082563492e-01 3.0994629039705496e-01 1.0549544882025985e+00 -2.4216756173688396e-02 -5.8041696733967030e-01 8.0110393019819826e-01 -3.7277782739444065e-01 -1.0353473713626855e-01 -5.1707909470359426e-01 1.4475925469880971e-01 -2.9412482024907699e-01 -7.9297057907648749e-01 -6.0380983570885416e-01 -2.5979300761409312e+00 -9.6965634819223545e-01 -1.5391464231669778e+00 7.6261099113708042e-01 -1.0036871262579254e+00 4.6798731774385266e-01 -1.6882907193223955e+00 6.7777514985643134e-02 -5.2922875239858808e-02 -2.7069262936032046e-01 -8.1046276452372557e-02 1.2330250812947223e-01 1.9913170344047310e-01 4.3049078486746667e-01 -5.5929656112407289e-01 -1.7795806111794785e+00 
        </Neuron>
        <Neuron NSynapses="30">
          -1.6492250738652867e+00 -4.1993888498289680e-02 1.9765078646764112e+00 4.1618134582602551e-02 -2.0249253779437207e-01 9.7898821283414095e-02 -1.6320290015398669e+00 -1.6392435490294972e+00 1.3757180124665208e-02 -5.9843463375182315e-01 1.4355964040810882e+00 -9.1869542245061930e-01 -8.3906321590779209e-01 1.6444348549757268e+00 5.2255804662201200e-01 5.3379321677070900e-02 3.1034557222672512e+00 -1.7938705806153932e+00 1.5505935943150357e+00 1.6643162867387253e+00 -7.0178065241527554e-01 7.3177695622027139e-02 5.0394464517105261e-03 -2.5168514533740916e+00 3.9773128096546092e-03 1.7489601385531532e+00 8.7036510550724677e-01 1.2241227269688129e+00 -1.7304285203882535e+00 2.8614397861201466e+00 
        </Neuron>
        <Neuron NSynapses="30">
          -1.7933018272162593e+00 -1.2602577136023294e-01 -1.7760660305043272e+00 -2.2253072745045994e+00 -8.2593108080060873e-01 1.7183620590166089e+00 5.5553977117141706e-01 1.8963120104713562e+00 -6.8544898876853633e-01 2.4676196601178252e-01 -1.8657908815823313e-01 -4.0647728589086038e-02 2.5853247456964108e+00 -1.8233637186834637e+00 -2.0149608435108650e-02 -6.6814017081537225e-01 4.9836289998593152e-02 4.1157775946171932e-01 1.1825792091883889e+00 -1.5801517693402940e+00 7.9768607868688424e-01 3.0885147353345541e+00 -1.5947154058461440e+01 3.5442748567974720e-03 -8.0218952777123445e+00 -1.5877963018140400e+00 -2.1200209734793587e+00 1.3915633812313803e+00 3.5541413500994645e-01 -1.0469815115060503e+00 
        </Neuron>
      </Layer>
      <Layer Index="1" NNeurons="31">
        <Neuron NSynapses="1">
          -1.8107397101059566e-01 
        </Neuron>
        <Neuron NSynapses="1">
          -8.3872337724284118e-01 
        </Neuron>
        <Neuron NSynapses="1">
          -2.2671495849658746e-01 
        </Neuron>
        <Neuron NSynapses="1">
          -5.1673818210265854e-01 
        </Neuron>
        <Neuron NSynapses="1">
          2.6899433654381566e-01 
        </Neuron>
        <Neuron NSynapses="1">
          -4.9131976750248901e-01 
        </Neuron>
        <Neuron NSynapses="1">
          -5.1008224942586433e-01 
        </Neuron>
        <Neuron NSynapses="1">
          -1.1943208191437081e-01 
        </Neuron>
        <Neuron NSynapses="1">
          -2.4029520462734968e-01 
        </Neuron>
        <Neuron NSynapses="1">
          -2.5743443006685579e-01 
        </Neuron>
        <Neuron NSynapses="1">
          4.4591576811760131e-01 
        </Neuron>
        <Neuron NSynapses="1">
          -4.4528886621855979e-01 
        </Neuron>
        <Neuron NSynapses="1">
          -3.8541131949310686e-01 
        </Neuron>
        <Neuron NSynapses="1">
          1.4689325624767018e+00 
        </Neuron>
        <Neuron NSynapses="1">
          2.9998081678505428e-02 
        </Neuron>
        <Neuron NSynapses="1">
          -2.9151937631994912e-01 
        </Neuron>
        <Neuron NSynapses="1">
          -1.3028825524199425e-01 
        </Neuron>
        <Neuron NSynapses="1">
          2.0003326734903198e-01 
        </Neuron>
        <Neuron NSynapses="1">
          4.9273471905886640e-01 
        </Neuron>
        <Neuron NSynapses="1">
          1.6561429633261796e-01 
        </Neuron>
        <Neuron NSynapses="1">
          -3.7701902199536272e-02 
        </Neuron>
        <Neuron NSynapses="1">
          -2.3454986225508689e-01 
        </Neuron>
        <Neuron NSynapses="1">
          -1.0343096317417018e+00 
        </Neuron>
        <Neuron NSynapses="1">
          2.1044237371000735e-01 
        </Neuron>
        <Neuron NSynapses="1">
          6.8927666428993339e-01 
        </Neuron>
        <Neuron NSynapses="1">
          -3.4117350447537165e-01 
        </Neuron>
        <Neuron NSynapses="1">
          7.3646743840047357e-01 
        </Neuron>
        <Neuron NSynapses="1">
          5.6780557737323312e-01 
        </Neuron>
        <Neuron NSynapses="1">
          3.9650904558763234e-01 
        </Neuron>
        <Neuron NSynapses="1">
          -1.9404631370404102e-01 
        </Neuron>
        <Neuron NSynapses="1">
          1.5942406452547393e+00 
        </Neuron>
      </Layer>
      <Layer Index="2" NNeurons="1">
        <Neuron NSynapses="0"/>
      </Layer>
    </Layout>
    <InverseHessian NElements="152881" NRows="391" NCols="391">
      <Row Index="0">
        1.5301126535944288e+01 6.4057683311572760e+00 -1.6175883791567891e+00 1.6756959485221696e+00 -1.8487727012178921e+00 2.7605205747107828e-02 -2.2455965480894441e-01 3.7239397474275160e+00 -9.0138897682217678e-01 1.1487549202902310e+00 5.0218320010053796e-01 2.6188268786235032e+00 -2.8818242136042754e-02 -3.6144910493614919e+00 7.4385576622714673e+00 -3.3378320053132704e-01 -6.8159307529814672e-01 3.7023225820093133e+00 3.6695199273089463e-01 1.0078203868954729e+00 -5.9067601088377870e+00 8.3396757470081373e-01 -6.9971321482038551e-02 1.9452109138158149e+00 -2.4146100389705619e-01 -3.7692957080371419e+00 1.1812728935140314e+01 -4.6595195591204472e+00 -3.4005750938557899e-01 1.3965817475859654e+00 -1.8688126626066932e+01 -1.0594263609476560e+01 1.7615389819555374e+00 -1.9262297573429699e+00 2.6171416326913266e+00 6.0319282270806474e-01 -1.0465168133459676e-01 -5.6587184241203330e+00 1.2711441321552410e+00 -7.2728130081317754e-01 -7.8214136804446399e-01 -3.3184653109244886e+00 2.7479717472492471e-01 1.7544009586844240e+01 -1.1546086489380661e+01 9.6493556623836652e-01 4.1753080043065616e-01 -4.7639601110061855e+00 -2.9611718887387756e-01 -1.0003373601095062e+00 1.1362157095602063e+01 -8.1441711411682471e-01 2.6093977386297151e-01 -2.2956929905782171e+00 -8.1802770002301517e-02 5.2951751588365621e+00 -3.2197526456662487e+01 8.7538502235706037e+00 9.0627096297210774e-01 -1.5270658474845709e+00 -4.8688353028953291e-01 -2.8613934683678366e-01 -8.5825209041931783e-01 5.6840256286887758e-01 1.3411086286861396e-01 1.8239946940750507e-01 2.6306458739304406e-01 -4.0821156399867542e-01 1.4096694622472872e-01 5.8351028798392834e-01 2.2093417966762630e-01 3.6383921633875715e-03 -4.4682602425591467e-02 6.7152952012795204e+00 2.8589083519243061e+00 -6.0731853213059184e-02 6.6243128444388621e-02 -8.1190684175733363e-01 4.2155622427681963e-02 1.6604056208337328e-01 4.7501943718545192e-01 6.0258801384183158e-03 3.4932507570795912e-02 -1.3647427086384556e-01 -1.3010169385437387e-01 6.4591141444001621e-01 -1.0364715522344241e+01 1.7539894755233920e+00 -6.0988844747105253e-02 -9.7452800683875629e-02 -3.9330667937927744e+00 1.9163402896271364e-01 9.9065877778368194e-01 1.0638178354190144e+00 2.1328872193999479e-01 1.7838258046158642e+00 -5.1420892619589931e-01 -1.9271242013499008e+00 6.6586681962527550e-01 3.3651330373004029e-01 -6.9627258228620814e-01 -9.8497842425064275e-01 -3.1962990455397378e-01 6.2650352748583984e+00 -2.2538606074716565e+00 7.8623065420790594e-01 -1.6895576032387982e-01 -5.5631605334998713e-01 1.2681726677863087e-01 -9.1866315456676895e-01 7.6813240440373498e+00 -4.8382431680895127e-01 -3.9681370683040215e-02 -2.5309198383882792e-01 6.2778599618810826e-02 7.1696759817990552e-01 -7.7367002852765125e+00 2.0118846503655305e+00 -2.4223144547570352e-01 2.5165495342441968e-01 -2.9505844919832369e+00 1.0568277676141875e+00 1.0170148677336679e+00 9.4779114247081364e-01 -4.5775961414354072e-01 1.5696884036258796e-01 -2.9175806735626142e-01 1.0105389191594956e+00 2.8728298862985535e-01 1.4194715689476092e+00 3.8780658035197813e-01 -2.9365351601147127e-01 -3.4410476702753662e-01 -1.1255441441509632e+01 -2.8189982469200046e+00 2.6734422304433125e-01 9.0059670016532145e-01 -2.2205926185399738e-01 1.7203427327423351e-01 -4.0508358738340844e-01 -4.2253711393940279e+00 -1.5519331917802637e-02 5.6034229323842215e-02 -4.0515288610535627e-01 2.0079564532696742e-01 3.1570091386253818e-01 1.9746778120164592e+01 1.7312405669588316e-01 1.5118916129493387e-01 -4.1701889562641314e-01 8.7959208933882227e+00 2.0314250693641327e+00 -1.4803758785483492e+00 -1.4439576061274895e+00 -1.1248393321609071e+00 -1.9160002456150427e+00 7.1063600730124032e-01 3.9461025066318687e+00 -9.8303626348545992e-01 2.1956885745104660e-01 5.1701027176849146e-01 9.3716566257540279e-01 2.0860210040777119e-01 -6.4204982987340911e+00 4.4672298811184916e+00 -1.3566749162989609e+00 4.7867385897681602e-01 2.7624694157482788e+00 -1.5824436217912385e-01 1.5007866068869162e+00 -1.0892512876195298e+01 8.1459626169622545e-01 1.5560912961803991e-01 8.7875799733248661e-01 -1.4036701542868613e-01 -1.7710525510338033e+00 3.3956941194743969e+01 -6.4057296065890972e+00 -1.4413937769884899e-01 3.4154730893631413e-02 -6.2307836992363104e+00 -4.2299293911024165e+00 4.6142189320159049e-01 -8.0028341771295786e-01 1.5710082987881728e+00 -2.3399983107766920e-02 1.6845097900564276e-01 -1.6385936414276265e+00 4.6353086601326099e-01 1.5745341345030275e+00 -2.5385135651576629e-02 -2.2199053945533018e+00 4.6290034147393322e-01 5.3942569426541231e+00 -6.0251804010899335e+00 1.7555517816157606e-02 -4.8965789852836383e-01 -1.0693454820879742e+00 -2.7948101324571761e-01 -3.2587398838131865e-01 7.4354248566656072e+00 -2.8347548083499968e-01 -3.6786957538309496e-02 -9.3263094032886107e-01 4.8940298049146826e-02 1.9687835693471838e+00 8.7577134806440693e+00 1.2245402794915092e+00 5.7585233576443240e-01 -7.6641728347048488e-01 -1.9766844753816677e+00 -5.2351596228158392e-01 -2.5527457035180312e-01 2.8534448371167903e-01 9.6291423018567857e-02 -3.6567201259699011e-01 6.1965377571940516e-01 -1.1594710458259916e-01 1.3198687845133758e-01 2.0210531962761902e+00 2.2928172457496326e-01 -7.5164766438677288e-01 -1.6113128130284804e-01 -4.3667232207406528e+00 2.0032502989344456e+00 2.8818046368284456e-01 4.9081285993839274e-01 -4.0469204317396185e-01 -1.4071493939462026e-02 -4.0125280234277694e-01 5.8546007600287275e-02 -1.8978477196413737e-01 2.3878434104862567e-03 -3.4758980493211133e-01 4.4187989991947313e-02 2.4084986686188753e-01 2.2958357544878147e+00 -6.7304555144390865e-01 -2.9650823701660972e-02 -2.9747181848454013e-01 -3.2669556728979177e-01 3.2143067464239961e-01 -4.3166320274674969e-01 -1.4792408885718096e+00 -5.3565128839860399e-01 -5.8626357961777309e-01 1.2623093522868800e-01 -3.9794745477722637e-01 1.2855529011831041e-02 1.0320466627717679e+00 3.5540314393891104e-02 -2.6736595424141407e-01 8.5804188739086129e-02 6.6817969814263760e+00 1.8440602558232024e+00 -8.6414792036365901e-02 -3.1838921531406650e-01 -5.2172371890769131e-01 1.1646506773136389e-03 -2.5101719431739933e-01 2.2976678192919984e+00 -2.2237252605936433e-01 1.1169347511743657e-03 -1.4424401379705390e-01 1.0446442201696549e-02 1.9996863339799520e-01 -1.7372041192329561e+01 5.8220740752878442e-01 -2.5507033040349014e-02 -3.3238083362122128e-01 1.2456468655972540e-01 -3.5534578649820947e+00 -8.3061244592968139e-02 7.8495810125763610e-01 1.3674235627863005e-01 1.5511575787002266e-01 3.2972910536353706e-02 5.6230082921592900e-02 -5.7712749173306644e-03 5.9909552933204757e-01 -8.7757052381959300e-03 4.4657162476525625e-02 1.4039014235330549e-02 5.8498124688712383e-01 -3.6356598132962237e-01 -7.6443272111246463e-02 -2.6017656392340482e-01 4.5114993030284156e-02 -9.5471337937213296e-02 -7.6634976733544580e-02 5.3583106723160636e+00 5.7670543299137567e-02 3.2697623107467919e-03 -3.9337369874614531e-03 3.0199863558433293e-04 -1.4873986337344491e-02 -5.4135168861958647e+00 -1.7298619612555211e-01 -5.9748215954115724e-02 -3.0698691468294831e-01 -1.9072436340130761e-01 6.6877869696203862e-01 -2.0507715482661126e-01 1.0845547570374059e-01 2.4344883960127489e-03 -7.8370655853394755e-03 1.0525287466654276e-01 -1.8136862892867534e-01 -1.0957323426969034e-02 3.6218926534074525e-01 -8.4172627279461842e-03 -2.9754917813195431e-01 -2.5769190375179885e-02 -3.0898138414161167e+00 3.3988882536632303e-01 1.4250765796122050e-01 6.6559282790620999e-01 2.7902956421291591e-01 1.5828771824551130e-01 1.1448478908600146e-01 -7.0583021474259411e-01 7.1414576032562516e-02 2.7037662275448335e-03 -1.2766526518225163e-01 5.9494236239531206e-03 -1.1949518778988710e-01 -1.8113693056332579e+01 -1.6807931275799604e+00 1.0175405888097622e-03 4.4262711638979524e-01 -3.9762483186187421e+00 -8.1037098529277785e-01 -2.6617911900119040e-01 -1.5196537951206635e-01 -7.1548948446903604e-01 -1.5624849965091636e-01 3.3785541299123190e-01 7.8368146948959883e-02 5.8068774895611441e-01 3.2199602773942022e+00 1.2572814568692481e-01 -1.5586418514308766e+00 -1.4465038978475775e-01 -2.5345635668587647e+00 6.1373868113366914e-01 6.5357229963024366e-01 9.0663425098978667e-01 -6.9315614440884588e-01 3.4289487012205022e-01 -3.3216570611479579e-01 6.6171476006643672e+00 2.2145457868994356e-02 3.5402565995800850e-01 -7.1718982527396358e-01 -3.0728807128349789e-01 1.6959657284178933e+00 4.3988692150595938e+01 3.4781148840248832e-01 2.8828955888804958e-01 -4.0554379029489773e-01 -2.4983236044205381e-03 -1.4912759935811772e+00 5.3694950143115903e-03 1.1737085725514111e+00 -3.7907738615048300e-02 1.0995064047558587e+00 8.5507091628373250e-02 1.8883084653976215e-02 3.3554999511870576e-03 -1.3144088662243669e-01 -1.3256385523268982e-01 6.3523064445796251e-03 3.0681335253359282e-02 1.7088336342671127e+01 -2.0704638510953388e-02 4.4362379099328386e-02 4.3602446794756833e-02 -1.1559106456900148e-01 -6.5810823191651213e-02 -4.2324139162933844e-02 -9.0250398768102036e-02 2.5153907675532907e-02 -9.3331987421505974e-02 -4.4938520061625908e-03 1.0782981269704491e-01 -5.7687906836875996e-02 -3.2357805514053780e+01 8.6059838799373689e-01 7.2368125348289958e-03 4.9839681978029890e-02 -1.7465436170075868e+01 
      </Row>
      <Row Index="1">
        6.4057681513749225e+00 1.1575089141921094e+03 -1.2435316033734285e+01 -8.4486353064152944e+00 1.0611153076613743e+01 -3.9139783477130926e+01 -9.5320275425631138e+00 -1.0334923816523260e+01 -3.6855989283178809e+00 2.0548576513474089e+01 4.1131851978866472e+00 -1.2626339864744452e+01 3.4617358060490231e+00 -1.0408794552027015e+01 -5.4942880561466012e-02 -2.7423153884235711e+00 1.2404223170918518e+00 -1.3537195018799878e+01 2.3357701336796231e+00 6.2849052442310596e+00 4.7399264846318268e+01 3.6684429623691992e+00 -5.9549124618738958e-01 -6.2150867201973368e+00 -3.9101391578003235e+00 6.6838359405606607e+00 4.3666120051099853e+02 5.8288527346094703e+01 -4.6642339432112090e+00 -1.1593872308115190e+00 -6.9597611886305231e+00 -1.3044253845468234e+03 7.4805366244412177e+00 1.9443579279432708e+01 -1.7922209254790292e+01 4.8693010532013204e+01 1.6636042224784887e+01 1.8391677084041664e+01 7.8856980691176792e+00 -1.4274647957234130e+00 -9.4297257396828318e+00 8.2898085922737934e+00 -4.5435336902288324e+00 -4.0832968318131748e+01 -1.8259742495796218e+01 3.1472512455538744e+00 -1.3395700876884812e+01 2.6776843911151087e+01 -2.3916654676060660e+00 -1.9302801877440896e+01 -1.0170186549067560e+02 -9.4667302446256514e+00 1.3498019571236648e+00 9.3049066682062538e+00 5.6003856520686295e+00 -7.7487580099491611e+00 -2.8549743746409126e+02 -6.4479161274725584e+01 7.6497829470240362e+00 -1.9999931240338498e-01 1.3822414300691062e+00 2.7440020742778142e+02 -6.2475438607453517e+00 1.7473451016914305e+00 1.0481189373476996e+00 -8.1140247048937262e+00 1.6004168570990269e+00 4.3134031313414054e+00 -3.2260696538892937e+00 9.1167701641165664e+00 1.1060471819156912e+00 5.9915121156224771e-01 3.3174678194681597e+00 -8.1496811878770412e+00 -4.6234262686167575e+00 5.3999734165969526e-01 9.7670249707790391e-01 6.1363362852904428e+00 -3.3919088242593853e-01 -3.8926601576075104e+00 -2.6396904135480604e+01 -1.0607030269907463e+00 5.0443841594376249e-01 1.2997762957100378e+00 1.9959244265739629e-01 -3.2726771524627765e+00 1.3204593896156797e+02 -1.8164484966484899e+01 3.3445565523603298e+00 -5.8345469826989138e-01 3.5254135674969334e-01 1.6443813771405240e+02 -6.1345702520207723e+00 -1.2896928220525101e+01 -1.7579550945442191e+00 -3.9022895415735426e+00 3.9176488638007485e+00 7.5152400495948157e+00 4.2230251563410368e+00 8.3421690680496496e+00 -3.0542848048064073e+00 1.7326733088354285e+01 1.9191134659131599e+00 -1.1663326546203486e+02 -3.7408303399781220e+00 1.0354915517939425e+00 7.8742419305135414e-01 5.4717761206251803e+00 -1.6202515391519505e+00 -9.3234607108583205e+00 3.1839080579464181e+00 -3.1057173802227318e+00 3.4949596883910382e-02 4.8921629357187770e+00 4.0757537731451166e-01 -4.6456103444019559e-01 -1.2185894052648200e+02 6.5511158084644165e+01 6.1777760869157774e+00 -5.6968218910631858e+00 -5.1359431190727847e+00 5.2222335263496291e+01 7.2249178990614551e+00 5.4275560358911825e+00 1.2492204977722931e+01 -9.0398029941070526e+00 -2.1079059391617005e+00 -6.1097382896457120e+00 1.2080511721108569e+00 2.5662178124633442e+01 3.4015732209894884e+00 1.7955678554155959e+01 -6.8455295678001011e+00 1.7071241705260604e+01 1.7314087526549073e+01 -9.4912792137595403e-01 -2.4966887995953364e+00 -3.0180756652292189e+00 2.3628146902469922e+00 -4.8267829112198903e+00 5.7978647990020718e+01 3.5869730309702770e+00 7.4129562939129645e-02 -4.6882993910152706e+00 1.3348847799104568e-01 5.6219671653960308e+00 9.9939321037265688e+02 1.4936022690168158e+00 -4.9183126664073917e-01 3.9522314938494754e+00 9.5087463326900412e-01 9.0657823033089585e+02 -7.6024003027771414e+00 -7.8316020290863193e+00 3.1728691011272829e+00 2.2023059193800187e+01 -1.0303546578625145e+01 -1.6461241952383201e+01 -5.1838204112392292e+00 -5.9774762132032064e+00 7.1757302573671273e+00 -2.5938045488180855e+01 -1.3649970475673565e+00 1.7698074884715444e+02 2.8707301330392781e+01 4.1507555287780473e-01 5.2503532296021298e+00 -1.5191197290280947e+01 1.4354874591779163e+00 1.7716240833050961e+01 2.9389254181777030e+01 4.8489585116064458e+00 6.9041181537997542e-02 -6.3455182138718342e+00 -1.8861917840480054e+00 3.2981330710195493e+00 -4.6014120308258754e+02 3.3915367678446565e+01 -1.1923174253061806e+01 6.0566421223473128e+00 -5.9650618295877749e+00 -6.2762710619137056e+02 -3.2235854225830836e+00 -6.5039506262237854e+00 -1.2929203786736103e+01 4.5429767591800228e+01 2.3564753944940140e+00 -3.2436704993190952e+00 1.8311451693701493e+00 -5.5133052556020834e+00 6.1085812227118796e-01 -1.6239247935655392e+01 -3.2624535823727037e+00 1.7434208051559796e+01 7.8675540067669036e+00 3.8740734013327209e+00 -4.9146754873026808e+00 6.3778060586571881e+00 -2.7607798994618449e-01 -7.3175135626925787e+00 -3.3144358295093667e+01 -5.4238881141332946e+00 -3.2166673778208743e-01 1.0917943975919151e+00 1.6730836013723804e+00 -2.0963611536554572e-02 -8.5137350070531488e+02 3.8868967586762537e-01 -2.0447419293089717e+00 1.3337530984628183e+00 1.4288009851578032e-01 3.7887172846900860e+01 9.0128005342326318e+00 1.9019149205145816e+00 -1.6470654689703474e+00 1.2774963084255436e+01 2.3790129072527844e-01 -3.4700794794505612e+00 -1.7669817933632286e+00 -9.4100750479323469e+00 -9.2986692919284586e-01 -6.5414162115899650e+00 1.9890204462379391e-01 2.6119089940854417e+02 -4.5716473570634557e+00 1.7817062154896524e+00 3.1897290477434579e+00 4.2446775392744289e+00 -7.4978276830192847e-01 -8.0784209638543913e-01 2.2620335403415748e+01 -2.7488268558749751e-01 4.2433311190024470e-02 2.2668437367702516e+00 4.0745485722975539e-01 -1.7814907343842581e+00 -1.0339793109508064e+02 -2.2117884164720685e+01 1.7392227934007312e+00 -1.0518796272066060e+00 -1.6732649995156801e-01 8.2919743239093336e+01 1.4751793106425581e-01 4.9529649325849459e+00 -2.8382992012816142e+00 1.8086189764392643e+01 1.5921307912812730e+00 -1.6133951612991790e+00 -1.5314049283227882e+00 -4.6066185688290844e+00 3.7703624600544144e-01 -1.5749713288769074e+00 1.1842950181806482e+00 3.1450336156645818e+01 -1.3011874393465567e+01 -1.9692255196280040e-01 1.7325732239738905e+00 4.4893995997109117e+00 -1.1947989644107224e+00 6.6869102231068398e+00 -1.2531531093609965e+01 -1.6893493859964765e+00 -5.7745185645965841e-02 2.1729559991071770e+00 1.2902985421758112e-01 -2.2061308063273568e+00 -1.8453120356345539e+03 -4.2650638203871116e+00 1.0018232737837918e-02 -3.1286683255521830e-01 1.4017845912416826e-01 5.6352931775873017e+01 -4.7910605050567889e-01 -5.0193773786446059e+00 3.0893376205995540e-02 -8.6733247712228501e+00 -3.9007727581056062e-01 -1.1834059250127948e+00 4.3530287381562349e-01 8.2561227592268105e-01 2.7650592830214284e+00 8.8875596082729502e-01 2.1242232431995384e-02 -5.7102901179345333e-01 -4.1831728170688063e+00 -9.1177211320566487e-01 -8.2820158470149652e-01 -1.4012356516799722e+00 -1.1139048301488502e-01 -2.1325201214583736e+00 5.6320326769826874e+00 -6.1794323730602940e-01 8.7246959610037984e-03 -1.0900259628654934e+00 4.8674645933548533e-02 -8.1824430584886032e-02 1.9261887649048617e+02 -2.4106818076373951e+01 -1.1301727650972851e-01 5.6349077326743113e-01 -3.4908679681666399e-01 -2.3912433366507475e+01 -5.4130635146076749e+00 -1.8738180130856135e+00 7.2147717474223723e-03 -4.5652713558338709e-01 -6.3353266085124105e-01 -3.3314095731272597e-01 9.9568729541700957e-03 -1.3541524064563797e+00 2.9613698855523909e+00 3.1347995032435034e+00 4.2436817845193087e-01 6.2358872519698650e+01 6.4510909154131291e-01 2.7912554579399629e-01 4.7491896044315984e+00 1.4201204120789850e+00 2.3625535798264252e-01 -4.3127666925177461e+00 5.6692767795206098e+00 9.1382118139542889e-02 -1.1862693737441280e-02 3.6786813819912112e-01 -4.0235478791329715e-02 -3.4340194229068999e-01 -1.1717740273133588e+03 -1.9530184863103193e+02 1.0920078558239230e+00 7.0259181292338013e-01 -2.4904310830182386e+00 4.5886323970701619e+02 -1.4278733461200943e+00 4.3396131549271324e+00 4.0393219836082404e+00 2.3518454884598192e+01 1.3808693055046835e+00 -6.5384105929564749e+00 -1.1054396185754900e+00 3.5218808787471239e+01 4.8059759438243574e+00 -9.5674690005242127e+00 -2.9106783015421911e+00 4.4036113058267483e+02 7.9876424641088031e+00 3.0675034135166364e+00 -5.9311781216102517e+00 9.7851525484865967e+00 7.7539823837178701e-01 -5.3411613197656482e+00 2.6419019413462593e+01 -3.1737841084614757e+00 1.2691647716928571e+00 1.2969455910441763e+00 8.4954558452688822e-01 1.2980829717187587e+00 -6.1289268907470478e+02 -2.2384090394588111e+02 6.9352692823043549e-01 9.0663607580023609e-01 2.5008707440537969e-01 5.1495306036943498e+02 -1.0438779668981164e+00 -8.1609472925313771e+00 2.0393173515477314e-02 4.7567131162926728e+00 -1.4748521130213815e-01 7.3048298339105991e-02 -8.1142338651145618e-02 2.5710660689076961e+00 -3.2371554567681216e-01 -4.6699764852179815e+00 1.3624995857643851e-01 -7.9675381018118242e+02 1.7565189680843807e-02 5.0260263003979143e-02 1.2499159807499194e-01 5.1289039688143312e-01 1.8562694628931808e-01 8.2207896278264703e-01 5.3884386783708216e-02 -1.5262984143104308e-01 -1.2748977245641652e-01 7.0853927182044529e-02 2.0241312274285495e-01 3.1975575213120133e-01 1.7475387331702734e+02 -4.3236525737522427e+01 4.4953679258775026e-01 -1.0206288432316435e-01 -7.5099096547674236e+01 
      </Row>
      <Row Index="2">
        -1.6175883718011304e+00 -1.2435316120455155e+01 2.0527202578795574e+01 -3.5028301678752438e-01 -7.8898798203497456e-01 4.3050866763871243e-01 -7.1210466829468866e-01 -1.8373038253740237e+00 -2.9952536896286075e-03 -4.6857997523193262e+00 1.3893907551439760e-01 -1.9448707576483946e+00 -1.2591280886877085e+00 2.4331673381393308e+01 9.4219083503330552e+00 1.6564709914059672e-01 3.9741127772453435e+00 -1.7204676120429299e+00 -3.3348351013691407e-02 1.7448704589333650e+00 9.0071722219820689e+00 2.1154842132294460e+00 -2.1077230249492351e-01 2.0746204129464454e+00 -8.4720607159937555e-01 3.8423387197653586e-01 -1.1496475241833224e+00 2.2487660208339224e+00 7.1466438362351947e-01 1.0680252789236599e+00 1.1502854891155607e+00 1.8738046955659190e+01 -2.2785386058640189e+01 3.5710031684073962e-01 1.5246484809740162e+00 -1.8383914721155881e+00 9.0716577044311641e-01 3.0107128044607752e+00 2.8356841655341691e-02 3.8259633620626654e+00 -3.6657736360208704e-01 4.0458527065714325e+00 1.8438311492635502e+00 -6.2647213208398966e+00 -8.0463907994782335e+00 5.8230159592176678e-01 -4.5342958545738208e+00 1.6260976919585701e-01 4.2211126594755823e-02 -1.2430619408192700e+00 -1.7332727162510185e+01 -2.4982873464703301e+00 2.7339156041189527e-01 -2.8930545149088820e+00 4.5167438010667749e-01 -3.3427414993009691e-02 -1.3749787216638333e+01 -5.2822677066305417e+00 -4.9689594722289043e-01 -1.6443400478997123e+00 -1.0348922067267083e-01 -1.3978377255101844e+01 4.4322273335133011e-01 2.4008566692342415e-01 8.2816237148148342e-02 -2.8676776217986122e-01 -1.3353010947541760e-01 -4.3382627957478015e-01 -1.0313335442331292e-01 3.3239451370530171e-01 7.5445519286703178e-02 9.9735039529735869e-01 1.2556890648544772e-01 7.8755729080861787e+00 2.5070874587448078e-01 1.9662794381492987e-02 2.8699584882499968e-01 4.0752992882216149e-02 4.7881759090853127e-03 2.4424773168672423e-01 -2.3096486726271941e+00 -2.8817033678721654e-02 -5.4262583505582440e-02 2.5834109703673946e-02 -2.5542714492872437e-01 2.7097583847377860e-01 -1.0970386358793457e+01 -2.2767004133324606e+00 2.5548341966837429e-01 -2.7353327664429006e-01 -6.6069130530752052e-01 -1.8458279920815684e+01 -1.9127101678069722e+00 -9.2018580703185515e-01 5.4920155360920742e-01 -1.3745351032395536e+00 2.1413844061841492e-01 -2.4504449426411834e-01 -1.1898386951163709e-01 1.2295216182024529e+00 7.0464241299038388e-02 8.3527336801195529e-01 6.0384796912038330e-01 1.9608391190876645e+01 2.8330259662913151e+00 1.0493174076084593e+00 -2.7029415282647946e+00 4.4379077778762221e-01 3.3132981229275471e-01 3.7636717065088865e-02 -1.1630963247816879e+01 -2.8759848466626148e-01 9.7328841047029380e-03 9.8180112766070637e-02 4.4594574050334512e-02 -1.1221205038987808e-01 6.8383995911458513e+00 -4.4921108561853069e+00 4.9572959636144720e-02 7.3897431649923684e-02 4.0646659466399560e-01 4.5972701455183920e+00 -3.1507105142026939e+00 -1.0663705391659959e+00 2.7111178293385829e+00 7.4339676950973899e-01 1.4664493061174033e-01 1.9191962287693798e-01 2.3078928151342742e-02 1.5186511682307264e+00 -3.2743153330798358e-01 -5.2963469657876028e-01 2.3861491794661494e-01 -1.2814813355116840e+01 -2.6532615545561526e+00 8.7486812962671356e-02 -8.8478962055241794e-01 -3.3085491718884530e-02 5.5074560003211537e-02 -9.2363983423116203e-01 1.2791267575111007e+00 -7.6553501193405804e-01 1.5167019824440769e-01 -5.7597202345918252e-01 3.8666961657303167e-01 -3.3184715317567881e-01 -8.7315571995617816e+01 5.5070755302028429e-01 -9.9252044496241154e-01 1.2200051674713319e-01 2.9040119610519671e-01 9.1391482234579300e+00 7.1837752949519800e+00 -1.5472723561149571e-01 -8.9727070984428214e-01 2.2705732786128938e+00 -2.6430948416896483e-01 -7.3003410110667843e-01 2.3333450315620802e-01 -2.3694565549984135e+00 3.8162239545828341e-02 -2.1443971387218204e+00 -1.0146163609469219e+00 -1.1001616298093481e+01 -6.0223179617084099e-01 -1.2630090491264685e+00 4.0465271672710710e+00 -8.3352830042948856e-01 -1.7145764833756824e-01 2.3768093847545135e-01 1.7760275079006036e+01 4.8199051835958495e-01 -6.2697490860783744e-02 9.6339708374902455e-01 -6.5711406823882246e-01 3.4481357805974455e-01 -7.1614207146623308e+00 8.1109893399665083e+00 -1.1576113940995447e-01 4.7869903706299666e-01 1.0173568643862114e+00 2.2968082322324634e+01 -6.5785537054340812e+00 6.4153657351835314e-02 1.0153958345405196e+00 -1.1830290770593510e+00 1.2537988207579745e-01 9.6223774375311455e-01 9.1668379162963998e-02 8.2823568810821835e-01 3.6696385003443344e-01 1.1364936689566396e+00 7.6316715862049855e-01 3.9661331593276330e+00 -2.0746278912422920e+00 -2.0312314596522829e-01 -1.0743040601596294e+00 -3.0362198040234001e-01 -9.7436237344643295e-03 -6.5219103275561352e-02 -5.2516923139067355e+00 -1.1530685566125900e+00 1.5321247498331042e-01 -1.1839624523600962e+00 6.8664146438942497e-01 3.5277685358521765e-01 -1.3348522897180423e+01 -1.2239989616657001e+00 -3.4906140543955466e-01 -4.8484477791305003e-01 -9.8174200774184150e-02 -2.0086570469928287e+00 -1.7005413690759177e+00 7.8291106057168736e-01 4.0949532432519198e-02 -5.3632963701447034e-01 -1.7374267674267391e-01 -1.5994125137194226e-01 -7.2409955112592447e-02 1.9570038527051383e+00 2.6714341399790831e-01 -1.0543957502866590e+00 1.5784366783020071e-01 -7.7641522207128588e-01 1.3516336699327098e+00 -4.0795128006256753e-01 -1.1685580244355649e+00 8.2185347965266409e-01 4.6279103437707969e-02 -9.1144961981374895e-02 -1.9757696445103723e+00 -1.1058321187045400e-01 -3.6481761117222733e-05 -3.2029853494507932e-02 1.1004955555334164e-01 -1.2196057319804554e-02 -1.3608042600132116e+01 -3.3466790252040957e-01 -1.5078633448140533e-02 4.3866856098235624e-02 6.3944489521953696e-02 -5.7931120408469603e+00 -2.4525322137505157e-01 1.0168953436273471e+00 -3.4883976222702684e-01 -4.4706864403321367e-01 8.7757476916070498e-03 -3.7125505354618227e-01 -7.3630775934436093e-02 1.0289541869082153e+00 9.4212985255099913e-03 -1.2829228626213565e-02 7.7472555895399642e-02 1.0946073065012973e+01 2.4616137824434956e+00 3.8884414531235534e-02 -3.3207655016208787e-01 2.3939098556326521e-01 -5.6498390890860506e-02 1.9509224391249569e-01 6.5731041730999307e-02 2.8409696535552331e-01 -1.5135428627927043e-02 1.8114169260054644e-01 6.3944022233089245e-02 -7.7505637172188280e-03 1.0156332151952665e+02 -1.7839616220372703e+00 1.4940257383456379e-01 -1.1399272452060011e-01 -4.8804213028509243e-02 4.9909620542942408e+00 1.4305747855115553e-01 -2.5156615166303764e-01 1.5675810117233346e-01 4.4947968969614222e-01 1.4429958385353114e-01 -7.8644081895548279e-02 -1.1970247925539169e-02 7.9262958684134868e-02 3.1453938435145601e-02 -1.5185764735796844e-01 1.0297402003599845e-01 -3.4643874318569319e+00 1.5738733076687783e-01 -7.5623485748592956e-03 -2.5681509321439711e-01 3.7376667744877079e-01 -8.3798557161860576e-02 -4.3338090635984450e-01 -2.4748194646593848e+00 -2.9890376705599658e-02 5.8123972365223889e-03 -1.2158668754720670e-01 1.4894004842133948e-02 1.7041445780616948e-02 -1.9102127938722234e+01 1.2269301692342751e+00 1.1631187665792264e-01 -2.2802451299140592e-02 1.7180884878993691e-02 -1.7139514876935547e+00 8.4660273084334214e-01 1.8974918151108666e-01 1.3747357963956160e-02 -7.5088030175024789e-01 -7.4897931863441292e-02 -2.2711247315387578e-01 6.7144088909570354e-03 -4.9159251192149256e-01 -3.1832359690407075e-01 -3.0641574162815399e-01 6.1523981532405791e-02 6.3491875561054716e+00 2.1276018979631672e-01 4.8663700602463861e-02 3.2730768364727331e-01 -2.3284115423682827e-01 3.1698955338448243e-02 5.5887831019138989e-01 1.4412387023998896e-01 -5.7860688298067120e-02 -1.0191984897171859e-03 -5.6744664502191333e-01 4.0335794081902687e-03 4.1941515530607987e-06 8.6907861082168353e+01 2.1071038635665218e-01 4.8908827550062650e-02 -1.8247719125374395e-01 -5.3932250798022441e-01 -2.2547258314030820e+01 -1.9172183696406808e+00 -2.5879202603796747e-01 2.7901979737649603e+00 -1.9646527980540989e+00 1.4597370520362740e-01 -3.5755393226958310e-01 -6.4120645796820419e-02 2.5152686734869096e+00 -4.6098629632326871e-01 3.5058156959982778e-01 7.7420825720617903e-01 1.3800589977660479e+01 3.5339298470151128e+00 1.8243233668818970e-01 -1.0272331980143816e+00 -7.4649495829191759e-01 2.0306997224707224e-01 -2.2831757174902467e-01 -8.6496551926957608e+00 -7.5845395758043965e-01 1.1399593107932793e-01 -7.2489158610199045e-01 -5.9401572270567216e-01 4.5683888690894792e-01 -6.1723123560309013e+01 -3.7692184931217980e+00 -4.1844062617690692e-01 -3.1037259188242505e-01 -4.1191148599047031e-02 -4.0963349853495767e+00 -2.2895537086070838e-02 -4.7342829395603969e-01 -3.2880208722540827e-02 -4.5059984363898731e-01 -5.3942380649609101e-02 2.4106112756631291e-02 -1.5201580211417917e-02 -2.1664707254105231e-01 4.7690720546950255e-02 9.8057354032282551e-02 -2.0172735917635617e-02 -1.9326709964165758e+01 -1.4749428434958564e-03 4.7797230073106448e-02 1.5250217287414672e-02 3.2458790908900303e-02 -7.1357913693187558e-02 -1.4756026165564332e-02 7.1532430438536077e-02 -4.9785488359458896e-02 -2.1757498520156376e-02 -5.0017675399255335e-02 -3.8415252213571650e-02 -4.0967569636099946e-02 -1.1261362630669538e+00 4.2072011513602336e-01 4.4026969570779562e-02 7.7961783607537888e-03 -2.4913158939542949e+01 
      </Row>
      <Row Index="3">
        1.6756959590215936e+00 -8.4486354834039847e+00 -3.5028301075104562e-01 1.9523331196898081e+01 8.5623855961013573e-01 3.5340641173192049e+00 1.3235907532412408e+00 2.4296188283675875e+00 4.7713143933144869e-01 -2.3828653077276880e+00 2.4389211608267999e-01 1.4621146569490380e+00 5.3335828605760938e-01 -1.3186756361181926e+01 -4.2322522566826484e+00 -1.8663041623196739e+00 2.4301658286555183e-01 1.1894446491223611e+00 -5.4918395791141050e-01 1.0221582616902078e+00 -2.7507682050319033e+00 3.8558023682824372e-01 -8.2367635627580116e-01 4.3715344931349531e-01 -5.5222813048369113e-01 -1.1008510273002259e+00 -1.6728336107809852e+01 1.7165134137800528e+00 6.8866992119175463e-01 1.1247717660258303e+00 -2.5218640028084565e+00 1.5339267049911342e+01 1.1377731772272132e-01 -2.2256679845834817e+01 -1.7846023969771210e+00 -4.6903185195267190e+00 -1.8308929610384699e+00 -4.5201607368172203e+00 -1.6470297869937180e+00 2.4469637764452177e+00 -8.9189737906790345e-01 -1.6341034451660079e+00 -1.9631763102184507e-01 2.5302105815175366e+01 1.4164508178284555e+01 3.1672972973546987e+00 1.7988809757225415e+00 -1.7657499416379352e+00 6.1840791046368149e-01 -2.1870168732217463e+00 5.8966679329590699e+00 -4.2667015374908601e-01 1.0290575784685689e+00 -1.3748855204415817e+00 1.2516894032535970e+00 2.0704195199387052e+00 -1.8277892083578905e+01 -3.2949481979516455e+00 -6.0635163156347538e-01 -1.3966571438097191e+00 2.6191807587636096e-01 -1.3691639789164451e+00 -2.5648537295065282e-01 4.1155843426785665e+00 -1.2020231212928620e-01 1.4890427553398322e-01 -1.1185412052956190e-01 1.6716766625382939e-01 -4.6436976757039039e-01 -4.6047600058468691e-01 -3.9425242120992271e-01 5.3309873191399682e-02 2.0647819021402875e-01 9.8024131855144585e+00 9.2156045243389961e+00 2.5325647653643013e-01 -6.7008845872195022e-01 -2.4547308200047713e-01 -1.6897449222275349e-01 -7.0927117021430086e-01 -4.9627435301838485e+00 4.3342192813668567e-01 -9.9853218466091298e-02 -3.3234530855428268e-03 1.7387074957070323e-01 3.4481770728235550e-01 -2.7520005244470333e+01 -1.5794554127434646e+00 2.4478876311831568e-01 -8.8843240638279530e-02 4.5793297422731749e-01 9.4369973606162816e-01 -6.4332816971585638e-01 6.1607989877287206e-01 -1.9080708693559578e-01 1.2475405181126909e+01 -2.0599717356458194e-01 4.6015803140571632e-02 -7.0408757961094171e-01 1.0812706924516213e-01 -7.5016672697033759e-01 1.7529349470715108e+00 1.5880051384428013e+00 1.1095251516631402e+01 1.5544909983837169e+01 1.0024689619878853e+00 -2.9288228507604985e-01 1.1567363702849343e-01 -3.0219319601108086e-01 -1.6894134950532476e+00 -9.9114640044588871e+00 3.7721871852043237e-01 1.9267438162785475e-01 -5.8384718286397097e-01 7.1247692873642590e-02 -6.4413395785247962e-01 -9.6385425705459085e+00 -1.2002872010731187e+00 6.6381799962319399e-01 -3.9276456532229503e-01 6.2922093173009230e-02 8.2438173594164255e-01 1.1798026950191032e-01 1.5166196165715036e+00 -1.0575571472622629e+00 3.8717508771415838e+00 -2.7742186940120295e-01 7.4537014052811967e-01 1.2218617714747571e-01 1.5790547348245010e-01 6.2680163972487435e-01 -6.0382482827503114e-01 5.4445621766345786e-01 -1.5516315380546260e+01 -1.6827986392233729e-01 -2.1879095306935215e-01 -2.3039304849175979e-01 -8.2342597290731712e-01 -6.4917671158509771e-03 2.1218762684590962e+00 -1.8733613185929652e+01 1.6855472870992372e-02 2.1709057429686598e-01 1.1306821746160267e-01 9.6670120915726132e-04 -4.5459975532774366e-02 1.2552121920304948e-01 8.5605711353333958e-01 -3.6806789040424515e-01 5.2732032855277389e-01 3.9137011562961899e-01 -1.1838556781311144e+01 1.4314467183713107e+00 -3.3273070208156912e+00 6.7884644412447859e-01 -1.0685084973928452e+01 8.1857468684659573e-01 1.0084450265371150e+00 7.8561772879479985e-01 -9.1503524596311037e-01 8.7507915140362236e-01 -1.7737870479638360e+00 -1.3166961166413205e+00 -6.3859636936544613e+00 -2.0947019452931208e+01 -1.6050245789609658e+00 -5.0424320237294962e-01 1.8262625350058914e-01 1.7407426115489444e-01 1.7204507084357639e+00 5.9342464631136922e+00 -1.3798144815612767e-01 -6.8560374799924850e-01 8.3510373904791313e-01 -1.5467907011147194e-01 -1.1969539038350518e-02 3.1519748958059921e+01 -1.7687975330456887e+00 -3.9099575211873194e-01 7.0213559960446181e-01 -7.1765474186741063e-01 9.4265517882653924e+00 4.6661659986057202e-02 -1.0794606793821147e+01 -4.4475008834207752e-01 -4.3681894835919897e+00 -8.2135753744072104e-01 -1.9398470013714788e+00 -3.7647509590194961e-01 7.8331600962926173e-01 -1.0747243009432550e+00 -1.3389104803642111e+00 -2.4337916103147128e-01 1.0359039208964647e+01 4.6864355506372792e+00 1.6493902164324188e+00 1.2652722039565489e-01 -3.1743228605222973e-01 5.6973542140352373e-01 -1.1061460610111511e+00 1.8683076061123700e+01 1.1632682217153434e-01 7.6967008736615528e-01 -4.8286474302625859e-01 7.3692659955693063e-01 8.1595389914509886e-01 -4.2698917840854609e+00 -3.7741000679989947e+00 -4.0511733761774699e-01 -3.1482966427857939e-01 -5.1508026160543441e-01 8.6848758742405998e+00 -3.8330755050227061e-01 -5.0463063348775412e+00 1.5690767440153625e-01 1.0739287734683893e+00 -1.1383318498578290e-01 1.7286876558498893e-01 4.0398525426642667e-01 -1.8315209850676362e-01 4.3042934993997728e-01 -8.3854743557753242e-01 -4.2683990169023994e-01 -5.9423570714070806e+00 1.0898588561985255e-01 3.6354440234626617e-01 -3.3676621422906361e-01 -4.4336867880615111e-02 2.5060968680958295e-01 2.2935127908027675e-01 -4.5512422631033616e+00 2.2207345790133268e-02 2.1784341550052128e-02 1.3377936819572128e-01 1.2156646426639772e-02 2.3183982250667912e-01 2.7074412741437399e+00 7.1107447751429875e-01 9.6046077376176653e-02 -1.1409542953962122e-01 1.5735325954582191e-01 -4.2546636330559884e-02 -2.4561124873361473e-01 -9.0114847497755761e+00 -1.7253564428940313e-01 -3.8626198042412589e+00 -9.5115718734265720e-02 2.9293776096897206e-02 3.6896391881237045e-01 -8.7695441144857156e-01 -8.1067119552902245e-04 -8.1017393823493189e-01 -2.1068115743662824e-01 9.5369088562664963e+00 1.9326209625311450e+00 2.6281601147542233e-01 -4.4685590801588682e-01 -3.7699807597089785e-01 8.3430530336442432e-02 -7.9703842949413706e-01 7.3520108285255397e+00 -1.4383029777745115e-01 -1.2579484193845388e-02 -1.7418754378819193e-02 5.7605048791400312e-03 2.4175748153514864e-02 3.8744116002552857e+00 2.2173182844601342e+00 3.5076401821395431e-01 4.4239986729907393e-02 -3.1493473029629578e-02 -1.3168237452852838e+00 -3.6252404752803655e-02 5.3124320106978038e+00 2.5117189117058875e-02 1.9788368137273462e+00 5.6800705992571116e-03 8.6160848682739710e-02 2.6943373898554869e-02 9.6329022155998034e-02 -2.8416662666468029e-01 1.4704303149465076e-01 7.9528595776821323e-02 -4.3734254042753644e+00 -4.8086754186968195e-01 -1.3515174104435337e-01 -1.7845537392599797e-01 -9.1289714632500629e-02 -6.9564398258420368e-02 -3.4432116075164787e-01 1.1388513221100144e+01 1.4661644296678267e-02 -1.2711386853591841e-03 -1.1280258079936253e-02 -1.7192434000268986e-02 3.1547945340969052e-02 -7.6675910513746715e+00 3.0981626908169382e+00 -1.1492603011812125e-02 2.0326617541213295e-02 2.9207763437425260e-01 2.7315878586672238e-01 6.0857681064042449e-02 5.5856899682842731e-01 -6.1390857307227237e-02 8.7935272163067713e-01 3.5238514723839931e-02 1.1053139087987829e-01 -1.0670953276823556e-02 -1.6669327988623106e-01 -4.7299596143033695e-02 -4.0315417642984580e-01 -3.3654325757855030e-01 4.9746842559776923e+00 7.1848780168684900e-02 -6.6929168218147705e-02 5.5808693065868920e-01 2.1540214977335714e-01 1.0926418630977275e-01 3.6162866641470043e-01 5.9231120872153831e-01 4.8028958423578239e-03 -1.4568795152070544e-03 8.9128103862958719e-02 -2.6360059073168296e-03 -2.3746625503965924e-01 -1.1913726533811541e+01 7.2845848682954966e+00 7.9348667041696741e-02 -1.0901643172691300e-01 -2.5228055207201483e-01 7.0304613048545193e+00 -6.5877598973127505e-01 -1.4060533550085619e+01 -1.5924629433512338e+00 5.2451919401913649e+00 -4.4517923175685903e-01 5.5121186623043439e-02 -8.0198310456228317e-01 -1.2206588416858972e+00 1.7030730091556956e-01 -1.2030034873655380e+00 1.0358352866907872e+00 1.4004429593958591e+01 1.4301809377136413e+01 1.1804704845782137e+00 -2.7689269638291236e-01 -1.4135419001941814e+00 1.4279344672932071e-01 -5.8678558559675142e-01 -6.9882291441018509e+00 6.3123302030118111e-01 -1.0350903813235668e-01 -3.6415085913641498e-01 8.1116805325185992e-01 8.7010646070706499e-01 -6.1620649551825952e+00 5.7238405568658326e+00 4.3250590998596439e-01 3.0117028294435499e-01 -6.8484908125631905e-02 -3.9800145971186911e+00 8.1917332602477688e-02 6.3532390963563650e+00 -4.9604113126396732e-02 4.6230421707368725e+00 1.9475150423644338e-02 -1.4982595874667257e-02 2.9126507843567712e-02 1.2075448781781595e-01 3.3609952423436562e-02 3.1380921499087677e-01 -2.0665913134583477e-02 -7.4114808443292915e+01 -4.3045426618899985e-02 4.7841497128998003e-02 5.6517877893389690e-02 -3.9094320865713073e-02 2.5401991003370483e-02 -7.4422649916481065e-02 -1.8854869415722675e-01 3.3546121635312329e-02 8.5798805958328034e-02 1.9669756362946517e-03 -9.1356474945911148e-02 -1.3886249574589646e-01 1.6634092349287421e+01 -1.6131184809995971e+00 1.1701425329001935e-01 -2.0187350747176758e-02 -5.8869882699196339e+01 
      </Row>
      <Row Index="4">
        -1.8487727122142714e+00 1.0611153195731148e+01 -7.8898798178245144e-01 8.5623856856575520e-01 1.2469497293058545e+01 -2.6177663028215670e+00 -1.9307540246013217e+00 -2.1035335921069631e+00 2.1489635428944203e+00 -1.1103431032158722e+00 -1.2399623851887736e+00 -3.8257277555698188e-02 2.4467003105429588e+00 6.2144416878366346e+00 3.5750561603528865e+00 1.6423681867984125e-01 3.5465235127141410e+00 -2.6636144961957058e+00 -2.3740202349407102e-02 -2.5635805062815566e+00 -1.0685887324412832e+01 4.8792521280240564e-01 -2.2106207810217193e-01 -1.2745556287972319e+00 -5.0416831554138064e-01 5.0019803935080409e-01 2.2850856546863753e+01 -5.5007456934499288e-01 8.7791150940420642e-02 -1.3607458308267639e-01 2.7312639799619092e+00 -4.9112577994712581e-01 1.8040941540634643e+00 -1.0914347372128050e+00 -1.7322592057349976e+01 4.8084182467915646e+00 2.6849087382257824e+00 3.7083071149190836e+00 -2.8927957174295873e+00 1.9226157369349852e+00 2.8022465690041916e+00 -6.2373972035694758e-01 -3.1112457751561942e+00 -6.5155413894295506e+00 -6.4151905853082916e+00 -1.7856391799183025e-01 -6.1666038743605007e+00 3.3104664583852434e+00 -6.1446205367903559e-02 2.8517491729086339e+00 1.8474530041112317e+01 -1.9763131180639060e-01 2.6309134275350199e-01 2.0675727193106392e+00 1.0515207342384678e+00 -1.1880442152605881e+00 -1.6305853308329461e+01 2.5928560367091342e+00 -3.3966770691908454e-02 3.1338387568239412e-01 -2.8594369781534734e-02 7.0064289749573732e+00 1.0929014402344062e-01 -3.7935713258959280e-01 -2.2114276234389540e-01 1.0569196171908954e+00 -2.1576270245670601e-01 3.4316290428362700e-01 -1.2104367357376022e-01 -7.7609012338588301e-02 1.0319822547251885e+00 -4.6705085230671217e-01 -2.1030682717932991e-01 1.6331294749418621e+00 -2.6069540928366295e+00 1.4134705189544028e-01 -3.4526024639329078e-01 1.4459525313721244e-01 3.3604434731231436e-01 -1.5831625396742247e-01 7.4900624195121281e+00 1.1614313239200047e-01 4.3467879792039421e-02 -9.1582757447947083e-02 1.4202533173952009e-01 -8.9085535952105888e-02 3.5175670666621635e+00 1.6179056794410283e+00 1.4515526833610023e-01 3.9807685930070352e-01 4.3690369768241921e-01 8.0668701487670660e+00 6.4470083376720710e-01 -2.6291382641034655e-01 -4.4473801864780791e+00 7.4400061457968214e-01 7.7635866082313609e-01 2.6903377690146968e-01 -6.7360318417684006e-01 -4.8393293635920465e-01 2.0415139002481086e+00 -2.7416810176698470e-01 -8.1343153767570131e-01 -5.1119487302850075e-01 -1.2813620130016803e+00 4.2859863348921617e-01 -2.6929417547213461e+00 7.1432314620266701e-01 2.2278833502720308e-02 5.4397893239880535e-01 1.5945356093897836e+00 1.8601382017007262e-01 1.5687672601435909e-01 6.9293402374990121e-01 9.7219585823086985e-02 2.8752401923916460e-01 -2.3037673625567692e+00 7.5230248238320740e-01 1.4645159833055721e-01 -1.9348066801318053e-01 -1.0397686561034612e-01 2.0433570726083090e+00 -7.9957631044377209e-01 4.0227784596609240e-01 -5.1372858967819850e+00 -5.4821716530834852e-01 3.5012243735433968e-01 1.9078978545382719e-01 -3.0906177369177401e-01 1.4044983249054468e+00 -1.2344185800267571e-01 2.6960346728026852e-01 -2.4431959910157408e-01 -1.3626957759061753e+00 1.0279527472103567e+00 3.1228916573653631e-01 -1.5121354163386513e-01 9.0718265760256611e-01 -2.5119372877612678e-02 9.5571524366515392e-02 3.2836515329081664e+00 -2.7583889379359472e-01 4.9041440109302559e-03 2.0839095924550444e-01 1.4131932759937071e-02 5.2752829488208253e-01 4.4104518633768187e+01 -1.3861498762755673e+00 -2.8750317253269464e-01 -2.7922350345518865e-01 -1.2846016757953038e+00 -1.3105543591475701e+00 -8.1283490711797413e-01 9.7594123468945426e-01 9.1703806080023682e+00 -2.8832178627156013e+00 -1.4810029452807947e+00 -1.3091066029772058e+00 1.3135077749862476e+00 -9.4197703264434218e-01 -3.1701974462873852e+00 6.7211270007176371e-01 1.7895121644859293e+00 -2.4560272539520689e-01 2.9244950382851833e+00 -2.5941460039852515e-01 4.3709947652014423e+00 -1.3901236145820661e+00 -6.1252623495758884e-02 -9.2424225716400510e-01 -1.1278539692117604e+01 -6.0204460035196417e-02 -3.8315911618142562e-01 -1.0871922877031213e+00 -4.5598478623279137e-01 -6.4132440660847667e-02 -1.0888321102789664e+01 -9.5012951837014725e-01 -1.3740071072941715e-01 2.8989709201003411e-02 7.5751215036936737e-01 2.4632177524946712e+00 6.5254055096693264e-01 1.6487602011885644e-01 -6.4215028063023105e+00 9.6184325201119991e-01 9.2309158218491627e-01 1.4602566230969176e+00 -1.0565564907654945e+00 1.4397120386353035e-01 1.9993152496163891e+00 2.4360073260945470e-02 -7.0341166261022980e-01 -3.6415230442255382e+00 -7.8551226399589957e-01 -3.3086600436614599e-02 -3.1222901223254702e+00 9.6100271385570157e-01 7.8532658840439362e-02 1.5257078782599058e+00 3.3992196650445967e+00 -9.1785592260505755e-02 1.2559232714167823e-01 8.8956937449041251e-01 3.9463118252445589e-01 -5.7633605102516050e-01 -3.4328142269716309e+01 2.1753947716330595e+00 7.0971237972902668e-02 2.7376014388794245e-01 -9.3284736841070082e-02 3.3617557399865845e+00 -3.4247698989114950e-01 7.0829974727590539e-01 -1.1266551127539328e+00 -9.2930015299191426e-01 1.5760260089583755e-01 8.9856662633831075e-02 -1.5543426585246586e-01 -4.6273997643676945e-01 -1.8046062282603081e-02 -3.7751010148766961e-01 -4.6506527935403952e-01 -1.9920140336968082e+00 -1.0266509597009676e+00 -3.0547756171173179e-01 -8.6151786903065686e-02 5.4473714722693234e-01 2.0150127160688427e-01 8.0631869892123520e-01 2.2716312285059761e+00 -4.1775180457528927e-02 -9.9097514083475169e-03 4.6687024401436616e-01 -5.6447520428927755e-02 -5.1023712957471545e-02 5.7820108326537536e+00 -7.0795092503134072e-01 -1.0191312427829446e-02 -3.0814590999292433e-02 -6.6784890782410011e-02 3.3016448548450039e-01 1.2188268836094146e-01 -3.4313989439627995e-01 2.5325521443145976e-01 4.0727996475072081e-01 -4.0309463370680310e-02 -3.9464143617579217e-02 -2.7631449737379632e-02 -1.0138670127267941e+00 2.2674807925814644e-01 -1.4384766915671121e-01 2.0807323310922499e-02 -1.1970150870291485e+00 -2.6117603002596623e-01 -3.0226337636019479e-02 -1.8600951046202915e-01 2.5335888271787832e-01 -3.8826787118746431e-02 8.3603453851217613e-01 1.4472728996101480e-01 -7.4761079530770880e-02 6.1374608735250205e-03 1.9062392898302322e-01 3.6630604153330415e-03 -3.9314690883994641e-02 -4.3533012135990248e+01 3.0816393858158975e-01 1.4706657837950132e-01 -9.3232079020857395e-02 -4.1882898231082592e-02 3.4979740657751726e+00 -4.3221877790073637e-02 2.3712776459304719e-01 1.2551536180490075e-01 -6.5565990069950481e-02 3.7146632480456687e-02 1.8308940519501597e-02 -3.8256752795356175e-03 -2.0930280773802792e-01 -4.0074482567225234e-02 3.3571231205678370e-03 -2.0373973843340076e-01 4.5664257397141661e-01 -3.9481980808418360e-02 -1.5166892466308127e-01 -1.5158098616781318e-01 -3.7126289631019072e-01 -2.3677981197187836e-02 -1.6264916082306610e-01 -4.1973531531075832e+00 2.8566029140118410e-02 2.0989871489948408e-03 7.8809763233446267e-03 -4.6190316852353641e-03 -2.7223836328714945e-02 1.9630118762972700e+01 4.8377522361294090e-01 -1.0672375338864881e-01 -2.3532721952950076e-02 -1.0702884499470366e-01 2.5828465370502540e-02 2.7372649433309659e-01 3.5805881016255148e-02 1.3540853665450145e-01 1.0504845269057703e-01 -1.5387504219097242e-01 -1.6398942648460885e-01 2.6933443909708865e-02 -3.9288735805876129e-01 -5.0703499352655279e-01 -4.6886645093739715e-02 -1.3042510954916919e-01 -7.1243733975359902e-01 1.3725643996976933e-01 -6.3433886812108209e-02 6.8243420414639822e-02 -8.0452074768647019e-02 -3.1986028509768977e-02 -1.4182217087093285e-01 -3.1698372204043324e-01 1.8207939458510000e-02 -4.5413280290185695e-03 -2.6288616668393716e-02 -3.8863524643074077e-03 1.9668628263692617e-01 -3.7033233656678036e+01 -2.6886570907265934e+00 9.7025014720016900e-02 7.0375735070173473e-02 -8.1364517301828698e-02 1.7678020253894129e+01 -3.1799065058989551e-01 6.2907229070522774e-01 -5.8592274916082703e+00 -3.8120303049136839e-01 4.6627407499950896e-01 1.1212575949958734e+00 -6.3861005370329949e-01 4.3291299734738420e-01 1.1292099131797568e+00 -8.3727632132732310e-01 -4.9311776087232001e-01 -8.9490654961321638e+00 -3.4993464271963965e+00 1.3759168394743471e-01 -1.5553716488949583e+00 1.4388095416793911e+00 3.0934116803521006e-01 1.3751197950068965e+00 5.7428565892271450e+00 1.4646183926050949e-01 -1.1976516347241362e-01 9.3336417848069431e-01 3.0154387551955253e-01 -1.6888961062048047e-01 3.6828306713576922e+00 -3.9884870010055806e-01 -1.3870310638858485e-01 1.3734365473410115e-01 3.0939721212757999e-02 1.1743487519295655e+01 3.0059809476463879e-02 -1.0912667856228575e-02 6.5721577394737829e-02 1.3171869204969378e-01 7.2195230266785371e-02 8.1196329293918013e-03 8.5922008306500847e-03 2.5647684681496297e-01 3.2539935665858455e-01 4.3398518731991576e-03 8.4066699246171508e-02 2.6118008051547257e+01 -3.2217854212015298e-03 4.4289659119820940e-02 9.4812909754205255e-03 8.1907467267640754e-02 -2.7040178515242985e-03 3.9000920255625349e-02 1.0684350364036965e-01 1.4516102358750189e-02 4.3987540398654962e-02 3.0795869484733229e-03 -4.7485794649347150e-02 1.0314760873505258e-01 8.9836466294614326e-01 8.8366545263870844e-01 -3.8232586902036569e-02 2.1003136613011036e-03 3.7321336539832949e+01 
      </Row>
      <Row Index="5">
        2.7605217742012300e-02 -3.9139783449429146e+01 4.3050866013191480e-01 3.5340641015906509e+00 -2.6177662921166878e+00 2.5623486103757806e+01 1.2317613566340064e+00 -7.8787338321465405e-01 4.3517910008702887e-01 3.0286809939975488e+00 5.8153222885697775e-01 -1.0033190330043906e+00 5.9444990834992584e-01 -9.6643276249236365e+00 -3.9312924449360356e+00 -9.5378151212326578e-01 -4.7114347053782524e-01 1.5588926913638166e+00 5.0809089001507513e-01 -9.3698238484307961e-01 -4.5538329130321671e+00 -7.4473017902765237e-01 -3.9102602934625774e-01 1.0597818990885126e+00 -5.4381358421306425e-01 -1.7169342045827979e-01 -3.8797180633099487e+01 1.8095685862248285e+01 1.6038161791886498e+00 -3.8549442820742241e-01 9.7836661910548628e-02 1.3690144686251440e+01 -1.5944547294249767e+00 -4.9372019948364239e+00 4.8336096368484176e+00 -3.4220416470299952e+01 -1.9207764762026049e+00 -1.5922497562947566e-01 -6.8989569806688600e-01 -3.1048405369678078e+00 -1.0043044463334576e+00 2.9298237929507471e+00 5.7163011137844499e-02 1.5250259225253860e+01 9.7390220694268486e+00 1.4569699253687571e+00 1.9582045522423912e+00 -3.8985637001004587e+00 -9.2364222748482638e-01 1.8996947302031764e-01 1.6331958421534960e+01 1.3144417734780980e+00 6.2137359751242582e-01 -1.7711559821996743e+00 8.7411833487089741e-01 1.0015594854042510e-01 4.6902166832084362e+01 -3.3159931218787364e+01 -1.6306580281524350e+00 8.5994226553036013e-02 -2.7765105183826372e-01 -3.1470962834878318e+01 -5.5464422208064812e-01 1.1228953756877220e+00 4.0312577101400465e-01 7.8466865590271551e-01 -5.0400941617422379e-01 -4.8010656288294873e-01 2.3726988894739146e-01 1.4280754263278379e+00 -5.4707828354280408e-01 -1.0033464324016959e+00 2.7502350760678995e-01 -6.3475938929429407e+00 4.4543620037329337e+00 3.8992080047416605e-01 2.4781751208417302e-01 -1.9197640177549280e-01 1.0371809311268178e-01 -7.2232068071516897e-01 -2.0731019392042640e+00 -2.3790726447910160e-01 -8.0219178604870434e-02 -6.8958627061694444e-01 -1.5189102500229057e-01 7.7537686959238850e-02 -2.9619884036149964e+00 -4.9774947031050063e+00 6.3270979857792087e-01 -1.9501882078987443e-01 2.2491222280726253e-01 -3.3561226300152711e+01 -1.8312471859269488e+00 1.0532653149348576e+01 2.8291369459968569e+00 4.7667919736266562e+00 -6.8210832458247794e-01 -1.5572401054476748e-01 -1.0370836427868668e-01 5.7742796108344630e+00 -2.0585697723229086e+00 -1.5048577637505058e+00 1.8300386710470034e+00 1.4869134159681128e+01 3.1491004742693498e+00 6.7154272457997100e-01 -1.3057511277348501e+00 -1.5381096244529213e+00 5.4143708986949979e-01 -3.2121442297681302e-01 -2.2218339346035165e+00 7.4062061268548096e-01 1.4261151917003401e-01 -1.3697422054021313e-01 1.4138173300934753e-01 -3.4990216320713469e-01 -3.0707293375498992e+00 -1.5256170286200668e+01 3.0169894772130612e-02 -1.0343393263913359e-01 -1.9907005090959018e-01 1.8944951681985964e+00 3.9346966681202700e-01 6.6708442008065196e+00 -1.8532208444838716e-01 1.9900840250573653e+00 -1.5570271730506446e-01 9.8628422897150125e-01 -2.5699326332743777e-01 -7.3476117781972761e+00 1.2693577481676956e+00 -1.9493141914678997e+00 4.9445794150559452e-01 9.9549580249856504e+00 -1.1543687196930845e+00 4.2470490895457624e-03 -6.3377994335286436e-01 -7.1835267740556130e-01 -2.0536280223634551e-01 3.6515725848758041e+00 -9.7545610387092339e+00 -1.2260861099832313e-01 1.2577538527712415e-01 -8.0663944010059629e-01 2.6968681765114710e-01 -2.5737503928874417e-01 -5.9996482452312819e+01 -3.5398097558718820e+00 6.8577496399564364e-01 9.7462476194899894e-01 -6.1517445926027414e-01 -7.2286017637600555e+00 1.5109904512513914e+00 -1.3431056700850407e+01 -3.8007411864933207e+00 1.5372699459763741e+00 1.4150211680673412e+00 3.8447874479996624e-01 3.9444445833754938e-01 -3.9872020335428724e+00 1.5496827288377528e+00 1.3150536126430892e+00 -2.0052682729193627e+00 -2.2079033475207581e+01 -7.4602822127073409e+00 -1.1635939703416822e+00 1.0740735066269678e+00 1.5445627453213782e+00 -2.6429691622640128e-01 -2.3065294295444616e-01 -6.4212375575296647e+00 -1.2556488040826377e+00 -2.3555895028667201e-01 6.4633781680946489e-01 -2.1064657796820263e-01 -7.3419083230449544e-02 4.0777434169837214e+01 2.3264937154812721e+01 -2.0136250502627767e-02 -4.3819797457399057e-01 -1.7002752604200777e-01 4.5198391075830777e+00 -1.0410358355934690e+00 -8.2425441192420514e+00 1.6213899306894113e+00 -1.4042876856010219e+01 -5.4920193615085822e-01 4.6521025422217016e-01 -2.7672625270682361e-01 1.7292893335445192e-01 -1.3907961828028674e+00 3.7181234509803711e+00 -4.7530415701147355e-01 3.6549245637319969e+00 2.4059185642511989e+00 -1.0873626598158362e-01 2.0250157931378743e+00 -2.4434047964820635e+00 -8.2549323246840101e-01 -1.4947060344959451e+00 1.6363487159046244e+01 7.5967215097711915e-01 3.0553677636459475e-01 -5.7517141631645119e-02 4.6865954908581470e-01 -1.8319071347726515e-01 7.7620797779464752e+01 -6.6026982801124623e+00 -7.5029357337690583e-01 -7.5501675209690755e-01 -8.9666868722320725e-01 -8.7145895579529942e+00 5.4308505528603856e-01 -4.4841958338118859e-01 4.0685519063347053e-03 -3.1704356828454499e+00 -8.0329512241589351e-01 5.7498150348980082e-01 6.6261751179797958e-03 -1.1634998810679607e+00 1.0705808018308205e-01 3.2736696070628635e+00 -4.6742993438715741e-02 -1.4842658868006213e+01 5.8970021335601652e-01 5.1705738745597851e-01 -4.5990546362217699e-01 6.6685046622874922e-01 1.4033407459339114e-01 5.9171225158110674e-01 -5.2106852270729274e+00 9.3220124768973206e-02 -1.2131578982324254e-03 -1.9601856968969450e-01 -2.0063330600598672e-02 -7.4019352239613978e-02 -1.4270580873492811e+01 1.3887104684275657e+00 6.8488983512840795e-01 1.7702880889852912e-01 -2.7330984283231535e-01 -2.1203675217551535e+01 3.3921634733389971e-01 -8.1545359008324070e+00 3.7585658557700441e-01 -6.1205635554204409e+00 -1.6580257683961777e-01 1.6846108803832571e-01 -4.3370491349697671e-03 1.1684426559118233e+00 1.6663827238718398e-01 1.1101702612215658e-02 -7.7036529465070924e-01 -5.7047619251545649e+00 -4.9143208624063295e-01 1.6481763454104248e-01 -1.5611169614042977e-01 3.7437391625758726e-01 2.7390290685194130e-01 -9.0080423365651552e-01 5.7781721985684502e+00 2.6070287712673190e-01 -2.1358468984061331e-02 -1.6811048242260107e-01 -6.0182386377261234e-02 4.8510398477004113e-02 5.6036056117521639e+01 4.6996604704095315e+00 3.6525472027437211e-01 -1.1719651173378171e-01 -4.9075491337296454e-02 -3.5129222578096941e-01 -9.4621594069405277e-03 4.2319442266764087e+00 -1.9359348233592755e-02 3.6932604316627504e+00 -8.9318820954578632e-02 1.3204902145318029e-01 -1.5016363453662088e-02 -5.0138084887137557e-01 3.6395489842216305e-01 -1.1016468322663424e-01 2.9106603778513329e-01 1.4828837097470784e+00 1.0349512605240276e+00 5.8690948120185403e-02 1.7232967263729365e-01 6.4360553058190328e-04 1.1915905592580792e-01 5.1411952157604898e-02 1.3200465212134139e+01 2.4955140187198521e-02 -5.2864224930367840e-03 6.5374406249274430e-02 -1.6908683756370224e-02 1.1746938867847057e-03 -2.4703675400992520e+01 4.4053399585459623e+00 9.5625922457320461e-02 3.4456672118904824e-02 -2.1681833461441036e-02 -3.4212652811753537e+00 -9.2867510432903266e-01 9.7055802062677810e-01 1.3272768935604681e-02 5.9984209693488288e-01 4.7036624112192116e-02 9.6253070151010131e-02 4.4455724622911585e-03 5.7053532601149026e-01 9.9856920896492640e-01 -8.1114509362592591e-01 -1.9031088893704540e-01 1.1659191314032995e+00 -3.1186163510301823e-01 -1.3157744464944301e-01 -3.3101589275406507e-01 7.2329256993214575e-02 -2.1301073387047756e-01 1.9221266152255723e-02 1.6808905587627874e+00 -1.6358597947520898e-02 -4.4832365806890765e-03 4.1534373735137686e-02 -5.3799899571694287e-03 1.2182572375552736e-01 5.8143447746832436e+01 1.8635553916289737e+01 5.2793866635307429e-01 1.5638321590611604e-01 -1.5368818016108063e+00 -6.0817395927571759e+01 -8.9360974117316694e-02 -5.2342045549146548e+00 1.8294675457275869e+00 -2.8493453459949443e+00 -1.3725553524808538e+00 4.1181275485220592e-01 -1.1724024930165111e-02 -4.1320212562934096e+00 4.8497600714404676e-01 4.1997287159171748e+00 8.7206653337023710e-01 -2.4439389852151898e+01 5.7667053184066361e+00 8.2883002763815838e-01 7.5215998245119309e-01 -2.4422522898672949e+00 -1.5566528513588196e-01 1.0301115581165061e+00 3.3985055212957107e+00 6.9366265442504016e-02 1.5952762534490006e-01 -1.7202114555460848e+00 3.0280108143052997e-01 -6.1913857178774334e-01 1.5227930357601252e+01 1.4637581166404082e+01 1.5977893335565576e+00 1.2161724168989707e-01 1.5828000162015132e-02 -3.5679951797686435e+01 -6.8643232852760083e-02 6.3729756593673494e+00 3.1159437929987321e-02 2.6713001758525130e+00 -2.0750827278912254e-01 -2.8968501971479314e-02 -3.5339731520162149e-03 -4.7872903236763276e-01 -3.2962674534920883e-01 4.5674234671463965e-01 -3.7312308889768270e-01 4.6093400451268927e+01 5.7314377502942770e-03 -3.9202038386736623e-02 -1.6597783424108448e-02 1.2722301252331469e-01 5.6936784956848285e-02 -1.7218262570610252e-02 -2.3555771164498118e-01 -9.5109996536726690e-03 -5.8399002267287203e-03 5.4686316200139751e-02 3.2031670374446340e-03 2.4789961767423631e-02 -1.6250205355255396e+01 8.0123247132668496e-02 3.9076168945671341e-01 2.2425126724204603e-02 -2.1762031633183199e+00 
      </Row>
      <Row Index="6">
        -2.2455965050155813e-01 -9.5320276998858944e+00 -7.1210466332707012e-01 1.3235907567466811e+00 -1.9307540319825116e+00 1.2317613684504676e+00 3.9191399859370959e+00 1.3872275551139790e-01 3.4905796814043621e-01 -1.0673928892302462e+00 2.8944893342543015e-01 -7.3989718637399138e-01 -9.9539675393594995e-01 -2.6477047009139831e+01 7.0545620938526454e-02 -9.3442327004704195e-01 -2.9725852479675741e+00 2.4115491751577012e+00 -8.9081571669831772e-01 -2.3268322677745915e-01 8.1490410040882466e-01 -2.0846943760881953e-01 9.3727954458038401e-02 7.5169799693735051e-01 1.7270225860329505e-01 -1.0228826423814725e+00 5.4079217449664228e+00 8.6573983298609036e-01 3.2452613620513010e-01 -8.1475954487611668e-01 1.9397020810211529e-01 1.5968418012025367e+01 1.0128048662693203e+00 -2.2972359031291725e+00 3.1019378097206252e+00 -1.6603537670881168e+00 -4.7187357447763327e+00 -4.7473865877534394e-01 -5.2863600030286695e-01 8.8852093037406110e-01 -4.9806647738412879e-01 1.6175977489933244e+00 1.0050456619825785e+00 3.0970337202332672e+01 8.7619519288741898e-01 1.2418589049255471e+00 4.0813745997240085e+00 -4.0776207830959246e+00 1.2019370653830652e+00 -1.3069105919882951e-01 -4.9592758300191884e+00 3.4647915896202397e-01 -2.6799571401712435e-01 -1.0752912096007816e+00 -1.3789621362049687e-01 1.8132852034317921e+00 -1.2681746923050916e+01 -2.4563816312265772e+00 -5.4432228076845335e-01 1.4184161023487158e+00 1.0075701378275687e-01 3.2675645381343514e+00 5.3380628615634640e-01 1.0659574968813335e-01 -5.1582197881702790e-02 -1.1311540922857230e-01 -1.1875124505672496e-01 -2.8710330003118467e-01 -8.5888194330682538e-02 4.0077042544524499e-01 -1.9527318254855830e-01 2.0092753895922444e-01 -8.7670770186243197e-02 -7.0036651893387791e-01 2.3862628016638148e+00 2.5723117752390889e-03 -3.0853217514001680e-01 5.9489560847229395e-02 -4.2318948896758399e-03 -2.3923142541411985e-01 -3.2792795145987781e+00 8.8386528051934893e-02 -4.2589106320771841e-02 -1.4833136150188009e-01 1.2629877092626134e-02 -8.6562403286082945e-02 -3.6198619504602814e+00 -3.0810014363822091e-01 -2.4455169361415747e-02 1.7721078944302154e-01 -2.4000014092572425e-01 2.4663919009050446e+00 3.1316205423468313e-01 4.2588915822587814e-01 8.8565369233832880e-01 9.8089529788591523e-01 -1.2332747249376488e+00 -3.3544755884830835e-01 -3.2467854701940579e-01 7.5788369181648108e-02 -4.7350410172789448e-01 5.9294727121468638e-01 3.9351865956431176e-01 3.5787501243921938e+00 -1.0410374080687179e+00 8.6448409033102980e-01 1.8930614233503200e+00 -1.6821614985636049e+00 1.4915615321296832e-01 -4.5128677630990244e-01 2.6372135405587702e+00 1.7763385401287263e-01 -1.9249387777793892e-02 -1.1589284616178158e-01 -3.4964661304056399e-02 1.4769498443042550e-01 8.8533224939471609e+00 1.3043486127606165e+00 -1.7393687179397355e-01 1.2342849861298592e-01 8.0166490569143267e-02 -2.1662701195418279e+00 -1.9919662271816430e-01 3.8226481581830130e-01 -1.9047893802948668e-01 5.2086036794198631e-01 -6.2399515610213863e-01 2.4860528931337944e-01 -6.0665923149928691e-02 -4.5627224720373771e-01 -3.8074774658323096e-02 -1.6824243631946983e-02 6.7448987759458401e-01 7.1254866582942640e+00 -1.5980585701708776e+00 4.7659097528023331e-02 3.7180785157831941e-01 -1.7601908921424125e-01 2.6139821260875218e-02 9.1173906808398941e-01 -4.5503998791007945e+00 -6.8744715133435413e-02 -2.5414790278075111e-02 2.2119115116425725e-02 -4.0310583295675051e-02 3.0455794856722118e-02 9.1505474081946403e-01 7.2769564295466038e-01 -8.3706891682795992e-02 2.2368535672286582e-01 1.1034538977933828e-01 -1.1742294403882052e+01 -1.0085442219195571e+00 2.8619803500113006e-02 -1.5969681886893432e+00 -7.8398248067376353e-01 2.6380149807700826e+00 1.0648607361115356e-01 4.7221182125908490e-01 -2.0943604355951995e-01 6.9088873759805081e-01 -8.3839434891175646e-01 -6.8178270733055069e-01 -1.0237342280962888e+01 2.5696843532040248e-01 -1.0113391845875874e+00 -2.7013059976929350e+00 1.9255594888605194e+00 -4.7087066864459270e-01 4.8856183700665662e-01 -1.9121448943149755e-01 -8.1268730735754913e-02 6.0450021709678392e-02 5.2279803927552515e-01 2.5826495785351278e-01 -3.8804720592856201e-01 1.9001711368248905e+01 -4.4187017588940201e+00 3.5110110026304536e-01 -4.5212481587975384e-01 1.0270596537002280e-01 7.2708109066884035e+00 -2.0975377836947473e-02 -9.8124539844225711e-01 5.0136434022114840e-01 -1.1945800260623225e+00 -1.2531413366286057e+00 -1.3771398880160035e-01 -1.4648598777657135e-01 9.5819879896600757e-01 -4.0903071876984920e-01 8.1052434939682882e-01 1.3826141192929028e-01 9.0810902569264886e+00 4.5023463428810961e-01 3.2131661223338126e-01 1.1395174771512482e+00 -1.7048656130289550e+00 4.3010795543207436e-01 3.6335396368613548e-02 8.0268338724904531e-01 1.6103192946873418e-01 -8.4555829557069417e-02 -4.1802346196316775e-01 -1.2997937336282861e-01 5.6284037648129259e-01 2.3857964554053773e+01 -7.7320584490510038e+00 -1.6986988581462492e-01 7.9589097139469911e-01 1.8366389366064295e-01 2.0353066378881124e-01 7.6578102964385630e-01 2.9607203742311428e-01 -1.3701276782291233e-01 -4.5738620248888706e-01 -6.8955953104541245e-01 4.9621273268276291e-02 -1.3371896700886361e-02 1.1451453815790527e+00 -1.0569091377677498e-01 -3.2016406070583892e-01 1.3309552260620294e-01 3.7365177775681584e+00 1.1917501754693363e+00 -1.7917403811879784e-02 3.7207718871515394e-01 2.8713457362208372e-01 4.9391720574766401e-03 5.4495727564436658e-02 -1.5407611239383883e+00 -3.0129384198927495e-02 2.5681434903898973e-03 -7.2545975331255008e-02 -1.4776469233675871e-02 6.0960159676070186e-02 -7.4175483164968625e-01 9.2432159275338588e-01 2.4049107296032352e-02 9.2420814186036801e-02 -2.8765759139104369e-02 3.0890200703753301e+00 2.8695697279878596e-01 -5.7141514826462136e-01 3.2463936890050604e-01 -6.3708931057439044e-01 -6.3172147782170729e-02 2.6229906609695111e-02 -2.7552638177513189e-03 6.6622985824405667e-01 3.5878359796876036e-02 1.8708145532388296e-01 3.7981166570544178e-02 -1.1414164803046913e+00 9.9580807205585176e-01 5.2036331404224978e-02 2.9645540481560528e-01 1.5102880330803015e-01 2.7522920371966714e-02 -3.3130685522576497e-01 1.8288913632267105e+00 5.4342188852521400e-03 3.9118619814641348e-03 -8.9012293244999957e-02 -9.5438583988034578e-03 -8.2709606867317098e-02 8.1295262894377629e-01 1.7772821571368826e+00 3.0335950949767709e-02 1.8390333213336518e-01 1.1539932309668349e-03 -3.2755738461937760e+00 8.3474394878761266e-02 4.0456187830009133e-01 9.0111287833224196e-02 2.4795619696991669e-01 -1.3906113738992459e-01 3.8462292380206382e-02 1.0065937051558986e-03 2.2107924141105850e-01 -1.1921711656256689e-01 -2.6883957013033088e-02 9.6191009559530249e-02 -8.9185545993437376e-01 -3.6651937712588678e-01 3.0240401191489189e-02 2.7430912401392582e-01 -1.8686992344000321e-02 -1.9794518950504075e-02 1.8899037903827970e-01 4.0784043383427306e+00 6.7928340599997528e-03 2.0240008117203903e-03 6.1423995522863623e-02 5.5643214230246540e-03 -4.0528032063846225e-02 -9.9108368752416069e+00 -1.4945269386956994e-01 6.0504937619553556e-02 3.5384339995879067e-02 -5.0059409524391640e-02 -1.0059383894596676e+00 -2.5992588946833184e-01 1.2966758261264255e-01 1.8718306363603790e-02 -8.2616266967923346e-02 3.0020211536119845e-01 3.6301133213406639e-02 4.4277332386564727e-03 -4.5425298209719411e-02 1.9007097838795847e-01 2.8370443158761655e-01 -1.0318151409766219e-01 -2.5389442692010178e-01 -3.7268781317143507e-02 -5.7381705532557663e-02 -5.2369433824384726e-01 3.5714053043300842e-01 8.1196214039515713e-02 -5.6254778477581091e-02 3.9214948566828234e-01 -3.1436397364178359e-02 -7.7572279072963787e-04 -1.4046600542281132e-01 -9.1532855897857868e-04 -2.2544734315543760e-01 3.7621449290102461e+01 5.6836472812834131e+00 7.0538176700128852e-02 -1.1180104783930433e-01 1.7399287789979478e-01 3.8777578665273662e+00 1.1586926094036141e+00 -3.6100610693370339e-01 3.9071172907187002e-01 -4.7753192286704649e-01 -1.0580335381326358e+00 -5.2161600629600979e-01 -1.8637762939249924e-01 7.5814319506422834e-01 -1.4662434638384392e-01 1.5221526489863058e-01 4.4888570200425204e-01 1.4676933599430983e+01 2.4116324762771670e+00 2.1802779758665203e-01 9.4591240131472887e-01 -1.6918930685579525e+00 1.0713697261952432e-01 5.7638069680781445e-02 -2.7623000182368003e+00 1.8115542529556716e-01 -1.8631526107572255e-01 -3.0188381390668367e-01 1.8585363992793358e-01 5.2755781269961721e-01 -2.3430575119126576e+01 3.1944323806974460e+00 -1.7549073626622688e-01 7.4801255966878433e-01 2.3528927710243924e-03 -4.8566404951888105e+00 -4.8542211081782159e-02 5.8775784896588634e-01 5.4484220750049175e-02 3.8796230054927983e-01 -2.2213308471716023e-01 -3.7371603487044089e-03 -2.2349635854148481e-06 -1.7262656999121265e-01 -8.0001909502230115e-02 2.5377343068972949e-02 -2.1849830453344057e-02 -2.5625422314831518e+01 -8.8187461667757153e-03 1.1478051561312749e-02 -2.1494701627971506e-02 1.0098600196825336e-01 -2.5195007032503547e-03 -1.2062803296952290e-02 -9.6496930732273223e-02 1.2853884157674713e-02 2.9616328899261447e-02 -7.6980137700218831e-03 -1.7902591627868572e-02 -9.5985794013403125e-02 2.1663511051303008e+01 -9.3130565248075414e-01 4.4553313930988936e-03 -1.8940802480917250e-02 -7.5290025434172971e+00 
      </Row>
      <Row Index="7">
        3.7239397515722708e+00 -1.0334923655873009e+01 -1.8373038334946514e+00 2.4296188136175196e+00 -2.1035335800983206e+00 -7.8787339277642121e-01 1.3872274803435070e-01 2.6424690914420403e+01 -1.3020018345324955e+00 2.8401544823300231e+00 1.6827252169466647e+00 3.2965732334319675e-01 -5.2715662215471637e-01 -2.1293579820882233e+01 3.9739145144099535e+00 3.2717331683936024e-01 1.3855457550240979e-02 -1.9285159144178243e-01 1.8682358062478088e-01 9.6167134034352380e+00 2.7524762940967733e+00 -1.0836428068459323e+00 -2.8526580389323442e-01 2.1592975029243977e+00 9.2426426499436387e-01 -3.6430114255010464e+00 -6.5391011771539240e+00 -2.1084732269162085e+00 -6.9957246481032620e-01 8.4388111458313242e-01 -4.7664214047792370e+00 1.3321656505816794e+01 3.4002500511613265e+00 -3.4200836750636947e+00 3.1480452806636423e+00 1.4056857750313403e+00 -5.0017413680842981e-01 -2.8268333605847449e+01 2.0589480980815660e+00 -4.4507659537456412e+00 -1.9508468509095511e+00 -1.1526279416648184e+00 1.1028139022354528e+00 2.9574184473105234e+01 -7.8404445129877303e+00 -1.7782427456863037e-02 -3.8331412301920409e-01 8.1879167613280046e-01 7.5426616739385915e-04 -1.1916168198908750e+01 -3.5420162303819391e+00 1.3525597504429328e+00 4.5571876961823204e-01 -2.6677586900356429e+00 -1.4161737582292351e+00 4.3669194109513088e+00 -1.7423613343496882e+00 5.5001980994420592e+00 1.0094698994442588e+00 -1.2677276372259563e+00 -6.0369506591470290e-01 -8.0130281416457283e-01 -1.9098814196751701e-01 -3.2735633455836854e-02 2.6970266164680679e-02 3.0258849870533400e-01 1.4134578343679546e-01 -1.5571715634246046e+00 1.2101071771766059e-01 3.4753636444840957e-01 9.2259003400503603e-01 -1.4791676671494391e-01 2.5713779390644076e-01 2.5163405236882710e+00 -1.7597768347687790e+00 4.8662694517856986e-03 -3.7189466283278305e-01 5.3281534187682933e-01 2.7806374968140601e-01 6.1770643792855717e-01 2.9330649414251688e+00 5.6242582039679467e-02 5.0355498712782443e-03 2.4438327558601983e-01 1.6006625674628600e-01 3.6099134254706233e-01 -4.3462519327187179e+00 1.2417981708524373e+00 -2.4934883099729779e-01 6.5849184823595364e-03 -1.1361892184661952e+00 -2.2327945339127808e-01 1.6958384009144427e+00 5.6959576890445929e-01 2.4134678509942742e-01 1.1920436423734582e+00 -7.4173232595293237e-01 -8.1511797623863345e+00 9.8337013633709347e-01 -8.8995342961213453e-01 1.6504242496423593e-01 -1.9615079026702955e+00 -9.2169738672426504e-02 -7.3260967008714140e-01 1.1783694778081930e+00 4.2441966906497663e-01 4.8303157196854446e-01 -7.4235046975780350e-01 1.9839438275307275e-01 -3.0727008745956716e+00 1.6247931380779121e+00 -3.7856856126435917e-01 2.0528584185596002e-01 -1.0873355296358134e+00 2.3051766371041260e-01 1.8763312835809949e+00 -1.4091481566806031e+01 4.7496856821014184e+00 -7.2404419638379923e-03 -3.5129890369045036e-01 -3.9341292489741608e-01 -1.8213784698045643e+00 1.1717454925595661e-01 4.3452609889358801e-01 1.0980240188319121e+00 -9.0550995785428690e-02 -4.6744859038465314e-01 -4.0797935722194190e+00 2.7104090358118405e-01 -2.9820369625078058e-02 -5.4916891834488801e-01 2.2020752527019827e-01 -1.1926457200310603e-02 -1.1262426129182188e+00 2.9673094422466164e+00 -8.7447697685716363e-03 7.4581785533976586e-01 -9.3357984389248383e-01 -1.5649082948071857e-01 -2.5011540381648247e+00 1.8036010224033561e-01 5.7073781506629395e-01 1.8325893958190109e-01 -3.9666088719731474e-01 -1.2498112820475193e-02 1.0830763186479531e+00 2.6624384307663576e+00 7.0059242585706905e-01 3.3713378699668550e-01 -6.4297188720674781e-01 2.1938276950198246e+00 -6.6084306283874428e+00 -1.3074682493514400e+00 -2.5184504795827412e-01 -1.4166252965359698e+00 -1.0497147059777250e+00 5.4494601834249368e-01 1.5604674208709433e+01 -1.4544880826222601e+00 1.7763458888613139e+00 6.2000487966211670e-01 1.5572516814447619e+00 -4.6783545629863610e-01 -2.8256505077932186e+00 1.1557040764747200e+00 -5.6301347133465707e-01 7.6711168955450937e-02 3.9656086771915833e-01 -3.4288748905395483e-01 5.8341817195400525e+00 -6.8205294614156031e-02 -5.1946433218065247e-01 -4.6603725851518030e-01 1.4151702484846660e+00 3.6036892581179270e-01 -2.5184067779191484e+00 5.8243237518381932e+00 -5.9958451326184061e+00 -7.5779738695707088e-02 6.9113096772940619e-01 -1.8592699829196917e+00 6.7163989133983364e+00 1.6419816606435234e+00 -2.3938046458748179e+00 1.2157254961083042e+00 7.2566782518897321e-01 -4.6632635964776203e-01 -8.4340499622667426e+00 6.9161344691470883e-01 -2.3277371744922329e-01 2.6357597998386839e-01 -1.7233001240503620e-01 6.6692441701163463e-01 1.3086240577432001e+01 -2.9354065692411879e+00 2.7639594047536575e-01 -1.4021778944498742e-02 4.9761340389212783e-01 8.0272233495773809e-03 -4.3125678252127528e+00 -3.4277803298876357e+00 7.9601841660767991e-01 3.2847730898327954e-01 -1.1495789220025086e+00 -7.7724927178634184e-01 1.4679656981690661e+00 1.2963505557774059e+01 -2.5265717034469621e+00 7.3266784199266766e-01 -7.2283556193482545e-01 1.2830179925056573e-01 -4.0264543797467560e+00 -6.0122757851333630e-01 5.9012284092087408e-01 6.9566252595764100e-03 -2.9683019067803462e-01 1.5235317413972638e-01 -2.3258761365566762e+00 1.4696801317779626e-01 1.0127584796113038e+00 6.3687105279599532e-02 -1.1268651420485931e-01 9.2394125302680596e-02 5.8719821262963485e+00 8.8197993481051729e-03 3.2699785656041569e-01 -1.0761564567884589e-01 -8.4613950668688309e-01 -2.4399057764409593e-02 -5.4269469588660613e-01 -1.4945950743801930e+00 3.6231361101665743e-01 -1.9267360288402563e-02 1.2264413701094479e-01 -6.6579787162383219e-02 -3.5179696887432665e-01 -7.8012007106868388e+00 -1.3238805609872257e+00 -4.3433864688492424e-01 -1.8104354079853838e-01 -2.1742867337348881e-01 2.6223738472172431e+00 -3.1312951609105588e-01 -4.3958127664022018e-01 -4.7171991335193297e-01 -3.8959588021905250e-01 1.0523636568296590e-01 -3.0446849751495986e+00 5.8850605968442160e-02 3.3885936373816872e-01 5.9665679781443104e-01 -6.7133632237151228e-02 3.5176979744696291e-01 3.2167952286182087e+00 -6.3887202751302397e-01 1.2248149873273850e-01 1.1517850997503284e-02 -1.3870100241545358e-01 -5.0521557584077947e-02 8.9958646479425752e-02 9.9675292507194868e-01 2.3611442739785559e-03 -1.0651174036191605e-02 3.7492293613499422e-01 9.9481092292922624e-03 -2.9064173090664469e-01 -3.1699042957996426e+01 -2.9193894186940383e-01 -3.0485565090245315e-01 -5.5354636508366695e-02 -7.9615026098868551e-03 -4.1078334375526193e+00 1.3920857158739700e-02 1.6984264279562611e-01 2.2440912229831156e-01 3.8124193160238073e-02 5.6920821903545249e-03 -3.3327608087941085e-01 -3.3102603185916971e-02 3.6531284679374709e-01 3.9143784979759122e-02 4.5611049990206098e-02 -7.4480078780678249e-02 -1.5099263138016541e+00 2.3649103198071408e-01 7.2581069238908322e-02 -3.1633880943066595e-01 3.9826800468039458e-01 -1.2163555619582267e-02 8.8567938749974928e-02 -2.3010694025567564e+00 8.9026903131239080e-02 6.0303292492496358e-03 -3.4354488465623445e-02 9.7861919393344987e-03 1.9387007523372302e-02 5.8020629404883728e+00 -9.2948735309217057e-01 4.4567132440741064e-02 -2.4798462387877290e-01 -9.8135235470379278e-02 1.0037485177253813e-01 6.2957749471875957e-01 1.1065839969325308e-01 -1.1893319147702014e-01 1.4954875549183777e-01 -2.3336357317963741e-01 -1.5799611804459943e+00 -3.1214897353462556e-02 4.9663282053749691e-01 -8.5277147898950145e-01 8.5484214124682933e-02 7.8661386917981968e-03 -2.0105853725204952e+00 3.4430545921485800e-01 2.1122256975422415e-03 6.5089074616389042e-01 -6.6412917804590510e-01 -2.8702968291582309e-02 -3.0915242935998677e-02 -2.2750211672415084e+00 -1.5895478509772648e-01 -1.1369407621029818e-02 2.7424935073394874e-01 -1.5486291839648558e-02 2.8901399496416813e-01 -4.6083960392066814e-01 1.0463985903441397e+00 -2.5145664010014857e-01 3.5791377900358456e-01 -9.1139327835135475e-01 -4.4237963737057058e+00 1.2538955219748971e-01 -4.8710576630499480e-01 6.3302890970730452e-01 6.0319564919401858e-01 -5.2277883617976006e-01 -4.0105032256324353e+00 8.0947481177713798e-01 -1.9777496168412512e-02 4.8130688870120775e-01 -1.1967789624294340e+00 6.7340115338211581e-01 6.5205960973206061e+00 -6.2375305390622415e-01 6.9101493920332158e-01 2.1432771072537449e-01 -1.4820705483573215e-01 1.0999151417980435e-01 -1.8961742827179529e+00 -1.2069448057995373e+00 3.3321198799636687e-01 9.1175150242573832e-02 2.4083775169011545e-01 1.4290449880513173e-01 8.3730737903178265e-01 -8.3829674715725560e+00 1.1924359275113261e-01 4.3293885360638051e-02 -5.7758134657844584e-01 7.0134619381908681e-02 -4.5049629988406847e+00 5.6479524581869785e-02 3.2751453318459389e-01 3.4487633596533035e-02 5.1661392405729700e-01 1.7340209585840510e-01 1.5851988505706532e-01 9.9007809683014925e-03 -9.2168270240542638e-02 2.8402600269851652e-01 7.4276988559490720e-03 1.7144267785929951e-01 6.3421718920230603e+00 9.8900960078418532e-03 3.0681634296554253e-02 -1.0862562440619145e-02 -1.5852018055600015e-01 -4.2754195747928936e-02 -3.3701470652622079e-02 6.2911964655146813e-02 -2.6659411911063580e-02 1.1211526403573702e-02 -1.7294808849325854e-02 1.0891207009507804e-02 1.5987106510096047e-01 -3.7451499977793063e+01 1.7983662467702810e-01 -1.5057533958652719e-01 2.8929132988550058e-02 -3.6012623644649594e+01 
      </Row>
      <Row Index="8">
