<?xml version="1.0"?>
<MethodSetup Method="MLP::MLPBNN_MuTau_MZP600_MA0400_MDM100_nodes30_epoch1000">
  <GeneralInfo>
    <Info name="TMVA Release" value="4.2.0 [262656]"/>
    <Info name="ROOT Release" value="6.02/13 [393741]"/>
    <Info name="Creator" value="jhoward"/>
    <Info name="Date" value="Sat Dec 10 20:53:30 2016"/>
    <Info name="Host" value="Linux vocms0301.cern.ch 2.6.32-573.7.1.el6.x86_64 #1 SMP Wed Sep 23 10:12:03 CEST 2015 x86_64 x86_64 x86_64 GNU/Linux"/>
    <Info name="Dir" value="/uscms_data/d3/jhoward/WORKING_DIR/NovProductionV3_76X/ANNTraining_Original/ANNs"/>
    <Info name="Training events" value="11335"/>
    <Info name="TrainingTime" value="1.23334077e+03"/>
    <Info name="AnalysisType" value="Classification"/>
  </GeneralInfo>
  <Options>
    <Option name="NCycles" modified="Yes">1000</Option>
    <Option name="HiddenLayers" modified="Yes">30</Option>
    <Option name="NeuronType" modified="Yes">tanh</Option>
    <Option name="RandomSeed" modified="No">1</Option>
    <Option name="EstimatorType" modified="No">MSE</Option>
    <Option name="NeuronInputType" modified="No">sum</Option>
    <Option name="V" modified="Yes">False</Option>
    <Option name="VerbosityLevel" modified="No">Default</Option>
    <Option name="VarTransform" modified="Yes">N</Option>
    <Option name="H" modified="Yes">False</Option>
    <Option name="CreateMVAPdfs" modified="No">False</Option>
    <Option name="IgnoreNegWeightsInTraining" modified="No">False</Option>
    <Option name="TrainingMethod" modified="Yes">BFGS</Option>
    <Option name="LearningRate" modified="No">2.000000e-02</Option>
    <Option name="DecayRate" modified="No">1.000000e-02</Option>
    <Option name="TestRate" modified="Yes">5</Option>
    <Option name="EpochMonitoring" modified="No">False</Option>
    <Option name="Sampling" modified="No">1.000000e+00</Option>
    <Option name="SamplingEpoch" modified="No">1.000000e+00</Option>
    <Option name="SamplingImportance" modified="No">1.000000e+00</Option>
    <Option name="SamplingTraining" modified="No">True</Option>
    <Option name="SamplingTesting" modified="No">False</Option>
    <Option name="ResetStep" modified="No">50</Option>
    <Option name="Tau" modified="No">3.000000e+00</Option>
    <Option name="BPMode" modified="No">sequential</Option>
    <Option name="BatchSize" modified="No">-1</Option>
    <Option name="ConvergenceImprove" modified="No">1.000000e-30</Option>
    <Option name="ConvergenceTests" modified="No">-1</Option>
    <Option name="UseRegulator" modified="Yes">True</Option>
    <Option name="UpdateLimit" modified="No">10000</Option>
    <Option name="CalculateErrors" modified="No">False</Option>
    <Option name="WeightRange" modified="No">1.000000e+00</Option>
  </Options>
  <Variables NVar="7">
    <Variable VarIndex="0" Expression="read_pt_1" Label="read_pt_1" Title="read_pt_1" Unit="" Internal="read_pt_1" Type="F" Min="1.90029392e+01" Max="8.11773499e+02"/>
    <Variable VarIndex="1" Expression="read_pt_2" Label="read_pt_2" Title="read_pt_2" Unit="" Internal="read_pt_2" Type="F" Min="2.00086079e+01" Max="5.06502899e+02"/>
    <Variable VarIndex="2" Expression="read_m_vis" Label="read_m_vis" Title="read_m_vis" Unit="" Internal="read_m_vis" Type="F" Min="1.11197071e+01" Max="1.72122449e+03"/>
    <Variable VarIndex="3" Expression="read_LPT" Label="read_LPT" Title="read_LPT" Unit="" Internal="read_LPT" Type="F" Min="0.00000000e+00" Max="2.44360278e+03"/>
    <Variable VarIndex="4" Expression="read_DeltaR_leg1_leg2" Label="read_DeltaR_leg1_leg2" Title="read_DeltaR_leg1_leg2" Unit="" Internal="read_DeltaR_leg1_leg2" Type="F" Min="5.00156224e-01" Max="4.87872410e+00"/>
    <Variable VarIndex="5" Expression="read_DeltaPhi_leg1_leg2" Label="read_DeltaPhi_leg1_leg2" Title="read_DeltaPhi_leg1_leg2" Unit="" Internal="read_DeltaPhi_leg1_leg2" Type="F" Min="-3.14140034e+00" Max="3.14123011e+00"/>
    <Variable VarIndex="6" Expression="read_DeltaPhi_PFMET_Higgs" Label="read_DeltaPhi_PFMET_Higgs" Title="read_DeltaPhi_PFMET_Higgs" Unit="" Internal="read_DeltaPhi_PFMET_Higgs" Type="F" Min="-3.14154220e+00" Max="3.14093685e+00"/>
  </Variables>
  <Spectators NSpec="4">
    <Spectator SpecIndex="0" Expression="read_npu" Label="read_npu" Title="read_npu" Unit="" Internal="read_npu" Type="F" Min="1.25335169e+00" Max="3.65205650e+01"/>
    <Spectator SpecIndex="1" Expression="read_event" Label="read_event" Title="read_event" Unit="" Internal="read_event" Type="F" Min="8.90000000e+01" Max="7.21336512e+08"/>
    <Spectator SpecIndex="2" Expression="read_final_weight" Label="read_final_weight" Title="read_final_weight" Unit="" Internal="read_final_weight" Type="F" Min="4.81799930e-14" Max="3.08017880e-01"/>
    <Spectator SpecIndex="3" Expression="read_ratio_weight" Label="read_ratio_weight" Title="read_ratio_weight" Unit="" Internal="read_ratio_weight" Type="F" Min="5.00480890e+00" Max="5.00480890e+00"/>
  </Spectators>
  <Classes NClass="2">
    <Class Name="Signal" Index="0"/>
    <Class Name="Background" Index="1"/>
  </Classes>
  <Transformations NTransformations="1">
    <Transform Name="Normalize">
      <Selection>
        <Input NInputs="7">
          <Input Type="Variable" Label="read_pt_1" Expression="read_pt_1"/>
          <Input Type="Variable" Label="read_pt_2" Expression="read_pt_2"/>
          <Input Type="Variable" Label="read_m_vis" Expression="read_m_vis"/>
          <Input Type="Variable" Label="read_LPT" Expression="read_LPT"/>
          <Input Type="Variable" Label="read_DeltaR_leg1_leg2" Expression="read_DeltaR_leg1_leg2"/>
          <Input Type="Variable" Label="read_DeltaPhi_leg1_leg2" Expression="read_DeltaPhi_leg1_leg2"/>
          <Input Type="Variable" Label="read_DeltaPhi_PFMET_Higgs" Expression="read_DeltaPhi_PFMET_Higgs"/>
        </Input>
        <Output NOutputs="7">
          <Output Type="Variable" Label="read_pt_1" Expression="read_pt_1"/>
          <Output Type="Variable" Label="read_pt_2" Expression="read_pt_2"/>
          <Output Type="Variable" Label="read_m_vis" Expression="read_m_vis"/>
          <Output Type="Variable" Label="read_LPT" Expression="read_LPT"/>
          <Output Type="Variable" Label="read_DeltaR_leg1_leg2" Expression="read_DeltaR_leg1_leg2"/>
          <Output Type="Variable" Label="read_DeltaPhi_leg1_leg2" Expression="read_DeltaPhi_leg1_leg2"/>
          <Output Type="Variable" Label="read_DeltaPhi_PFMET_Higgs" Expression="read_DeltaPhi_PFMET_Higgs"/>
        </Output>
      </Selection>
      <Class ClassIndex="0">
        <Ranges>
          <Range Index="0" Min="1.9062406539916992e+01" Max="3.3233676147460938e+02"/>
          <Range Index="1" Min="2.0059316635131836e+01" Max="3.5530264282226562e+02"/>
          <Range Index="2" Min="1.6403484344482422e+01" Max="4.7978283691406250e+02"/>
          <Range Index="3" Min="0.0000000000000000e+00" Max="1.2714965820312500e+03"/>
          <Range Index="4" Min="5.0087124109268188e-01" Max="3.8166434764862061e+00"/>
          <Range Index="5" Min="-3.0937631130218506e+00" Max="3.0917925834655762e+00"/>
          <Range Index="6" Min="-3.1388556957244873e+00" Max="3.1398191452026367e+00"/>
        </Ranges>
      </Class>
      <Class ClassIndex="1">
        <Ranges>
          <Range Index="0" Min="1.9002939224243164e+01" Max="8.1177349853515625e+02"/>
          <Range Index="1" Min="2.0008607864379883e+01" Max="5.0650289916992188e+02"/>
          <Range Index="2" Min="1.1119707107543945e+01" Max="1.7212244873046875e+03"/>
          <Range Index="3" Min="0.0000000000000000e+00" Max="2.4436027832031250e+03"/>
          <Range Index="4" Min="5.0015622377395630e-01" Max="4.8787240982055664e+00"/>
          <Range Index="5" Min="-3.1414003372192383e+00" Max="3.1412301063537598e+00"/>
          <Range Index="6" Min="-3.1415421962738037e+00" Max="3.1409368515014648e+00"/>
        </Ranges>
      </Class>
      <Class ClassIndex="2">
        <Ranges>
          <Range Index="0" Min="1.9002939224243164e+01" Max="8.1177349853515625e+02"/>
          <Range Index="1" Min="2.0008607864379883e+01" Max="5.0650289916992188e+02"/>
          <Range Index="2" Min="1.1119707107543945e+01" Max="1.7212244873046875e+03"/>
          <Range Index="3" Min="0.0000000000000000e+00" Max="2.4436027832031250e+03"/>
          <Range Index="4" Min="5.0015622377395630e-01" Max="4.8787240982055664e+00"/>
          <Range Index="5" Min="-3.1414003372192383e+00" Max="3.1412301063537598e+00"/>
          <Range Index="6" Min="-3.1415421962738037e+00" Max="3.1409368515014648e+00"/>
        </Ranges>
      </Class>
    </Transform>
  </Transformations>
  <MVAPdfs/>
  <Weights>
    <Layout NLayers="3">
      <Layer Index="0" NNeurons="8">
        <Neuron NSynapses="30">
          -7.4369894566306360e-01 2.1977837438567760e-01 -2.0517841207128215e-01 1.3508864472456434e+00 -2.9318528723924092e-01 -6.6148628915752322e-02 -7.4676456122707444e-02 2.1551072553781558e-01 -1.5966839828141646e-01 7.8719310885742366e-01 -1.7657077619024125e-01 -8.2166979705953336e-01 -1.3934750297571111e-01 -1.1811734681622273e-02 3.3877471678968496e-01 -8.3214422758920659e-01 -6.8503069917412474e-01 4.0447569895891773e-02 8.1940213885371163e-02 2.9500309764201443e-01 3.3253128605310484e-01 -3.4958808446699810e-02 -1.5027191352118169e-01 -4.3558819644219909e-01 -1.2639651931986065e-01 3.0880277909313580e-01 2.2401555344048549e-01 -1.8760881505635493e-01 -1.9536206881022639e-01 -1.3749320610095958e-01 
        </Neuron>
        <Neuron NSynapses="30">
          1.5242982689151233e-01 5.5502725318163182e-01 -2.8970072780030626e-01 1.3062694963396562e-01 4.2930446786935045e-01 -5.7363063326349405e-03 -7.3060042848479612e-01 5.8899471681065663e-01 -3.8970743481777353e-01 5.5858718177436262e-01 4.3673713348196713e-01 3.4624595264846880e-01 6.0333782510966050e-01 8.3784130266384371e-01 -4.7169226018528365e-01 -1.4703323785531266e+00 1.7492247109403176e-02 -6.3760698650754610e-01 4.6671316789904305e-01 3.3767130193274658e-01 5.3396629142189223e-01 4.1519198443362609e-01 -2.8637208157443356e-01 8.4561654641526496e-01 -5.5513760365008669e-01 -4.6545780621025590e-01 -1.3736039499403736e+00 -4.8183395754632602e-01 6.3444573819713745e-01 1.1912925316809282e-01 
        </Neuron>
        <Neuron NSynapses="30">
          -3.2137052410820066e-01 6.4219857375847997e-02 -1.1693029146388405e-01 3.0132710178620925e-01 6.1069660005598536e-01 2.3478902332558949e-02 -1.3148488194359648e-01 -2.7210230775345756e-01 1.8675453081223234e-01 -1.8819548181283272e-01 -1.4192987954143857e-01 -8.6172649431183901e-01 1.8486764871554975e-01 4.3670844751710886e-01 5.1279053556235854e-01 -1.0152991238440794e+00 -7.0243427642561596e-01 -6.9701775651669362e-01 4.0401253382615820e-01 3.4845255047858747e-01 6.7955216444913025e-01 2.6610641151695125e-01 -1.2122380019615703e-01 -1.4432800491710582e-01 -2.5725744504183956e-01 5.5935141243417841e-01 5.5336352908723213e-02 -4.4987020557162538e-01 -3.0832792647859941e-01 -6.8443241219872508e-01 
        </Neuron>
        <Neuron NSynapses="30">
          -1.2397432629978013e-01 -5.8252272275997233e-02 1.4508187207877996e+00 -2.0795427006667619e+00 -8.4253632110873133e-01 9.9648946375665870e-01 2.1789504035133050e-02 -3.4957159724314751e-01 -6.0442514265324909e-01 -7.3702116455458544e-01 -9.7689855361298827e-01 -9.0109104255009742e-01 2.6215120885033533e-01 4.3394088390019164e-01 -1.3044217913818019e+00 3.8599611202352797e+00 -1.2087145452583550e-01 9.6734485335316323e-01 4.0321153437628446e-02 6.8362956447967860e-02 -9.9277296141215587e-01 1.8540141505428420e-01 1.7996390595025946e-01 -5.2131229305460125e-01 -5.8268852060811716e-01 4.2306824780310859e-01 2.2073316794867912e-01 -4.5309896184400456e-01 1.3834753852594856e-02 7.6979250159264531e-02 
        </Neuron>
        <Neuron NSynapses="30">
          -2.6283339068104167e-01 -4.1921122791082746e-02 -8.6809786948866652e-01 4.0196023775368545e-01 1.1234942490151860e+00 -3.8964347475567991e-02 -1.1187618060484403e-01 -6.5585147876156602e-02 -8.2221575415860948e-02 2.2036523901699240e-01 5.9225878356611215e-02 -4.2979692477918524e-01 3.0615231744254689e-03 -1.0199397099167418e-01 3.6895731716233227e-01 -4.0813050606186019e-01 4.6801236997367768e-01 -1.1400026009285007e+00 4.2888117470491503e-02 7.5481830098079600e-02 -4.6641602699251333e-01 6.7760672665217658e-03 -8.9459372164476095e-02 5.2640614267177399e-01 -6.4510242671458246e-02 5.4222661028383079e-01 9.5106567201144721e-01 -8.8268112558146233e-02 2.0682735672439526e-01 -2.6307369531869318e-01 
        </Neuron>
        <Neuron NSynapses="30">
          -1.2145278845836680e+00 6.1128644147795640e-03 1.6005474665290287e-01 -3.6468731257907817e-02 2.8344582012790526e-02 -4.9622304739951460e-02 1.2340452192253985e-01 7.9416412136176354e-02 3.4403354914493763e-02 -9.1745631568333286e-01 3.4981366554417193e-02 4.6543925239219730e-01 2.4453285519026865e-02 -6.3783883452835366e-03 1.3894296221887611e-01 -2.0557262911594582e-01 9.9360749793567325e-03 1.4122127058848442e-02 -2.2236605538972005e-02 4.1029643551439607e-02 5.8706381413948627e-01 5.1713025423489829e-02 -2.1653011649413814e-02 6.6899057061678524e-01 6.5820602419371987e-02 -1.0718452381240113e+00 7.6531545935063311e-02 -3.3900889128272174e-02 -1.1269427374600456e-01 -2.3436626261331336e-01 
        </Neuron>
        <Neuron NSynapses="30">
          -1.0624979894634392e+00 2.4249564071644122e-01 1.5146557170862418e+00 4.6584680816028895e-01 -2.2971788939080418e-01 4.4488998481223646e-02 -2.0280166988726733e-01 3.0879495736439155e-01 -7.4093081541420205e-02 -6.0406249564299064e-01 -6.6929351295499748e-02 1.4675483418486832e+00 3.0412234418099149e-01 1.2289033292107626e-01 1.0668133067229932e+00 -5.3479415576636713e-02 -8.0198268176736820e-01 1.7669957192209897e+00 1.4775688558515210e-01 -1.3184687044858312e-01 5.9596599330175259e-01 1.1967814573690608e-01 -2.1049661682097176e-01 -9.9193106335250048e-01 2.5136960569036781e-01 1.2846685332105185e+00 -2.1913857247856516e-01 -9.9502238668699824e-02 3.0997001219965664e-01 1.0056588086147501e-01 
        </Neuron>
        <Neuron NSynapses="30">
          3.6551372657949455e-01 9.9065031242461313e-03 -1.0921033926618406e+00 -7.8000751662217316e-02 5.0410056170001749e-01 2.6046112455468434e-01 -7.0046049571178437e-02 -3.7053060617416367e-02 5.1736606113267525e-01 -2.5133428474880265e-01 -3.5117191976676931e-01 -5.5194840372748610e-01 -3.5219956128215590e-01 9.7020882793382918e-02 7.7464997070660935e-01 -5.4673072317589544e-01 1.2278321274932216e-01 -1.3382949659934260e-01 -5.0549680202741110e-01 -2.3305387280037393e-01 -6.0711211149511522e-02 -6.0313725700315401e-02 3.7761963302174234e-01 -4.7088442284380283e-01 4.5286854412060101e-01 -4.4690422423716464e-01 -6.7501344873768676e-01 4.7666921754111510e-02 -5.5812977513493589e-01 -4.7608422655985250e-01 
        </Neuron>
      </Layer>
      <Layer Index="1" NNeurons="31">
        <Neuron NSynapses="1">
          -1.0428782869843811e+00 
        </Neuron>
        <Neuron NSynapses="1">
          6.0098562992724341e-02 
        </Neuron>
        <Neuron NSynapses="1">
          -8.2453686270486959e-01 
        </Neuron>
        <Neuron NSynapses="1">
          -1.1002081186389061e+00 
        </Neuron>
        <Neuron NSynapses="1">
          -9.7150959541566495e-01 
        </Neuron>
        <Neuron NSynapses="1">
          3.2482632632569125e-01 
        </Neuron>
        <Neuron NSynapses="1">
          -3.0170828879372169e-01 
        </Neuron>
        <Neuron NSynapses="1">
          -1.0486548655292993e-01 
        </Neuron>
        <Neuron NSynapses="1">
          5.3097530317549609e-02 
        </Neuron>
        <Neuron NSynapses="1">
          -1.1684656253126722e+00 
        </Neuron>
        <Neuron NSynapses="1">
          -2.4801361142221473e-01 
        </Neuron>
        <Neuron NSynapses="1">
          -1.1403528595740671e+00 
        </Neuron>
        <Neuron NSynapses="1">
          -8.0949539216834204e-02 
        </Neuron>
        <Neuron NSynapses="1">
          8.3730371541100454e-02 
        </Neuron>
        <Neuron NSynapses="1">
          9.0436628214395176e-01 
        </Neuron>
        <Neuron NSynapses="1">
          -1.3158136280658721e+00 
        </Neuron>
        <Neuron NSynapses="1">
          -4.9893436418194415e-01 
        </Neuron>
        <Neuron NSynapses="1">
          -9.0138872323811925e-01 
        </Neuron>
        <Neuron NSynapses="1">
          -2.2239149615825435e-01 
        </Neuron>
        <Neuron NSynapses="1">
          -2.1698928278452584e-01 
        </Neuron>
        <Neuron NSynapses="1">
          -7.5143715129476762e-01 
        </Neuron>
        <Neuron NSynapses="1">
          -9.5716088083896797e-02 
        </Neuron>
        <Neuron NSynapses="1">
          1.7325045682483631e-01 
        </Neuron>
        <Neuron NSynapses="1">
          -8.4575382245103814e-01 
        </Neuron>
        <Neuron NSynapses="1">
          2.9721776222847347e-02 
        </Neuron>
        <Neuron NSynapses="1">
          7.2836540820039086e-01 
        </Neuron>
        <Neuron NSynapses="1">
          -8.4046593986086138e-01 
        </Neuron>
        <Neuron NSynapses="1">
          2.9653615683265433e-01 
        </Neuron>
        <Neuron NSynapses="1">
          3.7341117397173618e-01 
        </Neuron>
        <Neuron NSynapses="1">
          -3.6999399517305492e-01 
        </Neuron>
        <Neuron NSynapses="1">
          -2.3738402819061730e-02 
        </Neuron>
      </Layer>
      <Layer Index="2" NNeurons="1">
        <Neuron NSynapses="0"/>
      </Layer>
    </Layout>
    <InverseHessian NElements="73441" NRows="271" NCols="271">
      <Row Index="0">
        3.9714764105411522e+00 -1.1345138199741845e+02 1.2846540895871275e-01 8.1332289726522966e-01 7.8852631757005034e-02 7.0534720647248070e+00 -8.9270012709933155e-01 -9.0135218349576576e+00 1.2747760835726012e+01 -4.4715813067499277e-01 -5.6546014867864014e-01 -2.2338689597601213e-02 -9.9986121975957730e+01 -2.2111437118192928e+01 -3.9854931450124365e-01 -3.9897064801705506e-01 -4.2858973382133945e+00 -3.5631064595042161e-01 8.6053691453339297e+01 1.2241149968524651e+01 -9.8401097705171403e-01 -1.2358719704021638e+01 9.9257937784599505e+01 1.9369175258859248e-01 -8.3355386122841210e+01 -1.0828737063887939e+00 -4.4960836321058484e-01 7.4304648994702873e+01 1.6187767566845959e+00 -1.6931627954082402e+00 8.1986154957245816e-01 -1.3669205600483394e+01 -2.9829288354110417e-02 5.5161935353461540e-02 5.7045909902260261e-01 -6.9698310359170605e+00 -2.6507931611764960e+01 7.4433964078813339e+00 2.4580718417442029e+01 -2.3358165573499451e-01 -1.6217302128201307e+01 -3.4973296578678459e-01 7.2845368717345110e+01 -4.4955680108267877e+01 -4.1084909462335439e-01 2.1343150958149187e-01 1.7099605760690422e+00 -2.9903940395810502e-01 4.6681808626098842e+01 -7.2979068931722992e+01 -1.7968647796808929e-02 -4.9460595823328539e+01 8.0313556391584825e+01 2.1766249226342632e-01 2.0082683816878792e+01 -3.7857374260314047e-01 1.1464276580964494e+00 -4.3977136341219698e+01 -1.8652514060328269e+01 -2.8513909388655634e-01 -3.6948872045003482e+00 7.9415668893127815e+00 1.1740423416624712e+00 -1.7487657362334765e+00 2.0862353197880124e-01 1.1414687046492675e+01 1.4619060510600791e+01 4.3079199177804952e+00 2.0971579544123813e+00 -1.0511096028481686e+00 3.6693839449604688e+00 2.3915397125498228e-01 9.9426411116944962e+01 3.8808895188430910e+00 -3.1065007900539598e-01 5.8272308613106477e-02 -1.9458575345702318e+00 6.6778352196223045e-01 -1.8819182454307803e+01 2.4048189009706764e+01 2.7144864552032177e+00 -4.2182258718304560e+01 -2.6623520103408296e+01 1.0109170146832147e-01 1.7714949709618594e+01 2.1644323256535816e+00 9.4690383211037954e-01 -1.6039460095993388e+01 2.8659473740425838e+00 6.4725779043664886e+00 5.1972248148132039e-01 -6.2765359345201816e+01 4.4054297481483734e-01 -1.2500086159592763e+00 -1.2501890904752246e+00 -6.1841530991827121e-01 -3.0841807471133784e+01 3.0931492577136339e+00 4.8778974585775657e+01 6.8996389745901565e-01 4.8840951204048437e+00 -1.3408695776323798e-01 -1.8773178939592274e+01 1.3511404585599703e+01 3.3992258879057757e-01 2.9850570982647751e-01 1.4427107527555174e+00 -2.8253431844129312e-01 2.0327085885062118e+01 2.1737183106058833e+01 1.3054809769044651e-01 1.6998191376333477e+01 -4.6005971356390162e+01 -8.3407170081579537e-02 5.5465848601598253e+00 4.7663541162719980e-01 -1.4322075277004104e-02 2.0803986381191493e+01 -1.1555703582842300e+01 7.5125219007731854e+00 1.1878345732969282e+00 -3.9827381157318591e+00 -2.5726270003422580e-01 -8.8740131216920759e-02 -1.3075141826604217e-01 -1.7581311357591595e+01 4.9052137517812620e+00 -2.0846500214672144e+01 -8.7888107467749990e+01 -2.8160150400720280e-01 -2.0377953024647525e+01 -8.0031268348040793e-02 -6.7102266832678580e+01 -3.2798045276505633e+01 5.5467320309724635e-02 1.1279819283120689e-01 1.7363761384370004e+00 -2.4117324385020331e-01 5.7220710624892284e+01 2.2081536337065589e+01 -3.0306370897353196e-01 -3.6732421070521745e+01 -2.9532089221841108e+01 2.0734877824905396e-01 6.7900676867509446e+01 -2.1883771468280441e-01 -8.4924285732575167e-01 8.3498137003844704e+01 -8.9801719521576340e-01 2.0403050607630173e+00 1.1025304624108341e+00 4.7862103270218661e+01 6.7715027448210542e-03 8.9234988600513210e-02 1.1044202340396733e-01 -2.9475269932381734e+00 4.6797854938566630e+00 -1.6353004504890915e+01 9.0393408922384992e+01 2.4597954826458790e-01 -1.0052146314338619e+00 1.4665195135734113e-01 -6.4663398764127223e+01 -6.2173251666449749e+00 4.7864233033405833e-02 6.9590358709950104e-02 -1.4954130137420807e+00 -2.5337479701572505e-02 -3.1207225398776202e+01 -6.1661679838046641e+00 1.1813841881542859e+00 2.1709095121231172e+01 -6.7090823544596475e+01 -3.8159217975611517e-02 4.3590927778349755e+00 -5.7135221776829517e-02 -4.8064938031151000e-02 -3.1970895123440499e+01 6.3078685095512865e+00 8.7031288277810559e-01 1.3074569729914944e+00 5.0091322036935082e+01 4.9037795990887195e-01 3.6369990376250674e-02 3.6550022024815151e-02 -1.3683522727540889e+00 -2.3268701961391569e+00 -1.3736661457210367e+01 -2.7058834865685451e+01 1.4417579452081039e-01 4.2303892582899794e-01 -5.6781211118829951e-02 -5.6466175057687913e+01 4.2018339160925308e+01 -1.3628014398237770e-01 -6.9066373708342343e-02 -1.4110432947591496e+00 1.1127421354326585e-01 -5.8680046885850714e+01 -4.7405264112393590e+00 3.0465247939653814e-02 1.7164819939922893e-01 -4.9628082556281726e+01 -1.5710274304909605e-01 -2.1581981589353196e+00 7.1802906391351395e-02 1.3879784955879076e-01 -3.7950343608038651e+01 -2.7352250629216668e+00 -2.6532559111796581e+00 7.1203738116159609e-01 2.3562529458657085e+01 1.0541311167799063e+00 -1.5946899633055998e+00 -5.7056351387820747e-01 -4.9295768769641839e+00 -2.7363732786783402e+01 -4.9341876807040947e+01 -2.8956680794379480e+01 -7.6391847465165164e-01 -2.5076083811600039e+01 -1.0232484958289659e-01 2.0167669534493612e+01 -8.8779069707787954e+01 -8.6812189745316692e-01 2.1032736792881535e-01 2.4159294178556134e-01 -2.4212718380716380e-01 1.2767048025687995e+01 1.3243439379943425e+00 1.3272949843852015e+00 3.0746599130244945e+01 3.4229401222121254e+01 3.3651411669963727e-01 -5.1682389932616148e+00 9.3301004456626235e-01 1.4677502137492451e+00 4.6037243343140446e+00 -2.0309439804078679e+01 1.3753998288870658e+01 -3.5658613378668838e+00 -9.6881171967696424e+00 8.4706068553099256e-01 2.5978463948928388e-01 1.1039681013289393e-01 6.2882294789926796e-01 2.0373016318209501e+01 -1.8575034962559553e+01 1.4031197528989248e+01 -2.0617444811086680e+00 -3.7307901691133898e+00 -3.2933720463027871e-01 -2.2765019330186007e+01 4.1938335729030065e+01 3.1872839908816597e-01 -3.5245546575293218e-02 1.7785533490428276e+00 1.2994609308418381e-01 3.1735887123855226e+00 -1.6461338411135333e+01 1.4303753473058047e+00 3.4476860409233410e+01 1.9469499346824115e+01 2.5838266802020116e-01 4.9867307328375672e+00 -5.4142201904668452e-02 -2.0483272921018165e+00 1.1828399345027901e+01 2.9588541820808807e+01 -7.8613644533419667e+00 -8.3511767433187796e+00 
      </Row>
      <Row Index="1">
        -1.1345138513283051e+02 4.9070497180439264e+05 2.6074094602114300e+01 -2.8203190564431577e+02 6.9460112650524248e+00 5.9957549454330547e+02 1.1804728047614020e+04 3.9886289358555434e+04 -5.1387905785447212e+04 -2.9479634413170317e+01 -3.2613280613514571e+03 -6.2298241008366922e+01 2.4671767264847178e+04 4.0227367626072269e+03 -1.4606099175539595e+02 4.4141276654890959e+01 2.3805902419081954e+03 -3.6634821250889480e+01 -2.0739010821381402e+04 8.7561791784046218e+03 -6.1226679682315890e+01 -1.0559911105003438e+05 -7.0369164881924662e+04 1.9708243139894370e+02 -6.0881641862197415e+04 -5.0095412243834687e+00 5.7558082474029334e+01 1.2732423727467178e+04 1.1039212766252593e+04 3.1180092667693134e+02 1.6865353948321076e+01 -1.6124593982708262e+04 3.4821865747563479e+01 -5.4880727508943480e+01 9.0877439034262437e+01 -5.8186378609190206e+03 1.1427004158784774e+04 4.1912747589468636e+03 -2.9589233664582163e+04 3.1013837256629415e+00 8.0751157867740324e+02 -6.7927992795644858e+00 1.1951730670019548e+04 1.0963257670624891e+04 -1.0466925479353657e+02 -1.5023181924489695e+00 1.1026279981839161e+03 1.4340957126368128e+00 -8.5726241408216083e+03 1.2180345585382034e+04 1.6890819007475159e+01 -7.1796504109622329e+04 -6.1985229055854870e+03 -1.1428125180787745e+02 6.1631429717454112e+03 -6.6536036960204669e+01 2.0614109988805228e+02 6.7835006003055914e+03 4.0920357601185879e+03 -1.7642918853411174e+01 7.9483640953587894e+01 -8.0042683478269755e+04 8.0932544900277207e+01 4.1049385686002961e+02 -5.6393011784765304e+02 -2.2464585064071398e+03 -1.2247722204878755e+03 -5.9120497345980024e+04 1.7530998234189366e+04 8.3884039980663260e+01 5.9349129797242131e+03 -5.1451367101003768e+01 4.5798912352921136e+04 3.0230639969019485e+04 1.1303851126790141e+02 -3.2193241751179380e+02 -8.6693142105302786e+02 -6.6228307145503663e+01 3.0691232426234928e+04 -1.1080892652416260e+04 5.3543786204528396e+02 2.6603911003305009e+04 2.9473879235954897e+04 -9.6757846432522456e+01 1.3956203365836991e+03 4.9570864676320070e+01 -2.7422703955504295e+02 1.7715989522821143e+04 -1.3946013326349499e+04 -1.3017999205039414e+03 -8.4570118381486850e+01 -5.9253282659792952e+04 -1.6450598382897664e+02 1.4828268221827648e+02 2.3315070584799486e+02 3.2238207550417465e+03 -6.3869168516937807e+03 -4.1762081091865490e+04 3.2482477334700659e+04 -2.8953723728261934e+01 3.1739694735556041e+03 -6.2857615719142018e+01 6.7185671628568671e+04 -1.5712928613408832e+04 -5.7131617389073710e+01 8.6918046726180222e+01 -9.1476168410115849e+02 -2.4072415795132656e+01 -5.3382120507983927e+01 3.4692568747669793e+03 -2.6558030991507303e+02 2.2212853905418786e+04 2.1745607466277448e+04 7.4670685262081619e+01 2.3407065710205567e+04 8.2558510292037624e+01 -5.7593994039601853e+01 1.2333892600891864e+04 -5.8197410402936921e+03 -3.5640350303601199e+03 -2.1224763614155403e+01 -5.0783060249723159e+04 1.2801979461595616e+02 4.0175261214411453e+00 1.5208941995413554e+02 3.5551069986766888e+03 1.0327016759580678e+04 -3.8225740009866299e+03 2.3956623699488562e+04 -2.7066076343995142e+00 2.4976981794445128e+03 -2.2789150242121430e+01 -3.3433560794393175e+03 -1.3782782929479068e+04 -5.5615351232882617e+01 1.7184116422124720e+01 -2.7884279059016876e+02 3.5267578253680568e+01 -1.6806104499966241e+04 -5.1352305196150101e+03 -2.2433630042736922e+02 4.5600615221122069e+04 1.4305884584919249e+03 -2.2815566515919606e+01 -8.6906329300496600e+03 1.8212021718558468e+01 -1.3463087601301166e+02 -2.7544063362039306e+03 9.9457595193307679e+02 -5.3577464925196955e+02 3.0417960475351720e+00 1.0607077086077305e+04 -9.7363828653592464e+00 -2.4083544309821605e+01 -1.4554317904201337e+01 2.7354489342047600e+01 -9.6143938091565851e+03 1.5449498655753770e+04 -7.7855722217769144e+03 3.9287782082174694e+01 -8.5757030004693172e+02 -1.8714093633802506e+01 8.6245691510269680e+03 -1.0407321045258859e+04 4.9930253881425024e+01 3.9117063271111179e+00 6.0920830406666312e+02 -3.5389247921150551e+00 8.4167146899307063e+03 3.9029705834291799e+03 3.3028646556899190e+01 2.5253323781777828e+04 -1.3835036143582256e+03 -7.8013564388166486e+01 2.2133057993359839e+03 -2.8972605754179543e+01 2.4572690940725316e+01 7.4058998792762795e+03 -2.5136406847461108e+03 -7.7669704457262696e+01 1.7053022452752833e+00 3.6055430110237663e+04 -1.8468835985251951e+02 6.1222368751850853e-01 -2.1220278568476424e+01 2.0050339071758390e+02 -2.4263729092204358e+03 1.7316895342240299e+04 -2.5169820576745486e+04 7.0149518780235969e+00 7.1744381380190282e+02 9.5831015846239140e+01 5.4333488602454367e+04 -2.1067067554771165e+04 1.9081588067397334e+02 -4.1465925821152894e+00 -5.6566132973449683e+00 -1.2906654870707669e+01 -7.7786734200044230e+03 4.7596594355702064e+03 1.4244875933887786e+02 -5.6756137140145423e+04 -1.5569472747770305e+04 9.0838145497223707e+01 -1.6770037970311972e+04 3.2587410334066689e+01 5.8383444774545040e+01 5.1420994739039452e+02 4.1153905495701829e+03 8.2311264207674662e+02 -9.5590951007494141e+01 5.8953615074606627e+04 1.7554911777886451e+02 2.4465236834343506e+02 -1.7867654625857125e+02 -3.3784269493950123e+03 3.1624821397219712e+03 -9.3704427823879960e+03 9.6129562024583574e+03 4.9893635210190268e+01 4.3682811951410422e+03 -1.2584523111845556e+02 -3.3242918668570928e+04 -5.0581809837020774e+03 -1.2044698846464405e+02 -1.9753258936363682e+02 9.9794355197226832e+02 -1.0755438843410184e+02 -6.6436925721975749e+03 8.5286357301543176e+03 9.5860886084839876e+01 -1.9098712242203932e+04 -1.3506632237265876e+03 1.0787359267301963e+02 -2.1723033981073062e+04 3.1632479923620849e+01 -3.4683748664077029e+01 -1.4038047801133012e+04 -5.4939434880527915e+03 -3.9135028583409148e+03 1.9758655914902192e+01 -1.3423779494253948e+05 -3.0461118910525465e+02 -2.3252797827027615e+02 2.5440613591952507e+02 6.1639093238169880e+02 -4.4036382694441250e+04 3.3890666805737928e+04 2.0639037507421854e+03 -8.3332814522488661e+01 1.7284527950445920e+03 1.4579900706347235e+02 3.7085552670582329e+04 -1.0740166579102057e+04 -3.7731743201874178e+02 7.1509111940972829e+01 -7.6016197925617621e+02 -6.0773822095412925e+01 -3.1904013570502513e+04 3.6780404161837723e+03 4.4237474587750552e+02 7.4889128128662021e+04 -2.1698477174326174e+04 -3.2351135119914380e+02 4.3950577810741361e+03 -7.3097339056274905e+01 -3.5282976192176409e+02 1.0187762748330315e+04 -1.5403805215080261e+04 3.9533369051378213e+02 2.3539557120473187e+03 
      </Row>
      <Row Index="2">
        1.2846541734839950e-01 2.6074097972203532e+01 8.6664369590574726e+00 1.1716738776678446e+00 -3.7790091958377814e-01 2.3995652214423437e+01 -9.1105674098738092e+00 6.4743817762260718e+01 -1.1812818528593783e+02 8.2075869854079109e-01 -1.0856839807734600e+01 1.7066205942933010e-01 1.2962024714315922e+02 3.0574554989585742e+01 4.3104115819609290e-01 4.9965859536451697e-02 -9.5860012633751046e-01 1.0928685433411935e+00 6.7061095819303233e+01 5.6900863915962994e+01 -8.1600600544300361e-01 -1.9016373533152517e+01 8.3461599773189903e+01 9.7547258934792580e-01 1.3360908827346049e+02 -5.7833737482590186e-02 -2.1838080235953522e-01 8.8063743552449452e+01 5.3422759172268215e+00 2.9413413664543153e+00 -1.0509781385886277e-01 3.7449202911435528e+01 2.5440342749971334e+00 -4.5664799816666224e-01 -9.7533098854962058e-03 4.8398808747363793e+00 -4.7736480022857357e+00 -1.9922730821524468e+01 3.8243111883929217e+01 2.0638378513532230e-01 3.1916849469606358e+01 -5.1922007842726647e-01 -9.2358368392958241e+01 1.4410054095272326e+01 4.1918164369178457e-01 3.1926504654154059e-01 -2.5214202792132347e+00 8.0427312221633707e-01 2.7489169954350807e+01 -9.4197021744127483e+00 -4.6385299426212701e-01 7.8404378801663711e+01 -7.0511525005520866e+01 -2.0052912280907853e-01 8.8516811130483816e+01 5.9067737839813339e-02 8.1535280229341200e-01 -5.4128071046709842e+01 -1.3743217696411252e+00 1.2317406917867033e+00 2.8640425594234742e-02 -5.4714064219206378e+01 -2.1327081772547700e+01 -4.9878598235318394e-01 2.4382777200453498e-01 -5.8109417168247404e+01 -4.9366965333148292e+00 -1.0397174534544352e+02 7.0720773777818550e+01 -1.7791445663166945e+00 -1.2224054473317960e+01 1.4681398843091553e+00 -5.6976918642462238e+00 -3.7309461974229549e+01 1.0849840705875513e+00 -9.9979707228744519e-01 4.4563437650536581e+00 -2.3771295138987387e+00 -1.0992616953007268e+02 -1.0030105762148864e+01 1.8671832124893228e+00 6.9857951638914528e+01 -1.4984120937336084e+02 -7.6696612898041139e-01 -5.8927270461378072e+01 -9.4767639458339992e-02 -1.3991784261401019e-02 -7.7603163351037082e+01 1.1292047694845699e+01 1.0313932955805285e+00 6.6768058192159641e-01 -1.2371050287437299e+01 -3.3749018799471888e+00 -6.9647326431259959e-01 1.5184782421168541e-01 -1.7668886808072131e+00 2.4413324386060662e+01 5.5777286635505163e-01 8.2033917164054699e+01 5.4971762482945996e-02 4.1082079804645097e+00 4.1442153766758372e-01 -9.6685840501817822e+01 6.1756165424515814e+01 -5.8187284734656508e-02 1.3903069172893928e-01 -1.2649445800264576e+01 2.0297022890479360e-01 1.4263799522421124e+01 7.7282291933628244e+01 -6.8738168561499613e-01 -1.1807779257186832e+02 -2.2318396952821367e+01 5.2214216144624104e-01 1.8631432509605929e+01 -1.2523088395670077e+00 -1.4671034413276540e+00 -7.1665769744424807e+01 2.4767410925600934e+00 -4.2543177288903369e+00 -1.1652588105377147e-01 -9.4227837762117346e+01 2.4671414132937626e+00 2.3137055515647473e-02 -6.6500182068984737e-01 3.3921351868349490e+00 -4.5589268743682680e+00 2.6225424418462005e+01 -6.5456644125465743e+01 1.3275560634562367e-01 -4.4770785157486674e+00 -2.0574831751889197e-01 -8.5982237749929908e+01 -3.6000711154457953e+01 -2.5762989921677370e-02 9.1529671637293336e-02 2.7274905861744951e+00 8.6812496134675232e-01 -3.4087648671371561e+01 -1.5465974580503456e+01 -7.7321409809588015e-01 -3.8405973500291296e+01 -4.8816564283275220e+01 3.7604344464115846e-01 -2.1069655806302286e+01 3.7541083782639734e-02 -1.6783342961324269e-01 -2.0103988967227849e+01 -6.0363343861719656e+00 -2.0820997589569994e+00 2.1725488334715770e-01 2.8330438624444142e+01 -4.8982019630943741e-01 -1.1139420029227334e-01 -1.4605760601122819e-01 2.6648190188422429e+00 -3.7732102348295200e+00 2.3019908393572108e+00 -7.8502965884761338e+01 -1.6373716899266810e-02 2.8266064317977708e+00 -1.4553720027219444e-01 -8.6751532929434404e+01 1.4779925175538093e+01 1.2065728204235047e-02 -4.1822315557470909e-02 -1.1572756351696456e-01 8.6184123427379605e-02 1.4637825969337831e+01 3.0936725313526470e+00 -5.5810525504249829e-02 7.4938996043266570e+01 3.2773297889078805e+01 -2.9383252036404267e-01 -5.7835445287622839e+01 -1.2171050369594669e-01 -2.0247551391711083e-02 1.3968303398455550e+01 5.0077427591872725e-01 8.7927172046198976e-01 8.5632709508808205e-02 5.6106871775827507e+01 -2.1311550602916465e+00 1.3866933046088065e-01 9.3711336497941167e-02 5.6442372944954577e+00 -6.2603481621945978e-01 2.0935997621479675e+01 1.7765329207778876e+02 -1.7586056865351374e-01 -1.6555179228361503e+00 -3.5523544301677257e-01 8.1866192290268842e+01 5.4895219924984225e+01 3.6926778993890763e-01 -1.0611287024466648e-02 -4.1751199033147017e+00 -8.1579739079346203e-01 -8.1280409597115010e+01 1.8183084411158951e+01 9.2943277798508972e-02 -6.7992226306524373e+00 6.0795062419771661e+01 2.0360290156891844e-01 1.2858185254279826e+02 -4.4297117652016271e-02 4.8310365024569035e-02 -9.8722540295447644e+01 1.6736272497675588e+00 6.7337555832607947e+00 5.0775351658130941e-01 -4.7855778470920527e+01 -9.8631929476771649e+00 -4.7721406940517902e-01 -9.4192544106799225e-03 -5.1281813295686050e+00 8.8242993013276347e+00 -6.8395225655182116e+01 -8.5170088483393727e+00 -7.0847938496076246e-01 1.0953164602882953e+01 1.0030736894263377e+00 -5.6321703773147007e+00 -1.4969434941863653e+01 1.6291482104314370e+00 -4.4455425640739232e-01 -1.1000350399188546e+01 -3.2731241082956508e-01 4.3081103069415761e+01 3.3665089876815756e+01 -3.2553935860994532e-01 3.0893679490512394e+01 -5.6214452697552822e+01 6.5760293313025286e-01 -1.8315159208404694e+01 -1.2766365305372798e+00 -1.0913657420776808e+00 6.8444686043662472e+01 1.3630476689204906e+01 2.7457775653562102e+00 -6.9447383496675563e-02 -1.5424396525153306e+01 -4.0824086961072164e+00 1.3418048689082356e+00 -1.7971305776161735e+00 1.9779640969736995e+01 -4.5515406089487946e+00 -8.5629459809229242e+00 1.2919043267552782e+01 -1.0084472763362040e-01 2.3761046492275241e+01 -1.2607760975987077e+00 -5.5204666026595660e+01 7.7450908449776037e+00 -9.1692020690039344e-01 1.2405110753854232e-01 5.1570068150279234e+00 -1.3928144204625954e+00 1.4658112169955939e+02 -2.7663134490431617e+01 2.5775314701833996e-01 3.5508775785129565e+01 3.8236686990393707e+01 -6.6693256601996276e-01 6.0396047654926761e+00 -1.6421484076782189e-01 -7.1073651212897770e-01 3.0536208253469120e+01 1.9040219863183410e+01 -1.2160928030714979e+00 2.2462267430807068e+00 
      </Row>
      <Row Index="3">
        8.1332290256975759e-01 -2.8203191798185571e+02 1.1716738960313777e+00 1.5518430483676370e+01 -5.6988729952254147e-01 3.7047690987141848e+01 3.1710516920289447e+01 7.5667422834674753e+01 -1.6468457022082927e+02 9.8539489154821702e-01 3.4002437147910678e+00 -4.5076165196150569e-01 2.2742430860813556e+02 8.2839395919919752e+01 4.6812419979069132e-02 -1.6771952734734679e+00 -8.9880565629728597e+00 -1.5311247348388354e-01 1.8122774978592599e+02 -7.1244166839027265e+00 -1.7456901220790872e+00 -2.7040171435545130e+02 5.8801197593852010e+01 3.8322288449950309e-01 2.8192624540190263e+01 -1.2537480544134647e+00 6.6554699863254796e-01 -1.0652863344351360e+01 3.7171380430007119e+01 2.6190232753098930e+00 4.4464516895055051e-01 2.2516121084498806e+01 3.3060199073766244e-01 6.7754883522661480e-01 2.8829562231289191e-01 8.9371768553781408e+00 -7.7726881509898476e+01 1.2187319424809527e+02 -4.3494833319453988e+01 1.1059778667866682e-01 6.0903048738396798e+01 -5.2667545707939012e-01 -7.6020428486246786e+01 1.9010298370671990e+01 1.9181319987318814e+00 -1.2090512698852334e+00 -3.1196415592587998e+00 9.1151211960250422e-01 1.6229109505871943e+02 -3.0014635889560822e+01 -6.9398018943050555e-01 -4.8234987086287973e+01 1.0941683236043683e+02 -3.1890035387463794e-01 3.8895964246225375e+01 -7.7724522517122530e-01 -1.2979967274140947e-01 5.3042411400842582e+01 -2.8099405973800621e+01 1.4032066637804945e+01 -2.0252957802827458e+00 1.6985193044064818e+02 -1.1433835516375439e+00 -1.2734729024490921e+01 1.5968417637016730e-02 -1.1312000646143156e+02 1.2350533450093122e+01 -2.2633722682950861e+01 9.1578517070429996e+01 -1.3952176514854964e+00 -1.0969813339946231e+02 2.8912507653325215e-01 -9.8212116589285245e+01 -1.6011726083066161e+01 -2.9414640919655026e+00 1.4589751879320711e-02 1.6803068328466617e+00 3.9174554077512308e-01 3.3914958094058079e+01 1.9802549377003015e+02 2.3392031886194440e+00 2.5800228519114216e+02 4.0370006040382316e+02 2.8962271069879764e-01 4.5443331287071828e+01 1.5987488641299503e+00 -1.1111771875455467e+00 3.0750482699956400e+01 -8.9784112801285403e+00 1.4240473214451923e+01 6.8966763355477945e-01 -3.4818208941374820e+02 -7.3107372329716747e-01 -1.1422232561082847e+01 -2.1079743767917769e+00 -3.6566688773539873e+01 -1.7821761568209784e+01 -6.7039171093806786e+01 -4.1339315715731900e+01 -5.8001421954178811e-01 -1.4754235968577568e+01 -5.2106487215232611e-01 -2.4218386206891264e+01 -9.8371662983763301e+01 -6.0355330406703434e-02 2.2913576907248840e+00 8.0711456735992926e-01 5.1862674207822757e-02 1.9318466090551084e+02 -2.1729932558017481e+01 4.4948576312564770e-02 -1.9208389822845942e+02 3.0616652947050386e+02 7.5917662748326964e-01 -2.7570488652144297e+02 -9.4730265168098393e-01 -5.8341671574310328e-01 1.7588410557916313e+02 -2.7377575543794972e+00 1.5087303385251712e+01 1.7285152567195894e-01 1.4114045787104149e+02 2.0464997044731628e-01 1.9033587531781135e+00 -1.3570493224563518e+00 -2.6571176587273833e+01 -2.1902521732795925e+01 -3.0588981231776671e+01 8.6921419197978452e+01 1.6058544457816884e-01 -3.0701526662032609e+01 -4.0400783632286585e-01 1.9892079431780371e+02 7.3436875196341953e+00 -3.6930131359956386e-01 -8.7137090293505803e-02 2.7734392430615094e+00 7.9155193966554749e-01 6.5549353734260762e-01 -5.0477432762948133e+01 2.2034882839442610e-01 -1.9295842150554012e+02 -2.4245134328554578e+01 -1.3068355840105630e-01 1.0187103544068641e+02 -9.1848102678583610e-01 -9.1842908591803718e-02 -1.1767755154012396e+02 1.0227528995362890e+01 3.0402320182046330e+00 2.5326836832846311e-03 -1.6274026445872434e+02 -1.0769038038894542e-01 -8.9712218199170157e-01 -3.9672378577418455e-02 2.1954034649874679e+00 3.7612381776809073e+01 6.1377772548983369e+00 4.5836480847824106e+00 -5.6000775098436861e-01 -4.6010114384118834e+00 -4.0171304703317756e-02 -4.6889159184440274e+01 -1.2038397000684308e+01 -4.9320323140100075e-01 -2.2001776595059988e-01 -8.3194859530684984e-01 2.6177808365393240e-02 -1.7295936027569557e+01 8.0651743876789936e+00 2.7460587778518730e-01 1.9486947473834416e+01 2.0840025749816590e+01 7.9669320156512194e-02 -2.7535065658535223e+02 -1.3218062395967603e-01 8.4270564072957549e-02 -7.5142707650705503e+01 5.6111689345926559e+00 -5.1692451640192836e+00 9.9707463089067805e-02 -6.2143825482696244e+01 -1.4023170245067407e-01 2.3243362237725660e+00 5.6262920942081229e-01 -1.2934758661377380e+01 -5.0690310638999785e+00 3.6408458076392449e+01 3.5572779443260703e+02 -8.9756309368229148e-02 -1.3434604038970029e+01 3.9160067841498442e-01 1.8633365879729610e+02 -2.2982042743397080e+00 -3.3380988180370541e+00 1.6597997627202518e-01 -2.3332828848194533e+00 -1.1173608826347676e+00 -7.6444832674777643e+01 -3.2900596915059147e+01 -4.7013547436368563e-01 1.6100995394413272e+02 7.1022844518586609e+01 1.1747823499026215e-01 -2.6893006620662328e+02 -4.8599484343095323e-01 -3.6662256697981155e-01 -7.9833304483727360e+01 1.1434828701883530e+00 5.8253205101615801e+00 -7.2644547046007701e-02 6.6040555273677498e+01 3.7824207637687568e-01 -7.2446423093888352e+00 -2.9263231525923850e+00 -6.2926313664996343e+01 -1.7562599659140687e+01 1.1912723427541562e+02 -8.5229891174418469e+01 -9.5401034696694875e-01 -4.7167067712093555e+01 -8.7928706389757405e-01 -1.3380784508283364e+02 1.3418233843682835e+01 -1.8858980534945236e+00 -1.0102372984305541e+00 -4.6531876908250371e+00 9.7236744744769332e-01 -7.4466216053461778e+01 6.3827858797978877e+01 -4.9729410067645752e-01 6.2527465932645612e+01 -1.8878161329576349e+02 1.1718945252955209e+00 1.7662801414963109e+01 -1.2472904747280023e+00 -8.2444984269502208e-01 1.5296163767489432e+02 -2.0522793623905144e+00 4.0464556585618539e+01 -4.8196324720578998e-01 8.9793666730660249e+01 -8.5652803979705450e-01 1.8609502400025868e+01 -3.1587914747048300e+00 6.7991335971293722e+01 1.9036510901271822e+02 4.8242755491628941e+01 1.5604895336405860e+02 1.4984711576992926e+00 5.5445828420150718e+01 5.3539233958714050e-01 1.2140693368039246e+01 -3.0203241227988485e+01 7.6690442905649716e+00 2.6387729108221349e+00 6.5868884293243077e+00 -1.6553390631521285e+00 -1.6900289364763142e+02 2.9877066061513673e+01 2.4332151486754139e-01 -8.8112652127268092e+00 -9.3245620381346782e+01 -6.7777890465741208e-01 2.5564006896768433e+01 5.9061236189735311e-01 3.3339359368819909e-03 -1.7989034751579729e+02 4.8133339533942404e+01 8.0712087784378870e+00 -4.8904592378466518e+01 
      </Row>
      <Row Index="4">
        7.8852629912064959e-02 6.9460130352989040e+00 -3.7790094331292778e-01 -5.6988728114749243e-01 9.2235014654553211e+00 -5.6432088231283775e+00 1.3304716808931545e+01 3.9243545440251282e+00 1.2086402724376867e+02 -5.9664896380839483e-01 -3.2439438361999720e+01 6.0567228909952209e-01 1.1356262354002995e+02 1.7770910661856433e+02 6.3871322594003699e-01 6.2652764236142533e-01 -7.9136903638579374e+00 -4.0089356479956773e-01 -6.9062034794783038e+00 2.9428885673755261e+01 1.7255685332597981e-01 1.4620760445516765e+02 7.8755787669447670e+01 -1.4497288428419388e+00 -1.0097128896513160e+01 7.8021998076292376e-01 -2.7714925357292639e+00 -2.9127434632618595e+01 1.1828335973114463e+01 4.3675738397583519e+00 -2.0891945911045898e-01 2.8049501670037664e+01 -1.0491900176621827e+00 -3.9658832534748800e-01 3.8771919028174368e-01 -4.2627753895643306e-01 1.6585438241931225e+01 6.4360699901315002e+01 -5.4130238804559212e+01 -4.2429800952188479e-01 3.4417440834021733e+01 4.4403814546473219e-01 1.7944053552668672e+02 3.3568657426772681e+01 1.2104103443313781e+00 9.5173230618104054e-01 6.3693851520534253e+00 3.6087545348878658e-01 -4.9117093018529943e+00 -1.9683319071003758e+01 4.4037830317338211e-01 -1.0013287961669221e+02 -1.8650669801994297e+01 3.5540007050846606e-01 5.7827828870127568e+01 2.1159312969914945e-01 -1.5536482417482187e+00 -4.9101930121375062e+01 1.5196551419523333e+01 -6.8662779179751832e+00 8.5667559902570911e-01 -1.1126522954227511e+02 3.0552239951663669e+00 2.2897615565502774e+00 -1.2777420446569399e+01 3.9491397877348113e+01 -3.5574334016687594e+01 -6.6109646656634112e+01 -3.0870040353526861e+01 2.3597666624932647e+00 3.5066235756637511e+01 -1.1007474326830573e+00 8.3632637455077003e+01 -3.4545538376730144e+02 -6.8372543302259903e+00 4.2979123466169700e-01 -3.8327954056176274e+00 5.7092576374951198e-01 -2.8951252556517893e+01 -8.9419876420026384e+01 -3.8451808001774390e+00 -2.0050545483997723e+02 -8.4958536032575608e+01 1.5051667760113905e+00 4.1868899929608745e+01 -1.9577059451972536e+00 5.4151327365355124e+00 3.4610048261491173e+01 7.0831355183256193e+00 1.1808212109087512e+01 -1.9546629264871038e-01 1.4281295040568213e+02 -1.4654922585802799e+00 1.0029519587690814e+00 1.0759921047650696e+00 -3.9588470380409476e+01 -3.5408448234123128e+01 -1.2904983080918996e+01 4.6518280738038271e+00 5.7612046683366969e-01 7.6486911950813834e+00 2.2233323562375729e-01 -1.0027523580696098e+01 8.0648848874221073e+01 9.1324093737484069e-01 -1.6311176024439438e+00 1.2515689658058681e+01 -3.7055217823177355e-01 8.5799919878438075e+01 -1.3042356231355129e+01 1.2722368872995045e+00 -1.5037695086006163e+01 -8.0956228737872635e+00 3.0473088778305857e-01 -3.0672567562274594e+01 1.6198809074453022e-02 3.1493551377775730e-01 7.9381013834983023e+01 -5.4012435283884031e+01 3.1259436890412736e+01 -3.8178003938479321e-01 5.7342236709346764e+01 -7.7860810702233407e-01 -7.6847417465445311e-01 -1.5798053928847655e+00 5.9194852073927130e+01 2.2338067270668247e+01 -1.5402259125300471e+01 -2.1307891834143152e+02 -5.5689192258117193e-01 5.3243859604311929e+01 3.6086875837574522e-01 3.9073323963267192e+00 1.5485211268840132e+02 8.2680001188486019e-01 -2.4345372684463196e-01 9.2171334658487023e+00 5.3239437182338212e-01 9.4966648750126552e+01 2.3111532500071532e+00 1.3351904105692176e+00 9.2893542311661122e+01 8.5285905918502237e+01 -2.5994495616618069e-01 1.0169706712214166e+02 3.8948532254842455e-01 -3.6687149821764131e-01 2.8692389393209723e+00 3.7196519776104218e+00 1.3204636977314896e+00 -6.8607694494573934e-02 4.3148046889460829e+01 -3.8549427374160794e-01 8.4401369822647343e-02 5.7012542983357228e-02 3.9958795422369580e+00 5.9002945442656496e-02 -9.4543502303717162e+00 -5.6003492195397797e+01 -6.5554740176366977e-02 3.9776493558791239e+00 -1.8746302067158639e-02 -2.1768475860231604e+01 1.3291224640023062e+01 -5.7567622071890923e-02 1.3363242004537687e-01 -2.0711458517025858e+00 1.3563262261190026e-01 -8.8975624528886144e-01 7.3549045436261551e-01 -3.2208679364649007e-01 2.9723649634781793e+01 -8.7254107737661002e-01 6.9801494846160439e-01 1.5967364329537773e+02 3.2877262600916618e-01 7.2415257816852596e-02 8.2251736569223937e+00 -8.0189811163972617e+00 2.4952525189523409e+00 -2.5738538326332369e-02 -6.7838389189312025e+01 -3.1236678890320724e-01 1.8126638220516963e-01 5.2573596777881770e-01 2.9152053402945910e-02 4.4237003292411003e-01 1.6465640099127860e+01 1.7862005376635111e+01 -1.1107575623642105e-01 -2.9255451028763408e+00 -2.0081461990052388e-01 3.2121048355121417e+01 -1.0975829139472498e+01 -2.4299554820515754e-01 1.6091903183598127e-01 -5.6549686534113244e+00 -7.4805661495445719e-01 -2.8464699777625071e+01 3.6640094493212075e+01 -9.8676313089173417e-01 -3.3483269754123086e+01 -9.3002525992100971e+00 -3.1977539860459647e-01 -6.3163745970717464e+01 -3.5786242571877208e-01 -1.8416133014182001e-01 8.6283033368285857e+01 -1.5471072354872493e+00 -2.6421512735258919e+00 3.0856701079816373e-01 -3.9682547918215484e+01 5.9069003533395525e-01 1.6979260788320920e+00 -2.1862849519372713e+00 8.9080587800895330e+01 -3.6877674309516699e+01 -1.2625220662693749e+01 -8.7855035594750007e+01 1.6020149761559077e+00 6.7234540059493952e+01 3.5919812255349903e-02 -3.9820704762405654e+01 -7.2683190574359145e+01 -3.7760261034198579e+00 5.4353205611736932e-01 9.4010669095619335e+00 -4.3455920377155621e-03 -9.2600529801180514e+01 -2.1325563902120727e+01 -1.1207626573936167e+00 9.1359882452138976e+01 -4.1465409762071907e+01 2.7202181021289995e-01 -5.8088363333456392e+01 -4.1624612089452384e-01 7.9065140299443826e-01 3.6926213233819226e+01 -2.9656486544041208e+01 4.2223822880515058e+01 2.4281098893067110e-01 2.7983269544281441e+01 -1.3236457183803449e+00 -7.7224392239601591e-01 -7.4687556335959169e+00 6.5268359697633983e+01 6.4282148307117808e+00 3.2453307380323551e+01 3.4250916584672119e+01 4.1667285751254823e-01 2.6926823022883529e+01 -4.9995074049840937e-01 -1.1756024207338330e+01 2.1884975168449539e+01 1.0308921661741246e+00 -1.7870142385615024e+00 1.5043288208574275e+01 -9.5761246764945351e-01 3.5567218014321952e+01 1.9917773433484445e+01 -3.5903083762459813e+00 -5.8700091453206532e+01 1.4329768679599562e+01 1.8707576623924300e+00 -2.4940906483168803e+01 3.5982465066965552e-01 1.4315627865892193e+00 5.8437137628685583e+01 -8.9754726560908260e+00 -1.6078204041493343e+01 -2.8284586818620486e+01 
      </Row>
      <Row Index="5">
        7.0534715955552931e+00 5.9957447818645869e+02 2.3995650971957538e+01 3.7047693517634869e+01 -5.6432097751464303e+00 1.1378920745536871e+04 3.3567954054791636e+02 4.0490676216042152e+03 6.7881913027728078e+03 3.1253475849232375e+00 -8.6956922158614016e+03 -6.7179606586013625e+00 -7.5440676345893735e+03 5.9339847990812368e+03 -5.7788687046633555e+01 -1.5743447340172221e+01 7.2251922231512978e+01 -2.9275562854601973e+00 7.5455759911461803e+02 -7.1427596532554696e+02 -7.2419711537459222e+01 6.8081757624784805e+03 8.4142566487859913e+03 3.6548253504032417e+01 4.5050463747304593e+03 -1.2274155988612423e+01 -4.0862349184313118e+01 1.1344821733250944e+02 -1.6064416857746704e+02 7.3202788629118686e+01 4.8723437646970824e+00 4.8379645994071707e+03 -5.5419383909252069e+00 2.8324901977626187e+00 2.5236523066091163e+01 -1.4852909224588340e+04 2.7777648037529366e+02 2.8121269301233269e+01 7.7736363711973481e+03 1.7910734323485286e+01 1.6511606724171917e+04 -1.9653811357211236e+01 4.8379389378376436e+02 -8.2866915754388774e+03 2.1661989608120297e+01 2.5175909684090577e+01 1.4298651228526990e+02 2.7274652395087995e+00 -4.1441722776661945e+03 -1.6682912575480032e+02 1.4082804658425552e+00 -9.7035767534919760e+03 -4.0344755234196969e+03 -1.4608781905583001e+00 5.3654922057237957e+02 -2.6638781201797816e+01 1.3439303114461971e+00 -1.1696159871702985e+03 7.2860296676293387e+01 2.4202894896552090e+02 -1.2097536586954774e+01 4.1954227019707469e+02 -3.4999680732608624e+01 -8.7743815636953997e+01 7.8696134338946422e+00 -5.7254652767730959e+03 5.4101669209009435e+02 -3.6943899736737094e+03 4.9224901804368328e+03 -4.0716482307694037e+01 -9.2203302548422180e+03 4.2802569706256172e+01 -2.4004974549460912e+03 -6.8737038230805692e+03 6.8485353858857962e+01 3.1762759715773988e+01 1.4508687394687001e+01 1.9343783487343735e+01 3.1182849144281972e+03 4.8214847658900335e+03 6.1036681291971462e+00 -8.3864793264549462e+03 4.8933342657125581e+02 -5.3973431348875877e+01 -4.1643840521614839e+03 2.1726490103969454e+01 2.0779173530107968e+01 5.5937143883210592e+03 2.5810369694989379e+02 1.4919573480809822e+02 1.5532167668370858e+01 -6.5461902306720885e+03 -6.6721875195021401e+00 -1.9575096405823169e+00 3.1390133286790704e+01 -5.7160115048581365e+03 -4.9858184250795639e+03 -5.0698478932088847e+03 2.5619871852540009e+03 1.8543496577086781e+01 -2.1772412899749916e+03 -1.2531621719775906e+01 1.9736498747583039e+03 1.4510349760485983e+03 1.7284072265019979e+01 -2.1223560551629930e+01 -2.4207900476573539e+02 -3.4626534595481187e+00 5.1871048848787723e+01 6.2899280273352342e+03 6.5513589943055464e+01 6.3503420325158390e+02 -5.8076087079948375e+03 2.1311232810470564e+01 6.7085836397127241e+02 -2.1781101662647835e+01 -5.9912913205964109e+01 8.2942657206171207e+03 -2.8636070248935480e+03 -1.2026088323397835e+02 1.0395209357375279e-01 4.7572280353901124e+03 6.4360316521764049e-01 -5.3570562777680735e+00 3.0928147555395524e+00 4.5041485360709436e+02 1.9316384207223729e+02 1.9490008821686897e+03 7.1444436550787268e+03 2.6043302898838716e+00 1.2505341823950432e+03 -2.6538513895250446e+00 4.5840701939071841e+03 -5.0433880300934777e+02 -8.7616491202211950e+00 5.2015036947934883e+00 -1.0922414024263580e+02 4.6085836404659277e+00 -2.2441795812592568e+02 2.5345340645706647e+03 9.2712008797943319e+00 -4.2968535271965657e+03 -1.6470238295861861e+03 4.9151236289937312e+00 4.1367539007487912e+03 -1.2430992968254802e+01 -8.6140460536696413e+00 2.4051341561205222e+03 1.8451797517500862e+02 8.3398187165803250e+01 3.2418567700606218e+00 1.9554387207423974e+03 2.4871804814129170e+00 -1.4213510162142825e+01 2.8603764819137290e-02 8.7130889000582090e+02 7.2729492721954921e+02 4.3560474768581707e+02 -1.3770929093616976e+03 3.9442299564943823e+00 -6.3340744419107955e+02 -2.1307288448894206e+00 -2.0101251476655691e+03 -8.9323367683889001e+02 1.4058166092421029e+01 2.8363638295048217e+00 2.1048761412253249e+01 -1.4632037583693809e+00 1.7022975763742381e+03 1.6514988402938627e+01 -4.3407048318223026e+01 4.2848617485040104e+03 1.0453299014212553e+03 -1.1007641294988550e+01 6.5387046572292411e+03 -7.4082476764324738e+00 -1.2106712302216627e-01 2.9792600468259707e+01 5.9839408017240821e+01 5.8520616294722050e+00 -3.4426946060118502e-01 1.8419528662217776e+03 -1.1369932712790099e+01 1.2737614078603851e+01 1.1101997761002748e+01 1.0567422536426802e+03 -1.4162404158769732e+01 -1.1612376703169666e+03 3.2236404925691941e+03 4.3121527106254929e+00 -9.5114324787804492e+02 -1.1526482998036593e+01 1.7921689029473675e+03 2.5439453645079274e+02 8.1289278920500863e+00 -2.4069720334120221e+00 7.8335834293464799e+01 -6.6343832928355368e+00 8.1453990187546879e+01 -7.9943182223540634e+02 -2.8076333623101583e+01 -2.8818265835553566e+03 -3.6475771034363406e+03 1.1966454528866105e+01 1.0436985709884977e+03 5.3558993409108133e+00 1.1481192853006156e+01 -2.3219760045172779e+03 2.9288581637056654e+02 1.7502321337031390e+01 1.1773176511859916e+01 4.4904938913716196e+03 -1.4122205369094804e+01 -5.1753758944560062e+01 6.1871504323812772e+01 -5.2050558934327109e+03 -4.0905831633661146e+03 -8.9516447245674499e+01 -3.7189864405278036e+03 -1.1480856421860040e+00 -8.6643925520557605e+03 1.5399033992247908e+00 4.2629677712524535e+03 2.1942429635676908e+03 3.9810235565754155e+01 2.7450869266306924e+01 -7.8896107804654122e+01 1.4038414866653824e+01 -3.1841793954651257e+03 4.5030507269193276e+03 -7.1601124367223505e+00 -1.2338568605317960e+02 5.7856848299198737e+02 9.9367387499186179e+00 -8.5865873857945871e+02 -4.1417739650532724e+01 -7.8576647103595292e+01 5.8200321921111272e+03 -3.3065512111247840e+03 2.8254475554202895e+02 -4.2595443071770092e+00 -3.6588755915748684e+03 -1.5795934313219817e+01 1.7620048894239300e+01 -3.2347762532308209e+01 2.3505222973462023e+04 5.7734637954893151e+02 5.1809856050806843e+02 6.9226581163543633e+03 -2.2839713602214431e+01 2.1448160025042831e+04 -3.4053490150840545e+01 3.2392764990754231e+03 1.8380711807814441e+03 -1.3116385133649629e+01 -3.4942385482664612e+01 -2.2598252160057200e+02 -1.2603834482823125e+01 -6.1416912192807449e+03 -1.0934282621536427e+03 -1.5698358628819466e+02 4.1052213345935070e+03 -2.9721009981926541e+03 -4.4578097882761071e+01 -1.0688583670767830e+03 -3.7968326196371436e+00 -1.0495288357616792e+01 4.3274841170204604e+02 1.6210539356753088e+02 -8.2059676004637552e+01 -3.3458861389252133e+03 
      </Row>
      <Row Index="6">
        -8.9270139832939321e-01 1.1804727954343150e+04 -9.1105697132731720e+00 3.1710520573580968e+01 1.3304714886148354e+01 3.3567938304933114e+02 1.4688009949237741e+04 3.6211075801470352e+03 -7.3485817198579916e+03 -1.0807096950892909e+01 -4.0842344804525140e+02 -2.0312724875561003e+01 6.5059164625208377e+03 3.7125016168662899e+02 1.6934755698131472e+00 1.6341158576129907e+01 2.8453293308671641e+02 4.9227780490063699e-01 1.1619483311834922e+04 5.0858166371939878e+03 -5.4458577069855799e+01 4.7508511389256319e+03 -3.0581043973672313e+03 2.3231118009537457e+01 -1.5180240784147902e+04 4.8352948749919866e+00 -5.0201257037086208e+01 -9.6957024973904095e+02 1.0823698007449248e+03 2.9350629661622497e+02 2.1519971614299443e+01 1.9686536188287580e+04 1.5347906778200231e+01 3.7834432157276763e+00 -3.2336539371914611e+01 1.3470623515300991e+02 -2.3731901070922477e+03 2.3241642559492357e+02 8.6240744505207113e+02 -9.2962651658074407e+00 1.2927810188129474e+03 1.1728969535519337e+01 2.6997493276105524e+02 -4.5522997058736355e+03 1.3182207012448924e+01 -1.3650026205111743e+00 -2.0078718371496643e+02 -2.2139102210713117e+00 -4.4490307600694869e+03 -1.6636159947264841e+03 7.3236173224751141e+01 5.3541559700864927e+03 4.7059280012457202e+02 -1.8687955192072380e+01 -5.3937505504015680e+03 -2.5642563021474452e+01 -3.2713915776005990e+01 -5.9914890799133154e+03 -1.2344309036380603e+03 7.5003149852068361e+01 -3.1692993491066311e+01 7.0725527059355554e+03 -5.1948921692629924e+00 -4.8988199792857259e+01 -1.0561992928010596e+01 -4.4078258020831254e+03 -1.7467815301391329e+03 -7.3250173785015595e+03 5.6986656736954501e+03 -8.0268349279924891e+00 -2.3581588385660107e+03 -1.9772559751678759e+01 7.6064656160715676e+03 4.2137997221712849e+03 -7.1398341800269861e+01 -6.1809606812899347e+01 1.2964026704435463e+02 -8.3000880445890548e+00 1.6463630446037350e+03 7.0076616511464108e+03 -2.5813687025641912e+00 1.4444526442723096e+04 4.6992097915469494e+03 3.3291183898613568e+01 7.0326751982222149e+03 5.0048091610893749e+01 5.8588800897324674e+01 -3.3705194623474581e+03 -8.3944616211621960e+03 -6.8546581959270611e+02 -3.2928435044781277e+00 2.2625319193014384e+03 1.8781698581089994e+01 5.4950355668493138e+00 4.1833614868904476e+00 -8.7183840829617202e+02 -4.2152247932547452e+03 -4.4513497678411568e+03 5.0845648294400235e+03 -2.9293564251366110e+01 -8.8980692890997307e+02 -1.5694631228878453e+01 6.3086885113814442e+03 4.3367300054735069e+03 1.1584214053632262e+01 4.0248021211409863e+00 -9.6032410317806409e+01 -5.8985802614027243e+00 -6.1050311134010517e+03 -5.4871506583871014e+03 -1.3041046512009984e+01 4.2454412889000832e+02 -3.2314947633427564e+03 -2.0106853753767751e+01 9.9692876601832522e+03 2.6878160739344438e+01 -5.1800375092656608e+01 -1.6540106971434680e+03 -2.9294312370715454e+02 1.0774403874823452e+02 1.1195389128119725e+01 2.5751497352200313e+04 1.0162803771636415e+01 5.3585031793904783e+00 1.9277117875226342e+01 8.1145042915053830e+02 -3.2081350008608747e+03 4.9325703970039604e+02 1.2960300349965896e+03 1.7177897287705783e+00 8.1284669174553164e+02 -9.2918047104461987e+00 -2.5931741496798293e+02 2.4902641407387991e+03 1.6197636161504263e+00 6.3917839907736722e+00 -1.4482597879600056e+02 2.3305360034466216e+00 -3.5189588106760689e+03 8.8907104840768500e+02 3.1885793255562735e+01 9.8348893785678847e+03 2.1002550804300045e+03 -3.8395573494251458e+00 8.9257700563026610e+03 -2.7929446298706733e+00 5.5022141803101512e+00 -2.0054626978133210e+03 1.7942392810538788e+03 -6.9762567267877955e+00 -1.0378721124474344e+01 -2.8816233986326290e+04 5.8048406997341679e+00 -7.8612123807906524e+00 5.3530869295376462e+00 -1.3643373832188956e+02 1.5510670002497882e+03 5.6964903778352891e+01 -8.4580161669155714e+03 1.3153138835477456e+01 -2.2281716343784680e+02 4.0759978404673225e+00 -1.0555172540804342e+03 -1.3009741958956452e+03 8.4443056791131799e+00 -9.1551105898132923e-02 -2.9984103088028611e+01 -5.4166154029628686e+00 6.2689765129499824e+02 3.2331374376504555e+03 8.4050443678910298e+00 -1.0055287897551882e+04 -3.4802273169864839e+02 -1.4906197559571099e+01 6.2610756497607906e+02 -1.7623271984228676e+01 4.4826892970719872e+00 1.8219292900003134e+03 -2.8730484921621439e+02 -1.6716509543717930e+02 1.2157095381113876e+00 -1.6575274264714997e+04 2.3664270789035779e+01 1.0735936323388735e+01 -6.6010888480477314e+00 1.2053621019240805e+02 -7.7949439850941530e+02 -3.1926776753295917e+02 7.1171717732157686e+03 4.4912987508895741e+00 -1.0813560684709358e+02 3.6786990086386211e+01 6.7632889302467047e+03 -1.7667964336629686e+03 -1.0789087404125789e+01 9.9407432598616485e-01 6.6765368517016867e+01 -3.8496630455553520e+00 -5.4521066223982307e+03 -6.2595259510079595e+03 -1.3065679013678180e+01 -8.3302004530873255e+03 -1.9391703222267197e+03 5.5726861305717028e+00 -4.7631140007175900e+03 1.2445303092133098e+01 -1.6909788586075489e+00 5.0410689938145680e+02 1.6411643501878602e+03 -7.1061857689632461e+01 -7.3049687801889718e+00 1.7642719585168816e+03 7.3770805436116582e+00 -8.2251489110245135e+00 -1.9711438577608995e+01 -3.6345122101748861e+03 5.4928334374988772e+03 9.7915579591426649e+01 -1.7591771499647330e+03 -4.5353677734334951e+01 -1.9143545639134991e+03 -1.9654859457952895e+01 -4.7468830728337443e+03 -5.1683052129173666e+02 -5.2762507749667662e+01 -4.1032019962759961e+01 -5.2834033477649726e+01 -1.2944286467621948e+01 -1.8855978720812509e+03 1.2813820200839791e+03 1.4691530789045828e+01 1.5352291294255465e+03 1.6288276475902112e+03 2.1910634091335567e+01 -7.2612153046038302e+03 3.9635009436916505e+01 -8.1150586316933413e+01 -1.7101244270028360e+03 -6.9868783331148770e+03 -4.2163258584965888e+02 1.8555708262119879e+00 1.2591656366348810e+04 2.6814253860331405e+01 2.1289416287099211e+01 4.7329725064070203e+01 1.1612640296090085e+03 5.4580463958815735e+03 2.6678028222607968e+03 4.5527921938320378e+03 -3.7595570088237260e+01 1.0560084758396276e+03 7.8560186390785873e+01 1.8275273822760737e+03 2.3766442399173620e+03 2.4597076898469524e+01 -9.8238799749519834e-01 -3.6145553088323641e+02 -5.4810255416177398e+00 -1.7619249851724537e+03 1.4445087500325684e+04 2.9359378131526988e+01 -1.5111565913648679e+04 8.0015436872724206e+02 -4.4888543251725451e+01 6.1749146809619606e+02 -2.7317774386627292e+01 3.8606958197446595e+01 -3.1832962684935615e+03 -9.0779374578122388e+03 4.6732311958875727e+02 8.9311001449309702e-01 
      </Row>
      <Row Index="7">
        -9.0135219047942972e+00 3.9886287326484227e+04 6.4743817224057153e+01 7.5667426222431203e+01 3.9243546801305769e+00 4.0490674185538155e+03 3.6211077988369843e+03 3.6099025933863231e+04 -1.7319345391621257e+04 3.7602327759006187e+01 -6.0576808130824745e+01 -3.4555869861089135e+01 -8.5151994079827600e+03 3.1386387530326379e+03 3.2265689701182403e+01 1.2053987149141768e+01 5.8177618781038325e+02 -2.9414317547558717e+01 1.8780130156383566e+03 -2.2764688809064965e+03 -4.0046511123713259e+02 -5.4334732356379536e+03 9.4122448756514495e+03 6.1824540468193256e+01 -1.9512905161919647e+04 1.7549423219232047e+01 -6.0689196275854258e+01 9.6354404418321410e+03 1.8469743481099576e+03 4.6262332345402046e+02 -2.5577024412680498e+01 -6.5246556196964693e+03 1.7519850924615810e+00 -6.1459315087079830e+01 -1.6593640601298155e+01 4.5151058070080308e+02 -9.2714079851136808e+02 1.2644955773946687e+04 2.1321730815715109e+03 5.3357258924789939e+00 5.3204477849186487e+03 2.0349521367601731e+00 -8.6945127105710217e+03 -3.6816825923315878e+02 -1.5249851482410037e+01 1.4127482042746497e+01 5.2792910800469519e+02 -2.5317547909059201e+01 -4.5578289540033811e+03 4.0945946334506698e+03 -1.3909563090992805e+02 -1.7122498286712762e+03 -1.0209423892390452e+04 -1.8389125267141087e+00 1.0714270132253296e+03 -3.4498472548598606e+01 -4.1669288766700120e+01 3.9634026413307311e+02 8.2569375741450222e+02 2.2847276643748603e+02 6.3639791500856148e+01 -1.6884738771777753e+04 3.1679151077596089e+01 -9.4199926388281909e+01 -9.4717289302153233e+01 2.7959577201710508e+03 -1.9704021059217955e+03 -3.0965165813896572e+04 5.1471226441395229e+03 -1.7244160599531753e+01 3.9262100049749897e+03 2.5813675763245790e+01 1.0602188858108784e+03 -4.5813405575331972e+03 -7.0356355666987383e+01 3.3381412827682212e+01 -1.2373909096563475e+03 3.3814455445680338e+01 6.9752507192953271e+03 2.2288732585140633e+03 6.5070838464154508e+02 -3.3324981981654266e+04 1.0086688717031839e+04 -2.8232021151661684e+01 1.4921173122946966e+03 4.8188465890198131e+00 6.0110359256830940e+01 5.1757946989760749e+03 -2.3310458511677457e+03 -1.6414596807860153e+02 3.5193035221232563e+01 -1.9748394871445067e+04 -1.7590765786661631e+01 -1.1128810085693073e+02 9.5492257302588115e+00 -2.6038088145548500e+03 -2.9741498500510143e+03 -2.0909343189296596e+04 8.2649749744770634e+03 -5.9766604959152815e+01 -9.5359816075673416e+02 2.4898098810194867e+01 1.9068762946233648e+04 -8.0622013582495874e+03 -3.8623376289322572e+01 -4.8582493777445549e+01 -8.9740328024218547e+02 1.7098250290471661e+01 4.3911078024754379e+03 1.6660085635252770e+04 -1.9981849346333058e+02 -1.9417315250930515e+04 -7.0876923178155521e+03 2.2016853744677125e+01 -4.1003106119430231e+02 -1.9348179161068217e+01 -1.7830583223609807e+02 2.4528252618371971e+03 -1.8319659671254087e+03 7.1025175176689345e+01 -2.6388434378545753e+00 1.2416865677414331e+04 7.0130526215193640e+00 1.6209488089715347e+01 2.4065896356956749e+01 1.3188586188060845e+03 8.6652495531720319e+01 5.1178086063672924e+02 4.8025820609061411e+03 -1.4136688693967042e+01 8.6766042757828370e+02 9.0151578822000857e+00 9.7802876219550035e+03 -6.4146460093725036e+03 -1.3074550141533233e+01 6.2223570732595190e+00 2.7022805701505263e+02 -1.8687661286348629e+01 -2.0014504068037888e+03 -1.2967807416494218e+03 -1.7068539196814743e+02 -2.4166465430244563e+04 6.2344670067204361e+03 -2.1562490860106767e+00 1.1304512332580200e+04 -1.4242759955441981e+01 3.2978895266628903e+01 -5.4306206852595178e+03 1.3670990490808995e+03 7.1658587175417296e+01 1.1378030706866411e+01 -6.9807125185500699e+03 -8.2940907063306071e+00 -1.8815108678370894e+01 4.6500474340361997e+00 3.1739675938519099e+02 9.4767799162479116e+02 4.9846707553113883e+03 2.8240255943611228e+03 -1.5849467178120904e+01 -2.4188767168334294e+02 1.4515564552987756e+01 -5.3452236649949436e+03 -8.8683625042517451e+02 7.7923737415751031e+00 8.9574182848175443e+00 1.1388735654571201e+01 2.2679200073639878e+00 -4.3198807581906271e+02 -4.9358859846195628e+01 4.2553821057796007e+01 2.7298773680793834e+03 2.1075946197042822e+02 -6.7791714850586029e+00 4.4671512326754410e+03 -2.0668657747589581e+01 4.0618360969136020e+00 -1.7318041764170262e+03 -6.6851767388509563e+02 1.0607799820224925e+02 5.1779593496189111e+00 -7.5819358820841207e+03 5.6970422947555219e+00 1.6708431771730464e+01 -1.3359976717300450e+01 8.5585744624624749e+02 -2.5380789971450062e+02 8.1005703721915879e+03 -3.5677065944115247e+02 -1.2346466082486435e+01 9.8199957906018517e+02 2.3235273661564865e+01 2.1733193093619152e+03 -5.4528634287398854e+03 7.1988790306930497e+01 -3.3712402323446651e+00 -3.9034113341273576e+02 2.4718130247997351e+01 -7.7449481251361867e+03 1.4354834122313434e+03 4.3220596304555400e+01 9.0170444291069725e+02 1.2889679678335692e+03 2.2936673133034205e+01 -1.5434964247338291e+03 1.9579344577473908e+01 6.3395040590666198e+00 -6.9588010646469802e+03 5.4845028261047196e+02 5.6136575372714788e+02 4.7821605418916079e+01 2.5826719315038485e+04 6.8431055104650085e+01 -1.6450051160868435e+02 -7.3048466966128643e+01 7.9497141507066981e+03 -5.4450800772479363e+02 5.4594581014629075e+03 -1.9584746248414740e+03 -4.0983533476776756e+01 6.4354993094123020e+03 2.3286067862988972e+01 1.5848331965282532e+04 2.1379003594880342e+03 -7.6762302130932653e+01 2.7343144266642611e+01 -8.0568977948658471e+02 -2.3695471042082232e+00 -4.0747878449731197e+03 1.2621592004729551e+04 -1.9216123339514490e+02 -3.7294026363721423e+02 -6.4836595123004008e+02 5.2932581524949910e+01 -5.0487876810418757e+03 -4.1011314073813196e+01 -2.2217338038926709e+02 -2.5177635772561080e+03 -1.8191891621895365e+03 3.5483186077018172e+02 -1.9089459740475974e+01 2.4662533796201587e+03 -1.6582767232002965e+01 9.4319430858073673e+01 4.5854690581210512e+01 5.4143071159029123e+03 4.6040920144315151e+03 1.0549174135966645e+04 -1.0435762572567435e+03 2.4969348804884028e+01 3.5105473396046473e+03 6.4430271676659345e+01 1.1154861113752702e+04 -4.4922207025306034e+03 -1.8870457513218668e+02 -6.7727755425605892e+01 5.2456501403386710e+02 3.8996091930430566e+01 -3.2888694737590376e+03 -5.6914509178458948e+03 2.5768476730459008e+02 6.8776108032690045e+03 1.7963429551555299e+04 -4.4086095323491080e+01 -5.7502482185440840e+02 -3.5173895084563810e+01 9.6493980492613446e+01 -2.6547590733057241e+03 -1.6359529593681204e+03 -1.2567579928692980e+02 -1.9917058762726504e+03 
      </Row>
      <Row Index="8">
        1.2747755430792694e+01 -5.1387904584079341e+04 -1.1812819082568677e+02 -1.6468456115509724e+02 1.2086402146612210e+02 6.7881912564124805e+03 -7.3485813815623042e+03 -1.7319344538206191e+04 5.9908246743970364e+05 -7.7454807976176340e+01 -6.1356973981289175e+03 4.5554059919272078e+01 -1.0412263235381426e+04 1.4961393725806351e+04 -2.9966369367593160e+01 6.0442288219990473e+01 -7.6538102180142050e+02 -5.4813539413306138e+00 -9.4915846547609137e+04 1.4220626483956221e+04 1.2098132581981315e+02 6.8627194955446939e+03 8.0275806241977189e+03 -1.0602716907539423e+02 -7.1405552767588088e+04 6.9389428061841059e+01 -1.1770277018231161e+02 -7.4772508903817070e+04 -1.2808256283961327e+03 2.0931900532800591e+03 1.9067949699136442e+01 3.3759478016028443e+04 -3.1374839672660435e+01 3.7057032171245147e+01 -1.4338555190048954e+01 -1.9170858569241182e+03 -1.2002667563759260e+03 7.4841298201969294e+03 6.3193767141138960e+03 -6.9219001788892118e+00 7.1275583558514400e+03 -4.2907113705374655e+01 1.4927190213094320e+04 -3.4824890443266158e+04 9.9077306162829586e+01 6.2248693353847408e+01 5.5842418462191279e+02 -8.9074497366920031e+00 4.0992991847003614e+04 -1.4317024822216175e+04 4.1948512587793459e+01 -4.9471921517289782e+04 -5.5929240144452306e+03 6.5109171876907453e+01 -5.0234880264251915e+04 1.9353439809661019e+01 -1.0292661844339432e+02 -1.6388623369026725e+04 -8.5231704728185614e+03 1.2325349388764903e+02 7.3455620185465023e+00 2.4539748346083477e+04 3.8185063407627786e+02 4.5289937208636502e+01 -1.3753469963943019e+02 -5.9877086302369680e+03 1.0576368371256875e+04 9.1316466704776976e+03 -2.3841204633833637e+04 8.2024320307408402e+01 -6.1416149481929151e+03 1.5689334891772151e+02 -1.6530932973057930e+04 -4.4148116445635911e+04 -6.4816446800724293e+02 1.4997029577214744e+02 -2.2444869859535575e+03 1.2345472204712564e+02 1.5589113365701349e+04 -2.8438990441501483e+04 -8.8854525737454424e+01 1.3405086622729577e+05 1.3821989617139749e+04 -3.0954307785735068e+01 -1.0187342885691192e+04 -4.0091979484615933e+01 2.9119480038790147e+02 3.3204414943125797e+04 4.8994928704672011e+03 -1.3638376817278993e+02 5.9779452021438729e+01 -2.4382384284275700e+04 -3.8631732587781869e+01 1.5984957612576909e+02 2.4394110098447231e+02 -1.7197039007999829e+04 2.7309346566619126e+04 -4.8161216528447039e+03 7.2544654360364118e+04 2.4724729399936308e+01 -7.2850877657892634e+03 5.4368287464512036e+01 -5.8005633693033160e+03 1.8134873823952927e+04 1.5757658124006235e+02 3.6316972263209095e+00 3.7192454204635021e+02 -6.1354521607702281e+00 -2.5262285619365688e+04 2.5029231541093803e+04 -1.1421980203641397e+01 -3.6662875248607597e+04 -5.1977086890182625e+04 -2.3440490565038488e+01 2.8565734961263835e+04 1.1407947081126508e+01 -2.4603968971339555e+02 -5.3586784691226232e+04 1.4353709988027462e+04 4.3681987899941878e+03 1.9793336995295249e+01 -2.5415944322012845e+04 -1.0526350576811456e+02 -5.2590250855869272e+01 4.4524913847884775e+01 5.9788511270777390e+03 -3.9734681056420345e+02 -7.6069407440092018e+03 7.6852916554310548e+04 4.7196707589548748e+00 5.6261194466324196e+03 1.1483583650867786e+01 -2.1460234425318216e+04 2.1752623792285180e+04 3.5033206417989682e+01 4.4759791911095796e+01 1.3753106500673916e+03 9.3710779599791749e+00 3.1914680475269879e+03 -3.7892444034007876e+03 1.0513072874981943e+02 9.0047277400057283e+03 -7.1016307560481237e+03 -9.1589233464755004e-01 -1.1329635644913375e+04 -1.3423191816170268e+01 -4.7954826526485839e+01 -1.1656000499782254e+04 5.4956586640732974e+02 1.7201222349104728e+03 -3.9348057507384510e+01 2.2638442596664197e+04 -1.3311950205790456e+01 3.0764013944490216e+00 1.4212945271607826e+01 8.1643994967066646e+02 2.2867094917610038e+03 7.8864644503259897e+03 2.2875801724153607e+04 2.4172749687677424e+01 6.8956979462380104e+02 -3.8760758283782977e+01 3.7803090685361298e+04 9.9509674198358880e+03 -6.9175893755163997e+00 6.8152023711100296e-02 -4.3345990577919497e+02 1.2258403610341340e-01 1.2294428704828271e+04 -3.0303854995473184e+03 -9.5643025932342198e+01 4.1376007465685056e+04 1.2525911969127264e+04 7.2693231734950544e+01 -1.6699748314206503e+04 2.0273151473723175e+01 -4.5321570842070358e+01 1.1682993697061733e+04 8.5383619341412680e+02 9.0195404148151727e+02 5.7529181452157836e+00 3.9458363321903264e+04 3.7582520507715941e+01 6.9893320084558539e+00 1.9616672493787153e+00 1.7260233506485065e+02 -1.5422780878552676e+03 8.2263436182214136e+03 -8.1032304739138766e+04 -1.1949679280048306e+01 1.4626296454076669e+03 -7.9498088690762472e+01 4.5944542555850654e+04 -1.1196969167135865e+04 -6.6318348005844243e+01 -3.4435347595319570e+00 -1.1626249061656065e+03 -2.5038813962109998e+01 1.6302718285013136e+04 -8.2647079203052381e+03 -6.9395528551613069e+01 -8.4944878831474925e+03 1.2844777289056663e+04 -8.4292466559835930e+01 5.0377199742900753e+04 -3.0112116598619817e+01 -4.0162561062012578e+01 2.3185939024456133e+04 -1.8758579734416137e+03 3.1960524796623304e+01 1.0626058929515762e+02 -8.5329027634064987e+03 1.1440952056747233e+02 3.4650384678764709e+01 2.0224176065643491e+02 -6.6309909797322189e+03 3.3734014643895178e+04 -6.4516170783531561e+03 1.0564099763770282e+04 2.6205804239444490e+01 -9.7786752757484537e+03 1.4772002325686481e+02 2.2846401448144243e+03 -2.1218432577428714e+04 -4.3784513849603331e+02 2.8737473923827991e+02 -7.1431213426100089e+02 9.0581798537156828e+01 4.0572122436597623e+04 5.5642314504143898e+04 -2.6425235470609778e+01 -2.8575240614181857e+04 -2.1257828546931534e+04 -1.2959374320744882e+02 1.0051875203100970e+04 8.2493687995792243e+01 -2.1767593909037441e+02 3.0265249971237390e+04 1.2135281683177942e+04 6.8623934080339741e+03 1.8706453721464641e+01 -2.1184224318596669e+04 2.0355497279648716e+01 -2.8464979452588790e+02 -1.5602164087992378e+01 1.8741720501266209e+04 -8.7401952550969145e+02 3.6491719911141276e+03 3.3980183080919523e+03 -1.1623652961309531e+01 8.0452008197246278e+03 -2.1589078262894873e+02 3.9261847024386254e+04 1.4029788651989757e+04 2.3683235052627867e+02 -1.1947602826208713e+02 2.2672550219716031e+03 -2.9738412154020807e+01 -1.0468477295863446e+04 2.2433369568113292e+04 -2.6270882547145385e+02 4.0006002556729472e+03 1.7108956368391038e+04 1.8605538940831548e+02 -8.3248691037608933e+03 3.9267177762710503e+01 5.5367878341792675e+01 3.5300704291300572e+04 5.6332077402349460e+03 -3.8911195843771643e+03 1.7343722127386620e+04 
      </Row>
      <Row Index="9">
        -4.4715812252121501e-01 -2.9479646339447697e+01 8.2075870324571842e-01 9.8539486628772011e-01 -5.9664895498839210e-01 3.1253458225850750e+00 -1.0807096442887964e+01 3.7602325641365212e+01 -7.7454805217112153e+01 4.5595723535372201e+00 1.8665819813663347e+01 -7.1616621214804443e-01 3.1893630552162239e+01 6.2901304888260327e+01 1.8478287834488660e-01 1.2654812194258572e-01 -3.5123384805266271e+00 -1.2209523504601681e-01 -8.8253297748822050e+01 -3.5716608975527926e+01 2.1549769156786761e-01 -5.6999491713016823e+00 8.2329371321873012e+01 -2.5217731298998780e-01 6.7880937722349813e+01 -6.5447545537484575e-01 2.9916299334939273e-01 -3.0176191878408744e+01 2.7989619336528058e+01 8.2202949162702357e+00 -1.4826365299840422e-01 9.9806607797338813e+00 1.0286519520060727e-01 7.0036642511775757e-02 -1.9127574592697588e-01 1.4748965295614365e+01 -3.9234081516715158e+01 1.2079879539937274e+01 1.3617328331903487e+01 1.9170657984096875e+00 -1.2016915695500964e+01 7.6296535691619194e-01 2.4098468363280695e+01 7.9952777192231963e+01 4.0198508187324788e-01 1.3011957524688605e-01 4.0915039388179097e-01 -2.6275647877449504e-01 -9.9353488695566682e+01 -4.0515573217877446e+01 -1.3065395366125450e+00 -1.4371221028425769e+01 -4.2710379157211520e+01 3.0526810398450199e-01 1.3999887672624016e+01 -3.6678983774013613e-01 -7.7060038810312670e-01 -2.4400884870276514e+01 -1.1244072157535566e+01 -1.7097434553839763e-01 -6.2910044174760782e-01 1.0634616184953103e+00 -8.6818057511487656e-01 -3.1022100739336622e-01 -5.5219505435661898e-02 -6.8757484808969068e+01 -2.3085646109988573e+01 7.7438322153649750e+01 9.5836922924197495e+01 -3.8121686783260773e+00 -2.0503706951937751e+01 -5.5402263726156453e-01 4.2216956014417278e+01 -3.2225864379440168e+00 3.1123145797050977e-01 -4.0716813937657964e-01 2.6663964125945627e+00 -3.9328295103602973e-01 -6.2584093261433551e+01 7.8814862890481718e-01 4.0945000861416707e+00 -6.8274415715242810e+01 9.5480208446062846e+01 -2.3127053124081459e-01 -1.9242017803888018e+01 1.1013158615039806e+00 -1.2680183448894033e+00 2.3330467098980144e+01 4.0512450537268123e+01 5.2115762893799751e+00 5.8877413429830758e-02 -1.2660838879601260e+02 1.7369476858652066e-01 -8.5521908697395566e-01 2.3781941619292946e-01 -1.4975566043558054e+01 -3.8637244105399226e+01 -1.0245982923411688e+01 5.5005603956703439e+01 -1.0880993053751140e+00 -5.6377283229562289e+00 -1.1343110643214496e-01 -2.9267516568059257e+01 -1.0111493480218414e+00 -3.8817188175714036e-02 4.7401312782977323e-02 2.1344836035880763e+00 1.3378732355753267e-01 3.9435715224708701e+01 -1.2654752447869231e+02 -1.6437326362917499e+00 4.2988136230859254e+01 9.6372389549458930e+00 6.3064217017711122e-01 -1.0272075181187813e+02 5.2197016883887881e-01 3.2927482377644157e-01 7.1988253974984133e+01 -3.3973893326305131e+01 -4.0409853633753787e+00 -3.6892039549985611e-01 7.3261664811764547e+01 5.6452870073911754e-02 1.9430846057164231e-01 -5.3699535313756064e-01 1.5391637624586281e+00 -1.4490877590649252e+01 -1.0489739700736887e+01 -3.2596003432221444e+01 1.1369316982483053e+00 -2.9488638700557601e+00 1.8958313719103925e-01 5.2680964162040340e+01 1.6331148850382093e+01 -1.3520262018127011e-01 6.4728397012405736e-03 1.9032368085025329e+00 -4.9944012211108435e-01 -4.1962476361165301e+01 -1.1852169195715437e+01 -7.9993422023038940e-01 -7.3103475755181542e+00 8.0792404401112119e+00 6.4723415721698499e-02 1.4777078940382572e+02 -1.1777423856170914e-01 5.8882625936290145e-01 -3.3218481454855770e+01 -1.2400588291375708e+01 8.7289294770830796e+00 -6.0705628101118236e-02 -1.1365090727837476e+02 3.9770418671626673e-02 -1.1247172301316086e-01 -6.5326656818534501e-02 -2.1071457287379634e+00 5.2850012502168084e+00 1.6835957925420388e+01 2.4869024945590994e+01 -1.6662266190008381e+00 -1.0618715198640700e+00 1.3477613244812278e-01 -7.5011502774467530e+01 -5.1381318293122078e+00 -2.6688960053394339e-01 -1.8275528319891154e-02 8.9067432311916772e-02 8.2691846079492634e-02 -2.3052633206324657e+01 -4.8924640888347767e+01 8.8466175756025056e-01 1.2024488689847838e+02 2.5497297039320671e+01 4.9851963324845333e-01 -2.1897971032548361e+02 4.6299217610446305e-03 -1.9553702506383039e-02 -2.7742603447552479e+01 3.9070014739761043e+00 1.4054046733984367e+00 -4.2990954440736667e-01 -1.8622402394779158e+01 2.3696214105490293e-01 1.1625962791660467e-01 8.8227736570402393e-02 -8.2742466378280888e-01 8.0153612472553952e+00 2.0937208916884941e+01 1.0751744228208906e+02 -9.6853545449367429e-01 1.7164697035746956e+00 4.3823673303495198e-01 3.9334489763908763e+01 8.5420566832995917e+00 -1.8273815490013526e-01 5.1379590120808671e-02 -2.1161355777301960e+00 6.4599874989054484e-01 -5.4154801396717261e+01 3.0797418991721706e+01 4.6974201582846531e-01 4.1908535020713927e+01 -2.3840216660907444e+01 1.4218161072652596e-01 -4.2081467932232350e+01 -1.7008061576266398e-01 -7.4669817726318227e-02 -1.2895938135644420e+00 -3.9293364722561170e+00 3.3608804390290850e+00 -9.1882199592175429e-01 1.1276390749044369e+02 -7.4440168508476984e-02 -3.5976291583326464e-02 -6.1772612664948556e-01 -5.9772609928518591e+01 -8.8029418008182276e+01 5.8977184130484957e+01 -6.5092919069538993e+01 1.1011957946938349e+00 -1.1050940391438797e+01 -2.7561860543280903e-01 8.0693861209020312e+00 3.5598265947138664e+01 6.8366960669123822e-01 -1.1953788496899875e-01 2.3545942341493258e+00 -5.4821964484108388e-01 -5.0598608275216563e+01 -1.6373622936255623e+02 5.5748105596118824e-01 1.1386017521947679e+01 1.9086377717182845e+02 3.7506965668915027e-01 2.9515203709454546e+01 5.4839801212769634e-01 -1.0253373074324088e+00 -5.5735758675850235e+01 6.9556981909259825e+00 3.2375146951121003e+00 1.1746920956887759e+00 6.5572631409491791e+01 3.2397691847631005e-01 1.8975777250023371e+00 -1.0306411723429896e+00 -6.9571054644644228e+00 9.8005230619823877e+01 -8.7381968906978873e+00 4.6804042710853729e+01 6.4773906428590040e+00 -1.6196701310161679e+01 1.4517744195651323e+00 1.2142978710768972e+01 -2.0926767728166507e+01 7.7076663420162905e-01 2.8999239833913344e-02 3.4054557465978128e+00 1.1573144948592571e+00 -3.2900072987436587e+01 -6.0306348274735697e+01 4.2303746524540946e+00 8.5846563749087963e+01 3.9881807669761116e+01 8.0068912775299206e-01 -1.1156438569693714e+01 6.3383117644582487e-02 1.4648140872606632e+00 5.4245131952931480e+00 6.7967402292332253e+01 -1.3935411182365947e+01 -6.8574171872780013e+01 
      </Row>
      <Row Index="10">
        -5.6545914334769476e-01 -3.2613274678065854e+03 -1.0856837877806267e+01 3.4002394622228991e+00 -3.2439437077844104e+01 -8.6956922611030950e+03 -4.0842377646283575e+02 -6.0577147900037119e+01 -6.1356974025418813e+03 1.8665818483186008e+01 1.5120694604723854e+04 2.1754766169833388e+00 7.1308989031633837e+03 -4.6570650959525565e+03 -2.6714009842975621e+01 2.1099376429431715e+01 1.0396882833507654e+02 2.0326430449768185e-01 -2.8045246601936481e+02 1.2131102783793795e+03 5.2148410799457615e+01 -8.8546720754374655e+03 -1.4474071293420411e+02 -3.6195883088844376e+01 -5.7527344583112608e+03 -3.6107136486449152e+00 5.2246269741651957e+01 -2.4885419624620977e+03 1.8556054300937882e+02 2.3337008634921875e+02 -2.1899048521919586e+00 -2.4735501611157333e+03 -4.7711098810121984e+00 3.5199596700970663e+00 -4.2428864911795280e+01 2.2824239316247185e+04 -6.0166096386853815e+02 1.2112717506262729e+03 -6.5365765618265395e+03 -9.1300957388225132e+00 -1.6480494908968391e+04 1.7233328031132589e+00 -1.9282744212638554e+03 1.4064806177658820e+04 -2.2704482512807608e+01 -5.3119262347178120e+00 1.3100938088515480e+02 -4.9547526184675572e-01 1.0471257481126970e+03 2.3986892168429822e+03 -3.0105236646050422e+01 9.5647196473517506e+03 4.7859246008565378e+02 2.0022403950458074e+01 -1.6928269574472986e+03 1.2803820294799491e+01 8.7057623014071837e+00 3.9578559258836267e+03 -5.5384274101145422e+01 3.6434529544179355e+01 -3.3981404786239935e+00 -1.7396284965894711e+03 1.3052919739570407e+02 -1.5623958380632683e+02 -2.6680327301750928e+01 -3.6412828222082135e+03 -2.0295345574390719e+03 1.8799099284473816e+03 1.6172744470085436e+03 8.4320477936431200e+00 4.8533367119855457e+03 1.1124575035624142e+01 -4.1691622133144874e+03 2.5340434798556207e+03 -2.6553320708399042e-01 3.1719677676247073e+01 -4.5421569159077296e+02 -1.5452163639971099e+01 2.4648082040023955e+03 -2.0724445328607828e+02 1.6158822605810883e+00 -4.9083468052699627e+03 -1.2323327415250683e+03 3.4063253513077541e+01 2.5037956963394736e+03 9.1990923779106879e+00 -1.1411580316705556e+02 -1.0755165558211720e+03 1.2513190201125249e+03 -5.2697658933599018e+02 7.3645533231739968e+00 4.1382702285054474e+03 -9.0851690810861143e+00 6.5291692662078574e+01 -1.6239130793977772e+01 1.6020403987056122e+03 3.7100250767416460e+03 3.1437247573511904e+03 5.7734621185883389e+03 8.4204133026860717e-01 -1.2825360475404361e+03 1.7633951766866417e+01 2.5203092176578539e+03 -2.2247813049911661e+03 -2.3546436982259671e+00 -5.5881428826432121e+01 -8.9396463593947871e+01 2.8980403256573806e+00 1.3145649990709262e+03 6.1858252558849222e+02 -2.1256948808838459e+01 1.0657933899338418e+03 5.6515348393153181e+03 -8.5380302932865710e+00 7.4501866393992950e+03 6.2883813107441124e+00 -3.3957818349482238e+00 1.4621449955757694e+03 1.7353251633945995e+03 2.3693211060551488e+02 5.9456107759920087e+00 -4.4291801239810820e+03 -8.1900121771866452e+00 -6.7566631280202083e-01 -2.3204689773722055e+01 1.3079178862704678e+03 3.7153309323459928e+02 -1.7057534402875729e+03 -5.7649321974169761e+03 4.9471879642555301e+00 -4.2785649256519832e+02 8.3499873384955237e-01 -3.2511898859014417e+02 -8.8272850410026115e+02 2.6011185315234457e+00 7.1238231778161207e+00 2.9955267200750956e+02 -5.1655765836285124e+00 -6.1462163372174678e+02 -1.5193590441359320e+03 1.7772693939832367e+00 -3.0434037985038349e+03 1.9754813356495515e+03 8.7719765855882201e+00 -3.3587447238250502e+03 8.5505312010958914e+00 1.4229353831232679e+01 -5.0168210609789639e+03 -2.5158510651411743e+02 -1.5411638084922166e+02 -5.6495050217085918e+00 -6.7588176773533246e+02 -1.1785337864332842e+01 1.4676527584657647e+01 -2.8659736787322756e+00 -7.0347301608372368e+02 -1.9547832218048117e+02 -1.7985309339483456e+02 3.4354517776743533e+03 -4.8724884266930530e+00 8.4620937613850253e+02 -6.8212405284838393e+00 8.8558588053341566e+02 -9.4555874399920253e+02 -8.3916721014920768e+00 8.2520008994101772e+00 -4.0050109235911265e+01 9.8491571659675481e-01 -2.5221490765812596e+03 -7.3080100550921543e+00 2.4153906996233516e+01 -7.1726096941544756e+03 -1.5664717770509981e+03 1.2117302381577510e+01 -2.4264777700862378e+03 4.7873927425725427e+00 2.4419364152516656e+00 -2.6105256127002613e+03 1.0483748555662316e+02 -5.6169857733772560e+01 -3.8877671566134686e+00 1.3120349567384130e+03 -9.8407404191789494e-01 -2.6595463675121017e+01 -8.3992739721210334e+00 -6.7204314955217126e+02 2.5550676618943368e+02 3.2319984947900557e+03 7.3837846966914403e+03 3.6254452659280578e+00 1.6732534178213828e+03 -5.3127062791202899e+00 -4.2018373793451798e+02 -3.3643062025806449e+02 3.4918726066675196e+00 2.2168391852442024e+00 -1.5123027593411280e+02 8.8368335571797161e+00 -2.3285405023677249e+03 1.2479068340217981e+02 1.5358789586885919e+00 -4.5267395752175935e+02 6.2835410379906671e+02 -1.7613726186195201e+01 1.3591179325899398e+03 -2.0090144402427206e+00 -8.1915397695323549e+00 -2.3234728771003066e+02 -3.4875078306908159e+02 7.0893893558563803e+01 8.0294098089496266e+00 -4.6703227963222416e+03 9.6930016878096694e+01 -7.8529450729752199e+01 -1.1324189758178801e+02 2.4421776899954521e+03 7.5194392210152000e+02 2.5616859672317696e+03 -1.2234496104473792e+03 2.1383855068393359e+01 8.1894101642674177e+03 2.2642406746577635e+01 2.8761933774075987e+03 3.9067429275805625e+02 -4.3936028747371594e+01 1.1336714797344392e+01 -1.8501494922070898e+02 -1.1440574771746448e+01 -2.1563442817907344e+02 4.0606974000425589e+03 4.5520386115559788e+00 6.0363578321655950e+01 1.1655116374883457e+03 2.8935893277379137e+00 -2.0769298350058514e+02 2.3763739275787330e+01 -4.3115451114209961e+01 1.8108457276664385e+03 3.3036460768671391e+03 1.1296283154152337e+02 4.6960307276550850e+00 3.0166310478485611e+03 -1.6530890084948680e+01 -1.4762973954559627e+02 -1.6429117201799755e+01 -2.4486308801174742e+04 1.1438840496566227e+03 8.6345226393517623e+02 -1.9921488492263597e+02 1.1973824852265590e+01 -2.5213419411485713e+04 -1.6351441100482216e+01 -2.5183834641644817e+03 -4.6654689825234400e+03 -2.2873917539373736e+01 -6.9152426235991868e+01 3.9187590497320161e+02 1.3980612716389416e+01 2.7423782823669471e+03 2.2926983576543103e+03 7.1798576470740542e+01 -3.7981094279207468e+03 8.0253233402295155e+02 6.6198899601786394e+01 2.2776374312747976e+02 -1.0821485065827616e+00 6.7605123672619811e+00 -4.1104010503242453e+03 1.4174396761549428e+03 6.8382923414728623e+02 8.5759701627895333e+02 
      </Row>
      <Row Index="11">
        -2.2338691372607203e-02 -6.2298236414889246e+01 1.7066205133780202e-01 -4.5076164427102383e-01 6.0567229460667582e-01 -6.7179591443627817e+00 -2.0312723880646537e+01 -3.4555869365203051e+01 4.5554063482061700e+01 -7.1616621842436579e-01 2.1754755492752467e+00 4.1090110216248226e+00 2.7329883158018713e+01 5.2078761889861369e+01 -1.1408801053696149e-01 -1.5261856001222091e-01 -3.4946394720576142e+00 6.3456513622553917e-02 -8.0279377432480715e+01 -6.4639226930848848e+00 -1.8389803784459852e-01 2.7330006749157405e+01 -2.9697227739455158e+01 -1.8954630223296839e-02 -1.7935100721067172e+02 9.0408065393767567e-01 9.3714414886083675e-02 -1.3717483412130715e+01 -3.0068003997872781e+00 -2.7160639827397421e+00 -2.6428174075330831e-02 -2.2008830625056994e+01 -9.4792690644458694e-02 1.9880167484592248e-01 3.3473760296878785e-01 5.5856577636745879e+00 3.4335425953739410e+01 2.1436693581124146e+01 4.2882192430191381e+01 -3.3798457514916941e-01 2.2626696552405576e+00 -3.7402146350438620e-02 6.1567996096297065e+01 -1.0662547488633464e+01 -1.4262682209653765e-01 1.1188265533609869e-01 1.9295519501637146e+00 4.1474677199381227e-01 -1.5727676627752281e+01 -7.9065765508415708e+01 -6.5494655562352566e-01 2.7613626178577743e+01 -1.4287797013666328e+01 -3.5711623185685304e-01 8.4123738298179418e+01 5.6936359385322710e-01 2.6636346765525509e-01 -3.8369323260835884e+01 1.6349227952083453e+01 -4.3419104274157609e+00 -8.0742869978406295e-04 -2.9054200981357859e+01 -9.7118935783432969e-01 -1.1426578877068634e+00 -1.0549172801060909e+00 3.3840516944254753e+00 -3.1916890419471670e+01 3.4389405021077067e+01 -5.6687671010181191e+00 1.2128813910458773e+00 -6.3778354415610883e+00 -1.9267481467748693e-01 -1.5762890500268080e+02 -5.1846270143002769e+01 1.6165865086248323e+00 2.6689942042736564e-01 6.6383082498074408e+00 -2.6694553736787807e-01 2.4343723658230374e+01 5.2429044714025563e+00 -2.8122208563823059e+00 5.6953792628834201e+01 -4.2915726559259895e+00 2.4081780607229675e-01 -1.5985541965448647e+01 -1.3284197999113516e+00 -1.3591721195274631e-01 5.0700952452567201e+01 -1.2551254426330736e+01 7.2083971932190751e+00 1.5326963720609099e-03 -7.0608223996755328e+01 -1.0485117163557314e+00 7.1096397756342045e-01 4.5612810943670512e-01 -4.5287371743345393e+00 -1.6174426391655476e+00 2.7142017182835417e+01 -3.0875080375687503e+01 4.4585048730154930e-01 4.4662472243560281e+00 1.6921273134828689e+00 1.9600708806386997e+00 2.4123395689570476e+01 1.8909519649499384e-01 -2.0828894324030178e-01 6.4141643228773297e+00 1.7754533126812017e-01 -4.6466737472180945e+01 6.5464536807937321e+00 3.0071673385130202e+00 -2.6510811947314952e+01 -4.4157154230862460e+01 1.5638126645529588e-01 -1.2057961315345906e+02 1.8582573338943756e-01 -2.1619978028693704e-01 6.5877063958987847e+00 -1.9114874197624601e+01 6.3691143147376126e+00 -9.9172107048097757e-03 -3.6365766460704847e+01 3.5157865886584005e-01 1.1387519420268005e-01 -3.6964667704966828e-02 1.1812513166544494e+00 1.5586970837783689e+01 6.8991535915412312e+00 -3.0491018160253077e+01 -3.0245511850671736e-01 9.4474769625339228e-01 1.2018389757812338e+00 -5.9819975968902426e+01 -5.4173535001002264e+00 -3.5411482512713699e-01 -1.1419000219365838e-01 -4.5131501321806697e-02 5.3142531257624603e-01 1.7753506671607909e+01 1.0074030204554811e+01 1.0149380705561371e+00 7.5576904749077585e+00 2.4407103069398570e+01 7.7940143814207441e-02 4.7041465107849945e+00 4.9557140775577607e-01 -1.5199060015739209e-02 2.0539444635891272e+01 -4.5946240162183365e+00 1.1214801087085808e+00 2.2188729814370589e-01 1.0740924265366500e+02 -2.7902840915076094e-01 9.0661802714326112e-02 -4.6470258068867162e-02 2.9967299411310577e+00 -9.4078228731555527e+00 -1.4527519099178560e+01 3.2300280213100400e+01 -1.9077316867180372e-01 3.0249772106875321e+00 -7.6484243485676140e-01 1.2225005827976535e+01 2.8388850315853983e+01 7.9915621905172429e-02 4.3357104449398776e-02 1.3647779303384449e+00 3.7331168166169090e-02 4.1009070671571397e+00 -2.8081266596451329e+01 -6.6910885943956033e-01 2.6326336001542511e+01 -3.1276087871453386e+00 -4.1418001594540627e-01 -7.1582782560373364e+00 2.4573297129024069e-01 -3.8610258460186259e-02 -5.6656790566305819e+00 -2.2822613057197461e+00 2.4821024927585920e+00 4.9720582620750187e-02 8.9152578186815290e+01 -1.1154742900205317e+00 -2.6635199693075590e-01 -6.6994636154724452e-02 7.0471867872088243e+00 6.7883714396390333e+00 3.5359075087156612e+01 2.6966806531453603e+01 -1.0132951970347120e-01 3.3299274402105565e+00 -2.6079938908360627e+00 1.4930351648534547e+01 5.0414637232422187e+01 2.7921385940223803e-01 1.2926860341568557e-03 -5.6272456431652751e-01 -5.4873943872713937e-01 2.0416555791061455e+01 -3.9790059023655559e+01 -6.0915127909166589e-02 -9.8478772428974409e+01 1.2314042745897083e+01 -6.1069723615202021e-02 -8.5233720635914167e+01 7.0433786416007504e-02 1.3238752470034221e-01 -2.3774740335158381e+01 -3.8194707415611950e+00 -3.3450723957447677e+00 -1.8489971554450468e-01 2.7168086736313654e+01 -6.2244752255611346e-01 -5.0640132606794119e-01 4.4035174567112700e-01 5.5522751897883982e+00 -1.4437107769601624e+01 -5.0572159684607342e+01 1.1355050216202756e+01 4.0413651373537957e-01 1.3643263632807336e+00 3.3744073024569179e+00 4.3854451610508924e+01 2.5857758814360004e+01 1.1656268199443591e+00 -1.7772431454055937e-02 8.8429635446570849e+00 2.6621467270641397e-01 7.1535394172871264e+01 -9.3953486409530740e+01 4.5557968571650109e-01 2.0036563193209389e-01 -7.1563860469449509e+01 1.8717797515091594e-01 5.5277844256317962e+01 4.8731898419948549e-01 -1.3441505392508088e-02 -1.9589420617668281e+01 -1.2590626684396007e+01 7.1448868810865669e+00 -3.2305281445443912e-01 1.3351048027376393e+00 -1.6298560505657507e+00 -1.1533763696458941e+00 -6.0794579335131871e-01 6.7924166550562326e-01 -5.3488624063242355e+01 -1.1961672228213475e+01 -2.6317700692446859e+01 -1.4225875271770305e-01 -6.0972355527139630e+00 -6.6420971522657037e+00 1.4425025224075050e+00 1.7522208448996231e+01 -1.1439171234472870e-01 -2.0460851441796662e-01 1.0052293330224131e+00 -9.5445008934887632e-01 1.3312459552881597e+01 -1.4966625968528824e+01 -3.6559759541550085e+00 -1.1538869699654796e+01 5.3991879081593737e+01 -3.4788149965657761e-01 3.0412480772325601e+01 -2.4494507275727329e-02 -5.7339334916740370e-02 1.8706230394170994e+01 2.4727915002005609e+00 -8.5923845112612067e+00 -2.0946651972377975e+01 
      </Row>
      <Row Index="12">
