<?xml version="1.0"?>
<MethodSetup Method="MLP::MLPBNN_TauTau_MZP1200_MA0400_MDM100_nodes30_epoch1000">
  <GeneralInfo>
    <Info name="TMVA Release" value="4.2.0 [262656]"/>
    <Info name="ROOT Release" value="6.02/13 [393741]"/>
    <Info name="Creator" value="jhoward"/>
    <Info name="Date" value="Mon Dec 12 17:33:20 2016"/>
    <Info name="Host" value="Linux vocms0301.cern.ch 2.6.32-573.7.1.el6.x86_64 #1 SMP Wed Sep 23 10:12:03 CEST 2015 x86_64 x86_64 x86_64 GNU/Linux"/>
    <Info name="Dir" value="/uscms_data/d3/jhoward/WORKING_DIR/NovProductionV3_76X/ANNTraining_Original/ANNs"/>
    <Info name="Training events" value="9269"/>
    <Info name="TrainingTime" value="1.03902354e+03"/>
    <Info name="AnalysisType" value="Classification"/>
  </GeneralInfo>
  <Options>
    <Option name="NCycles" modified="Yes">1000</Option>
    <Option name="HiddenLayers" modified="Yes">30</Option>
    <Option name="NeuronType" modified="Yes">tanh</Option>
    <Option name="RandomSeed" modified="No">1</Option>
    <Option name="EstimatorType" modified="No">MSE</Option>
    <Option name="NeuronInputType" modified="No">sum</Option>
    <Option name="V" modified="Yes">False</Option>
    <Option name="VerbosityLevel" modified="No">Default</Option>
    <Option name="VarTransform" modified="Yes">N</Option>
    <Option name="H" modified="Yes">False</Option>
    <Option name="CreateMVAPdfs" modified="No">False</Option>
    <Option name="IgnoreNegWeightsInTraining" modified="No">False</Option>
    <Option name="TrainingMethod" modified="Yes">BFGS</Option>
    <Option name="LearningRate" modified="No">2.000000e-02</Option>
    <Option name="DecayRate" modified="No">1.000000e-02</Option>
    <Option name="TestRate" modified="Yes">5</Option>
    <Option name="EpochMonitoring" modified="No">False</Option>
    <Option name="Sampling" modified="No">1.000000e+00</Option>
    <Option name="SamplingEpoch" modified="No">1.000000e+00</Option>
    <Option name="SamplingImportance" modified="No">1.000000e+00</Option>
    <Option name="SamplingTraining" modified="No">True</Option>
    <Option name="SamplingTesting" modified="No">False</Option>
    <Option name="ResetStep" modified="No">50</Option>
    <Option name="Tau" modified="No">3.000000e+00</Option>
    <Option name="BPMode" modified="No">sequential</Option>
    <Option name="BatchSize" modified="No">-1</Option>
    <Option name="ConvergenceImprove" modified="No">1.000000e-30</Option>
    <Option name="ConvergenceTests" modified="No">-1</Option>
    <Option name="UseRegulator" modified="Yes">True</Option>
    <Option name="UpdateLimit" modified="No">10000</Option>
    <Option name="CalculateErrors" modified="No">False</Option>
    <Option name="WeightRange" modified="No">1.000000e+00</Option>
  </Options>
  <Variables NVar="7">
    <Variable VarIndex="0" Expression="read_pt_1" Label="read_pt_1" Title="read_pt_1" Unit="" Internal="read_pt_1" Type="F" Min="4.00015488e+01" Max="6.87129028e+02"/>
    <Variable VarIndex="1" Expression="read_pt_2" Label="read_pt_2" Title="read_pt_2" Unit="" Internal="read_pt_2" Type="F" Min="4.00102806e+01" Max="1.03654578e+03"/>
    <Variable VarIndex="2" Expression="read_m_vis" Label="read_m_vis" Title="read_m_vis" Unit="" Internal="read_m_vis" Type="F" Min="2.78108807e+01" Max="1.52067651e+03"/>
    <Variable VarIndex="3" Expression="read_LPT" Label="read_LPT" Title="read_LPT" Unit="" Internal="read_LPT" Type="F" Min="0.00000000e+00" Max="1.31521082e+03"/>
    <Variable VarIndex="4" Expression="read_DeltaR_leg1_leg2" Label="read_DeltaR_leg1_leg2" Title="read_DeltaR_leg1_leg2" Unit="" Internal="read_DeltaR_leg1_leg2" Type="F" Min="5.00438571e-01" Max="4.85932732e+00"/>
    <Variable VarIndex="5" Expression="read_DeltaPhi_leg1_leg2" Label="read_DeltaPhi_leg1_leg2" Title="read_DeltaPhi_leg1_leg2" Unit="" Internal="read_DeltaPhi_leg1_leg2" Type="F" Min="-3.14142513e+00" Max="3.14155507e+00"/>
    <Variable VarIndex="6" Expression="read_DeltaPhi_PFMET_Higgs" Label="read_DeltaPhi_PFMET_Higgs" Title="read_DeltaPhi_PFMET_Higgs" Unit="" Internal="read_DeltaPhi_PFMET_Higgs" Type="F" Min="-3.14152288e+00" Max="3.14141011e+00"/>
  </Variables>
  <Spectators NSpec="4">
    <Spectator SpecIndex="0" Expression="read_npu" Label="read_npu" Title="read_npu" Unit="" Internal="read_npu" Type="F" Min="6.08978160e-02" Max="3.42432365e+01"/>
    <Spectator SpecIndex="1" Expression="read_event" Label="read_event" Title="read_event" Unit="" Internal="read_event" Type="F" Min="2.50000000e+01" Max="7.22443776e+08"/>
    <Spectator SpecIndex="2" Expression="read_final_weight" Label="read_final_weight" Title="read_final_weight" Unit="" Internal="read_final_weight" Type="F" Min="4.93890851e-14" Max="2.55127907e-01"/>
    <Spectator SpecIndex="3" Expression="read_ratio_weight" Label="read_ratio_weight" Title="read_ratio_weight" Unit="" Internal="read_ratio_weight" Type="F" Min="1.12897933e+00" Max="1.12897933e+00"/>
  </Spectators>
  <Classes NClass="2">
    <Class Name="Signal" Index="0"/>
    <Class Name="Background" Index="1"/>
  </Classes>
  <Transformations NTransformations="1">
    <Transform Name="Normalize">
      <Selection>
        <Input NInputs="7">
          <Input Type="Variable" Label="read_pt_1" Expression="read_pt_1"/>
          <Input Type="Variable" Label="read_pt_2" Expression="read_pt_2"/>
          <Input Type="Variable" Label="read_m_vis" Expression="read_m_vis"/>
          <Input Type="Variable" Label="read_LPT" Expression="read_LPT"/>
          <Input Type="Variable" Label="read_DeltaR_leg1_leg2" Expression="read_DeltaR_leg1_leg2"/>
          <Input Type="Variable" Label="read_DeltaPhi_leg1_leg2" Expression="read_DeltaPhi_leg1_leg2"/>
          <Input Type="Variable" Label="read_DeltaPhi_PFMET_Higgs" Expression="read_DeltaPhi_PFMET_Higgs"/>
        </Input>
        <Output NOutputs="7">
          <Output Type="Variable" Label="read_pt_1" Expression="read_pt_1"/>
          <Output Type="Variable" Label="read_pt_2" Expression="read_pt_2"/>
          <Output Type="Variable" Label="read_m_vis" Expression="read_m_vis"/>
          <Output Type="Variable" Label="read_LPT" Expression="read_LPT"/>
          <Output Type="Variable" Label="read_DeltaR_leg1_leg2" Expression="read_DeltaR_leg1_leg2"/>
          <Output Type="Variable" Label="read_DeltaPhi_leg1_leg2" Expression="read_DeltaPhi_leg1_leg2"/>
          <Output Type="Variable" Label="read_DeltaPhi_PFMET_Higgs" Expression="read_DeltaPhi_PFMET_Higgs"/>
        </Output>
      </Selection>
      <Class ClassIndex="0">
        <Ranges>
          <Range Index="0" Min="4.0151683807373047e+01" Max="6.8712902832031250e+02"/>
          <Range Index="1" Min="4.0046180725097656e+01" Max="5.8084777832031250e+02"/>
          <Range Index="2" Min="2.8287536621093750e+01" Max="8.8377990722656250e+02"/>
          <Range Index="3" Min="0.0000000000000000e+00" Max="1.3152108154296875e+03"/>
          <Range Index="4" Min="5.0043857097625732e-01" Max="4.4487080574035645e+00"/>
          <Range Index="5" Min="-3.0741071701049805e+00" Max="3.1022632122039795e+00"/>
          <Range Index="6" Min="-3.1415228843688965e+00" Max="3.1406440734863281e+00"/>
        </Ranges>
      </Class>
      <Class ClassIndex="1">
        <Ranges>
          <Range Index="0" Min="4.0001548767089844e+01" Max="6.4319226074218750e+02"/>
          <Range Index="1" Min="4.0010280609130859e+01" Max="1.0365457763671875e+03"/>
          <Range Index="2" Min="2.7810880661010742e+01" Max="1.5206765136718750e+03"/>
          <Range Index="3" Min="0.0000000000000000e+00" Max="1.3030312500000000e+03"/>
          <Range Index="4" Min="5.0192803144454956e-01" Max="4.8593273162841797e+00"/>
          <Range Index="5" Min="-3.1414251327514648e+00" Max="3.1415550708770752e+00"/>
          <Range Index="6" Min="-3.1393923759460449e+00" Max="3.1414101123809814e+00"/>
        </Ranges>
      </Class>
      <Class ClassIndex="2">
        <Ranges>
          <Range Index="0" Min="4.0001548767089844e+01" Max="6.8712902832031250e+02"/>
          <Range Index="1" Min="4.0010280609130859e+01" Max="1.0365457763671875e+03"/>
          <Range Index="2" Min="2.7810880661010742e+01" Max="1.5206765136718750e+03"/>
          <Range Index="3" Min="0.0000000000000000e+00" Max="1.3152108154296875e+03"/>
          <Range Index="4" Min="5.0043857097625732e-01" Max="4.8593273162841797e+00"/>
          <Range Index="5" Min="-3.1414251327514648e+00" Max="3.1415550708770752e+00"/>
          <Range Index="6" Min="-3.1415228843688965e+00" Max="3.1414101123809814e+00"/>
        </Ranges>
      </Class>
    </Transform>
  </Transformations>
  <MVAPdfs/>
  <Weights>
    <Layout NLayers="3">
      <Layer Index="0" NNeurons="8">
        <Neuron NSynapses="30">
          -9.1810792555875220e-01 2.0820476406795505e+00 4.1144455925475515e-01 2.2493678729702022e+00 -1.8888523304437916e+00 -8.9629492334590011e-01 -2.7594398108703833e-01 1.3965130889140751e+00 -1.0292329862849909e+00 -8.2766614502197466e-01 -1.6584182028178189e+00 -9.8251782407449206e-01 -8.8540216864470855e-01 3.3074032469758860e-02 -3.8957496647396261e-01 7.7474880237611909e-01 -8.8637560407740557e-01 4.8135697561379276e-01 2.3128624499351336e-01 1.3228630281434492e+00 -2.1296974035489111e-01 -4.8898888581048572e-01 6.5551558313502634e-01 -1.7271760141345982e-01 -5.9757695081173823e-01 -3.1640042865474244e-01 1.4520482351264632e+00 -6.6224929490968631e-01 -9.2893015238163701e-01 -1.9951296996688788e+00 
        </Neuron>
        <Neuron NSynapses="30">
          3.5678096600999570e-01 1.6691787253093329e+00 2.5557832584949364e-01 4.9100186420268704e-01 5.6644804351662270e-01 -2.7074733582090654e-01 -1.3478308449282228e+00 1.0832888208946623e+00 -1.1018714877395048e+00 7.4331372997722500e-01 7.7762657636123123e-01 1.0885359079894028e+00 2.0299502399622398e+00 1.1328306426101837e+00 -1.1861508148325544e+00 -1.5081272922970550e+00 6.5478007147604711e-02 -7.2265123069521486e-02 1.3991089676938009e+00 1.3508290092712572e+00 1.2390341189490190e+00 1.3545912563391622e+00 1.3948574864123336e-01 1.0389710263319332e+00 -1.9271057551559818e+00 -5.7330896773115314e-01 1.7247428413173535e-01 -1.4440127348135670e+00 1.1493522979492172e+00 -8.7352570018382736e-01 
        </Neuron>
        <Neuron NSynapses="30">
          8.6827120518883458e-02 -1.2919542417722868e-01 -4.2159373587102950e-01 5.1271614834399382e-01 -2.8341283615193463e-01 -3.2874489458960626e-01 1.1301590548226079e-01 -9.6925245337566779e-01 5.7626466023654876e-01 -8.1559945836981018e-01 -5.1172312566933287e-01 -1.7007890705311794e+00 9.6308942327096825e-01 6.4850839451067344e-01 8.0722595070211367e-01 -3.1953788854914143e-02 -1.7110409552710417e+00 -1.4462325726771303e+00 9.9152237075191918e-01 1.1592465942521211e+00 1.6352882754788289e+00 3.8951429944731297e-01 -4.5202509750282654e-01 -9.2413004916559316e-01 -9.4030939070634045e-01 -1.3345381417120755e-01 1.1294779809065643e+00 -1.0931473553067947e+00 -1.1421559162060804e+00 -1.9244663105102340e+00 
        </Neuron>
        <Neuron NSynapses="30">
          1.2223950583887924e+00 3.6161073486552162e-02 9.6606058622236823e-01 -5.0901521361634017e-01 9.1056127949477220e-02 1.4965184990283922e+00 -8.0295819444691396e-01 -5.1010810612638102e-01 -1.1847470918860368e+00 3.0324074568339077e-01 -1.3010442484209792e+00 -1.3550622129847145e+00 4.6315947029197008e-01 9.0294800417837906e-01 -2.0848883422235465e-01 1.6287748146007133e+00 -8.2595050997779895e-01 -5.2539579289936600e-01 7.3042984061667315e-02 4.9807970274708452e-01 -1.4009515648277866e+00 3.5182778536772946e-01 1.3999576116315210e-01 -1.2763686167471885e-01 -1.1460380001180657e+00 1.4284209040052849e+00 8.5886767558034027e-01 -8.2153189491669565e-01 4.1831304283939330e-01 -1.1363387777337961e+00 
        </Neuron>
        <Neuron NSynapses="30">
          -1.4654325842772102e+00 9.3463751503363857e-01 -9.6554758902225424e-01 1.0463301329556525e+00 -9.7405055276999131e-01 -3.1955901843685591e-01 -4.5481387091079228e-01 -9.3424996130628324e-02 -1.4950058372028845e+00 1.5513345371253282e+00 1.1421821889997679e+00 -7.4013566449497914e-01 8.3763913273434454e-01 -2.3123260254297024e+00 5.6348773084274673e-01 8.6582610158966666e-01 2.4856923342127635e+00 -1.1096039677244733e+00 2.4089195136571057e-01 1.5641826431654715e+00 1.1829573605640280e+00 -4.6459002245140879e-02 -4.5132195926381424e-01 -2.0595455678057384e-01 -1.2525184708677897e+00 1.2438593396411397e+00 3.3754462285230569e-01 -4.7512647173988110e-01 -1.6290923590009684e-01 3.5827269256808179e+00 
        </Neuron>
        <Neuron NSynapses="30">
          -1.4281783130225141e+00 -1.1177465509203923e-02 -1.0271993317878807e-02 -8.9544156509834005e-01 -2.1936917389564892e-01 1.5297948206509737e-01 3.7269389881667142e-01 1.0240171787833943e+00 6.1791561498605752e-01 -1.5078265326333942e+00 1.2556798259142994e+00 -4.1274987995516516e-02 -7.4718148935465500e-01 -1.3679368519323045e-02 8.1633631822625885e-01 -6.3342949591830122e-01 -2.4643085729029405e-03 1.7548231234390623e+00 -6.9280167560181705e-01 -8.8966897922098651e-02 1.1524598863144462e+00 7.7509601198623568e-01 -1.0152381346775265e+00 8.1629016529324716e-01 1.4457156938953428e+00 -1.2530604548554447e+00 9.2811280193432411e-01 1.0862549547227816e-01 5.4875185497924039e-01 -6.5565582427616259e-02 
        </Neuron>
        <Neuron NSynapses="30">
          3.1358500931230715e-01 2.2036555993232407e+00 1.4297062228161683e+00 -4.6160644372585974e-01 -1.1376393281064416e+00 -6.4361897557722336e-01 2.5779503007688975e-01 2.1297204065249260e+00 -3.5698905313591012e-01 -9.3785782830784314e-01 -6.4209804537437609e-01 1.4175264260869089e+00 1.2237938761125218e+00 2.2453461045160047e-01 5.8858707468593163e-01 -1.0760804762039879e+00 -2.5919992110666881e+00 7.8611292844577618e-01 4.5918943105388210e-01 -2.1168170759697893e+00 -9.0067890136790663e-01 4.8261197237993089e-02 3.2717693198944670e-01 -2.3010123240734450e+00 1.1781396473463359e+00 8.6718734201757086e-01 -1.0723015274859415e+00 -4.2076769039210299e-01 2.2552182137402612e+00 4.4180731959398738e+00 
        </Neuron>
        <Neuron NSynapses="30">
          9.4117853587792355e-01 -9.4598691451008465e-01 -9.2766544620653768e-01 -1.4981903221904651e+00 1.1052362824412092e+00 9.5386655877039350e-01 5.7652133048105714e-01 -6.1660245758951171e-01 1.7535246680277163e+00 -1.5295513469640527e+00 -1.4302985480218082e+00 3.4012136115960739e-01 -1.3533853807192429e+00 1.2230407763008054e-01 6.6305024165955462e-01 -1.8053748640157918e+00 8.0840400848584604e-01 -5.1301089393634501e-02 -1.5398871841661546e+00 -9.8688306702315098e-01 1.0101570705758165e+00 -1.0158497608536446e-01 5.0054697372115065e-01 -8.6058813362636422e-01 1.4307623100622757e+00 -1.8246459431303501e+00 -6.9567034660584767e-02 2.1122829196431928e-01 -1.3363279555298135e+00 6.9569179989108987e-01 
        </Neuron>
      </Layer>
      <Layer Index="1" NNeurons="31">
        <Neuron NSynapses="1">
          -4.1099981556310811e-01 
        </Neuron>
        <Neuron NSynapses="1">
          -1.0777796142750178e+00 
        </Neuron>
        <Neuron NSynapses="1">
          -7.6643337038429604e-01 
        </Neuron>
        <Neuron NSynapses="1">
          -5.6948613932234038e-01 
        </Neuron>
        <Neuron NSynapses="1">
          -7.5454579145578560e-01 
        </Neuron>
        <Neuron NSynapses="1">
          1.5112939439111772e-01 
        </Neuron>
        <Neuron NSynapses="1">
          -6.8998724490984620e-01 
        </Neuron>
        <Neuron NSynapses="1">
          -1.1776285607080347e-01 
        </Neuron>
        <Neuron NSynapses="1">
          3.7430775370801855e-01 
        </Neuron>
        <Neuron NSynapses="1">
          -3.1708282480212729e-01 
        </Neuron>
        <Neuron NSynapses="1">
          2.1479537383708916e-01 
        </Neuron>
        <Neuron NSynapses="1">
          -1.1300891102128325e+00 
        </Neuron>
        <Neuron NSynapses="1">
          5.9200898704234872e-01 
        </Neuron>
        <Neuron NSynapses="1">
          2.7544739089621695e-01 
        </Neuron>
        <Neuron NSynapses="1">
          4.2618955239278117e-01 
        </Neuron>
        <Neuron NSynapses="1">
          -6.5138262303107786e-01 
        </Neuron>
        <Neuron NSynapses="1">
          -9.4000146901551829e-01 
        </Neuron>
        <Neuron NSynapses="1">
          -3.5768961823411793e-01 
        </Neuron>
        <Neuron NSynapses="1">
          -3.4626616029512863e-01 
        </Neuron>
        <Neuron NSynapses="1">
          -9.1629918420400303e-01 
        </Neuron>
        <Neuron NSynapses="1">
          -1.4481121956148935e-01 
        </Neuron>
        <Neuron NSynapses="1">
          1.5457469690049749e-01 
        </Neuron>
        <Neuron NSynapses="1">
          6.9216577403788138e-01 
        </Neuron>
        <Neuron NSynapses="1">
          1.3327659269901987e-01 
        </Neuron>
        <Neuron NSynapses="1">
          -6.3355653818086000e-01 
        </Neuron>
        <Neuron NSynapses="1">
          -2.4718468721841078e-01 
        </Neuron>
        <Neuron NSynapses="1">
          -7.7410439114094676e-01 
        </Neuron>
        <Neuron NSynapses="1">
          1.0867457748208476e-01 
        </Neuron>
        <Neuron NSynapses="1">
          1.7791414742662354e-01 
        </Neuron>
        <Neuron NSynapses="1">
          -4.8290941600508797e-01 
        </Neuron>
        <Neuron NSynapses="1">
          -6.0854027286314294e-01 
        </Neuron>
      </Layer>
      <Layer Index="2" NNeurons="1">
        <Neuron NSynapses="0"/>
      </Layer>
    </Layout>
    <InverseHessian NElements="73441" NRows="271" NCols="271">
      <Row Index="0">
        1.4598393360256011e+01 2.6660609682337943e-01 -2.9565548941327363e-01 -2.0172521794731280e+00 -3.4560452265663788e-01 2.2462495968855545e+00 4.1640079296033100e-01 -4.2225831195182306e-01 2.7045846155151523e+00 -1.1533113145013152e-02 1.7052935639777203e+00 4.8319786505168338e-01 -5.3723257430966314e+00 3.1561216877626502e-01 8.4690504248210963e-01 -4.2403963941659989e-01 -2.0165839436237554e-01 5.1740056148720437e-01 1.0653593231141990e+01 1.2637987434001348e+00 1.9249203989470631e+00 3.8209247853929424e+00 -4.0990661513619182e+00 -5.3854341266358396e-01 6.1758878619778623e-01 -2.8293077263094597e+00 -9.5316920496383339e-01 1.5654249688825939e-01 1.0586315647272653e+00 4.2523958182577197e-02 3.4219699183855292e+00 7.1185227996170664e-01 -2.6742586032842804e-02 -9.0809374820429145e-01 1.7406103110053461e+00 3.2959663903044452e+00 -3.6586058651679227e+00 2.8649155146252321e+00 1.3074370226072710e+02 1.4187703867237369e+00 -4.9012368453168840e+00 1.0164776195953567e+00 2.6552325177079705e-01 -1.7878396812121038e+00 -4.2648869716385657e-01 7.6993145330531476e-01 8.8377637477423610e-02 -4.2162125429485525e-01 6.7427542338063899e+00 2.1629699724438893e+00 -2.8859935355886828e+00 -3.9008806224673620e-02 2.8586312572976880e+00 1.0134284663777748e+00 9.8646308740664734e-01 -4.5921082320559421e+00 7.7616804557695929e-02 -1.1107492799144163e+01 1.6022841897698847e-01 -1.3800258248045427e-02 -1.2543515766949477e+01 -3.1959926270101291e-01 -1.4427119791986522e+00 4.6169611414778720e+00 -1.5879367153939898e+00 2.2280849855197280e+00 -4.0741850263025086e+00 -3.0872933870662402e+00 -7.5429106753052622e+01 -1.6988280482366243e+00 4.5485282142798660e+00 3.8398489709921590e-01 5.0568962324160633e+00 -2.9191033266860327e+00 4.4336055875664862e+00 1.1254039211176707e+00 -1.1818434247897724e+00 -7.9591140607523281e-01 -2.3885588955111103e+01 -1.2599416308839997e+00 -8.9637660361392761e+00 -3.2851509344344096e+00 -1.7811648992771045e+00 -8.4602836648259139e-01 -1.0710969971846907e+01 1.4728964911853870e+00 -4.4347836080886882e-02 -5.7811681422089578e+01 -1.0568459707890865e+00 7.9080970303636988e-01 -3.2274084317622043e+00 -3.3923400567611561e-01 -5.3334266080852233e-03 1.4713057253118974e+01 6.8925554243809140e-01 -2.2773930035501522e+00 -4.3455561573432577e+00 -2.4690532366241791e-01 -8.5592189613852966e+01 5.3925189169261003e+00 -1.5036459684466402e-02 -2.1732149166564546e-02 -2.0667443659609952e-01 -1.1242994092746170e+00 -1.1880892331997222e+00 -3.9065274158714902e-01 1.2388658108042194e-01 -4.7783885348726187e+00 -6.5351541655204111e+00 -1.7440758284547634e+01 -5.0259282731629185e-01 -4.1462965754490622e+00 3.9201205696334842e+00 -9.9471398696044078e-01 5.5161827718004361e+01 -1.4344557968358544e+00 -2.0297851992023825e+00 -1.8903573363734242e+01 -8.0557443864258693e-01 -4.3843263453764769e-02 9.3683188443776615e+00 -1.6331181682122664e-01 1.0817248387191003e+00 3.5980135793427148e-01 3.4268515940206196e-01 1.6874736671977413e+00 -1.6668439418520404e+00 -2.9099189906987788e-02 5.9225279390697906e+01 1.4752657686534822e+00 8.5776065884743097e-02 1.4883727730953233e-01 -2.6183423262234271e+00 2.8060345567056721e+00 4.0277170946633817e-01 -7.3715235519348776e-01 7.9635885036174092e-01 -5.0974770339308018e-01 4.1232426807672447e+01 1.1364298540715447e+00 -1.1141774340769062e+00 2.2326787842798304e+00 -2.9329959846532816e-01 -7.8760673996688957e-01 3.4235931720802810e+00 -1.0582658793924220e+00 -1.1740335656346759e+00 3.9109017228137660e+01 3.4148119779894159e-01 -2.1921521218370529e-01 3.7857673109326342e+00 -2.0508824761078953e-01 -7.3688918542668069e-02 -4.9020732022838553e-01 4.9026788774077942e-02 5.9027367265922726e-01 5.7368012854398334e+00 1.8675383010678492e-01 1.4230253886041686e+02 -6.7336437900398982e-01 1.3984561382804401e+00 -1.2248812456059399e-01 -9.5222276641377146e-01 4.1300412434015552e+00 1.9144805881996769e+00 8.8483576744842996e-01 1.8979080382515701e-01 1.0216715566395647e+00 5.5945957375193132e+00 -1.4061182900828384e-01 -2.2941735970130144e+00 -2.3825979957833532e+00 3.8220555678775447e-01 -6.0760098368894427e-02 2.0334566137746634e+01 3.4416812142851136e+00 2.3433039559090593e-01 2.1055457812212808e-01 -1.6119051262833575e-01 -1.8271964296335708e-02 -5.3973907145934219e-01 9.7990685235037109e-02 -1.2250260624484586e+00 3.2470792714478908e-01 -4.2443207249245307e-01 3.9713991129239745e-01 4.2843450464886068e-01 3.2252992670631597e-01 6.6659147206623246e+01 -8.6231976562938184e-01 8.6676733050198307e-01 -3.9875249687165493e-01 1.1080877015225921e+00 -4.4328686993047728e-01 -8.5349936943703220e-01 -5.5296449443973539e-01 -1.7338517590022695e-01 7.0983071021927802e-01 3.4011524131457676e+00 -8.7989789792556128e-01 2.5794109785576373e+00 -6.1361355791794292e-01 -9.7518832975112124e-01 -4.4832815350703492e-01 7.9562029451094318e+00 -1.0363325007247257e+00 4.2913865823825237e-01 -1.1697289307140519e+01 -8.8341374821403218e-01 1.4074752741327939e-01 2.1897139790813851e+00 2.4349614863394153e-01 -3.4264752202055559e-01 1.4933150688004874e+01 1.0663574786601346e+00 5.8057215853363786e+00 4.7499479215340026e+00 -4.9991068410676387e-01 3.1853852811346769e+01 4.6724940797502361e+00 1.4327469053628268e+00 6.7159159227055198e-01 -3.5619865737707030e+00 -1.4303368313744409e+00 3.5815053993928068e+00 7.0673313067347476e-01 -2.6848021377738895e-01 -4.3699978464446136e+00 -1.7120731617645632e+01 -1.8391782012478835e+01 -8.9463304818532841e+00 9.7763116798253424e-01 4.1199052810408610e-01 -1.4563318194726498e+00 7.8474181371788802e+01 -3.3148973409228635e+00 -1.6712758959659575e+00 -2.1107856894814567e+01 -4.7603243873202694e-01 5.7810714459612988e-01 -4.8191985874008818e+00 5.8441568686176892e-01 3.4787457263154015e-01 8.3777609943981779e-01 5.5286227790988129e-01 8.9264718155431311e-01 -8.2834781822669932e+00 -2.9935208234965094e-02 -5.0886727938639254e+01 3.1303494939324644e-01 7.3466039113906512e-01 3.8178711586096004e-01 -8.4758459386721219e-01 -4.5413353463381156e-02 -1.8792392225851051e-01 -9.6964942999562020e-01 6.7840774360875522e-01 4.1034833700008083e-01 -9.4336550193799997e+00 -1.4068032681353992e-01 -8.9367775836503849e-01 2.9936248854168124e-02 5.6854298043285105e+00 -3.8965794083996474e-02 4.5372058846728445e+00 -2.4431479994570049e-01 -2.8058240239897714e-01 -5.0661731909152534e+00 1.2317619761361231e-01 1.9921739810315357e-02 4.7809838432853482e+01 
      </Row>
      <Row Index="1">
        2.6660609546158948e-01 1.3608869385647406e+01 -8.1156541675912941e-01 9.4709132734640900e-01 -2.3772560698728351e+00 3.5783193668207898e+00 -2.5238471959763285e+00 -2.4936337278395881e-01 3.8208890660463858e+01 1.8452013271337482e+00 -1.2336002601998310e+00 -9.2161265269043668e-01 -1.4214492107263981e+01 6.6283768560890799e-01 -6.0398724598242404e-01 6.7230596350694127e-01 -1.4239164254341312e+00 -1.7684484615434852e+00 -2.4671510636720186e+01 2.2020102890455764e+00 -2.6668860761527471e+00 1.1636397083740260e+00 -5.8041405293929793e-01 3.8499485206197948e-01 -4.6531630813187803e+00 -9.5310418401162189e-01 8.8805754293921957e-01 -1.6446914788296291e+02 3.3381199358316125e+00 -4.0964374723396813e-02 1.0531280788076109e+00 1.0927016763489458e+01 7.6901528764344607e-01 1.0385752632548162e+00 1.7805510498851005e+00 -8.2447889141163522e+00 1.7941210878473086e+00 -1.7352956741642775e+00 -1.1946093895376653e+02 -5.7218133879695943e-01 -8.0747457134065115e-02 -2.9418656826946121e-01 -8.2212741070472295e-01 1.5927701616186168e-01 7.1265827075050359e-01 5.1199080335340641e-01 -6.1343694701158347e-01 -5.3045305639998031e-01 7.3288833169715076e+01 8.5329358347229078e-01 -3.6347893640909379e-01 3.7298425079366648e-01 1.1067951820941069e-01 2.4891347529525998e+00 -8.2654291835313067e+00 1.6447277465873955e+00 -1.2118933824040319e+00 1.5636889630601513e+02 -1.2193948450955844e-01 1.1872553742820055e-01 -6.8730369843510608e-01 -6.8432196723639773e+00 -9.8451381738390831e-01 -3.5160704483663974e+00 -3.5437335603050668e-01 1.0225663167770410e+01 1.0598086961427416e+01 -7.5673174159868690e+00 -1.5842359575485830e+02 -1.9828239313349019e+00 2.4441302456210248e+00 3.8752082883799877e-01 6.1109856734544197e+00 3.5566801659341385e+00 1.0549141961428210e+00 -1.4130753965726757e+00 -8.4993233134278423e-03 3.9088279064128155e+00 1.9155684534520777e+01 -2.7367503705646556e-01 2.2898209383795995e+00 -7.1038969678219956e+00 6.6290583465324060e-01 -3.3502414349466942e+00 1.3053765881258055e+01 2.3819731434623277e+00 9.6910446579481135e-01 5.6912290953373038e+01 -9.7954066864475631e-01 1.4394776918517269e-01 6.5564870492359217e-01 -9.8460049074605971e-01 -1.8065857973430494e-01 1.0799868496422100e+00 1.2649322233704312e+00 -1.7597876154124691e+01 -3.1040480523983813e+00 -1.6824458551515109e+00 6.2783732196959193e+01 3.5300593799171676e-01 -1.0068036753985472e+00 -8.5021570026440185e-01 3.5119365213977813e+00 -5.9884993980255929e-01 -3.9646901106457921e-01 7.7771705666328161e-01 3.0047191468697421e-01 4.2632477132037566e-01 2.2112711885318109e+02 6.1249062293665268e-01 -1.1407460864204428e+00 -4.8053279385294854e+00 1.1493317647265571e+00 -8.3424987287568486e-01 1.1444583225276089e+02 1.7504218553914024e+00 1.0677925989672750e+00 -8.0726982956982368e+01 4.5436799367293124e-01 -2.7930402224263240e-03 8.2272529360554270e-01 7.2784492796461011e+00 2.4901939530049089e+00 2.6615322655977058e+00 -1.3702528644573038e+00 1.5018828646746716e+00 5.7642004206792201e+00 1.3255412368056398e+00 3.0281641790820089e+01 7.3305323191165658e-02 -9.5088062847154109e-01 -1.3158311415749209e+00 -2.0011760534177485e+00 -2.7965647419582198e+00 -1.1042847053935609e+00 9.5805498651245513e-01 1.1731840133829730e+00 -5.1762399104592194e-01 -1.7346927702710236e+01 2.7318844263246356e+00 -1.3851546395154923e+00 4.1745915010037473e+00 1.6273057761477805e-02 8.1680926960052014e-01 -1.3511123140976682e+01 -3.2517981985342248e-01 1.0293687590834790e+00 -1.1245459269055756e+02 8.0785134298250361e-01 -4.0434773417503139e-01 6.3155197379000583e-01 -7.9529263854571508e-01 -2.2985233803878818e-01 1.3761074668421673e+00 -3.1659810503441721e-01 1.5528333332203825e-02 7.6415530173377633e+00 1.2980321961832825e-02 -1.2326492604894220e+02 1.4634428088558376e+00 6.9911086525841781e-01 -1.0522813517295226e-01 -1.7634068006733825e+00 -6.5262745757075996e-02 -8.9770617144719345e-01 -4.7106324899520524e-01 1.7718644030670450e-01 -1.6058389747885116e+00 8.7888009138837447e+01 -1.2293301186820679e-01 -4.2665987300192942e-01 -8.0568532188671629e+00 6.4542549956913398e-01 1.3966883568949495e-01 -1.4520990298768188e+00 -3.2523697816689960e+00 3.4969144342151970e-01 2.9089508828202639e+01 -2.6544392742998363e-01 1.2678534955616511e-01 -2.4174183957730500e-01 1.2512938260203773e+01 -1.9064721738287185e+00 1.8438937332723304e-01 9.5986114368208686e-01 4.2684112397551992e+00 -1.2174892099246970e+00 8.1031701787267907e-01 -1.0163953337374373e+01 4.2042648431594420e-01 2.5809914311783044e-01 3.4702273092100783e-01 -2.0896032648633680e+00 4.6400202930412854e-01 -3.9744028120543706e-01 1.4048351471411213e-01 -1.5907909194174703e+00 -5.7055316861149918e-01 -2.4607484216431786e+01 -2.1647445467598665e+00 -4.4424857768370407e-01 -1.6872916934586097e+00 -2.8749854417002885e-01 3.1351653027274196e-01 -4.5196813074158824e+00 -5.8462946118132042e-01 -9.4128061994336321e-01 -7.0635780596155911e+01 -4.9794240196728062e-01 -3.1865202842483409e-01 1.2058652234438445e+00 -4.0465044850363956e+00 2.1142261905960282e+00 1.7213234858612108e+00 1.6280369966625063e+00 -7.7990216580802780e+00 2.4579458824458651e+01 -8.8005682652997628e+00 -7.1757753068768011e+01 1.0663705157881394e+00 -4.3910842771661329e-01 -7.7461378152799365e-01 -5.1983590743438466e+00 1.2770015579645893e+00 -1.4262933570579603e-01 1.0069179960493724e-01 3.1460517906534224e-01 1.9383912353692523e-01 2.6773637863057417e+02 1.0944935314023740e-02 -2.2570147771680080e+00 -1.5546033703573183e+00 7.5125006769509795e-01 -5.2015871321250007e-01 1.0812172546421657e+02 2.5877842758016181e+00 -1.7370535289939038e-01 -1.3140987396462964e+02 2.7265380511599040e+00 -2.9096287199754839e-01 -5.8883444888657710e-02 8.6726431353676983e+00 1.2964279094206015e+00 -1.8035342722175074e-01 1.2995622085302947e+00 2.9153900553890471e+00 -1.8491434178948325e+01 1.6532352405909823e-01 7.9312898500073132e+01 -2.1361766601795476e-01 -6.2233059245335301e-02 5.1159960020426531e-01 -2.9966337961685872e+00 -3.2861265674979023e-01 8.1839966589727919e-01 3.9055500317107372e-01 2.0240523411718905e+00 -3.0018358116908650e-01 -2.2197714675182677e+01 2.1015049979621598e+00 8.3488734705698356e-02 6.5563401219913686e-01 7.8972853528149756e-01 1.2519811623939336e-02 1.2885315093605016e+00 8.4438470547294031e-02 4.5844056263228339e-01 -2.6795557185935792e+01 3.0732969606437721e-01 -2.8757017601630575e-02 -5.3617289173283268e+01 
      </Row>
      <Row Index="2">
        -2.9565548993362978e-01 -8.1156541676051575e-01 4.2364585484764810e+00 5.6051239278714982e-01 -2.0305042673649951e-01 -4.5903623237211644e-02 -1.7892888913128107e+00 1.7233597148296238e+00 2.0016192110498736e+01 -2.2098617327482856e-01 -1.0236699182074984e+00 -3.5460760484054227e-01 -4.7322735816266870e-01 1.5803105634921182e+00 -2.2774646804900600e-01 7.3005373553273623e-01 -2.1761031769095807e-01 6.1610098431146620e-01 -2.8159265297291391e+01 -5.5633524397488110e-01 1.0374856133119215e+00 -5.1262361185303629e+00 1.4957659216866448e+00 1.1024804921853972e+00 -9.5106825353286695e-01 2.9537086243576680e+00 1.6445746525684529e-01 -3.4952374359805077e+01 -8.4802616618596172e-01 4.1928776703563780e-01 9.3781716368840207e-01 -6.4420280271354990e-01 1.2117453295532177e+00 2.0752831556466882e+00 9.5481932296641081e-01 3.1728915692043582e+00 4.8955173971500390e+00 1.7856358904849148e+00 -8.7252652649063123e+01 -1.0582184255390978e+00 -5.5974935686368776e-01 -4.1066692466673826e-01 -3.4370853048896421e-02 1.0789706411989080e+00 -5.4065055414146435e-01 6.3954312559981119e-01 -1.3944989028667647e+00 1.7025137236273891e-01 -3.8782423376701331e+01 -1.3459748211653029e+00 -1.0413167981197171e+00 4.9233640224274566e-02 1.1185015279700967e+00 1.9644548379728428e+00 -4.1777445141769176e-01 2.9160035079866260e+00 4.8700407643507415e-02 -6.5967782116503116e+01 2.5895497470242330e+00 -6.1697460753542543e-02 -4.2163898213668460e-01 1.5524008409221186e+00 5.3799145645864854e-02 -6.6392387867396829e-01 -2.5672977013562925e-01 -5.7966443099263882e+00 6.7414528417743345e+00 -4.3203322119241321e+00 -3.4664635132960370e+01 2.7234666479107172e+00 1.5764129141076495e+00 5.8189695580878886e-01 1.0131826780502822e+00 -2.9733909465391077e+00 6.8740141002648558e-01 1.2941089661541877e-01 5.5187137161043438e+00 1.4850118575368949e+00 3.5134543729267065e+01 5.2164471221512099e-01 -2.9311012585765432e+00 5.2460841882658080e+00 -7.9072893787379483e-01 -2.3213803688602455e+00 4.3357527085444678e+00 -2.4782543066263258e+00 -5.5661607248297384e-02 5.7154674183827638e+01 -3.9363227321719183e+00 -3.1073436499017359e-01 1.1521468984560241e+00 9.5840194046782412e-01 6.6228435713162592e-01 -7.2892362033573317e+00 -1.5880571558323328e-02 4.9724961231473488e+00 6.9204984605942759e+00 -1.9784506198703455e+00 6.8336660902275810e+00 -2.1694083343814587e+00 -6.2136652254910496e-01 -1.1798095179514120e-01 3.0672108271573051e-01 1.4909368502515999e-01 -2.7987102202163694e-01 -1.0982325371662009e-01 -1.0148646720971455e+00 2.3600258183218807e+00 -3.1641163046686415e+01 1.4499782361967679e+01 1.1345050155434364e+00 -1.1846068549449760e+00 -3.6710885263062060e-01 3.1747116752196747e-01 -5.9655593010027850e+01 -2.2841031955951454e+00 -7.5814373598910967e-01 1.2984567042143825e+01 -2.7245953713650062e-01 -1.3369934607174810e-01 -3.2307202564005383e-01 -5.0623161517603588e-01 -1.6924953126871032e+00 1.4627959977781457e+00 -1.9877971315585674e-01 1.3081991302303519e+00 2.3172733643106174e+00 -9.8006826404494957e-02 -2.1512700667788742e+01 -1.0905287315625778e+00 -6.6879799524470607e-01 -4.2285366914651512e-01 5.5761355520398104e-01 4.4171156209817558e-01 -3.9794146524350082e-01 9.3096501027141154e-01 -3.6961328933574813e+00 1.8147243115315831e-01 -4.5976770510353248e+01 -9.3730064645748401e-01 -6.3882456890746253e-01 -2.7522671172392288e+00 2.9913144471646891e-01 5.5280850883756205e-01 -1.5620788766164577e+00 -4.3612698047242260e-01 -2.2426664709999364e-01 -6.8575174933083701e+01 6.0826361739764534e-01 -2.2401497565543063e-01 -2.5601963846658482e-01 -9.5543804738802640e-02 2.1851848532208029e-01 3.8250953873338295e-01 -1.4756086895927328e-01 -6.0898235666300637e-01 -6.0166437025312849e+00 2.2307842874250561e+00 -6.0739724886082413e-01 8.7094077207276688e-02 -3.9983912077133632e-01 1.7768578930526391e-01 2.6063427778725057e-02 1.4364547094119295e-01 -8.8117783696129104e-02 9.9612830649349660e-01 -9.6612401563177852e-02 -7.9719668371436503e-01 -7.4728685702685098e+00 1.8953534086199511e-01 -1.0615725816591870e+00 2.7509738894921028e+00 -5.3519464927101756e-01 -2.3479662707775711e-02 -7.8355936382836191e+00 2.4280310176569615e+00 -1.0568633259378407e-01 2.7021018689276335e+01 7.0421130312869895e-01 -5.5193576180810111e-02 1.6091791187465676e-02 -5.5604016201447481e-01 3.3962822570483455e+00 -3.3014091506928145e-01 -6.6704322879920552e-01 -3.0539889406643272e-01 -2.8786412192554547e+00 1.1361115694365949e+00 -1.6380947199945201e+01 -1.7518754672423165e-01 -4.6749735996943487e-01 -1.8470161264626256e-01 5.8486026407995995e-01 -3.1149748824171519e-01 2.1891206375595473e-01 6.5733935550304345e-01 2.1371382289234795e+00 2.3478059312493399e-01 3.3673274109093470e+00 2.2052262711736770e-01 8.9612862576699026e-01 4.8046371385211639e-01 -8.5235653480321583e-02 -1.8170610793855141e-01 -3.6423065997032502e+00 -4.9474839392183056e-02 3.3024528488976235e-01 3.2199939876666219e+00 2.5268121862530935e+00 -1.1927412274557214e-01 1.3755635845909706e+00 1.5980045352953272e+00 1.3757650517429698e+00 -6.1223404842368723e+00 9.3732310190415369e-01 1.9661805642862515e+00 4.7205385203929602e+00 -3.5566060759207496e+00 -2.9515333759929490e+01 -1.1337674224751493e+00 -9.0263581299754359e-01 -2.3722856076283794e-01 3.3754247333120624e-01 -4.4095225580284891e-02 -7.4718247333850951e-01 2.2035063696468242e+00 -9.6762062026533213e-01 3.7547411360131964e+00 -5.7115126195606578e+01 1.4545018717970166e+01 -1.1877767076153329e+00 -2.7748484452626077e+00 1.5661918137004041e+00 1.2072482023528472e+00 -7.0150554689108276e+01 3.0840578925589277e+00 -1.5367565228781482e-01 -3.4731919596325582e+00 -2.4360891742374715e+00 -2.9427272335888643e-01 2.4373886745761142e-01 8.5352393411973454e-02 -2.2593964139253333e+00 1.1275936515208290e-01 5.5774259108808866e-01 -7.5823505757464682e-01 -2.1435784386352230e+00 2.6594111760225780e-01 3.2020956745356827e+01 -6.1658015527558485e-01 1.6396960357079070e-02 -8.3531958886717683e-01 -3.4627724309321178e-01 -2.8930804745155081e-01 -2.5772854194134187e-01 -7.1871305135238817e-01 -3.1489802524821093e+00 -6.5585034596388281e-01 9.8191392620534383e+00 -2.9150900730691387e-01 -3.9350049013466831e-01 -9.3978160554597623e-01 -1.1903320017007708e+00 -4.8138899684885994e-02 -2.5278345746499875e+00 -4.4590442451217832e-01 1.7038248864834882e-01 6.4979588262569443e+00 -4.5670911805608055e-01 -1.1170824270999025e-02 -2.4899865156312476e+01 
      </Row>
      <Row Index="3">
        -2.0172521770472280e+00 9.4709132571603050e-01 5.6051239077749981e-01 6.6180463297613898e+01 1.3860680644849688e+00 7.0102698228709119e+00 -8.4097650924775120e+00 1.2956243199684949e+00 3.1923583080843997e+02 -3.4250241493838933e+00 -2.3469817886476685e+00 -3.0003578912737612e+00 2.3513965095047871e+00 -6.6367551698482019e-01 1.0036936989759491e+00 1.4482912146486682e+00 6.7795623442567121e-01 6.1698363947838697e+00 -7.0145051993758742e+01 -1.7250270785849884e+00 7.2287238570302481e+00 -2.6174085155614655e+01 -3.8255308951199485e-01 -2.8236275686399512e+00 -1.5124141608721402e+01 -6.3308478147525475e+00 7.3035646098185794e+00 -4.2896693460490297e+01 7.2317013912692518e-02 -1.0860992906685145e+00 -3.8247694098615979e+00 -2.8159369430328023e+00 8.7312166655407253e-01 4.1848399885114169e+01 -3.9642124601225865e+00 7.3553849995701395e+00 1.9778965287455001e+01 2.9727399849437157e+00 4.2535332277915819e+02 -3.4068666740124387e+00 2.7999549041773508e+00 1.7279649634539596e+00 -6.6491469600063686e+00 1.4283473913096114e+00 4.8832746024881004e+00 -3.0608359265222109e+00 -3.5688248089146912e-01 1.0646820643912623e+01 3.2012201258856294e+01 -6.1100306324765903e+00 -1.1439774857666600e+00 -2.8447923268638791e+00 -3.5649182898176202e-01 -1.0690914173428006e+00 -1.7769809248687178e+01 -7.0834129353762592e+00 3.4404231903003879e+00 1.6215524867021480e+02 1.9372432303902221e+00 2.8931569017894465e-01 9.6314587125941369e+00 1.6733379717005783e+00 -1.5330831933705222e+00 -3.6035676357668706e+01 4.8559463056574775e-01 -1.6703241828670990e+01 3.8089443651472756e+01 -2.4699964107676450e-01 -9.2045953354099834e+02 -7.7513121249611494e-01 -1.1229438695783958e+01 -1.2758552406394357e+00 1.2331990417973053e+01 3.8628366447617455e+00 -4.6067319124886223e+00 6.0167424374319225e+00 9.1807183936920111e-02 -2.0153617941641926e+01 1.0897239475832875e+02 1.5090039786828102e-01 -7.5561898632589219e+00 3.1256448433788893e+01 9.0111476804423667e+00 -2.0084104735159105e+00 3.4982975260247287e+01 2.7719023999671116e-01 -3.9001572021276703e+00 -8.6662226756954510e+00 -2.5364214980574662e+00 5.8781736838091536e-01 5.2299321537746524e-04 1.4486415517069910e+00 7.0457294170416773e-01 -7.1128797289737065e+01 9.8572627198506166e-02 -1.8767743877628561e+01 1.6552771070186267e+01 -3.2390520824817468e+00 3.0115711567376974e+02 7.6072005997033321e-01 -1.8980661974543696e+00 -2.5029049441747802e+00 -5.5639602875846883e-01 4.5017712204500954e-01 -1.9350628950812001e+00 3.1847007794158362e+00 -8.5750002097331457e-01 -6.4182095492333391e-01 -4.9465359191248865e+01 -3.3792115280071393e+01 8.0552350275147777e-01 7.9165477890232783e-01 -2.1176212305455704e+00 1.9732771901790254e+00 -1.5205841031013264e+02 -1.6895832689751797e+00 -8.0405095793784054e-01 1.2184806055434156e+02 2.2024471502882115e-01 -4.2688463098038154e-01 -1.9134739794372020e+00 2.5512844459139976e+00 -8.0774315049059442e-01 4.3766378217193839e+01 4.1666274225381036e-02 4.5285376535187938e+00 1.2395990786221896e+01 -2.9128532235994382e+00 7.9537806334873176e+02 -1.2134093629212994e+00 3.3914728719128626e+00 -2.9013355451113338e+00 -3.4343472953944567e+00 -2.2370512171254755e+00 -2.8225834710984219e+00 3.1253220708918228e+00 -6.8594129888293764e-01 6.5447842833262149e+00 1.9302786737844279e+01 -8.2520400814129822e+00 8.2436237768003362e-01 -1.4272101595368110e+01 -5.7630181117048873e-01 1.2325685727785192e+00 -1.7733023040669181e+01 -2.9181569270356769e+00 3.7960319703375482e+00 1.5438685746255896e+02 5.5611797392563569e-02 -4.7900013202559150e-01 -3.7309701978220300e-01 -8.5799413948504133e-01 3.2436370144887100e-01 -1.4668320793206640e+01 5.2132211625519653e-01 2.1786938120123174e+00 -5.8881298104503195e+00 2.9732308717331217e+00 1.7794033499612794e+02 -1.3132522839952385e+00 2.1627539790857506e+00 -3.3311047511239633e-01 -4.6460119330574132e+00 -6.9240790061428925e-01 -6.5247943173232681e-01 -1.6193026721117836e+00 7.1647916651659010e-02 2.8930915789533396e+00 -1.6941563665961276e+01 -6.1972737147071999e-01 -1.3435956823349904e+00 9.3632643099042880e+00 -7.6760812074578155e-01 -3.6682094044972419e-01 -2.3552530634585736e+01 1.0605228170969407e+00 -3.6594370559033225e+00 -5.1484207196354959e-01 7.5529100652262049e-01 1.7856943877667075e-01 3.7401613313169368e-01 -2.3927610313921259e+00 1.8686829020977678e+00 -1.0405429520673103e+01 -1.3980111335992897e+00 1.6440136421584794e-01 -2.0812396436984741e+00 3.1234065782630687e+00 2.8498404309993271e+02 -1.7858147340535202e+00 -6.8981648337862222e-01 4.1594248338416895e+00 -8.1509031520895796e+00 -6.8899161201665571e-01 -1.5917550941612646e+00 -1.5559913346644025e+00 2.7820767599984864e-01 -7.1683935055492010e-01 5.4934526752601037e+01 4.7125633200048984e+00 1.4168017304008202e+00 3.0917095868186393e+00 -3.5196113886661551e-01 7.5685705912952228e-01 -1.3804908858554649e+01 1.4958303808666682e+00 -3.9923844699145379e+00 2.7411569935163925e+01 1.4147564252486340e+00 8.2466319546787381e-01 2.5668876378271110e+00 3.8327013043436313e+00 -1.8265983702201714e+00 -6.8732087897943259e+01 -7.4201301873110581e-01 -9.3703387328703833e+00 -1.4669835301806359e+01 -3.5464618534564236e+00 -1.8877935107337498e+02 -6.6098098272576360e+00 -7.3104791958797897e+00 -1.3028670501259754e-01 8.5328865447090383e+00 2.5888360061371958e+00 -3.6248950766394614e+00 4.4453964561717800e+00 -8.1458379194822128e-01 -2.3437388112508195e-01 -2.6658234543229209e+01 -3.0330309013890261e+01 -3.0875389163139411e-01 -1.5673352833813803e+01 5.2757869210087911e+00 -2.7054102670420219e+00 -1.8542278215847728e+02 -1.4498304542607141e+01 3.1908459193121064e+00 7.4745560543211951e+01 -5.4564926511757328e-01 -1.3381257585115880e-01 3.3974515048109222e-02 -1.0593873093422967e+00 -7.0370564450477069e-02 1.9135175321743972e+01 -2.9606056682915973e+00 3.0329567332568752e+00 4.9449631029400400e+01 4.7790308917675217e-01 8.9921834348444563e+01 1.9018058170161747e+00 -1.2151856862562569e+00 4.6803021879087261e+00 3.0145652312633864e+00 -3.7351172950393252e-01 1.8791020824521647e+00 2.1028201882814317e+00 -8.2759739786959563e-01 1.5751934739260220e+00 7.7044812723419582e+01 -1.1238567540210367e+00 -7.8057935026570358e-01 -1.0338460582016404e+00 -2.0313404983601657e+00 2.0041785100069109e-01 -1.1741897984651123e+01 -2.5101603205646228e-01 2.5127773949166894e+00 1.1446449649651484e+01 -3.0224109829130691e-01 -1.1630656666333838e-02 -4.3830984043727995e+01 
      </Row>
      <Row Index="4">
        -3.4560452372942108e-01 -2.3772560681797485e+00 -2.0305042616116675e-01 1.3860680672250301e+00 1.1555321501050653e+01 -2.5064572900192630e+00 -4.7340996181103447e+00 -5.1086914671482981e+00 -1.1563530402648946e+02 -5.9545068218493458e-01 -3.1904562019955218e+00 4.5269401947068055e-01 -9.4738529822620166e+00 8.0609991705347150e-01 -1.9532817802321456e-01 5.7197503739625510e-02 -5.2559855452529364e-02 -2.8247458369271911e-01 8.7283154292962806e+00 -6.8503095587793550e-01 2.1800716335512607e+00 7.8748758735993691e+00 -1.0482266713389459e+00 1.1032506453663498e+00 -1.8414185014056699e+00 1.8803801464586871e+00 9.2251261291233144e-01 3.7626076914512474e+01 1.4006596704141761e+00 -4.4435563856275284e-02 2.1899114640982048e-01 -6.7889193170564592e+00 -5.9356792224946608e-01 8.8731599085336899e-01 -7.4848798161082408e+00 7.2952334490016009e+00 3.1090025419220932e+00 -3.7723391988311068e+00 1.7621325628839188e+02 -5.0822828203810033e-01 -3.0199231352872435e-01 9.5842905482406371e-01 4.6493117883879105e+00 -3.4400986488547131e-01 -2.4355423863223635e-01 4.6993646256025823e-01 6.3093536747271617e-01 1.2421106566051898e-01 5.9711727311387875e+01 -1.5295632416041380e+00 -9.8206626019364918e-01 -8.2517882294271718e+00 1.1824113346340259e+00 -1.8304297617957788e+00 4.1235190192136306e+00 -5.4326779381199164e-01 1.1159523134289109e+00 1.6613103578552457e+02 -4.2986181728574580e-01 -2.2649192772159429e-01 -4.0873032777416995e-01 -9.3655075600592252e-01 -9.7417335797660787e-01 -2.5692402307339002e-01 1.2115026987377928e+00 7.6130284048736474e-01 1.3321056073616020e+01 6.9985552100154012e+00 -9.7685016159449816e+01 5.4650314281704704e-01 -6.2892526989596753e-01 -3.5500290344048308e-01 6.2754203213870321e+00 8.8384974263441241e-01 5.0091495403421815e-01 5.6619527655899193e-01 -8.3911826573916892e-01 -1.6497864222952063e-01 4.6489072983233921e+00 6.0622216126112960e-02 -1.1718957323757542e+00 -1.1306501411129946e+00 -1.1818828608910672e+00 2.5812514544168419e-01 2.2151176437230804e+00 -9.4713083888494953e-01 -4.0432081652646190e-01 -5.8807488015898628e+01 -8.2945514836635270e-01 2.0694002438792936e-02 7.7465944438090628e-01 -3.0262415013206305e+00 2.6641161761466536e-01 -3.0418014832538396e+00 3.2777518528673664e+00 -2.2697025606140944e+01 -3.1427909255226862e+00 4.0688198621883265e+00 -8.3233111235522017e+01 -2.1049201962971114e+00 -1.3069683586123659e+00 -2.8975487403318462e-01 5.7955628489621214e-01 -5.4348820404416620e-01 -3.9992267929908443e-01 2.4433642174604420e-02 1.1245748253778204e-01 2.1069284061708684e+00 -4.0728841462515021e+01 3.9946184627512347e+00 -3.0808498067989594e+00 -1.5630143440408073e+00 -1.2150260634207379e+00 1.5338885630837096e-01 1.3200274201789915e+01 -1.9635564022334318e+00 4.1265680077851480e-01 -2.6891549380857544e+01 1.7916641020802559e-01 3.1585658996379407e-01 2.1725835358307677e-01 3.4332555082656585e-01 9.0911242534664716e-01 -2.7493692503775868e-02 6.5738291760520129e+00 -5.0997394672351009e+00 -3.9047932694605658e-01 -1.0751092701960785e-01 -5.7168482941010645e+01 -9.8424256333832449e-01 2.3099930794349084e+00 -1.5451961263758385e-01 2.2898207495994574e+00 -6.2001040961412279e-01 -9.8386980271346058e-01 -1.6363210762679872e-01 8.6189160583907243e-02 8.7465362692899384e-01 3.6053363391181058e+01 -2.0381134397187600e-01 -1.0032386703242719e+00 2.5596224955326377e+00 4.0850485220966359e-01 -3.8311043566119640e-02 -1.6146845399858458e+00 -1.5284872143426251e+00 7.4405952204571602e-01 9.6452399723375919e+01 2.8399895083362930e-01 2.4111797069576035e-01 3.1770030492733303e-02 8.4132399842254890e-01 1.4280829552947927e-01 3.0042060291229633e-01 1.5453585730714545e+00 -4.3381548717370553e+00 4.5759368720520897e+00 -1.9864095949484830e+00 -1.5679530774192642e+01 3.8654670546378100e-01 1.5865017489109732e+00 1.8413041082619186e-01 -3.4209858019632557e+00 -2.9356785770506000e-01 -7.5258781273723019e-01 -2.7302278610237651e-01 -1.1718890832444984e-01 -8.0915532845195848e-01 -2.6645168456372005e+01 2.6667936063401199e-01 -1.1473857420013278e+00 -6.3696552539319988e+00 -5.4693796616790247e-02 2.4448393889784989e-01 -1.2679463420783406e+01 9.1559677859215360e-01 4.6648420853282430e-01 1.4689560442789084e+01 -1.6668155187567948e-01 -1.3206752216939061e-01 -3.4172177278672128e-01 -6.9628246465221668e+00 -8.2055328566926178e-01 -2.9577681981333293e-01 5.2410611331466548e+00 -1.8307284326942153e-01 7.8876626885305912e-01 -5.1401684454535745e+00 6.5576361127673678e+01 3.1661723228116312e-01 -6.9953782410030518e-01 2.5832715831641084e-01 4.9626661174213407e+00 2.9442071026329120e-01 -9.4230230383299296e-01 -1.3956365595359264e+00 3.1227374108211609e-02 -7.2591872118454348e-01 1.2722476019465748e+01 8.1616103033445553e-01 1.4302476669089503e+00 2.1486962226527506e+00 -1.5537615877970423e-01 -3.9270185482361675e-01 1.6773291214721586e-01 -1.3473297410608345e+00 1.3114416866448120e-01 4.0013057709799440e+01 -6.1883389379394027e-01 -9.7687146487362930e-02 3.9503082056254601e-01 -3.0078852377467511e+00 -5.4557195419804616e-01 -2.1233353658695799e+00 -6.7427294616109679e-01 -1.0499122648426813e+01 1.2938571571647115e+00 3.2413198678184538e+00 -2.0106576071731865e+00 -2.2610690579078465e+00 -2.5767743427655461e+00 7.5673994068551365e-01 -5.5567073235737983e+00 1.6768567323266437e-01 -1.5257488430833555e+00 -3.5969191447907001e-01 8.2172159412988721e-02 1.0316381568903110e+00 -7.4129567120488758e+01 3.3913477037959545e+00 -3.0788909536047591e+00 1.0138552054827690e+00 -8.4565272070573672e-01 -4.6494827733918198e-01 4.8317313914665476e+00 -8.7812002869991623e-01 1.5304392086637304e+00 -3.3943675073496991e+00 2.1162125780047658e-01 4.8664082792924696e-02 -3.1393236525227408e-01 -7.3348874632275933e+00 3.3573823687499482e-01 8.6334557077181517e-01 -1.0304044174179960e+01 3.4867858303203376e+00 1.1044783937522382e+01 -6.7746089899415729e-01 -1.8202674237510805e-01 -6.2036597212669575e-02 -9.4234977107773976e-01 1.7568506484236934e-01 -7.3296534828673785e+00 4.0799310329517002e-02 4.5966710976906289e-01 -9.5667054775462113e-02 3.4893074029734095e-01 -2.2095582524877810e-01 2.4762016962518821e+01 -1.0300807310200690e+00 -2.1730508042502816e-01 2.5735286223489142e+00 -5.9005969219706600e-01 -2.4519408855251168e-02 -5.1706790945813950e+00 -7.1289431003768833e-01 1.3202295547644010e+00 9.2951337000516645e+00 1.3027836940431806e-01 -6.4136249257361611e-03 3.7257717925035978e+00 
      </Row>
      <Row Index="5">
        2.2462495982521204e+00 3.5783193678963130e+00 -4.5903624099147056e-02 7.0102698202855542e+00 -2.5064572925839825e+00 8.7734149419674864e+01 6.1077242834538570e-01 1.4378957431377343e+01 9.6896267172879888e+01 5.9078867314692705e+00 4.7996480555764585e+00 -6.3874763849072713e-01 5.8910382094357354e+00 1.7346034873249159e+00 1.6792776455053473e+00 3.2372859570908510e+00 -5.8820871401863639e-01 -1.0060685981081066e+00 1.4374433768906520e+01 5.6617441191380957e-01 5.7396641788167102e+00 -1.4936886773704771e+01 -4.5002203321949708e-02 4.0475421867397543e-01 -3.0864883607428055e+00 7.2244744356702366e+00 1.6001265901855022e+00 -2.6280133206946230e+00 2.5461608545901719e+00 1.0069579507513633e+00 4.6551158253652405e+00 2.0459567106686567e+00 2.4821367781972707e+00 -6.7056137770285962e-02 -6.8284936860695478e-02 1.5084435027487942e+01 -5.9375807722146590e+00 1.1635835154027509e+01 -5.4261100172491091e+01 2.6050485880422012e+00 -3.9157819738985200e+00 3.2852708865081457e+00 -1.9579407836007999e+01 -4.6494851161121842e-03 5.3012747986286861e+00 9.5325029743751610e-01 -1.0767241653987800e+00 -5.7519683737307403e-01 1.5814025433025745e+02 3.0531902369291117e+00 9.0925593173271899e+00 -1.3426261942017906e+01 7.5200204428634265e-01 7.1341500542529772e+00 -6.8281736859076823e+00 9.7133697511290293e+00 4.0173601247149016e-01 1.5347041855033811e+02 4.4875337898795742e-01 2.8005311158195467e-01 -6.1563841177661587e+00 1.6076241544093441e+00 -2.8312465853970048e+00 6.8292399691462213e-01 -9.6177273724228876e+00 -4.0758480425779361e+01 2.8038594905027146e+01 -1.5623876514596409e+01 -3.6177658796808578e+02 -6.9470245462482048e+00 2.8801149282371954e+00 3.5701965608760533e-01 -5.6876553278056843e+00 1.4580417406940338e-01 3.9831844876268323e+00 -1.5271827911132902e+00 -2.0484230372851364e-01 7.2037131102155012e+00 8.5862189981594028e+01 -3.9349505736231083e+00 3.9323358718518531e-01 3.0100785651777244e+01 4.5956109308931978e+00 -2.6425351348191128e+00 9.0146670796808621e+00 -1.1030373310724691e+01 -1.6152482548466800e+00 -9.6950984235856737e+01 2.6456531704006454e+00 -8.1917081704309425e-01 -9.5010165109202493e-01 9.9096997539855618e+00 -7.6111024848415565e-01 -1.3986283603672991e+01 -2.4952018724568812e+00 -8.1739242964938953e+01 -7.1549339025018162e+00 6.1962785479932494e+00 -4.0196431549552790e+02 2.4819858641851056e-01 -2.4740017068489140e-01 -1.8984221440482452e+00 -9.7744860167942562e+00 -2.4687905247853141e+00 1.6516938050749284e+00 4.2309958057921095e+00 -3.6804540170838773e-01 3.2411065874741323e+00 -2.5249202089807955e+02 -4.9968049315270960e+01 1.7684049676991695e+01 -8.8602140970035492e-02 2.3724491886686190e+00 2.0404439195213619e+00 7.2250954202966057e+01 -1.2207093270823126e+01 -1.5328569900565225e+00 2.8405549744097948e+02 -1.4097714767691949e-02 -3.6925241244890383e-01 2.9127836874233002e+00 6.0270500031698173e+00 3.5326657353058732e+00 1.6229731107752379e+00 -3.0945956867563926e+00 3.3469458134908912e+01 1.1978276638450516e+00 8.6314346561928534e-01 -2.9436031626396033e+02 1.5720882599667214e+00 -9.5273625424013613e+00 -1.6232856307483665e+00 -3.6154370109445773e+00 -5.8666868788864690e-01 -2.9761213461825173e+00 4.5806516616695161e+00 -1.7480447898018951e+00 6.3948377810613105e-02 1.2782107345177334e+02 -1.0682491312901332e-01 1.0001123040639026e+01 7.8539456297476407e-01 2.1995560949354278e+00 -1.2468713490017791e-01 -1.8380682178214933e+01 -4.6233984552198342e+00 -4.9458350816058527e-01 1.6593891949357763e+02 2.1960449105970357e+00 -8.8769580806933857e-01 4.4145442670407853e-01 -1.3621607221172525e+00 -2.0209020141997641e-01 -2.7840045188586435e+00 2.6438496390027524e+00 -5.8044220567685558e+00 1.8507419330158275e+00 1.0406308288292426e+01 1.7476660677768390e+02 1.8133454149958732e+00 -5.9042105933802524e+00 -2.6436109678146913e-02 7.2502148404785753e+00 1.7496159406909344e+00 -8.2700413561907127e-01 3.0045708054551989e-01 9.2119300630167933e-02 -2.4741901097250936e+00 5.8349329195491748e+00 -5.0702616520038823e-01 5.9542918916105014e+00 -3.0004833233947119e+00 3.6299566830454069e+00 2.9245626537795246e+00 1.1078256309510705e+01 4.5828097719743885e+00 1.7623655055083759e-01 4.1708905741898164e+01 -1.6500497388135607e+00 2.4851561933072508e-01 -7.0677453896314923e-01 3.4517303224001994e+00 -4.4944012170786527e+00 -1.8431256357846568e+00 -5.5264036961117169e+00 3.0688616603004430e+01 1.6237022559832070e+01 1.1867504069704570e+01 7.6224266812656111e+01 1.1380455662242905e-01 1.5702121142773249e+00 -3.8785017543561695e-01 -1.0161191080602277e+01 -2.9339876545611338e-01 -1.8680165490845533e+00 2.0713687555230513e+00 6.2976349136931653e-01 -1.3083414955688017e+00 6.4498554058222453e+01 5.8819377340340440e-01 -4.5862155305473706e+00 -4.3904331144464646e+00 -9.7692357785619155e-01 -8.4178686548817723e+00 1.0408850045517536e+01 -3.2237151859418134e-01 -1.4213407547842107e+00 -1.8207053570080237e+02 -3.3396740058865113e+00 -1.0683925542468311e+00 1.3961835679360051e+00 1.2183610142513247e+01 2.1318818731759128e+00 -1.5472049009579292e+01 -4.1349898038114983e+00 -1.2895427494993735e+01 2.2966931944457096e+00 6.3965677733927420e+00 3.4066074450076485e+01 4.6072666762632082e+00 -1.5223263472461053e+00 1.1695737703757203e-02 -1.3423177873826756e+01 -1.8919336240454303e+00 5.5936773743839581e+00 7.0426147581382583e+00 -2.7984399971550920e+00 4.9039178557066290e+00 -2.6023026764378739e+02 -4.9663212210500369e+01 2.9905569632290099e+01 2.8327914229575302e-01 5.1015635957780407e+00 4.1890482764290988e+00 9.3582249408824623e+01 -4.2388862151160112e-01 -2.3818845659461427e+00 2.4852594005869818e+02 6.8878782209526506e+00 -1.2072235576747752e+00 -1.0801493417818531e-01 5.1227986204299043e+00 -3.0238526449176231e+00 3.7432854572879370e+00 -1.0060837676212877e+00 1.5039557398334901e+01 4.5036825407535147e+01 1.4907763017686744e+00 4.2772650263470595e+01 -8.1530703334532428e-01 1.8588170228871213e+00 3.3481338460935035e+00 1.3841248008683039e+01 3.5311138432081268e-01 2.8784608933512565e+00 1.6297629366709288e-01 -2.1041877599993786e-01 -1.0959148143696735e+00 4.8953168343785570e+01 1.7102734548279663e-01 1.2348804737387642e+00 1.2890680879130016e+00 5.1489222099338576e+00 -9.6616932643990161e-01 2.0370362213084579e+00 -2.5903368431638505e+00 1.6081325120148300e+00 -1.6124524907865187e+01 3.3158353658087175e-01 -2.3277017352254747e-01 -1.7864888529306125e+01 
      </Row>
      <Row Index="6">
        4.1640082756384800e-01 -2.5238472261180505e+00 -1.7892888955604482e+00 -8.4097651516709053e+00 -4.7340995844009672e+00 6.1077240631900498e-01 6.4446969694106804e+02 -6.8371077399660756e+00 -1.5008625072162777e+03 1.8423576733094411e+01 -1.1483245684451077e+01 -1.9910225384980831e+00 7.1707538139253444e+01 -2.1622392599814798e+01 1.7796332163485804e+01 3.7265130872516754e+00 3.6152395453360762e+00 -5.2865329993687169e+00 -2.3269370601447960e+02 1.0326740933162952e+01 2.9336120211914940e+00 -1.5586628330196607e+01 -1.6236479271242112e+00 8.6142137883389438e+00 -7.5098360494070221e+01 8.7248610320348199e+00 -1.5701164036156412e+01 3.8803754363070368e+02 -7.8486619586207009e+00 -2.9184393330729588e+00 1.3533857735189091e+01 5.1032990129857279e+00 -1.9522688649137911e+00 -7.5917503067350410e+01 1.9624150426954369e+01 3.0818043622486982e+01 3.6650669217130024e+02 -1.0767702695483468e+01 -7.5833919348728401e+01 6.5343008348012759e+01 2.7026254480178878e+01 -2.1177113979011818e+01 -5.4425184385307865e+01 4.2494355971576621e+00 -3.6424616431966457e+00 -7.7669416803393645e+00 9.2467672930900247e-01 -3.5432269150233189e+01 -6.6477639002556975e+02 3.4977872300506789e+01 2.2056678456614602e+01 1.4766796942798770e+00 -6.3705063515416338e+00 7.1291508657934974e+00 1.7678154912772996e+01 5.9595516289816445e+01 -5.5666909173943502e+01 -6.8803927838673542e+02 -5.4021170371221423e+00 -5.1611955016050546e+00 -7.2484927951571976e+00 3.1521240264169972e+00 6.8519612250679716e+00 5.2815835062823069e+01 -8.3227799643827947e+00 -3.7746760800690581e+01 -4.4032228781372424e+02 5.6998821163365783e+00 1.3751753932920155e+02 -3.1597655401113663e+01 -2.9814416900395152e+01 2.2133249871377679e+01 -2.9335540258211047e+01 1.5072549872988638e+01 -3.2866533507605027e+01 2.5251374097097248e+01 4.2577028913816859e+00 1.1102072542467585e+01 -3.6992073251101704e+02 -4.8786081486238979e+00 -3.7692158020783388e+00 7.1441080554590517e+00 -9.0347563736880971e+00 -1.1092209444813662e+01 2.4656574417689430e+02 1.3521156494803401e+01 3.2707265505922500e+01 -2.5155928389567330e+02 1.8530187434072221e+01 8.3585499969941353e+00 2.7068099074451220e+00 1.0620794074170146e+01 1.4635989995441032e+00 1.0090581047653762e+02 -4.5616455850447730e+00 7.5330024096889019e+01 3.0464086216979047e+02 -4.5713490511880881e+00 -1.1962301595496499e+03 9.6681386614496461e+01 -1.0290489190931272e+01 1.7464923941737418e+01 -3.8282388287968494e+01 4.1996475935359436e+00 -1.2571333940342665e+01 -5.0023228211277333e+00 -1.3393585486773402e-01 -6.8677156542536380e+01 -2.5912065178740761e+02 -1.9785918055777188e+02 -2.4101988595550825e+01 -4.5691019026159438e+01 -9.3826726885834244e+00 -3.9190535715231789e-01 -1.3994891839514321e+03 1.1355358418444247e+01 -1.2573730817452423e+01 -8.0915945583766211e+02 4.7547273390180083e+00 -8.1280928903781913e-04 3.6335345104400429e-01 8.0586070357050010e-01 -1.8656676862284365e+00 -2.0330882716784373e+01 7.5200986605877140e-01 1.1863854143967725e+00 4.5480666772547477e+02 -1.2504352566781047e+00 -2.5605261230027750e+03 3.0272268857913552e+01 1.0615017372368730e+01 7.2766469608293907e+00 -1.4149182871003362e+01 3.8171675284612139e-01 2.2325031991761550e+00 -7.5085323805438211e+00 -4.8276383774054921e+00 -2.0077824625045118e+01 -6.5298448703931695e+02 1.7017165192392596e+01 -7.1167245869476474e+00 -3.7872255091607762e+01 -1.9333041401696971e+00 2.2066117609790519e+00 5.1583180719912384e+01 -4.0670970809709566e+00 -1.2083658401473746e+01 -6.1609047980369996e+02 -6.0257405861684576e-01 -2.7210729691672157e+00 -4.0774080399782164e+00 -8.1629964879012085e-01 9.4633184964451778e-01 6.5637683993902787e+00 -4.5459825989769342e+00 -2.3389546972927757e+00 -1.5852453838809498e+02 -3.5496938309168726e+00 1.0078746516742517e+03 -3.2617609129818093e-01 4.5275327612716003e+00 -6.5669489527903924e+00 4.2523248871554088e+01 -1.8874335520990144e+00 3.2001359039603123e+00 6.6689697100596019e+00 -5.9134881529857042e-01 8.4253220328176219e+00 2.2840779052634164e+02 -4.4801581881358574e+00 4.7236126602988602e+00 1.0414124518655380e+02 1.7226267868318443e+00 -9.0893442562130045e-01 -1.2038741749609139e+02 -4.3790796003631840e+00 4.9281472556021830e+00 6.8291023624369313e+02 9.3629847076066697e-01 2.7804003853845571e-01 -2.1563178999385646e+00 9.4782955996763381e+00 6.5086372864938893e+00 -3.1561717691170621e+00 -5.2289388492681770e+00 -1.1536106389317217e+01 -1.2678308847198022e+02 -7.2243178782007407e+00 -1.2851592600774959e+03 1.4708577751266816e+00 -5.2627052592521579e+00 -2.6935928358118652e+01 1.4036850279611874e+01 -5.0156511493286047e+00 -3.0789448374985877e+00 7.3425769461533248e+00 5.1408901044832458e+00 8.9903239338132424e-01 6.3860643194685224e+01 7.1520938885877499e+00 -7.7388658767512055e+00 1.2291595525169777e+01 2.0395298748395798e+00 -5.6861784547257335e+00 -9.3619257163866692e+01 -1.8504665609893323e+01 3.9558344044079217e+00 -2.3661579250901082e+02 -1.6131827131408867e+00 5.5450228018868697e-01 1.2265258373550886e+01 4.8966631734861412e+00 -6.2289079214082843e-01 5.7885523816743870e+01 8.4106319945792727e+00 6.7406430976112432e+01 4.8934641416819932e+02 -1.3782314813414267e+01 1.6421381513765475e+03 1.4473166011244155e+02 -9.6085552460750776e+00 -1.2499627402475939e+01 -1.1155634667960236e+01 2.8110827248534260e+00 -2.9991706320081747e+01 1.9561608723074997e+01 7.5806650037972734e-01 -8.7812330102093483e+01 -6.4830734593491843e+02 -1.6478616490329276e+02 -7.5559406691518376e+00 -8.1513166349878816e+01 -2.0912525719093438e+01 5.0531349464765754e+00 -1.6401155875949878e+03 8.8205665617324399e+01 -4.6832827953199299e+01 -8.1612739031393221e+02 7.4127523417990897e+00 -1.1729999099491772e+00 3.8211112757530472e+00 1.4028165755851489e+00 -3.5942481797316312e+00 -9.6205846009564677e+00 1.0715775243688043e+01 -8.2052816359456546e+00 -9.0407099969738397e+01 -7.8325895072621776e-01 -1.1547340828232864e+03 5.0117952731898674e-01 -5.2189920428589991e+00 -3.5427555867261304e+01 3.2356290319604035e+01 -9.1424734837749355e-01 3.5144561932053122e+00 -3.1308092649795660e+00 -5.6806961497321868e+00 1.7321112525812881e+00 -2.0062901625971654e+02 1.0140522333819629e+01 3.8455065477841459e+00 -2.1376441118551011e+01 -5.2224649898998337e+00 -1.6544063534724840e-01 -7.2700844666708306e+01 -8.9038933709101116e+00 -2.5779122906908906e+01 6.7436478172978781e+01 -2.9375458870071802e-01 -1.1995557603791562e-01 1.0496643303585101e+03 
      </Row>
      <Row Index="7">
        -4.2225831177778161e-01 -2.4936337441427270e-01 1.7233597149281537e+00 1.2956243199013482e+00 -5.1086914669260972e+00 1.4378957429222417e+01 -6.8371077115590442e+00 8.0088803188146386e+01 1.0032521479149170e+02 1.3612507966779934e+00 1.4179390956680553e+00 -5.0622611054748923e-01 -3.1533982719797415e-01 2.2518951800119105e+00 7.7899210596234214e-01 9.0707833514295910e-01 -4.0099591563573667e-01 -7.1841653049452825e-01 1.9476407249496816e+01 1.7060492170730640e-01 -5.3402012280495024e+00 -1.7607326819766840e+01 -7.8731587560333782e-01 3.4717584035337872e+00 1.1038239139328653e+01 -8.4656700915616874e+00 6.2616567255877664e-01 -9.5734610738353084e+01 -1.4840937413421670e+01 -1.2387617724048499e+00 -1.0365767445746008e+00 3.3170490166590092e+00 5.8278568338745551e-01 -4.8572598654167711e+00 4.6550114244704748e+00 -1.0489132439228541e+00 1.1355787501930424e+01 4.3590103832168069e+01 -1.9396962524307861e+02 -1.5231407853474348e+00 -2.1573108181390692e+00 8.6534571476982114e-01 -1.7502894824144315e+00 -5.1492858107937367e-01 1.7596335176032132e+00 1.5010317947098029e+00 -3.0859470326228835e+00 8.9819171312773971e-01 3.8598633692590660e+01 -5.2294172537137005e+00 4.6826778141006615e+00 1.4582752756041026e+01 3.3151287352114789e-01 3.5503437543367453e+00 5.7726882363180003e+00 -2.6314604022793109e+00 -2.0118544873150546e+00 -4.4794530370841528e+01 5.6628193374359750e+00 -4.8979451044386346e-01 1.1363689334731575e-01 1.6244227496931147e+00 1.7398495893865351e+00 7.4810365540689716e-01 -2.1827202529236009e+00 -9.4480535613214212e+00 -2.5605548100557991e+00 -7.0160187989176762e+01 7.0695172737335113e+01 -4.4496192394043099e+00 3.8234632295701529e+00 4.4565229754347596e-02 -8.4842643740579451e+00 -2.7122153853192663e+00 -2.1892884337058613e+00 8.5693593479327923e-03 6.9413968430423569e+00 1.4524102820809017e+00 4.6367419535753818e+01 -1.2337204132969699e+00 3.9760862723374770e+00 2.2379483150559373e+01 1.1957338374356841e+00 -5.4699338915544651e+00 -2.8585323545388226e+00 4.6820893387480922e+00 -1.8546330680805294e+00 1.3737894564860147e+02 -9.2712522573632441e+00 -4.9374209987631847e-02 -1.3052724844921513e+00 1.0222076674224425e+00 -5.4505141965795878e-01 -8.8085141682639936e+00 1.9841362912276383e+00 -1.8528210796105338e+01 7.3022284593759554e+00 -2.0158662973561540e+01 -1.3524148865930545e+02 -1.5421472715931728e-01 -1.3034178489290782e-01 -2.9591594694853313e-01 -7.3023074639993411e+00 3.0000696523797160e-01 -1.2226388756553330e+00 -3.7668731071081241e-01 -2.0035684768786490e+00 -1.2724643424144937e+00 -8.9263170453253963e+01 4.2854125919839021e+01 6.6630359184126675e-01 8.8758064454134171e+00 2.1582987316148836e+00 5.5596780567252146e-01 -6.7491300216467778e+01 1.4901638793649106e+00 -1.5916493252815895e+00 -4.9438204603390609e+01 9.4377321771677032e+00 -2.7362212323299939e-01 -1.2912559430220834e+00 -3.8222736376322084e+00 -2.5186317781569156e-01 -1.9965486963972991e+00 -2.1710679324730204e+00 5.7202626216808135e+00 -1.0382801772072932e+00 1.0777926524599035e+01 -1.5032371565897051e+01 -2.4559449589061563e-01 -3.2371514959873733e+00 1.6930212932488642e-02 3.2319540989528943e+00 1.4499291184411387e+00 -1.6895472525781248e+00 1.1925829417545912e+00 -5.1815139188186947e+00 -9.5975106330693727e-01 4.9807262145979934e+01 -4.1918461038640178e+00 3.9921912883833555e+00 -4.6223501172608890e+00 -2.9445028317911137e-01 4.7547514876415087e-01 1.5586844318627300e+01 1.7048292204722992e+00 8.2147749026596897e-02 -1.5988594954825487e+02 -1.7838873222090268e-01 1.3026915724068611e-01 -6.9389235796689575e-01 -1.1272861515772470e+00 2.6663394935203810e-01 -1.6697851304558975e+00 2.2805296819996101e-01 -3.4573809770925146e-01 -1.1538827767150933e+01 2.5205017502813654e+01 2.0683015088163449e+02 -1.7098670284928534e+00 -2.9368299925439527e+00 2.4124915365677779e-01 2.3473490856297685e+00 9.7146762939070919e-01 -1.9645984498879356e+00 2.7117962923066998e+00 -5.8817635103992405e-02 1.9983093529916904e+00 4.4801389480188320e+01 1.1100262052895431e+00 3.9569632154764722e+00 1.5091359215364196e+01 -4.0393886883265950e-01 1.2640130106119851e+00 1.0682966571493246e+01 -5.3774593582028274e-01 -1.1096792543920511e+00 -9.6813655044708554e+01 -8.9455382894899538e-01 2.4227790217843759e-01 7.2314262578750843e-02 1.2934837024644643e+00 4.6584478423859665e-01 5.1671012444321409e+00 3.7140481611117232e-01 3.3561548938237404e+00 -7.5083772303926413e+00 4.3505509434197052e+01 -1.3659362989904150e+02 -1.1221609634936032e+00 4.6666515042939305e-01 2.7274673924159698e-01 -7.9505053264019789e+00 -8.3663333858041189e-01 2.3100283450758403e+00 7.8197744476746667e-01 1.3927855129782245e+00 5.8226631674484797e-01 -1.2747118343471664e+01 1.8963085351757663e+00 -2.5518732563229869e+00 -4.9533694349528101e+00 -7.9387302548965000e-01 -1.2874262707852075e+00 -3.5148947205043233e+00 -5.6479450230953909e-01 1.6751856716786095e+00 -1.2773435241543638e+01 8.5678012647057642e+00 1.0788838192589174e+00 -2.6132014786013755e+00 3.7144788023038560e+00 1.7940402407027547e+00 -9.0330476969237612e+00 2.9842544118981784e-01 -1.5183112643599937e+01 -9.0016627789103989e+00 3.5492991092436803e+00 5.2663459139020347e+01 -5.1758781734694388e+00 -7.9886680200364851e-02 6.3586064910603568e-01 -8.4547543421317801e+00 -2.5108449448194947e-01 -2.5545970066271670e+00 3.4070274965005751e+00 -2.5594671149225587e+00 1.2275276875950700e+00 -2.1626329012718415e+01 4.4486208145948552e+01 4.0025377392991857e+00 8.3589413506327244e+00 2.0713677921433420e+00 9.1127790941900022e-01 -5.1738036004800492e+01 -3.3344479998327889e+00 -1.4490571453643044e+00 -8.0475406759059283e+01 -6.9251200110637088e+00 -6.3774045770920229e-01 3.1700068703271206e-01 5.7982596160777709e+00 -5.2832999776820895e+00 5.0991162575334814e-01 5.2809466078431306e+00 2.7777986279498319e+00 -1.0861114461936468e+01 5.8439673311256488e+00 2.4513776801360876e+01 5.2814500799353403e-02 9.1670882600699843e-01 -1.8279959531101939e+00 4.7921692699919278e+00 4.8925037278659983e-01 8.4398717976218518e-01 -2.2243354323077376e+00 -3.0290076773334720e+00 6.2824685073209197e-01 -2.8110972654223740e+01 -1.3623439494985958e+00 8.0229259531282870e-01 -4.6457208891445552e+00 1.3550318941568875e+00 3.9966571081292535e-02 -3.5001251641353472e+00 1.3774672706074753e+00 6.6994383952482028e-01 -2.7884402246751183e+01 -2.7174364674164857e+00 8.6700775147944428e-02 -1.0528806716235380e+01 
      </Row>
      <Row Index="8">
        2.7045841112849303e+00 3.8208890881200205e+01 2.0016192094589108e+01 3.1923583193065105e+02 -1.1563530466738101e+02 9.6896267498776353e+01 -1.5008625015758712e+03 1.0032521510727982e+02 9.6278348780373432e+04 -2.4302902199995856e+02 6.3251554886209775e+01 -1.2075315437953789e+02 3.2200423885114787e+02 1.7157486729862129e+01 -2.1070598621437309e+01 7.8129076879861046e+01 -3.6255093565132469e+01 1.5796468549402152e+02 1.1945858688844107e+03 -4.5243508938802606e+00 2.0117327966051013e+02 -3.7931305110595184e+02 2.3711663791191956e+01 -1.0291525787357830e+02 1.4426786970160902e+02 -1.3425599421693148e+03 6.8497589869122436e+01 -3.1100258768644679e+01 5.1119723146387685e+01 2.4519243689507217e+01 -1.3033808021098534e+02 -7.7305443992216283e+00 3.2987910155675245e+01 -2.4898851218362779e+01 -1.3639593265037698e+02 -1.2087198090041021e+02 1.2817748925470810e+03 1.2269409275546172e+02 5.4801556001559635e+04 2.4521427116972120e+01 6.0771646440483494e+01 3.0378515419913860e+01 4.0399184439491165e+02 9.5143549284352190e+01 -1.7576289191013363e+01 -1.3933442801142422e+02 -9.8707361753867016e+00 2.2114179165125378e+02 1.6947143744837183e+03 7.2786516660105491e+01 -1.3594035615717632e+02 2.0725454293599026e+02 3.7072453251604642e+00 -8.0398973558515124e+01 -2.3557106661773560e+02 -1.8195129651435950e+03 2.1870710492543090e+01 -5.7133388706029400e+03 7.2369196635886212e+01 5.2355729499836862e+01 2.4111339625574509e+01 8.1863693197214658e+01 -1.1250996019517473e+02 5.2545055377370439e+01 1.1324765638217423e+02 7.5552642034633834e+01 8.1014190534386978e+02 -1.9009692590592630e+02 -7.1233281254597066e+04 -1.2300938183053333e+02 -1.2218507752153003e+02 1.3489091496995197e+01 -7.0583705969483776e+02 -2.6777887279200348e+02 8.5594464882972517e+01 -2.7242546035456064e+02 2.1520664269056393e+00 -6.0134738003662926e+02 8.7241223654973073e+03 -3.3581301924782071e+02 -2.1003300941886124e+02 2.3172510752227478e+02 1.5301569473482488e+01 1.2130450191696274e+02 4.6048847891309521e+02 3.3025487850220799e+02 -1.6335217833695276e+02 1.1415190179842211e+04 -4.2883180565661121e+01 -1.1333522862400969e+02 -3.7213495520729396e+01 3.0306178633845686e+01 1.8164029379163011e+01 -1.5789076276158239e+03 -2.1026946959873297e+02 1.1276727424649218e+02 4.4391474848210595e+02 -1.3647919491625467e+02 6.7697099303112947e+04 -5.0391633643828760e+02 8.6277098375683181e+01 -2.8409302078346919e+01 3.6860296942478590e+02 -2.6632502927499331e+01 5.2203885441560409e+00 7.1260195448974727e+01 -1.6699831761531151e+01 4.3883569616270381e+02 -7.0788818037075498e+03 -2.6993598456885479e+00 1.3914319515309097e+02 -8.3463777849307391e+01 -2.8472496989676985e+00 3.5017046039345900e+01 -1.1969193029538745e+04 3.4199092707276685e+02 1.0760235589969984e+00 1.4344443919293764e+04 -7.6356138110447658e+00 1.7537242254466719e+01 -4.1294949981522599e+01 -5.9860297986245854e+01 6.2547104481739268e+01 1.9799133846288217e+02 -1.5957854196946656e+02 1.6181406886333551e+02 -1.2313423090412459e+03 2.6512693030008080e+01 1.2056635744073702e+05 9.4842640968788707e+00 3.2056662803443473e+01 -7.5975833652209033e+01 7.5977664286820595e+02 -7.2081710916606681e+01 -2.1552273108050827e+01 1.3936342822055283e+02 2.3044272099650698e+00 1.4666110346604091e+02 -4.4463471870622734e+03 -6.0676242078570439e+01 9.0982333598468429e+01 -1.6746286829310984e+02 -3.4377763331889575e+01 -1.6467163635039242e+01 1.6029510249383748e+01 -8.6352892049618930e+01 1.1520966028223715e+02 -3.4476896967634380e+03 4.2535139328562430e+01 4.5600279434660422e+01 4.9233319508100969e+01 2.8750810067650416e+01 7.7600182662054245e+00 -1.1011029453933898e+02 4.3296120711471303e+01 5.2502952039029360e+01 -7.2706253569564592e+02 -1.7130345107432660e+01 -2.1854761767686956e+04 -3.7663836023005395e+01 3.4521253824670069e+01 -4.7059041182243973e+01 6.2663887561271139e+01 1.5301703955998935e+01 1.2168623066050202e+01 5.6197638588477670e+00 6.6006342009556533e+00 1.3239487918955882e+02 -2.9251288593637050e+03 -2.2965486349603893e+01 -1.1972000428441378e+01 2.9848584947999291e+02 5.1264630093772148e+00 1.0108431970699566e+01 9.4848711948295170e+02 -5.4157401879137615e+02 -1.6975171139307855e+02 -6.0750674593069498e+03 8.6335228824536898e+00 -6.8728542077441119e+00 3.1671905329084250e+01 1.4681445406555758e+02 -7.9518021063052515e+00 -7.6812835767576701e+01 6.1216350038132932e+00 4.1220782495618096e+00 -5.4212699180045547e+02 1.5677908651429865e+02 1.9059613976421173e+04 -1.0121817150783309e+02 1.4472239201127071e+01 1.2548322093664041e+01 8.0784476876121218e+01 -2.1103986147006328e+01 3.6443290970553432e+00 -3.9874620914858411e+01 -3.2457437620866273e+01 9.0768308691720833e+01 2.9400083857639042e+03 4.1343941195241780e+02 3.3323419707171468e+01 5.0399591036798562e+01 8.8712424294720016e+00 -1.5326788722077186e+01 -1.7095348587106052e+01 5.7233215972897540e+02 2.1503967219064066e+01 3.8183276083311289e+03 -1.7326279251853229e+01 -1.6538419316023694e+00 -1.7051507318377622e+02 -6.3153695009119872e+01 -5.8387782318454242e+00 -1.6723004877751496e+03 -3.5154313780851965e+02 1.9971273053541526e+02 -1.4502557286596593e+03 -9.1529104010299761e+01 -1.5533700670670674e+04 -8.4531223331468618e+02 7.9336110104775273e+01 -7.1461864090004966e+01 3.9377047641335253e+02 -2.3027246821744268e+02 6.3990928983121805e+01 -2.3854070535404304e+02 -2.0242579190530069e+01 4.1934643664265320e+02 -8.5766276684616878e+03 4.0388972100384814e+02 3.7593054234877776e+00 -3.0011995024342440e+02 3.3894809011533624e+00 -5.9075884632082747e+01 -1.1070479168349022e+04 -2.8681838595572444e+03 1.0702394354384137e+02 1.3071528401981272e+04 7.2591887521776869e+01 7.8030840645771207e+00 -2.6810150737466756e+01 1.3380242928036068e+02 3.4471065217973539e+01 1.5932082954532405e+02 4.8466155466115083e+01 -1.1641029302785739e+01 -1.4721713457896349e+03 5.0558266174652076e+00 2.7661321568368829e+04 1.0197130362765324e+02 7.1504520284343513e+00 8.4616219080279393e+01 -1.4588712338608431e+02 -1.9110430314503617e+01 1.6007113769483055e+01 1.2236330623085050e+02 2.7883314845780774e+01 1.1548504881530940e+02 2.9465569917679845e+03 -1.0702788179889922e+00 -2.8887769965413810e+01 -9.3298305838718875e+01 -1.9281330565017925e+00 -1.7993355652055065e+00 3.3625924192391432e+02 3.8137821477238464e+02 -8.9827069496745480e+01 1.4782689912438263e+02 5.1604475909104384e+00 1.1998837895826284e+00 -2.3405627259942466e+04 
      </Row>
      <Row Index="9">
        -1.1533109013555531e-02 1.8452013248019625e+00 -2.2098617415906430e-01 -3.4250241558148886e+00 -5.9545068045625049e-01 5.9078867295628683e+00 1.8423576752921470e+01 1.3612507958512001e+00 -2.4302902281454814e+02 2.0695831374700813e+01 1.7373349243937399e+00 1.0433845198360954e+00 -7.4013718134085374e-02 -6.7822678199128195e-01 -6.9913105694737743e-03 -1.0173286512832934e-01 5.0927687549890954e-01 -1.0328952628539493e+01 -1.0118498091374153e+02 1.3279843696805136e+00 1.9838636518552155e+00 2.3085895387786195e+00 1.3026007161975239e-01 6.8794919566725099e-01 -2.8531986280795536e+00 5.4905330820987608e+00 -2.2894557766298322e+00 -1.0725813272020093e+02 2.9201952830318167e-01 9.1185690394757601e-02 4.3078928605082156e-01 3.9564071074347513e+00 -1.9135830988781904e-01 -7.7953862219212358e+00 2.4163236688347758e+00 2.0379377880746397e+00 -1.1335677777012537e+01 9.2815660548849344e-01 1.2183068512789566e+02 8.7593642399278906e+00 -2.9298427031410510e+00 1.9534869050835946e-01 -6.9216576094266902e+00 4.5288710754236566e-01 -1.0894107623888949e+00 -5.1794775638292823e-01 -4.9105257663422303e-02 -1.6136190363673119e+01 -6.7950742385860025e+01 2.3849404142462181e+00 4.9379622925206483e+00 2.2945986894977204e+00 -2.1168869457647549e-01 -6.3340542809504408e-02 1.2851585494630982e+01 9.6111936787640158e+00 -2.2039535712111866e+00 -1.0095253455241897e+02 3.0866666089433037e-01 3.2821777309503175e-01 -7.8579973124293356e-01 -1.2958023253080677e+00 2.3460596902362840e+00 1.2061012276327201e+01 -1.8661385921633615e+00 -9.7577111339111555e-01 1.3392813176470593e+01 -6.3074186022351650e+00 -1.6090008673385597e+02 -3.4254462251902584e+00 6.2124994206760524e+00 -7.4066165758548408e-02 5.9383926312761446e+00 1.8368206667235423e+00 1.6046961994074862e+00 9.5901968658820758e-01 2.2957860445050038e-01 3.2397249530225487e+01 6.2747768072330302e+01 1.0686600935810402e+00 -2.8196922403809852e+00 -9.4306796683203089e+00 -1.5213579825484995e+00 -6.4152463126880388e-01 -3.6306083308804777e+00 -6.8232968365110906e+00 3.2912814857972803e+00 -3.1005525910698111e+01 5.5705541412429671e-01 -1.4344309404068580e+00 4.4101706346600089e-01 1.2951314667426659e+00 -3.5719418055807484e-01 9.8776445249081455e+00 -2.9104630090199846e-01 -4.1687704488232082e+00 5.2395443196696889e-01 -9.2035966191933571e-01 5.7987171021209065e+01 8.9177022978431353e+00 9.4103410249853559e-01 -4.3442737232274281e-01 -7.2799169721907635e+00 7.6883339920782681e-02 7.2446074831324703e-01 1.3251073593019163e+00 1.8286965851392922e-01 -3.9744360026220873e+00 -1.4755472658248298e+01 -8.4077696189195059e+00 -1.7168377826671022e-02 -6.3974551945827240e-01 4.0376506678191415e-01 1.1106272533304875e+00 -1.0007642400731100e+00 2.4191473113158590e-01 -2.2715653992507090e-01 -1.2669456531493235e+02 2.7249230902447152e-01 1.8522425854936247e-01 8.0341259839479329e-01 2.7157273178320462e+00 -8.4443965463463755e-01 -9.7033097424562733e+00 -8.4953708453584853e-01 2.7188113523386193e+00 8.3262802445566955e+00 1.2729872560603848e+00 -1.3025211124892360e+02 2.9764054186066664e+00 -4.4883518403267786e+00 -8.8724220441972368e-02 -8.5822209774044751e+00 -4.4772849574760754e-01 1.8014282222723290e+00 3.0841728570011195e-01 -4.5540074770451611e-01 -1.0255722731684783e+01 -6.4762362314333387e+01 2.4620350826164716e+00 4.0340126790049569e+00 5.0156249445033918e+00 9.1906756196950901e-01 5.9606088602281815e-01 8.7223454679115093e+00 2.1369631307195878e+00 -8.6818175161564770e-01 -3.8109786350749566e+01 -2.2496481641778386e-02 3.2666551963819279e-01 -2.2488555564973645e-02 -1.1077867651276379e+00 -1.3224460644897462e-02 -1.7275587992060204e+00 2.8756683473716294e-02 -2.6719189811153909e+00 -2.4800774843674418e+00 5.2683276344781560e-01 -4.4148365388097375e+00 5.4602690429973579e+00 -9.7462725213100621e-01 -4.4788162691057287e-01 3.4128140552087061e-01 -1.2848002436759068e-01 1.2870150978155959e-01 -5.1798251034326093e-01 -7.4107973505121549e-02 -7.7663696426720605e+00 3.4802789808722622e+01 1.4666662500549515e-01 9.6320864773455317e-01 -1.4357782640926431e+00 8.5289611322145009e-01 -4.6870370435789788e-03 -2.6567611307451116e+01 2.4966276783909507e+00 3.9235482084667150e-01 1.1846152006199092e+02 -2.2426749273148516e-01 3.9552419815141820e-02 -1.2261958523850308e-01 9.0678123472044764e-02 -1.3059112569642295e-01 -2.6647227259213309e+00 -6.7998341538014051e-01 2.4867537921994112e+00 -1.3274055145226082e+00 -5.5137958319410219e-01 -6.7902785284300521e+01 4.3376564375438216e+00 4.0975283409085073e-01 7.0462295222392402e-01 2.6903331591711401e+00 -1.4564119079379259e-01 1.0473686881989319e-01 -2.9721773866199225e-01 9.7722636903151094e-01 -1.0803318211693533e+00 1.6366996225890034e+01 -5.2438091718220399e+00 -4.3711839694892340e-01 -3.3752785637710674e+00 6.2247598834809592e-01 4.2494278829309140e-01 -1.5326154485933285e-01 -1.4772331401164962e+00 -1.4558225515729148e+00 -5.3680095538527567e+01 6.0251116828853613e-01 -1.3080481689677059e-01 7.2283236996463252e-01 3.6518309829432747e+00 1.0223328586414164e+00 6.2477051166760376e+00 5.9846177557526303e-01 3.7035891173624216e+00 8.0765313776712162e+00 -2.8913695311251875e+00 1.3730685567504261e+02 3.5140202865560411e+01 2.2612972830073597e+00 1.2253210089493209e+00 -9.9172794512083478e+00 1.0536340796370052e+00 1.6830860124439488e+00 7.1501033785809076e-02 -2.0979895648381425e-01 -6.0282185818649019e+00 -4.9951769194592991e+01 -1.2665431292341257e+01 4.5532488990538260e+00 2.0595975719296531e+00 -8.4945366985074766e-01 1.4477548050701357e+00 -2.6690599238503829e+01 1.0561296333451182e+01 -2.7806781717101217e+00 -1.8331190367168745e+02 1.4178317573116814e+00 -7.0415704350259478e-01 -5.3813886248316178e-02 1.0833243921491582e+00 -1.3334924399971497e+00 8.8481565055240807e-01 1.7293832971681873e+00 1.2546189156336121e+00 3.3296317353818480e+01 1.4617355120308151e-01 -1.0041516670367879e+02 -5.0278006671514879e+00 4.2982905074779643e-01 -3.7123479590039921e-02 3.3822526053341528e+00 7.5972885709076010e-02 -6.3635455501699811e-01 1.1880391138940496e-01 -9.1879659117615553e-01 -4.8910636091978654e+00 4.1839097161364931e+00 9.6064545916388555e-01 3.8562063299652455e-01 -4.9268349441277692e-01 1.2310841227761919e+00 -3.2340352521013527e-02 -8.5295259676697857e+00 -1.1679329613798100e+00 -7.4565337547165456e-01 -4.2687351784431051e+00 7.5989786571746265e-03 -4.7683647015644426e-02 8.5844116294928824e+01 
      </Row>
      <Row Index="10">
        1.7052935638801046e+00 -1.2336002601426230e+00 -1.0236699176187847e+00 -2.3469817894009406e+00 -3.1904562007440647e+00 4.7996480550499090e+00 -1.1483245707343215e+01 1.4179390949370831e+00 6.3251555221778077e+01 1.7373349218129759e+00 4.4057759663942299e+01 -4.3868906528201101e-01 -8.4878133958561950e+00 3.7800268420056859e+00 -3.9457694219622663e-01 -9.6138818462710329e-01 1.1305595520906495e+00 -2.0375396828320578e+00 -6.7964834188685117e+00 7.4257372545176037e-01 -6.8033925517651272e-01 4.1123203872093050e-01 -2.1226114314259683e+00 2.2232358144490583e-01 1.7527214329311391e+00 6.1497143147463023e+00 -1.1550626059435101e+00 -6.0231906384967971e+01 3.9213291142527429e-01 -3.4341820170145598e-01 -5.2425897944870465e+00 1.5647483322013267e-01 -9.9741713607658111e-01 4.0543597881991680e+00 2.2908229947789455e-01 -6.4153781644304164e-01 -6.2297684005308440e-01 -2.3859136265798853e-01 1.2947879844364937e+02 -1.9691177882757946e+00 -1.0906022657699339e+01 5.4022029483579737e-01 3.3662821120951389e+00 6.6096491367155408e-01 -1.6390656998416602e+00 -1.0099498613318367e+00 9.7579273848898151e-01 -5.5705105512179576e-01 -7.5468407014052232e+01 3.9393452733275112e+00 6.4315546744839680e-01 1.2243173639155646e+01 -8.0476724825257762e+00 -2.4922548611940338e+00 -1.8385372368996773e+00 3.4870727417236864e+00 2.4214661747966728e+00 -1.7832480656452393e+02 -1.9418261659947866e-02 -5.3723530901315453e-01 2.7865009001027823e+00 2.5764160581653552e+00 5.0092903258472381e+00 -3.7886403550923635e+00 -2.9371180557165955e-01 -5.4942628462232790e-01 1.5468855813211786e+00 4.3806458345317427e+00 -1.0124618085038264e+01 2.1511501649095166e+00 2.6688945077762707e+00 6.6574577044060890e-02 9.8086576296656176e+00 -6.8474192300529300e+00 8.9196641801848635e+00 1.1613587319743255e+00 -1.6001670038134652e+00 3.6979556002862042e+00 2.5584041739361393e+01 -1.5619099982413065e-02 -1.9596083611516541e+01 -1.7911402988168295e+01 1.3062159681064781e+01 1.6848760828128064e+00 -6.9511702093053582e+00 -1.1580931840385031e+01 -2.3099329294519402e+00 5.4224873584487327e+01 1.5161587662780960e+00 3.2394381602011846e-01 1.7149516318442533e+00 5.0103908727760693e-01 -8.9969569591320919e-01 4.6844563787037075e+01 -1.1374258403269160e+00 8.0372159652247426e+00 -2.6213000604738745e-01 1.9357602815966342e+00 3.0140141035680290e+02 -5.3520648191886089e-01 2.2633741168125525e+01 -6.4322074986177435e-01 1.9069592888950249e+00 6.5583460659676451e-01 5.1630299047514150e-01 1.0425615066113041e+00 4.7104611095079346e-01 -2.9918998968041697e+00 -9.7021668125507119e+01 -4.2321094699746318e+01 -2.5576674904408137e-01 2.3527505835456868e+00 7.6270703822252699e+00 -7.1749880586108095e-02 -3.8187971038431257e+01 -5.5953562123635265e+00 9.2087193293376890e-02 1.8499692127156443e+01 -7.5442296486083960e-01 -4.1235562188533059e-01 -7.0913525910725217e-01 -1.4881250329206512e+00 -2.3861104682521868e+00 -1.0625731914417154e+00 -2.9053423568987946e+00 7.1902419270395743e+00 -1.5715401484032338e+01 -3.7520755371163506e-01 1.5500571863167323e+02 -8.5416235634727400e-01 -1.1809392836797622e+01 3.3886009838157882e-01 1.1066552356763766e+00 5.1054317954524464e+00 -4.1387773505978078e+00 -8.6524048446214274e-01 -4.2255777775054071e-01 -1.3541827865115579e+00 7.8861150921003151e+00 -2.1245672780060426e-01 2.0943322900616570e+00 5.1279039584569945e+00 -5.7479314489591049e+00 -9.0053463482675844e-01 4.4464150175335817e+00 1.5016368471361794e+00 1.5895207109545262e+00 1.8813737975950687e+01 2.3059934972780982e-01 5.5382940604329534e-01 1.7413127224674283e+00 -3.2850148776854798e-01 4.3361396290010096e-02 -1.1752982365147802e+00 3.5119863537667584e-01 3.2592688975807853e+00 -1.3539890409426853e+01 1.2434098698823663e+00 -2.4152750752443498e+02 8.3985315440636121e-01 -1.4111317846208088e+01 -7.8855754022324565e-01 -1.8521787077838188e+00 2.9673644384563422e+00 -9.5136220194026855e-01 -2.7599422858403705e-01 1.5776739123462180e-01 -9.0827496307813194e-01 2.6190361741906258e+00 -9.5471758300960552e-02 -1.6669498398906955e+00 -2.1019275133068906e+00 1.3940935981987088e+00 -4.0952816232698097e-01 1.7473550710721195e+01 1.0888800828723902e+01 -1.7192683612650241e+00 6.5258010163456071e-01 -5.9522405515788535e-01 -2.2167168635447032e-01 6.7093208525106485e-01 -1.6218035051425341e+00 6.5178426347347607e-02 7.7381737429156416e-01 -1.2225917808598301e+00 2.8832263670874774e+00 -5.0006407377413922e+00 2.0012136200636861e+00 4.9208198138621512e+01 1.4470304351969276e+00 9.1547524561279037e+00 1.2033773815251474e+00 5.9099152923175904e+00 3.0332584600884432e-01 -5.9179756761071056e-01 1.0261196484127200e+00 1.3997028312725024e+00 -6.4967865220181542e-01 6.2972449010339915e+00 -2.6098144602195426e+00 1.9368272072177968e+00 -2.9925987602005799e+00 5.9926126633459154e-01 4.5348641097804610e-01 3.6791549363932923e+00 -2.5333311934098344e+00 -1.1725826484946806e+00 -6.5196707786010162e+00 -2.0541251855344891e+00 1.2004333478759999e+00 -5.4261998141350443e-01 3.2177918937169636e+00 3.3062663789710844e-01 4.8431746834244173e+01 -1.9951813924579551e+00 4.9261654491573843e+00 -1.1069250044926740e+01 5.1314366930062398e+00 -1.2348051965410832e+01 1.3152025717514357e+00 3.2996896582085370e+01 4.2288614847499773e-01 -4.1112013225508477e+00 2.5983306982566989e+00 2.7169171077616978e+00 -1.3224377868473769e-01 -5.4228406997558154e-01 -2.6829233911093548e+00 -1.3105955646160760e+02 -4.3766180063267832e+01 -1.2491786594447561e+01 1.9821247597255587e-01 1.3042319260890078e+00 -8.4666694855285085e-01 -2.2515053308168156e+01 4.3577880681138730e+00 4.7461039971072871e-02 -3.8167449227073561e+01 1.6085224644134122e+00 3.7562351277035866e-01 -1.9412769693006715e+00 9.4793559764141722e-01 -1.6069070086985668e+00 -3.4434362977854865e-01 2.8255419333206677e+00 -7.9212795654909907e-01 -1.3235737979465183e+01 1.6830549218118784e-01 -4.0144483498167332e+01 -1.0272831031292806e+00 9.1863745348554300e+00 2.3575609028891780e+00 -3.8785487706873454e+00 1.5493917667029145e-01 2.6524752730662904e-01 -4.0206186004985783e-01 -1.3260196508363793e+00 -8.5114292422413662e-01 -1.3683255284261783e+01 1.6060531030702929e+00 -1.1535638071052872e+00 -1.0736133962549563e+00 1.0278576631617488e+01 4.4052498154623809e-02 3.9328056843116199e+00 -1.6549574082167813e+00 -1.6206434132327523e+00 -4.9155985694673916e+00 2.4119040749673759e-01 8.8848319524189645e-02 3.0462240612556691e+01 
      </Row>
      <Row Index="11">
        4.8319786256688246e-01 -9.2161264940612853e-01 -3.5460760356351040e-01 -3.0003578893863425e+00 4.5269401979740809e-01 -6.3874763804885037e-01 -1.9910226007110761e+00 -5.0622610989756944e-01 -1.2075315312801595e+02 1.0433845142819327e+00 -4.3868906698843024e-01 5.8106347068265309e+00 -6.2516592337557659e+00 5.0967371086087410e-01 -7.3240735353595343e-01 -3.7449735372127102e+00 8.4197274162995911e-02 -6.9054355401005652e-01 -1.4038996562803472e+01 -1.8330789407096431e+00 7.8465563641472891e-01 2.4204085127447388e+00 -1.0072525306501157e-01 -1.3401468616529970e+00 -5.6049671274913635e+00 1.4029697473981024e+00 -5.2133189067906383e+00 -1.9970562159819817e+01 6.2352754066889157e-02 -3.7841031131936775e-01 -5.9795114886441703e-01 3.1999556484361369e-01 -4.8801545876104503e-02 -2.6317741813882178e-01 1.5007591953853061e-01 -4.5122066942699179e-01 -3.4158768349206516e+00 -1.5148715523797263e-03 1.2711356617796912e+02 1.0414865407661402e+00 -7.0181013114739565e-01 3.0321230647408721e+00 -2.2290443734392342e+00 -1.4474136073067417e-01 -1.4827823761606296e-01 1.3000350169066903e+00 2.0696569663412712e-01 7.4640684926189449e-01 1.4103352740200837e+01 -3.8397633518297782e+00 -9.0955259258973098e-01 4.4248557131501232e-01 6.9768681993868131e-01 -1.3109734645012225e+00 -6.4018712653927219e+00 1.6973995654615643e+00 -3.1303920275161792e+00 -1.4788681428483168e+00 1.3804859597364783e-01 -3.4231690393279957e-01 -6.8386387910774427e-01 3.0391729517609939e-01 -5.8355701829641421e-02 1.9716492313784451e+00 -9.8531445773228299e-01 -1.2525967217263851e+00 2.0320487622907599e+00 -5.5635967127626751e-02 7.4020328660822088e+00 -2.2435569144156693e+00 2.8425218442464617e+00 -2.0326161610645315e+00 4.5831944442641417e+00 -1.2596988781725431e+00 2.1125917736063800e+00 8.3366091337096275e+00 -7.3333856143773257e-01 -1.4284456029265700e+00 -2.1434376794041782e+01 2.8036625589521948e+00 -2.2370210046743000e+00 1.0528758805223437e-01 -1.7535107842956958e+00 2.0695427573376035e+00 -1.4464113708323794e+01 -2.4326166305362018e+00 4.4722952513344367e+00 -9.3398234115225307e+01 -5.5360677124531321e-01 1.0790030871578431e+00 -5.4321982922787670e-01 -5.0475621668204074e-02 1.7624192410669925e-01 -7.1989673450726439e+00 -1.9032546602777409e-02 3.5349433433124395e+00 -5.1010354260238113e+00 1.2795219271801108e+00 -1.3070277608595384e+02 2.2333036829584474e-01 -1.1540568973762713e+00 1.7542171753159075e+00 -4.4602355429454228e+00 8.7671823914770547e-02 -3.2411771019394409e-02 -2.5279153767631692e+00 2.0681461638598048e-01 -1.0237445723378762e+00 2.1333922218910406e+01 7.1912515235405730e+00 1.9362062071433690e+00 -1.7918691203171599e-01 3.5837128154327791e-01 2.5700056101744562e-01 9.7539482080992371e+01 6.7985921189301446e-01 -3.5628643652300247e+00 -2.5529473396829239e+01 7.1511680178548498e-01 -3.4227654954835957e-02 3.7875846970358718e-01 -3.7200850758676007e-01 3.4885865301500379e-01 -5.7856234753509295e+00 2.8333997897488622e-01 1.2600995381504703e+00 -4.0149038714381495e+00 1.0555363721863862e+00 -6.2012757295797542e+01 9.7725961846602161e-01 -6.3509268533440211e-01 4.0128991594138856e+00 -6.4487884994674980e+00 6.6392628574943946e-01 -3.1257345252348034e-01 -3.3815039586562539e+00 6.3414016783168847e-01 -6.4386596689824815e-01 -4.8047989443671844e+00 -2.2746040279317228e+00 -2.0298355092113818e-01 -1.4630466332882546e+00 6.8610589142015277e-01 -6.4042839098619264e-01 -9.0778472613915255e+00 1.4878456247804435e+00 -4.5066314420178823e+00 8.2002701614930977e+00 4.5005846752203904e-01 -3.4743034281009139e-01 -3.7076314263281285e-03 1.2149973440714465e-01 -5.3458600200175260e-02 -1.6172415088573928e+00 -5.3812417644991228e-02 6.0200250140839251e-01 9.7206416237565723e+00 -9.4021497468309045e-01 6.6544105355168000e+01 4.6803119237465995e-02 4.5796033027970146e-01 4.0456123867019500e-01 -1.8484345987617168e-01 -9.2414776528900178e-02 -7.8962350470532150e-01 4.0100086084049273e+00 -1.3623072007233616e-03 1.7679779589242568e+00 -1.5807569347358772e+00 -2.3071856441590113e-01 -3.4538764089513124e-01 1.1337710742764118e+00 -2.1529477883850012e-01 -4.3559448581513782e-02 5.4713639912214083e+00 -2.7907911814111230e-03 1.0454501259273028e+00 1.0915087313644868e+01 -8.7766054289630802e-02 -3.7399004113160522e-02 2.9816419448320808e-03 -5.8066922530360454e-01 -4.9581349259685176e-01 2.4198736948002515e+00 -3.5817505746537481e-01 -1.6354273044800984e+00 3.0921973871406827e+00 -1.4946416605499224e-01 8.2081522412350310e+01 -2.4887000380749469e-01 -2.1582921942910838e-02 -7.1306900375395221e-01 7.7133194873002531e-01 -8.9912828158925123e-02 1.8638679073619929e-01 -1.6314220562781374e+00 -2.4015144985571560e-01 4.9590453880127355e-01 5.4447964720548043e+00 5.2008770943450333e-01 5.5930539245146260e-01 -1.6054381803265039e+00 -9.1477234686080655e-02 -2.1315819443985135e-01 1.9182772502153661e+01 -8.0368416444546176e-01 9.1740084382196474e-01 -1.3711721262781232e+01 -9.8593211345787812e-03 -1.6722716712962304e-01 -1.0982519590437092e+00 4.8183998970463593e-01 2.8523345153583135e-01 -6.8228311584336181e+00 -1.0481058596469550e-01 1.5904742577565072e+00 1.0799808059036780e+01 1.1192072549625269e+00 1.8192315158799389e+01 3.4781287278972262e-01 3.7971416533382452e-01 5.0005311702293707e+00 -8.9602344232834898e+00 -3.1501910986579740e-01 8.6196115695278896e-01 3.1528552595356243e+00 3.3325052204562161e-01 -1.0198986828204821e+00 5.9739528514024087e-02 3.5870711174401837e+00 -3.8731064793712577e-01 2.8837118384120628e+00 6.2508468471094703e-03 -7.7574757731814215e-01 1.1531672768845637e+02 1.9554195315829861e+00 -5.1836864772959590e+00 -6.8431866005863036e+00 2.8268562815656839e-01 -5.1809228948167307e-02 -2.2499770440007555e-01 -6.9108024495469522e-01 3.9357236002976720e-01 1.1249900836589588e+00 3.5508663372262284e-01 -5.7917272672952458e-01 -1.4666539149248651e+01 -1.2361648959777738e-01 -1.5809196606187658e+01 5.7646330906127508e-01 -1.2599721885341120e-01 -3.1975556797239051e+00 1.6091857271334575e-01 1.0316320236744270e-01 6.2928129957680823e-02 -4.0943049860784919e+00 4.0265040367726629e-01 9.2680425638644670e-01 -9.5128225907857029e+00 -4.6179822956133574e+00 -1.8816315572379017e-01 1.3418684257353375e-01 3.8801455976204213e-02 2.1907620833368835e-02 6.1680197342803007e+00 -1.3993287571129276e-01 -9.9839534370310901e-02 -3.0663620788045765e+00 -1.1395824739438121e-02 -2.6733898741100534e-02 1.2504603159850229e+01 
      </Row>
      <Row Index="12">
