<?xml version="1.0"?>
<MethodSetup Method="MLP::MLPBNN_TauTau_MZP600_MA0400_MDM100_nodes30_epoch1000">
  <GeneralInfo>
    <Info name="TMVA Release" value="4.2.0 [262656]"/>
    <Info name="ROOT Release" value="6.02/13 [393741]"/>
    <Info name="Creator" value="jhoward"/>
    <Info name="Date" value="Mon Dec 12 16:41:55 2016"/>
    <Info name="Host" value="Linux vocms0301.cern.ch 2.6.32-573.7.1.el6.x86_64 #1 SMP Wed Sep 23 10:12:03 CEST 2015 x86_64 x86_64 x86_64 GNU/Linux"/>
    <Info name="Dir" value="/uscms_data/d3/jhoward/WORKING_DIR/NovProductionV3_76X/ANNTraining_Original/ANNs"/>
    <Info name="Training events" value="7525"/>
    <Info name="TrainingTime" value="8.21901443e+02"/>
    <Info name="AnalysisType" value="Classification"/>
  </GeneralInfo>
  <Options>
    <Option name="NCycles" modified="Yes">1000</Option>
    <Option name="HiddenLayers" modified="Yes">30</Option>
    <Option name="NeuronType" modified="Yes">tanh</Option>
    <Option name="RandomSeed" modified="No">1</Option>
    <Option name="EstimatorType" modified="No">MSE</Option>
    <Option name="NeuronInputType" modified="No">sum</Option>
    <Option name="V" modified="Yes">False</Option>
    <Option name="VerbosityLevel" modified="No">Default</Option>
    <Option name="VarTransform" modified="Yes">N</Option>
    <Option name="H" modified="Yes">False</Option>
    <Option name="CreateMVAPdfs" modified="No">False</Option>
    <Option name="IgnoreNegWeightsInTraining" modified="No">False</Option>
    <Option name="TrainingMethod" modified="Yes">BFGS</Option>
    <Option name="LearningRate" modified="No">2.000000e-02</Option>
    <Option name="DecayRate" modified="No">1.000000e-02</Option>
    <Option name="TestRate" modified="Yes">5</Option>
    <Option name="EpochMonitoring" modified="No">False</Option>
    <Option name="Sampling" modified="No">1.000000e+00</Option>
    <Option name="SamplingEpoch" modified="No">1.000000e+00</Option>
    <Option name="SamplingImportance" modified="No">1.000000e+00</Option>
    <Option name="SamplingTraining" modified="No">True</Option>
    <Option name="SamplingTesting" modified="No">False</Option>
    <Option name="ResetStep" modified="No">50</Option>
    <Option name="Tau" modified="No">3.000000e+00</Option>
    <Option name="BPMode" modified="No">sequential</Option>
    <Option name="BatchSize" modified="No">-1</Option>
    <Option name="ConvergenceImprove" modified="No">1.000000e-30</Option>
    <Option name="ConvergenceTests" modified="No">-1</Option>
    <Option name="UseRegulator" modified="Yes">True</Option>
    <Option name="UpdateLimit" modified="No">10000</Option>
    <Option name="CalculateErrors" modified="No">False</Option>
    <Option name="WeightRange" modified="No">1.000000e+00</Option>
  </Options>
  <Variables NVar="7">
    <Variable VarIndex="0" Expression="read_pt_1" Label="read_pt_1" Title="read_pt_1" Unit="" Internal="read_pt_1" Type="F" Min="4.00015488e+01" Max="6.43192261e+02"/>
    <Variable VarIndex="1" Expression="read_pt_2" Label="read_pt_2" Title="read_pt_2" Unit="" Internal="read_pt_2" Type="F" Min="4.00102806e+01" Max="1.03654578e+03"/>
    <Variable VarIndex="2" Expression="read_m_vis" Label="read_m_vis" Title="read_m_vis" Unit="" Internal="read_m_vis" Type="F" Min="2.78108807e+01" Max="1.52067651e+03"/>
    <Variable VarIndex="3" Expression="read_LPT" Label="read_LPT" Title="read_LPT" Unit="" Internal="read_LPT" Type="F" Min="0.00000000e+00" Max="1.30303125e+03"/>
    <Variable VarIndex="4" Expression="read_DeltaR_leg1_leg2" Label="read_DeltaR_leg1_leg2" Title="read_DeltaR_leg1_leg2" Unit="" Internal="read_DeltaR_leg1_leg2" Type="F" Min="5.01928031e-01" Max="4.85932732e+00"/>
    <Variable VarIndex="5" Expression="read_DeltaPhi_leg1_leg2" Label="read_DeltaPhi_leg1_leg2" Title="read_DeltaPhi_leg1_leg2" Unit="" Internal="read_DeltaPhi_leg1_leg2" Type="F" Min="-3.14142513e+00" Max="3.14155507e+00"/>
    <Variable VarIndex="6" Expression="read_DeltaPhi_PFMET_Higgs" Label="read_DeltaPhi_PFMET_Higgs" Title="read_DeltaPhi_PFMET_Higgs" Unit="" Internal="read_DeltaPhi_PFMET_Higgs" Type="F" Min="-3.13939238e+00" Max="3.14141011e+00"/>
  </Variables>
  <Spectators NSpec="4">
    <Spectator SpecIndex="0" Expression="read_npu" Label="read_npu" Title="read_npu" Unit="" Internal="read_npu" Type="F" Min="1.45425248e+00" Max="3.42432365e+01"/>
    <Spectator SpecIndex="1" Expression="read_event" Label="read_event" Title="read_event" Unit="" Internal="read_event" Type="F" Min="4.00000000e+02" Max="7.22443776e+08"/>
    <Spectator SpecIndex="2" Expression="read_final_weight" Label="read_final_weight" Title="read_final_weight" Unit="" Internal="read_final_weight" Type="F" Min="4.93890851e-14" Max="2.55127907e-01"/>
    <Spectator SpecIndex="3" Expression="read_ratio_weight" Label="read_ratio_weight" Title="read_ratio_weight" Unit="" Internal="read_ratio_weight" Type="F" Min="6.45903492e+00" Max="6.45903492e+00"/>
  </Spectators>
  <Classes NClass="2">
    <Class Name="Signal" Index="0"/>
    <Class Name="Background" Index="1"/>
  </Classes>
  <Transformations NTransformations="1">
    <Transform Name="Normalize">
      <Selection>
        <Input NInputs="7">
          <Input Type="Variable" Label="read_pt_1" Expression="read_pt_1"/>
          <Input Type="Variable" Label="read_pt_2" Expression="read_pt_2"/>
          <Input Type="Variable" Label="read_m_vis" Expression="read_m_vis"/>
          <Input Type="Variable" Label="read_LPT" Expression="read_LPT"/>
          <Input Type="Variable" Label="read_DeltaR_leg1_leg2" Expression="read_DeltaR_leg1_leg2"/>
          <Input Type="Variable" Label="read_DeltaPhi_leg1_leg2" Expression="read_DeltaPhi_leg1_leg2"/>
          <Input Type="Variable" Label="read_DeltaPhi_PFMET_Higgs" Expression="read_DeltaPhi_PFMET_Higgs"/>
        </Input>
        <Output NOutputs="7">
          <Output Type="Variable" Label="read_pt_1" Expression="read_pt_1"/>
          <Output Type="Variable" Label="read_pt_2" Expression="read_pt_2"/>
          <Output Type="Variable" Label="read_m_vis" Expression="read_m_vis"/>
          <Output Type="Variable" Label="read_LPT" Expression="read_LPT"/>
          <Output Type="Variable" Label="read_DeltaR_leg1_leg2" Expression="read_DeltaR_leg1_leg2"/>
          <Output Type="Variable" Label="read_DeltaPhi_leg1_leg2" Expression="read_DeltaPhi_leg1_leg2"/>
          <Output Type="Variable" Label="read_DeltaPhi_PFMET_Higgs" Expression="read_DeltaPhi_PFMET_Higgs"/>
        </Output>
      </Selection>
      <Class ClassIndex="0">
        <Ranges>
          <Range Index="0" Min="4.0069278717041016e+01" Max="2.9973455810546875e+02"/>
          <Range Index="1" Min="4.0058677673339844e+01" Max="6.1807373046875000e+02"/>
          <Range Index="2" Min="4.3635379791259766e+01" Max="4.5169479370117188e+02"/>
          <Range Index="3" Min="0.0000000000000000e+00" Max="6.4439776611328125e+02"/>
          <Range Index="4" Min="5.2950102090835571e-01" Max="3.4051868915557861e+00"/>
          <Range Index="5" Min="-3.0138843059539795e+00" Max="3.0761044025421143e+00"/>
          <Range Index="6" Min="-3.1348540782928467e+00" Max="3.1352562904357910e+00"/>
        </Ranges>
      </Class>
      <Class ClassIndex="1">
        <Ranges>
          <Range Index="0" Min="4.0001548767089844e+01" Max="6.4319226074218750e+02"/>
          <Range Index="1" Min="4.0010280609130859e+01" Max="1.0365457763671875e+03"/>
          <Range Index="2" Min="2.7810880661010742e+01" Max="1.5206765136718750e+03"/>
          <Range Index="3" Min="0.0000000000000000e+00" Max="1.3030312500000000e+03"/>
          <Range Index="4" Min="5.0192803144454956e-01" Max="4.8593273162841797e+00"/>
          <Range Index="5" Min="-3.1414251327514648e+00" Max="3.1415550708770752e+00"/>
          <Range Index="6" Min="-3.1393923759460449e+00" Max="3.1414101123809814e+00"/>
        </Ranges>
      </Class>
      <Class ClassIndex="2">
        <Ranges>
          <Range Index="0" Min="4.0001548767089844e+01" Max="6.4319226074218750e+02"/>
          <Range Index="1" Min="4.0010280609130859e+01" Max="1.0365457763671875e+03"/>
          <Range Index="2" Min="2.7810880661010742e+01" Max="1.5206765136718750e+03"/>
          <Range Index="3" Min="0.0000000000000000e+00" Max="1.3030312500000000e+03"/>
          <Range Index="4" Min="5.0192803144454956e-01" Max="4.8593273162841797e+00"/>
          <Range Index="5" Min="-3.1414251327514648e+00" Max="3.1415550708770752e+00"/>
          <Range Index="6" Min="-3.1393923759460449e+00" Max="3.1414101123809814e+00"/>
        </Ranges>
      </Class>
    </Transform>
  </Transformations>
  <MVAPdfs/>
  <Weights>
    <Layout NLayers="3">
      <Layer Index="0" NNeurons="8">
        <Neuron NSynapses="30">
          -1.9966119774946021e-02 -4.6347503333935827e-03 -1.2770674970171588e-02 3.7187109682509788e-02 -1.3613196812315978e-02 -1.7430062818127465e-02 -2.3027814453569707e-02 -2.0676527192748147e-02 -1.1754000238148227e-02 1.5549731548421081e-01 1.0505502117754192e-02 -1.2919453585270929e-01 5.3579751889866857e-03 6.0273267304417292e-03 1.8525007892703901e-01 -4.7913904592120027e-02 -1.7753441060082403e-02 9.5949677296067057e-02 3.3898502430397739e-03 -7.2318599329346880e-03 -9.6193252798676861e-03 -1.0363578741842923e-01 -1.3029809245955565e-01 -8.4118237722756537e-03 -6.4749222465564776e-03 6.4231107441172913e-03 8.9706503211838456e-02 1.4247992853857654e-02 5.0357714781494166e-02 -1.6426266088354460e-01 
        </Neuron>
        <Neuron NSynapses="30">
          7.2913572253764047e-02 2.1637773619181963e-01 -2.3332676363337918e-01 2.9157276199725096e-01 -1.9286675578130524e-01 -1.2978470699172326e-01 -2.3410717591332827e-01 2.5623067852593318e-01 -1.4951481215896040e-01 4.4448047612180047e-02 7.1745343923656529e-02 6.5308490579498613e-01 2.2736459790629399e-01 1.6817143805448911e-01 3.1048034863026663e-01 -5.9262408824827162e-01 1.2658654988059679e-02 -3.1910236318590424e-01 1.7386814868686545e-01 3.4994519106504102e-01 4.2417440701422238e-01 5.2859844482560270e-01 -1.2591944027448270e+00 -6.7375006025545456e-02 -2.0043525927471423e-01 -5.4053399102909412e-02 3.0771286941176773e-01 -2.8917190954239819e-01 5.9785160795590475e-01 -1.7855458106736619e-01 
        </Neuron>
        <Neuron NSynapses="30">
          3.6082783138864934e-02 2.5727072826541692e-03 1.3811213911961945e-01 5.1772112181421803e-01 -9.4026144703340975e-02 -2.4546836661890663e-02 -1.4415638244667303e-02 3.4034756952201942e-02 -1.4848334534681025e-02 -9.7152721461778321e-02 -2.7742382484500855e-01 -1.7274619835327520e-01 -1.0936486447599446e-02 -2.2202338507556443e-02 5.2613578273737172e-01 -1.2893151026212477e-01 4.0730521810063607e-03 6.2331590195931659e-02 -1.9802020062653469e-02 2.9005925621979239e-01 3.9971287110783911e-02 1.6869162609055027e-01 6.9893526208813827e-03 2.5109964199816265e-01 6.8090743169370279e-03 1.7030732857241014e-02 5.0283912820245069e-01 -1.4296763155839054e-02 8.9792621635873440e-02 -3.4841295960588320e-01 
        </Neuron>
        <Neuron NSynapses="30">
          -1.7717291667589080e-01 3.8176074995443329e-02 2.1593964359925705e-01 -1.4840726267769166e+00 -3.3215642254783145e-01 2.4205651517885488e-01 -7.7811902188267487e-02 -8.4897480171883255e-02 -2.9469428340997073e-01 -8.1060200775595581e-01 -8.0506217805163871e-01 -6.1986307752188496e-01 1.4671114902892815e-01 4.1869084726803102e-01 -1.8580013294032132e+00 3.2760515521108852e-01 -2.7934210228628165e-01 4.0415107736137162e-01 5.7907614584475613e-03 1.0521655559824278e-01 -2.2669762203523858e-01 -2.2985110323358787e-01 1.3080675440289000e+00 1.2596547183990969e+00 -2.8650606530694578e-01 3.7028418701500149e-01 1.4614757680642615e-01 -2.1162203292668805e-01 -3.6029266655362296e-02 4.3372622146402112e-02 
        </Neuron>
        <Neuron NSynapses="30">
          -5.1104475228436608e-01 1.0064616042366943e-02 3.4005585961587931e-01 9.9468943678061739e-01 -1.1360631050114188e-01 -5.0957094735021004e-02 -8.5094171661316692e-02 -2.0178365342594592e-02 -3.2447886766394367e-02 8.2607698034180643e-01 3.1815379234912428e-01 -8.6336011106335908e-01 9.6316401350657246e-03 8.0128527184296430e-03 2.6842896540793759e-01 1.6651038633681220e-01 -2.8321497044968308e-02 -4.4677926675928886e-01 2.2090672693128383e-02 3.6708744867105425e-01 1.2770749420015490e-01 3.2257530186870659e-01 -5.1081081720558186e-01 -1.3080116938345123e+00 -2.7805726919651032e-02 2.1571196632023604e-02 4.6963714823670094e-01 4.1070483747093323e-02 -7.9846008220277842e-01 -5.5705827542444397e-01 
        </Neuron>
        <Neuron NSynapses="30">
          -1.0545391443585425e-01 5.5017146902689544e-03 -1.9268376415991798e-01 -4.7469039743906938e-01 -3.5252760515206093e-03 -5.1341502668195531e-02 -8.1016867037534648e-02 -1.0865066848584721e-02 -5.0198927879787893e-02 7.7234502839843608e-02 4.2781257662579469e-01 4.4019406152890550e-01 -5.1257984026493696e-03 1.1790526039963545e-02 1.5076068422829858e-01 -9.4136837038366408e-02 -1.1757899194594492e-02 5.2761830104317176e-01 3.7383760909780690e-02 -2.3071600051281341e-01 1.8484279114092665e-02 3.1762169160396168e-02 -5.6715522730505541e-01 1.5098134847415084e-01 -7.8308907360567295e-02 6.8213189983402492e-02 -2.3625706548787129e-01 2.1210979200453065e-02 2.9679387427596734e-02 -1.3646117343556285e-01 
        </Neuron>
        <Neuron NSynapses="30">
          -7.2891017252012680e-01 2.6878279218550870e-02 6.8424618131104420e-01 -2.0899591740879844e-01 -3.0877992478295598e-02 -2.3718246647213913e-02 -7.2193589613098505e-02 6.4502315237383062e-02 -3.5167104287293902e-02 -1.6836827276253294e-01 -5.4112098176642143e-01 6.6036371087545884e-02 3.5345651653269201e-02 1.6836006976047091e-02 7.5453073659700975e-01 4.9308564095401804e-02 -1.7432006735356605e-03 3.4764061357019904e-01 1.5024321056504661e-02 -4.9214338182703510e-01 -8.2181277477640109e-03 6.7152482922488960e-02 1.0059069919500065e-02 -1.4682542122123168e+00 -1.5986561724861501e-03 2.4813715973810595e-02 -1.8963852865075029e-01 -2.1583313533973070e-03 1.4108075091003360e+00 8.6570628400504779e-01 
        </Neuron>
        <Neuron NSynapses="30">
          -2.3144711582067004e-01 -5.0324826558875345e-02 -4.4003217985747856e-01 -3.6439633477500716e-01 1.9189550518535506e-01 2.0042072096841090e-01 9.0831914764256061e-02 -1.6014500865713338e-01 2.3171183483055985e-01 -1.6758312537931391e-01 -1.4839491922778383e-01 -7.4922725396225243e-01 -1.6858254432229602e-01 -5.8080041350324345e-02 2.3227463668875115e-01 -2.1187324803419613e-01 2.0511766640752410e-01 3.0830687783080235e-01 -2.0578270955725328e-01 -2.4455359277438996e-01 7.7415847352200464e-03 7.0819438319097150e-02 2.1284566836015727e-02 -2.6896071419443707e-01 2.1137844485636875e-01 -2.2243578500163633e-01 -4.4470385216063182e-02 2.1009013118040060e-02 -2.3403846325483918e-01 -5.2171201082889895e-01 
        </Neuron>
      </Layer>
      <Layer Index="1" NNeurons="31">
        <Neuron NSynapses="1">
          -9.6257900655995210e-01 
        </Neuron>
        <Neuron NSynapses="1">
          1.9947259204337514e-01 
        </Neuron>
        <Neuron NSynapses="1">
          -7.1957156683924106e-01 
        </Neuron>
        <Neuron NSynapses="1">
          -1.4498318280611102e+00 
        </Neuron>
        <Neuron NSynapses="1">
          -4.1741625187929221e-01 
        </Neuron>
        <Neuron NSynapses="1">
          -2.8039296987982298e-01 
        </Neuron>
        <Neuron NSynapses="1">
          -3.8545342064831850e-01 
        </Neuron>
        <Neuron NSynapses="1">
          1.8996913131321982e-01 
        </Neuron>
        <Neuron NSynapses="1">
          -2.6309648241546363e-01 
        </Neuron>
        <Neuron NSynapses="1">
          -6.4951383948945740e-01 
        </Neuron>
        <Neuron NSynapses="1">
          1.1041627793528699e+00 
        </Neuron>
        <Neuron NSynapses="1">
          -1.5588832766976279e+00 
        </Neuron>
        <Neuron NSynapses="1">
          1.6208834341207562e-01 
        </Neuron>
        <Neuron NSynapses="1">
          1.6404191914868571e-01 
        </Neuron>
        <Neuron NSynapses="1">
          1.7028376355880703e+00 
        </Neuron>
        <Neuron NSynapses="1">
          -7.3592559372266664e-01 
        </Neuron>
        <Neuron NSynapses="1">
          -2.5772330749620009e-01 
        </Neuron>
        <Neuron NSynapses="1">
          -1.1545895490207614e+00 
        </Neuron>
        <Neuron NSynapses="1">
          2.0710980239124188e-01 
        </Neuron>
        <Neuron NSynapses="1">
          -9.1323471498218300e-01 
        </Neuron>
        <Neuron NSynapses="1">
          7.3123443265989418e-01 
        </Neuron>
        <Neuron NSynapses="1">
          9.3786718011448533e-01 
        </Neuron>
        <Neuron NSynapses="1">
          1.2316741358430141e+00 
        </Neuron>
        <Neuron NSynapses="1">
          1.0244753889891280e+00 
        </Neuron>
        <Neuron NSynapses="1">
          -2.3391542805755999e-01 
        </Neuron>
        <Neuron NSynapses="1">
          9.8332590043717472e-02 
        </Neuron>
        <Neuron NSynapses="1">
          -1.0097950958244932e+00 
        </Neuron>
        <Neuron NSynapses="1">
          -3.1810860496741485e-02 
        </Neuron>
        <Neuron NSynapses="1">
          1.0029767948112724e+00 
        </Neuron>
        <Neuron NSynapses="1">
          -1.4751725676992384e+00 
        </Neuron>
        <Neuron NSynapses="1">
          -3.4180081830751385e-01 
        </Neuron>
      </Layer>
      <Layer Index="2" NNeurons="1">
        <Neuron NSynapses="0"/>
      </Layer>
    </Layout>
    <InverseHessian NElements="73441" NRows="271" NCols="271">
      <Row Index="0">
        3.3141544807508656e+00 -1.6634351802383463e+01 -1.5250329586620628e+00 1.8770907151436989e-01 2.2291306214771147e+01 -4.7500336327271462e+01 -4.4971950369623137e+00 1.4098846786745582e+01 -1.8146502860182494e+01 1.3838438066999545e+00 2.2930018389300191e-01 -1.6345619964217536e-01 -2.5645275012545440e+01 -3.1394243573572851e+01 5.4813735801442373e-02 -1.0764011241869886e+00 -2.2415654772906489e+01 -3.1715170236838275e-01 -1.6763188470125607e+02 -1.0713152395951520e-01 1.1578385079532250e+01 7.0768046007847101e+00 -1.1570695781520762e-01 -7.3103778346432835e-02 -1.3987324363826511e+02 -1.2918326093045542e+02 3.1934522281219746e-01 -1.2798317002341038e+02 4.0199580596582463e-01 -2.1485589666262134e-01 2.5076803757712254e+00 4.4309433623266862e+01 1.6343425669136622e+00 2.3059443307412303e-01 -3.2080583847687613e+01 4.5266709696820882e+01 8.6331209651665844e+01 -3.8689474006565661e+00 -8.8222483340054652e+00 4.6312094125966685e-01 6.2590341070472399e-02 4.3614615366514642e-01 3.9465279579537423e+01 3.9884679310345575e+01 -1.8659705065729659e-01 8.5405789325266319e+00 9.4761212471848950e+01 -2.7507595865315002e+00 5.9385131578864815e+01 -4.1221626143145116e+00 -6.4407572100083243e+01 1.1330409849464044e+01 -1.1566647347328911e+00 -1.7015342565824099e-02 -7.3524213648623402e+01 -3.8534773421219001e+01 2.5798529918115348e-01 -3.9479797038251853e+01 3.2389906590424489e-01 7.0072416675150073e-02 -5.5722984587472935e+00 -2.1879270174821613e+01 1.3870676888846953e+00 -5.5797638382438386e-01 -8.6824614605790593e+00 4.7813140566725551e+01 -2.6798736573626378e+01 8.1850818203127687e+01 -2.8547255221342738e+01 -1.3002195107644381e+00 -1.9977676874250999e-01 7.8826930122968020e-01 -1.2720678264141796e+01 -8.3162059485284146e+01 4.7751916725906091e-01 2.0660023562019916e+00 -1.3274622487036716e+01 2.1150393757795336e+00 7.4208450972073237e+01 3.3669235489122729e+00 -2.7856116698123795e+01 -8.6764873579584361e+00 7.1416364624888484e-01 1.1832197023054287e+00 3.9884787623408819e+01 -9.0981343318927799e+00 6.7770791220331905e-01 7.8786523550439796e+01 -5.3879100447605399e-01 2.7220901521653579e-01 2.7667072872905116e+00 5.8058157565504672e+01 -2.4685995005776582e+00 -2.5305506709779568e-01 -2.2724878517821580e+01 -6.6666543425155126e+01 8.3763491180440624e+01 5.9100748485041308e+01 -3.0476950113560154e+01 -2.5330738478145869e+00 1.3465803624553929e-01 3.5610462634216800e-01 3.4137527971483095e+01 -1.4399779888397891e+01 1.6403262947655955e-01 -2.3724961922477604e+01 2.0512813411070397e+01 -5.8015719491373852e-01 5.4635171395469044e+01 -3.3639996661149776e+00 -7.8589268380441965e+01 1.4505602757177215e+01 4.4465539121224745e-01 -6.8227957829811303e-01 7.3393267645726425e+01 -2.7488725996116614e+01 5.4919442148411131e+00 -1.1724771507001446e+00 2.1654441820752890e-01 -9.9100531422336280e-01 4.6303597631163544e+00 4.8230725133306606e+01 9.3861570057669763e-02 5.4269063076551050e-01 1.3701051432796008e+00 -8.7074730087380932e+00 -5.8384057619151527e+01 2.6098872073041434e+01 4.5979562661828083e+01 -6.2838298160380379e-01 -2.6972059369158258e-01 -2.9132264313964779e-01 -4.1343885228717596e+01 1.0925645850456888e+01 -3.9188660267332304e-01 -1.0683088797393767e+00 6.6321665909874540e+01 -8.9040592918462824e-01 -1.3604455049016735e+01 -6.9143687370122175e-01 -8.7947673005417556e+01 -4.1570778215229454e-01 -4.2856987235954147e-01 -3.6091299248216391e-01 -6.8310098640195747e+01 4.6488445119176049e+01 -7.1804949376843830e-01 -3.5620579414955607e+01 3.2147281409664258e-01 8.7712474212673391e-02 5.9554037921209424e-01 -1.8313284226228596e+01 2.6776647243978040e+00 -3.8133042329268640e-01 -3.7933799863579551e+00 5.6236241071552620e+01 2.7958075540310624e+01 4.5385146287495687e+01 3.5398556788515521e+01 8.2471399231406561e-01 1.2036752353203381e-01 3.3373838436937381e-01 -1.7129155444433607e+01 4.8622901711305829e+01 1.5398643965733738e-01 2.7612488913404656e+00 9.5932129005811291e+01 1.5209719571669176e+00 4.9977443241417618e+01 2.2821594651802704e+00 1.5586992866302108e+01 -5.3727759382623477e+00 -7.4770599065634019e-02 -1.4583098353103582e-01 -9.7021104948794772e+01 4.8648159202412657e+01 -1.4245761048442083e+00 1.5076315473943168e+01 1.0006614233733672e-02 4.5403319520797725e-01 3.4316686635083391e+00 -3.5253699976235986e+01 1.2456582510526476e-02 1.9747988497869073e-03 1.9183543106496828e+01 -3.1384865173184018e+00 -1.7533383695138980e+01 1.2467776188407473e+02 -1.0925086840218054e+02 -9.0736719372613073e-01 1.0706089423201839e+00 -1.1123007618545716e-01 -1.0423788117494053e+02 -2.8715117757738440e+01 -4.4406148461256689e-01 2.9910889285186131e+00 3.0197270286078265e+01 1.0118872309546083e+00 -8.5070250431505315e+01 4.2916700057502624e+00 1.0471455186703103e+01 -1.3323611361859642e+01 -9.9901446179974738e-03 1.4804716544790522e-01 -4.5448511461963747e+01 -1.2755350912985961e+01 1.3205354763666632e+00 4.3769831900763904e+01 -1.2125207464830921e-01 1.1756184297665298e-01 4.2984736305053746e+00 -3.1985469293912672e+01 -8.4729629747507218e-01 -7.0190644865185003e-02 9.1172546843026296e+00 -3.2151865325242618e+01 -1.2224698778183887e+02 -2.3107768670937546e+01 2.0093691898185710e+01 -2.4392811712483056e+00 -6.8842874868482529e-01 1.0450700444630823e+00 -2.4395954977248774e+01 7.0240002768476160e+00 1.7343846450205957e-01 -1.7997243110162348e+01 1.0712732316235289e+01 -2.0332901230335634e+00 -2.7067627056560823e+01 -3.1202837421365643e+00 -9.0764709081101870e+01 1.7943157566855039e+01 -2.1220226194011138e-01 3.2972629979014090e-01 -8.6676399826005252e+01 2.3316916248453190e+01 5.7493393919632565e+00 -6.2824950375537307e+00 5.6786092987071823e-01 -1.0024296642143722e+00 -1.2984520481935313e+01 -4.0175094226607698e+01 -5.1529280146347807e+00 2.1875311708747471e+00 -1.3052575240918644e+01 1.0593815758495811e+02 4.9959896169981015e+01 -5.0910620079268867e+01 -9.1576916778916075e+00 1.5704156624926040e+00 2.0230373161850608e+00 2.0078148911022660e+00 -1.9127892522240906e+00 1.0698511206665010e+01 3.1106508527636412e-01 -1.7261471495108985e+01 -3.7019455099658614e+01 8.1381192202833326e+00 -3.5355867523358427e+01 -1.7608972293570009e+01 7.4327441121222364e+01 1.1093253902823062e+02 -2.1562367944111789e+00 8.7846947244877960e-02 -1.3924812202018982e+01 4.5105284765124814e+01 1.3703250231564105e+01 6.3892811877782165e+00 1.9295978239328138e-01 -7.8509681913348350e-01 -4.4431405576797872e+01 
      </Row>
      <Row Index="1">
        -1.6634361478961011e+01 4.6835391222299600e+05 -9.7970820410180238e+01 -5.4937989104004053e+01 -2.1292047467147413e+03 -4.4015017947414281e+03 -1.0225314556394260e+04 -1.2966560903836878e+05 -2.9446254034970254e+04 6.5399558210277030e+02 -1.4097891963364691e+02 -8.9395128375573009e+01 -1.2988500454961688e+05 6.0624809420747952e+04 2.9718733665484862e+00 1.4122748434705811e+03 8.4957534249898235e+04 1.0409277009983748e+02 -1.9849303135995741e+05 3.2637917678268377e+02 -6.2062389672869176e+02 -1.0742164765513508e+03 2.9219581427042311e+01 5.9392383011986752e+01 1.7351516181296811e+04 -3.3445527011067534e+03 -2.1042288580535700e+02 1.3522698214261155e+05 -6.5732207972604044e+01 -7.9717297063598579e+01 -3.0032307601405000e+02 -7.7562424197165674e+03 1.8054478703032191e+02 -2.2018839102241284e+02 1.0181412384101655e+04 -3.9415035240013916e+04 -9.8569470414246025e+03 -2.8160576339562162e+04 4.6840213994960704e+03 6.8815808060389872e+02 -1.5581439461288062e+02 -2.9744027792168356e+02 -1.2944304434856953e+04 1.1669365904187318e+04 1.0766716960403440e+02 -2.7770415209773664e+03 4.5778093413152164e+03 3.8252670356005819e+02 -8.5381621033107222e+03 5.5709586797836073e+02 -2.7154862168010150e+03 4.3420540601859670e+02 -9.1544479783829956e+01 -2.7340215564688265e+01 2.6755595504573124e+04 4.4720918388433347e+01 3.2487515269744057e+02 1.7916078999803140e+03 -1.6176848903154846e+02 3.6534327054463006e+01 1.0061944704879579e+02 -3.8230925598597249e+04 -4.3976093853681050e+01 1.9340468756477549e+02 1.4120672603783245e+04 -1.8081776945996680e+03 -1.1114248369511915e+02 -2.8503645775105961e+03 -2.1344067530998887e+04 -1.2001140067429697e+02 3.5233039456188180e+02 1.3477882863883360e+02 7.4154315595162043e+03 -1.5170185299196237e+03 -7.4787782907216069e+01 -2.9635352498074999e+03 -1.3696728144855588e+03 3.1558682215371391e+01 1.2372771706946456e+04 -5.9664419752616823e+01 -6.0774387055739753e+03 2.5650707955800317e+02 1.2000947824813579e+02 -2.1127134195502822e+02 -2.7226929602805882e+04 1.4642302558888099e+04 2.2799510363353917e+02 2.1376499611383122e+04 9.1850605901714971e+01 2.5826817735965534e+01 -3.6478656429244415e+02 5.0050199734294001e+03 1.7979843418550581e+02 7.2081359013421960e+01 5.7714293251880736e+02 4.2071735745327023e+04 1.0741971673804357e+04 1.6462223603392136e+04 -6.5737148354915480e+03 -6.3510186162540413e+02 3.3085983828025564e+02 -6.0246750449766296e+02 6.8571483956005613e+03 -2.0812578652655189e+04 9.8825058494905676e+01 1.6659369340763671e+04 -3.6321144624963192e+04 2.8912425661275165e+01 -1.6967531333938452e+04 -1.4441917643641318e+01 4.7319706005577245e+04 -6.4053943746796049e+03 -6.0549515854701326e+01 -2.3354962036691717e+01 -1.2981029657236300e+04 -1.0005242138656089e+04 6.7962718990924441e+02 5.3761876008275431e+02 -3.7492283949392458e+01 1.4124309667018565e+01 -1.1637838777936167e+01 -3.8771942997545120e+03 -1.5917493117677742e+02 1.5196821413581310e+02 -9.5440252030359738e+02 -1.2811945960250428e+04 3.0096348461279413e+03 -7.7650053766621859e+03 9.1907614053200232e+03 6.7922032707404060e+02 -5.9232604424215204e+01 -7.0915443522039510e+01 -1.7363107031046879e+04 6.7428844687638702e+03 8.1593760679200813e+01 2.2879551368080129e+03 1.0523068055922966e+04 1.1992057122537281e+02 -2.0173043534989964e+04 6.9757573344005880e+02 7.1059539926282450e+03 -2.2589179709166197e+03 -4.1622962606023407e+01 -3.7134529898036490e+00 -2.3045765197160508e+04 5.7215672562825202e+03 1.9201469098344444e+02 -2.1359044318407005e+03 -1.5629466075449798e+01 2.3266709012964931e+01 -4.7763132972268636e+01 2.9469938262837633e+04 2.4219034133185778e+02 -3.3853986365471805e+01 1.2051859597170107e+04 9.8267497315995824e+03 -4.6120056822451588e+03 -2.0745487682715582e+04 -2.0015995818697120e+03 1.2958746292838055e+02 -7.8234594648153404e+01 -4.8989285668414510e+01 1.8447125621562911e+04 4.2745000389443012e+03 1.1088937541240801e+01 -9.2756245187880495e+02 -3.4096037231716793e+04 -3.0297903302063901e+01 7.0134807002717425e+03 -1.9769531016712196e+02 -4.6029381187190320e+03 5.8205981239045991e+02 -7.0759665956659404e+01 -1.3067830155492896e+01 1.2013816926684449e+03 -2.7888539091136827e+04 -1.5963205054808986e+02 -5.5618152764026891e+03 -1.5106597244134818e+01 -4.1464158561312679e+01 1.5688570622749316e+02 -6.6143560953910346e+03 -1.1977755526598594e+02 2.7814109721396534e+00 -7.8291788284525801e+03 -6.4047368875107786e+03 -3.1149975717013585e+03 -1.6513304890677042e+04 1.2546562532040523e+04 -3.5311903918772387e+00 1.1732563024855645e+02 -7.7771974019104846e+00 3.2458046291016624e+04 8.9462164891043212e+03 -8.1418448549667684e+00 1.4509230844157275e+02 -3.8692305237627106e+03 -5.7609273529581230e+01 -2.2033998839634005e+03 -1.1150503051484829e+03 -1.1426693635338124e+03 2.9886345661850135e+02 3.4389308041782094e+00 7.4051974254542579e+00 9.8797706708664991e+03 -6.8419659554279351e+03 -5.5332133119897918e+01 -9.8199982574433670e+03 -5.0481213383324580e+01 -8.2312977986217639e+00 -3.8656787933946657e+02 1.8201911730486245e+04 -2.1642326894245343e+01 2.0976812919640413e+01 -6.7690814168554934e+03 3.2234648729779474e+04 3.0300832001141920e+04 1.5709683305302840e+04 4.1658694522477126e+03 8.5996514116974436e+02 2.4068706444408235e+02 -8.5175960313199118e+02 5.3244472304958326e+03 2.6954946495495111e+04 1.4431404499544647e+02 1.5890986630278439e+04 -4.4279982461431355e+03 4.2868831801834676e+02 3.2271569643149851e+03 -5.4264811213331996e+01 4.1128793926235601e+04 -8.8802232934884360e+03 -1.8557321190969333e+01 -1.8780791821597109e+02 -2.7665553893161032e+03 -5.0159065681812790e+03 7.1889238787509748e+02 -1.1911726829841451e+04 -1.5652685428438906e+02 -2.0660667300928772e+01 -3.0177499593018001e+02 7.3240483522494833e+03 -1.0354664079351496e+03 4.2047116204110205e+02 6.5298592906205686e+03 -2.1410189360036926e+04 2.2074661811629565e+04 9.3684292822764510e+03 3.8987599464080322e+03 1.4544503068328445e+03 8.1085810182535715e+02 -6.9236107475439110e+02 -1.5397627084958200e+04 -3.9310305525297154e+03 1.9455868177901505e+02 1.4256658407870244e+04 1.3068231873374350e+04 -2.7626014677016428e+01 -8.2830550880445626e+03 4.7138010882354538e+03 1.8850457475324001e+03 4.7971293836754776e+03 -4.8396504549651820e+02 1.7687445569353258e+01 8.8967167833630883e+03 -1.2240714675193583e+04 3.2673071237860859e+02 -3.8691935524973422e+04 1.6407408631785438e+02 1.7094519229645999e+02 -1.3824873782427127e+04 
      </Row>
      <Row Index="2">
        -1.5250329582158793e+00 -9.7970838864958154e+01 1.6807740750616443e+01 -1.1772178084609328e+00 1.2589269551752563e+01 -4.5579578921123584e+01 -2.3727493076090454e+01 1.9339072288243722e+02 -1.9483917309743970e+02 8.2210611270071299e-01 1.8990805317505162e+00 1.6118330384792143e+00 6.4250167146480081e+01 -1.7076271517891243e+02 7.5328345809925301e-01 -1.4315251788793045e+01 5.4105233078720346e+01 2.1771114852945708e+00 -1.5535603041641423e+02 -3.5336457836408584e+00 -2.0574478729620139e+01 -3.5584659780214878e+00 2.3830000814249179e-02 -1.5161697058716386e+00 1.4198978299391308e+02 2.7433359480786288e+02 2.8174671903418402e+00 -1.3357697331768591e+01 1.6696441168436049e-01 -2.9575239451443208e-01 -1.7573190472268116e+00 1.9491210647384065e+01 1.7403699414667777e+01 -3.5942580876590208e-01 5.7120485718571494e+01 8.6602847890282533e+00 -2.1335860197500665e+01 2.6965814777320713e+02 -6.3164274907289411e+00 -1.1870363548272991e+00 -3.7647435958118232e+00 -3.3869485162517705e+00 1.4572955409913106e+01 -8.6347420266495931e+01 -6.3129211871498628e-02 -3.8820009566172402e+01 -8.7916543598727912e+01 -2.6415518138244676e+00 4.8997516104929559e+00 4.9303653718711047e+00 4.5565187755214993e+01 8.5550393250359882e+00 1.5836586993831281e-01 -3.0297081519476815e-01 -6.1138782710803767e+01 1.1550940701080859e+02 4.7728552805646046e-01 1.4669603531807976e+01 5.2241480538187779e-01 3.8445091986907609e-01 8.8556192471660999e-01 6.8112994644714746e+00 -2.5618547998439368e+01 5.7490696587518397e-01 5.8239498959150680e+01 3.0989715777812592e+01 1.0965649034622402e+01 -4.3099462289022227e+01 1.1018949809156118e+02 -2.9778953921686293e+00 8.9967323999243765e-01 -3.8000563133828225e-01 -5.4905473058705184e+01 8.0458941972825357e+01 -2.0724265280795460e+00 -3.3187446423188263e+00 -2.1556258038524874e+01 -6.6262217599371342e-02 -1.1046754080072307e+02 1.4591514878307560e+01 6.1673205726650579e+01 1.5665191213011909e-01 5.1199211783700360e-01 -3.9879690572458104e-02 -3.3739063292300398e+02 -3.2413567410905273e+01 -5.4616191815879320e+00 -3.9877993028006216e+01 -4.0621969201752428e-02 2.9478219570506736e-01 -2.3882451113501677e+00 -9.1384027762193710e+01 2.3228859838605178e+00 1.1945674948330649e+00 -1.8417473526670189e+00 -1.6663103224776694e+02 9.0351649235307349e+01 -1.6576817849120519e+02 -7.9545472145616301e+01 7.2393106938215492e+00 2.1189486432760920e+00 2.0664726087353156e+00 7.2847169719639254e+01 -9.7070288397609588e+01 8.1451485921492317e-01 1.4003848587159563e+01 -8.1518100765454449e+00 1.4969230905516873e+00 -8.8520360138732485e+01 3.2534274919934356e+00 -2.0423215397309757e+01 -1.8124963796607851e+01 4.0502216091337395e-01 -5.1548124813322937e-02 -4.6439865282773567e+01 -5.0680415343742027e+00 7.8463419286650078e+00 -1.3239827970663498e+01 1.0546658127008657e-01 7.0647346160904156e-01 -1.4980136682049352e+00 2.6024326404437943e+01 2.4729543070025231e+00 -2.5883335157167581e-01 1.1323512327051896e+01 1.1064846561670275e+02 -1.5765916577537337e+02 -1.1679962412713098e+02 -1.2647253405024389e+02 -2.1102998140703826e+00 4.1173549580940572e-01 2.2429930930652922e+00 4.1321036845062167e+01 -2.1857750973712709e+02 1.0181500809923145e+00 3.4162417169883106e+01 4.1620095217831306e+01 -9.6790743837176940e-01 3.0212891910286373e+01 4.8722874480206873e+00 -2.1043738604314967e+01 1.1487589639527542e+01 2.5328305758493014e-02 8.1427354263303819e-01 1.0818445876425312e+02 5.5127825492757552e+01 3.9630041143867045e-01 2.1910322128565554e+01 1.6829516030512370e-01 -4.5960002884914686e-01 3.3745416649801809e+00 5.0040675589488615e+00 1.5341034272746374e+00 1.2313225161481750e-01 3.2973827089287042e+01 -5.3426943725504692e+01 1.9489633613622971e+02 9.9508979691899057e+01 7.8480762332147378e+01 3.1722270025745312e+00 -3.9712672107298159e+00 -8.5091982759737561e-01 -1.4291088542971613e+02 -3.5175432110075960e+01 -4.2395443152467759e-02 -1.6471070734694489e+01 -2.4386124284107154e+01 6.9808680409023860e-01 2.1661452148469957e+02 1.1328302129517440e+00 -1.0024519722700234e+00 7.6741353376211539e+00 1.0850518346223039e+00 -3.2831005454921358e-01 -2.5101875374122864e+02 4.4248989690423031e+00 4.4228504695121840e-01 -6.5325888085037782e+00 -6.1053146886254489e-02 2.9095416577309824e-01 -1.4544785906477706e+00 8.9255350438582354e+01 -1.0166278230026951e+01 3.1278584929808462e-01 6.4907302203267960e+00 -8.6117279526116377e+01 -1.3483367758283521e+01 -2.7495830856671876e+02 -8.8257780487735090e+01 -2.6324800727929230e+00 4.2350996470193074e+00 1.4274045827945958e-01 1.8441179403759810e+02 1.5976895962090344e+02 3.1110843587263698e-01 1.1129503141355903e+01 9.1774956300328796e+01 -5.7170022015931507e-02 -1.3918274276530838e+00 -5.9888547650710811e+00 7.9657746006598291e+00 -6.0422300444198740e-01 -2.4232352576033042e-01 9.6852765935858842e-01 1.2108429206216746e+02 -2.4596611126889137e+01 5.4939477317046439e+00 -4.9835322858696372e+01 3.0377133052741456e-01 -3.3876134432037541e-01 -5.3631974960227753e+00 6.5522388660511410e+00 2.2735075899288983e+01 2.5669393847199240e-01 -4.0219312971043493e+01 2.0962235326783684e+01 5.6763820346479037e+01 2.2986474077478664e+02 5.4432088105127576e+01 4.4884111973559246e+00 -7.2124026048274992e-01 9.8238112727590543e-01 -4.9868298201217698e+01 -2.4142278303326435e+01 -2.1508601299755181e-01 -2.9275881956170679e+01 -1.7592625703285165e+01 -4.3202048877885346e-01 7.6188312064590491e+00 9.3387087047610677e+00 8.9821683793449964e+01 -1.2867749633739006e+01 9.3148335066805732e-01 -8.9468958480837202e-01 -3.1357352705347807e-01 -3.7615296714362344e+01 8.3960052259157187e+00 3.8783230537208340e+01 5.2684906883711569e-01 8.2477786721960122e-01 -2.8668563043249957e+00 -3.2432395565290520e+01 -2.7297602673382507e+01 -3.1108517934609514e+00 -6.7378383554149224e+01 -3.7008816830926385e+01 -3.7426641890219599e+01 2.4438924827856674e+00 -3.7677710182990936e+01 -3.0700163130977511e+00 2.2135838500776444e+01 -1.3657744923741621e+01 -2.7019401202143172e+00 6.9249524611235813e-01 2.4102968343190669e+00 2.5685781301203326e+02 -2.4882834401091181e+01 7.3333495085669860e+00 -4.4466328840114357e+00 3.1419203753525650e+01 1.4131178795234450e+02 -1.2069505756266538e+02 3.1591739029846870e+00 2.1615580125573812e+00 -4.2785741365769525e+01 -4.5605012826773475e+01 -7.0359429691185826e-01 5.1939195003669951e+01 -3.3730665177644781e-01 1.1183047465113984e+00 2.6550050485898979e+01 
      </Row>
      <Row Index="3">
        1.8770906914827551e-01 -5.4937997124257457e+01 -1.1772178139066589e+00 3.0084478952921612e+00 -1.1285797658869885e+01 5.0916173900258599e+01 3.7719946267722285e+01 -6.4136635860341585e+01 -7.3336867902041078e+01 -1.7772260494788881e+00 -2.4407032643688136e-02 -1.9864129318192010e+00 2.1825465218257179e+01 -3.4647081480949957e+01 3.4819386223705652e-02 -3.3158033976699519e-01 -4.7973223245288395e+01 -1.1396795753674283e+00 1.2320540036851631e+02 2.1367317086976789e+00 4.4516761403969682e+01 -8.1361021185971580e+00 -1.1613201529130439e+00 -1.6081095375054608e-01 2.0395337097827372e+01 -1.5495032091367747e+02 1.9248812801395516e+00 1.2138758273544440e+02 -1.9082816887409287e-01 -1.5216656377974416e-01 1.9722527714447002e-01 -1.0936186068656568e+01 -1.0535757819340894e+00 1.7790932449303085e+00 -2.5434903834973237e+01 -4.5714566121997365e+01 2.1333830145016119e+01 -2.7359684888725557e+01 4.3332107399703723e-01 -6.3051676102602094e-02 -2.4697506589038626e-01 -6.7858575525423270e-01 -2.3132979894534692e+01 2.1490742565680893e+01 -3.5324282478071650e-01 -6.0495242688290611e+00 2.9439353498704293e+00 -1.4938593197717807e+00 4.2699413278965842e+01 -1.2304417655533917e+00 4.5187574926134786e+01 6.9441735857579339e+00 -2.1990875927959523e+00 1.5706643636711870e-02 8.9406710150415307e+00 -6.5666307711847338e+00 7.0437916887888130e-01 1.8810614060528508e-01 -1.8620676395898086e-01 -4.6404381601739519e-01 -1.0865914943157975e+00 -2.1565030925494106e+00 2.4472795165399095e+00 -4.5501808838711844e+00 -2.3497464152933238e+00 -1.9592500556469645e+01 -9.7841473815091334e+01 9.3438032067912246e+01 1.2125924460992171e+02 -3.8482757630134969e+00 9.6414893579985106e-01 2.4035717818711588e+00 -6.8944555998195057e+01 5.1857467443873333e+01 -1.7432713676103440e-01 -1.2412739367505502e+01 1.9663647733140877e+01 1.6446156901055606e+00 -7.1350125401725862e+01 -3.7114503750656502e+00 1.4228568819924732e+00 -6.0580753425030283e+00 1.0463006614750487e+00 6.8777814827535844e-01 8.7128464952362421e+00 5.2181412531019717e+01 -4.9798349847210099e+00 -1.1843164024635268e+01 2.6031680552629943e-01 3.8876010223386964e-01 3.8747144242270570e-01 1.9370619174406741e+01 1.4841417431240629e+00 2.1560767941886994e-01 -1.9938159621565287e+01 -3.0791915533503079e+01 4.4844311030915790e+01 1.5385439385455879e+01 -6.3350868171041910e+00 3.6538306615268672e+00 7.1898949008759760e-01 5.4745241692094637e-01 -2.8390045154308041e+01 3.7292033934193469e+01 -2.5789495547807517e-02 -1.6125829844689349e+01 3.1578369456748675e+01 -1.0705475395700554e+00 2.5834413721191865e+01 -4.7245075831271555e+00 -1.0744438237111581e+02 3.1363491088042419e+01 1.6854655508556362e+00 7.3069266983978365e-02 7.2359297393000190e+01 2.4105243772855118e+01 -3.7866142969764289e+00 4.2781655856194050e+00 4.1994583208644000e-02 -2.7733286769796583e-03 4.1621237216553530e-01 -1.2017638750146872e+01 3.7138299548230114e-01 9.6289778897223111e-01 1.4488483876838144e+01 -1.4112566580485955e+02 -2.2194932805444253e+01 1.3583214169185680e+01 -1.6987988633763649e+01 -4.5807384857328923e+00 9.4788020778708693e-01 -9.3259191057559276e-01 2.4161706412984387e+01 3.7218919103297964e+01 1.1131879050308598e-01 2.1271311209343402e+01 5.8830700054107723e+00 -1.8816115954921853e-01 -5.1380298523689305e+01 -1.7603435797621425e+00 -5.5554107084504707e+01 8.9575767715324695e+00 -8.3720839226117738e-01 9.5516517455534244e-02 1.0540134637583279e+01 -1.4503085045262083e+01 -1.4902142844529951e+00 -1.1695906971098253e+01 -7.9968864677608525e-03 -1.6996160203023974e-01 -1.0827817135037299e+00 5.0192500803076641e+01 -4.9736776889127365e-02 7.8095756089162371e-01 5.0660826047099281e+00 3.7048678499957369e+01 1.4069418686593124e+01 2.6008720550123584e+01 3.4463285437012132e+00 3.7127730339148588e+00 -5.6066952533046710e-01 2.2787282679371165e-01 -4.8593604321099548e+01 5.0091151676757661e+00 -3.1994067738424711e-03 -4.1548048388823062e+00 -9.2470104764621368e+00 -3.9577977893168359e-01 -3.3460808566862227e+01 1.9660824191917331e-01 1.6619148894886543e+01 -5.9868776124841681e+00 -1.0102575271009624e+00 4.3776938989147206e-03 -4.5277076037395688e+01 6.2444567147988304e+00 7.9887178006231196e-01 -4.5895179447774808e+01 5.1991686012915570e-03 -1.3708388967836860e-01 3.4638989540320997e-01 -2.0825955669396940e+01 3.0374832914711405e+00 -5.5244798825003272e-02 5.2760850364018566e+01 -1.0856328635182630e+00 -2.4504780952754075e+00 6.2998899948774465e+00 -1.5896187052914348e+02 -4.4653803930561098e-01 1.1288730824066180e+00 1.4552601772893875e-01 2.9606769091565560e+01 -3.8842686429111268e+01 5.2814213241837660e-02 1.3568341889805722e+00 7.0052310483608942e+00 4.1938403634897164e-01 -6.9493684819607509e+01 1.0622553957752927e+00 -5.1260367083010472e+00 -6.4906986662266597e-01 2.0129795204414911e-02 1.9086207070830813e-01 2.0820080293293969e+01 1.6416204686047042e+01 4.5088533530891217e-01 4.1164456082252400e+01 5.4297726267938273e-02 -1.9246791156355431e-01 5.6920074661628206e-01 -3.1534201804458317e+00 -2.1179833224665181e+00 1.4100020486736957e+00 -1.8734637707824355e+01 -3.2672043485872493e+00 -2.7367999812716274e+01 -6.8359145427308370e+00 3.0547585841492808e+01 4.9298675077345688e-01 9.7372470504980946e-01 1.8693988050701826e-01 -1.6101469189892395e+01 -4.1565908828276804e+01 -3.2386372635122651e-01 -3.9627065505272867e+01 2.3980651552738721e+01 -1.5573698806749068e+00 1.6919262197057492e+00 -5.3978010903591889e+00 -2.3227810846913645e+01 2.1666502210190906e+01 -7.7030398947484091e-01 5.6153061947994021e-01 5.5764802549268477e+00 -3.0508097794574120e+01 -2.9513926691280945e+00 5.3932658487824483e+00 -1.5321887922152255e-01 -1.4170484117785787e-01 1.7112541376151389e+00 3.4758871883490471e+01 3.6504608766994053e+00 -2.3547256011852906e+00 1.9516228483296782e+01 2.7854437156573617e+01 -1.4409239273764388e+01 2.4063591607858925e+01 -1.3016513667656406e+00 -5.4271632458277574e+00 5.2834791797042566e+00 3.7275724640584640e+00 3.3204432524767093e+01 -2.7869678904507779e+01 -7.5193734610626173e-02 1.2729726978570947e+02 1.1978526981491200e+01 4.0008395290937404e-01 3.2048987911007991e+01 -1.0417911908589193e+01 3.1205262456810523e+01 -3.6767171486941038e+01 -5.7879594579646634e+00 3.8155225908518631e-01 3.8727493474013386e-01 1.1161198145563255e+01 -9.4029411036476240e+00 -2.3888837715012912e+01 4.0606431030810075e-02 -4.2713596100592488e-01 5.9553526732239535e+00 
      </Row>
      <Row Index="4">
        2.2291305857677511e+01 -2.1292046630496552e+03 1.2589269981116274e+01 -1.1285797291153216e+01 1.1983239853621508e+04 -6.9216460123902125e+03 3.4038365073111963e+03 4.0904458730452407e+03 -3.4479925786618121e+04 7.9254904471338790e+01 -2.4402248547277230e+00 4.7020920837410230e+01 1.5521769828834126e+03 -7.4172542244693777e+03 3.9132217684930768e+00 -2.1711727656245301e+02 -7.1668088543090362e+03 -4.9096415666655009e+00 -1.8055244733059750e+04 -1.9348427973597899e+02 5.1152235973431038e+02 3.4573770907182094e+01 -7.8550195611814608e+00 -1.1098543703401708e+01 2.0885974054102794e+03 -2.2719218184963702e+04 2.3320000356653157e+01 -5.2587293139847643e+03 1.5855681238864625e+01 3.8836498994485713e+00 5.7491500711632703e+01 -1.7403470964124772e+03 -9.5358141695804761e+00 6.1914503038754503e+01 -1.2518747883769853e+04 -5.3247442840943704e+03 -1.0758473159011621e+04 2.2317942485281337e+03 1.0417984515647928e+04 4.1697835996109490e+01 -1.1209589614556458e+01 6.2901571393839475e+01 -2.6396829144476105e+03 6.6112658692187870e+02 -1.0301832416250019e+00 -5.0199602244968162e+02 -4.6390229125505375e+03 -1.9895762683298597e+02 -7.7139892579135421e+03 -2.6740033357831754e+02 -2.0670237780675479e+03 6.8854040529662495e+02 -5.3010057617032821e+01 -9.3771119606778619e-01 1.3181061995789718e+04 3.9698711438705250e+03 6.3833912044975612e+01 -6.9791890577915183e+02 3.1337007814610065e+01 2.8726204860258342e+00 -1.6949336885609682e+01 -5.6761768990548017e+03 1.6413085313011720e+01 -2.5720452813375509e+01 -5.0843642524656243e+03 7.6491014336597545e+03 -6.4599144282436328e+03 -8.3673062277182071e+03 2.7924853191897600e+03 1.2835007167856980e+02 -4.1151200413547080e+01 -8.5382481916558561e+01 2.1812618261665993e+03 -8.3270143916770830e+03 -3.0282347058649179e+00 3.4319017676710939e+02 -2.1723237879003722e+04 3.9601935937467616e+01 3.0183300336770990e+03 1.0324782030633646e+02 1.0406539625826108e+03 -7.7761563291868015e+01 4.0407146410859021e+01 4.2085908430272639e+01 1.2820995652311674e+04 -6.2675299271513422e+03 -3.6091817935312257e+01 5.1718192309181668e+03 -4.0308684525794021e+01 -7.0396801711791177e+00 1.9545461996993421e+02 5.8240912833915172e+02 -1.1590958560402086e+01 -4.5738796727156455e+01 8.7658549685548132e+03 -8.1496843808719154e+02 1.0944905040320457e+03 4.3631507425305190e+03 -4.5006480693526410e+03 -1.1066677972751407e+02 -8.4937060215613613e+01 6.9110665379127155e+01 8.2933475982245932e+02 -8.2812594746299146e+02 4.5960708532035177e+00 -2.8361271047354307e+02 -4.0978964587983137e+02 3.6513309911408143e+01 2.4677147812625117e+03 8.2556813197356078e+00 9.0019276335051256e+02 -1.3561245184105624e+03 -1.9796023506306526e+01 -8.4712871376563559e+00 -5.5573558902180303e+03 -5.0594232377326261e+02 -4.4264056677829547e+02 5.5465122600395023e+02 -3.6825314840228884e-02 -3.2570220078153469e+01 7.3557845323091769e+01 -5.6473991387072401e+03 5.2634344602251630e+01 -1.4814864264585243e+01 8.5462716781040672e+03 1.4731601184662172e+03 -1.2883781288481776e+04 -9.3276398217330570e+03 -2.7279926137449474e+03 1.7422078125530209e+02 2.1125169463731826e+01 -5.7871331396907646e+00 1.4688527124958255e+03 1.7554725507011626e+03 6.1126536613110263e+00 5.0733833424113760e+02 -1.5521517394857230e+04 -3.5814017024178689e+01 8.4329600954689045e+02 -2.7883952196859570e+02 -3.2251761285957323e+03 -2.7109587139238170e+02 -3.4592978754527870e+01 5.8655103303823797e+00 8.8202035524324201e+03 -1.5937194175141849e+03 -2.0074177264741627e+02 3.3877906337145414e+03 3.8791452827752577e+00 -2.9012189054406505e+00 -4.5136400951299656e+01 4.0682981775782941e+03 -5.7519927815506925e+01 -9.6051669186325714e+00 1.1648632566428728e+03 3.0196549989798368e+03 5.7301328839537655e+03 3.6681618302671050e+03 -5.7112111715028350e+03 -7.9523534999825586e+01 3.9740120935029012e+01 1.5174863338704402e+01 -3.9519514903903910e+03 -5.0528098030760402e+03 -1.7485804084344974e+00 -3.6365205196033799e+01 4.5557240224824636e+02 1.0293128631150947e+02 5.8914807341703745e+03 1.0761918426563540e+02 4.0332451144801234e+02 -4.0301613699036022e+02 3.2878118310859186e+01 -7.4140607488387933e-01 -4.8406999359045822e+03 -2.0853117446532938e+03 -2.6053363591087873e+01 1.7100594135672854e+03 2.3017546175234722e+00 2.1872096154887839e+01 4.7452418341433855e+01 3.1977784053950199e+03 1.3552507857456254e+02 -2.5392019141943063e+00 5.6674171401287967e+03 1.6074822461378667e+03 -1.5159852278572357e+03 1.5996371003344029e+02 -6.4228137015566317e+03 3.9211775705197063e+01 3.8910947179896660e+01 3.4769746650826434e+00 -2.0020889167372370e+03 -5.6213097979499253e+02 -2.5219604846871135e+00 1.2683180039295252e+02 4.3710022455856006e+02 4.6255283776165285e+01 2.1720031805825529e+03 4.3714821168229008e+02 -1.0800263072645773e+03 -1.9628454492299664e+02 -2.7814536776517360e+00 1.2778994921663390e+01 6.9584255381516959e+02 7.7329149944038081e+03 -7.6618397791828571e+01 -1.1811286263735019e+03 5.8631834994802716e+00 1.5454629082901178e+01 2.2467604030601939e+02 4.2717947373186653e+03 -8.9324580665486337e+01 -2.5354787828654864e+01 5.4334578203622768e+03 4.9581500931719738e+03 -2.9216694267667699e+03 4.9835307630019643e+03 1.9839615835232999e+03 2.3667182677674714e+02 -7.4433247556845458e+01 1.3482999762754866e+02 2.3033582878612428e+03 -5.0948999044500742e+03 7.5447402443167420e+00 -9.8469653779991177e+02 -1.3867838098852153e+03 -8.1466059872983237e+01 3.1477394811302274e+03 -1.3177653952616456e+02 -2.2381184386734594e+03 6.9166471749579182e+02 -6.5360261305094582e+01 3.2255070699988920e+01 6.9277469406755881e+02 -6.6289606025899993e+03 -2.9305349794106996e+02 -9.9586528331950740e+02 9.8815886712605057e+00 -4.3283534985226055e+01 -1.3086120839192472e+02 -2.3453444324787351e+03 3.2092978322518775e+02 5.5818030479611842e+01 -7.0794428502380424e+02 2.5167342298210988e+03 -1.3858527351295395e+03 -6.3652477796264666e+03 -6.4651808743864967e+02 2.2265645573053487e+02 -1.2545819924873786e+02 1.9908835440805936e+02 -3.6693326183947788e+03 -1.6143483366908117e+02 2.0518628027626214e+01 3.4622077397532421e+03 -9.9501684960197588e+02 5.5405312664643338e+02 -3.6865911418537867e+03 -1.8204018969382532e+03 4.4764571063920166e+03 1.3104907622392334e+03 -5.3822007366462323e+01 3.0119947250072698e+01 1.4637241487907295e+03 2.0018787279237636e+03 2.9526294549534646e+02 1.5604068789296507e+03 -2.5418684096243140e+01 -9.4305855668293326e-01 -1.2688669520502441e+02 
      </Row>
      <Row Index="5">
        -4.7500337261337705e+01 -4.4014987787352602e+03 -4.5579578060592873e+01 5.0916171242971849e+01 -6.9216456574442918e+03 6.6789779603991497e+04 -1.9682044442048693e+04 1.8618974360922981e+04 4.2210024061316915e+04 -3.8292253587014420e+02 6.0214880603779882e+01 -2.0801591680532134e+01 -5.3493428346824185e+04 2.1714512523327925e+04 7.8463440085485288e+01 -1.1230311665764134e+01 -1.9536867402854426e+04 -4.3954313778030631e+01 7.9896402137524943e+04 3.8931567125160547e+02 4.2445982990682433e+03 -4.5498678317825056e+02 1.0321713108178874e+02 -3.0271402985673991e+01 1.1841897980808439e+04 3.0633840401130055e+03 -2.8061698465917090e+01 -1.0855529487120875e+03 -4.5834202463679752e+01 1.7685122917785069e+01 -1.6979109777876130e+02 -6.3567117186378255e+02 -1.3839693513942370e+02 -6.1479321109452066e+01 -1.2457394964168410e+04 1.8794149291145983e+04 3.0133763218618697e+00 2.2153250097531818e+03 4.8922085172898369e+03 1.8622584773835570e+01 9.0490427640055287e+01 4.7144901430786831e+01 -1.4348958042311726e+04 -1.1851562279254780e+04 6.3353712807836693e+01 -8.0127710429052593e+02 7.3907808540158476e+03 5.0240518668386744e+02 -5.5826519730826276e+03 2.3819825617095262e+02 1.3732319637299640e+03 2.4971771038035070e+02 1.2587117369259443e+02 -2.5948137260122223e+01 1.0201906969492549e+04 -4.4806253989551460e+03 9.4397545967092583e+01 -7.8390588736058271e+02 -2.0736112420877657e+01 1.4407937824306430e+01 2.4993209816989634e+01 -2.4334714678376171e+04 -5.2442350335556284e+01 -1.0510827447866139e+02 7.0270408750788929e+03 -3.9860468571481928e+04 1.0273419610650060e+04 6.4846896606101654e+03 -2.1478907025608103e+04 3.8510511372446604e+02 7.5453389028288626e+01 -9.3663232231040979e+01 -4.9433003749878044e+03 8.3455036060038401e+03 -1.7665927660442244e+02 -1.6911787104039818e+03 1.0687132636554365e+04 -1.0376812331589434e+02 -3.4854064850485287e+04 2.9070925449621410e+02 -1.3195227151929394e+03 -1.0803202242730310e+03 -1.5245011947034388e+02 1.0874806929884710e+02 -6.8698116439109872e+03 3.7870512553356311e+03 1.8988888280436774e+02 -4.3596204088007962e+03 1.1722958788524357e+02 -2.9014136367582523e+01 -3.1083185707900367e+02 2.6941766609705010e+03 1.1500066568244199e+02 9.8406958972175289e+01 -7.4641246788730314e+03 1.6910061182788108e+04 2.4127656068247779e+04 1.6931916165626462e+04 4.2272718868248921e+02 -8.7416390845324759e+02 1.7897682250806020e+02 -3.0649703652584270e+02 3.7976457938872227e+03 -1.9886972070520034e+04 1.5377567656999048e+01 3.9718208007433382e+03 -9.1888188103782741e+03 8.1815366746311156e+01 -5.9227603490589845e+03 -1.4061822067571366e+03 4.7743438128440339e+03 3.8590513782877242e+03 -1.5148372047961396e+02 -2.1942673240639550e+01 4.4499664838953104e+03 1.3854796781389887e+03 4.1943948274696450e+03 -8.7100757290651381e+02 1.1570614496513969e+01 2.9631807442902016e+01 3.3789251648512490e+01 -9.3705967265136496e+03 3.7989084578871041e+02 6.6196520901339809e+01 1.0153553509116525e+03 1.2770875975278086e+04 -8.6140174020985287e+03 -3.3745441359774559e+03 3.9541738385165008e+03 2.8108885175687408e+02 -9.1912894883438483e+01 -9.9135477940911045e+01 6.1732248936819542e+03 -1.1274417220298355e+04 -1.6597732296944621e+00 1.2885947244480269e+03 -3.4234618656391103e+02 -4.2713199664619225e+01 5.8095638058470067e+03 6.4132023984102580e+02 -5.8903590018421328e+03 -8.7494330316138587e+02 4.2581062247178131e+01 -2.1469392818263159e+01 -5.9897379394447762e+03 -6.6995973383933888e+03 -8.0259135237318475e+01 8.2024674261488635e+03 -1.3186597549105684e+01 -1.8615306420590073e+01 1.7502421579650129e+01 1.5966772281353875e+04 1.4180800185437033e+02 -9.4319426678916884e+01 -1.9573849388036979e+02 1.3586080585319249e+04 -9.7222932443058617e+03 -5.9279575373131520e+03 2.6570972789548396e+03 9.9424215062320172e+01 -3.6094115463208375e+01 5.8150285481512341e+01 8.4445516788953028e+03 8.4925000991859415e+03 2.0430112939465442e+01 -9.8415899308086432e+02 1.0948829306635609e+04 -7.4366660976259027e+01 -2.1635302014219560e+03 -5.2912312280054266e+01 -2.5385179789262947e+03 1.7209817251361414e+02 -3.6396127801140032e+01 -1.4966000728268952e+01 1.0409077116721159e+04 -5.7188718554669840e+03 -1.2846045228487191e+02 -9.7806619972732988e+03 9.5433924311530784e+00 -6.2451729180044318e+01 2.2575302275367140e+01 1.2873714687063708e+04 4.6766229472392621e+02 -1.3435782174257270e+01 -5.7014863572232762e+03 -3.3993136969088135e+02 9.8436914325032922e+03 2.1245496267733251e+03 6.2998371444373552e+03 -2.6352170821723672e+02 -1.3573576269271825e+02 -9.9184151721957790e+00 -6.2143739263722009e+03 6.1699093166300008e+03 -3.3732970361000298e+01 1.5806072153473775e+02 1.3819509205646787e+04 -1.1982281451231634e+02 6.5449494085079059e+03 -4.6605244678322532e+02 -2.6390830609245268e+03 -1.3692316795902735e+02 2.4667627095789140e+01 1.5409927920568432e+01 -4.9044473319679601e+03 2.7410925826547791e+03 2.6832577460196597e+02 1.9763581660429918e+02 2.4406759103876084e+01 2.2843657395489817e+01 -3.6342904752020468e+02 7.1670090093800254e+03 -1.9470668486933027e+02 -2.5313080626760794e+01 4.5392846215538048e+03 1.2565707765953675e+04 4.6349623954413819e+03 5.8411620779980985e+03 -6.4988082868616584e+03 -9.2672307574725392e+02 2.1051986719105963e+02 -3.8279232568685507e+02 4.3129822194077860e+03 1.7191132328107517e+04 -4.0415577197646485e+01 2.4507900078183739e+03 -1.5006779647501280e+04 3.3400015951648538e+02 6.6166548091764271e+03 -1.1364439734047965e+03 1.0626191519514823e+04 1.7953678862959757e+03 -1.0245051379487336e+01 2.1799929473434190e+01 -1.2777523251691495e+04 4.6008811908848729e+03 4.2338628543378145e+03 -2.4266518734109031e+03 2.4112124882450743e+01 1.0637101491912813e+02 5.4844377611150321e+01 2.5073868585629580e+03 1.3696023582189791e+03 2.5082856234430758e+02 -6.2814627836618747e+03 -4.1656169706595058e+04 -2.0069933436148367e+03 -6.9296351322336086e+03 -3.4925105370859260e+03 1.1182249230839432e+03 6.8947971325532990e+01 5.3494204979118183e+02 -1.0588799762433646e+03 4.9167481159102890e+03 8.7610226000591808e+01 1.2354168308593069e+04 -7.8932852951342438e+03 -7.5418133897910320e+02 3.1049544335105147e+03 8.2259773557957305e+02 -9.4242763362873084e+03 1.3048246380168592e+04 -7.1971560477383562e+01 6.0024569373622398e+00 -1.3494829769771695e+03 7.7215504323478726e+03 1.9211822972051878e+03 -1.3834711399972430e+04 -4.4323768061994826e+01 2.8076823740115088e+02 1.9797315207178397e+03 
      </Row>
      <Row Index="6">
        -4.4971943944934178e+00 -1.0225315454016349e+04 -2.3727492219211484e+01 3.7719948354414171e+01 3.4038363136029261e+03 -1.9682044337322179e+04 2.5126655592180403e+04 -5.6395571400544923e+03 -4.7264028248328512e+04 7.5291585877650036e+01 -2.3177639771347227e+01 -1.6142729528426013e+01 1.1156449821443119e+04 -1.0840337223128870e+04 -3.5522115486069069e+01 -5.3866255442703391e+01 4.5036561711616378e+03 -4.6702164898333173e+01 -1.1483554102433991e+03 -6.2039070933802094e+00 1.0912654455865568e+03 -1.1961830313875764e+03 -9.7937580852393054e+01 1.4831556668847680e+01 4.7167741506379252e+03 -1.3763929190623265e+04 4.6346420844984436e+01 2.0384345740160388e+04 2.1069496345647980e+01 1.0092825427787234e+01 2.0492330598244834e+01 -3.7232104076566138e+03 -9.1099408680959812e+01 1.0701641587184263e+02 -3.0123944527161402e+03 -1.7375017262450918e+04 -1.1835679832717746e+04 5.5129631378812428e+03 4.8459619395812970e+03 -4.0690541780512035e+01 2.8704166057508345e+01 2.6789307450877466e+01 2.5590741152384603e+03 -1.4481827112878154e+03 -4.9058198828113603e+01 2.8735403236166161e+02 -4.0440385897231790e+03 -2.7111488495032785e+02 -7.5812872680539849e+03 9.3552108498620157e+01 1.5145958167292429e+03 1.9526290607406472e+03 -1.6998666435205894e+02 2.8542329955806519e+01 -4.0468701710686109e+03 5.6241625455767062e+03 -2.3025729036615854e+02 -9.2109237450812725e+02 2.7964908477585688e+01 -2.9264351223377957e+01 4.0636242398695686e+00 8.4116960372286485e+01 5.3103095525977096e+01 -1.1083387833944826e+01 2.3345053624881361e+03 6.6647312284491745e+03 -2.7573737532566083e+04 -4.2664552478497444e+02 1.8472459603509851e+04 -3.2859049394628505e+02 -2.3808341684547507e+01 6.3953777107482367e+01 -6.9519672401342959e+03 2.4474469841837818e+03 9.9406240591954827e+01 1.4498790424585854e+02 -9.5531215744729670e+03 7.2848119418568714e+01 -1.3736388888466365e+04 -1.9938245973720493e+02 8.6128123677509166e+02 9.6288247446994649e+02 1.1041401741936976e+02 -2.1472546862467503e+01 2.5802456014279096e+03 3.2786601800613171e+03 1.1310970981845031e+01 -3.5491570314501550e+03 -2.2258285755328814e+01 -5.2431791282243736e+01 1.0096166025820941e+02 2.7122828665365337e+03 -1.2483226722040240e+02 -8.6300679984513522e+01 -2.4362392004052267e+03 -8.8743372545836137e+03 7.0975370228397769e+03 -3.1226075953688996e+03 1.2530074259751837e+02 1.2852151658843627e+02 -5.6836011357557446e+01 9.4059001451711737e+01 2.4168613330687731e+03 5.5267452598366890e+03 -3.5642692771103469e+01 -1.8356974086918349e+03 4.4854054986008432e+03 -6.1830453795452968e+01 5.3124122356619246e+03 4.1677834181933218e+02 -5.7140186868626761e+03 -8.0452784874578595e+02 1.5754430855113139e+02 1.3822763121487663e+01 -3.0077649280527203e+03 -5.2741723905493054e+03 -7.0945708478906135e+02 -1.1560009820521809e+03 -7.0697046797714123e+00 1.1710537923257682e+01 -1.8272682162519764e+01 -3.8891019874200429e+03 -1.2139836303944917e+02 -6.3082381005715433e+00 -1.3647617921694764e+03 -1.4027142354836609e+04 8.6807131653049146e+02 -4.6593833703464115e+03 -3.2202486640825482e+03 5.8732931033704816e+01 1.3230159481647117e+01 -1.3461111599749495e+01 2.8511733528180484e+03 -1.6573650150954636e+03 -3.2532802598595403e+01 4.9458667936888691e+02 -3.4014581116061527e+03 -7.0003106561507202e+00 -2.4781657473378818e+03 -9.3049919942655265e+01 3.6966828452905656e+02 1.7653101607425115e+03 -3.8120691288177603e+01 1.9179170440229495e+01 5.3186557906449343e+02 6.3877961963842172e+03 6.4207453615183141e+00 -4.5534427464848504e+03 -1.3261195663317769e+01 1.2571123289054734e+01 7.1903723664156214e+00 -2.6168978178522302e+03 -5.1195759686939368e+00 4.5259855968995204e+01 3.3226001019845335e+03 -3.8995614142609084e+03 8.9526570079172379e+03 -1.4618603341348429e+04 -3.6086673584701639e+03 -1.5757460513859996e+01 1.0980543999036549e+01 -8.2167481442826116e+00 8.1335391200694066e+03 -1.8632158339813759e+02 -5.5865381606864783e+00 9.8034954665252684e+01 -1.0369281206481151e+04 3.5509475256118577e+01 5.7038230257290561e+03 -1.3838698864273738e+02 2.4914397302055909e+03 -8.0134957151766935e+02 -4.9567406552836147e+01 7.8954143581332810e+00 -3.7591449563966489e+03 -1.9650084415462838e+03 1.2260196550662786e+02 3.1678905725961858e+03 1.0870566358728804e+00 1.4444061152692541e+01 5.1954375183359602e+01 -1.0760715365448843e+04 -1.7377628991956902e+02 -1.1718360561560292e+01 5.8221019593734936e+03 -6.9674798626816773e+03 -5.9267858288142925e+03 -1.0706710584435594e+04 -7.7306824023236113e+03 1.3508847472662751e+02 1.9842160783291849e+01 1.3759109654103936e+00 6.5373552924782998e+03 -3.4616215083615716e+03 1.5916956936423958e+01 -9.4283459102863247e+01 -1.0127806891975582e+04 4.7301357396171795e+01 -4.0661149259660615e+03 3.9075395823146829e+02 8.2601303175320993e+02 -6.4924322273810702e+01 4.3894071489809239e+00 -1.0736433956803342e+01 2.6357624761833108e+01 -6.9221153142974435e+03 -7.5627498858874660e+01 2.0216942712393939e+03 -2.9656383033207021e+00 2.1986258060789755e+01 9.1285186741057657e+01 -1.9517366661021733e+03 -1.1316462468809004e+02 5.2271927894089259e+01 -7.3644770169815965e+03 1.1643545924855171e+04 -4.8806878138246866e+03 3.9809266958801945e+03 7.9166273861097579e+01 9.1133051636174741e+01 -6.4674607295371516e+00 1.5071898157876680e+02 -9.2030005367076592e+02 -7.7395525257045447e+03 -2.0830610127112266e+01 -1.7639105080655036e+03 -2.6245647783265304e+02 -1.9941416309627903e+02 -4.3928026753525883e+03 6.1876303545990368e+02 -1.8974565418243371e+03 1.4773288630356699e+03 -2.8977345034167115e+01 3.5988957916885070e+01 7.4121789165373357e+03 3.8969948434798243e+03 -7.2680757424148794e+02 1.4513085932238835e+03 1.7077899078331335e+01 -5.1817037948526945e+01 -2.0474981355536715e+02 -7.5617010388996241e+03 -4.9132720872390837e+02 -3.2218709980923187e+01 4.5016577998524244e+03 1.2019490430787171e+04 -1.6950724590557820e+04 -9.6288658259480871e+03 1.4063886830375916e+03 -4.1031115687351303e+01 -3.9703154773392271e+00 1.2523985176413092e+02 -4.3166589987537282e+03 -3.0460621393695801e+03 -1.0049830345960056e+02 1.0298099949356329e+03 2.9326614339642242e+03 2.6980337434686635e+02 -3.6805662602675920e+03 -7.5714792663757589e+02 7.5505807024615424e+03 -2.0450150280501311e+04 -2.4690546224269536e+02 -1.5808135624085139e+01 1.2897200897117862e+03 -6.6356691825133757e+03 -1.1231145137432304e+02 3.5137276579614195e+02 -2.1832313327344565e+01 2.4767121855803182e+01 -6.3766451331673370e+03 
      </Row>
      <Row Index="7">
        1.4098850773484529e+01 -1.2966561136595494e+05 1.9339071934912755e+02 -6.4136638205928122e+01 4.0904460568575560e+03 1.8618974996600678e+04 -5.6395571012934852e+03 1.3542967433975093e+05 8.7460239863198003e+03 -1.6968175802280558e+02 1.3489197317023772e+02 2.2724842741871635e+02 -5.4163920646823899e+04 -6.2097786840762474e+03 4.5659687976409103e+01 -8.0051787141979889e+02 -5.7621698926469086e+04 -6.1173606422415475e+01 1.7558707443113784e+04 9.6967123976265441e+01 6.8448067555043599e+02 -5.8198518469758392e+02 -2.5155120934786638e+01 -6.7889325260202753e+01 -4.0106615187290481e+04 -6.0517720788808423e+04 1.0134084017566619e+02 2.3629690454740055e+04 2.4713590055718271e+00 7.8646837452910759e+01 1.7203101172225925e+02 -4.6668909732366137e+03 2.2616416483184261e+02 9.0071228598444037e+01 1.7158725216473663e+03 2.1450352798841865e+04 1.1354551356161046e+04 -3.2636999241969388e+03 -6.0333157569236391e+02 -2.2284390116162058e+02 5.6771342398783048e+01 1.3051519208302284e+02 -7.6488018143217996e+03 -3.8448295398009941e+03 -1.7454937814724484e+01 -6.2920080521518685e+02 -2.1325763782300815e+04 -2.2361440100852880e+02 6.1407661504744119e+03 -3.9182299515379304e+02 6.2253471709848018e+03 -1.5378452367309669e+03 -1.4812837447492041e+02 -1.2385818439031709e+01 -7.3102781425962348e+03 5.2298721400394670e+03 4.0700645220854987e+01 2.5650527408307353e+03 9.7732364926247200e+01 5.1605215365004952e+01 -1.9150036858563249e+02 6.6880534470614657e+03 -4.4490236173565847e+02 5.8704339023569105e+01 -5.0847581449449763e+03 -1.8519833225891489e+04 7.3146161218008028e+03 -2.8569138010869818e+04 1.1178980776286269e+04 2.7330649245865243e+02 -2.3997931073052240e+02 -3.1307189515220284e+02 -3.6792955683388864e+03 1.7147311378020306e+04 1.2130055367913113e+02 2.0576529322723309e+02 2.6519927309327803e+04 -9.7532206620132484e+01 7.4252527573207553e+03 6.4121846556890705e+02 4.2254546263625016e+03 -9.1698114344059013e+02 -8.5146916726116046e+00 1.7504671251405443e+02 2.4990037809894420e+02 7.4666130897896289e+02 7.8339335659152653e+02 -4.8111958396941081e+03 -8.7105297715440884e+00 -8.7863570465628968e+01 3.7674753120187006e+01 -5.6505509052813541e+03 -2.1622880240057685e+02 8.0511773206235489e+01 1.7535501680022221e+03 -1.6452335665689461e+04 -1.7015355219326870e+04 -6.8180011993527442e+03 -5.0959574420677018e+02 -1.1215438740065656e+03 -6.9329158295553668e+01 1.7717616189746764e+02 -2.9789331618952588e+03 3.8815824099620659e+03 -1.2491683540360390e+02 -3.8631652113818755e+03 1.1903110878664507e+04 1.1434441356600300e+02 1.6505814909229957e+03 -4.4849280332556577e+02 -2.0979690062042766e+04 7.8425332550216599e+03 -8.1528788099540733e+01 1.9607970204280619e+01 -4.9712128816047771e+03 1.0491630067146472e+04 5.1764847828557777e+01 2.3252324020572341e+03 3.4518335719513686e+01 -4.5444135254223227e+01 4.3222392503970013e+01 -1.5192927014152454e+04 1.1732903684729001e+02 -2.7614019231813018e+01 8.6518153177552867e+03 -1.6134091311838210e+04 -1.7490683201432461e+04 -2.4999399752065074e+03 -1.6105576083856165e+04 2.6140436246374958e+02 -9.2895520249106866e+01 -4.7741892475471246e+01 2.1501222033952450e+04 -1.7343463835914139e+04 -1.3876529325457656e+02 -1.5349402102329259e+02 -1.0407895833497154e+04 -6.1437588492593818e+01 -1.1083760483678911e+04 -1.4301053621405495e+02 -5.4340686393335636e+03 -1.8172641543861635e+03 -7.8219068764944254e+01 -4.7277462555124643e+01 6.3357483958993034e+03 -2.9765639542719859e+04 3.3268386579617879e+02 8.4583552730110205e+02 -1.8695230828455408e+01 -1.0480641125393511e+01 1.3928735996319085e+02 -1.4182778854844619e+03 7.6636183298314336e+01 -5.9812940922853144e+01 2.7047422946197912e+00 -4.2530109441681152e+03 -1.0073338565809336e+04 2.0325977774714451e+04 -1.0994680424760954e+03 -1.1157261837577556e+02 7.5790534717449461e+01 1.1346399664872379e+02 1.1655523654317403e+04 1.0820612634581747e+04 -1.4465624226228835e+00 -7.0176419919614807e+02 1.1537569507709228e+04 2.2015529709000759e+01 -2.3031316159169073e+04 4.2390280151223305e+02 6.0728401640154516e+02 -7.1352979923721068e+02 -9.9964052393216235e+01 2.0836348691165767e+01 1.5153062019107889e+04 1.1882254508866608e+04 -8.5534347297357726e+01 8.9673828028605203e+02 1.2732151398879756e+01 -3.1248989758327284e+00 -1.1914145237764815e+02 4.7408536019738021e+03 -2.7370101423546043e+02 1.5877813955330424e+00 -1.9953688380128756e+03 9.0529227935223062e+03 1.1477721809590381e+04 1.9804999595916001e+04 -8.7925013231948105e+03 -1.5122047645254915e+02 -1.7662066399918353e+02 1.2697257729879993e+01 -1.5313313580103120e+04 -2.2160352586631998e+03 -1.4407837394078342e+01 6.8215413323802636e+02 6.4437685797881568e+02 3.8696895563472289e+01 1.0489698971242760e+03 7.7361456864342767e+02 -7.7694902718393996e+02 8.3574023090833862e+01 4.3450251882039709e+01 -4.3892412549576697e+01 4.5780689357660303e+03 -3.8757316910179070e+03 3.4322130878282860e+02 6.6188862067605369e+03 7.9798119756278538e+01 5.3992418145572234e+00 -1.3602376885867216e+01 -4.4072440380384196e+03 3.0119868036035405e+02 1.3419131799702575e+02 6.2577415929730778e+03 -1.6319826242700285e+04 -1.0217039892122972e+04 -8.0055533546148417e+03 -6.4930305510334983e+02 -1.3506690899707719e+03 -1.6676571931902208e+02 2.9147997793434456e+02 -2.4721912867846622e+03 6.2733099496401701e+02 -3.4942927284643531e+01 -6.6910738196073917e+03 1.1587187795147169e+04 -2.5771960828112924e+02 1.4575849439929734e+03 9.9805796351655772e+01 -1.8513238467450887e+04 6.1326468564416464e+03 -2.8290334273656060e+02 7.0909084037415610e+01 3.4167649704371702e+03 -6.1877095755029477e+03 4.2935609099930537e+02 -1.2795340899195526e+02 7.3352770969870903e+01 3.2824539314947970e+01 -4.4003492617976008e+00 3.0304212027754684e+03 -1.9273431182999411e+02 7.0964300445173791e+01 -5.7081489595264611e+02 1.5868491594106839e+04 1.6569124557575233e+03 5.2480434512980573e+04 2.8129512757677967e+03 9.1515165184411944e+02 -8.6656137889573438e+02 8.1060285990305545e+02 -3.4226496509512826e+03 -3.6183345403209505e+03 -1.7032747680303424e+02 7.4181082869670208e+03 5.0575039474843998e+03 1.0866842398931300e+02 -1.2975527564258264e+03 -4.7257192781580643e+03 -2.1086102399004063e+04 1.2755211762417232e+04 -3.7160561143431164e+02 -1.1468266961876793e+02 3.4690270143401203e+03 2.8686711389153766e+02 5.2241195482873727e+03 -1.1589661747421378e+03 -1.6777111759386253e+02 1.3439091076921389e+02 7.0986073833590099e+03 
      </Row>
      <Row Index="8">
        -1.8146497366024096e+01 -2.9446254371150193e+04 -1.9483917620149964e+02 -7.3336874255064544e+01 -3.4479925619717680e+04 4.2210023684277316e+04 -4.7264027914408012e+04 8.7460249053803927e+03 3.0927806406703743e+05 -3.7888722655467984e+02 1.7525142271416127e+02 -4.3863945692946366e+01 1.3798596779792843e+05 -8.9750839362191073e+03 3.3044294423438956e+01 2.6430256203059093e+02 -2.8618720823467371e+04 1.3339799361388381e+02 1.5984988248968875e+03 8.4101657561355398e+02 -9.5650831645856560e+03 1.1373491825809697e+03 1.6776022990924304e+02 -1.8424402030559193e+01 -1.0372808248728939e+05 1.6772275539752818e+05 -3.6826535036155110e+02 9.6477795751616359e+03 -1.1122960802859247e+02 -9.2629009986409123e+00 -1.5548685784629606e+02 1.1455256953945762e+04 1.4513964805936712e+02 -3.1111845227698461e+02 3.6254200102301518e+04 2.5287010700282804e+04 2.6862609895906353e+04 -2.0596227808879521e+04 -2.7888112667848472e+04 -2.6124542461932901e+02 2.0372031366670151e+02 1.4422229134119384e+01 4.4378776042096433e+01 2.1469821517474338e+03 1.4425169656347160e+02 2.2606496619385211e+02 -1.2508775748149255e+04 1.1641664654958035e+03 2.1576151997246103e+04 4.8251926040574972e+02 1.1974223487035451e+04 -5.7145068086545562e+03 2.8959290104804347e+02 -1.1110230763422373e+02 -8.5087961180980201e+03 -8.9470462040069979e+03 1.9855020698733651e+02 8.6228934467253894e+03 -1.3579582889480741e+02 4.1831068127503954e+01 -8.9444673274987508e+01 -1.4668491446068841e+04 -6.0069733658598125e+01 1.1203198500410512e+02 2.6115964439121221e+03 -3.5020719024610633e+04 5.3039099570010680e+04 -5.1638578692795709e+03 -7.1231521552607781e+04 8.2594333817278311e+01 -1.8720127340556854e+02 -1.6081327285781754e+01 2.2222301959670564e+04 6.5262532945752464e+03 -3.0457183277730110e+01 -5.2348928236408551e+02 3.9119175446427485e+04 -1.9557818991670081e+02 1.5080439529772979e+04 -1.0263736769621755e+02 1.0703611555369789e+03 8.2636873568863484e+02 -2.6125278993351253e+02 6.8347029628751329e+01 9.9919466458214447e+03 -1.4061497501729395e+04 6.2651913159428955e+02 3.2291893678637425e+03 1.7251837976627621e+02 1.7219343359314252e+01 -7.7365639190848947e+02 -7.8479307834166902e+03 -1.3458989907225390e+02 5.6296544103214785e+01 -2.3960717724997059e+04 -1.4140876482696403e+04 -3.4043123148223240e+04 -1.4735868944004185e+04 1.1490865941019059e+04 1.4142174338870373e+02 3.6031935577374236e+02 -2.3984950837076894e+02 -1.8031883455670511e+04 1.2245693441784828e+04 6.0405951080180571e+01 1.8990860329519221e+03 -5.4232056029852156e+03 1.5811412013416339e+02 -1.2861027369101768e+04 -2.8645808665101322e+03 5.8306521153019876e+03 6.1348054080697602e+03 5.3713746600083454e+01 -8.6760375882090344e+00 2.2207376549294568e+04 9.5766953037571511e+03 5.9727727970432961e+03 2.9260884330242989e+03 -4.3875871043799179e+01 7.0243619328618948e+01 -9.3731089406016736e+01 1.5247094623074012e+04 -1.4415853526254267e+02 7.0937310606221672e+01 -1.2348345442572101e+04 8.4733792740280405e+03 5.1586688152527146e+04 1.3387170751107957e+04 4.9345175130096643e+04 -5.3376140380010543e+02 -1.1077304376172883e+02 -4.1513423612443091e+01 -1.6482645247928333e+04 1.7545460555684214e+04 1.1545200578558360e+01 -3.1157456420493254e+03 6.9489154602636700e+02 2.4932042302178579e+02 1.7003016142614477e+04 1.1292873197996869e+03 2.0274626659308997e+04 -6.6257787421413093e+02 1.1929867563781320e+02 -7.9756099464147226e+01 -3.8724601935388484e+04 -2.2855409468695252e+03 4.4540883860199085e+02 -3.0687003046201712e+03 -4.3226334804162093e+01 -2.3284520570278325e+01 5.9007609225172208e+00 1.7219138595401673e+03 2.9738869117458603e+02 -5.1966258861852005e+01 -8.7853092652160885e+03 -9.1002726216750743e+03 -2.2303366766620456e+04 -1.5479315316622189e+04 2.2660771501073526e+04 1.3498639084255433e+02 -1.2669068820289226e+02 1.2859191287820337e+01 -1.4497336819118354e+03 1.4439823315891294e+04 4.2433382261419084e+01 7.7998382894054657e+01 2.5844270786649431e+03 -2.6020426643750352e+02 -3.9085464724167541e+03 7.3089883047614421e+00 -4.9477384685548750e+03 2.0784697036078182e+03 -6.7140388965150748e+01 -1.4424208340475161e+01 3.8059267059099337e+04 2.3850651718009602e+04 -2.1731096442561477e+02 -5.3780283755152486e+03 -1.9107135949286818e+01 -9.4997978530187112e+01 -1.3334994732246651e+02 9.9244993040414411e+03 -4.6199798661342891e+02 1.3702852683430677e+01 -2.6555349767663727e+04 6.1960823679706482e+03 -7.3282036454869376e+02 -1.0039065435840312e+04 2.9335609606604383e+04 -2.4688345537458599e+02 -7.7103075826726183e+01 -1.0287725562963601e+01 -3.9260888241010689e+03 4.7103113478737687e+03 -2.1711259187319229e+01 -6.1188932076501669e+02 -1.8188572542362119e+04 -1.2806848120453276e+02 -7.0635318442623829e+03 -1.4921184661395650e+03 2.9420086312821359e+03 2.5011737634918918e+03 7.0045016224832537e+01 -4.5621695648517246e+01 3.2732089081418344e+04 -2.5846930011440389e+04 5.9540641256842810e+02 3.5039511321455939e+02 1.0871382519278995e+01 -7.5104955627162042e+01 -8.7238539089532969e+02 6.4561815755915304e+03 -2.1702410742178790e+02 -1.7214967706647076e+02 2.5884388266804941e+04 1.4627772652815351e+04 4.6857515046932087e+04 3.0288175714137669e+03 -9.7662487117134733e+03 -9.0237171178872177e+02 2.4883909754182514e+02 -3.7847394748171916e+02 6.7105429047170328e+03 7.2625791014114511e+03 1.6615282789792536e+02 3.4120919341898425e+03 2.2849227459076385e+04 1.0068294755933475e+03 8.7021140426643105e+03 -3.0103173379412037e+03 5.6447732036285543e+03 -2.3857992087881203e+03 3.3573281905271983e+02 -1.3066125112883316e+02 -2.2936602870375922e+04 1.1715831884635627e+04 5.7938581284476240e+03 -2.4814742075218237e+02 -1.3142040786394483e+02 1.4500885306093937e+02 6.5577779509405627e+02 1.6323282326381446e+04 -1.5473814178846806e+03 2.5647742283002106e+02 -6.5604186399970804e+03 -1.3774381123743282e+04 -1.4859678013709075e+04 1.8515238672936863e+04 4.4651595932812088e+03 -6.7207939361688841e+02 6.3816773614426165e+02 1.0580013646184923e+02 4.9622276286924771e+03 -3.4437646144701330e+03 6.4567634593580692e+01 -1.4614557809409162e+04 1.4369602891554365e+04 -1.4288439779720138e+03 8.6734622357001845e+03 3.6548594269517434e+03 -2.2974109423549453e+04 3.0252958174911364e+03 3.1462272826403634e+01 -8.9513414774728517e+01 8.6586620674508758e+03 -1.7896223024965740e+04 1.7347136385649560e+03 7.4656357059380389e+03 4.9306895570847928e+01 1.3689169329916399e+02 2.5427640602776450e+04 
      </Row>
      <Row Index="9">
        1.3838437894664897e+00 6.5399557115239725e+02 8.2210613919845388e-01 -1.7772260159066244e+00 7.9254902313907422e+01 -3.8292254490634758e+02 7.5291586790742926e+01 -1.6968175411562419e+02 -3.7888721373727799e+02 4.3377472572009935e+01 2.1518189461973907e+00 -3.2756481451858599e-01 2.5311723133368764e+02 -3.2695257125845910e+02 1.2074502761485528e+00 4.5060891987551779e+00 2.4839745454518834e+02 -5.4919039628750131e-02 -9.2654396625137201e+02 -3.3902613896378688e+00 2.7221935668927330e+01 1.2078995134405478e+01 3.6773947738487411e+00 -9.9383652122294375e-01 -1.6047353301708597e+01 6.1534441540470759e+01 2.3441631074895781e+00 -7.2386685996885103e+02 5.2779680692172481e-01 -1.8235553266530209e+00 7.3622474025998219e-01 4.3264852933403070e+01 8.2170370909628421e-01 -9.9884413223116464e-01 9.8250455131665461e+01 3.0785757410247942e+02 -1.3720430720575627e+02 2.2404888639918249e+02 1.5619552843729821e+01 1.7079027372993362e+01 3.1036150910449796e+00 -2.2728627776215022e+00 2.1441814914823922e+02 -1.1827836750831170e+02 2.1761972538398247e-01 -2.1538324721447303e+01 -6.6316567321695459e+00 -3.8739953805097986e+00 -9.5535493863059259e+01 1.4609869208727059e+01 -1.5212330045095834e+02 2.4238714125536482e+01 3.7666387892367039e+00 -4.4261324681468506e-01 -7.1032446971309753e+00 -9.5503911868481907e+01 -3.4815956131382286e-01 -1.2378414658884859e+02 3.4043132380632385e-01 1.3118908654676220e-01 -8.6212698210698235e-01 -1.1919771150368575e+02 -4.6313328744203242e-02 4.3959324222611618e-01 1.1522606076892296e+02 3.4111561844889314e+02 -2.8950510909768605e+02 -3.1819360297596251e+02 5.2135768696782293e+01 -9.3566843648350584e+01 -3.6989414716230158e+00 2.8318720335639771e+00 1.2893339777257904e+02 -6.5889504996239339e+01 -1.9673812538697351e+00 -9.2939834607652472e-01 -3.9841507917123920e+02 1.1530459052351169e+01 -1.1544062713571557e+02 3.2040472641516660e+00 2.9394195967658892e+01 -3.6550589919360156e+01 -2.8772873726541648e+00 2.5618430943162807e+00 -9.4689405496804284e+01 -1.7108643595257362e+01 -5.6935977202538623e+00 9.6773219668915914e+01 4.4998956272920942e-01 1.3086094138457915e-01 2.0249126531716968e+00 6.7875013389528135e+01 -4.3915807587575646e+00 8.3449895223298274e+00 -2.6493408403140705e+02 -3.0450701332128205e+02 -2.0627534445506370e+01 -1.3690170182764118e+02 7.1924204767784417e+01 -4.3469325275078091e+01 8.5305117115901385e-01 2.1168456571699670e+00 -5.5262823347173997e+00 -2.7237443621347222e+02 -1.8533653790461071e+00 4.1793934871281692e+01 -1.7563904246999306e+02 -2.8741641393293360e-01 -8.0318988578123026e+01 3.6060957653940704e+01 6.8443136888077220e+01 -4.5079762469501134e+01 -5.1977494679105218e+00 2.1758966390047219e-01 -4.4610983769659924e+00 3.8063904628336473e+02 -1.1696838524331072e+01 -6.5920704613585045e+01 6.6412948518177717e-01 1.0065503411291785e+00 -1.5276641434828786e-01 1.8677311960905882e+02 -3.4655111310984936e+00 -1.2382318689808081e-01 -3.1659291921667341e+02 2.5736401341076134e+02 3.6688822327624166e+01 4.7275367263738099e+02 -2.8423361147625849e+02 5.2430403429879462e+01 -3.9529557021119128e+00 -1.8410512206719101e+00 -2.6947817367646894e+02 -8.3172208555345321e+02 -1.4411627617734890e-01 3.6187506702384177e+01 3.9058858957628991e+02 -2.0671650973819600e+00 7.9930436667429603e+01 7.9153871655192258e+00 -7.2818954183936540e+01 -3.5480309578227427e+01 6.3301451103180817e-01 -1.6297098958328615e+00 4.5976695136155030e+01 1.4488196014563164e+02 9.4591866403266067e-01 1.3239290145405960e+02 -1.0229990185246599e-01 4.5641391089149241e-01 1.0162371828893402e+00 -3.5185543365691160e+01 2.3450886845499248e+00 3.3671364576750431e+00 4.7771764409948773e+01 -1.0672324134498975e+02 8.4303183675953164e+01 -2.2925409555507488e+02 -3.0334015771937192e+02 1.0993800946949898e+01 2.6530104055584984e+00 8.5096681266569618e-01 1.4442364481033928e+02 7.9698497459538203e+01 -3.5842258422037965e-01 -5.1124238498784784e+00 1.8822093606792600e+02 1.7489494666687324e+00 3.2102657937661701e+02 -4.1859377619199449e+00 -1.1828980400300878e+01 9.6551766027313501e+00 3.1280780899533225e+00 6.3932345466103868e-01 2.1911106911066599e+02 4.9015619174419722e+00 -1.2762618898960456e+00 1.6383917653101844e+02 5.4542725795348822e-02 -4.1471942200865364e-02 1.7977875253965208e+00 1.1630134976891742e+02 -6.8799437447696850e+00 1.0290103430066546e+00 -2.2873604145708885e+01 -3.2431702639948742e+02 8.5384418801921754e+01 1.8466970086214701e+01 2.1349881661219797e+02 -3.6225027004750325e+00 -1.0596419223598110e+00 -9.5179221306550277e-01 1.8867666404522785e+02 9.5368085864619147e+01 7.1754417157670503e-02 -7.3034118701106232e-01 3.2507463241925961e+01 -9.9015821454718178e-01 -1.4980050861393113e+02 -1.3856175595584457e+01 -8.0804538932609375e+01 -1.0980463494391257e+01 -8.9424227377530663e-01 -8.2713862642844338e-01 -4.0124623804568529e+00 -4.0195585878016118e+01 3.8001199057316892e-01 -1.9287066100061799e+02 8.1748099548029529e-02 2.2061239276412987e+00 3.3678711399885906e+00 -1.3728904178482708e+01 8.6986154161158424e-01 7.7250424709298180e+00 8.8922493483570406e+00 -2.9467903995668891e+01 -1.1497550339019381e+02 -1.6001477543765895e+02 7.9120894352627658e+01 -4.7442612165112195e+01 1.2926512881480825e+00 2.6627321930720691e+00 1.6338674081905174e+02 2.3741553066003019e+02 -1.7997891295889259e+00 3.4603027096420824e+01 3.2878570440726662e+02 3.5359859754195551e+00 1.2501979623992412e+01 3.3398473599286007e+01 8.4002831352697058e+01 -8.2165286055552311e+00 -1.5270772155407588e+00 2.3954051182621772e-01 1.6148138752298473e+02 -2.0306530790139956e+02 -1.2913014938232262e+01 6.1295639617440614e+00 1.5022101648567512e+00 3.1185653176909356e-02 -1.1295825630524746e+01 -4.5409445755003190e+00 -1.4695413778636748e+01 -1.6021827206698742e+01 1.0748420203711412e+01 5.4125229106694349e+01 -8.9830837030141737e+01 -4.2561505868566428e+01 5.9990539697451013e+01 1.2267041121773030e+02 -5.5627668433315129e+00 4.3901451677816244e-01 3.8498375813188922e+01 -1.4967682873010727e+02 -3.7022300860608324e+00 1.2380929390082849e+02 1.1169326873514358e+02 1.2311690675185609e+01 4.0826606206059481e+01 7.6270265795368303e+01 -2.8335036262673071e+01 3.1702009587224256e+02 1.1372823225693681e+01 -2.3819269617996106e+00 6.0741492917461372e+01 1.0547998202529541e+02 -2.5173307597105531e+01 -1.7675602167970305e+02 -1.1560055977976411e+00 1.1732284077167300e+01 7.5246294754722825e+01 
      </Row>
      <Row Index="10">
        2.2930019124784595e-01 -1.4097891843947539e+02 1.8990805284159669e+00 -2.4407039594455279e-02 -2.4402242665781060e+00 6.0214876975362778e+01 -2.3177640151759491e+01 1.3489196965789569e+02 1.7525142194721212e+02 2.1518189533760963e+00 5.8247727976084986e+00 -2.2285735336639678e-01 -3.8138204566584974e+01 -1.5775355547818717e+02 9.7815445077675245e-01 -2.8134248298690867e+00 -1.1903866457045677e+02 2.1342450807474478e-01 -1.3528177120185404e+01 3.5461460836912138e+00 8.9882983652145167e+00 -5.6822187958123074e+00 3.8006861677844106e-01 -9.0587300678572524e-01 -2.4553492621609007e+02 -6.7386763845904838e+01 5.0368341932704652e-01 -6.9920555141138294e+01 -5.7994657705117914e-01 -4.6323613059984531e-02 -9.6218633357035177e-02 -3.4075122689926047e+00 3.3770173472546907e+00 -1.1660045358477520e+00 1.2159622826592472e+01 9.1827765479750070e+01 1.4776225122503064e+01 2.3772888867016474e+02 -1.1581666919045972e+00 4.7859876398636825e+00 5.0620237946312585e+00 7.3858757077509085e-01 2.5719631975079594e+01 -5.3115374853352904e+01 6.0342378265747165e-01 -5.9288862972490950e+00 -6.1685166771261208e+01 4.8007421859700705e-01 3.3909134139410625e+01 2.8237822374907040e-01 -1.1349926307411309e+00 1.2736571359676629e+01 -4.1770224195069527e-01 -4.1202649925183749e-01 -1.9940473024691972e+01 2.8418661612899427e+01 4.6651283965459983e-01 -3.2511222855092967e+00 5.3085308156732003e-01 -3.0348442770591166e-01 -2.0735705407399188e+00 3.4214214307525680e+01 -3.3472692027100197e+00 1.4685190629613789e+00 -2.0773971061479294e+01 9.2958790973088043e+01 -3.8415543742948472e+01 -1.7785605697197707e+02 1.0164884274555823e+02 -1.4608085888489514e+01 -9.2162733051908106e+00 -6.4360556707037997e-02 7.3813936747765254e+01 9.6772547163499297e+01 -1.1947349353372783e+00 -6.1246088817957034e-01 2.8096738496845944e+01 7.6881202619856204e-03 5.3063542568209655e+01 4.3834305590212406e+00 6.7752638090537033e+01 -5.0550816514407373e+00 5.0048103579899661e-01 1.7085934737729849e+00 2.3127688080759786e+01 6.8766631643208271e+01 1.8709829306590062e+00 -5.4272167629498881e+01 1.1470816822086141e+00 -2.9159279183190767e-01 -1.4038706010168287e+00 -3.4281381113052149e+01 1.4345830886302764e+00 -3.8660479509872636e-01 -6.9126729940285315e+01 -1.5560189875977230e+02 9.5949742494437132e+01 1.1331549159136119e+02 -4.5231383249722086e+01 5.8275257790390533e+00 2.7074554282784802e-01 -8.6749931465363694e-02 1.8347821265201731e+01 -6.8314237019448129e+01 2.1237999822807385e-01 -2.1595737197222483e+01 -6.0790554470723777e+00 -3.9094790799102999e+00 -2.1911060775075580e+01 -6.2552507194266518e+00 -1.0992442673774173e+02 7.3925173548563219e+00 1.5623888114037932e-01 -4.3599349211184174e-01 5.2506433799656662e+01 -1.8560355693775932e+01 1.7317274733715941e+01 -1.6964332690647772e+01 -6.2729125127880025e-01 4.9443794132494356e-01 -1.9452037304556624e-01 8.5102486564569759e+01 6.3735746741173105e-01 2.6765262800460654e-01 1.6008559979573839e+01 4.0826887338887481e+00 1.8215948514384763e+01 3.5291003393709502e+01 -5.1109252535318433e+01 -3.1318923389340254e+00 4.1364736650821721e+00 -6.4889268246617526e-01 -8.2319120214071916e+01 -1.1358231156350482e+02 1.6323333395641920e-01 1.4437061362924487e+01 3.9418910710236091e+01 4.3183391924981029e-01 -4.3710570926882042e+00 -1.0682462031284814e+00 -2.9545902703723144e+01 1.3767328089701373e+01 -6.7699873900914898e-01 -4.5367502107945312e-01 -1.3804922044323379e+02 8.2469130374235988e+01 1.8040927792701495e+00 -2.6067041820894616e+01 -6.4887065397080246e-01 -9.2582242341378218e-01 -4.8483541991922346e-01 -9.1954450336868376e+00 1.3736851349265633e-01 7.2010869417510548e-01 3.8967368536909419e+01 2.9951195004601598e+01 1.2098210115205333e+01 3.0726340534493808e+01 6.9206138065375285e+01 5.0113550626059897e+00 -6.6685589900327447e-01 5.8884029228488233e-01 -1.8867681559448634e+01 8.6656665191071966e+01 -1.4751086665931577e-02 -4.5479123971726643e-01 3.4286092451932348e+01 1.0107382584962983e+00 4.3019338936387470e+01 7.1294798071483712e-01 1.7268710232657085e+01 -1.7238641364709195e+00 4.4104364744848962e-01 1.1446633543705786e-01 -9.3548221929997368e+01 -4.9691885541201756e+01 -1.1675293124698838e+00 8.2773781601353562e+00 1.6964082528993732e-01 -1.2805238644376440e-01 -7.2284645093532454e-02 2.5004946373940496e+02 -1.6445387636178534e+00 1.6584753444499201e-01 -8.3586542970771831e+01 -1.3021061745239865e+02 3.1758777352329190e+01 -1.6903955281629925e+02 -3.6513294818431973e+01 -5.0359236512268835e-01 2.1602514519731071e+00 2.1862370489865213e-01 -5.0207114374780289e+01 -2.9694619162788911e+01 -2.0827374032655399e-01 -3.3720819697316542e+00 1.6030005025038713e+02 1.0705003400865833e+00 -5.4425812350635994e+01 2.9808425682751372e+00 -2.9455784232125922e+01 8.8233043494157304e+00 -3.9635277468329305e-01 -4.1182899565270131e-02 1.2582405037493660e+02 2.6727709693078441e+02 6.0594871673591229e+00 -8.1864362195883245e+01 6.4701743238573428e-01 3.0682221393539960e-01 -2.7064744213743439e+00 -3.2970461449758375e+00 3.0670828308205529e+00 4.3176170273982528e-01 -9.5479542902298427e+00 -6.1491202248777647e+01 1.0818971624782286e+01 5.9494458953098501e+00 1.4248383753382001e+01 2.6868762530615076e+00 3.3994262017632186e+00 1.7667162591001306e-01 -4.2066219071275214e+01 -1.4684788680719009e+01 5.0734864670593138e-01 -3.9302207566878700e+01 1.7773491573774209e+01 -2.3478106881626215e+00 -2.8126508844958835e+01 1.9538979745190215e+00 -3.1469770009988324e+01 9.7752336144522687e+00 3.2017391829294328e-01 -1.8448224475066266e-01 -4.5697448647858536e+01 1.9196881032152064e+01 2.0417069615921587e+01 4.4179613033855219e+01 -4.3710416466993307e-02 3.6883526475751904e-01 2.1308486584489574e+00 4.8457051543904726e+00 -9.1129329710625058e+00 -6.4877331488712231e-01 -2.8842083861902754e+01 4.1359654755574603e+01 -7.3615588672056020e-01 4.0958954762957527e+00 -2.5154403596476016e+01 -5.2159230017048834e+00 9.0599486099186812e+00 5.7134821211886893e+00 2.5552802837986448e+00 7.9363362789356984e+00 2.5267433639899473e-03 9.0040286963430304e+01 -1.7125628008008750e+01 5.9861384682942012e+00 4.5852313174669241e+00 -1.7398560839307667e+01 1.5127728117525493e+02 -8.5613933876968474e+01 -2.4406631561005082e-01 -1.9094836990496233e-01 -4.2149176449033007e+01 -3.0095252761467020e+00 2.0350627739870298e+01 7.7169362078268108e+01 -1.7445414782541224e+00 2.5362415772520928e+00 3.8441260472616996e+01 
      </Row>
      <Row Index="11">
        -1.6345619566804181e-01 -8.9395122290051177e+01 1.6118330525676046e+00 -1.9864129317430410e+00 4.7020921227686102e+01 -2.0801594055075896e+01 -1.6142728428447285e+01 2.2724842588056691e+02 -4.3863952093617520e+01 -3.2756477177561127e-01 -2.2285734905920701e-01 6.3663394650305136e+00 -1.0692933138679111e+02 2.7042703493041103e+01 -2.7521780915274013e-01 -5.0324626468022418e+00 4.9545915867732845e+01 1.0579657684488226e+00 -3.8739708944501189e+01 -3.1725854373930971e+00 -4.8353846893233069e+01 4.0925197254569312e+00 -1.0438296890159952e-01 1.7643912765921727e-01 -4.7144877966876940e+01 1.1356353309440640e+02 -1.2956752965902183e+00 -5.1240802225316344e+01 2.7601140455275414e-01 -2.3071906590381996e-03 -4.7054607104441104e-01 5.4890442220094428e+01 2.0039312912307325e+00 -2.4006454110372483e-01 3.1805000887090980e+01 2.7841269221384565e+01 -7.9011317231068020e+01 1.3009979159907800e+01 -1.6808973851222646e+00 -2.8494919187141621e+00 -8.5227840041242253e-01 -3.3201281552571682e-01 5.3823444233044967e+01 -2.8478976462377602e+01 -6.2178762282236621e-01 2.7694198454467021e+00 3.9849152696561461e+01 3.9704264718882976e-01 8.3523034733919744e+01 4.2807605964565827e+00 -6.0927197367892262e+01 9.9832660604655228e+00 1.2875057131249505e+00 6.4299840294889998e-01 2.0300803136171332e+01 1.1900491603189288e+01 -1.6157791157809305e+00 9.3472806694677644e+00 6.1466363702149640e-01 1.5799041236156497e-01 9.0370424639000824e-01 -4.3671838518666092e+01 -4.2482048400096666e+00 -5.6618036828533413e-01 -1.9277864514295441e+01 -4.5465439986303068e+01 1.1287026018419894e+02 -1.6294353558484116e+02 -1.9940425430064545e+02 6.4407166398634637e+00 -4.0377869907173580e-01 -6.0723452049256927e+00 1.0391403131269288e+02 -6.2636727200422342e+01 2.4370304264226883e-01 2.8453869854246665e+01 -7.1706782105802091e+01 -1.4144435064332481e+00 -1.9604210911896416e+01 3.6082906248555737e+00 3.5338397644145203e+01 3.3297836164796344e+00 -8.0869869817797535e-02 -1.3297881702694809e+00 8.2259318182568208e+01 -6.8716049956494302e+01 -2.0511052425893611e-01 3.6655554052000468e+01 -4.0499928723489953e-01 -5.7677452123222439e-01 -1.1190303947808022e-01 2.3229190805620288e+00 -2.5419473786992537e+00 3.6760052476369967e+00 2.8422477198049105e+01 2.5551690988176805e+01 1.1917925496232790e+01 3.1393760757284738e+01 -1.7954859622697811e+01 -1.9147593763712414e+00 7.2018139683110771e-01 2.6032890622298162e+00 1.7478632846892523e+00 1.5086968189021121e+01 -2.0875942869546615e-01 1.4371850804681520e+01 -1.7261767948422801e+01 3.7556850405533959e+00 -1.5852145002510497e+01 4.2386901287886030e+00 8.3549810439128777e+01 -2.4144878461565689e+01 -1.1730407915271801e-01 4.2617675090621399e-01 -6.3527141471728783e+01 -7.9473159355295877e+00 5.9547437704839981e+00 3.7144066954991217e+00 -4.0042335024253695e-02 -7.4605921951902776e-01 -1.0377708442504174e+00 -8.2252769431196242e+00 -7.2667839391205258e-01 -1.3590123016174851e+00 -3.0942424034487534e+01 5.5376059074055689e+01 5.0785639316312796e+00 5.0835305323485343e+01 5.2668719153147123e+01 6.1069284151837033e+00 -4.4029553327396209e-01 5.9394896227495009e+00 -7.9506194777941090e+01 -7.8052071128473585e+01 1.1385928901222753e-02 -1.7086588614658918e+01 3.7706418087003620e+01 -5.2736038538962471e-01 -2.6815651927679880e+01 2.2351403045968032e+00 5.8132428971294772e+01 -2.7279332209717468e+00 5.5997131735799044e-01 7.1928948654289715e-01 -9.8778584387953629e+01 7.3003136910127694e+01 2.4367992406979280e+00 3.4239814193052986e+01 4.9206764841729624e-02 -2.3059823992176859e-01 1.1001286980173155e+00 -7.2058480799257723e+00 -3.6880258490618872e-01 -7.0644694291148322e-02 6.2436935511257225e+01 1.7335458609008690e+01 -8.0522833629111972e+01 -5.2105122250891611e-01 2.7055888954983175e+01 9.8526929347489878e-01 9.5846991491461836e-02 -1.3541139869503718e+00 5.7576490301910610e+01 4.9102927742360251e+01 -1.6594687285090320e-01 -2.9009842501419936e-01 -3.2438816712534305e+01 1.0064500006110071e+00 5.7822816686562810e+01 -1.2898747159201633e+00 -3.5757975398556610e+01 4.5654759169336074e+00 6.2116170533189130e-01 -8.7149419345747603e-02 2.5213182495594310e+01 -6.6158831682554805e+01 -1.3731427499139142e+00 -2.0424855652127832e+01 -7.9514953540154365e-02 2.7507707762384864e-01 -7.2009960929108618e-01 4.2295033184168318e+01 -2.1451334619552087e+00 3.3000183679087913e-02 -3.4209608030142029e+01 -1.0542501071251746e+02 6.8412822502688485e+01 2.5940218505998956e+01 1.0384683223850641e+02 1.8996638449601214e-01 3.8371288594205039e-01 -1.6554474549399589e-01 4.1000775693222053e+01 -2.7566127566537943e+00 3.6650006081851938e-01 -3.2289837236098915e+00 -2.6699239889344497e+01 -7.0516397525928573e-02 -6.9811736848360880e+01 -8.7875677681686071e-01 -6.3657675165626486e+00 3.3230071739293030e+00 -2.3625479494494989e-01 2.4634508519329440e-01 -7.4514448968255010e+01 -3.5450368921646231e+01 -1.5966639115789363e+00 -6.2800350975142692e+01 6.7841747096096583e-02 2.5864305232478824e-01 -6.3328635111116971e-01 2.3175394828250262e+00 1.3148712060150149e+00 -9.8987830569079227e-02 4.3172334749517688e+01 2.3433496513076619e+00 3.3833616945935646e+01 1.7824033851965865e+01 4.8770783272327805e+00 1.9115103637016855e+00 -1.0953404957947059e+00 4.4165519001862323e+00 1.0578779813289572e+01 1.7009543897149271e+01 -6.6391535441264171e-01 4.3390398765182908e+01 -3.2685208975298522e+01 3.7723719629258574e+00 9.6297440673866390e+00 7.5744282596860941e+00 4.8491048880785591e+01 -1.4133676285373163e+01 1.5905625658121629e+00 3.5476033299301513e-01 -9.2312223823385722e+00 -2.4727618677114663e+01 7.1461711337320111e-01 2.9325413763115193e-01 4.1149653295037858e-01 -1.0287145508776021e+00 -1.2901467438236836e-01 -1.1198898908481851e+00 -2.3795591355167218e+00 -6.5076167991051328e+00 -1.9371101945690274e+01 -2.5100436649865472e+00 2.5753385006393934e+01 -1.9483989929598991e+01 9.9783692598060512e+00 1.2720070851414633e+01 1.0080525390363100e+00 -2.0869822785344514e+01 -5.6916509788510083e+00 2.1236204531720631e+01 2.0500232499987514e-01 -1.3117061563037555e+02 -1.0449110355870570e+01 2.1469075236038400e+00 -1.5287535320522931e+01 1.9156162668442807e+01 -5.1152638231730840e+01 -2.9638825480289778e+01 3.4491929031665798e+00 7.7295449903601554e-01 2.6177178329174033e+01 -1.0907705631894043e+01 -3.4098787121261509e+00 2.0205645380196390e+01 -3.5445989420450807e-01 1.4039062923333350e+00 -7.6200822891160964e+00 
      </Row>
      <Row Index="12">
