<?xml version="1.0"?>
<MethodSetup Method="MLP::MLPBNN_EleTau_MZP1200_MA0400_MDM100_nodes30_epoch1000">
  <GeneralInfo>
    <Info name="TMVA Release" value="4.2.0 [262656]"/>
    <Info name="ROOT Release" value="6.02/13 [393741]"/>
    <Info name="Creator" value="jhoward"/>
    <Info name="Date" value="Sat Dec 10 22:04:39 2016"/>
    <Info name="Host" value="Linux vocms0301.cern.ch 2.6.32-573.7.1.el6.x86_64 #1 SMP Wed Sep 23 10:12:03 CEST 2015 x86_64 x86_64 x86_64 GNU/Linux"/>
    <Info name="Dir" value="/uscms_data/d3/jhoward/WORKING_DIR/NovProductionV3_76X/ANNTraining_Original/ANNs"/>
    <Info name="Training events" value="14187"/>
    <Info name="TrainingTime" value="1.49653162e+03"/>
    <Info name="AnalysisType" value="Classification"/>
  </GeneralInfo>
  <Options>
    <Option name="NCycles" modified="Yes">1000</Option>
    <Option name="HiddenLayers" modified="Yes">30</Option>
    <Option name="NeuronType" modified="Yes">tanh</Option>
    <Option name="RandomSeed" modified="No">1</Option>
    <Option name="EstimatorType" modified="No">MSE</Option>
    <Option name="NeuronInputType" modified="No">sum</Option>
    <Option name="V" modified="Yes">False</Option>
    <Option name="VerbosityLevel" modified="No">Default</Option>
    <Option name="VarTransform" modified="Yes">N</Option>
    <Option name="H" modified="Yes">False</Option>
    <Option name="CreateMVAPdfs" modified="No">False</Option>
    <Option name="IgnoreNegWeightsInTraining" modified="No">False</Option>
    <Option name="TrainingMethod" modified="Yes">BFGS</Option>
    <Option name="LearningRate" modified="No">2.000000e-02</Option>
    <Option name="DecayRate" modified="No">1.000000e-02</Option>
    <Option name="TestRate" modified="Yes">5</Option>
    <Option name="EpochMonitoring" modified="No">False</Option>
    <Option name="Sampling" modified="No">1.000000e+00</Option>
    <Option name="SamplingEpoch" modified="No">1.000000e+00</Option>
    <Option name="SamplingImportance" modified="No">1.000000e+00</Option>
    <Option name="SamplingTraining" modified="No">True</Option>
    <Option name="SamplingTesting" modified="No">False</Option>
    <Option name="ResetStep" modified="No">50</Option>
    <Option name="Tau" modified="No">3.000000e+00</Option>
    <Option name="BPMode" modified="No">sequential</Option>
    <Option name="BatchSize" modified="No">-1</Option>
    <Option name="ConvergenceImprove" modified="No">1.000000e-30</Option>
    <Option name="ConvergenceTests" modified="No">-1</Option>
    <Option name="UseRegulator" modified="Yes">True</Option>
    <Option name="UpdateLimit" modified="No">10000</Option>
    <Option name="CalculateErrors" modified="No">False</Option>
    <Option name="WeightRange" modified="No">1.000000e+00</Option>
  </Options>
  <Variables NVar="7">
    <Variable VarIndex="0" Expression="read_pt_1" Label="read_pt_1" Title="read_pt_1" Unit="" Internal="read_pt_1" Type="F" Min="2.40084190e+01" Max="9.85316101e+02"/>
    <Variable VarIndex="1" Expression="read_pt_2" Label="read_pt_2" Title="read_pt_2" Unit="" Internal="read_pt_2" Type="F" Min="2.00027351e+01" Max="7.01359131e+02"/>
    <Variable VarIndex="2" Expression="read_m_vis" Label="read_m_vis" Title="read_m_vis" Unit="" Internal="read_m_vis" Type="F" Min="1.24344730e+01" Max="1.72122449e+03"/>
    <Variable VarIndex="3" Expression="read_LPT" Label="read_LPT" Title="read_LPT" Unit="" Internal="read_LPT" Type="F" Min="0.00000000e+00" Max="2.68362939e+03"/>
    <Variable VarIndex="4" Expression="read_DeltaR_leg1_leg2" Label="read_DeltaR_leg1_leg2" Title="read_DeltaR_leg1_leg2" Unit="" Internal="read_DeltaR_leg1_leg2" Type="F" Min="5.00015616e-01" Max="5.20991039e+00"/>
    <Variable VarIndex="5" Expression="read_DeltaPhi_leg1_leg2" Label="read_DeltaPhi_leg1_leg2" Title="read_DeltaPhi_leg1_leg2" Unit="" Internal="read_DeltaPhi_leg1_leg2" Type="F" Min="-3.14143777e+00" Max="3.14115644e+00"/>
    <Variable VarIndex="6" Expression="read_DeltaPhi_PFMET_Higgs" Label="read_DeltaPhi_PFMET_Higgs" Title="read_DeltaPhi_PFMET_Higgs" Unit="" Internal="read_DeltaPhi_PFMET_Higgs" Type="F" Min="-3.14154243e+00" Max="3.14155865e+00"/>
  </Variables>
  <Spectators NSpec="4">
    <Spectator SpecIndex="0" Expression="read_npu" Label="read_npu" Title="read_npu" Unit="" Internal="read_npu" Type="F" Min="6.08978160e-02" Max="3.67157211e+01"/>
    <Spectator SpecIndex="1" Expression="read_event" Label="read_event" Title="read_event" Unit="" Internal="read_event" Type="F" Min="2.60000000e+01" Max="6.94276800e+08"/>
    <Spectator SpecIndex="2" Expression="read_final_weight" Label="read_final_weight" Title="read_final_weight" Unit="" Internal="read_final_weight" Type="F" Min="1.07702259e-13" Max="2.49395564e-01"/>
    <Spectator SpecIndex="3" Expression="read_ratio_weight" Label="read_ratio_weight" Title="read_ratio_weight" Unit="" Internal="read_ratio_weight" Type="F" Min="1.64317167e+00" Max="1.64317167e+00"/>
  </Spectators>
  <Classes NClass="2">
    <Class Name="Signal" Index="0"/>
    <Class Name="Background" Index="1"/>
  </Classes>
  <Transformations NTransformations="1">
    <Transform Name="Normalize">
      <Selection>
        <Input NInputs="7">
          <Input Type="Variable" Label="read_pt_1" Expression="read_pt_1"/>
          <Input Type="Variable" Label="read_pt_2" Expression="read_pt_2"/>
          <Input Type="Variable" Label="read_m_vis" Expression="read_m_vis"/>
          <Input Type="Variable" Label="read_LPT" Expression="read_LPT"/>
          <Input Type="Variable" Label="read_DeltaR_leg1_leg2" Expression="read_DeltaR_leg1_leg2"/>
          <Input Type="Variable" Label="read_DeltaPhi_leg1_leg2" Expression="read_DeltaPhi_leg1_leg2"/>
          <Input Type="Variable" Label="read_DeltaPhi_PFMET_Higgs" Expression="read_DeltaPhi_PFMET_Higgs"/>
        </Input>
        <Output NOutputs="7">
          <Output Type="Variable" Label="read_pt_1" Expression="read_pt_1"/>
          <Output Type="Variable" Label="read_pt_2" Expression="read_pt_2"/>
          <Output Type="Variable" Label="read_m_vis" Expression="read_m_vis"/>
          <Output Type="Variable" Label="read_LPT" Expression="read_LPT"/>
          <Output Type="Variable" Label="read_DeltaR_leg1_leg2" Expression="read_DeltaR_leg1_leg2"/>
          <Output Type="Variable" Label="read_DeltaPhi_leg1_leg2" Expression="read_DeltaPhi_leg1_leg2"/>
          <Output Type="Variable" Label="read_DeltaPhi_PFMET_Higgs" Expression="read_DeltaPhi_PFMET_Higgs"/>
        </Output>
      </Selection>
      <Class ClassIndex="0">
        <Ranges>
          <Range Index="0" Min="2.4031503677368164e+01" Max="5.4714709472656250e+02"/>
          <Range Index="1" Min="2.0013799667358398e+01" Max="5.6997442626953125e+02"/>
          <Range Index="2" Min="1.5942193984985352e+01" Max="7.3766912841796875e+02"/>
          <Range Index="3" Min="0.0000000000000000e+00" Max="2.2966369628906250e+03"/>
          <Range Index="4" Min="5.0001561641693115e-01" Max="4.3969368934631348e+00"/>
          <Range Index="5" Min="-3.1346192359924316e+00" Max="3.1295373439788818e+00"/>
          <Range Index="6" Min="-3.1409232616424561e+00" Max="3.1415586471557617e+00"/>
        </Ranges>
      </Class>
      <Class ClassIndex="1">
        <Ranges>
          <Range Index="0" Min="2.4008419036865234e+01" Max="9.8531610107421875e+02"/>
          <Range Index="1" Min="2.0002735137939453e+01" Max="7.0135913085937500e+02"/>
          <Range Index="2" Min="1.2434473037719727e+01" Max="1.7212244873046875e+03"/>
          <Range Index="3" Min="0.0000000000000000e+00" Max="2.6836293945312500e+03"/>
          <Range Index="4" Min="5.0006216764450073e-01" Max="5.2099103927612305e+00"/>
          <Range Index="5" Min="-3.1414377689361572e+00" Max="3.1411564350128174e+00"/>
          <Range Index="6" Min="-3.1415424346923828e+00" Max="3.1413702964782715e+00"/>
        </Ranges>
      </Class>
      <Class ClassIndex="2">
        <Ranges>
          <Range Index="0" Min="2.4008419036865234e+01" Max="9.8531610107421875e+02"/>
          <Range Index="1" Min="2.0002735137939453e+01" Max="7.0135913085937500e+02"/>
          <Range Index="2" Min="1.2434473037719727e+01" Max="1.7212244873046875e+03"/>
          <Range Index="3" Min="0.0000000000000000e+00" Max="2.6836293945312500e+03"/>
          <Range Index="4" Min="5.0001561641693115e-01" Max="5.2099103927612305e+00"/>
          <Range Index="5" Min="-3.1414377689361572e+00" Max="3.1411564350128174e+00"/>
          <Range Index="6" Min="-3.1415424346923828e+00" Max="3.1415586471557617e+00"/>
        </Ranges>
      </Class>
    </Transform>
  </Transformations>
  <MVAPdfs/>
  <Weights>
    <Layout NLayers="3">
      <Layer Index="0" NNeurons="8">
        <Neuron NSynapses="30">
          -1.4803512849936888e+00 1.4062750836552291e+00 -2.1051752199614623e-02 9.2378965969690874e-01 -8.2923655997887502e-01 -1.5980083633739268e+00 -7.0399131242357749e-01 3.3641927200176851e+00 -1.1181719518237292e+00 -2.3801927225364774e+00 -1.2545453286479862e+00 -2.5759421764549542e+00 -1.0237427751537371e+00 1.9222192708517968e-01 -1.0982275253981824e+00 -4.1946582724614332e-03 1.6248278722041190e-01 7.1398372198407156e-01 1.4647628594525897e-01 2.0373110381762873e+00 2.6859897141407445e-02 -1.9898788328059164e-01 1.7455488850065417e+00 1.8099627178652005e+00 -9.5178868753456058e-01 -9.6735881232074183e-01 1.6933647666036291e+00 -8.2438886661219546e-01 -1.0589721941467389e+00 -2.8447850671627267e-01 
        </Neuron>
        <Neuron NSynapses="30">
          6.5527316017559956e-01 7.1396893656850990e-01 1.1097101539398655e+00 -1.2564197751265460e-02 -8.4311203673798840e-01 1.9743083863788921e-01 -6.5514218714945438e-01 2.3929750835726709e+00 -9.2618714897934185e-01 1.4777954393458878e-01 7.6144563268290810e-01 2.3020670082884165e-01 1.5108745211639247e+00 1.3454325464383559e+00 -5.1266733428527689e-01 -1.2698503277887256e+00 -1.2802439345420205e+00 2.3710375873617393e-01 1.1445214149880303e+00 4.0108502774899824e-01 1.7316557193996676e+00 1.0182819422269811e+00 -8.1047116565351462e-01 1.7101714362225950e+00 -1.4229978809003354e+00 -3.6682060355398738e-01 -9.3525470082410000e-01 -1.4142134483447986e+00 1.4973277798881128e+00 -3.2104395406021341e-01 
        </Neuron>
        <Neuron NSynapses="30">
          -3.5859298798983319e-01 1.3973307186828663e-02 -8.7012683471940477e-01 8.1932660880294295e-01 8.0001513789576828e-01 -4.1024168756604640e-01 3.3943685811600272e-01 -8.0903813010691605e-01 5.9759401457287642e-01 -4.9764414202100693e-01 -8.4286581653469070e-02 -5.1982786856269114e-01 5.2110871486856813e-01 1.5777612522176931e+00 4.7360983222722663e-01 -3.3545558454198460e-01 -2.0725603666846255e+00 -9.7407517995553450e-01 9.2409125058417307e-01 -1.2634548486803485e-01 1.4183846096489998e+00 -3.9927963255361831e-01 -2.3111071494774066e-01 -2.0079667652997185e-01 -6.8297604925689059e-01 -6.2457592755974978e-01 1.8281636989572341e+00 -8.0597975207206085e-01 -1.0128608239026542e+00 -1.0720924064186683e+00 
        </Neuron>
        <Neuron NSynapses="30">
          4.5380322072500306e-01 -2.4719273968830963e-01 7.0812281932172760e-01 -9.1986596837957968e-01 1.5822720463659359e-02 1.1739180427598590e+00 -8.5238147319904212e-01 -4.0596825388875712e-02 -1.0400366998150621e+00 1.5800936462218456e+00 -5.5796982233785808e-01 9.4003936578300218e-01 5.0253285841915618e-01 1.1323708518330740e+00 -5.7677819938239519e-02 1.3833988590663882e+00 -9.2610687141295445e-01 -2.1553929621756854e-01 -2.0054997341641947e-01 1.5013056105012984e-01 -8.1585366124461589e-01 8.7662982138163648e-01 -1.6397845575635406e-01 5.8463466023754129e-01 -1.0054999691878188e+00 1.5596284652074555e+00 1.8275558236844983e-01 -5.6972907421958785e-01 7.0574062001938320e-01 -1.7803122210103295e+00 
        </Neuron>
        <Neuron NSynapses="30">
          -6.6436644170166692e-01 -9.3858787159489798e-01 -1.0270585302243320e+00 7.6101332248279141e-01 3.5914508856211030e-01 2.2735324796226752e-01 -1.5382567717107695e-01 -1.1635327337445447e+00 -1.4081540097380536e+00 1.3172171882701342e+00 1.2299094307597020e+00 -8.3686421040513770e-01 3.2702699379337469e-01 -3.0322386190596384e-01 -6.3050806922969194e-01 8.4454688909159237e-01 2.8818265583585179e+00 -1.6598211499799953e+00 4.4006562963040907e-01 2.2917114289724572e-01 1.0433417200641171e+00 -5.7632543694912519e-01 -1.8886246105428912e+00 -3.8737191161741968e+00 -1.1353574326958173e+00 1.3526713893116540e+00 6.0460162662228933e-01 -1.3679858422028501e-01 -4.0525188563474723e-01 6.6280226037935086e-01 
        </Neuron>
        <Neuron NSynapses="30">
          -1.1350886327545919e+00 2.4099936125582019e-01 5.3259465272849027e-01 -1.3506123847289526e+00 1.3482606373265507e-01 4.6023634782947420e-01 7.1860420405107217e-01 4.3886174418422291e-01 5.8499895895383003e-01 -1.0700607963338091e+00 1.5227320529850563e+00 3.8884519848928706e-01 2.5708468228520298e-01 3.4358291581676959e-01 9.7433436807217655e-01 -2.1691654646748820e-01 -1.5356277404711144e-01 8.6053519521804056e-01 -6.2161130358939942e-01 -2.0575292577646073e-01 1.4072553466205762e+00 1.3786818816684439e+00 -1.2102733758237945e+00 3.9956511855679244e-01 1.1618646657849292e+00 -9.0442768384782479e-01 1.7081833476258592e+00 -6.4768698547609055e-02 -4.3552965827101608e-01 -8.9111191370110132e-01 
        </Neuron>
        <Neuron NSynapses="30">
          -8.2882628912868683e-01 4.2612079993055596e-01 1.5004948300066154e+00 1.8324502798057529e-02 -1.3270981239310629e+00 2.2250621752350819e-01 4.8392223557709962e-01 2.9630441069131628e+00 -3.0960065759164496e-01 -5.1409764742168018e-01 -1.0144367086007295e+00 2.0611294592431619e+00 1.2304880666761355e+00 1.5754218784879750e-01 1.4833949263474817e+00 -7.8007097567685724e-01 -1.9905438528278012e+00 1.1102845115871822e+00 6.9525571659344454e-01 -1.7987554703978044e+00 -9.7589829887315949e-01 -1.1188162021444066e-01 1.0528031089491600e-01 -3.0320369885905829e+00 1.1701711629382965e+00 4.3170024452250724e-03 5.2046223318701249e-02 -3.8461050091067622e-01 1.0129356946330119e+00 1.8716923019083831e+00 
        </Neuron>
        <Neuron NSynapses="30">
          8.4839908485762117e-01 6.5210412819321273e-01 -1.3529258656565157e+00 -9.6421379671266383e-01 1.9007810199067101e+00 7.6045318500240500e-01 5.6295288079993122e-01 1.6389448826092454e+00 1.5981465137584554e+00 -1.7172446163172403e+00 -9.1667947360235347e-01 6.4110518246389170e-01 -1.1839108891046031e+00 -1.7295716097043951e-01 1.7151850478371347e+00 -8.5826260315726377e-01 1.8441881364083321e-01 2.2229329823685257e-01 -1.2239887123445030e+00 -7.2380528949788270e-01 6.1773953007479865e-01 2.2812782036962481e-01 1.6168788464717334e+00 -1.7110622060974179e+00 1.3795243667699015e+00 -1.6165762416575682e+00 2.5569660789138149e-01 -1.1123375326158699e-01 -1.4358793479771117e+00 -8.5682635524050099e-01 
        </Neuron>
      </Layer>
      <Layer Index="1" NNeurons="31">
        <Neuron NSynapses="1">
          -1.0652757514803652e+00 
        </Neuron>
        <Neuron NSynapses="1">
          -5.7356204301971714e-01 
        </Neuron>
        <Neuron NSynapses="1">
          -2.2947991652119386e+00 
        </Neuron>
        <Neuron NSynapses="1">
          -4.3952915857730374e-01 
        </Neuron>
        <Neuron NSynapses="1">
          -9.9089775176743178e-01 
        </Neuron>
        <Neuron NSynapses="1">
          7.5041539261255408e-01 
        </Neuron>
        <Neuron NSynapses="1">
          -8.8479755261272031e-01 
        </Neuron>
        <Neuron NSynapses="1">
          6.4816738397475571e-01 
        </Neuron>
        <Neuron NSynapses="1">
          6.0802027041373630e-01 
        </Neuron>
        <Neuron NSynapses="1">
          -7.9193791662129231e-01 
        </Neuron>
        <Neuron NSynapses="1">
          -4.1436716135409252e-01 
        </Neuron>
        <Neuron NSynapses="1">
          -1.2235797219057494e+00 
        </Neuron>
        <Neuron NSynapses="1">
          -1.7507991070217488e-01 
        </Neuron>
        <Neuron NSynapses="1">
          2.8262321973786814e-01 
        </Neuron>
        <Neuron NSynapses="1">
          8.3417994895839909e-01 
        </Neuron>
        <Neuron NSynapses="1">
          -1.4950079727058699e-01 
        </Neuron>
        <Neuron NSynapses="1">
          -1.3506681788086163e+00 
        </Neuron>
        <Neuron NSynapses="1">
          -5.8264698500309431e-01 
        </Neuron>
        <Neuron NSynapses="1">
          -5.0996094015778670e-01 
        </Neuron>
        <Neuron NSynapses="1">
          -6.7118467800340165e-01 
        </Neuron>
        <Neuron NSynapses="1">
          3.2535792408002395e-01 
        </Neuron>
        <Neuron NSynapses="1">
          5.8372968845101703e-01 
        </Neuron>
        <Neuron NSynapses="1">
          4.8876025945335377e-01 
        </Neuron>
        <Neuron NSynapses="1">
          6.4937873935233792e-01 
        </Neuron>
        <Neuron NSynapses="1">
          -9.8494076969711103e-02 
        </Neuron>
        <Neuron NSynapses="1">
          6.3088716470263972e-01 
        </Neuron>
        <Neuron NSynapses="1">
          -9.9015341741787188e-01 
        </Neuron>
        <Neuron NSynapses="1">
          8.1704382821265220e-01 
        </Neuron>
        <Neuron NSynapses="1">
          3.0768438495045830e-01 
        </Neuron>
        <Neuron NSynapses="1">
          3.5334490251555933e-01 
        </Neuron>
        <Neuron NSynapses="1">
          -7.7864400036045855e-01 
        </Neuron>
      </Layer>
      <Layer Index="2" NNeurons="1">
        <Neuron NSynapses="0"/>
      </Layer>
    </Layout>
    <InverseHessian NElements="73441" NRows="271" NCols="271">
      <Row Index="0">
        2.1391328981721514e+00 4.2451419369391633e-02 1.6603270201714987e-01 -2.4391049744644444e-01 -1.3093934872364708e+00 -5.1272253938308976e-01 -1.8718708273141873e+00 -1.4433224495751307e-01 1.6358339133024899e+01 -5.1816007184550694e-01 1.1281262450016633e-01 1.3217015941775814e-01 3.3348461135398546e+00 1.3482220179179887e+00 -1.8311117429590540e-01 -2.4137553421354779e-01 -2.2960388705402066e-01 3.8257406999406496e-02 2.4532012455995975e+00 -1.6007736157584315e-01 6.9349654882142148e-02 1.8183847625691074e-01 4.5768028370081509e-02 2.8897246596977999e-01 -1.4051022095713648e+01 3.7670556560897617e-01 -1.1570847099579158e+00 -6.1770764039828840e+00 -1.3217058061498919e+00 8.8314979610102928e-03 4.7515819256768643e-01 -5.4336573197786220e-01 -2.2577266911753152e-01 -5.9774364928335910e-01 -5.5719034451331706e-01 1.0435838762396481e-01 -2.1945328036637752e+00 -1.3565925667437587e-01 2.6237223591562159e+01 -1.1214955773397989e-01 -4.9374948181106454e-01 -1.7668580082747978e-01 1.3606999131731898e+00 -1.0767762805104919e+00 -3.7858233918198314e-01 -2.7567765228480900e+00 1.7914424494254513e-01 -1.1932632187587416e-01 -3.1311650736180954e+00 -4.2610813021474081e-01 -2.2291994718828045e-01 -2.8657750508503566e-01 7.1825880136493336e-01 9.6791725534240369e-02 3.4980215234746987e+00 2.9248753835078006e-01 1.4900315857706187e-01 -2.4897484241277961e+00 -2.5231914491882496e-01 6.1010667197612944e-03 -2.1391137660859521e+00 7.7301125081292033e-01 2.0391610905167207e-01 -1.8282768506634428e-01 1.1665356501909983e+00 -2.4490400230172304e-01 -6.8812615526853871e-01 1.4578138117393899e-01 -2.2555004242155491e+01 1.1561889754019763e-01 3.6643757485604039e-01 1.5769015391910279e-02 -4.7783231331509306e+00 3.4690228181145621e+01 -1.0337658037119746e+00 6.2410161607588610e-01 -2.0128548446144473e-01 1.3586859950719432e-01 -7.9438208596651290e+00 -4.9342746320930375e-01 -5.6360829860994477e-01 4.1042925902414207e-02 -5.7533347504363963e-01 -8.6538182392105911e-01 1.4132300383484235e+01 7.9156990640392610e-01 -6.2701447999890036e-01 -5.0643141822498396e+00 -3.9119795441227345e-01 2.4555877914464119e-01 -2.8524272833531361e-01 -3.0096519585454212e-01 -1.3225902141500639e-01 -9.7751523568431701e-03 -3.5642431187734669e-01 9.1979124587840289e-01 -3.6118254368100882e+00 4.4272581586800724e-03 -2.4127607211154288e+01 1.3908616569204174e-01 1.7636491836420351e-01 -5.7321020977700143e-02 3.1975813259433599e+00 1.8467398569030365e+01 5.4756744945545988e-01 -2.5060304324559635e-02 9.3016936139191292e-02 9.2906563262517672e-02 1.0158582435243234e+01 -1.2487037993689223e-01 -1.7897096991262640e-01 -2.0160093475130561e-01 4.5475499748314552e-01 4.2656324767653499e-02 3.2797865972965013e+01 -1.6948513497878970e-01 -7.3474667077408518e-01 4.4919703504714539e+00 -7.3972252433672703e-01 -3.0376626041113769e-02 8.0306345376919963e-01 -4.4250671022054378e-01 2.3774719037006814e-02 -2.9088284415432686e-01 1.2123459268856704e-01 2.6283380199912565e-01 9.9918418382496293e-02 -6.5842184318926750e-04 1.1955223518790750e+00 1.2881046660005557e-02 -9.4270093836136409e-02 -2.7245370454605566e-02 3.7902099319100264e+00 -7.4933230018449173e+00 2.8866341137867069e-01 2.7961763315440480e-01 -2.4340535605048175e-02 1.2044133673301566e-01 -1.2542355083091012e+00 -9.9921979750537876e-02 -1.1169120747733481e-01 -1.2585856117615418e-01 8.3567130430064773e-01 7.5666737253635001e-04 -1.9077554572504770e+01 -1.6974603837856553e-01 -3.0476369683065657e-01 8.6397856189813993e-01 1.4683002075990029e-01 -6.4559045390731651e-02 1.6662099498463304e-01 4.7042274025420699e-01 4.2662504036563659e-02 5.7710281975185085e-01 7.7412583759059084e-01 -1.3574149175910497e-01 3.3782328836217292e+00 -1.7422763765361404e-02 -2.9056324717693784e+01 -1.5901339087563221e-01 -9.2023495195345667e-02 1.2735061071883179e-02 -1.3533250349199637e+00 8.9020433679573507e+00 -3.7210599666251715e-01 3.6817009806519918e-01 7.9939474726141574e-02 -9.2929114020029902e-02 2.2774779471239501e+00 -1.7947317575344643e-01 -1.9344754249370411e-01 -4.7280852810640206e-02 6.3475538741492393e-02 -7.9245097552809313e-02 -2.8884170449950460e+01 5.6188261026295164e-02 -8.7158805464613487e-01 -1.2079332442492505e+00 -1.4304959852605492e-01 1.1402145447819192e-01 6.9863530194752244e-01 9.6136427811094272e-02 -1.3347398329977306e-02 -1.2740051548325595e-01 -4.6964059391108914e-01 -1.8946290133311811e-01 2.3253932272076678e+00 -7.5610141788904781e-02 6.6799301612472544e+00 -8.8737502299550269e-02 2.4267539934959784e-01 -6.0289413491670177e-02 -2.7456385952511946e+00 -1.3312542306141745e+01 -4.1292800474093710e-01 -1.0911869393830165e-01 6.0792339051733438e-02 -8.5254122206148308e-02 -2.9826559593066881e+00 -3.0683930151766314e-01 1.6561179520505262e-01 -1.0295914846768126e-01 -4.3775764896163312e-02 -1.4492221818477768e-01 -8.3936583630802204e+00 1.5320791897641617e-01 2.8374116511776037e-01 -3.6211593000494702e-03 -1.9593573766816297e-01 3.2563754252163679e-02 6.7249532067227169e-02 -4.6222748023492727e-01 8.2072067562796530e-02 -6.5721733087239553e-01 -4.5561096571529036e-01 2.3381398450678026e-01 -5.0284547831811643e+00 -4.6665932475624561e-02 -2.5180112942318402e+01 -4.4204072663663002e-01 2.0003211780535007e-01 -9.8764531618814613e-02 6.1183672818549475e+00 1.9366967076620540e+01 -1.4858041791276668e+00 -2.1958874491839415e+00 -2.0342316409365885e-01 8.7441677426159381e-02 1.6532019293753288e+00 -1.4002152656472557e+00 -5.9531026895454608e-01 -2.5616905307705262e-01 5.5951183072091293e-01 -5.3418033325989667e-01 -2.8371185027435217e+00 1.0563102810662248e+00 -1.1801665769932206e+00 -7.0317671048361516e+00 -1.9156329554483487e+00 1.7909125049768329e-01 -1.9520586287653150e+00 6.4973771177384870e-02 -1.0751860507622613e-01 -4.3870402094429539e-01 9.8797382864348982e-01 -8.9386194225078375e-01 9.5895959123140475e+00 6.4880400939235208e-02 2.1485583141789260e+00 2.3870865187403645e-01 -1.3946710306351834e-01 -1.1055326041031827e-01 -1.2590645498471065e-01 -9.9448935288326350e+00 5.3402229245510346e-01 3.4211776308283182e-01 -1.1563732141662103e-01 -1.1943518717548895e-01 -1.1929816763517151e+01 6.9344504543445720e-02 1.6140529848540630e-01 1.9420022399754727e-01 3.4906072582621400e-01 -2.5784061546378245e-02 4.1654498549124508e-02 1.5451896379051536e-01 -1.4784893704021760e+00 -1.7688332560989636e+01 -1.9315314829172436e-01 3.8524973765038897e-02 -1.6065137331157061e+01 
      </Row>
      <Row Index="1">
        4.2451419717345562e-02 1.3843220752738574e+01 -2.7622432861687130e-01 9.5794699151912455e-01 1.3581389967564128e-01 2.2443753129179216e+00 3.5020760115269240e+00 -4.3861621545763874e-01 -7.3165237211321241e+01 2.7516211510615585e+00 -2.3084157417589202e-01 5.3524226119751894e-01 1.0976214879060551e+01 2.4997356040654477e+01 2.3562410250976189e+00 2.5503158004356949e+00 3.4771326693999394e-01 2.3402928688469427e-01 1.1212427720335715e+01 1.4070759081970778e+00 -3.7005146943583656e-01 -6.2552661606024929e-01 2.3407191283795778e-01 -1.7828250775164542e-01 -6.2018234066563906e+01 -5.7288235506327956e+00 6.4659245404167387e-01 -9.7304226131429754e+00 -3.3169175080354962e-01 6.3609936310654902e-01 9.7092985551088551e-01 4.0818461121301413e+00 -9.1026975679214708e-02 -3.8010987186244810e-01 -4.7846362055957883e+00 -5.1527571808366712e-01 1.0131567902666774e+00 -6.0421876281827402e-01 5.4536452039096055e+01 8.9791930692688005e-01 7.5959146167586911e-01 1.3521406896924790e-01 -6.8738833687254610e+00 -3.6866190617385769e+01 7.4429392735952127e-01 -5.4449507507947112e+00 2.0009575006042107e-01 4.3678329660312026e-01 -2.5640362864954653e+00 1.0462581041681356e+00 -2.2182342588527071e-01 1.8483899223050781e+00 6.2716054869063287e-02 2.9603516465884716e-01 -4.6671950831778020e+01 -2.7815235618158756e+00 -8.7201250510309114e-01 1.5852882371725132e+01 4.7147285147927995e+00 6.8101971197819533e-01 -1.1064614451237849e+00 -3.9899908075398720e+00 9.5423275257360551e-01 5.6534909592466471e+00 -9.7632937117245722e-01 -2.7367114837515172e+00 8.4412605223480242e-01 2.5082748374079872e-01 3.4358867380280181e+01 -2.3787524463597896e+00 4.3391038022672557e-01 -7.4823032656886967e-01 -6.2711541112457869e+00 -8.5161359840856079e+01 -1.4028975479944417e+00 4.1406895362584635e+00 8.3146553506511900e-01 -1.0041453937048015e+00 -2.1912618822599974e+01 -3.1701594023359894e+00 1.6500313964783184e+00 -3.5785100366839817e+00 -1.4999680823528108e+00 2.7121914137277936e-01 5.7722070742437495e+01 1.3269397743967046e+00 6.7198447555042329e-01 3.1857836320150348e+01 -1.2407236498103568e+01 -1.4924104389798600e+00 -2.1632428304672061e-01 -4.1057693097541348e+00 -2.8148960016938951e-02 -7.8387953484852186e+00 -1.6242680950980406e+00 -3.0286929579404145e+00 -6.7761330143479581e-01 -3.8328637983065250e-01 -9.2782263782010901e+01 2.3395753301644917e-01 -1.2392461767186502e+00 -8.9189870706143637e-01 -4.0915113045804370e+00 -1.9637124683885933e+01 -4.7436604441897661e+00 6.5319917000358814e+00 5.0700266298841348e-02 6.0783446382989670e-01 2.7782866310539156e+01 6.2985068071620881e-02 1.9726950899852902e+00 8.0787287234047223e-01 4.4983264396486211e-01 9.7649178368659356e-02 5.0654407451419331e+01 7.3174889628503781e-01 8.8638506897356306e-01 1.0445002335934614e+01 5.4742671915802665e-01 2.0223969532004671e-01 6.0630240422257675e-02 -3.8407112110727248e+00 -4.6020547675142776e-01 2.2223108844901378e+00 3.7176315640927893e-01 9.0195754454735377e-01 -5.2220225284570283e+00 1.2733820035696675e-02 -1.3301482950769099e+02 1.2101635162307663e-01 1.4993175011018484e-01 4.4849053574859798e-02 -2.7041137876596362e+00 -1.4375408813127429e+01 -6.9537995896639782e-01 1.2506843061784316e+00 -9.1262058862120088e-01 -1.5053127337597444e-01 5.1191073701338610e+00 1.9549393489120543e+00 -8.0106122685238568e-01 2.2839873734069327e-01 -7.5229534739717319e-01 -6.9329310103586905e-01 -1.5305852214705112e+02 -2.8148494495698739e-01 1.9555169134383044e-01 3.7788790597734145e-01 4.5935492990203377e+00 3.9490339266229380e-01 -2.4941306634264748e-01 7.1748044029089852e-01 2.5472381706966762e-01 -4.6373518194038299e+00 -6.3572882443458290e-01 1.0131249049472379e+00 2.3882284286581701e+00 -1.3751273248282947e-01 5.8953812142988980e+01 -4.2511841697913180e-02 6.7510880688798802e-01 1.1226970890505318e-02 -3.5416481865707006e-01 -4.1511137936447106e+01 1.7189498414554891e+00 -1.1475387879397245e+00 -3.8568700360187452e-01 -8.0421522888834224e-02 6.5988455038492333e+00 6.3556506497934384e-01 5.0192664216692551e-01 1.5519156488614032e+00 -5.6930979580985641e-01 1.0624921413667097e-01 -1.2459893138534886e+02 -3.8415462266870420e-01 3.0283618254653655e-01 2.8454020975564172e+00 2.4692109409437865e-01 -2.8632913397651727e-01 -1.8887981779135671e-01 1.1833149366230096e+00 -5.3199478123924759e-01 -5.4714848456089815e-01 -4.5402371065181244e+00 -1.1314063085123605e+00 9.2434377434395643e-02 -8.0778865552844537e-01 6.8438453627943233e+01 -1.7428678353173008e-02 -7.5572240818975733e-01 -1.8363839995668357e-02 3.6199729284070630e+00 -2.0585154354172904e+01 -1.3591564382018688e+00 -2.9388690753646691e+00 8.3990074779835278e-01 4.7626406161938767e-01 -8.1599065857350066e+00 -1.9667700292622059e+00 4.2275169387761130e-01 -3.7603239010190298e-01 -1.6956267918090165e-01 -5.1963336804275717e-01 8.6847896085996368e+01 1.6878864181125053e-01 -8.2635400682059379e-02 2.5613997612345472e+00 9.7374300457641305e-01 3.0499532217660519e-01 4.5018425769287412e-02 4.9160862590861099e+00 4.9018547380180943e-01 -5.8707952573913804e+00 6.6737959727287688e-02 -2.6011994469715312e+00 -8.0771784962254589e-01 -5.7367575699471818e-01 6.7543192128201554e+01 1.2358943523882984e+00 -4.4614380299394329e-01 -9.3006759456694321e-01 -5.8831106964678135e+00 -1.0019180240862309e+02 -3.0199824499057106e+00 4.4547497450365929e+00 9.8410671104924741e-02 7.5433300768457556e-02 1.8202354900074390e+01 -1.0306653749384305e+00 2.3856813070045613e+00 -1.9237742024849223e+00 -2.3136296433040604e-01 -3.9014271595750927e-01 -1.5221703411009116e+01 -5.8497743727755953e+00 9.0617274087335997e-01 1.5524139095752671e+01 -4.8672272041946529e+00 3.6195258123282326e-01 5.3806982657395386e-01 6.2117270098576922e+00 -1.4334534854717482e+00 4.1343134563418058e+00 2.1329302144944107e+00 3.2969499166342873e+00 -3.2752425908885958e+00 2.7181087434620005e-01 -4.0845412628520521e+01 -4.4986516070352811e-02 4.9943526041233111e-01 -1.6994165351052593e-01 -2.0607108008441983e+00 1.2030520387349027e+01 2.1625958088796313e+00 1.1894913441437698e+00 -1.3416480270166007e+00 6.8312995537673737e-01 -2.6794264605032964e+01 1.0268579316679369e+00 -4.9806155110490025e-02 -1.7867955568616161e+00 -7.0235398240155744e-01 -1.7271045538638577e-01 1.0495474337281188e+01 -2.0037548620007946e+00 6.1291105626420084e-01 -5.6378713170749002e+00 -1.2524279459158905e+00 -2.2828492804662692e-01 2.0432302658274637e+01 
      </Row>
      <Row Index="2">
        1.6603270169680528e-01 -2.7622432664224095e-01 1.1648934159390558e+00 6.5301714157007112e-02 -1.1075481523177944e-01 -1.0252048337887953e-01 2.2508467606497229e-01 -3.4287891123424050e-02 -1.7796349888804716e+01 6.3505492828373599e-03 -3.7391615987995297e-01 2.3481138861168460e-01 -3.0377529755936266e+00 4.1544423919252004e+01 2.5662615544654321e-01 2.5415604000238523e-01 -1.0626468970864298e+00 -3.6543350271707153e-01 9.5195638847161934e+00 -4.0642138749718770e-01 -3.8319327342232501e-01 2.9402330022522838e-01 -1.7258771724326893e-01 -8.2914751967063632e-02 7.5073695235413780e+00 -5.3259735074603376e-01 -2.4027673327780025e-02 2.8113403274615409e+00 -2.7123124656354269e-01 9.4361516825184164e-02 -3.8303424940352154e-01 -3.8596027289981283e-01 1.7986284535833166e-01 -7.5856176639399253e-02 8.2699989093367665e-01 -1.0846198468477020e-01 5.1814585534917390e-01 -1.1969313503407769e-02 1.6993154698144373e+01 3.7678889980796992e-02 -3.2858416510013716e-01 -2.5298445601727712e-02 -3.7730502350943862e-01 1.3371157544547627e+01 -5.6458585637136238e-02 -2.2335330214883953e-01 -2.7931609268667967e-01 -1.1353391895528245e-01 2.4522578051793866e+00 -2.9995140542951571e-01 5.7379678560447400e-02 -1.1379447755678684e-01 2.0163899016318054e-01 -1.0177286040467350e-01 1.2763368297240914e+01 -4.4448677294775885e-01 4.0452965654622791e-01 -1.9661136905467083e+00 1.6211317554683269e+00 -7.6171935478061600e-02 2.0554448274073919e-01 5.9246257856824958e-01 -1.0469698341869775e+00 8.9578797543933497e-02 1.0610441269398354e+00 3.5424497847725345e-01 -3.2458177963475343e-01 -1.3676281518639333e-01 2.2692470965299556e+01 3.4805759276835158e-02 6.4989829333819793e-01 -4.4467997063812881e-04 3.6621949247327428e+00 -5.0673106851902901e+01 2.1438481640574736e-01 -9.6064823747243011e-02 1.3090071757762325e+00 9.1264154941799180e-03 -6.7460356378521746e+00 2.5620375335303347e-01 2.2490797650779093e-01 -4.6891410401235273e-01 -3.7171722964731124e-01 -1.1500700855787180e-01 6.6763325075186444e+00 4.8815826867554701e-02 -4.0076419166493937e-01 -5.9078539233049288e+00 -1.1612577215055959e+00 -8.7843546093798963e-02 1.4381013645535914e-01 2.4511309057685676e-01 -2.2313818486940504e-01 -1.7711245632277642e-01 1.4550595947860318e-01 5.4307129752720662e-01 -6.0059962931359945e-01 5.3119672222997544e-02 4.7995897506190346e+00 1.0889257931251395e-02 2.0627932147880199e-01 1.0280610319289074e-01 -3.4192155769610135e+00 -2.6446384122131214e+01 -2.6679041932206538e-01 -7.6116152069371767e-01 1.3304586248662453e-01 8.1720593673687392e-02 4.3344126834828476e+00 -1.6897930218431648e-01 -2.3492823602016719e-01 -1.1648589362237063e-01 5.5959384187680627e-01 -3.5236859148976202e-02 1.7936088420790490e+00 3.1850469218168920e-02 -2.2687199077434753e-01 -1.0161975140205978e+01 1.6381951077036022e-01 -1.0881225748246565e-01 -1.5706429754478940e-01 1.7307030715586921e-01 -1.6211624837662197e-02 -6.7801529812255035e-01 -5.4904984129705992e-01 1.7587632480712621e-02 -5.5164392352796965e-03 3.1734078258400099e-02 3.3411130405339211e+00 1.6332768098975260e-02 -7.7637028037343445e-02 1.4727742041006542e-01 -5.6415786463584361e-01 2.6061470772524238e+01 -1.8149029799092248e-01 2.7358565504076698e-01 -6.2752245818149491e-02 2.3456607229951787e-01 5.6228232159069362e+00 -9.3892379702529311e-02 -6.1000081851773302e-02 1.3873414262208192e-01 2.9015094727356866e-01 2.5005968408627698e-02 1.4246234981061157e+01 2.1906970487974481e-01 1.7516069351243910e-01 4.9649596103652183e+00 -5.9138865456331158e-01 1.0512560996177739e-01 9.8747485556287984e-02 -3.2035099773646175e-01 7.4752993708766508e-02 4.1584146268072769e-01 -2.4821780285475326e-02 -2.1314803905356611e-01 -9.9012483570891874e-02 1.7012654133291838e-03 -1.1184856942364313e+01 -3.8759402985675540e-02 -7.8878100029554143e-02 1.0372750572928824e-02 1.3045480739722981e+00 -1.9775920137589317e+01 -2.7219761350117644e-01 1.0377495268164383e-01 -7.0459176239807783e-02 -1.1366502373296421e-01 1.5621496892055970e+00 -5.7140641936644629e-02 1.1101205327878577e-01 -1.6799981759897742e-01 -5.9550383503862395e-02 1.9629093603940960e-02 -2.5451746504785028e+01 4.3475268994586230e-03 -1.6913875867474865e-01 -3.3904210527747964e+00 -1.8790801140014501e+00 1.0224032915201750e-03 9.6812615134029473e-02 -1.1821003470212665e-01 8.0409673881824767e-02 2.3635304163686618e-01 1.4707894459359756e+00 3.5381930438958686e-01 -3.7271078493394105e-01 -5.5009807098941994e-02 -6.8747001459430166e+00 -1.8639279121895939e-02 1.1201536886842457e-01 -1.5153528004977407e-01 -1.4766835666255180e+00 1.4294595946066542e+01 3.0334239323200674e-02 -1.5735763004946213e-01 -3.9630196937469629e-02 -1.6680136783363492e-01 -1.9775977777303513e+00 6.4308421326431198e-01 6.4885233031157591e-02 -1.7456982578701555e-02 -2.2627406207587946e-02 3.9518084815032911e-02 -7.3410754432532341e+00 7.2830806476457607e-02 4.2234935875808982e-02 2.9225773952004657e+00 1.0030906677796414e-01 1.5365245466383903e-02 3.2152242551047011e-02 3.6953554785926551e-01 2.8231197346629794e-02 2.2293260550306337e-01 -5.5281634640500110e-01 5.7160631797257955e-01 -4.9795874761877235e-01 -8.8925189439284846e-02 2.2016387900968866e+01 7.3599873075380629e-02 1.5102141615494649e-01 1.6593637692186006e-01 -3.0434431099561792e+00 2.7422746358241913e+01 -2.0388710808730220e-01 -4.1083485076568027e-01 1.0183555775440267e-01 -4.2482442798008274e-01 1.2128028962792238e+01 1.6352527995137950e-01 -4.1734896583513842e-01 -1.8967054444720594e-01 2.7729825044538947e-01 -2.5545352568661361e-01 -2.3810473655957367e+01 -8.0571283515598180e-01 -8.2423335108208026e-02 -1.6058134223273166e+00 -4.5509347241719339e-01 -8.1523178795378903e-02 -2.0648249929458648e-01 -1.7660126318927261e-01 4.8300348927450476e-01 -3.8315752183683860e-01 -7.3435628552835797e-01 -1.9621426384308213e-01 1.3684171562155834e-01 3.1553442080833646e-02 -9.9821599376304011e+00 2.6955934168266811e-02 -6.9468990584742762e-02 -2.6787290080538423e-01 -2.7202593697972510e-03 2.2267744997002520e+01 -8.7294580873913730e-02 -8.8942953105602240e-02 9.8886085541094487e-02 -1.9112750992311023e-01 -2.0115299001448252e+00 -2.9443367906448548e-01 2.2808712708471179e-02 8.0326747328183179e-02 1.3766911251090380e-01 2.2069255740126199e-02 -6.9052977599166399e-01 -2.9975924591012204e-01 -1.3850344181962382e-01 2.0512097062825898e+01 -8.8943406961603522e-01 -6.7970960952574710e-03 1.0182368276475655e+01 
      </Row>
      <Row Index="3">
        -2.4391049684708710e-01 9.5794699740033984e-01 6.5301712246351035e-02 2.3669986514663293e+01 1.1395451821044809e+00 6.4558263306888577e+00 4.9530970391328921e-01 6.5426184806015564e-01 -4.0968110719773442e+01 -1.2229882268787997e+00 -5.0997036381635374e-01 8.6418179164359321e-01 1.1776637229076613e+01 1.8028498684074472e+02 9.0228284335500497e+00 -1.1305794970871237e+00 2.3695025476916987e-01 6.7074663018220737e-01 -3.3089492054569689e+00 2.5020898709957202e+00 -7.1020224936004306e-01 -1.1481539560160099e+00 2.8868388967799063e+00 -9.6608992354171419e-01 2.4814637088004957e+02 1.9984082937320009e+00 -8.4588697492180120e-02 7.2230300408809907e+00 -4.5072420785374607e+00 7.9355135584773251e-02 8.2990532454202026e-01 4.3062801454238242e-02 -8.9508129082665894e-02 7.3193325984040740e+00 -1.3443128073853692e+00 3.4525334653772615e+00 1.0212281390661528e+00 1.5629924605852574e-01 -1.3867426486728448e+02 6.6414449159680033e-02 6.5520842212900365e-01 8.1933185290782651e-01 4.3062442832645420e+00 6.4292448493118840e+01 -2.3772704065383343e-01 -4.3634763810857535e+00 1.5631674884348512e-01 6.6650451516133735e-01 -3.4201949072041607e+01 7.0593399092919029e-01 3.0701125091454351e-01 6.7542240764493622e-01 2.6801067571793102e-01 -6.5356456185409084e-02 1.0215290617776539e+02 2.0641187187116099e+00 -9.7704143687795997e-01 -7.3720389073097783e+00 3.7859046694978562e+00 2.5510525460964240e-01 1.9544383769795148e-01 2.6877184998783754e+00 6.2765334017570384e-01 -1.6558298274890330e+01 -3.0110710712621929e+00 -4.7350781613558297e+00 1.7916772281249287e+01 2.6873539201498731e-01 9.6452953414803687e+01 1.4454127649750479e+00 4.4477382678113098e-01 -6.8281280355730978e-01 -1.4335867981804167e+01 -2.3706259825447523e+02 -2.2192628254171054e-01 -2.9818418102916429e+00 -9.5323758017144655e-01 -1.8181456563846141e+00 5.1686616349025059e+00 -3.5614571283344345e+00 -2.0182081607544244e-01 5.1435229001798461e+00 -1.3614514479257296e+00 3.7912596112267076e+00 -4.8364261603556997e+01 -1.2817187004008204e+01 1.3861184862460667e+00 -6.3225884846016243e+00 2.6404562930806090e+00 1.1608539931316706e+00 1.9624047733201957e-01 1.5306652851799734e+00 -1.9876292405554846e-01 -1.1199204733443025e+01 8.0633438536524904e-01 -2.7725196565939547e+00 4.6033030952730298e+00 1.4864161675672460e-01 -3.3776757610640118e+00 3.7837061762458535e-01 7.3590471696164350e-01 -1.1394622583008480e+00 -1.6161565275370030e+01 -4.0764925002026281e+01 -6.5676825891390864e+00 6.1468585737491175e+00 4.4571372897710232e-01 -1.8433600755597257e-01 2.4010975389042613e+01 8.2592024840561229e-01 -1.7299241065369735e+00 1.0781337520426546e+00 -1.9883449004764842e-01 6.9391513788492754e-01 1.1546214577816005e+02 6.8187777226668400e+00 5.6793500109551587e-01 -2.4056272084826485e+01 4.1036229272523759e+00 -9.9806052812528545e-01 1.1993108944377817e-01 3.5141283145472518e-02 -5.3629705177913201e-01 5.3740374019751957e+00 -3.5331131510720493e-01 3.6081267640640462e+00 -4.3731251657685108e+00 -1.6072642407480804e-02 -4.0988202439822118e+01 6.2092353896161911e-02 7.1682518630320602e-01 3.4603984582358915e-01 2.7546806490645510e+00 2.1534971172289022e+02 -2.2702081229568449e-01 3.8091337739069679e+00 5.4945491825183534e-01 -1.5226898279985761e+00 -3.8518788300261534e+01 1.5943778841479941e+00 -6.6809193726226113e-01 -1.4567661767594018e+00 -1.1023765474044103e+00 -3.8427606965511835e-01 1.7364288282101779e+02 5.2330434180206078e+00 -1.1604670886498496e-01 -6.4071708945872246e+00 4.6634220186086650e-01 -1.0301210390126005e+00 -1.2310212960835543e-01 -7.6083169896603020e-02 4.1267678253978279e-01 -3.6929348453346540e+00 1.1360557167693484e+00 -1.9666296948047706e+00 -1.2178422521171584e-01 -2.9009165780654961e-02 8.5858566487122275e+01 -6.6705163460167938e-01 7.2667320256414358e-01 -3.8383376357607468e-03 7.6639727995588003e-01 -5.8901545302708747e+01 2.8432693780737148e+00 -2.2946410773816135e+00 5.1596122418484811e-02 5.9058831721768679e-01 2.6594509246359461e+01 -2.0226907343369445e+00 1.3837597595014595e-01 1.3090958873968601e+00 -5.6317828528279046e-01 7.3300877317440158e-02 -5.6104356645486604e+00 -1.2051511473687131e+00 9.2572156372261782e-01 -1.2536443522077295e+01 -1.8977568517648977e+00 8.4598086222528401e-02 -4.8524628470920483e-01 7.2649302699091445e-01 1.9675449670662670e-01 -6.6712985988110163e-01 -1.4046311092489874e+00 5.1351675304351929e-01 3.1260308013527145e+00 4.2395837052218360e-01 3.3903822455799727e+01 -5.1688994396074683e-01 -3.4731537625037640e-01 -4.9227157117778686e-01 4.3722348220521718e+00 2.3989921375997767e+01 -5.5837893505852749e+00 -3.1514065558089988e-01 1.1672395111170575e-01 1.3186100552254787e+00 -3.3349798337164560e+00 -1.7908793703550883e+00 -5.3511105121503377e-01 -6.4039910183062432e-03 2.4104446202535890e-01 -1.7472806891185155e-01 -3.5864804907767535e+02 4.6431235738550436e-01 -1.9192494146280181e-01 1.3808538556152151e+01 1.8007411720625082e+00 -1.8455366607590884e-01 1.1290286782657653e+00 4.4849217513159134e+00 -1.3484401697668830e-01 -1.1602590513508737e+00 3.3352393153624238e-01 2.1625090047933360e-01 1.8478344284626850e+01 7.5167923317146057e-01 -1.1691742613454301e+02 3.0247619416679195e-02 1.2222858529899261e+00 -7.5634056784607262e-01 -1.5892058998399312e+01 1.0578522589789416e+02 -2.1622450006742269e+00 -3.4640467520548941e+00 9.0633933723857252e-02 -2.8221639239968033e-01 8.0386241180058100e+00 -1.3004071388456127e+00 -2.5050689506395698e+00 3.4957615074966415e+00 1.7803159506681350e+00 2.7519968774240890e+00 -1.1008274023507511e+02 -3.7632611562169309e+00 -2.6489368696182092e-01 -5.4631321599285343e+00 3.1707475231749189e+00 1.2769998319209619e-01 1.1726320497540930e+00 2.0162372755927245e+00 2.3622719674727204e+00 4.4816686483433061e+00 -9.5294337574199695e-02 2.2590298448955757e+00 -7.7584875355235265e+00 -1.6786607598764236e-01 -3.2775529315105793e+01 1.2208089780352613e+00 3.4852101704621730e-01 -2.0150717642060634e-01 9.0019135187191202e-01 7.7558800732415094e+01 2.4840835980822509e+00 1.0954789812286236e+00 3.8749833450810822e-01 1.8159472370599690e+00 -4.0703132775734979e+01 -1.4508869053896021e+00 -1.7330036765218537e-01 -1.7260701641738108e+00 -9.5680916042588793e-01 -6.5110970402000645e-02 -3.2193353545570353e+00 -3.9110973918983181e+00 8.5836007524648039e-01 5.0846098494117264e+01 -2.1911573621750788e+00 2.4301982789832111e-01 2.7349748290829648e+01 
      </Row>
      <Row Index="4">
        -1.3093934845661970e+00 1.3581389581903069e-01 -1.1075481697351552e-01 1.1395451760159665e+00 4.4581822379104196e+01 2.3508838881188345e+00 4.1147620679396759e+00 4.7008781170769272e+00 3.3346817560361302e+01 4.3267226913326934e-01 -8.7404229946604828e-01 6.6670832833286953e-02 4.1364042217793312e+01 -2.9267751929751057e+01 1.2823688216236810e+00 8.3416869922720993e-01 6.4123154112848102e-01 1.2019030493769594e+00 -8.7687002519220609e+00 -3.6567414091814632e-02 1.2614420350992908e-01 2.2954146993765390e-01 1.2767830750096527e+00 4.8046450318622730e-01 3.5560828797128224e+01 -2.2506664349839935e+00 -1.2813556891290463e+00 -3.7285211146265162e+01 -6.8693796021725131e+00 -6.0154794661820254e-01 5.3509118556548807e-01 1.3579193569571255e+00 -8.0444448590559436e-01 3.5858703646512924e-01 2.4543563890138611e+01 4.6324107179972875e+00 -4.1817118083482461e+00 3.5170531038391757e+00 -1.7740745024813333e+02 3.8016380801316962e-01 -6.0554309727728350e-03 2.8578932784422129e-01 -3.0100971706586947e+01 1.8720805289868579e+02 -2.4651236998723203e+00 2.0155918143013301e+00 3.0699792982104950e-03 1.4703315981220613e+00 -3.6844173262839718e+01 -1.2327206714348913e+00 4.7075318581289505e-01 -1.0688515377781693e+00 -1.4331989628970287e+00 1.8309734782563916e-01 7.5007996120477372e+01 2.2796978983427985e+00 -8.7248494078153993e-03 -2.9497176128398856e+01 6.2119146853426157e+00 1.6182686206722208e-01 -3.8692070550859270e-01 -8.2622206600858821e+00 1.3643476004758657e+00 -4.7553730822774183e+00 -4.7921017564915644e+01 -7.8411422514337863e+00 1.2128587602646670e+00 -1.0440502149095421e-01 2.1982431407992067e+01 -1.6857875460593932e+00 -7.7371070649911067e-01 -4.4351311855022824e-01 -1.1877057235677828e+01 2.4583006209813027e+02 -2.7286076855117969e-01 -8.9034113993338604e-01 -1.0512458659090691e+00 -4.8007186353077458e-01 1.3446209164627185e+00 -4.0652511610117115e-01 2.0361068706632830e+00 1.7221183404501433e-01 9.2562329424765522e-01 2.7266136695377896e-01 -6.0449813010111882e+01 -1.4431435715083634e+00 2.3235198637687676e-01 3.2350764584452897e+01 2.1490816130266239e+00 2.5936960002180429e+00 -3.1161978725353134e-01 9.7150188951448824e-01 -4.5077691499459960e-01 1.8262474520162140e+00 -5.7363272497291256e+00 2.8517892997768852e+00 3.1041971994099451e+00 7.0925357736161820e-01 -4.1884879137348548e+01 4.3320860634755953e-01 1.8767756146437964e+00 9.4305166848847910e-01 -4.3540139128051658e+00 1.8167301929496040e+02 1.6184147237993001e+00 -4.6375434362067214e-01 2.6767187762058631e-01 8.3708097483134092e-01 2.8090845481337968e+01 -2.2523461829294620e+00 3.0933920026062816e+00 -1.0721442001725903e+00 -1.3748450109746231e+00 -4.7317791680536664e-01 -2.6096755765321041e+02 3.6088757731625591e+00 1.4299198163922324e+00 2.4455015306238582e+01 3.7135651627662729e+00 1.2456306931105434e+00 2.2171204166910163e-01 4.3226953421445931e+00 -6.4049430899921767e-01 1.0407646127899233e+00 -1.3572547963173809e+01 1.0386259192895657e+00 -8.3363978786385573e-01 -1.7329422409082877e+00 -2.3849693700873299e+01 9.2308068666542042e-01 7.0060043262626021e-02 4.3928778017079240e-01 -1.5857173925334010e+01 -1.9579284691713951e+02 6.5541392724638903e-01 -2.6654949163280723e+00 1.3796776640043880e+00 7.4759024935689855e-01 -4.3345409455523864e+01 -2.5404672583278232e-01 1.3095276041369459e+00 9.1730504575103311e-01 -1.2166673887567836e+00 -5.6706191209439805e-01 -2.3399944393648418e+01 3.3986963846902123e+00 -3.0991868647453354e-02 1.2174143966565955e+01 -1.8692624867132523e+00 -6.0755039745988304e-01 -4.7865734264437876e-01 -2.0362678498346098e+00 3.6285179246409360e-01 1.9664338654618192e+00 -3.7376115010301021e+00 2.9924508348225143e-01 -5.7475505845947437e+00 1.0158389359126525e+00 1.2182573253418923e+01 5.3340358789659403e-01 -2.2281382706930614e-02 9.9912762578458950e-02 -6.0160262073165445e+00 1.6290113103731855e+02 -1.4453258327273069e+00 1.9160186320974935e+00 -1.5185679328774498e-01 -9.7628499046781447e-02 1.0018887619953597e+01 7.1260651169337708e-01 1.9853409728122928e-01 -1.2997092443345173e+00 3.3822104760143142e-02 -1.5704369831478038e-01 2.3334318832768284e+02 -7.6598371519001551e-01 -7.7546210079843236e-01 -5.0688671708147686e+00 -3.9883039513530711e+00 2.1926660069718765e-01 -1.7587157535204351e-01 2.1967517981270404e+00 4.8811199362696611e-01 6.3273058429596496e-01 4.2217684445069175e+01 1.4531186536718685e+00 -5.9914794394257509e+00 3.3927557016186731e+00 -7.9060831907276324e+01 -1.4994849470789087e-01 -4.1529396499901383e-01 -2.6764678877426118e-01 6.2789239161379156e+00 4.2865878409219363e+01 -3.8407363165703363e+00 -2.3727955705066024e+00 -4.3298180657185570e-01 -5.3927219800182546e-01 -1.7011510428131334e+01 6.9213482559282391e-01 3.3427731900413016e-01 -2.4798629315103771e-01 6.6102546455482458e-01 -2.4900100254706953e-01 1.0616319557785236e+02 -8.8343995472163850e-01 1.5148272037760098e-02 -1.9322552046247814e+01 -1.2517365942758991e+00 -1.2478525975929018e+00 -7.4237598172493813e-01 -2.9696614344328731e+00 -4.9020489813951584e-01 1.0878048275217640e+00 -3.6589011463860906e+01 2.8287045431975626e+00 3.0986444583473758e+00 4.8504357501120428e+00 -9.3479744152775822e+01 6.8712545242814671e-02 1.3497904572906982e-01 6.8675039640997260e-01 -5.4063905772300007e+00 -1.7918046851872489e+02 -3.3452164236042989e+00 -2.9332612521306700e-03 9.9832967046504995e-01 2.7077697462733195e+00 3.2429491835429314e-01 -2.6427818961772580e+00 5.3545320389656919e+00 -6.8172355401586493e-01 -5.7999596237289275e-01 -6.4598549566690977e-02 1.9616201216982734e+02 3.1386485061512520e-01 1.2353824698533509e+00 4.0164467095646330e+01 2.7699460122039330e+00 1.6259986642821800e+00 6.1233640686322177e-01 -3.5866488579650930e+00 2.1898778702824213e+00 -7.5601479242845571e-01 -6.4055557912940458e+01 -1.8532657986919503e+00 -1.6257502873736293e+01 -1.7989688166133195e+00 6.9328604863256288e+01 2.5793156640305615e-01 -2.1501991710287327e-01 -3.0733301675477542e-01 -8.4303130287854735e+00 -3.3818137389256684e+00 2.6804250079718535e+00 6.3869869524517497e-01 1.1951814495648692e+00 -5.7394213126723947e-01 -4.5269671365676125e+01 -2.5437340008577891e-02 -9.0794441993971020e-02 1.2887294364522848e+00 -3.7450929209284034e-01 -1.4772772993243577e-01 -1.4018709189671320e+01 -1.4310772859169902e+00 -6.7084951608838894e-01 -3.7200002964072972e+01 -4.4199310323042340e+00 1.4718199183349867e-01 -5.7626385781596579e+00 
      </Row>
      <Row Index="5">
        -5.1272253834081805e-01 2.2443753153345747e+00 -1.0252048646124812e-01 6.4558263242507818e+00 2.3508838917323636e+00 1.5013465180514238e+01 4.8465588131951414e+00 -4.1288687687449638e-01 1.2971470491096884e+01 1.1533915964341197e+00 -2.3947111236823207e-01 9.8655518619966842e-01 2.7634731570540367e+01 -1.4830918025568058e+00 1.9245837312455993e+00 3.1026916727912663e+00 2.1764541259334999e-01 4.2108487584418652e-01 2.2569271978591761e+01 2.6334598213770053e+00 -1.0324501356175646e+00 -3.5932535074274297e-02 2.5840035991218393e+00 5.6145146778700628e-01 4.8082141053455075e+01 -3.6866250527199584e-01 -9.8724796351297384e-01 1.4389430227875417e+01 2.4091505609238890e+00 -8.8793638214044490e-01 3.3652393870386943e-01 2.2926194932356205e+00 -1.1676378618134498e-01 6.8226187390655579e-01 -1.6035052016565050e+00 -8.6032324537555438e-02 2.3632295755125758e+00 -5.0863454435263189e-01 1.0928156118012990e+02 -2.3998238187414056e-01 6.9616619134030278e-01 5.9683241471285908e-01 -4.4965146660764317e+00 7.9690066294808455e+00 -5.3055476875672980e-01 -9.1230841705996024e-01 4.0279863521480282e-02 5.2204043840351466e-01 -6.2648440092961755e+00 5.9130759150958856e-01 -3.4970050777763606e-02 2.2169664238603235e+00 -3.2416164714835438e-02 3.9965154969041067e-01 5.0951645370916701e+01 -3.4582124870678982e-01 -5.2283524739548481e-01 -1.1525024561648456e+00 1.7741575134834171e+00 -4.1439129013203746e-01 3.3336133084051056e-01 -4.3762407673897883e+00 2.8971669041201348e-01 2.4780336214987990e+00 -3.7579364725624282e+00 -5.2861931864138061e+00 5.6943730294811257e+00 1.0027589290299437e+00 1.9813086738768590e+01 -5.3645969345821332e-03 -1.0269872430233851e+00 -8.6233061341246153e-01 -5.5117718679195384e+00 -3.4811251109779064e+00 3.7436191591247797e-01 -8.1210837217942338e+00 1.6773944638395680e-01 -9.9354672730746518e-01 -2.7679738858853895e+01 -2.4957095682995032e+00 7.3722352804901581e-02 -6.9412700761465662e-02 -9.2996344223199401e-01 3.5313820771387527e-01 3.5712618244703549e+01 -2.6052478561150694e+00 1.2805102730663576e+00 -1.3731991942886379e+01 -5.4028392632450775e+00 1.1349621402867398e+00 -3.2991929135029913e-01 1.2128846652121439e+00 -4.0579428339629664e-01 -8.0544029330515325e+00 -1.6819557253377324e-01 -9.9927366727859699e+00 4.1678124646616226e+00 -1.7163505783128752e-02 5.5712653440680555e+01 -6.4424045124334806e-01 1.0095135767669811e-01 -7.8359592616190177e-01 -2.0545213119159417e+01 -1.0234377049533023e+00 -4.1945813681070101e+00 3.2228961153145903e+00 2.8389660155084917e-01 1.3895328568376213e+00 2.2264566996025657e+01 -2.5430606990724669e-01 -4.5826660434833744e-02 7.4982247242137423e-01 1.1193891400522382e+00 4.6904630846375983e-01 7.0794818812049783e+01 4.0875664375739982e+00 1.7345358138823821e+00 -9.4809169260726094e+00 9.4423456556907992e-01 -7.3015678924458838e-01 9.7445860564478237e-02 2.0047192754578325e-01 -2.2200963053587996e-01 3.1576744775312013e+00 -8.2826740902624829e-01 -3.0463333341247960e+00 -6.1343750523820195e-01 -8.6519674214453959e-02 3.2563933333473663e+01 -5.2714052441820425e-01 6.2626949037015367e-01 4.6596718628316214e-01 -2.3681712059874087e+00 2.1386202546266002e+01 -3.0965609190066501e-01 1.7118763269343289e+00 -2.3887074191080565e-01 2.7586843557003515e-01 4.2819104638892833e+00 7.5339775757056748e-01 -2.4310470879186141e-01 -6.0366163832299724e-01 -4.7391196063858482e-01 -5.3946685712528519e-01 -2.1142858612505215e+01 2.0475714178407762e+00 5.2966444681028221e-02 2.5312651142706915e+00 1.2470029105790443e+00 -3.8779829146355682e-01 -2.0133752131343385e-02 2.3314190053916403e-01 -1.7143100496446417e-01 -8.0207481542844761e+00 6.8355010481162770e-01 -2.2330512624746235e+00 -1.1116176378940699e+00 -1.0586258056420031e-01 6.9747992911106849e+00 4.1807880446844331e-01 5.3062377858964316e-01 -2.2674204429108696e-02 -8.0565121726120452e+00 1.4381745573882374e+00 2.2109013292595265e+00 3.6803559520741413e-01 3.0310282775846183e-02 -1.2184057000443235e-01 7.8420175494662194e+00 -4.2458189666822238e-01 3.3036665496659845e-01 1.5169966762358320e+00 5.9081474869812978e-01 1.9692809025369712e-01 -1.0370463634521492e+02 -1.7959545029655750e+00 8.1716538904256253e-01 -5.0061994627226802e+00 1.0660797416429695e+00 -1.1084771492655443e-01 -1.2367834881098598e-01 1.2598682667149927e+00 -2.0410433402558864e-01 5.9079185511691579e-01 -2.6221279773003019e+00 -7.8778707332572084e-01 7.1631876007445916e-01 -2.8097677102325080e-02 5.1116701865332978e+01 -9.2399619957545809e-02 -3.6820533926531451e-01 -4.8793863040607460e-01 -3.0097350492911512e-01 3.3162778908863380e+01 -1.1781540949128524e+00 -2.3150924725193578e+00 2.8818359862213150e-01 2.3168329686535810e-01 -6.4652493085750118e+00 -3.3707415724642118e+00 -1.3875120277876168e-01 -2.2731625161256375e-03 2.2774523539551483e-01 -5.0633430775762100e-01 -1.1514564614436904e+02 4.0495618392776322e-02 -4.6443138068107459e-02 7.8939510604505525e-01 1.0328255446032129e+00 2.7443174203440018e-01 -1.6654853307216572e-01 8.9662320905558657e-01 -2.5002875099569832e-01 -5.6814621685792979e+00 2.0357520266906426e-01 -5.5420546010786493e+00 1.6728622450962764e+01 4.8461034871662201e-02 9.4698591294529649e+01 2.3413237985621005e-01 -3.2926751214205718e-01 -5.3391231529766703e-01 3.1683394751027141e+00 -2.7694093405679851e+01 -3.1162539929626387e+00 -3.6703544205648799e+00 1.8455814191230480e-01 1.1827247605238960e+00 1.1890889164239221e+01 -2.2429218139121563e+00 -1.2275880028274342e+00 1.3045440113905939e+00 1.9557145782670065e+00 8.0295099862091146e-01 -4.6012133558818846e+01 -9.9854758498683527e-01 8.4419183336053660e-01 9.1054427826858859e+00 -5.3182672106741191e-01 -6.0640954055127749e-01 4.0865830327104924e-01 2.2943283909135044e+00 -6.5167648040644655e-01 6.3636150830413580e+00 3.6231508265304369e-01 1.0793643814324406e+01 -1.3935210560961586e+01 2.9571154113205739e-02 -3.2618864463322502e+01 -5.2922414574916932e-01 3.3782685567718618e-01 -6.7500430624760799e-01 -2.2637068781552405e+00 3.8498512325152944e+01 3.3408412980510144e-02 9.7238576162743628e-01 -3.8605564435323680e-01 2.4217207520766204e-01 -2.6867312270618950e+01 8.0145152834671407e-01 -8.4459392392746135e-03 -1.8464865452848649e+00 -3.8894080102849626e-01 -1.4074664304561724e-01 -6.1628475571601085e+00 -2.6436694776061715e+00 3.3046592187147228e-01 2.0934853587997779e+01 8.9762809023867351e-02 -6.4483813695181080e-02 3.8092731290221678e+01 
      </Row>
      <Row Index="6">
        -1.8718708173726069e+00 3.5020760072197503e+00 2.2508465877503497e-01 4.9530966474729043e-01 4.1147621073368139e+00 4.8465587962785808e+00 9.1974669171151419e+01 -1.9705726393510985e+00 -1.9260584824606173e+02 9.0666168004833025e+00 2.0311843470019944e+00 1.4024401125725092e+00 1.2974525824157350e+01 2.3768040586220843e+02 1.0913245526018788e+01 1.4038241545041647e+01 4.8970556667193682e-01 1.2117800475039222e+00 6.1132834421675838e+01 -3.3693515124396547e+00 -3.1471420224843651e+00 5.9824090781279526e-01 3.3532655867877912e+00 1.7340907907753393e+00 -3.0061969908895367e+02 -1.3228121720444870e+01 -7.0404273915172899e-02 2.5147603797360013e+01 -9.1621719947527236e-01 1.4841781062516990e-02 2.3065527708180360e+00 2.8724069125091445e+00 -1.4130423366348882e-01 1.4974570179438695e+00 -2.2187793269608687e+00 -9.8899785822519726e-01 3.8927095837226311e+01 -1.7456658365097186e+00 -4.7748334278491861e+01 5.3678839363400788e-01 2.2147195177900283e+00 1.7963347393603335e-03 -1.1234160313631998e+01 6.1537228592362379e+00 5.9100318632770144e+00 -5.4242758743811903e-01 8.9331986803084495e-01 5.3980950228082603e-01 1.6032009026155489e+01 -3.6786812023957585e+00 -1.4579597696221693e+00 1.7704088879886817e+00 2.1718647381621947e+00 9.2072410670425142e-01 -1.8005941997242260e+02 -8.8310477461286130e+00 -2.7965863514322078e+00 1.7296338157289753e+01 6.8869970974681243e+00 -2.2207909805328674e-01 -2.8685472097665725e+00 2.2876045229552235e+00 8.2884520542913831e-01 7.2770945849146589e+00 -8.3062128336826220e+00 -2.6818196918259751e-01 -6.7575128468242426e+01 2.3669703174246659e+00 1.6347363483812532e+02 -1.5565399674068821e+00 -4.3825819536291428e+00 1.0470783609039747e-01 -2.7949440391570000e+00 -4.2834448617279435e+02 -1.3024995456340584e+01 2.7139618717695893e+01 -1.8408441838827900e+00 -3.3675940726590472e+00 -5.4824664267294374e+01 -1.9220787408981455e-01 6.6317589683716403e+00 2.0166684423577652e+00 -3.6631025802290385e+00 -3.1278227109248853e+00 -2.2059845718917296e+02 2.2156425295775071e+00 3.5042451235594658e+00 -9.6782852329803859e-01 -1.1991983214334351e+01 3.3909555418352966e-01 -9.2175423770921971e-01 2.2684717750094445e+00 -8.0641203394653083e-01 -4.4782840314525956e+00 2.2979699251378820e+00 -7.0787510099873874e-01 3.3088901319192388e+01 4.4714447879767472e-01 2.5764324243679226e+01 -3.2681138879382536e+00 2.6197729877858742e+00 -6.8948632387020048e-01 -4.3898638476275366e+01 -2.2312417571649539e+02 8.6105031090947239e+00 -2.1945926322602469e+00 1.2463068579660721e+00 3.9675744327215785e+00 4.7907368762707357e+01 -1.0328682155552153e+01 -9.1629257779727113e-01 1.5577908446622377e+00 -3.3224098060162288e+00 -1.1788963340816019e+00 2.6341489248881567e+02 -5.8435666266607562e+00 -4.4440903092864403e-01 -2.9211951807044173e+01 -1.3801816434490697e+00 1.3520561680934762e-01 -1.0093663418467083e-02 1.9296316888655816e+00 -6.5557817491802495e-01 -1.6919231609232094e-01 1.1775306379527997e+00 -5.0764053911552887e-01 9.8784737483222358e+00 1.5047927645232884e-01 -3.0882530724464453e+02 -2.9007267467147497e+00 2.7016182199966394e+00 5.2076362780311225e-01 -1.8094213887933222e+01 1.4829612294368425e+02 -4.4639952499603233e+00 -1.2606346631465327e+01 4.3570904523422233e-01 -1.3149571805126072e+00 4.2518088128872513e+01 3.2851798979365361e+00 -2.8148730638531561e+00 -1.1814837527301855e-01 -5.8067753444694592e-01 -1.8730237082944807e+00 -2.7093059065088158e+02 -1.1217633371633278e+00 -5.7753571199668230e-01 1.8915243804827881e+01 2.0548457702116805e+00 -1.9890988559202161e+00 -1.6076382092654740e+00 -4.2511066471165444e+00 2.3753226858897827e-01 -2.8958851723480761e+00 -5.4365610720884359e+00 1.8208700511326281e+00 -3.9085553445272872e+01 -2.0294984807440469e-01 9.1809421713696793e-01 1.3944633511715412e+00 5.4322026134412627e-01 -2.3971176669492257e-02 2.9865965526771632e-01 -1.7671367377996255e+01 6.6925822002076583e+00 -9.0155655643345867e-01 -3.0026338277999748e-01 1.0728994776318239e+00 4.9050581224681000e+00 2.3626613481921286e+00 1.7072331080310610e+00 1.7614018639605666e+00 -2.1795270691669115e+00 2.3417481387499539e-01 -8.8561743266511826e+01 1.2285968494110109e+00 1.5866518917668910e+00 -1.0488276671429853e+01 3.3168218751588274e-01 3.4140819421380431e-01 -9.0443923905956936e-01 -2.7948260217124550e+00 5.1127254403079325e-01 2.8860318973761423e-01 -5.4627557765943529e+00 5.4639341982084966e-01 -4.4140888850198785e+01 -6.5311679556421365e-01 3.6195668121066646e+01 6.2899589549888890e-01 -8.3951232676246224e-01 -7.0981468558041960e-01 1.7365467100818286e+01 8.1911687938481990e+01 5.1526025354368983e+00 -1.0000816933691228e+00 2.3023512489401216e-01 1.4054491057371929e+00 -1.0287551618578570e+01 -6.4369807043483034e+00 -5.7039174646179680e-01 -6.9233204692221761e-01 -3.2446825920369501e-02 -1.2641958054857221e+00 2.0737625451916023e+02 4.4136027142185341e-02 3.3223829762868184e-01 1.3652993730972446e+01 3.0011402288607081e+00 -1.5387796317014524e+00 -1.2205879864294953e+00 1.2377300047792136e+01 -7.4452899729004463e-01 1.9591232757118959e-01 2.7734897604231268e+00 3.8216302333719989e+00 1.0112833834720171e+02 -3.9230706281670003e-01 3.7013059513816904e+02 4.5811122378433096e+00 2.9546107217012003e+00 3.4631989085207016e-01 -5.2178376914936536e+01 -1.1276886657906073e+02 1.4935577475332796e+01 2.9854790671043389e+01 7.0006090792668219e-01 2.8781044675629586e+00 7.8206892141601514e+01 -1.5371336261105194e+01 -1.0347464098180597e+00 4.3357856647023070e+00 4.7281596875278975e-01 -3.5804515622304409e+00 1.1935896068585043e+02 -2.1323340341897111e+01 -1.6754166489630060e+00 6.4186337344509390e+00 -8.1996251095205182e+00 -2.3814719468743668e+00 2.5449692009717237e+00 7.2850525827757417e-02 -6.4500558955344545e-01 3.3349020745172240e+00 -2.4934551103052200e+00 4.4542061621200713e+00 -1.8720452468603449e+02 4.7899135093787382e-01 -5.6300139333170307e+01 -4.6620271152163557e+00 5.8794752482572421e-01 -2.7373643033849797e+00 -2.0787335201043433e+00 1.0416824387791974e+02 -1.7309171516380761e+01 3.6987660451617899e-01 -9.4408914136508226e-01 2.4572967632443747e+00 -1.7384636637034628e+01 -5.1336856472558878e-01 -3.9568571170925537e-01 -1.9455858371171146e+00 -1.3071941390483772e+00 -5.2794066999987810e-01 3.5010909947409466e+01 -3.3029609992225417e+00 1.2370263974067690e+00 9.3191026753216192e+01 -1.1428331191789525e+00 -3.4019965174471523e-01 2.0886191647140205e+02 
      </Row>
      <Row Index="7">
        -1.4433224530834909e-01 -4.3861621556539254e-01 -3.4287890134775595e-02 6.5426185154765570e-01 4.7008781180227261e+00 -4.1288687495498078e-01 -1.9705726359941100e+00 4.3078016744983696e+00 3.0850945129180293e+01 -4.2769186417320298e-01 -1.8381358416957483e-01 -3.4215261935376096e-01 6.1408618203092509e+00 1.5194155179530457e+01 8.3641250016285906e-01 -2.0513345337115174e+00 -1.7949039557554469e-01 -7.3482678446883998e-02 -1.2268571007995213e+01 -1.0052451063087293e+00 -2.1193128435192010e-01 7.5724852931551345e-02 -1.3160966802881102e-01 4.5356293537373873e-02 3.1328353243554666e+01 -3.7984825275157919e-01 1.2194550708932267e-01 -6.1940465587587923e-02 -2.8746981402499721e+00 -2.4390894504629235e-01 -3.3989059058738214e-01 -2.0682305541108395e-01 3.2394586564659839e-01 -1.7883658722416668e-02 4.0602291806168909e+00 -4.0452773097162043e-01 -5.1330227656570959e-01 2.5173355018336379e+00 -4.3139664166159449e+01 -1.1767342230600539e-01 1.8716945974894761e-02 -1.7597046128604954e-01 5.3627669370804942e-01 5.7758804373580105e+01 -9.3577067224594601e-01 -2.4878300299357239e+00 -3.6988254097780943e-01 -3.9011471802120834e-02 1.1008101521025604e+00 -2.1684643907236517e-01 3.2009455120311614e-02 -2.6448504099538628e-01 -1.7842108536727297e-01 -9.3225031617971174e-02 5.9431466774306951e+00 2.0226969816260387e-01 1.9451755419133948e-01 -9.1017357722729457e+00 6.5189481070038036e-01 -5.1625335713915366e-02 6.3101482066662840e-01 -1.6283575637115293e+00 -5.2487569604180773e-01 -1.0933913727117823e+00 -5.4188018617278448e+00 2.0724915541653716e-01 1.8519409330390311e+00 -2.6707326745711435e+00 -4.8097356598781808e+01 1.2806900740631455e-01 3.0385828990832819e-01 1.0726687121931522e-01 -2.8221240134825853e+00 2.4869482345710789e+01 8.0140722810072718e-01 1.3577967408442304e+00 7.7324053506898272e-01 5.8210484805051355e-01 1.8118508582195368e+01 7.0725739540203869e-01 -9.7448720451450699e-02 4.0112891291628616e-01 3.2228427025072304e-01 3.5301406208985253e-02 -2.8146266262060010e+01 -3.8943147537466838e-01 2.9182338845337119e-01 -1.6799581290545378e+00 2.7996903726135720e+00 4.5707930806093655e-01 -6.4554001835740379e-03 5.1117442357464171e-01 1.5896958787023216e-01 9.2844770883135208e-01 -5.1454400615899032e-01 -6.2298041610883048e-01 1.2943055958639551e+00 -1.6920704541447426e-01 6.9874483371838153e+01 1.7471315094379547e-01 -7.3379008911177601e-02 2.5118568949782039e-01 -1.3792395892442357e+00 3.3850784444933204e+01 -6.0454406903759061e-01 9.7841703471231145e-01 -4.0777728329788987e-02 1.5052259613276370e-01 -1.3151721066824225e+01 4.3726938788275693e-01 1.0881492807763609e+00 -5.1152102593175997e-01 4.3705098613574744e-02 -6.8330276762921638e-02 -3.5337700603251704e+01 1.3621604761217649e+00 8.4798401595852879e-01 -9.5053842398215309e+00 1.3339332160712862e+00 -1.9554191464277559e-02 -2.1942266167698118e-01 5.5291645010172219e-01 -2.7318550581666395e-01 -2.4650424548602246e-01 -2.2160716879618869e+00 3.3114511174015110e-01 -1.3477237992729889e+00 -5.0845566334865311e-01 5.1879070191909577e+01 1.6668214699075198e-01 -5.2398709566839181e-02 -6.0278617658188871e-02 -7.7999793880791657e-01 9.3244513737204375e+00 7.4096384150781502e-01 -1.5834905992552270e-01 1.8525490286212187e-01 2.3630126057477718e-02 -9.7679821598016368e+00 -2.4762111844180060e-01 1.1756764531543240e-01 -2.1957499852374010e-01 -1.5495373264568829e-01 8.2575943780087618e-02 2.7667970580000919e+01 7.3627813303913503e-01 1.4052347185194003e-01 -2.2416091952141093e+00 -9.7048131917214131e-01 2.7113219526116498e-02 8.4637327993364764e-02 -1.4194781908004855e-01 1.6635280588758389e-01 1.9748667777160478e-01 1.1562012310312608e-01 -3.3858200676229466e-01 -3.9851943522065225e-01 3.7566775997804797e-01 1.4383298679852032e+01 -6.2026758347611205e-02 -4.7356479246071781e-03 8.8553949106006530e-02 -6.5683934042952641e-02 2.3970310784550941e+00 -4.9149723438961712e-01 2.1592432714311860e-01 -6.4876546638839433e-02 5.8704558935905496e-02 -8.9776350192091603e-01 1.5201543781337937e-02 -1.2843878612861159e-01 -1.6501997425283654e-01 -1.3534433432954573e-03 -2.7040912406702450e-02 5.7705874236713370e+01 -6.5051384515313926e-01 3.2160856427905438e-01 3.4920872937282205e-01 -1.1665314857222517e+00 -7.4354025780453914e-02 -2.0765750506784228e-01 1.3856675546838715e-01 1.7050897662245654e-01 9.1574532334995240e-02 7.7533109548883195e+00 -6.4177531396353626e-02 1.2793637951147718e+00 2.0978477438058838e+00 -2.5065189822755038e+01 -7.4805627138678749e-02 -7.8601266935081626e-03 2.7078560959583120e-01 1.8208907502013796e+00 1.8499878268202146e+01 -1.3877170272545485e+00 -9.8530183819983019e-01 -4.0666963569460812e-02 -6.1071739315342669e-02 3.2176849595694499e+00 5.9148786846491719e-01 1.1062153873963862e-01 -5.4708983140144163e-02 -2.0326955804554486e-02 1.4294641913503886e-01 1.2269588150953997e+01 -4.6270224458826448e-02 -4.6155656079147046e-02 -2.2379589988325712e+00 -6.8442832346982965e-02 -6.5389582409503599e-02 4.2987589476320281e-02 -1.0520124342741024e+00 -4.0973638184648131e-01 8.5955299566764465e-01 -6.5714799177635568e+00 -1.2028547374117551e+00 -5.0312782177184201e-01 1.8764257411730962e+00 -2.6767738610954378e+01 -2.2881055279021112e-01 4.6622265837146903e-02 5.1513090147464628e-02 4.9236290703823027e-01 6.1643607205106633e+01 -1.4617522198551600e+00 -3.4360540713171988e+00 3.3889941180895344e-01 5.9243618329049241e-01 -4.9189944714782881e+00 1.7871042924033204e-01 9.3882120573372063e-01 -2.9877514875032463e-01 2.1456377102185176e-02 1.0801786268498381e-01 4.2878049689303680e+01 -5.5439316848838432e-02 1.0212654345404548e+00 -5.5772414742679404e+00 6.6675227371637646e-01 1.2658495043709475e-01 4.7794871594421034e-01 -2.6402907983104495e-01 1.5131047230984322e+00 -4.2929823670333933e-01 -8.5027044260150042e+00 -1.5895917269683446e-01 -1.5259705299909703e+00 -9.3664471707431274e-01 1.9265199744025242e+01 2.2838502983121411e-01 -1.0262502312599439e-02 3.7466319433809236e-01 -1.1647357620788873e-01 -1.0433712923523948e+00 1.9224835186418563e+00 3.0945859079832061e-01 2.6173828320953019e-01 -3.2366499670531734e-02 1.4520320391320480e+01 -4.1135508673419086e-01 3.5290678019048727e-03 1.2375050963655383e-01 -1.7988309370794542e-02 3.2736651782335882e-02 -1.3642518046312020e+00 -4.8933650483310914e-01 5.1958183434424532e-01 7.9715163748089122e+00 -9.0725566022915416e-01 -1.9205678472105081e-03 -6.2049779339561661e+00 
      </Row>
      <Row Index="8">
        1.6358339339043212e+01 -7.3165238277802146e+01 -1.7796349372103556e+01 -4.0968110188486641e+01 3.3346816488666477e+01 1.2971469403670799e+01 -1.9260586026617068e+02 3.0850945703003745e+01 5.1470655519751279e+04 1.4607866367159126e+00 -5.8326596592906157e+01 -3.8065829287613866e+01 1.1226429405347344e+03 -9.5899976756349279e+03 -3.2564566316567999e+02 9.1126287865357341e+01 3.0800021886579056e+00 4.4869341466726034e+01 -4.5776019187422116e+03 8.0699898892827008e+01 7.6983121458909835e+01 -7.5430028838560048e+00 5.4616524719187701e+01 5.8469124941239832e+00 4.3100249074834501e+03 2.8968534522930855e+02 6.3105860391755808e+00 -4.2354947944884516e+03 -1.6759508838004254e+02 -2.1642388575102899e+01 -3.4707598232765207e+01 -1.9260540060657462e+01 7.5559491288734169e+00 -2.7093235537244726e+02 6.7590124310607322e+01 -2.3277788658660096e+01 -1.0142844179155672e+02 5.7819182271891005e+00 2.9601493780903453e+04 -6.1135098434378108e+00 -9.6692623532451432e+00 7.0352946184018466e+00 2.5638155976702990e+02 1.2465635231310641e+03 -8.1622560342599854e+01 -3.1787884173285681e+02 -6.0174758375389947e+00 3.2516658249052753e+01 1.3872284515010047e+03 -1.5890568641668517e+01 2.6570618489029386e+01 -3.4757630370787126e+01 -2.4532699514932808e+01 -1.6514757989725581e+01 -1.0195806211585168e+03 7.6577177723505969e+01 2.7984122958946710e+01 -1.0902381105085456e+03 4.2842913455172692e+01 3.0411169927885307e+01 2.2089025140391303e+01 -7.1567112135220270e+01 -3.0160016780444312e+01 4.8102868904370587e+02 -1.0487487824095771e+02 -1.6206602916683249e+02 9.8494240893077745e-01 -2.9892984450919329e+01 -5.9401926535686362e+04 4.2259931038779726e+01 4.9166502770210528e+01 -1.0177394864771404e+01 -5.2967350530986835e+02 1.5843156628131383e+04 1.3883350228031023e+02 -1.2422144955702564e+02 1.6150491877643375e+01 -4.5814814768710093e+01 5.5011485342160904e+03 3.5542700657287398e+01 -4.2506920074749019e+01 4.0880758332287925e+01 4.9772882816601509e+00 4.4756881069455581e+01 6.0262259415298649e+03 3.8138154429381288e+01 -2.7517995167814387e+01 3.5940390631269929e+03 -2.6962043079696798e+02 -1.6037301365667702e+01 -3.8928250951028545e+01 3.6218923701746050e+01 8.7732233365252839e+00 -5.5352021517133028e+02 -1.4738027895439183e+02 4.6606696165648238e+01 -1.3890719604392478e+02 1.7369865306311453e+01 4.6160383744496910e+04 -4.1708652389280161e+00 1.0883471085375405e+00 1.5253530350547980e+01 5.3280264578970719e+02 1.0734939064447199e+04 -2.3152319813139115e+01 -1.1154001152200127e+02 6.3085740144359672e+00 -1.1193632567027318e+00 -3.4950484932224290e+03 3.2458564126376990e+00 7.4194621251612858e+01 -4.7669122542046956e+01 -1.0808668579336727e+01 -7.4666334288027461e+00 -6.7286398494970608e+03 6.5697109472301520e+01 1.0071608551745964e+01 2.0991788958548409e+03 3.0467913011934513e+01 -8.6610244692131033e-01 -5.1875758372699234e+00 4.3091039169202460e+01 8.7977393844208454e+00 -1.9918362899101339e+01 -9.9918093917245557e+01 -8.0850443119004645e+00 4.3952874734140579e+01 8.9466399069217761e+00 6.1398846853138704e+04 -7.1307673223483272e+00 -1.4529010136517909e+01 -1.9918757718700359e+01 3.6399740488130192e+01 -9.9151199198696540e+03 -9.2257074657245028e+01 -2.8965638008635047e+01 -1.2668154498949709e+00 9.7694839837218304e+00 -2.1864387409069468e+03 -6.9359102020820089e+01 4.9867605325882323e+01 2.5824842670341607e+01 1.7983080230329826e+01 -2.1881036538301114e+01 -1.4968994131344714e+03 8.7497248964301619e+01 -4.0862761388370625e+00 -2.3856040746728754e+03 4.9131433502868113e+01 -2.2386503366051418e+01 9.2226987861176895e+00 3.4906746347068385e+00 -1.6541921401324398e+00 -4.0817505919006192e+02 -4.2241484858809919e+00 6.2966163282545793e+01 1.8045015744962168e+02 3.2533168954873739e+00 -4.8281033988622949e+03 5.3993446282068536e-01 9.7287270203902665e+00 1.4606581139637294e+00 2.5671659261408359e+02 6.0076318138399074e+03 2.8585323113968695e+01 1.3269231749744492e+02 1.3507793743434663e+01 -1.4007977208657760e+00 -2.2988282893510436e+02 4.9729545107623750e+01 8.6872119638822127e+00 -5.8130364571203756e+01 -1.6205733580190593e+01 -2.5847754482594905e+00 7.6787281624911247e+03 -1.1128497867945571e+01 -2.6418126439145173e+01 1.6785308306350319e+03 -2.0118810128716063e+01 2.8085396779007667e+01 1.2001784864110441e+01 -1.0127821576996194e+01 8.5769408219296004e+00 -2.8248393723275512e+01 1.5137284917485925e+02 -7.2415983658019796e+00 -1.8909300083469915e+02 9.0096188350095723e+00 6.1709932052789318e+03 -1.4436339438283323e+00 8.4796070902025811e+00 1.0944625444092775e+01 -1.1389907655422502e+02 -6.7216221317597901e+03 -2.3439259976211435e+01 -1.8086631661467152e+02 -4.9031863220976595e+00 -8.4252391565724571e-01 2.1259163536884839e+03 -1.1202060990519152e+02 -7.4487977524755538e+00 -5.4736700819412363e+00 2.8981158639255993e+00 -2.7131617412517688e+00 -4.1450902356207371e+02 3.1467806550825827e+01 3.1960220743897985e+00 -9.1633615796942820e+02 -5.6444578238559604e+00 1.1361266147144926e+01 -4.3263542785751433e+01 -8.6604224881160320e+01 -3.1171067667086675e+01 -5.6092024011547915e+02 -2.7043431647464240e+02 -1.3425470949899307e+02 -4.2619382314314305e+02 1.7894930491956536e+01 2.6656472147046643e+03 3.3401536655929021e+01 -1.9867852523064755e+01 -1.4229186331957909e+01 1.1759814316101645e+03 5.3081748710913143e+02 -2.0108407777610773e+02 -5.1267770868265131e+02 2.0442219356136775e+01 3.2715969817322936e+01 -2.1733025833927427e+03 -7.9635638259715705e+01 1.2257101213063027e+02 -1.0732505409869333e+01 3.3865662653537015e+01 1.1215187332226233e+01 2.2820467200103012e+03 3.5272982147011584e+02 4.7368590590757528e+01 -3.4169549984284799e+03 -2.9377301052165728e+02 -2.8732413003231393e+01 -3.3749011555653979e+01 -6.2271174001177627e+01 3.5390193181942720e+01 2.8191576893613740e+02 -2.6149358580659839e+02 -4.0223882042100342e+01 2.8007678459224189e+02 -8.0668719070092827e+00 1.7231118847735896e+04 3.6399999070982290e+00 -2.9497192268554784e+00 3.8914949211182190e+01 -2.4243765229377232e+01 -1.3107360999578319e+04 5.5703854734932463e+01 3.1226006388546580e+01 2.5434143682382668e+00 -4.8293847452237770e+00 4.9885010552779313e+03 1.3386791651305720e+02 -1.8118288427106393e+00 4.1368572339389893e+01 8.6335351351085592e+00 -2.7324177049475225e+00 5.9496624066477079e+02 6.3954766291741436e+01 -2.3998937903995966e+01 -1.0676880011028539e+04 -2.3076792921208835e+01 -4.2738407086457784e+00 -1.4877630764171437e+04 
      </Row>
      <Row Index="9">
        -5.1816007049152812e-01 2.7516211527902827e+00 6.3505459406946463e-03 -1.2229882336212414e+00 4.3267227331425084e-01 1.1533915960015031e+00 9.0666168142010441e+00 -4.2769186608824672e-01 1.4607880619503768e+00 1.2962937054505629e+01 6.9060925854744248e-01 -2.9274521882897014e-01 6.5097032267243726e+00 3.8234815677838725e+00 -1.3302123734425697e+00 7.5051251088291799e+00 8.6290308644126693e-02 -8.8267938571299487e-01 1.9517971509148509e+01 1.7978873727337863e-01 -7.3756004674800757e-01 -2.0091718510786238e-01 -7.5339726733394319e-01 1.3259784262866531e-01 9.0725787909015310e+00 1.8587843839968927e+00 -1.1140575460419172e-01 1.2278139923007995e+01 4.4342544601047287e+00 1.3606890403521593e-01 -1.9635504250707347e-01 2.3484637269357017e-01 -4.0242274172269110e-02 -2.8671815318165597e+00 -1.1667793346205382e+00 -1.0374273273708012e+00 5.5461649822070678e+00 -3.0407653517561251e-01 1.0160920448244062e+02 -3.0083787313098220e-01 -4.7594205241127918e-01 5.2057961414373943e-01 -1.3291160424303696e+01 -3.8688966370084238e+01 1.1048672662193892e+00 -1.2969078945961094e+01 6.4099240395863955e-02 -8.6687328538458386e-01 -3.3803281443054276e+00 5.9147505487643470e-01 -3.2417811695554954e-01 3.8829544014268202e-01 -1.3526978446567656e-01 2.0042500051588877e-01 -3.3345605775917448e+01 1.5870466177575802e+00 1.2345680562940976e-01 7.8056588771770912e+00 -1.9712969322868445e+00 4.6481590004708112e-01 1.4268987028573488e-02 -1.4381658095358110e+00 9.4594310150784178e-02 4.7943962087938896e+00 5.6865191198190379e-01 9.6720835573768316e-02 -3.9813020458492776e+00 3.6759210164443068e-01 7.1197332820433417e+01 -2.3368501237234938e+00 4.6741770784340630e-01 -8.0085307673559636e-01 8.4492454306487019e-01 -2.5494477506353554e+01 1.5196730205250075e+00 1.1443872490337512e+01 1.2101631035615197e+00 1.2341663798590532e+00 -2.6124975826852857e+01 -8.1936291531215399e-02 -1.3822377985266829e+00 1.6343491746592687e-01 -8.1725807247843019e-01 -1.7756848911244638e-01 2.7857663724411225e+01 1.5928208467233467e+00 -2.8765089457083326e-01 -1.5522221732584867e+01 -3.2953737587092000e+00 -2.8812348621634243e+00 -3.7791592437046956e-01 -3.1395430529685864e-01 2.0034972782340954e-03 1.3063258292993489e+00 -3.8297030136866450e-01 -9.1781688521555349e-01 5.3332235277187365e+00 1.7389332452563022e-01 6.0197456333647636e+00 -3.8035267964945056e+00 -2.3204921396324629e-01 6.6816363957794311e-01 -2.4983747883702883e+00 -5.6634536460162835e+01 -1.3759669938627470e+00 2.5108791931432188e+00 -1.2565789837760583e-01 -5.3774474266414607e-01 -2.6685214450048385e+01 -1.3456518227374699e+00 2.1911175138225683e+00 5.8176747681677288e-01 -4.0170747884899694e-01 6.6951248783685594e-02 1.1353982124783025e+02 -5.0555553262941011e+00 2.5111231612038809e-01 -1.7735322880282734e+01 -3.3773975157151059e+00 1.5413670754035363e-01 2.0830241242242242e-01 4.1152231031907643e-01 -9.8676105676315032e-02 8.1111617523356472e-01 -1.6110574411811374e-01 -8.8833690702169155e-01 -1.2005974132665354e-02 9.9129919402382125e-02 -2.1158399003287311e+01 -2.2771579724207394e+00 -6.1979153971608758e-01 -4.4694134936675234e-02 -6.4455241624119139e+00 -3.3421382594945044e+01 -2.5048084235680985e+00 -1.0395908316641730e-01 -1.0353302204976618e+00 6.4496358857655511e-01 1.1525818162688143e+01 -3.7980047631632186e-01 4.7440629186939987e-01 4.0592166031517535e-01 3.7178300114122687e-01 -5.6135508112307353e-01 -9.1444555725902319e+00 -3.5398485141404894e+00 4.6425538742788479e-02 1.4718816242286540e+01 2.1013445884807589e+00 -1.5658770608310130e-01 -4.4401354804202242e-01 -1.5851543978190641e+00 -2.0428667921930879e-01 -2.7575532196826460e+00 -1.1895375439288900e+00 1.0084864787336423e+00 -3.1565909777027206e+00 -9.0480744689901249e-02 8.2602130285158637e-01 2.6486868721967527e+00 -2.9448770238015143e-01 -9.8613840690331592e-02 -1.9483272647474705e+00 -2.1511636544306622e+01 2.4975197364851995e+00 1.7261038459091125e+00 3.0664390255710623e-02 -4.8528196122004302e-01 1.7396120136210449e+00 1.8959624998922078e-01 -2.1015647224812345e-01 2.7640518172181283e-01 -5.3425950234659436e-01 1.4668295135990372e-01 -9.4013758130370846e+01 2.9175120471382794e+00 1.6403592965910752e-01 -1.6926324658984848e+00 7.1566963245809923e-01 5.2329526142281724e-01 -1.3990313986576863e-01 -4.2676702007376616e-01 -1.7644145184350993e-01 -9.7876214645771142e-01 -2.0062807000871534e+00 -4.6097359856877990e-01 -5.9810573433341183e+00 -1.8142695816158483e-01 8.3956989722127730e+01 1.4783270214493522e+00 1.3681122610136218e-01 1.8068863265244783e-01 -6.0594038352848472e+00 7.6879858255945370e+00 -7.5065575237773974e-01 -8.3820735576752714e-01 3.1990359417715081e-01 -7.2447742575841190e-01 -8.6267804685023286e+00 -2.7307360991802057e+00 6.7476551662488982e-01 -1.4559720710905566e-01 2.2249688396942002e-01 -4.2183522349672115e-01 -5.6460788205695280e+01 -2.0629369645333453e+00 -7.6716755679162751e-02 5.9771444891490360e+00 -1.5681560480155023e+00 -4.6770674468803342e-02 -6.0790291539061359e-01 2.1081625040797256e+00 7.5658366712911901e-02 5.3450125037906027e-01 2.0283911508172405e+00 -3.7149539962505446e-02 1.1221025745031564e+01 -3.7519467531047734e-02 1.1270084040592374e+02 6.4748986153871435e+00 2.0548470455948642e-01 3.7103133005294825e-01 1.9596801562755322e+00 -3.5801368286429245e+01 1.9205002189691791e+00 6.6274272080104328e+00 1.8802041437198952e-01 -1.0570957008143667e+00 -3.9179277176867892e+01 -2.7537646517718750e+00 3.8478916852990552e-01 1.0025858323790118e+00 -1.5576011415856226e+00 -4.9401940889768081e-01 -2.1533718842769474e+01 4.1614884086066954e+00 -5.1080129338296532e-02 -9.7297533494334996e+00 -7.7278259635393787e-01 -2.4445964371629363e+00 2.1490121890939867e-01 3.5945329925380776e-01 -1.8403923836488996e+00 2.1102182436395247e+00 2.5594942658218001e-01 1.4880208345365806e+00 -1.8866199013965307e+01 1.2665791582387087e-01 -2.8360514621408260e+01 -6.5267471220921589e+00 -2.1907901072569869e-01 6.5384913667818878e-01 -3.3706470613892603e+00 4.1152474098286909e+01 -1.1528469242408486e+00 1.1204783901757462e+00 -1.0549641235416891e+00 -7.6742171196091113e-01 -2.6376215752153630e+01 1.0358619010133874e+00 2.4194391041757313e-01 -3.5773455014705702e-01 5.4748756887601946e-02 -1.1245573999107833e-01 -2.5412419209094566e+00 5.2041793718275624e+00 -5.1467804201572598e-02 2.4830770092109702e+01 1.5247970941793989e+00 8.4457916111041975e-02 3.9277746795842269e+01 
      </Row>
      <Row Index="10">
        1.1281262445019596e-01 -2.3084157309407594e-01 -3.7391615970649900e-01 -5.0997036235206572e-01 -8.7404229958273483e-01 -2.3947111049360803e-01 2.0311843531735736e+00 -1.8381358479850884e-01 -5.8326596973770073e+01 6.9060926030790415e-01 6.0031228181581415e+00 -5.5878326786486476e-01 1.9664229231401871e+00 9.3681712012841345e-01 1.4152248483320984e+00 3.6513756005102831e+00 2.7584167082918587e-01 -6.0823036358756322e-01 -1.2834305193672257e+00 2.0871633829903815e+00 3.4213173277051678e-01 3.7901108407513173e-01 -1.7861478058151119e+00 1.5836268937094394e-01 2.6492737576522991e+00 -2.6130655756011889e-01 2.0661515004125411e-01 4.5881714766752069e-01 1.1931906948247806e-01 2.0448892280236886e-01 -3.5313631362480352e-01 -1.6904240183960417e-01 -4.0426282969754684e-01 7.1866084252476869e-02 9.0828192729022206e-02 3.7807040485932197e-01 -6.2998051417133749e-01 -3.4342351738152521e-01 -7.9232532404036647e+01 -7.9066563540814233e-02 9.6141100333368468e-01 2.9768775864899205e-01 7.9936081151912930e-01 3.2487980512233740e+01 5.7907580180365303e-01 -3.1135562757149988e+00 3.1351907865150308e-01 -1.2322154349705867e-01 -4.7968274166834535e+00 1.6931776051923570e+00 -6.3104300886099052e-01 9.7561025665137135e-02 1.9745448824135491e-02 4.3618117107454479e-01 -3.5346038268526364e+01 5.9742662521789769e-01 2.6044020795386025e-01 -8.4477293430052178e+00 -2.3051373331893750e+00 3.0689076602092480e-01 5.1897180762954553e-01 2.7492311466638299e+00 1.0567868725518215e+00 6.2362697539731848e-01 5.8517551187782235e-02 -5.1268157810735682e-02 -1.8955097578935494e+00 4.1718095145641293e-01 8.4142814140653684e+01 7.6241383323738243e-01 -5.1488490870049457e+00 -7.9440282928742167e-02 4.1418382418762678e-01 4.2321055554734151e+01 -1.8295088181618313e-01 2.7488563940114217e+00 -1.4550269850833553e-01 4.8752706765670717e-01 1.2798300595755823e+00 -3.1415428788063298e+00 -6.3467164445529811e-01 -5.2679458942148272e-01 7.5179325074474335e-02 -1.0164429535001349e+00 -2.0020762915450469e+01 -1.9593051177263021e-01 -1.1124127207638130e+00 -8.9427130341310033e+00 3.8468344936094860e+00 -4.9498791982287743e-01 1.9306267576004166e-01 5.2711182298205517e-01 -1.5140231612891827e-01 1.8779807136205036e+00 4.7978251033587277e-01 2.1898009316445721e-01 -7.4320417186988386e-01 -1.4559818539675673e-01 -2.7061134828281538e+01 -7.6193088808493803e-01 -1.4931581990793763e-01 -6.2489968920962147e-02 -1.0280442386709918e+00 8.5708064102865862e+00 -2.4432935325815119e-01 2.8215060747673615e-01 1.2541018827300354e-01 4.5309557064126982e-01 -5.0791677427951534e+00 7.7186745578907079e-01 1.8087158034570139e+00 1.1300934629468545e-01 -4.3206392182295073e-01 2.2149665901715615e-01 -8.3832841103284181e+00 -3.9227035049113068e-01 -5.7695774965880586e-01 -8.4824024795348638e+00 -5.7522675534302870e-01 7.8335748686468643e-02 5.6439089790269154e-02 -3.0779439584904711e-01 -1.7185655578655412e-01 -7.2251251361581392e-03 1.0281730288395399e+00 8.1427511954731624e-01 2.7959171393009052e-01 -1.4076895819404783e-01 -8.3167309863286462e+01 -5.8355207954044985e-01 -5.4711055195045627e-02 -2.1685935056594430e-01 1.0956474820810511e+00 -4.4487756044677393e+00 -1.6358746364249210e-01 8.7317865417950291e-01 -2.2529571818523769e-01 1.0770956243763710e+00 -7.1031754224866084e-01 2.0266450892056436e+00 -7.7058510400135061e-01 4.6381350920572301e-01 -1.8770132250900105e-02 9.0282133165102432e-02 1.2286693547037544e+01 -4.8141590197297246e-01 8.5944363347985782e-03 -6.6981709518732968e-01 -8.5783138240480450e-01 -5.4215179219256872e-02 1.4830546995674210e-01 -5.6804345989307115e-01 -1.0145482529604327e-01 6.9233344239429562e-01 3.3856967445091812e-01 5.0720210548253619e-01 -1.3826574073303342e+00 -7.3419757988468004e-02 3.0832702444004248e+01 4.2823944757766913e-01 -1.3418331442677269e+00 1.7935359688927330e-02 -9.4576373130019076e-01 6.5421137820145381e-01 9.0584774120155120e-01 -8.3296717012643207e-01 -7.0893976359472394e-02 -4.7030390786290460e-01 1.5352581070861540e+00 -8.2210864065818501e-01 -4.5523291397460275e-01 1.7721028097571040e-01 3.6639117824442596e-02 3.6330103848408561e-02 5.5000256873702028e+01 2.5753003347809050e-01 -9.1222212869908573e-02 1.1591674371088609e+00 2.8211962198923612e-01 -1.5046934600767559e-02 1.5172754934782468e-01 -1.8261757296521197e-01 -3.4002138818896527e-01 -2.2688473675221374e-01 -1.6891049602930894e+00 -6.5615784719792203e-01 -1.4890655148057425e-01 -8.2624782848929684e-02 -6.8932208096976364e+00 1.2127975730665380e-01 6.1475847324648147e-01 2.2332894069190026e-01 2.7711831769095236e+00 4.1491893554055164e+00 1.0975975341905886e+00 -7.0899905148201259e-01 2.9072394843236515e-01 -6.5706599375873742e-01 -2.3206530174243460e+00 -1.4980960659845661e+00 5.8207416253581201e-01 -1.4141427095738909e-01 -3.0165534903698221e-01 -1.8548889267609123e-01 -2.0953968959044406e+01 -3.4916745469066468e-01 -5.3426126814457138e-02 8.2163034805152346e-01 -6.4827109298952967e-01 -2.8757352660295954e-01 2.9119482436271826e-01 2.0117781513255806e+00 3.1342556541080452e-01 2.6091921664508377e+00 2.3616270988711721e+00 1.0768729759198623e+00 -6.4049566056421758e-01 -2.0288441513665623e-01 2.4342699254728203e+01 5.9920085895155784e-01 1.7343593326748419e+00 -1.1727715392668719e-01 1.1838090298364961e+00 2.1337434359442703e+01 2.7462829381332066e+00 2.9238102417468586e+00 1.1172102254338567e-01 1.1212249054671225e-01 -7.1828180579743517e+00 -1.9215266983611423e-02 1.6571823399164567e+00 3.0438777732860123e-01 -1.8610182712552050e+00 -3.2682794934253301e-01 3.7276147725060127e+01 -3.3191254622770838e-02 -9.8387338828668258e-01 -4.9858061268098366e+00 1.4598087978043324e+00 -7.5151471014502091e-02 -4.7180840752540659e-01 2.9148932501069541e-01 -1.4558786068868299e+00 -4.6077361589204502e-01 1.3110213281882501e+00 8.0358610799063507e-02 1.7231038464599202e-01 5.2227681745207644e-02 1.6976558959693979e+00 -9.0145438925260901e-01 -6.9724145288419836e-01 5.8897433453430637e-01 3.8306457952017614e-01 1.2610877996215354e+01 -3.1677518217851173e+00 2.2961569711271457e-01 -5.3083192759156517e-01 -8.2857587934899746e-01 -2.6006017560854264e+00 1.3350918723752619e-01 4.0014271237541088e-02 1.4615236196950254e-01 -1.5440909597377983e-02 -5.2244036812186548e-02 -2.8015324863123432e+00 6.1429037093695393e-01 -3.6281291399308435e-01 1.2362413141692532e+01 8.3660485626723258e-01 1.5009068057281583e-01 2.2886245203884239e-02 
      </Row>
      <Row Index="11">
        1.3217015955348771e-01 5.3524226222426396e-01 2.3481138822775924e-01 8.6418179136249296e-01 6.6670832804224589e-02 9.8655518721681734e-01 1.4024401191029994e+00 -3.4215262001316216e-01 -3.8065829359857176e+01 -2.9274521779666662e-01 -5.5878326822586333e-01 3.6242398071543356e+00 8.3399536065306616e+00 2.4888439004780267e+01 2.4782938560938548e+00 -7.6510288967132789e-01 1.3465075060841838e-02 5.6348829526535271e-01 8.5015560416983043e+00 -2.5654005406332940e+00 -2.0122187978424186e-01 -1.6374277697122361e-01 3.5679034202589871e-01 -3.0791755562392564e-01 -1.5565104571352910e+02 -8.6567788197587625e-01 -6.7357041309799748e-01 7.8675617420191584e+00 -1.1680271893418177e+00 7.4059200071463804e-01 1.7712874687725530e-01 9.8684653698119268e-02 -2.2875378617886410e-02 1.0416493411915786e+00 -8.9523556014391892e-01 3.5048952540726264e-02 4.9112894660973905e-02 -1.3239505166202159e-01 -4.1571306533414102e+01 1.6115581350928421e-01 8.9839329207603597e-02 -3.3135241833936135e-01 -2.3888991274299269e+00 -2.5511023169148466e+01 8.5793480726450277e-01 1.4447854587236655e+00 1.5343522669612325e-01 1.9226799105407613e-01 2.7881250648233862e+00 -8.2990551584786953e-01 1.9268654688604303e-01 2.3745418041138802e-01 -1.5091469330784923e-01 -1.3382033852127920e-01 2.0479142996534696e+00 -6.4169983128748165e-03 4.5186912970372931e-02 4.5228658289118959e+00 1.7024253073435558e+00 -7.4387613286323637e-02 -3.6718461924092843e-01 5.6265889145128045e-01 1.5800005985327135e-02 -1.0413756589596885e+00 -4.7443326505653360e-01 -7.1330472672190626e-01 3.8489603737465630e+00 -3.1545001019751273e-02 3.0109736839071793e+01 -2.9044094231313922e-01 1.1810512457677619e-01 -1.5174067131979696e-01 -3.8875460691488435e+00 -4.0198966415201319e+01 5.1679274137634290e-02 7.0938360263137570e+00 -9.6299830025730271e-01 -1.0417891796994987e+00 -3.9992223067016011e+00 1.4773643389317153e+00 6.6585585661963542e-01 7.9535694058123618e-01 4.6977315539018283e-01 5.8366965747028143e-01 1.1848011158084596e+01 -6.0720807682762290e-01 2.8338550137377966e-01 -1.7360347876733449e+01 -4.8957610888540337e-02 -7.6325805564063665e-01 -5.5010996355828540e-02 -1.1232415049049642e-01 -1.1105580310643652e-01 2.0480780319294314e+00 -4.4195882006342113e-01 -3.7763926275276222e-01 1.3616868234748414e+00 -2.9516608397068309e-02 6.9735508878929409e+00 2.5279599485185833e-01 4.6088659981734378e-02 -1.3829747278973106e+00 -2.1739886662871144e-01 -4.2020324495818393e+01 -1.8689303875192609e-01 -2.2711983357196908e+00 3.1010034906489146e-02 -7.2416967688493816e-02 -2.4542793178906512e+00 -1.2834428647447158e+00 5.1932854359219682e-01 1.7719423185541705e-01 -7.1124234076817283e-03 -8.9887722236244930e-03 2.5076035511731433e+01 6.0937794888685892e-02 3.0363334482289001e-01 -1.0601460561397394e+01 4.0057475178085625e-02 -2.6238521471177756e-01 5.7193482419745617e-02 -2.6844867167785014e-01 -1.3451075642021829e-01 6.3176992205552551e-01 -8.1388669598960295e-02 -5.0705698090226203e-01 -4.7164059815920805e+00 1.3757178266700923e-01 -2.3586255738241178e+01 1.2018734302774092e-01 1.8183555663649661e-01 1.1393196644250927e+00 1.7021627938692525e+00 -2.3637698787841675e+01 1.6471565885334549e-01 -1.8026205700868754e+00 3.7963107237251836e-01 -3.5625468390395948e-01 1.6219353100768532e+00 1.3797605402556157e+00 -2.5366805847454543e-01 -1.5081403676921679e-01 -3.3329260468738858e-01 -7.9723033960565487e-02 -3.8683747312003106e+01 1.6428758065761576e-01 -3.1002306758577448e-02 1.4930345411308448e+01 -1.1635132419323762e+00 -3.6540395341080645e-01 -2.1467497818424164e-02 7.7581702670369290e-02 1.7004819545438155e-01 -1.0060924729927505e+00 1.1139488356373735e-01 -3.4416009959833532e-01 -2.5201029093057770e-01 -1.8949517198158766e-02 2.4301786913313890e+01 -1.8385786959906616e-01 1.9450679425068942e-01 -2.4703433144377737e-01 -1.8641245105776574e+00 1.1227724470596684e+01 -2.0060589272682479e+00 -4.7944831491846007e-01 -2.0528661815901194e-02 6.0420270611930275e-02 3.1305351335487841e+00 4.6428772949566592e-02 4.1091784863852004e-01 5.5496169620801020e-02 -7.8927553254520832e-02 2.0186164949244842e-03 -1.2616783712676582e+02 -3.0136653873262592e-01 -1.8209218179121900e-01 -6.1752710997592883e+00 -1.0178771151394552e+00 1.1477861831859393e-02 7.2319329001581903e-02 1.6638859244565629e-01 1.3619448166519180e-02 3.1820217473998724e-01 -7.2232503136784820e-01 3.7463194453081422e-01 7.6431944356327697e-01 -3.1803772667107383e-01 -5.9716503596719832e+00 1.0220772355784104e-01 -4.2354783534441415e-02 -1.9050639021601932e+00 -3.1269122255208885e+00 1.9202363030202513e+01 -4.4386548364208931e+00 7.0635376346665713e-01 -6.4565342861419711e-03 1.8657858863391072e-01 2.1139445131946388e-01 1.5508616964175270e+00 -1.0727679706846219e-01 4.1505837457253669e-02 1.2927222060701737e-02 1.7886004840756753e-02 1.6551256564392679e+02 2.4599092233043479e-01 1.4534746256452155e-01 3.1888193978916517e+00 1.1950851922120342e+00 1.9518094039610231e-03 -5.0732377002896713e-02 8.5543800993378949e-01 2.3182802104707075e-02 2.0960920594065757e+00 -2.7156163059711397e-01 -5.1661016229870604e-01 4.9888883353518709e-02 -2.1539863166229894e-01 1.7859270328327170e+01 -2.3532610765126630e-01 -2.3320052751074760e-01 2.0283069312142882e-02 5.1833557082604607e+00 -4.7434099229499296e+00 -3.0709961122305707e+00 5.0040690730741417e+00 -4.6405618159450790e-01 -3.9480745208417878e-01 5.5766611308710665e+00 1.6452999482932564e+00 7.2528678279007275e-01 8.4143245607786032e-01 5.6956898470340911e-01 8.7146965790436348e-02 -2.8373083044449999e+01 -1.2607044557557125e+00 1.8062928186923483e-01 -7.4757086472957992e+00 -1.5938240508852139e+00 -6.2649282244303739e-01 -1.9259058460336467e-01 2.0302734522019983e-01 8.4619409355216435e-01 4.4059541585562911e-01 7.7230215645672784e-02 1.0202587045112348e+00 -3.0182462036737712e+00 1.1684864072585446e-01 -7.6963692521781879e-01 2.6351222467399071e-01 7.8121603852118637e-02 -3.4482091369889769e+00 -1.3167876222102048e+00 1.5617957861410886e+01 5.0895551861887620e+00 -4.0188990024439963e-01 3.1642700039743377e-01 5.0527281536766377e-01 -1.7736699898095589e+00 -2.3369203428268226e+00 -8.5977025632336002e-02 -1.7025594457389159e-01 -1.4498973767560575e-01 1.1870565340047955e-02 -4.4290432962460606e+00 -3.3225967737889206e-01 -3.0753996022097119e-01 1.1145038748811663e+01 -8.9179475180592593e-01 2.7446426470557506e-02 4.1222660380124383e+00 
      </Row>
      <Row Index="12">
