<?xml version="1.0"?>
<MethodSetup Method="MLP::MLPBNN_EleTau_MZP1000_MA0400_MDM100_nodes30_epoch1000">
  <GeneralInfo>
    <Info name="TMVA Release" value="4.2.0 [262656]"/>
    <Info name="ROOT Release" value="6.02/13 [393741]"/>
    <Info name="Creator" value="jhoward"/>
    <Info name="Date" value="Sat Dec 10 21:39:40 2016"/>
    <Info name="Host" value="Linux vocms0301.cern.ch 2.6.32-573.7.1.el6.x86_64 #1 SMP Wed Sep 23 10:12:03 CEST 2015 x86_64 x86_64 x86_64 GNU/Linux"/>
    <Info name="Dir" value="/uscms_data/d3/jhoward/WORKING_DIR/NovProductionV3_76X/ANNTraining_Original/ANNs"/>
    <Info name="Training events" value="13701"/>
    <Info name="TrainingTime" value="1.43104534e+03"/>
    <Info name="AnalysisType" value="Classification"/>
  </GeneralInfo>
  <Options>
    <Option name="NCycles" modified="Yes">1000</Option>
    <Option name="HiddenLayers" modified="Yes">30</Option>
    <Option name="NeuronType" modified="Yes">tanh</Option>
    <Option name="RandomSeed" modified="No">1</Option>
    <Option name="EstimatorType" modified="No">MSE</Option>
    <Option name="NeuronInputType" modified="No">sum</Option>
    <Option name="V" modified="Yes">False</Option>
    <Option name="VerbosityLevel" modified="No">Default</Option>
    <Option name="VarTransform" modified="Yes">N</Option>
    <Option name="H" modified="Yes">False</Option>
    <Option name="CreateMVAPdfs" modified="No">False</Option>
    <Option name="IgnoreNegWeightsInTraining" modified="No">False</Option>
    <Option name="TrainingMethod" modified="Yes">BFGS</Option>
    <Option name="LearningRate" modified="No">2.000000e-02</Option>
    <Option name="DecayRate" modified="No">1.000000e-02</Option>
    <Option name="TestRate" modified="Yes">5</Option>
    <Option name="EpochMonitoring" modified="No">False</Option>
    <Option name="Sampling" modified="No">1.000000e+00</Option>
    <Option name="SamplingEpoch" modified="No">1.000000e+00</Option>
    <Option name="SamplingImportance" modified="No">1.000000e+00</Option>
    <Option name="SamplingTraining" modified="No">True</Option>
    <Option name="SamplingTesting" modified="No">False</Option>
    <Option name="ResetStep" modified="No">50</Option>
    <Option name="Tau" modified="No">3.000000e+00</Option>
    <Option name="BPMode" modified="No">sequential</Option>
    <Option name="BatchSize" modified="No">-1</Option>
    <Option name="ConvergenceImprove" modified="No">1.000000e-30</Option>
    <Option name="ConvergenceTests" modified="No">-1</Option>
    <Option name="UseRegulator" modified="Yes">True</Option>
    <Option name="UpdateLimit" modified="No">10000</Option>
    <Option name="CalculateErrors" modified="No">False</Option>
    <Option name="WeightRange" modified="No">1.000000e+00</Option>
  </Options>
  <Variables NVar="7">
    <Variable VarIndex="0" Expression="read_pt_1" Label="read_pt_1" Title="read_pt_1" Unit="" Internal="read_pt_1" Type="F" Min="2.40084190e+01" Max="9.85316101e+02"/>
    <Variable VarIndex="1" Expression="read_pt_2" Label="read_pt_2" Title="read_pt_2" Unit="" Internal="read_pt_2" Type="F" Min="2.00027351e+01" Max="7.01359131e+02"/>
    <Variable VarIndex="2" Expression="read_m_vis" Label="read_m_vis" Title="read_m_vis" Unit="" Internal="read_m_vis" Type="F" Min="1.24344730e+01" Max="1.72122449e+03"/>
    <Variable VarIndex="3" Expression="read_LPT" Label="read_LPT" Title="read_LPT" Unit="" Internal="read_LPT" Type="F" Min="0.00000000e+00" Max="2.94319531e+03"/>
    <Variable VarIndex="4" Expression="read_DeltaR_leg1_leg2" Label="read_DeltaR_leg1_leg2" Title="read_DeltaR_leg1_leg2" Unit="" Internal="read_DeltaR_leg1_leg2" Type="F" Min="5.00062168e-01" Max="5.20991039e+00"/>
    <Variable VarIndex="5" Expression="read_DeltaPhi_leg1_leg2" Label="read_DeltaPhi_leg1_leg2" Title="read_DeltaPhi_leg1_leg2" Unit="" Internal="read_DeltaPhi_leg1_leg2" Type="F" Min="-3.14143777e+00" Max="3.14115644e+00"/>
    <Variable VarIndex="6" Expression="read_DeltaPhi_PFMET_Higgs" Label="read_DeltaPhi_PFMET_Higgs" Title="read_DeltaPhi_PFMET_Higgs" Unit="" Internal="read_DeltaPhi_PFMET_Higgs" Type="F" Min="-3.14154243e+00" Max="3.14137030e+00"/>
  </Variables>
  <Spectators NSpec="4">
    <Spectator SpecIndex="0" Expression="read_npu" Label="read_npu" Title="read_npu" Unit="" Internal="read_npu" Type="F" Min="1.07191277e+00" Max="3.37343597e+01"/>
    <Spectator SpecIndex="1" Expression="read_event" Label="read_event" Title="read_event" Unit="" Internal="read_event" Type="F" Min="4.30000000e+01" Max="6.94276800e+08"/>
    <Spectator SpecIndex="2" Expression="read_final_weight" Label="read_final_weight" Title="read_final_weight" Unit="" Internal="read_final_weight" Type="F" Min="3.76207746e-13" Max="2.49395564e-01"/>
    <Spectator SpecIndex="3" Expression="read_ratio_weight" Label="read_ratio_weight" Title="read_ratio_weight" Unit="" Internal="read_ratio_weight" Type="F" Min="1.92752457e+00" Max="1.92752457e+00"/>
  </Spectators>
  <Classes NClass="2">
    <Class Name="Signal" Index="0"/>
    <Class Name="Background" Index="1"/>
  </Classes>
  <Transformations NTransformations="1">
    <Transform Name="Normalize">
      <Selection>
        <Input NInputs="7">
          <Input Type="Variable" Label="read_pt_1" Expression="read_pt_1"/>
          <Input Type="Variable" Label="read_pt_2" Expression="read_pt_2"/>
          <Input Type="Variable" Label="read_m_vis" Expression="read_m_vis"/>
          <Input Type="Variable" Label="read_LPT" Expression="read_LPT"/>
          <Input Type="Variable" Label="read_DeltaR_leg1_leg2" Expression="read_DeltaR_leg1_leg2"/>
          <Input Type="Variable" Label="read_DeltaPhi_leg1_leg2" Expression="read_DeltaPhi_leg1_leg2"/>
          <Input Type="Variable" Label="read_DeltaPhi_PFMET_Higgs" Expression="read_DeltaPhi_PFMET_Higgs"/>
        </Input>
        <Output NOutputs="7">
          <Output Type="Variable" Label="read_pt_1" Expression="read_pt_1"/>
          <Output Type="Variable" Label="read_pt_2" Expression="read_pt_2"/>
          <Output Type="Variable" Label="read_m_vis" Expression="read_m_vis"/>
          <Output Type="Variable" Label="read_LPT" Expression="read_LPT"/>
          <Output Type="Variable" Label="read_DeltaR_leg1_leg2" Expression="read_DeltaR_leg1_leg2"/>
          <Output Type="Variable" Label="read_DeltaPhi_leg1_leg2" Expression="read_DeltaPhi_leg1_leg2"/>
          <Output Type="Variable" Label="read_DeltaPhi_PFMET_Higgs" Expression="read_DeltaPhi_PFMET_Higgs"/>
        </Output>
      </Selection>
      <Class ClassIndex="0">
        <Ranges>
          <Range Index="0" Min="2.4110427856445312e+01" Max="6.5179498291015625e+02"/>
          <Range Index="1" Min="2.0010597229003906e+01" Max="6.5832965087890625e+02"/>
          <Range Index="2" Min="1.6577121734619141e+01" Max="7.1793896484375000e+02"/>
          <Range Index="3" Min="0.0000000000000000e+00" Max="2.9431953125000000e+03"/>
          <Range Index="4" Min="5.0059807300567627e-01" Max="4.3853111267089844e+00"/>
          <Range Index="5" Min="-3.1399621963500977e+00" Max="3.1393387317657471e+00"/>
          <Range Index="6" Min="-3.1412014961242676e+00" Max="3.1405980587005615e+00"/>
        </Ranges>
      </Class>
      <Class ClassIndex="1">
        <Ranges>
          <Range Index="0" Min="2.4008419036865234e+01" Max="9.8531610107421875e+02"/>
          <Range Index="1" Min="2.0002735137939453e+01" Max="7.0135913085937500e+02"/>
          <Range Index="2" Min="1.2434473037719727e+01" Max="1.7212244873046875e+03"/>
          <Range Index="3" Min="0.0000000000000000e+00" Max="2.6836293945312500e+03"/>
          <Range Index="4" Min="5.0006216764450073e-01" Max="5.2099103927612305e+00"/>
          <Range Index="5" Min="-3.1414377689361572e+00" Max="3.1411564350128174e+00"/>
          <Range Index="6" Min="-3.1415424346923828e+00" Max="3.1413702964782715e+00"/>
        </Ranges>
      </Class>
      <Class ClassIndex="2">
        <Ranges>
          <Range Index="0" Min="2.4008419036865234e+01" Max="9.8531610107421875e+02"/>
          <Range Index="1" Min="2.0002735137939453e+01" Max="7.0135913085937500e+02"/>
          <Range Index="2" Min="1.2434473037719727e+01" Max="1.7212244873046875e+03"/>
          <Range Index="3" Min="0.0000000000000000e+00" Max="2.9431953125000000e+03"/>
          <Range Index="4" Min="5.0006216764450073e-01" Max="5.2099103927612305e+00"/>
          <Range Index="5" Min="-3.1414377689361572e+00" Max="3.1411564350128174e+00"/>
          <Range Index="6" Min="-3.1415424346923828e+00" Max="3.1413702964782715e+00"/>
        </Ranges>
      </Class>
    </Transform>
  </Transformations>
  <MVAPdfs/>
  <Weights>
    <Layout NLayers="3">
      <Layer Index="0" NNeurons="8">
        <Neuron NSynapses="30">
          -3.2914384152185394e-01 1.6237916509181904e+00 -2.0592333448454417e-02 1.8521829889245556e+00 -1.8339630325783618e+00 -1.1210739701062529e+00 -5.8341194031855137e-01 2.3368014968459629e+00 -1.1014560989982569e+00 -1.4735210908234793e+00 -9.6495219489252249e-01 -9.4557951316252387e-01 -6.4531863368717635e-01 2.5035449516430602e-01 -1.2059794447056043e+00 2.1988569556506110e-01 -3.5078278731975548e-01 1.3902012911807513e+00 4.6134030354575944e-02 2.0083163972497857e+00 5.9364208411676866e-01 -8.3445500845732201e-01 4.7644414260782769e-01 1.7508969180643439e+00 -9.8772906336996935e-01 -1.2544175081212733e-01 -1.0223995382142517e+00 -7.9426996393590155e-01 -5.3804950354386227e-01 -1.0806075444993521e+00 
        </Neuron>
        <Neuron NSynapses="30">
          8.8394597008620379e-01 1.7595216988273255e+00 4.2492645767173431e-01 1.9979965662882973e-01 -1.2508748727898772e-01 5.8230588996828507e-03 -8.3841252630372642e-01 1.8700922376514146e+00 -9.7333408302353663e-01 4.6915499537386102e-01 9.3840497114899801e-01 4.1093345710452334e-01 1.3624532396738134e+00 1.3876807447089168e+00 -4.5401430166976847e-01 -1.1830707290319733e+00 -1.7686911757174942e-01 -5.2227552161315760e-01 1.2297311383538054e+00 6.6993382982316274e-01 1.3749026008468539e+00 1.0963624516751795e+00 -5.9064470385416989e-01 1.5806523697109462e+00 -1.4770504027355094e+00 -1.0258908383710021e+00 -5.0739595396470194e-01 -1.4181444717357359e+00 2.3064019500859625e+00 3.7456347858787470e-01 
        </Neuron>
        <Neuron NSynapses="30">
          -8.0598495024642802e-01 6.3438005718417001e-01 -4.2472265299751333e-01 9.5119597238681697e-01 8.5633888804869640e-01 -1.1769026413946528e-01 -9.4039932829427061e-02 -9.2595730041585800e-01 6.4581206663398139e-01 -2.7155736020191024e-01 -9.4483339558995783e-01 -2.0421541405833739e+00 1.2068995131470186e+00 1.7340824653144460e+00 1.3968653886302296e+00 -3.2937934156114324e-01 -2.8368684427370732e+00 -1.2563203608965561e+00 8.6268436196260401e-01 -1.6147880283049906e-01 2.0533796157949791e+00 2.5200777433271049e-01 -2.5608958855502367e-01 5.3621167772063694e-01 -7.7766812429276255e-01 -2.0675851036278538e-02 1.8375688410073960e+00 -8.3925107678916977e-01 -1.2455594826392624e+00 -1.8078582098865972e+00 
        </Neuron>
        <Neuron NSynapses="30">
          3.3072793374362741e-01 -1.7839794883484800e-01 4.5945175952205525e-01 -8.7309974937745782e-01 1.1497533610396465e-01 1.4122592104836413e+00 -5.1641800761892520e-01 -9.2033570294198430e-01 -1.1365374590991943e+00 1.1057700712213316e+00 -1.7113193263045361e+00 -9.6390667033110289e-01 2.4145314338792925e-02 1.4184739218810858e+00 -8.0615456376466155e-01 1.5637418433604826e+00 -1.5155359900560836e-01 1.4672571887600022e-01 -1.7695874596083799e-01 4.1892511546429584e-01 -1.3877480740195927e+00 2.0339926856708393e-01 2.1421497453093644e-01 3.7299451999738803e-01 -1.1860158502766691e+00 1.3495635111705937e+00 2.4558251144500537e-01 -6.4509545752075581e-01 1.2615794558104461e+00 -5.2753790126381461e-01 
        </Neuron>
        <Neuron NSynapses="30">
          -1.6126912200853143e+00 1.0065704971289999e+00 -1.4487995468109507e+00 1.8089418930752310e+00 -6.3880386218941321e-01 -2.9002989303516891e-01 -2.5980556831546120e-01 -9.8542649001163884e-01 -1.4710976118433521e+00 9.3638379249701545e-02 4.4672413910511771e-01 -8.7887228036047726e-01 4.1793981403739938e-01 -3.0433307928879783e-01 3.4779600398524674e-01 1.0639576773852901e+00 2.8159174220392269e+00 -1.6570921832785508e+00 3.4122045593124356e-01 1.0479610758815001e+00 1.9324694184199978e+00 1.0143410653773695e-02 -5.6044247257655022e-01 -3.7707280050564038e+00 -1.1601939601203677e+00 8.6950429808263474e-01 9.4379235718223664e-01 -3.1255364202026398e-01 -1.3822969660747204e+00 2.0852131445905750e-01 
        </Neuron>
        <Neuron NSynapses="30">
          -9.7510505095144495e-01 6.7448982120575249e-02 3.6701177726880968e-01 -1.3658333847009689e+00 1.0120167756966371e-01 -4.2952612617542969e-02 9.8845802056651932e-01 -2.2733623474529860e-01 5.6163760378156358e-01 -9.6037143320350571e-01 9.3254239491263902e-01 7.6939600921501627e-01 8.8479352891377358e-02 2.6037584413190151e-01 7.5595086798474231e-01 -2.8663630652362887e-01 -1.0695160617054014e-01 5.2432759810371266e-01 -5.4413016171556627e-01 -6.3555530188874254e-01 8.3289771879658470e-01 4.7959050737252018e-01 -1.6998571980794097e-01 4.4226731904105254e-01 1.0578298250331521e+00 -1.0506193004135116e+00 5.8464024716687413e-01 -1.1529571619528980e-01 -4.8069663092211595e-01 -8.5194254867837504e-01 
        </Neuron>
        <Neuron NSynapses="30">
          3.8703468061078751e-02 1.7614885827896667e+00 2.5551553241642830e+00 -7.4756348259785554e-01 -1.7913383938119138e+00 -3.6016968249805847e-01 1.8349506078756997e-01 1.0717290055230804e+00 -3.2019070195736771e-01 -1.0282460863768224e+00 -1.5595393515503988e+00 1.5779151400268121e+00 1.9368634688293556e+00 5.6199280876179403e-01 2.7786237239522382e-01 -2.3461108387849969e-01 -2.5305756752220674e+00 9.7875176774375972e-01 6.1102599565114579e-01 -2.0698972367156485e+00 -3.4139216169769188e-01 -1.0633029965955243e-01 -1.3252513764872071e+00 -2.9077867670317734e+00 1.1325091869345587e+00 1.2314038465611827e+00 -3.0806574428670663e-01 -1.3536600519594166e-01 2.0871616565254203e+00 1.1790565501660608e+00 
        </Neuron>
        <Neuron NSynapses="30">
          1.0684350252893808e-01 -8.9594609989444587e-02 -2.7679959536554999e+00 -1.4039319454945240e+00 4.0850767612147393e-01 7.2546951109755065e-01 5.8095667412328711e-01 -1.1587351628405176e-01 1.6439683713693805e+00 -1.9152834424722029e+00 -3.2081057156056103e-01 -5.9195382692516441e-01 -5.0717160592812405e-01 -1.3759613408625579e-01 1.1420785227385306e+00 -1.1529814149831370e+00 6.0497593545628858e-01 -4.4016255909343327e-01 -1.3055016545124420e+00 -7.9173534080646757e-01 1.0778711893709196e+00 1.5216357643692152e-01 1.2525051408581060e+00 -8.5506227384769573e-01 1.5003932105109412e+00 -1.4184390332569732e+00 1.7775096964587903e-01 -6.7292339225022257e-02 -1.3595533557817050e+00 -7.5366666011317884e-01 
        </Neuron>
      </Layer>
      <Layer Index="1" NNeurons="31">
        <Neuron NSynapses="1">
          -7.2227059093207602e-01 
        </Neuron>
        <Neuron NSynapses="1">
          -1.1125955727838182e+00 
        </Neuron>
        <Neuron NSynapses="1">
          -1.4063759135452620e+00 
        </Neuron>
        <Neuron NSynapses="1">
          -9.7146946233846598e-01 
        </Neuron>
        <Neuron NSynapses="1">
          -1.0157410306546149e+00 
        </Neuron>
        <Neuron NSynapses="1">
          6.4942526704501546e-01 
        </Neuron>
        <Neuron NSynapses="1">
          -1.2091660761964980e+00 
        </Neuron>
        <Neuron NSynapses="1">
          -5.8963858412200465e-01 
        </Neuron>
        <Neuron NSynapses="1">
          3.8875651975157616e-01 
        </Neuron>
        <Neuron NSynapses="1">
          -5.4507060874772129e-01 
        </Neuron>
        <Neuron NSynapses="1">
          3.4730954672937697e-01 
        </Neuron>
        <Neuron NSynapses="1">
          -1.5448074379767858e+00 
        </Neuron>
        <Neuron NSynapses="1">
          7.2358440597700724e-01 
        </Neuron>
        <Neuron NSynapses="1">
          1.0234623273946508e+00 
        </Neuron>
        <Neuron NSynapses="1">
          5.8245102758199674e-01 
        </Neuron>
        <Neuron NSynapses="1">
          5.3411276722315959e-01 
        </Neuron>
        <Neuron NSynapses="1">
          -1.4521949952911690e+00 
        </Neuron>
        <Neuron NSynapses="1">
          -1.8113141898407528e-01 
        </Neuron>
        <Neuron NSynapses="1">
          -3.6501106800835681e-01 
        </Neuron>
        <Neuron NSynapses="1">
          -1.3484654721706715e+00 
        </Neuron>
        <Neuron NSynapses="1">
          3.7648369310446178e-01 
        </Neuron>
        <Neuron NSynapses="1">
          9.2203884590039267e-02 
        </Neuron>
        <Neuron NSynapses="1">
          9.7111779113633123e-01 
        </Neuron>
        <Neuron NSynapses="1">
          5.8638920933523497e-01 
        </Neuron>
        <Neuron NSynapses="1">
          -3.9097850311865562e-01 
        </Neuron>
        <Neuron NSynapses="1">
          -4.1369370302599501e-01 
        </Neuron>
        <Neuron NSynapses="1">
          -1.2971293702207194e+00 
        </Neuron>
        <Neuron NSynapses="1">
          6.4593671547884923e-01 
        </Neuron>
        <Neuron NSynapses="1">
          4.3595812441872012e-01 
        </Neuron>
        <Neuron NSynapses="1">
          2.3377043012826459e-01 
        </Neuron>
        <Neuron NSynapses="1">
          -1.2206904806353711e+00 
        </Neuron>
      </Layer>
      <Layer Index="2" NNeurons="1">
        <Neuron NSynapses="0"/>
      </Layer>
    </Layout>
    <InverseHessian NElements="73441" NRows="271" NCols="271">
      <Row Index="0">
        7.7167608062412452e+00 1.9777510631038884e+00 4.4075829392889132e-01 6.5871902897984835e-01 -1.0325517669214417e+00 1.9853715341531744e+00 -3.6263091835976113e+00 9.4892121171809185e-01 4.5808804406279208e+01 -3.2925452113254838e-01 -4.6276461181732875e-01 -2.9562963522003072e-01 -5.5672267352434979e-01 2.8876950372949963e+01 3.2704002826439957e+00 -8.5312885452091969e-01 -6.2607774232227742e-02 -1.2913598573250846e+00 1.2531146486434579e+01 9.3098312323758314e-01 -2.8962947020985643e+00 -5.9019926917502969e+00 9.4978164270276078e-01 3.9126092672324447e-01 1.4229447123025359e+01 -2.0226632185114788e+00 1.0249041364584324e+00 -1.4781973946600825e+01 5.2381643669708644e-01 4.9046163033615287e-01 9.2755080313918103e-01 1.8216215674940042e+00 2.6142045713757611e-01 -1.5088436658988547e+00 1.4261657791084181e-01 -1.0228764093431170e-01 2.8591654684066192e-01 2.1261081407349686e-01 4.1895254760802729e+01 1.1670244887420909e+00 5.6013638162140555e-02 -3.0095199202760714e-02 1.2883038418532926e+00 1.2939290582648422e+01 2.3102338632363750e-01 -6.0242899529382332e-01 -2.3447087603155253e-01 1.9421733045178007e+00 3.0857779167641297e-01 2.9255545002450090e-02 -6.4401012480829023e-02 -2.5659210983182845e+00 4.7754500024887125e-02 -8.2447994452227683e-02 -2.2490087282117571e+01 -1.8580042024558860e+00 -2.1103711556605167e+00 -2.5017467777573739e+00 7.0704911642668189e-01 1.3194225497012679e-01 -8.2228378059008413e+00 1.8178603240008635e+00 -8.5888207049820853e-01 2.1534626119922335e+00 2.0249212003910011e-01 -2.6796569035596449e+00 3.5997213671243853e+00 -2.8499812125586410e+00 2.5074014449520575e+01 -1.4611923658485715e-01 3.4332226521496390e-01 3.4674077391885660e-01 -4.8924278670036458e-01 -5.8680873785991466e+01 -3.4948474363786666e+00 -8.9160237118443053e-01 3.3429588439215702e-02 -1.5200240384454182e+00 -6.0226320022818562e+00 -9.1343819975693030e-01 4.5198247183967890e+00 3.0353867119039570e+00 8.4254654887947300e-01 -2.7738850370550461e-01 2.6762446562872071e+01 2.0421554663106978e+00 -3.5713238930174818e-01 2.3915671329275341e+01 -4.4233295098742555e+00 -9.7898739244092425e-02 -1.2087848772316678e+00 -6.2070187477763046e+00 1.9343411034763902e-01 -1.4088127973795537e+00 2.3465309107559496e-01 -7.6204453420850526e-02 -3.1799492884883072e+00 -7.2293615914274489e-01 -1.1220158967357850e+02 7.5987633725405757e-01 -4.5336354491443354e-02 2.1818484605911126e-01 -1.8262630047954165e-01 -6.8857142452887050e+00 2.2164652411286458e+00 -9.3162014864631271e-01 -2.7585244752848259e-01 1.5637034257319056e+00 2.2929129207524213e+01 -2.3764300979812836e-01 -1.9194690068724163e+00 -1.7108290767460237e+00 1.5933923961977237e-01 -1.5759045800348870e-01 -7.4063870120109669e+00 1.0826165693706253e+00 -2.0163015369130877e+00 -2.3063400157901967e+01 -4.1982073256050079e-02 -6.5919431963480601e-01 3.6342776542929163e+00 -1.0318433360692736e-01 2.8727457849592708e-01 1.0097055593753175e+00 1.7593291905944619e-01 6.4056969421432775e-01 2.8549072024080275e+00 8.0849856756853722e-01 -7.9516862684413155e+01 1.0771985960246468e+00 -9.4010263427791091e-02 -2.5056393642224617e-01 2.5706349033682330e-01 3.3307127821936810e+01 4.5049361035428909e-01 -3.5986100810792165e-01 -2.3283448885113786e-03 1.2271859797231661e+00 3.9011619206914214e+00 6.5769105916607429e-01 -2.1013113368834260e-01 -2.4610846122621872e+00 2.3355264191595337e-01 -3.6608596531435444e-02 -7.5781854274384870e+01 4.3651633542227952e-03 -1.1072129911836770e-01 -9.3320823771735846e+00 1.3370783670486530e+00 2.9246429310882960e-01 7.6006636302415109e-01 -2.9928266846514240e-01 -5.8040316713538681e-02 -1.7536883035954780e+00 -2.9080135056586690e-02 4.4613368727255698e-01 -2.6974547750702360e+00 1.8071049167272563e-02 -1.4527163509965374e+02 4.0101427093942077e-01 -5.0482556115250529e-02 -3.9124534509896108e-01 2.1616065990347766e-01 -1.3418123294974448e+01 1.5129285587857551e+00 -2.6123239061318204e-01 1.1281300856611029e-01 -3.4527356101437445e-01 3.7375525337166002e+00 2.8123379058139336e-01 8.7992900886083325e-01 -1.3991337809093110e+00 -1.4085765343440210e-01 5.5486846218767837e-02 6.4099232319720841e+01 -4.5597599114335302e-01 7.6761068332363325e-01 1.4205066391136079e+01 -9.4222028563560878e-03 9.7873419333007217e-01 4.7196765065207191e-01 1.9383155046982541e+00 -2.2670958344631476e-01 3.1888603211068664e-02 -4.0239006465330129e-01 -1.4958035597250852e-01 3.6114120389968224e-01 -6.3059865324878783e-02 -1.8798736686144849e+01 -6.9213930313641758e-02 -1.2811782943873240e-01 2.3056284697474894e-01 1.2477617206082070e+00 -6.9429767866552323e+00 -9.4418188373404544e-01 3.9809533900634864e-01 6.0288943182094989e-02 -2.7090452580744939e-01 1.6009685623585252e+01 1.0936884367439034e-01 2.9944136110453351e-02 1.3760134034582499e+00 -5.7612235236799147e-02 -2.4846593346436088e-02 -2.1709859725807533e+01 -3.0654109174506011e-01 7.6227321037029605e-01 -1.2521348431175403e+01 -1.4085864196620901e-01 3.9232141083010608e-01 5.4850981958132583e-01 -4.0934898469495060e+00 3.5296524311730787e-01 -2.7694702454145692e+00 -1.9802476430958316e-01 -7.0123542232004232e-01 -8.0175614035340992e+00 -1.3128519984419265e+00 -5.2709918298780508e+01 1.7148529000040389e+00 -1.8781776913897241e-01 1.7656049199180401e-01 -1.1825608103328347e+00 2.2070212458847678e+01 -2.1306227604894090e-02 -2.2370007962146961e+00 -4.9699315986892811e-01 1.0731892305853461e+00 1.7863855469924204e+01 2.4087796990364851e-01 -1.5421844000614795e+00 -7.4065587504275738e+00 2.1389729501953267e+00 -1.3708838034334114e-01 8.5604340656398563e+01 -1.0493537024636446e+00 -2.5649149046086452e+00 -3.7319576825599086e+01 -2.0600907589395470e+00 1.9241879646067594e-01 -3.9864469951715176e+00 3.3295166592881182e+00 -1.7561516278931211e-01 2.1749945188766597e+00 9.3421850838482068e-01 -2.3887018542999749e-01 2.6866858300921272e+00 2.4805072436924269e-01 3.5442105945009260e+01 -2.2736762859741688e-02 -1.0173893260967537e-01 2.4536453850816162e-01 -1.4341850368138447e+00 1.4222213395146817e+01 2.4687815526360706e+00 -1.6833615846666650e-02 -2.1475653504261658e-01 -2.5273522436472920e-02 3.1829881774369109e+00 -3.6055037084111763e-01 -5.3076295835054776e-01 3.1132449265963508e-02 -1.6172246492171924e+00 9.6130070922506583e-03 4.1497052553067570e-02 3.5586345880265591e-01 -3.8786843166665319e+00 1.8757129055367209e+01 -8.4559442419086861e-02 2.0850416794098381e-02 -3.7076778858075777e+01 
      </Row>
      <Row Index="1">
        1.9777510872625963e+00 6.6479714215822042e+01 -1.3545431625122628e-01 4.0631605545794391e+00 -2.5033017500135060e+00 -2.2663643014985064e+00 -9.6955037016864623e+00 4.4714991882143735e+00 9.6096717481762681e+01 -4.9645216087374182e+00 2.3473494555034420e+00 -6.1085299582071340e-01 -1.2430584773806963e+01 -7.5824802722186973e+01 7.6379786109329695e+00 4.6259252204440706e+00 -1.7262688684681531e+00 2.3570877788188147e+00 1.9929420435510221e+02 -3.2373501305560870e+00 -3.8398224212422547e+00 -6.2766048914820090e+00 4.6634221714914048e+00 5.4063667135162863e-01 2.9360312646787389e+02 -4.0682634683432903e+00 -2.0668873149685356e+00 1.0749334550320306e+02 -2.3293854069279796e+00 3.4436394562360091e+00 -8.5361498905443034e-01 4.5682494482468350e+01 2.5265592534599246e-01 -2.7870733366705730e-01 9.2735173029739104e-01 1.2191525960622840e+00 2.7602487996404363e+00 1.7534673938571639e+00 4.4700647348410530e+02 -4.1816624122901280e-01 -2.7638956565865236e-02 -5.4314623502173465e-01 1.8303309471830305e+00 1.3051568511433228e+01 -4.7339135429395229e+00 -1.4356953582480823e+01 -2.6775538493994479e-02 -3.3978243282356018e+00 -2.6992550326205844e+01 -1.3167525306066306e+00 -1.7712044269601324e+00 -6.0818362391073890e+00 1.8624560783999855e+00 5.2145513593032855e-01 2.0094722892790946e+02 -3.3548602657322530e+00 -2.4553566000916835e-01 6.4691222430053230e+01 -3.1756358568003060e+00 5.4700789515673813e+00 -1.4434815566825683e+00 -1.4164996945044340e+01 2.3854856136952511e+00 -5.5813456016652885e-01 3.6119264170944829e+00 4.8524210509454750e+00 8.3485806538665344e+00 -2.9253016152457256e+00 3.4064882148022207e+01 7.5181873785693414e+00 -2.6103230404787183e+00 4.2684250184352024e-01 -1.5468523761692747e+00 1.0677382429793394e+02 1.7667890547311877e+01 -1.1853137884797135e+01 1.0661430028908048e-01 6.6028214618390892e+00 -6.7621643036088159e+01 4.9023750597253546e+00 5.1326968390282026e+00 -6.6368199992934187e+00 3.1229252555672016e+00 -1.0324769867611290e+00 -3.3925972359972377e+01 -1.7263288185576131e+00 -4.3160982519459523e-01 -2.5257987030304065e+01 1.6521030257388151e+01 -1.0329654405249640e+01 1.7651696959022670e-01 -2.2313367321435745e+01 -3.0566607479028542e-02 -1.0623620153379370e+01 9.0443382280514606e-01 -3.6471189597351668e+00 -8.6759617298102114e+00 -5.1347740738221290e+00 -2.2347139929844457e+02 1.5027711290038115e+00 1.2863534553156788e+00 -9.9818341124681131e-03 -4.8278912201948492e+00 -2.2321013362614348e+01 1.0689973486221227e+00 7.6879101191328889e+00 1.3168058889641243e+00 -2.0003158129255216e+00 1.0114818214457466e+02 4.4407649037042667e+00 -4.3711288828968335e+00 3.0912634561018010e+01 5.2501019101876487e+00 -6.4037757666935524e-01 -1.8701316565872062e+02 1.6066791820937525e+00 8.1935391572331406e-01 8.8867772322252740e+00 1.0711366553622144e+00 -4.4819181414853553e+00 1.2809650986152818e+00 3.3542304453865626e+01 2.1105166726159228e-02 2.1290499916503904e+00 -5.5811072117819394e-01 2.4072985121494415e+00 1.0435130758574274e-01 -3.5499587831247355e+00 -2.3249469328258364e+01 -2.2698429429167879e+00 2.0790759829534387e+00 2.0802019733613480e-01 2.1576891066127390e-01 1.1157185939918991e+01 -1.4528913567022288e+00 5.6105153956610581e+00 1.3002892970210029e+00 -2.6898637162120789e+00 1.0955562334258687e+02 -4.8442202479077850e-01 5.7081058851915552e-03 4.5198801499172525e+00 -3.7184983862219467e-02 -4.9336545106931118e-01 1.1948752993249586e+02 3.7388706721127252e-01 -5.9788233487953091e-01 7.7424746623272597e+01 -2.3971876510300554e+00 3.6907094222028949e+00 2.8044615273328805e-01 4.9304199471122452e+00 5.9125098927142095e-01 -2.5454826623362652e+00 2.3535326271445386e-01 -1.1267699481817225e-01 -4.7750554414697861e+00 -1.6215828187798160e+00 -5.0026995765338292e+01 -1.4891284107451479e+00 -9.5024159196099434e-01 -6.3425338858984326e-01 2.0996745552431273e-01 -3.9041506455965504e+01 -3.3357807372874948e+00 -1.6239236945681372e+00 9.1302151195311473e-02 5.3406444345396697e-01 1.0150208284101252e+02 4.6590239736284333e-01 -1.1188703672220376e-01 -5.4876449301453309e+00 -2.2312640442373244e-01 9.8618676635681746e-02 1.4989645144110716e+02 -1.7911138833042888e+00 -4.3493485946372179e-01 -1.2813799301925339e+01 3.8360251737911971e-01 -2.2583023403706322e+00 -2.7816686367532067e-01 4.1786017641401699e+01 3.3043155165376326e-01 -1.1331768339947281e+00 -1.8655818221174347e+00 1.4202273419482014e+00 3.2480844642858622e+00 1.7528373904909464e+00 2.0513449877538852e+02 -9.8175250946733283e-01 4.3642309720003492e-02 6.3908603145745424e-01 8.4533390716168100e+00 -9.5825569216470043e+01 2.9050659958582115e-01 -2.0647600942161985e+00 -1.9553286397932335e-01 1.5776571288923043e+00 9.4265013773528040e+01 3.1528629966730510e+00 -1.1139575243731034e-01 -1.0313196852521347e+01 -2.3774811867664920e+00 -3.3706899464364054e-01 -8.5204899019060761e+01 2.0139759436113835e+00 -1.0451026111282413e-01 -8.0016438492995633e+01 -6.7632552792447509e-02 5.7223932306829743e+00 -8.3896930552346774e-02 3.6301386449094650e+00 2.0268186915302349e+00 -1.1651418455112307e+01 2.6754382048968819e+00 3.9734355118450608e+00 -1.2323834497282856e+01 -5.2888555785797191e+00 1.2309178872031768e+02 1.2335527606320800e+00 1.3533290122014234e+00 -5.7051439518275626e-02 -1.8227136360396809e+01 6.5148204163223397e+01 1.5935842292221022e+01 -1.0015421962839785e+01 5.3212806719150374e-01 2.4282542051745946e+00 2.6232846953443487e+02 7.6587084172031901e+00 -5.3685299612098243e+00 4.9748626918484948e+00 1.6363435725896828e+01 -1.1374199787088657e+00 2.6133808892994148e+02 -7.5632195846365731e+00 -1.5379840272861531e+00 2.0465272887305338e+02 1.0072537497096013e+01 4.5025412783744923e-01 -2.6765660362481469e-01 6.2393813117445333e+01 2.3157473508833597e+00 4.2634274068196731e+00 3.6966264982886976e+00 3.1612119211412768e+00 6.7223669477367682e+00 3.0910551623065805e+00 -4.6923017086387830e+01 2.2195240841291284e+00 3.3207725922703801e-01 -1.0022205206677484e+00 -1.0419568042104565e+01 3.0211603956659587e+02 5.8914911676315569e+00 -9.7646705941503775e+00 2.0214048910964397e+00 6.4616925270712966e-01 -3.5930198249802885e+01 -6.3989439223365894e+00 -4.9602777982433244e-01 -1.9247657198862345e-01 -2.5876248516510554e+00 -9.7084728034910972e-02 -1.1829048677073609e+02 1.7441997429630653e+00 -2.2212677212070076e-01 3.2302330108798975e+02 1.2499974077328346e-01 -1.3851336039495923e+00 1.4159800466566489e+02 
      </Row>
      <Row Index="2">
        4.4075829564678487e-01 -1.3545430477249337e-01 3.4004095832936461e+00 9.6372752739773415e-02 2.5568513702785473e-01 8.0711500374450795e-02 1.8319342818950168e-01 6.0411936936474797e-01 9.9562233347552151e+00 1.9206319068299238e-01 -5.4458807187028224e-01 1.5573503482531117e-01 -1.0271471905929883e+00 -5.1525003146040866e+00 1.5503447976310993e+00 5.6823603652800259e-01 -1.0103440367446848e+00 1.4649423094701533e-01 8.8241200043924728e+00 2.9248646377643434e-01 3.5445009798073496e-02 3.6916181618723254e+00 5.3514739332452199e-01 -2.2265423198943746e-01 -8.3352926468035049e-01 5.7110213764038686e-01 3.5703708933578276e-01 -6.4028662823059790e+00 3.2021350510244124e+00 4.0559853069301521e-01 -1.6122716484405444e-01 -1.1159285747586347e+00 5.7729874698952299e-01 9.4747848674446666e-01 -4.9640992184360222e-01 -6.3898473028669245e-02 8.9665177290697362e-01 2.3006564390100892e-01 2.0220000300227866e+01 -1.0235368636319286e-01 -8.4881651989327245e-01 4.8068650809113428e-01 5.7955512243526952e-01 1.2792647970862264e+01 2.1710138386146731e+00 8.2697954000146112e-01 -6.9702435133972984e-01 8.0596139131495559e-01 2.0404755604702018e+01 -2.1159487052880577e-01 -6.1705962445338131e-02 -1.6856001840238379e+00 -4.0608790737030798e-01 -2.5020059540121892e-01 -3.3788824004442311e+01 5.0568033104789356e-01 -1.9995413541927459e-01 -5.6097101761991730e-01 5.6833577526369439e-01 -4.5876363026306510e-01 -1.8922025592726632e-01 1.8718033364618236e-01 -1.2137441099985822e+00 -8.0739510927325098e-01 -4.9878129849888186e-01 -3.3669210615316569e-01 -3.0673636307908456e+00 -5.2402477104319722e-01 -3.0882177004342424e+01 -8.0144547709425684e-01 -1.2227055404360287e-01 -3.3911754500599378e-01 1.4088213526571618e+00 9.4335954145768266e+00 -1.2893455199107717e+00 9.3168506726605493e-01 5.7081010159033321e+00 -3.9026280961040500e+00 -1.4735702588838606e+00 -2.8620000069965101e-01 -8.8371288650351598e-02 -2.3751279983271560e+00 -5.0129633441367283e-01 5.8866508402890472e-01 2.0185478079397058e+01 7.6417295368693683e-03 1.5089727442416562e-01 1.7610079052206196e+01 -6.5046924547735117e+00 1.1737531467001185e+00 -1.3269415488108294e-01 1.1139583082161901e+00 -6.8420816765028103e-01 2.0105994223657668e+00 -7.9961186905450676e-01 -3.8388507101233965e-01 5.8080923963956721e-01 -7.1289339053794976e-02 3.3310864930323589e+00 -2.4841670224169424e-01 7.4217734110535116e-01 -1.3197820511449107e-01 1.3253605864978475e+00 1.2144238006871495e+01 -4.5776819861241935e-01 -9.4806727427586779e-01 -6.3352186348198128e-02 7.0063470177053055e-02 -3.9133322297366732e+01 -1.1721462165924734e-01 2.6586856841176265e-01 1.8647002311966177e+00 -1.1493685123377420e+00 -1.1659529232633456e-01 -4.1219277591203536e+01 -7.0553256939634756e-01 -6.0134563888362386e-02 -8.7066677506614703e+00 -2.5313111791023135e-01 -1.5921499353878327e-01 1.2532491596916304e-01 -9.6902216370920036e-01 -4.1843982695776089e-01 1.5321041268805402e-01 5.3127723879614272e-03 -9.0613196220971401e-02 -1.4519934102584120e+00 -6.5009776925968188e-01 2.2497715102762193e+01 1.7654679371214585e-01 2.0180553945626509e-01 1.1388178410837380e-01 2.3579974427611228e-01 -7.4619138591183880e+00 -5.8429565580799925e-01 -1.1107351020698593e+00 -2.0299743695506018e+00 3.9464988996467332e-01 1.4411958672021852e+01 -2.8163970564432598e-02 2.9726680845876600e-02 2.0257846663382946e+00 2.1867844014591162e-01 -2.2057883813068285e-01 -2.0912246452311603e+01 -8.7729081730439640e-03 1.1598829753270390e-01 1.7652216139625319e+00 1.1539296460146040e+00 -3.1369751468263102e-01 2.0779915618532446e-01 1.2721273645350803e-01 -4.4382856691006362e-01 1.0072435605108776e-01 1.3275530738805230e-01 3.5437423205866361e-03 8.8185216952301559e-01 -1.9096740451509200e-01 3.0778077485962294e+00 1.9842141516216988e-01 1.4291626537576535e-01 3.4183779635672491e-02 1.6590854452387141e-01 1.0171116798971106e+01 -1.0433524573747317e+00 -6.9633516050924271e-02 -2.0093297257416848e-01 4.3213208407655218e-02 7.0108405972363272e-02 -1.6010845456884132e-01 -2.7917577304008051e-01 -2.0711857005146425e-01 1.4145256709224821e-01 1.7685068760765858e-02 2.8053098387219961e+00 5.0248749005613624e-01 -4.0544643787041035e-03 -4.0792353848196079e+00 -3.0224651455149004e-01 1.0516345507042528e-01 6.3065470774564619e-02 -1.3831113988796384e+00 -3.5405744174811338e-01 4.5312628182466008e-02 1.8584779372838489e-01 3.8955655368898373e-01 1.3988229547122535e+00 -1.7381952826563024e-01 -8.8318543943928987e+00 -1.4644702255066078e-01 4.4087742876883701e-01 -7.3200779314510911e-02 8.4241067992165242e-01 -8.3950562309733678e-01 9.6102194627833615e-01 2.8789443426866082e-02 2.3975173325244625e-01 7.0574019166982568e-02 4.2514555065584947e+00 -4.6027094938331653e-01 1.3581869978838901e-01 -1.5311580080074227e+00 8.1205044517014935e-02 -7.7979978484416984e-02 2.5171595909554952e+01 -6.3228557428004858e-02 7.6938122880367013e-02 9.8962286284509560e-01 -4.2088080477915746e-01 -6.8400148880966238e-02 -1.9255657141185586e-02 1.7173562629723778e+00 1.9516536476693460e+00 2.4001507662114605e+00 -1.3323099888117140e+00 -3.8678057071015348e-01 3.9010724397454490e+00 -3.5502914786558315e-02 3.3837434189707576e+00 -7.6236590549129657e-01 -9.1284162252568257e-01 4.4326754318044614e-02 1.3699325674067486e+00 -1.0836016946374130e+01 2.1568964055359148e+00 7.4161004985719503e-01 2.4670821915531738e+00 -2.4253510389922068e+00 -2.3285821485916674e+01 -9.2811925530427919e-01 4.2700508264910642e-01 2.2598284835748688e+00 -1.2483400202938082e+00 -1.7473230886794533e-01 2.4097257953502293e+01 5.7407386289863094e-01 3.3041162731714646e-01 2.5888496966051335e+01 -1.6970136881809621e+00 7.2498911749884987e-01 -5.3400607758237217e-01 -3.4067219142710908e-01 -3.1636964666594527e+00 -4.8299633370181949e-01 -6.0770520811712059e-01 4.2367774771267130e-01 -5.0876984508655454e+00 2.8242852230498100e-01 -1.4120826930262851e+00 1.3407134807556176e-02 3.3469517152040756e-01 4.0795883319762460e-01 -7.4179577417879838e-01 2.0454893011434553e+01 4.8829819805332619e-01 1.1843663778999856e+00 -3.0955795042130752e+00 -6.5849893781788002e-02 9.6100297209067058e+00 8.2997293184031184e-01 9.0164019955259786e-02 2.2563644533338884e-01 2.8050961977350020e-01 -1.9555594539214211e-02 6.7251398594972200e-01 -2.9647560148911190e-01 -8.3078980979238737e-01 2.8924502437233933e+01 9.8460087173887684e-02 6.4082463902392250e-02 6.1810154558066381e+00 
      </Row>
      <Row Index="3">
        6.5871905485719462e-01 4.0631606426570501e+00 9.6372755503428165e-02 3.0188897091141520e+01 -8.7151115100796539e-01 -3.1217846893384986e+00 -1.1930655951192380e+01 4.4904679835457173e-01 -2.1432844515523109e+02 -7.5723242627145160e-01 6.2110897280056887e-01 -8.9465181860614651e-01 -9.6932514691457572e-01 9.8364301331830504e+00 1.0786005388465814e+01 5.6421938282703836e+00 -1.9195957534929772e-01 -5.5138040506676491e+00 -2.0855873321352494e+00 -6.1547303126419601e+00 -5.3997056044016245e-01 8.6288654553884498e+00 -1.0795093098126873e+00 -2.4938845046660882e-01 7.1875040236434256e+02 4.4726522889241344e-01 6.7449336653090342e-01 5.4697070024841693e+01 -2.4990822034085641e-01 2.4424736910146589e+00 4.2575573392699584e-01 3.3820667374140703e+00 4.0321851917059709e-01 8.1500720319087563e+00 -1.2871697037280101e+00 -3.0421458571627986e+00 3.9993357772171088e+00 5.4705432778795471e-01 1.4622948000382010e+01 -5.2647053716325753e-01 2.0590992241696511e+00 1.6144409606839862e+00 6.6263273334479800e-01 7.7885346207998092e+00 -5.5859098062457333e+00 2.9760079603019216e+00 6.1282999322911230e-03 1.9890369953597238e+00 2.9960468126757767e+01 -3.4281476174786292e+00 -1.3668618824193293e+00 -5.4979587755393631e+00 -1.3227334551279257e+00 -9.8139491059172745e-02 3.2562785694383848e+01 -1.6495536605540906e-01 -5.4127076654434503e-01 4.8850389069159981e+01 -1.0867225604427886e+00 6.2328513413790860e+00 -6.4064063665273252e-01 7.6942511228178634e-01 -1.2147531058889627e-01 -1.8159506411178185e+01 1.2907411045329289e+00 4.6407744479405508e+00 2.5476605765104853e+01 -4.8265156853382474e-01 -1.9839137923302110e+02 -2.4640229786831771e+00 -2.9335552584162858e+00 1.5079679966173254e-01 -1.6289340691312804e+00 -7.9255572398889939e+01 -1.0605628959393981e+01 -1.8496755200898445e+01 -6.5471781175336941e-01 1.9321425951831417e+00 1.0719376056297467e+01 2.5965651815735686e+00 -7.1104460395279645e-01 1.7836115823803063e+01 1.8593446087574912e+00 1.4811096937432808e+00 -4.8383522834548637e+02 1.3950891340663192e+00 9.6218161786424972e-01 3.4097674442748030e+01 3.8451312681422944e+00 -5.8187052392152205e+00 -3.3542685102753250e-01 -9.9961656660723648e+00 3.8042701194743067e-01 -4.0737249892496401e+01 -8.3321623470903194e-01 1.2365237279723731e+00 -2.0233498359781454e+01 3.0125793351024266e-01 -3.0065101251118293e+01 3.7080744917477654e-01 6.0681424450392885e-01 1.0055911894737044e+00 7.8529759727926285e-01 -4.2931004598657985e+01 -9.8089939480468658e-01 -1.4728746921955942e+00 -7.9479812457587437e-02 -1.7359709487670683e-01 1.4326793030797165e+02 7.8194612722341850e-01 -4.1881129467629918e-01 1.2658938000641950e+01 -1.1075424992023348e+00 -1.1316160237703925e-01 -1.3175299744935683e+02 1.0485450221401778e+00 2.3128108295773009e-01 -6.1736894479296236e+00 -1.0798017388643615e+00 -2.8903868030372735e+00 3.8247753376390131e-01 1.2980656209215820e+00 5.0018700475098399e-01 2.0196315842347758e+01 -8.3282516377735294e-01 -1.2597922271317479e+00 7.7659855978908938e+00 -1.0412102201459277e-01 3.9078374274156907e+01 7.4488151935140889e-01 5.1424274739210429e-01 1.1256606051698088e+00 3.3312450388651382e-01 4.6562968751266226e+01 -3.0281321642499290e+00 -6.0029918343508071e-01 1.5240503991384216e-01 -7.1296014101590943e-01 4.4491058791452765e+01 -2.0912425098485228e+00 -1.0654849346082929e+00 1.3317967322812141e-01 -6.8226131796919565e-01 -6.7508255599115363e-01 9.9720917884754428e+01 3.4353950339917050e-01 -3.0956810744426849e-01 2.3716532940323386e+01 -1.3657425071154328e-01 -8.4097883315716471e-01 -8.9994874340880077e-02 -3.5562602130309257e-01 -9.0763199599094110e-02 -1.2500551794774166e+01 7.1188998505206491e-02 4.9849405704932059e-01 -1.1610005600594828e+01 -7.1634363185233463e-01 4.7304926577707192e+01 3.9203491296561860e-01 4.3072234019759992e-01 -1.6892639839865846e+00 3.3039444985720928e-01 -2.2013249019723499e+01 -1.0766251890023923e+00 3.0086796989663283e+00 4.9752838899354827e-02 -5.7005976178964635e-02 -2.4565347294594204e+00 2.7633152038015250e+00 -7.8246164282607333e-01 -5.1252744017782765e+00 4.2559175944741712e-01 2.0921118716236761e-01 -2.9004325821207004e+02 -5.2003953564543337e-01 8.6361964844411387e-03 3.5803974038202277e+01 3.3037160271375487e-01 1.0232143592398946e+00 -4.1111248684631979e-03 8.2704504611132990e-01 5.0998680261405971e-02 -1.7622375582001355e+00 -4.4495068786096137e-01 1.7088693074290370e-01 8.8266419356600845e-02 8.7305736247144372e-01 2.3723606059339292e+02 -1.1803260717031372e+00 1.6447686269791875e-01 4.3362956138774029e+00 1.1083901523977278e+00 -4.8127121605167332e+01 -8.2572181770769870e-01 -1.8542638971530014e+00 -4.8242558144881542e-02 -4.1144171879441110e-01 3.4576256930994077e+01 3.5808052254273690e+00 2.9278881436369086e-01 -8.4772375061022860e+00 -1.6546613264907446e+00 -1.4925263238196973e-01 2.1224077043466806e+02 4.6665772671713840e-01 1.3453914643854759e-03 -2.2194507053376647e+01 -5.8177255259822747e-01 1.0178982118277746e+00 3.4147198605261952e-01 -5.3188037125742067e+00 8.6202491994763220e-01 -4.1103850449660484e+01 -1.4870588196131846e+00 -4.5441243473429344e-01 4.3721662066487774e+01 -3.0607873776484495e-03 -1.8373640465641245e+02 -3.4022536378209072e+00 3.1716755354961634e-01 2.0081597624319052e+00 -1.0171548298113526e+00 -3.4907111456018988e+01 -8.9916686159990249e+00 -1.0213780665448194e+01 -7.0966452884997278e-01 -1.1719238447683087e+00 1.6332624878562407e+02 1.5518407665175635e+00 -2.0695160650391360e+00 2.6711690904538148e+01 -5.1777378852573941e-01 4.2121236490940528e-01 3.2881343520409519e+02 2.2260386118356514e+00 8.1962490790395881e-01 1.5864343794039561e+02 1.7464008618820646e+00 -9.7531477165061276e-02 -3.4491116968999957e-01 4.4396589867149849e+00 1.3313352970673908e-01 2.3305458764509439e+01 7.4465951798705632e-02 -3.2314480694445979e-01 -1.4269154876745432e+02 2.8168515994890075e-01 2.1410133106746289e+02 8.7544007313070971e-01 -1.6047555543102962e-01 8.6872670491955155e+00 -7.1675768866897283e-01 2.0100702399263523e+02 1.1374279447032208e+01 1.9504971185693165e-02 3.9255171867969996e-01 -1.3921966698609178e-01 5.1715979025777244e+01 -4.2648268471197692e+00 5.1605660620851324e-01 8.6235837353452471e-01 2.3586050380617607e-01 -5.7284128822546077e-02 9.1157743192198097e+00 5.8149073039235732e-01 -1.2916863665056113e+00 2.5028253775932964e+02 4.8443669348504748e-01 1.3427095747276940e-01 -7.3236183551555357e+01 
      </Row>
      <Row Index="4">
        -1.0325517708061716e+00 -2.5033017396466191e+00 2.5568513822734729e-01 -8.7151113855696027e-01 5.9914407696286291e+00 -7.9690244373768904e-01 3.3120370190510720e+00 -2.2537616237783293e+00 4.9568451430384883e+01 2.3296604999636505e+00 1.1789303033591940e+00 6.2241320886787699e-01 5.5405425369872114e+00 -1.4541318932619946e+01 -5.2734088148870519e+00 -8.7094839435423843e-02 -1.7419811273909622e-01 8.1110462315453213e-03 -2.6239037182302940e+01 1.0632922910216100e+00 1.5077603484165905e+00 -6.0797837002965140e+00 -5.6043542232709349e+00 8.2063168767932204e-01 -5.9236697633476545e+01 4.7199972038164617e+00 -4.9936743837748554e-01 -1.0315288977391221e+01 -5.1109451758661585e-02 2.1524592990214795e+00 6.5089567777904866e-01 -4.1950184032452498e+00 -2.5019379181205537e-01 5.3459183029488155e-01 4.8766144054121674e-01 2.5208776450309794e-01 -6.3656097458656780e-01 -6.8604767963318869e-01 2.5737786663237614e+01 2.6923320501561643e-01 -3.7777947919334043e-01 9.0829766711148618e-01 -1.1654109778974127e+00 1.4044690959473499e+01 1.9050030467261978e+00 3.6713784923138890e+00 3.8771156733746703e-01 -3.5069854260384892e-01 2.2196353428623937e+01 2.7658474494155394e-01 1.6336313247737939e+00 -6.5997728626337349e-02 2.7477752780961158e+00 9.9382953097093329e-02 -1.0725893136003558e+01 2.6531731885522167e+00 -5.2415794265626564e-02 -1.3513087563023936e+01 -1.3083626745585024e+00 -1.4492359783527962e+00 9.4970634133711163e-01 -3.9345452278664861e-01 1.7640832145150280e+00 -3.4518756593645572e-01 -4.6565541711602112e+00 -5.9701035389575108e-01 -1.6071152008381551e+00 1.1965698091049399e+00 -4.9010891045581019e+01 -1.4672441885109286e+00 -1.7759696436928882e+00 -1.4530212206411059e+00 -2.2006891923645018e+00 -2.6662680238111889e+01 1.0539002489499639e+01 1.4606268818337087e+00 -5.6313360208894755e-02 3.9825160184986208e-01 1.2601112760978090e+01 -8.6659962450063999e-01 -1.6354682429312215e+00 1.3196664507662327e+01 2.3363078296424467e-01 -5.9831687937059341e-01 -3.0751354169384058e+01 -3.2639736790304283e+00 4.6806486305404937e-01 8.6209996110297986e+00 2.1009650260641788e+00 1.6672692627586045e+00 -7.3536893898842715e-02 7.8735211312364957e+00 -9.5431635518526903e-02 -8.7368928627147113e-01 -4.7482570383286254e-01 -1.8464177847055525e+00 -1.0719539213372631e-01 9.4351815695732333e-01 -5.3517220766844247e+00 -5.7689958172459455e-01 1.3568072564680813e+00 3.1284355400419583e-01 1.8982943620131019e+00 1.6991446966445263e+01 -2.1613274715876245e+00 -1.4341620421193848e+00 -1.3158982824475805e-02 1.9386637148997599e-01 -4.3832175761091953e+01 -1.9208459336643491e-01 1.7868196391893825e+00 -7.9715957048332484e+00 -1.6555653476156476e+00 -2.3703129712078741e-01 -2.9645036691760126e+01 -5.2460634058290212e-01 1.4115580464236216e-01 -2.9421361876271472e+01 -5.9442115389620098e-01 -1.4600651116794459e+00 -8.1524006161040008e-01 -3.3267782679121893e+00 -1.1183132770824500e-01 1.0637931865774135e+00 1.2309254539932954e+00 5.3014829809606612e-01 -3.0261460611574247e+00 6.6746213392997311e-01 1.4127306111778267e+02 7.1754825722046445e-02 6.6532331161999958e-01 4.6626745908541933e-01 6.6687020832821342e-01 -1.5632980806516208e+01 2.2448352824969371e+00 -1.5167560902895554e+00 -2.9025645743047418e-01 -6.9158449133889022e-01 1.0674489266359611e+01 -1.8467255204440369e-02 7.7706629485156831e-01 -4.8562964693572335e+00 1.0968488523918185e+00 -1.8881697382818086e-01 8.1289721581302899e+01 2.3094381464836833e-01 9.1469817531901754e-03 4.6795540608030528e-01 -1.7734564014039683e-01 -1.4609986319132067e+00 -2.9010110410046147e-01 3.7269483443207857e-01 -7.0128901146230049e-02 3.0695152672584669e-01 -2.0774343638691165e-01 1.9908526787781822e-01 1.2538242201990006e+00 -1.4732907572965317e-01 6.5818141199866801e+01 -5.7538988169606439e-02 -5.8525673018578539e-01 3.0401797349609461e-01 -4.0705856411425273e-01 3.6104911785432265e+01 9.8552441574440508e-01 4.9040914934285701e-01 -1.4360831752350811e-01 1.3056544347165788e-01 -2.2754790085055681e+00 -7.8173949471984094e-01 -1.5305779755609424e-02 1.4082424920864811e+00 1.0156831056976210e+00 2.9549192690978998e-02 7.9915770730932536e+01 9.9788286501371026e-01 -1.5458903075975564e-01 -1.0002164176929350e+01 4.7444743615071017e-01 7.4768432999817747e-01 -4.7560705063139197e-02 -7.8978922856445468e+00 -2.8681904851118378e-01 3.5225889637555857e-01 2.2302888078029852e+00 2.9375285092947412e-01 -2.3769180177747928e-01 -4.3837165725999910e-01 -1.1359725997871362e+02 5.5327842261244586e-01 1.1758780301848699e+00 1.7132618512344730e-01 -6.2951631976259514e-01 6.1403406360678616e+00 1.0623288545610574e+00 3.3583598074553922e-01 5.2490417776661968e-02 3.0739014210290955e-01 2.4867512747489191e+00 -5.4687675605433950e-01 -2.1073067351373856e-01 2.2323666679061835e+00 1.0371532837171580e+00 -2.4478475195220753e-01 4.3301752884617855e+01 -5.9154889727656967e-01 -2.8048651056487750e-01 1.8457290085421956e+01 -5.0853557453118758e-01 -6.2497082575944796e-01 2.6027081181066719e-01 1.0355131177707545e+01 1.7236524851277180e+00 -1.1923371118578636e+00 2.7708341493468069e-01 -2.3560939636193159e+00 -2.2691240825080348e+00 -3.8783135580159611e-02 2.3944944626415506e+01 8.6392192256654221e-01 -3.5914538492602061e-01 6.3602876346670700e-01 4.9583762848185451e+00 -3.9963779124583638e+01 7.6789664483650313e+00 2.9348459855909304e+00 -7.3527745738263095e-02 1.8345684698970732e-01 -1.3988921613156169e+01 -1.3950099411963057e+00 3.1362072059286845e+00 -2.3733615191946198e+00 -5.1608517883319935e+00 -2.3030938760101427e-01 -2.9959840762472368e+01 4.5515320354674396e+00 -3.9074030041596597e-02 -2.8718576130878674e+01 6.4078409063157427e-01 -2.9227745206753641e-01 1.0905101705075206e+00 -5.9320373695680715e+00 -1.0700813451271176e+00 1.1704382980239350e-01 -4.9382937439728014e+00 5.0618505876853970e-01 1.3626488239090959e+01 -1.0360083218266369e+00 -2.5024142016859130e+01 -6.5558833525319349e-01 5.6111303002393298e-01 1.4307180539748270e+00 2.4100365187887700e+00 -4.9403680354476180e+01 -6.1396481866146839e+00 2.5323043433837418e+00 -4.6846045333534492e-01 4.0420332940776682e-02 3.0029355027478438e+01 8.6989853769140102e-01 -2.0568510936766227e-01 -1.2697286148861267e-01 7.3486990855959444e+00 -5.8973831318889502e-02 2.3259177888158177e+01 -8.4493453848380806e-01 1.4495549917306487e+00 -4.4376924532068529e+01 6.1233029811820527e-01 2.1109809344269337e-01 1.1521801687674641e+01 
      </Row>
      <Row Index="5">
        1.9853715322740406e+00 -2.2663642269891779e+00 8.0711503416950103e-02 -3.1217846305380763e+00 -7.9690245688245831e-01 1.4669606126347936e+01 8.4945397917215928e+00 2.4350020514265514e-01 6.0707423579656563e+01 -6.3723455878741775e-01 -6.9168924679217714e-01 -1.3476389346604820e+00 -2.2893408036413820e-01 -1.8021470666470940e+01 -2.7162144388011447e+00 -4.5235296051906380e+00 4.3576808566263109e-01 7.9300143776058429e-01 -1.0448301606910540e+01 1.6132738222672753e+00 1.6711104134854669e+00 -1.8622393034788711e+00 -9.2383322723743100e-01 2.7349118591329169e-01 2.3745637190389086e+01 -2.1431406719750852e+00 1.5973966685719848e-02 5.1347803667153293e+00 -1.4269392469201958e+00 -3.3891394462605229e-01 1.2705213482043240e-01 1.5733639421529420e+00 -1.3281922405391017e-01 -2.7510357292499656e+00 5.1766862382842427e-01 2.3639823456653870e+00 4.9605403233583303e+00 7.2870607260199305e-01 3.3833441698358428e+01 4.3828115388123373e-01 -4.1877051307483593e-01 -8.1280221406482056e-01 -1.5651527780209307e-01 -1.2960439638960157e+01 4.7084378186529001e+00 -2.7199052309376617e+00 2.3896357452230535e-01 1.9764479271424420e+00 5.8467078096212672e+00 1.8112942969999355e+00 8.4348852497821958e-01 1.0972019567382006e+01 -2.9955521294482890e+00 1.9254039272894830e-01 1.2651941879158946e+02 -1.9145439649971621e+00 -1.3940714018428775e+00 -2.6755769933989434e+01 6.1544770840811358e-01 -2.9690462284134229e+00 -3.0471491849033643e+00 4.9825115851895250e+00 -1.7548533889992934e-01 6.0495218984698953e+00 6.5823924876811213e-01 -1.3818995981830593e+01 -5.3169150750662197e+00 -6.4360601923496574e-04 -1.7046423485095715e+01 -1.7527894289055812e-01 5.1415177557010026e+00 2.2314676346483253e-01 -5.2538203161293193e+00 -2.7019305040656711e+01 1.0130617366560131e+01 5.2427148659857021e+00 -8.5794931708590894e-01 -1.5621284647764551e+00 1.3133451454700101e+01 -4.4941251935331650e-01 1.2948432388963691e+00 3.7137262104103343e+01 3.9918958932303035e+00 -9.1588171845573485e-01 5.9049251573684217e+01 3.0906930566906410e+00 7.4786353638283964e-01 -5.4473608793446395e+01 -2.3399086176279593e-01 6.2438139843316298e+00 4.4222362543547949e-01 -6.8621284503801823e+00 5.8201743474624246e-01 7.2062030490973317e-01 -6.0470224860929533e-01 -8.5839706428553431e+00 9.6044085577958480e+00 -9.4754779076843465e-01 2.2994174880775722e+02 -8.9910964680004946e-01 -1.5331287500234270e-01 -1.5146920308803118e+00 -1.0076421700267701e+00 -2.9544739427527844e+01 4.5316170595109826e+00 5.3718019684056060e+00 -5.7946712626105079e-01 2.5479936201864479e+00 -1.8994033503912384e+01 1.0790914491919512e+00 -4.0532243295053956e+00 -3.0619702974302175e+01 -1.2234475278555235e+00 3.9165421332156602e-01 2.0823358605412018e+01 2.0700185984605862e-01 -7.2410333419565021e-01 -8.9794435861045855e+01 8.9488173280285321e-01 3.9378441673508795e+00 1.9811655513491644e+00 6.2083534776973759e-01 2.2287084377322230e-01 -2.7364083456377557e+00 1.2109316789644871e-01 2.2762002901368676e+00 3.7707738919132132e+00 4.4713764511162601e-01 -1.3722191845755378e+02 8.2791559227255951e-02 -5.5248945625853929e-01 -1.1193961673123678e+00 9.1842392128300820e-01 1.5707161748971577e+01 2.9684290568115124e+00 4.0357464482505065e+00 8.3075710515638251e-02 1.2356342079128360e+00 -1.6440629321821529e+01 1.4042328244716371e+00 1.1636513913914887e-01 -1.3025155944819684e+01 -1.3565256908451433e+00 1.9332406265138075e-01 1.0315819356840392e+02 -8.8209945150936553e-02 4.5638203464023036e-01 1.2435249307285954e+01 4.0596420691416818e-01 -7.8706142440074356e-01 6.6430985369336482e-01 1.8529774460414219e-02 -8.6113951457178567e-02 -4.1642522715936336e-01 -3.2768885977428497e-02 -5.8734646815209302e-01 -4.2380899347598655e-01 1.8854102762389280e-01 5.8131727259448676e+00 6.7206469242536138e-01 1.0722329904797334e-01 -1.3584303960426636e-01 2.0353390416009398e-01 -6.7035110622675989e+00 8.8755179714231536e-01 -2.3217819217423297e-01 1.4425101686487993e-01 -3.4603150332347798e-01 -2.5539052846806086e+01 4.4287932862438245e-01 3.9785769615741962e-01 7.0413060641753287e+00 -5.9580525261745662e-02 -7.0307373602190637e-02 -1.1541943513197907e+01 -2.9052832027992631e-01 7.4111071077757495e-01 3.7540652382564099e+00 -5.3774793575014648e-02 1.0906815854726908e+00 1.6416452590201697e-01 5.4741907455924057e+00 -5.9864831822437209e-02 -1.4512181764291132e+00 -2.5776962358229338e-01 1.9208402767740482e+00 -2.5973106236569095e+00 -7.2880229812684016e-01 2.5404987094561804e+01 8.8451987204825233e-01 -1.8887048465460235e-01 -7.0675242185711429e-01 -6.3612208833423578e-01 -5.8138356633127749e+01 -1.3362848985719800e+00 4.9630918715545985e-01 -3.4915849338929972e-01 -4.5988754746792593e-01 1.9264225926685231e+01 -1.5986885822915153e+00 -5.5351441992075617e-02 6.6959770645180328e+00 -9.9913470894954204e-01 -9.8536614446128087e-02 -9.5608129005405171e+00 -2.9030679229153789e-01 1.0181913873260445e-01 -1.8858959635342327e+01 1.6505811621797684e-01 -1.0731963407560285e+00 9.9888170259496922e-02 -8.9958665163806231e+00 4.7049105132683350e-01 4.9072102326311118e-01 1.5216669430085261e-02 -5.3915030436246152e+00 1.9040182233202721e+01 4.4542306372724472e-01 1.7643864497840724e+02 1.3903541886438806e-01 3.4335033538709707e+00 -3.1299825735069309e+00 -5.3746255363072208e+00 7.6338855564982737e+01 1.4984050929429603e+01 7.0981449299569377e+00 -3.8575838536710566e-01 3.3986789576247465e+00 -2.0667554156708675e+01 1.7202330759104751e+00 -1.2453721794102588e+00 1.7156892311512504e+00 2.2652958147098490e-01 -1.3160678959445948e-01 1.4943260288181307e+01 -1.0074474442806833e+00 -9.4975529489125687e-01 -1.6951893696766132e+02 -4.7187777607293313e-02 4.2836477032621580e+00 -1.9527491604382257e+00 3.0724134664817124e+00 -2.2900576153330188e-01 -9.1417471474721002e-01 7.0962807490413971e-01 6.6777081206343718e+00 -7.1567725972067713e+00 3.4494139817365588e-01 -9.4900842261551759e+01 -8.9030069982339199e-02 1.3796204342166707e-01 -1.2523076357518859e+00 1.7304207466806556e+00 -4.7825194544998389e+01 -1.7231447531442821e+00 -6.4213404130374236e+00 1.3207251041564305e-01 -9.7357799183970639e-02 2.6837880741737951e+01 4.6382315649287931e-01 -5.0586271323041199e-01 -1.7353150050089685e+00 9.1518605227800254e-02 1.7758800793939322e-02 -2.2413110090543128e+01 8.1428279277947047e-02 1.0076602515913269e+00 -3.3794466279247459e+01 -3.0440490227681760e-01 4.8107956203089319e-01 1.3389444806292587e+02 
      </Row>
      <Row Index="6">
        -3.6263091181554374e+00 -9.6955031754165830e+00 1.8319350169690907e-01 -1.1930655050208355e+01 3.3120369445072750e+00 8.4945395593165518e+00 2.9843918131883117e+02 -5.4905271492337295e+00 6.3801908227027047e+02 2.9261357004188635e+01 2.6791219211846373e-01 -2.1108724271839865e+00 1.3505670227034416e+00 -1.9827789105875397e+02 7.4959175357949981e+00 -4.6190133290172405e+01 -5.0422258999183872e-02 2.7704962828083213e+00 -2.4406051126512253e+01 3.1258912401867335e+01 6.8781395239714138e+00 -1.8299006654637083e+01 -8.5880529641629906e+00 -3.6325986673229838e-02 -1.2743534995566054e+03 -4.9392746222393988e+00 -1.3770538557045793e+00 -1.6261336042510700e+02 -3.0765673635432407e+00 3.2266552821289705e+00 -7.2408827484275951e-01 6.9250076396639137e+00 -1.9712844542248213e+00 2.9755252616326664e+00 2.1437597521546534e+00 -2.8341110634037214e-01 5.8683813695185130e+01 -4.7160525976460868e+00 -8.3038734703410285e+02 6.6098915434823189e+00 -1.5787712265428531e+00 5.1877235296008397e+00 -1.8611272989583756e+00 -1.8650794155748778e+02 3.7917440397644995e+01 -3.9338103283094892e+00 1.1892797524368841e+00 2.4599004568738199e+00 -4.9536439483735859e+02 1.1002583239567896e+01 7.9115318961824608e+00 -3.4719753200557491e+01 8.2884828479604078e+00 -1.3755635222425169e+00 -4.1707853636111497e+02 1.0215680884433320e+01 1.6614801468106686e+00 1.6651702601481134e+01 3.9794704136547532e-01 -2.9574566334995929e+00 6.3143444193973552e+00 -3.5823284039410623e+00 1.0757757673323636e+00 2.7468689252453999e+01 -9.2720781777225199e+00 2.7697000545335371e-01 -2.3347128679470174e+02 1.6590830675906851e+01 -3.2740984231913944e+02 1.8463962695698200e+01 5.0935946978752540e+00 -1.1146234171653926e+01 1.1685579482611532e+01 4.9819087920948556e+02 6.0927334504130670e+01 2.4369948485714112e+01 -3.8129836565843451e+00 -1.1155868699103600e+01 -1.8154025501390134e+02 -2.6927175472494252e+01 -6.9973157101543944e+00 7.5233329064121520e+01 -3.3315519730741583e+00 2.6781971011065426e+00 -8.8099297290624804e+02 1.3007881930067105e+01 -1.4386689702870115e+00 8.1859559146140413e+01 3.9809438380377342e+00 6.0640465067780625e-01 -5.1153982857352274e+00 -1.0154228104745226e+01 -1.8230711797239643e-01 -6.2256765142646252e+01 8.3272660290106870e-01 -1.3912187468871247e+01 1.3244789867629316e+02 4.0265296283063279e+00 -5.2529344890327877e+02 -9.7737856430580425e+00 3.7293517188375107e+00 -1.0454895313770054e+01 -2.0659457788521864e+00 9.3237919894087554e+01 1.0279277927357310e+01 -4.8216263403558477e+00 1.2940295042064371e+00 -6.2218033961527262e+00 2.3334251856208863e+02 -2.6880688203545193e+00 1.2073118061239787e+01 1.6563724970381561e+01 5.6449995915264495e-01 4.8358737216575548e-01 -7.7458968033134704e+02 -7.0988551477237696e+00 9.9937328249960728e+00 2.7777431939727251e+01 -1.4356759393945029e-01 1.6639295788042709e+01 -3.4901091959500059e+00 6.4682542678235109e+00 1.4029084748358400e-01 1.3123688493753434e+01 3.5307165314764366e+00 7.7248274000211845e+00 3.4386132961416564e+01 -3.2684949342024083e+00 -4.6297933506233665e+02 -4.7438855922832729e-01 1.2096401700456227e+00 -2.7360753040240886e+00 -1.7327494998462063e+00 -5.1260982303428170e+02 5.2894392608377430e+01 -1.7618959085822805e+01 1.6005786303617471e+00 -1.7429988678027937e+00 -2.9661487801660354e+02 8.8841289218600732e+00 6.4748170916421488e+00 -1.4314519106669643e+01 2.8341616286239307e-01 3.7095556496818660e-01 -5.6493701389989587e+02 -4.7396604415194501e+00 6.6018893979506066e-01 1.6208415335187212e+00 -4.7643414438247920e+00 1.1704020922280876e+00 1.1707897345565115e+00 2.8122790219293843e+00 8.2762200296318256e-01 9.2600539737204244e+00 -4.2030736387569079e-01 5.8042850444139606e+00 -7.8977820327462126e+01 8.4902090378316042e-01 1.2852852496435260e+03 -7.2608405540159726e-01 -3.5184016667699325e-02 3.2630613374195518e+00 -2.3577311040160374e+00 5.4784434697388342e+01 -3.2067146391768269e+01 -4.6209644679383315e+00 -1.5215167378568428e-01 -1.9571622740382346e+00 -1.0541176128554395e+02 -3.2454700855585972e+00 -1.0487416541184538e+00 -9.0167969820024965e+00 -3.3814334183947565e+00 -3.1977204909344437e-01 -2.9716379809040473e+02 7.8260494304268535e+00 -3.7852245280283263e+00 -1.4166671398065347e+02 -3.4790730700235364e+00 5.6964479425623722e+00 4.0554577774019018e-01 -5.5940857673337803e+00 7.0653080941532620e-01 -5.5090805672210710e+00 3.2741372998375606e+00 -1.8709300140853211e+00 -6.6170512848142408e+01 -2.0605934280929121e+00 -9.9579442577655163e+02 2.1722309253091197e+01 4.1293123337367996e+00 -1.2373124124210559e+00 5.2404593211142336e-01 -4.3823160272690814e+01 -7.9759319520730321e+00 8.4715670413533175e+00 7.4503553487577756e-01 -3.3089620901574466e+00 -6.2839356529413806e+02 -3.2939146034906670e+01 -1.3775543210183216e+00 -6.9828090152099342e+00 3.7090742859288390e+00 8.6770659512190607e-01 1.9487098320162968e+03 -8.9486134809087474e+00 -1.7813428508773019e+00 1.9257956729221073e+02 1.1200811877295274e+00 -3.5782357896335517e+00 -5.8250701094582773e+00 -1.5922274459130374e+01 -1.2938023025758447e+00 -4.5115178186932866e+01 -3.6369017475352940e+00 -1.4528891609839532e+00 4.8411373631168647e+02 7.9495020764939301e+00 9.6600296320444158e+02 5.4773675646679948e+01 3.9173401990955838e+00 -1.6484994022588811e+01 5.9721709707746049e+00 -3.5311238490978371e+02 1.2367290275716300e+02 -2.0880181961066576e+01 -9.4503309087342302e-01 -1.1186578922693851e+01 -6.3216875265061987e+01 -2.1369937289811794e+01 1.9403935023039519e+01 2.9734481581490279e+01 -5.3619039070758863e+00 2.4086643207973419e+00 3.1588799851332988e+02 1.5297969552857042e+01 1.0799494053857437e+01 -3.8049522826553869e+01 -2.1987201610389686e+00 1.2435315333060814e+01 3.8953459252529772e+00 -1.1186241844759252e+01 3.9252616494950852e+00 7.2643866266160009e+00 -6.0746951123058874e+00 9.8561487892660402e+00 -8.5055333017014482e+02 -2.6164624397770542e-01 -5.9763483108951391e+02 -1.6541210408155330e+01 7.6608947686038231e-01 1.6498467204880860e+01 -5.2333752986077648e+00 -1.0441279234548027e+02 -4.1512529605254286e+01 1.5104982158237448e+00 2.2190031117098954e+00 -3.4946769999302774e-01 -6.3377100355464620e+02 5.6791007697295385e+01 -1.7107795958891678e+00 9.6136461329132317e-01 -4.2788416200153137e+00 3.2212997021846967e-01 5.2469198876511200e+02 -9.1766788734531062e+00 1.7174776200044222e+00 -4.5321559252517545e+02 -1.9943641750205927e+00 1.7880854933483334e+00 6.8568891045259534e+02 
      </Row>
      <Row Index="7">
        9.4892121648919991e-01 4.4714991224241345e+00 6.0411936097213637e-01 4.4904670876388075e-01 -2.2537616176758744e+00 2.4350018810599749e-01 -5.4905273082680619e+00 1.6695227321251547e+01 -1.8799609239134089e+01 -1.3460184513271507e+00 1.9398155321274462e+00 8.9827363711758146e-02 -6.2702201090006069e+00 -7.5185356899817037e+00 2.5468526427673117e+00 1.4654879179264699e+00 3.9666072758566895e-01 -1.6933978338548108e+00 -1.4673590444007147e+01 -1.7342563037229091e+00 8.1775892943179507e-01 -1.9289248164108972e+01 2.1690375642620507e+00 -7.2246934315092159e-01 -4.0399805639996160e+01 -1.9515298189700965e+00 -4.0695822273736409e-01 2.4310841861718828e+01 1.6134681035874687e-01 1.2158790476711623e-01 -4.8009239236298096e-01 2.2066375489192276e+00 -8.1092344422548618e-02 -3.0272510503992023e-01 -4.3469057352714713e-01 2.5131729160058180e-01 -3.8890266178986224e+00 9.8081448499114678e+00 -1.5749564085919076e+02 -1.3789145719258287e+00 -1.0066104534077107e+00 -1.1013624244243978e+00 3.8082506180846414e+00 9.2071916405372960e+00 -2.5767638684371370e+00 -8.0070450215769178e+00 -2.3336273799294854e-01 -1.4552598237053944e+00 -4.1686371873107994e+01 5.4004574968362196e-02 -1.5997378344284893e-01 2.4911596305254164e+00 -8.1562937127803226e-01 -2.1011980955463694e-01 2.9751856389254161e+01 -4.0404866081158639e+00 -7.9009082206783154e-01 2.9293486029335593e+01 1.8664817009015269e+00 2.5593708570394105e+00 5.0513681381860787e-01 5.9453631900627735e-01 3.3709802552085166e-02 1.0597742092299094e+00 1.8073423853473010e+00 -2.2116925366029370e+00 1.6633648914610126e+00 -1.5559415753748240e+01 -1.0776299764917110e+02 1.5050476738745999e+00 -4.7906120340732627e-01 1.1115031687934709e+00 4.5814908839055608e+00 5.5628149946564577e+01 -4.7734633347834272e+00 -2.9811545042938121e+00 1.5068573015479969e+00 1.2855418161755288e+00 1.5103991599558846e+00 1.0921999668227387e+00 -1.8317212971636452e+00 7.2458135801108137e+00 3.8322368186946285e+00 1.0191721062358481e+00 2.4826865393185813e+01 -4.0741953203726755e-01 -8.3773391078793846e-01 2.1921832306262843e+01 -6.6394260497865867e+00 5.6570669978829791e-01 -7.0979601793708424e-01 -7.7681533146068027e+00 2.2118798300887701e-01 3.5160387856033326e-01 -8.4494491620827650e-01 -1.0780664185039663e+00 -7.4098579696562350e-01 -6.4872347455300581e+00 1.4536487743660399e+02 1.1116890995706117e+00 9.8049962434766047e-01 -2.8427652887642507e-01 -2.4756096252123299e+00 2.8819871524151948e+00 2.1300778769164195e+00 4.3411337755334163e+00 -7.3146344551093345e-01 1.0805392829490708e+00 4.8825663387206603e+01 1.1830532927802653e+00 2.2855651837779574e+00 2.3561356634811702e+01 1.5030831097063435e+00 1.3712998643757332e-01 -1.4293905114163724e+02 -2.5434061045951095e-01 5.6424995776574594e-01 7.9062450459636707e+01 1.8989649676561680e+00 -1.6617017560393150e+00 4.0234189619461130e-01 -1.8506684223198594e-03 -7.2435421482492046e-01 -8.1216067041214046e-01 -9.0577650920134856e-01 1.3298782867860584e+00 -2.8968218356358522e-01 -1.8978185507528202e+00 -1.1629463830216547e+02 -3.4869546675537250e-01 -3.7086106850809500e-02 -1.2596770064436780e-01 8.1018882322414476e-01 -4.5347587728267449e+00 1.6839145909775766e+00 2.4023373502812770e+00 8.6715842232857471e-02 3.7581292755647111e-01 -1.8436219086154772e+01 -5.6171214274140491e-01 4.7814156365673355e-01 -6.8532666172055900e-01 -1.4397695736165588e+00 6.9330425000146884e-02 2.7424329581206713e+01 1.8778910232535317e+00 5.5239673018702606e-01 2.5434368580851206e+01 1.0326173521406745e+00 -9.7544899358744053e-01 2.4900925751300312e-01 -3.7634751266599487e-01 -1.2394783006290883e-01 -9.1775950052405197e-01 1.2992334042971002e-01 5.2703633329986110e-01 -7.8762896514674896e-01 -1.0660985247530854e+00 -8.4014929126672271e+01 -3.8508985104410798e-01 2.4000687030280687e-01 -1.8903072484292835e-01 2.7798785141852533e-01 -3.9145190100952533e+01 -1.4939275740401774e+00 -6.9252712313584397e-01 -1.0175477265066264e-01 -1.8912983386979504e-01 -1.0983846621974847e-01 2.1275127682684514e-01 -1.0465298213833106e-01 2.4605884438682444e+00 -3.0717102355573311e-01 -1.3501923006879224e-01 1.4743641191221195e+02 -1.5258310048742352e+00 1.7687306831827712e-01 2.7586347803101237e+01 -2.9034586625807945e-01 -1.1235356245094863e-01 2.3266424730141599e-01 3.3319248596438360e+00 -9.2378298506547774e-02 -4.2200952931521180e-01 -1.0695505408866564e+00 -8.0537004414334590e-02 1.2848690240802754e+00 3.0340749041806858e+00 3.6892573393013670e+01 -1.1311728389094469e+00 -2.4177172068612598e-01 -7.9373582863058989e-01 4.2809921638134103e+00 -3.0466981260625374e+00 -2.9307847931054338e+00 -1.9833924872025677e+00 -7.9503426133636534e-01 -1.8326957043544374e-02 9.4095360782846136e+00 1.9494586713105893e+00 6.7988877186909713e-02 -3.1151495430200460e+00 2.2959456305884585e-01 6.3755749615629895e-02 3.0603831433109008e-01 1.5591680981726745e+00 -1.5680453096659519e-01 -2.6391583089617818e+01 1.1121774944329101e+00 1.2947068717977643e+00 1.9907736839868184e-01 -5.2674218984502037e+00 3.9493521720204960e-01 5.2889395878796286e-01 -1.1143156228722708e+00 -2.3203411193473644e+00 -1.5885040842202441e+01 -1.6775499466561814e+00 -7.1170631100993148e+01 -1.0562681124456439e+00 1.4339763430293100e+00 -7.1339963751458046e-01 -5.0428997805735758e+00 1.0880683559126055e+01 -3.1009730250505680e+00 -5.1557526573490158e+00 1.5349417816823447e+00 -8.7144089810532721e-01 -5.0645157050112267e+01 2.1401383875463162e+00 1.2817713918859666e+00 5.1686080327618091e+00 6.3182089476305032e+00 2.8417521976102067e-01 3.3463056143699305e+01 -7.3124724750868779e+00 -1.2379664069970562e+00 1.4231847083890088e+02 -3.0037735546807576e+00 1.7988950603805858e+00 -7.4266303824174407e-01 5.9808240139515663e+00 -9.3745352093370715e-01 2.1929246760016030e-01 2.2116931668320134e+00 6.5184727721574853e-01 2.1286757090073507e+01 6.1979782125612655e+00 4.3002109298844807e+01 6.2460449307187549e-01 5.8878269917832560e-01 -2.1487125318567064e+00 -5.5998195234022532e+00 1.2508944848514577e+02 3.6744008535758304e+00 -6.0136479951935282e+00 -4.2850913033165150e-01 -9.2588349414164120e-02 -3.7733427613629672e+01 -3.8221449508025480e+00 4.0475271469911367e-02 -1.7269331616077361e+00 -5.0078208638299815e+00 3.3492394702132139e-02 -7.2980941667619078e+01 2.1226399676389858e+00 1.2558410959309985e-01 1.2933386134808086e+02 -7.8217188304167884e-01 -1.9364324195267990e-01 -3.4005957172369691e+01 
      </Row>
      <Row Index="8">
        4.5808803283902137e+01 9.6096693872543739e+01 9.9562223761258863e+00 -2.1432846362923107e+02 4.9568455450345780e+01 6.0707428950477407e+01 6.3801904456011221e+02 -1.8799617328113158e+01 1.4208598989646917e+05 2.2625370559064635e+01 -7.8516148129443451e+01 -5.2695287259678992e+01 -1.4286639310322138e+02 1.5090227948934210e+03 -9.7622064809543559e+01 -5.4852744769425456e+01 -9.5351700994005295e+00 1.6976355969663433e+02 -1.1770608203713260e+04 5.3980406095905735e+01 -5.1671197377144402e+01 -3.4242347457546111e+02 6.4932703994682825e+01 4.1098170546909898e+01 -1.7373089091169226e+04 -1.0533793441960569e+01 -4.8310389558319308e+01 -1.9644691735432268e+03 -3.0483373254490239e+01 1.2000284200475676e+01 1.6272311861113458e+01 1.1477903622915521e+02 1.0874484110729313e+01 -5.0587372091192583e+02 9.5695555343739827e+00 -3.8666218498872709e+01 -6.8608152337755701e+02 3.0315536893669275e+01 5.3015752915711433e+04 7.3059825379430919e+01 -4.5195336577384296e+01 1.8623126373574166e+01 1.0211415213967653e+02 1.6642716798911893e+03 2.5101207571272192e+02 1.4449130480662229e+03 -4.1911760988178457e+01 1.3841405482288610e+02 -6.8013043686516221e+02 5.9461294805231148e+01 5.0358755925746777e+01 -1.4268422626516860e+02 1.4109065083136096e+02 3.9922648248126393e+01 -1.4764869361868006e+04 -2.3630987677651717e+01 1.6328146786544423e+01 -1.1000671873358910e+03 6.0366617320256296e+01 -7.5034752389534134e+01 -1.2934837148379231e+02 -1.4670482108877422e+02 1.2550774142748132e+01 7.2556878184226059e+02 -7.3499374003202675e+01 -1.4154612022406116e+02 -1.0159488845226163e+03 -9.6259683151390504e+01 -1.5470021219426906e+05 2.5400288160399327e+01 3.9976976432009224e+00 -1.1725356157378411e+02 1.3123381724875466e+02 4.9942699717232463e+03 9.4782974058743639e+02 6.2665763574118529e+01 8.9712050485894366e+01 -3.4807074677341745e+02 1.3909213194448856e+04 -7.1662896648706237e+01 7.8361721834845085e+01 6.1221459337458566e+02 5.0481517407095751e+01 -1.1965390367595320e+02 -7.5814060335053364e+03 4.0189391006359358e+01 2.9491857059401298e+01 1.6595796982059439e+03 -1.3891453775496984e+02 -6.5614589040014494e+01 -4.2087728134533450e+01 -3.1780010490027678e+02 2.6938882276629663e+01 -8.9083044431814062e+02 2.8984563933011964e+00 -1.0989781357126935e+02 -1.3390109544520897e+02 -4.9510960294680871e+01 7.3172877795146531e+04 5.3214405609754806e+01 4.4762900022326107e+01 -6.1034482198393135e+01 8.1580494796833392e+01 4.3295026132766188e+03 -7.0306192000500417e+01 -2.4809015294966008e+02 -4.1511287826882452e+01 -5.0749997485223446e+00 -1.2367869740091821e+04 4.8827228652148371e+01 -9.0047011327505402e+00 -3.0940006879344423e+02 -4.2024513637360741e+01 1.0949455133291504e+01 -5.2272405586017285e+03 -1.0230765212054769e+02 1.6296320940208204e+01 -6.1732471353371920e+02 2.6903782346855337e+01 1.4983956040741617e+02 4.3528467734623684e+00 8.8221433668105036e+01 4.4489631729229586e+00 -1.6500542907882482e+02 1.6185509600611311e+01 4.5117086383547623e+01 -7.3920228043888392e+02 4.3320571277422957e+00 1.3659581643258824e+05 3.7530923151922558e+01 2.1476890687484602e+01 -5.4440679196090684e+00 7.8336084855773976e+01 -3.2191531736729339e+03 2.1754344334906995e+02 1.5181440195006942e+01 -5.1239181323546511e+01 5.7095172854432661e+01 -1.2722430605156882e+04 3.4942425823943914e+01 2.0633593895016453e+01 -3.1992342478966191e+02 -2.6562333939255282e+01 -7.6586111149591325e+00 1.2865749835441129e+04 -6.6212692211752397e+01 -2.0951303504285860e+01 -2.7559204764378896e+03 7.9910629833060618e+00 1.3594136567506621e+02 2.5202404463434265e+00 -1.1929995980683607e+02 -7.3575267409663612e+00 -3.1519612760565315e+02 -1.2133807333201291e+01 -1.0342961311383760e+01 1.5321009822814528e+02 3.7318628554492399e+01 -1.8627168609536762e+04 -4.6620978712117768e+01 -5.2995220429147594e+01 2.5381200014930425e+01 1.9784152449574179e+01 -7.0478487504257680e+02 -1.4202212979084189e+02 -1.4290092426308135e+02 1.6302296151960036e+01 -2.1548968973432565e+01 -5.6536878389887288e+03 6.0075229729478750e+00 7.3972469762715996e+00 -1.5005130513023477e+02 -3.2932022502708293e+01 6.2514739884063601e+00 3.8037480988552983e+04 9.7642405173839482e+00 -3.5165911818796445e+01 2.7351550019923420e+03 -2.2668908545474682e+01 -8.2311000637244433e+01 -9.8405254874304831e+00 -2.3380626166424918e+02 1.8077502298541958e+01 -1.7394407882535182e+02 3.4746844980565200e+01 -8.3062348538632889e+01 -3.1192287972044312e+02 -8.6800859617953847e+00 3.2018636678622253e+04 9.8579856926578643e+01 2.3601679499931375e+01 5.9827131022933017e+01 2.9172901951856636e+02 6.5401536374525483e+02 3.6179076927946312e+00 2.8117334406775967e+02 4.2735755466762271e+00 -2.3457777350457249e+01 2.2210521423417464e+02 1.2293557738465324e+02 -3.8424598080968759e+00 7.0243184073472094e+01 -5.2720185859005369e+01 -2.1593850776041180e+01 5.6118477265462279e+03 -5.7778487135812313e+01 6.1542040685437804e+00 -2.4918272392738594e+01 1.2236975664733322e+01 1.4738290467946962e+02 -1.0199866518126585e+02 -8.6109387422569625e+01 4.6703042628846710e+01 -1.2418210742658537e+03 -3.4314896120662866e+01 -1.7133523243821207e+02 -3.7174108833206942e+03 -9.8478721906091167e+01 -4.7175204347990599e+04 1.9946636037959382e+02 -7.1493419017171732e+01 -1.2542095285102479e+02 -7.7243293747855986e+01 2.9262473193903784e+03 1.1095125695199047e+03 1.5668877389449124e+03 -3.2859978128045917e+01 -6.0506154048501912e+00 -2.0949167635148573e+04 1.5912327034725197e+02 3.7604391006796561e+01 -3.7124725787503502e+02 2.5577132457720413e+02 -4.8376940307123277e+01 6.5967912512136973e+03 -2.4692410632485036e+01 3.5407257158785683e+01 -3.8348852720491859e+03 -9.1472112743434565e+01 1.8153918681269880e+02 1.7598186455952003e+01 -1.7685010079190408e+02 1.8663837841283062e+01 3.8424768816450796e+02 -6.0344134833840684e+01 5.7399066591977686e+01 5.8346617990415507e+03 1.4625096773053874e+01 4.0136497591739717e+04 -2.6139938641828905e+01 2.0197217122016763e+01 1.2336945368349404e+02 -2.5199942314303183e+02 -3.7790872598192382e+03 -3.0200711367336271e+02 3.1665046025429137e+02 -3.7161696713712885e+01 -1.0083102432410413e+00 2.3259529450535429e+03 -9.2197452032202875e+01 -2.0129956862932787e+01 3.4710562795052695e+01 -1.3618171411909276e+02 -7.6101618510498348e+00 2.8472855472340361e+03 -3.0407073503072638e+01 -1.6109925720243652e+01 -2.3066576648568739e+03 -3.1673437032426250e+01 -4.0001527495845835e+01 -4.7491240924448735e+04 
      </Row>
      <Row Index="9">
        -3.2925451382207804e-01 -4.9645214842870491e+00 1.9206320401735666e-01 -7.5723225694353857e-01 2.3296604825990674e+00 -6.3723459096819601e-01 2.9261357203214885e+01 -1.3460184233416848e+00 2.2625372354395182e+01 6.1035862716195680e+01 -4.0296040160265747e+00 3.0860475808125631e-01 1.4367565304684486e+00 -8.1959627632536296e+01 -2.3975310910052428e+01 -1.4884281238888271e+01 -1.0644904579906809e+00 -7.2625353342302192e+00 3.6003981375769591e+01 3.2358983501990397e+00 -9.2813828142471866e-01 -2.8004854432886646e+00 -8.5617342154796479e+00 1.1472860579365203e+00 -3.2870750564475213e+02 -7.1623006998222327e-01 -2.1293553369709985e+00 -5.5787853340192719e+01 -2.4856742788990087e+00 -2.6418477174722348e+00 1.5384580506064329e+00 -2.2377565399304316e+00 -6.0435860612206582e-01 1.4839433691144457e+00 -1.7765234277202202e+00 -5.3596547333823512e+00 2.1167389024238378e+01 -9.5459297013355693e-01 1.7038652636128796e+02 2.3766839915774916e+00 -2.6270660378108985e+00 6.1067718818773975e-01 5.9832882970732648e-01 -2.4813420655100046e+01 5.7093642921125447e+00 -1.2389040768314035e+00 -1.4551947843829977e-01 1.5489926025417757e+00 -7.1052347935805287e+01 -4.5838966310487866e-01 -2.0049473794674486e+00 7.6762262260774596e+00 6.0644225965531517e-01 3.1470889766567089e-02 -1.3759828591794940e+02 -2.2183824813971564e-01 -8.0210977949796469e-01 -1.3356226542371815e+01 -3.6446940752726453e-01 2.5076755364412229e-01 -6.3035876509476463e-01 3.9995781817582809e+00 -9.4079005887893574e-01 -4.4229399553932378e+00 -2.0674030915913693e+00 -1.5650028304405428e-01 6.8210127380647485e+00 3.2938084854745044e+00 9.4445593422837305e+01 -2.5642863791522664e+01 5.8592925453911011e+00 2.6606837229115428e+00 -1.4487657043075313e+00 1.3548948009880633e+02 -1.9028554180313513e+01 -3.7722215984109013e+00 5.2666328715418320e-01 5.0466714233871712e-01 -1.1572302968710011e+02 -3.2173292434960850e+00 1.4415808152405853e+00 1.3621232952185178e+01 6.4205832884997918e+00 -3.5552888771460056e-01 -3.8862284435080625e+01 1.2689645763613375e+00 4.3946139416192800e+00 5.3548631109027099e+01 2.1657663311303201e+00 -3.4105599469284336e+00 3.3981298038360308e-02 -1.4914333526253550e+01 -4.8777751730410324e-01 1.1924166127385062e+01 -4.1291857457500680e-01 -4.0183533680534129e+00 1.1300547428422203e+01 2.4254528980575905e+00 1.3180110264567884e+02 -1.1289405778713409e+01 1.7347068443999638e+00 -1.8504041629437500e+00 -4.8776707023034858e+00 6.1298910738969340e+01 3.1998949838671287e+00 2.9342572847788206e+00 7.9908697047961752e-01 4.1205672305014041e-01 1.5042718011131444e+02 4.8202375859976438e+00 4.2572610296215103e+00 -1.4146241215058978e+01 4.3486941248512077e+00 -2.2773574332525381e-01 -1.7499982270464275e+02 -2.1336372202974347e+00 -1.0471846785320218e+00 6.2483246040214752e+01 4.7091687293378826e-01 -1.8931055097239389e+00 -1.6766567523264613e+00 -2.8764684569455485e+00 7.4601103137894142e-01 -4.5778339761818643e-01 1.0843143477781370e+00 -6.9246217746120442e-01 -4.2394358114772004e+00 -1.0391913877376917e+00 -1.4181351042008399e+02 5.9938070877376664e+00 -1.0695852697186021e+00 4.3491946303110129e-01 -2.3704832021102143e-01 -9.0518708187159660e+01 1.2749351751600381e+01 2.7795509493449004e+00 1.8824643076655722e-02 7.2361911908247070e+00 3.2238248315896122e+01 2.4331858683431024e-01 -1.4131174905757962e+00 -1.5346792560103102e+01 -6.5239671687030210e-02 -3.7233753065093900e-01 -2.3160359029205659e+02 -1.6392729846640794e+00 -1.0358685695118828e+00 -1.8380464721883868e+01 -2.8632283379432721e-01 -1.9591340796036540e+00 -1.4262210347193216e+00 1.0584814136358409e+00 2.0013920226028430e-02 8.7442547663346648e-01 -3.6580715375558603e-01 3.2206762744839743e+00 -2.5930400128765523e+01 -3.3638678371065117e-01 2.2796929969479258e+01 9.4069219318047406e+00 -4.1029698733200348e-01 -6.1104993422933873e-01 -4.8351903043724942e-01 2.8933780131616146e+01 2.0174573599488954e+00 -5.4683547824675049e-01 1.1048885286550103e-01 -2.2523994245956898e+00 4.7988269534359326e+01 3.1552807334209515e-01 3.2473851570814294e-01 2.3681107978900537e+00 1.9315593112458229e-01 -5.7952982770075323e-03 -3.0073488434363185e+01 3.7662488671696071e-01 2.0945183813360024e-01 -1.4045650660646132e+01 -8.8473974122165885e-02 -1.1051835725502315e+00 -4.4734866640718712e-02 -5.2882777104945689e+00 -2.0220846196219466e-01 1.8984848573181816e+00 1.4611526569675795e+00 2.3504510264367058e+00 3.6820353607657963e+00 -9.0666276042993443e-01 3.4757305842685774e+01 1.5987678533893263e+01 1.5169710150997087e+00 -5.0147912535035655e-01 3.9905983853436355e-01 4.0450902557579731e+01 -6.0705848425672100e+00 -3.5456671538601023e+00 6.8095554584129303e-02 -3.9726761193222271e+00 -3.9061837262140457e+01 1.0244957005819857e+00 2.2916967373480929e-01 4.0086098140161841e-01 1.0283307118653728e+00 -2.0551546282610092e-01 9.6855332962353714e+01 -2.1752228337828639e+00 -3.1264424363291743e-01 4.6428013712858380e+01 -5.6241605216266022e-01 -3.8727937096519671e-01 5.9748393052652626e-01 -1.3489272899656278e+01 -1.2159884832651102e+00 1.1586853547698178e+01 -2.0306017966633076e+00 -1.2002821951372175e+01 6.7147954724988523e+01 3.4394979460010378e+00 3.5237224306244650e+02 3.7711830994775767e+01 -1.2002723070623891e+00 -7.6968812613063875e-01 -5.0089235786257076e+00 -1.0926741582301398e+02 -1.7755675428465661e+01 -1.5083373638934340e+01 5.7480343073409657e-02 -3.0235625138340509e+00 6.5680677377894185e+01 4.7688148708736824e+00 2.7600734988495983e+00 -9.0617797602070542e+00 1.5016226553866523e+00 1.7777044823315635e-01 -2.3589126194876519e+02 -8.6603238186528897e-01 -8.9828171970139081e-01 6.1451333198624823e+01 -1.1719883207488779e-01 -5.4002142815728646e+00 2.6291102811919758e+00 -3.3485613865739055e+00 -2.1552851267159812e-01 2.0825364605842545e-01 -3.8276561972591070e+00 1.5752651046808819e-01 -1.3821381624154102e+02 1.7880236519052239e-01 -2.3105659205427509e+02 -2.1865417188549095e+01 1.6919593662655985e-01 1.1759677557530575e+00 -2.6998236101858408e-01 -4.4057549755149999e+01 -1.5362317517451732e+01 -2.2154346700368484e+00 4.8809599609412668e-01 -1.8808720221054087e+00 -1.0618643344707311e+02 2.2477512061781795e+00 5.6258181307646349e-01 -7.2590034376377144e-01 3.0505198477482267e+00 -1.3935606909235154e-01 1.0683675456044148e+02 -9.4447554394544397e-01 1.6875337826192325e+00 -1.0232519828336885e+02 -1.4127025733279819e-01 1.5258983918431657e-01 2.0325300199243301e+02 
      </Row>
      <Row Index="10">
        -4.6276461439769578e-01 2.3473494938336179e+00 -5.4458807162233713e-01 6.2110897463668202e-01 1.1789302994673221e+00 -6.9168923501090818e-01 2.6791222722617469e-01 1.9398155405921473e+00 -7.8516152400860392e+01 -4.0296040073930710e+00 1.6701620105373205e+01 3.0696479173969538e-01 6.4610787838735884e-01 -4.8458479348297274e+00 -3.0345295854803682e+00 3.6742325801308340e-01 5.2249065630861957e-01 2.0020341826154757e+00 1.3212877077871386e+01 -1.7422966797787804e+00 1.6730936717171021e+00 -1.5520477326238378e+01 -9.0454337410427210e-01 9.8064788967993644e-02 -6.6283533186248377e+01 -2.0343134517654811e+00 -1.3892215703107269e+00 2.5298348841254747e+01 -1.2190003681946497e+00 6.4527651340049874e-01 8.2014698056036839e-02 1.3273915915866077e+00 -5.6218337070822622e-01 -6.3748981590687759e-01 7.4217820954491631e-01 2.0804305434409680e+00 -2.5713211013062129e+00 4.2887409984957253e-01 2.0066608340421482e+01 -1.0795818849744849e+00 2.6299197733940769e+00 -2.3895310103756617e-01 -6.4598955631804045e-01 -2.9046452929389899e+00 -2.1304862962085114e-01 -6.3199965587379259e+00 9.0918315617304635e-01 -2.0463139353171957e+00 4.4112506896990496e+01 -1.5930523152794240e-01 1.5747373688082533e+00 -7.9262432647530578e-01 3.0154842188117592e-01 6.3157795031350461e-01 -4.1390218474698486e+00 -2.3882896000539100e+00 -5.3423168793573639e-01 2.4647036902489251e+01 -3.4634587790630809e+00 2.3160959382232864e+00 1.1097184696024298e+00 1.0687608044789707e+00 1.8855335812939811e+00 1.0167926053418155e+00 -1.8983778640893429e+00 -1.1632425907046762e-01 -1.0342528001272400e+00 -3.2064546041314816e+00 1.3881659596896270e+01 4.7451539228995614e+00 -1.8770031338902999e+01 -8.6578527017987739e-02 3.8723011573471289e-01 6.1413502147493070e+01 1.8746462618269241e+01 2.0902393606891172e+00 -1.5467833889711025e+00 2.2742219443655265e-01 -2.1986094689571175e+01 3.2650429026851491e-01 -1.6760148698569082e+00 1.8391528592849014e+00 3.6397717194161183e-01 -7.3789395948203240e-01 2.5591708881712236e+00 -2.9087113729614167e+00 2.6433421092290477e-01 -2.7490802232081251e+00 8.5927085306309188e+00 -9.5847997432337984e-01 1.2090804017598539e-01 3.7436163340977480e+00 -9.4395864517315775e-01 -8.4586686649935938e+00 1.0484404360098329e+00 -1.0177210468669851e-01 1.0767983923003452e+00 -2.9622706277016025e-01 1.2614063870895870e+02 2.4982707933396828e-01 2.6917048320771588e+00 1.2934214166372584e+00 -2.9725682051053210e+00 2.0322194496610589e+01 -2.5222879871792281e+00 2.4204262914304051e+00 1.1767422765571842e+00 3.5169093830686804e-01 -3.4682121242840253e+01 -1.1028840876155876e-01 -9.5790374990814930e-01 8.6824661030827741e+00 2.0152758403177891e+00 1.0896854743234267e-01 7.9382003949104302e+01 2.0712127921264285e+00 2.2157681348403047e-01 9.8146429138058167e+01 1.7254339450461220e+00 -1.8832488673270422e+00 -7.7682431221768466e-01 -1.6151497107255810e+00 -1.4138223182290659e+00 1.4647374624746590e-01 2.4501467877745314e-01 7.1900033497520344e-01 2.2353900067875010e-01 8.3031270721758887e-01 -1.4366028570731979e+02 -1.3288134114432240e+00 1.9466009739800039e+00 5.8650321052522625e-01 -8.9777527781930100e-02 -4.8900805759357169e+01 -6.8869782377337585e-01 -1.3288569855876547e-01 7.1351568730087100e-01 -1.5430259713873991e+00 4.7975929171284669e+01 -3.1547183210037161e-01 1.7224712600202021e+00 1.8964227586216573e+00 5.3366502377469249e-01 -1.6654464676225389e-02 -1.1962381361314613e+01 3.6182467163435863e+00 2.5133359957275081e-01 7.0880962760827622e+00 -5.8563500835181570e-01 -3.0420338636090549e-01 -2.0012365672486801e-01 5.7505811267650997e-01 3.3381984917387653e-01 -2.8173808408152967e-01 -2.3659733942449945e-01 6.1793274039806589e-01 4.5539821623378884e+00 -5.2330657057471153e-01 -8.0389886606139811e+00 -7.3953949373916195e-01 -2.1320167265241707e+00 -6.2232145609890460e-02 1.6583580172606083e-03 3.5522417867812592e+01 7.6988876959839092e-01 -5.1200967706954181e-01 -3.6825683820700306e-01 4.6093645988201326e-01 -1.3336245157822161e+01 2.7260968682593228e-01 3.5929836027362139e-01 2.3893431173949131e-01 8.5778319728129659e-02 1.0416081449329795e-01 -5.0672948873838834e+01 -2.2048724179896073e+00 2.2364899433019503e-02 3.5105959320672220e-01 -5.3082356100473405e-03 -6.1625054202818319e-01 1.0234553087639038e-01 9.1313981991857673e-01 6.9945003941818773e-01 -1.6390420363268388e-01 -3.0473464224807789e-02 -3.8145683525380258e-01 2.7171432091759815e+00 -2.6688117320751603e-01 3.1266701461761961e+01 -1.0062187208096971e+00 2.5655246643939185e+00 9.9580950691166431e-02 7.3188476217983578e-01 3.4360286918807759e+01 2.2393138592585173e+00 -2.1263116912129854e+00 -1.4103469196642560e-01 1.2650523207336164e+00 3.1609544574283451e+01 6.2672685869256040e-01 -4.5222557219737614e-02 -4.6830017648666402e+00 1.5127209310927536e-01 -2.5644616884348204e-01 8.0024577757925726e+01 1.5982613124866114e+00 -4.8240073958181739e-01 9.4793942631447941e+00 -8.3876272656983042e-01 4.8246020955175273e-01 4.5030020384894331e-01 5.3338729465202537e+00 -1.2451734626772806e+00 -8.4132504206607948e+00 9.3235997496367373e-01 1.5654931384042619e+00 5.2619779346035678e-02 -5.3727427538564010e-01 1.1455703232701747e+02 -1.2255967749574828e+00 1.3676036238806433e+00 1.1561855759449950e+00 -2.7366120622211652e+00 -4.4604114910744102e+01 1.0998300091730448e+01 -3.0678800462584430e+00 1.3296313215528017e+00 5.1847295431032148e-01 -1.1698637355771357e+01 -4.3116914341276080e-01 1.9107372161532332e-01 -1.0928328609240747e+01 1.7512412957978229e+00 -1.5924999763631931e-01 4.9104023732373776e+01 -6.3823169143638196e+00 -1.1631513114731011e+00 1.3109446764268074e+02 5.7927342931187109e+00 8.3701191534372832e-02 8.4896463100706865e-01 8.2347485558601508e-01 8.1668406523351622e-01 1.2773375197302528e+00 2.9847781897026615e-01 -4.8609333518566877e-01 2.2725527993120274e+01 1.0257312270647305e-01 -7.3763380818207736e+01 1.3519559938372807e+00 2.4371121149182478e+00 -2.5359743884100594e-01 -3.4171341178997405e-01 -2.4515773883216500e+01 -5.0357161652172415e+00 -1.7351562075847156e+00 1.6354078933514149e-02 4.5875291224410053e-01 4.8266549226808678e+01 -1.9055481076834897e+00 -6.1908898578776750e-01 -8.6583805869906083e-01 1.6719503053814506e+00 -4.8979729166822174e-02 -2.9388608201697926e+00 2.5002423354528558e+00 1.9491475068020505e+00 1.3773069920256408e+01 6.0222176506922587e-01 -2.2451082703639003e-01 6.8923739066774743e+01 
      </Row>
      <Row Index="11">
        -2.9562963969196304e-01 -6.1085299215176991e-01 1.5573503593960170e-01 -8.9465179151810914e-01 6.2241320755874119e-01 -1.3476389280644021e+00 -2.1108721826009473e+00 8.9827351324368004e-02 -5.2695291238650441e+01 3.0860479823041564e-01 3.0696478815277550e-01 6.8238846895972056e+00 6.5628058284345370e-02 -1.0323290508055791e+00 -1.2411890741082798e-01 3.4864197443328364e+00 2.4664102349315509e-01 7.9620716697338079e-01 5.8366325914520401e+00 -1.8116048535097840e-01 7.3701746558970394e-01 -6.9871345524413542e+00 5.2799795198976573e-01 -2.7741834021498502e-01 9.9411998111198329e+01 6.3047469961751235e-01 -4.2047266483289145e-02 -7.5041983711153879e+00 1.0436305977667554e-01 -1.6368436793435113e+00 3.3944762436673587e-01 -1.3408215125305050e+00 -1.5540228919630750e-02 -1.7437783946029402e+00 6.8157681903182632e-01 1.3943291453474673e+00 -2.1555846197390016e+00 -1.5688959147085652e-01 -3.1101700414717740e+01 -2.6218611363412503e+00 3.8256850943242937e-03 2.4334881799307690e+00 4.8759122956496581e-01 7.6290043657133833e+00 -2.1370407439403602e-01 -1.6501055994798880e-01 -1.0375716895203696e-01 3.4518346029973359e+00 -1.1781953599415453e+00 1.1757223771156533e+00 9.6198775477798648e-01 2.9751329475730648e+00 1.1117116746106683e+00 -2.4655611239628569e-01 4.3830267426281353e+01 -4.5130957333371002e-01 -9.9471211428060896e-02 -1.5608191387407764e+01 1.4263977894825943e+00 -1.7553960460628515e+00 1.6860540413235334e+00 -1.1365743352479500e+00 -1.7588125218124762e-01 3.9279451435213888e+00 -1.4664388229660350e+00 -2.0660491422445162e+00 -2.7280683571009545e+00 -1.3231553825932458e+00 3.0433375086331853e+02 6.7969917069986607e+00 -8.9948652282145947e-01 -5.7442643714099750e+00 1.9974425300955190e+00 5.6359818310482268e+00 4.0585582338677835e+00 4.0065651613600650e-02 1.3704848465791535e+00 -6.8404766945760915e+00 7.8720505638343354e+00 -4.6964016751197324e-01 -8.4766718232677130e-01 -8.0282845778178107e+00 -1.5379481980473961e+00 1.2582843259063470e+00 -4.0372800290167291e+01 -3.8883845931812133e-01 -1.2154016767014757e+00 -1.5471869556098863e+01 -2.4802163101950097e+00 1.7341929924846389e+00 2.1271973418502618e-01 3.0419512047488930e+00 -4.1160665398929552e-01 -3.2013089867513642e+00 7.3929189333555953e-02 9.8211999300369368e-01 1.1221477877670836e+00 -3.7997674656598684e-01 -1.7737111957039218e+01 -1.0119673487454368e+00 -3.0432535490784907e-01 -2.2776918546991415e-01 1.1226612785529494e-01 2.1440283940391819e-01 -9.8945441787002242e-01 -1.8178346203593727e+00 2.2571799538485765e-01 -4.8653154823391775e-01 -8.8504586191755106e+00 -1.2520050445418771e+00 -4.0916150174957266e-01 6.3290147343276697e+00 7.9492382080744739e-01 -1.2763155640515939e-01 -1.1142155278723779e+02 -8.4296100981473943e-02 2.0239475093406456e-02 -1.2552754432671620e+01 1.1694088036480639e+00 -5.8464076303859369e-01 -4.3702407797928772e-01 -9.0405188237923539e-01 -3.3280412490115907e-01 8.2832492562465632e-01 3.1749311483210330e-01 1.4145144500579657e-01 2.2238514905415849e+00 8.1043921472381736e-02 9.8269633136911789e+00 -7.3850126581596032e-01 -1.0759338373810143e-01 2.0282442312944120e+00 -1.0728604462721074e-01 -1.1363514894603815e+01 -1.0479214280632392e+00 -1.3264675219425870e+00 -4.3635479536493660e-01 2.4150137725451639e+00 -5.9729626103834157e+00 -4.7896533626794857e-02 5.1931869478442738e-01 1.0226821348552304e+00 3.8769562727558571e-01 -2.3423036870854469e-01 4.2327194220864079e+01 -1.9503465342766543e-01 5.2444902180607350e-02 2.8803728451944410e+00 7.4097792055033385e-01 -1.7615132136719660e+00 -1.7055416651916949e-01 -1.4960903425735692e-01 -5.9853229568917017e-03 6.5080297344162408e-01 3.2753120457295171e-02 5.2437797776261064e-01 2.9642916772680157e+00 1.5401097872945960e-01 -4.1818095116610600e+01 2.0960996705484036e-01 -2.7900888293447679e-01 2.5302872529994808e-01 6.6761409620148315e-02 3.3045262647306477e+00 -1.2439948466652790e+00 2.6915929651880421e-01 -2.4081329152238595e-02 -4.0836016345128318e-01 6.0454468556395780e+00 -1.3837322674064527e+00 2.7011715432416157e-02 1.7339204640056052e+00 -2.0813422287851835e-01 -2.5312187043255108e-02 9.5918209808348507e+01 3.8526356378216076e-01 -1.4012449721805320e-02 -7.1249055118937950e+00 -1.3307254226101961e-01 9.5956203596006162e-01 4.6233203525488334e-02 -1.7838190700253627e+00 -9.4779693855754132e-02 1.0213267345127592e+00 7.4081740707960808e-02 1.3961506978293328e-01 -1.2636485303542653e+00 -5.9992636514766134e-02 -1.1767423306813001e+02 -7.0981869905830641e-01 -1.8524254687303435e-01 -1.5641166175294630e+00 5.0266417796339824e-01 4.9741315683866176e+00 7.8522194303134452e-02 1.0986202181423019e+00 2.1650366450779057e-01 -3.6144084903509111e-01 -1.0316339726877292e+01 -2.5412416092751622e+00 3.4942069389771624e-02 -1.3565903109403723e+00 6.9370576318625288e-01 -4.9640177534135514e-03 2.1415549044490035e+01 -9.6916838216740825e-02 -1.5216760572563187e-01 5.8414873727826579e+00 3.5124688485358657e-01 1.3679615958501783e+00 1.6809195684500375e+00 2.8608582974294432e+00 -4.5380387750102624e-01 -2.2797295916761984e+00 4.1970439011305649e-02 -8.9936040986931909e-01 -7.5028041666726519e+00 -1.3858392209206780e+00 1.1005066007604108e+02 2.3608643434263117e+00 -7.4724327084833808e-01 1.7666867475610313e+00 1.5773258587591983e+00 1.5144756653678822e+01 1.3905037912465037e+00 3.0579487983056231e-01 1.1475099197151208e+00 -1.9211170883655968e+00 3.5104146749896401e+00 -6.8068855974746558e+00 4.5247964783089945e-01 -4.8464373240938059e+00 3.8726492378778476e-01 4.4262059439447243e-01 7.6941450279033461e+00 8.3100228952942334e-02 -1.0388890009237546e+00 -6.0580528127924651e+01 3.4043269420492073e-02 -1.7005303572261217e+00 3.3928982158704318e-01 -1.9152762978952564e+00 -7.0196711682446356e-01 1.0559808903956708e-01 -6.8386046922348523e-02 -1.1355339636874713e+00 2.1784359304697617e+01 -1.0919476494552202e-01 -7.3265900876460165e+01 -7.6309775801284552e-01 1.2299983126444647e-02 1.2000989331391589e+00 -9.7546643306345970e-01 -5.0563358647030917e+01 -7.5936452399637111e-01 1.9380474285497256e+00 -1.0377147661333557e+00 -4.0589088455741995e-01 -1.1090185236979728e+01 1.6437783416848486e+00 -3.0631198109700342e-01 -4.0720979072119456e-01 -6.8810461242296572e-01 -4.6019413859516023e-03 -8.2059547600140714e-01 -1.8530896516139306e-01 -1.4300546220132104e-02 -6.5486174547431403e+01 -3.1606425933076610e-01 -3.6400670999391593e-02 5.6653896787977658e+01 
      </Row>
      <Row Index="12">
